-1.312757805330171113e-01
8.551436040646114012e-02
-3.050246114768896954e-01
-3.953043133971242407e-01
5.813799311040778184e-01
-2.508387461406413887e-01
-8.001559208143883828e-02
-2.566746113380897754e-01
4.764144652067474062e-01
1.747107341674523362e-01
8.993290644901444364e-02
3.033448934106322548e-01
-1.890774048193406554e-01
1.458286814721158342e-01
3.559918821326940042e-01
-7.784287271987289092e-01
-1.137792493290648715e-01
-1.096152476853209379e-01
4.559259081095096700e-01
5.567214284197926494e-02
-8.070553272812643897e-01
1.016335106292928919e-01
-1.642489210128141031e-02
5.489781984429878969e-01
-4.134706875913467944e-02
5.832349082633644377e-01
-5.493515251205392802e-02
1.674271958906938251e-01
-2.624955356841395804e-01
3.587951558006204078e-02
1.997559107944552048e-02
-3.659148396591898056e-01
-1.780553835834657386e-02
-6.358901944718905463e-01
-3.278826570844808330e-01
-5.552021678979935509e-03
1.000000000000000000e+00
3.401286681453175587e-01
3.486749031641473984e-01
3.461123310175709400e-01
2.364033056697781854e-01
5.520976787507098082e-01
-2.254167183535440988e-01
5.271714552058515829e-02
-1.872339746274344907e-01
-2.232575537263463139e-01
5.230760219515364629e-01
-7.305136707802363516e-02
4.360064090395556757e-01
3.087166315957756701e-01
3.375982792672872490e-01
2.091107341573973655e-01
-1.000000000000000000e+00
-1.582610741371889840e-02
6.834992711201489657e-01
4.347307687656884467e-01
-8.091642800119712431e-02
-2.940368092647541731e-01
-4.394786206220576141e-01
5.505817912249948431e-01
1.029571786783428783e-01
-7.556633180717316212e-02
-5.067130707327009986e-01
-8.689049030927149808e-02
5.036268480753444687e-02
4.747903269734892184e-01
-6.298561415354560211e-02
2.405325714667189974e-01
1.246875758744789564e-01
2.361472507418141409e-01
6.318497500144815149e-02
-8.144619473899390727e-02
6.406748876805781201e-01
-5.224145424184477582e-01
-3.003434377249806775e-01
-2.097399336192894426e-01
1.824651802595602668e-01
-6.108902631870444244e-01
1.528567665883626414e-01
-4.943529215690853906e-01
-8.290165727030176027e-03
-4.901873577296285422e-02
2.710544241771163376e-01
-2.127405997655509029e-01
2.389464083209058842e-01
1.025576518034767431e-01
-4.859720473384516737e-01
1.933931506351727406e-02
1.252951134079476891e-01
1.541967691401470164e-01
1.349720894481361011e-01
-1.483712030008914329e-01
-7.177346005593904232e-02
-5.827377001769687599e-03
3.123678127055605578e-03
-2.093305205765519095e-01
4.716920864267919872e-02
1.930860220034751051e-01
6.508756157539652420e-02
-1.628221047705000479e-01
-2.338747432839026821e-02
3.083866597744487278e-02
1.831030356521828606e-01
-9.997323420104684000e-02
-4.008567801735957725e-01
1.336909174007491485e-01
-4.957434635305781878e-01
-3.556375724751267842e-01
3.050984302244013069e-01
1.911726306741905190e-01
1.127039284235147043e-01
-3.810594136823153844e-01
-1.524863324528743375e-02
-2.331372422334546390e-01
5.486555032985668268e-01
2.749974728699713933e-01
-4.674789617433856570e-01
4.300642221728710746e-02
-3.243193482476018352e-01
-7.710423151333499758e-01
4.726094670333876868e-01
-1.104790331024831651e-01
-3.790234976555081903e-01
5.722442155134001979e-02
-3.273373961027289947e-01
-3.140153901535637226e-01
5.085409468887172046e-01
1.140903103601487723e-01
-9.729750004798445873e-02
-1.090713761662462644e-01
7.708721605153209810e-02
-1.493855286732964083e-01
2.401526325226458203e-01
9.708171717515909349e-02
3.361049219133918631e-01
-4.918324292349596227e-01
1.825245361974538183e-01
3.718139226663988439e-01
2.250342496236796830e-01
3.314345163851403764e-01
3.319904887313602226e-01
-3.616728933858396888e-01
2.698314819805134324e-01
3.487564890213814550e-01
1.295588302770620814e-01
-3.557036906324714115e-02
-1.256790298064499878e-01
-6.813076989239608139e-01
8.315713715046099686e-02
-3.270232280098653299e-01
5.157920275821171741e-01
1.409945894229714392e-01
-5.599603992961266208e-01
2.844118665414486213e-01
1.188457974446494037e-01
-2.560990733383223250e-01
2.066734516147206990e-01
1.777812180908451001e-01
-3.748586101724720177e-01
3.602649453614820141e-01
-3.153017364679275986e-02
4.048316443073282644e-01
2.352071953176838037e-01
-6.152671784043060692e-03
-2.448246424967068791e-01
2.640549056598009425e-01
2.757026260783976834e-01
-5.496067774487350954e-01
-7.929896626392886061e-01
-4.275173592620720026e-02
-1.517114410948048053e-01
-1.723157807480068526e-01
-2.418490915461294632e-01
-1.614233053299688192e-01
4.866393068518239107e-02
-1.508560532697135192e-01
2.056137541933980295e-01
-2.475004366992815397e-02
2.030333394132843861e-01
1.354820401243550868e-02
1.479640894549168473e-01
4.690595157661287540e-01
-1.714100561270929038e-02
3.409452644378520025e-01
-1.999615100348000607e-01
1.143617365666215607e-01
-1.079969648206893645e-01
5.250545106177962884e-01
-2.166093093285531845e-01
3.203889025001430690e-01
-6.591964356165929129e-01
1.230364161622241603e-01
-3.846465792641753922e-01
2.672637063145757996e-01
4.662584486942203954e-01
-1.413464259643311960e-01
6.226733232539652385e-02
4.504352898683846029e-01
2.335006443021353864e-02
1.873397516343937586e-01
2.169106924958502380e-01
-1.940110583237215358e-01
-3.347750509613274805e-01
-5.426059493538719636e-01
-1.068413299549929724e-01
5.276796803818987192e-01
1.036610950736610859e-01
1.353567877935816510e-01
-2.098575300134797872e-01
1.589471027551604410e-01
9.918267079448916945e-02
-1.579583870863309203e-01
-6.975604250976152887e-02
-1.922089169280924714e-01
3.396538991489822523e-01
-2.094664721086228754e-01
-1.699514696366985766e-01
3.821092645705418955e-01
3.863696659425705504e-01
5.204614720744114020e-01
-4.537873699360752688e-01
2.429553888185286559e-01
5.745089332141486982e-02
5.195031922427915116e-01
2.507544396799766262e-01
1.046139490049224257e-03
-5.819828982989921906e-02
1.429062872248195448e-01
-4.329731320943852046e-01
2.817514369132257945e-01
-1.761513036237233043e-01
-6.710243863459501856e-01
-3.595678289727057692e-02
-6.096399959291706749e-02
2.413017055697663504e-01
-3.820799632208386476e-01
-4.937869635458558282e-01
-5.246492132322078117e-01
1.068314162482929819e-01
-2.692277553663309855e-02
-2.865318865537141990e-01
-6.175908251489990730e-02
-3.663772129740455741e-02
3.611919381897270992e-02
-4.728641170452025505e-02
-1.123787084376874461e-02
-5.680612171973986602e-02
3.288515321493246102e-01
2.852687545273531189e-01
-5.610321421194721658e-01
-2.954469333475467363e-01
-1.485867154897676512e-01
-1.235255443716372775e-01
2.436194012558862143e-01
-2.120618339971199473e-01
-4.690919919572999336e-02
-2.324945515299489118e-01
-7.941962812327654775e-02
-1.855774728970146226e-01
4.050693816202625697e-01
3.429722022697679340e-01
-2.160333655820842469e-01
-2.322477977350455303e-01
-1.155659049809342753e-01
-3.668715362672738678e-01
