-3.610189045709150113e-01
5.049961255465406085e-01
5.086578139914943453e-01
1.143921826656272012e-01
7.298241607868030667e-02
1.529221959830866506e-01
-8.776639648245616876e-02
-1.080297684937249897e-01
3.892489881501757787e-01
1.511670771045456052e-01
7.122981669427833618e-01
1.931431462623068862e-01
3.053711602577820483e-01
3.532614821271242156e-01
-9.277238876690181713e-02
-9.496338736568425698e-02
-5.233552307710263168e-02
-3.617709187235417789e-01
2.035640412945090849e-01
-5.842587416200177852e-01
-1.380553730843421534e-01
1.777170919618560607e-01
4.677425273353526952e-02
-4.700238914264612961e-02
1.405979510764926999e-01
3.982505717291318081e-01
-2.891140451866476835e-01
-1.246269233549922029e-01
-2.145228072211336767e-01
2.182114875480577199e-01
2.347702759675391118e-02
2.985982959130072389e-01
3.985423022684582151e-01
-3.242822499635618638e-01
8.699168924635621858e-01
-2.648264307940972548e-02
-2.875058526053251295e-01
1.218750386964084914e-01
-2.304377522356975197e-02
2.224175872298822243e-01
1.503817129022105292e-01
3.764809646231629947e-01
3.976561003662260618e-01
-2.326441295590943037e-01
-4.513446134959739897e-01
-8.324588526900966734e-02
2.196819383132295467e-01
3.789232511433346384e-01
2.413503113959634128e-01
-1.604843915315695424e-01
4.621062674079245425e-01
1.400421000908100566e-01
2.002462976711926468e-01
-4.071742578153060288e-01
-2.249013382732359123e-01
1.506419287462053003e-01
-4.089585538988821933e-01
-3.683868245651873430e-01
-6.125100742753937233e-01
-4.117855622279618655e-01
3.323512424239627450e-01
-1.468053270438962332e-01
-4.765579105077677458e-01
7.481585030017487425e-02
5.852956231768117190e-01
2.425445095475833035e-01
2.248123590179638628e-02
-5.124601405744525495e-01
1.554762413407104471e-01
1.594764173294535847e-01
-1.747367135806147387e-01
3.249247730871543394e-01
3.301003539117035313e-02
-3.537912486912601628e-01
3.428835651195199508e-01
2.977042303238464083e-01
2.970156161525860927e-01
3.110978383131804970e-01
-4.797499008680726762e-01
-7.410019403554878037e-02
3.788032282090125075e-02
-2.288516195953800292e-01
9.844388021255522092e-02
1.164842667120133263e-01
7.887277137889529832e-02
-6.030705597296669440e-01
3.922086601624209523e-01
-5.061053553481820177e-02
-9.055383919671117221e-02
-2.205844542911944081e-02
-7.705096242531411788e-01
-3.737117516695220298e-01
-1.334205280851740172e-01
1.271393739702856018e-01
1.797064898248857678e-01
-1.278893804132998357e-01
-8.613713453295837597e-02
3.811245852526363720e-01
1.388321062366009995e-01
-2.655541042293442788e-01
6.396326340795477350e-02
2.772838458319086367e-03
4.690438919711237969e-02
-4.838437155363704140e-02
6.481289389707753368e-02
-7.806556774017776867e-02
2.901306571300808074e-02
3.091364214449116576e-01
2.401781258811249709e-01
-3.482684538010498154e-01
2.946603047292725153e-01
-3.676717395206064998e-01
1.477456165575266045e-01
6.248579430997209805e-01
-3.478220964654723524e-01
-9.395497806764232726e-03
-5.086085254553802670e-01
-2.007014819932171901e-01
1.766031278338924260e-01
3.859658613231515267e-01
-9.875999196851703577e-02
-1.213073444362110231e-01
-9.055316569987696684e-02
-2.919874337810162146e-01
-1.413872930004249351e-01
-5.064937619997637031e-01
2.711366544421895952e-01
9.418113426670582204e-04
3.629445297918793695e-02
-6.200680171499727000e-02
1.044242753457311906e-01
2.577456970550843218e-01
-1.953005656474938179e-01
4.519510192963435147e-01
-2.754350058758942565e-01
4.036876969982052255e-01
4.270835319614834091e-01
-2.956203952825616765e-01
-8.627711432566276262e-01
3.257154765912705779e-02
-7.710387641615946697e-01
1.910445080766991557e-02
-3.626537253917514469e-01
1.673029160459152120e-01
7.398609041372219419e-01
-2.746960026154335877e-01
5.159948368788469519e-01
1.756934725390270347e-01
2.145216359331540701e-01
-4.180027826763089288e-02
-2.996177571170728290e-02
7.997164954793893610e-02
5.038038653349445894e-01
9.173008107050718840e-02
-2.195960675151990560e-01
2.296610208522792962e-01
-7.542430012682885265e-02
2.547804841260670194e-01
-4.040495078599717349e-01
1.930724766118704361e-01
-6.917892382714802002e-02
4.554335967908914456e-02
1.081750605478190019e-01
7.876876227633604344e-02
5.340581352149640360e-01
8.869472070605528835e-02
-4.459198225668586923e-02
3.285665576088362405e-01
-4.067240088897886019e-01
5.097473546985488435e-02
-3.166104870580722097e-01
-6.331529239486435867e-02
2.644730380177876539e-01
-1.645495990685558879e-02
1.652849069234391954e-01
-1.096779447274768560e-01
-3.858395778940932885e-01
5.363522441105288419e-01
8.311308939086305136e-02
-4.520871555882145093e-02
-2.236518203482620870e-02
-2.069549020320641253e-01
5.242513097454202242e-01
-2.315593428195061865e-01
-1.950522553050985375e-01
-5.919689347619191411e-01
4.552810339994503019e-01
7.690503987478408687e-01
-4.231421672154767610e-01
1.429234965441205929e-01
3.057341697594691959e-02
1.552215337012180785e-01
-8.404888751603843966e-01
-1.850640336560572252e-01
-2.066809648212518946e-01
-4.526930353334250312e-01
-3.828807740521634750e-01
1.967990328460720306e-01
-1.979354289856800619e-01
1.638448711500861410e-01
-1.366457605294997546e-01
2.211244158180274144e-01
7.744648118680165505e-02
-3.760155803557539422e-01
2.878775293784048214e-02
4.430647573439757680e-01
9.632852825521179274e-02
2.954542875833822690e-01
2.542478718916017441e-02
4.177027727762032128e-01
1.934482951679179774e-01
-1.738587054155686651e-01
5.411876617669134637e-01
4.712781813364677053e-01
-1.073624710365182894e-01
7.087865294414616435e-03
-6.227514866680943229e-01
-2.365842261513765588e-01
-2.730602146536028063e-01
1.858376934932926827e-01
2.529111223293422639e-01
-3.607595122158116507e-01
-3.374563994572045700e-01
8.422828344819275337e-01
1.492823673523945849e-01
-1.937897737378904417e-01
5.446093512124968727e-01
2.134992089179002239e-01
-4.819846917372126449e-01
1.949679283154179543e-01
-3.293454589044921277e-01
-3.875306339636620523e-01
1.490430190847670533e-01
1.432312737215871330e-02
5.188977870292138528e-01
-1.452858878893728001e-01
-3.041985885642149445e-01
2.567528436423844318e-01
-8.491820256902388175e-02
3.660286263152476294e-02
5.370031148641061236e-01
2.209541305834139269e-01
-4.174411980124444893e-02
3.683669569247071118e-01
-1.732960515098019849e-01
1.357414022323542580e-01
1.467983328408925259e-01
-2.315280089460544991e-02
-4.620105688767771612e-01
-5.220563038695588132e-01
-5.878229959971330576e-01
-1.429389979312245262e-01
2.148990846689071144e-01
3.025353183524757128e-01
1.121898075813692053e-01
-3.707449929865692662e-01
-3.825870474489555528e-01
8.913337984724511998e-02
6.862705469722407865e-03
2.894760803492286705e-01
-1.603684082111366538e-01
-4.359185603331488523e-01
2.016147478597415110e-01
4.816268159761262213e-01
-4.314937932969289403e-01
