-2.228045821652581970e-01
3.027315745611120490e-01
-4.826066224024295748e-01
1.924813347604909242e-01
-2.453130959625877128e-01
8.036804676879413245e-01
1.458096108169115446e-01
1.488450636196392840e-01
-1.128853355322779195e-01
-5.578254330298390573e-02
4.802251508920709483e-02
4.497328180787446561e-01
-3.307114392814284876e-01
2.982400692038171264e-01
1.234112293592437015e-01
-9.620852552204839370e-02
-1.762350035331264053e-01
3.833717207274275895e-01
-2.266190157982688191e-01
7.464917017056286186e-01
-1.812371993670714443e-01
9.710265873964998851e-02
2.314404244222559304e-02
4.089217535395752168e-01
4.917664536162087707e-02
9.267178682041336824e-02
5.009079334515330606e-01
-4.951548703299475385e-01
2.367968406563629447e-01
6.068545986478817572e-02
6.333414231814808726e-02
-1.143721539693473427e-01
-3.077412359781802609e-01
1.619873939594997092e-02
-1.844771173507475312e-02
2.267895871545541342e-01
1.215001758377324825e-01
3.993494150397305931e-01
2.143708849300270114e-01
-3.494204579315023929e-01
5.824263634190276484e-01
7.769885641362217488e-03
-4.926109422225822820e-01
2.380687540802491411e-02
-1.152291264152113248e-01
4.777493569245443855e-02
-4.978481424269521893e-01
2.112105711844239064e-01
1.974270545697923429e-01
-1.218268900513984343e-01
-3.415245286682465076e-01
-7.803011692869545914e-03
-2.281459763120395612e-01
6.235284642609635331e-01
-8.585296308584698943e-01
9.287029882746723752e-02
6.405810398017006690e-01
-4.564059630083296820e-02
1.253030072424459740e-01
6.004312105574173553e-02
2.430751526683765096e-01
5.099822224123358172e-01
-3.294998399784517806e-01
-1.217333406060024381e-01
-1.188799910829810985e-01
-3.796711807211274048e-02
-1.929460264438203898e-01
1.791734282795998945e-01
-5.147236518959490414e-01
5.234197981095769503e-01
-8.598834757980054755e-02
-2.184912940063028775e-01
-1.850201567545594894e-01
-1.422438912893634888e-01
2.296309837710038826e-01
4.745028385707672491e-01
-1.950784437522364023e-01
1.463556087498520120e-01
4.185486877311729859e-01
-7.888230441817997707e-02
1.521433261162614403e-01
-1.926000223465233196e-01
3.950566484286170965e-01
2.065956325931391224e-01
-2.531256682373861366e-01
-1.574301351516046166e-01
-2.218453628007710163e-02
8.318426852626263635e-02
-1.422823529771488349e-01
-1.373963784140050104e-01
8.708002066014176867e-02
-4.792157379705225262e-01
3.479993795642417065e-01
1.543106095504550301e-01
3.806902973443637705e-02
2.901652172907939753e-01
-2.235746685514968524e-01
5.210223345092744873e-01
2.798848828174897996e-01
-1.477885008803493105e-01
1.560035610662440786e-01
-4.087709174068240303e-01
1.647141562301669693e-02
6.379637024358167929e-01
7.168935896307988831e-02
-6.048127189335608667e-02
-1.594138729248537889e-01
-1.051511441702508709e-01
-1.794723233034211940e-01
5.720729412468289476e-02
3.111162435562659367e-01
-7.225984079148051187e-02
2.668269007112347158e-01
3.156194231415128393e-02
1.189037176391276318e-01
-3.364345711551977591e-02
3.621987270003510506e-01
-3.144748124707018311e-02
1.666270694130597141e-01
3.766918278719224022e-01
-5.957303283439750047e-02
-2.784543125683424103e-01
-6.899852783051871330e-02
1.337001333064463116e-01
-1.315076925865466262e-01
2.762662200933185264e-01
-3.030695060026504795e-01
-1.422448291020305122e-01
-1.396123890225820230e-01
-7.439913780840817781e-02
-3.781008667511746024e-01
2.117268903850057227e-01
3.928447432858108712e-01
4.383192339408838456e-01
-5.642429507406721001e-02
3.288097574693035763e-01
-2.032821620072402524e-01
2.329554725930645456e-02
9.486551685911166765e-02
6.026118175912012487e-02
-1.715129538638304474e-01
-2.430279304246521499e-01
1.065867859010921209e-01
-4.615166748241296135e-01
3.038754445430716378e-01
-3.389603389137189199e-02
-1.311175112924026914e-02
1.572852515881373869e-01
-2.963524513235361035e-01
-2.397976129932876677e-01
3.314209479002993564e-01
3.523218920254493347e-01
2.486783058870205010e-01
6.654244473718351482e-01
-1.993920002657103840e-01
-4.172294334185298187e-02
1.142002841018908560e-01
1.042366487493733562e-01
-2.013202551557742026e-01
-6.442630215937110612e-03
-2.224056485286214080e-01
5.398492466467522677e-01
-1.701681165510112725e-01
-9.945394861370887574e-02
-6.141144339461422907e-01
-7.844864191546095655e-02
-3.124213554258748471e-01
1.363686702846796661e-01
-7.064388653379888305e-01
4.662170086942747926e-01
9.354392758801528818e-02
1.796663293398265415e-01
-2.099455027163042720e-01
4.884258123996116918e-01
-2.471362498112641692e-01
-3.094435221897460231e-01
-8.748246387214470010e-01
-4.002356790658225250e-01
-5.071932131039737918e-02
-3.426299366727237339e-01
-1.619099215192891239e-01
5.042194095836912693e-01
-3.003321879241508952e-01
7.868836451244357599e-01
9.552584122618996976e-02
-1.433923126328100484e-01
-3.034286639937138763e-01
-1.634475606136289588e-02
-1.103262652366071989e-01
-4.361536349318214101e-01
-2.209595083587433118e-01
7.339819912620003384e-02
1.215265679423275097e-01
7.683427762400094063e-02
4.031404417466274426e-01
1.080053930968626480e-01
3.484583768226822142e-01
-2.713039833213685692e-01
4.206757809612648308e-02
-4.273568775100051176e-01
-4.037288147690503703e-01
2.325221241662999705e-01
-7.128808200176718346e-01
-5.798749138120234958e-01
-6.337303199891713978e-01
5.861318397433164934e-02
-7.915143340375813130e-02
6.459390819272475825e-01
-6.479087021628006371e-02
3.426498283715546933e-02
-5.554505278428440995e-01
-1.531495820748914223e-02
1.038123160466152411e-01
2.307700332257916764e-01
-4.485411124499372876e-02
-6.695709465206198807e-01
7.585062338735004683e-02
-1.744123560244183885e-02
-3.612093794361337928e-01
5.628537560537527629e-01
1.996146322980414112e-01
-4.136287576328406823e-02
1.052013222080285387e-01
5.481141138080720676e-01
5.299389989254017080e-02
1.017564814159126196e-01
-2.496208991710038572e-01
-2.234952469739640013e-01
1.013945683968367345e-01
8.079888223202334741e-02
-1.443437868314796646e-01
4.481275405776094511e-01
-1.513917510430580204e-01
-2.835171716876438430e-01
6.763971121350454974e-01
-7.813608258070096901e-02
-6.980523194135256349e-01
-1.609942343432180789e-01
9.931695132775776591e-02
3.996358060337338453e-02
2.989956880991275212e-01
-5.236144655025839340e-02
1.392981401268338915e-01
1.671385536926170423e-01
4.176616054252500487e-01
3.242473660518220557e-02
1.984718345205590817e-01
3.968231595807227841e-01
1.505264450057600956e-01
3.181373518186913496e-01
6.759031528270970091e-02
2.957235866001305946e-01
3.357937212653532288e-01
3.955961788124378598e-01
8.294547598638772612e-02
2.077593904242407696e-01
-3.134578828087085656e-01
-1.222878132025392167e-01
-3.387334776087905786e-01
5.327734753224201425e-01
-3.345000484151481324e-01
-2.562403491964243551e-01
6.272984423697647305e-02
1.256870744934484793e-02
-6.419622732663167464e-02
