-2.945387316324980520e-01
2.671896467905314765e-01
-2.452879390215602640e-01
2.231634458638079993e-02
-3.014389657855892080e-01
2.299959936512704223e-02
3.841544171328301616e-01
6.123690675699897806e-02
1.098603316708754579e-01
-1.506238804620736726e-02
-2.204838223713244394e-02
-2.212578568289485514e-01
2.207605149077525031e-01
4.648613957846208788e-01
1.312793509530790770e-01
7.075925784128367368e-01
7.471092499320579339e-02
1.359646713329518142e-01
-4.978521576901909218e-02
2.157221621119598254e-01
1.095781320354047295e-01
-6.074920962459449958e-03
-2.949348196809375433e-01
-8.660845280478068897e-02
4.095302006422911201e-01
3.136483986747871655e-01
3.515813949397073590e-01
-1.382532392971556612e-01
1.323488365174894377e-01
-1.505758055898625547e-01
-3.322922496165270356e-01
3.047532059969299545e-01
-4.908883113712038115e-01
-6.233221161469084670e-01
-1.770743590581866089e-01
1.514893309308563141e-01
-3.574089144674742757e-02
-3.691285186053225864e-01
1.477643611411478264e-01
-2.480495106914210393e-02
-2.330413663559048332e-01
1.928624672406868135e-01
7.321689773463592177e-01
-1.941024582927936698e-02
1.619948761681811455e-01
-3.157758127972301598e-01
6.540386540959107486e-02
1.716535178911088311e-02
-3.996536393906434115e-01
3.122139051958334743e-01
6.422469620213200336e-03
9.086861180416280770e-02
-4.761503548538381647e-01
3.075022092078512001e-02
1.806729251473641606e-01
2.534717324881030631e-01
4.321135489210679026e-01
5.396022425186876997e-02
-3.793296519784132848e-01
-5.260704000463101160e-01
1.339082215039665014e-01
-1.041344250564775614e-01
1.852408549307600627e-02
-1.390756467047143397e-01
-8.035902115746254015e-01
-5.206545685205631324e-01
-1.082827095628398351e-01
5.209699000346055264e-01
-2.969533015232415085e-01
3.803735738519856691e-01
4.058475352248136492e-01
8.627279507540765169e-02
-9.380755474924259985e-02
-2.390293100151442418e-01
-9.728475043323689397e-02
-2.521642366009263156e-02
1.790046810094592378e-01
-2.789941015427677695e-01
1.097519841772227056e-01
3.166544820916954994e-01
5.151925375953950170e-02
-1.147948399566904309e-01
-3.242985817206566201e-01
1.429997151748403361e-01
1.365425184912943436e-02
-2.560957087738951476e-01
-4.325313968101902190e-02
1.459907820457120864e-01
-2.288535727544926679e-01
-1.065058137431659918e-01
-5.274380860458448284e-02
-3.624743849047317584e-02
9.505394253450802355e-03
-5.122646194502706862e-01
-4.732271910034933915e-02
-1.559220491639750628e-01
3.277697826237255252e-02
4.852066017489114480e-01
2.466466780439383333e-01
-4.708888423666957035e-01
6.720577399795799045e-02
-2.018311311851123113e-02
4.582273355890569833e-01
2.682416284564529407e-01
-1.582754336259716010e-02
-7.778084102449496218e-01
-2.322796273275686552e-01
3.631531814657641410e-01
-5.747263150900598916e-01
4.225351970848103544e-01
5.420309375854531764e-01
-4.091994472098148816e-01
-1.102018621474225996e-01
3.727693566016697657e-01
9.726852001912771051e-02
1.992409277632351539e-01
-6.382060808456013756e-01
-8.590812469657167771e-02
1.230992513213476081e-02
-2.726359658278413867e-01
4.137272780723347254e-02
-3.648859091578034453e-01
-1.790220483541315744e-01
4.884078513069533556e-01
-1.696873209122503334e-01
-3.443392404625173486e-01
1.734038187592672475e-01
-1.187514572597830748e-01
-7.656333897477025918e-02
-8.031000937859419375e-01
-6.185762653531443056e-02
1.414448026489234511e-01
-2.750974425544734370e-01
2.690696318521159508e-02
-7.635750650774159043e-01
-2.166789047909989940e-01
-1.734609384762746953e-01
-1.014024672987790809e-01
2.011082299962652364e-01
-8.153794425409015556e-01
-1.545474062234428875e-02
3.859148022271310374e-01
-3.189693130079017391e-02
1.524469127951751934e-01
2.352259580032768638e-02
1.160571148110721151e-01
8.727672966919480801e-02
2.998015916014041826e-01
5.214762779136770110e-01
2.993833259213768416e-01
2.399820337263175174e-01
3.405902505676589587e-01
5.691411926303491242e-01
-2.207638865289352492e-01
-1.267371950210751663e-01
1.288381631892584478e-01
2.662345115144666430e-01
8.329596823548486573e-02
2.489694139836282905e-01
-2.753872477343958236e-01
7.629924994204491384e-02
-4.198356834968488549e-01
-3.557177960195946897e-01
1.521980216179759648e-01
-6.153082583250901738e-01
1.407915895049978161e-01
-7.005047375958199929e-01
-4.343818934249047969e-01
-2.765422811238869016e-01
5.837329520404460625e-01
-5.661885155681077864e-01
-2.983790719229995614e-01
-3.565698140688756124e-01
7.546390804912293804e-02
5.793556503235794963e-01
2.650776674572052349e-01
-3.164249772780307057e-01
4.485159394499731444e-01
6.160889116018710698e-01
1.197866750247841838e-03
-2.516518875308658698e-01
3.346555770652149264e-01
1.026618569165253236e-01
-3.002964717863877420e-01
-8.194534872817318960e-02
-1.364041233312845713e-01
3.773195106813950761e-01
-5.309624997374292471e-02
-1.521500367529092235e-01
1.636858652445195295e-01
-4.913702711780178478e-01
-7.186862465543944478e-02
2.318853191602322505e-01
2.471156962578934524e-01
4.068894320375764373e-01
-1.537558897531831059e-01
-8.264717253432757316e-02
-2.424962917723149647e-01
2.272825918298394532e-01
1.519686934888372642e-01
-2.386248533461111931e-01
1.747823068960666082e-03
1.775743230259047845e-01
-3.892947646524834715e-01
1.720504161828495526e-01
-1.383856123098072682e-02
1.201320335723162630e-01
-2.035536479886934091e-01
-6.674923080157165733e-01
5.562118771523913985e-01
-9.025150786103726397e-03
-3.145451853123486519e-01
6.447123063255242315e-01
-4.018759367787959613e-01
1.965927226590196558e-02
-1.568966074832526814e-01
-5.268604841399018301e-01
-3.159167165632186247e-01
7.109456648956186120e-01
-2.073795045230507061e-01
-3.996858532539311892e-01
1.979443023478306696e-01
-4.387196844206813218e-01
3.431533767758192244e-02
-2.721755430994195479e-01
-1.000000000000000000e+00
-3.540287184177607904e-01
5.472144788633331869e-01
7.895031908286179179e-02
-5.042788000624452982e-01
-1.135716589419806521e-03
5.306019536154084337e-02
-4.182226514632778058e-03
1.637812784447795489e-01
5.473025061864325025e-01
4.087641381605391921e-01
2.864093684964023057e-01
4.468664562021959497e-01
-3.242704237658438071e-01
4.948907900125475434e-01
-3.241478231856206871e-01
-9.552421219582196699e-02
9.459762015298363025e-01
4.861101484984753363e-01
-1.900068511587475473e-01
-1.806891477273440683e-01
2.339696713834677269e-02
-2.170715462605679602e-01
2.992908284290727305e-01
1.765886345101145838e-01
1.497080815548318677e-01
9.627304607468163689e-02
-1.151601306044950229e-01
7.787418672640968043e-02
-8.944521652402043221e-02
7.616418937197330097e-01
-5.664620525937892614e-02
1.228084480067726664e-01
6.728010244377843896e-02
-9.027927695029963617e-02
-2.341946333864243501e-02
2.513054658977708078e-01
-5.347490085054781850e-02
2.337187488679978720e-01
2.296483073653381168e-01
