-7.200514113591359455e-02
4.060460388409472543e-01
4.328475372539381527e-01
-2.995140701056306365e-02
-4.427949072708428635e-01
-1.459275778066385643e-01
3.680045063714521697e-02
-4.993616291274153296e-01
-5.822715968692880883e-01
-8.783659990655462435e-02
-4.665726932956874157e-02
1.772249691571702590e-01
2.998379200312328297e-01
-1.103873804916258028e-01
-3.113668908674832037e-01
-1.242940793316128362e-01
3.841820363379030989e-01
-1.281402608455656233e-01
1.548644446734090407e-01
-4.440421516616107067e-01
1.611771328370794065e-01
-2.620812315747664267e-01
-3.962887267670881508e-01
8.309599815832227065e-01
-5.246769714856471672e-02
-4.477239829894231748e-01
5.917756684279769364e-02
4.354589880023530535e-01
-2.374622520946069737e-01
4.026364807168410914e-02
-1.255578380087545021e-01
-3.189452270597409322e-01
-3.520511435471294637e-01
-3.985330218420782833e-01
1.355470754704152792e-01
-5.980617251867587081e-02
3.991527556487163286e-01
-1.374855602067519555e-01
-2.321917500740022511e-01
2.002971096030777831e-01
1.745088000328212374e-01
4.922727697207524011e-01
-1.847383668291750422e-02
8.816618974603780690e-02
8.327151831535763160e-02
-2.827970272718999256e-01
3.248355140827111631e-01
-2.609165740095474861e-01
2.780047941048411839e-02
1.389147742021203946e-01
-3.003646384448375728e-01
-3.298405031374832541e-01
4.127172280831341022e-01
-2.658457421395273301e-01
-7.188132484125767663e-01
9.634893247851851472e-02
-1.064018295338917293e-02
-5.920252792581354173e-02
2.134489328934663643e-01
-1.662579952177104803e-01
2.707255616950781096e-01
-1.026902528629135454e-02
1.878393171383890559e-01
2.575176778158534963e-01
1.522629802725826986e-01
2.810895653917018858e-02
2.221775969717159904e-01
1.643810528485346034e-01
2.313841827365048509e-01
-5.672472421646563845e-01
5.814263880631777293e-02
-2.072540687707794815e-01
4.333644792076206120e-01
2.335781783395310118e-01
-3.497507874314333826e-02
4.405988617048519490e-02
1.727055501191482878e-01
1.258162168729950428e-04
4.449642537384919661e-01
-6.303369883748230484e-02
-3.016349914200416316e-01
2.844554052069694916e-01
5.870019700351186698e-01
3.843144284024394008e-01
4.275543473033191488e-01
-2.801222517075608320e-01
3.748484038528415718e-01
3.072631667725560511e-01
1.490069585527928064e-01
-3.934171150803312256e-01
-2.610912832145927953e-01
2.545711003759411062e-01
1.132505214916897651e-01
3.488782401742106243e-02
1.373704075963535498e-01
9.019418978543643217e-02
2.383675149190814246e-01
2.287934647405154842e-01
1.761487579186675201e-01
2.377008264868235576e-01
-9.251417785571543206e-02
-4.447339077831360954e-02
-2.209351715876665123e-01
-2.365821248502818774e-01
-1.326520119919533391e-01
5.323233471413101395e-03
4.049289759398706501e-01
9.270377427773715540e-02
1.556506131715348629e-01
9.799169432645122857e-01
-9.887385406720580749e-02
5.743684641063705465e-01
-1.450915665927364484e-01
4.296995920228124377e-01
-3.205285061234874888e-01
7.423849034304080829e-02
3.675590960692444731e-01
3.746912089398256041e-01
1.576515085074714217e-01
4.469823624358305048e-01
1.828253953169095836e-01
-2.894539870915026070e-01
3.920204323099320959e-02
4.588332405433616090e-01
1.827622197157202921e-01
-2.684382351922080523e-01
7.411460284307125335e-02
4.481660222478157096e-01
2.152729320044482753e-01
3.168433270496702758e-01
-4.027830621980434400e-01
-2.510255253771185302e-01
-2.084942705755747916e-01
5.153708508763006346e-01
3.922671222027695470e-01
2.303924323503262483e-01
-4.103093695268637819e-02
5.941139227479819152e-01
-3.961975616643915732e-01
1.174717900125140935e-01
2.438783499514158848e-01
1.100298731125737145e-01
2.283552562026316679e-01
-6.290204528216257751e-01
-3.178631417879549392e-01
1.025186262063909198e-01
-3.708813318301415474e-01
2.740734082596175125e-01
1.789240520637561394e-01
-2.899647261424270761e-01
3.857932704822592540e-01
1.937398871490466912e-01
-4.565894791273253372e-02
5.379734991352053998e-03
-2.818804551584008777e-01
-1.160697789137561525e-01
-8.317435664217638636e-02
-3.291605672681481853e-01
6.765069845706194185e-01
-3.640549287341916518e-01
1.904849393929406720e-01
4.034950986068351342e-01
-2.982860986606990505e-01
4.795611812961645959e-01
3.538435661658309583e-01
6.411469899903504688e-01
4.511014596777263019e-01
3.038421756337308932e-01
3.007912120280304968e-01
-1.637604114916445253e-01
1.723067027110792128e-03
1.197050268232234260e-01
3.620852728150116273e-01
-3.872406127210176185e-01
-9.390525154115869633e-02
4.282379419373611579e-02
-3.528538480370374542e-01
-4.417541209331068419e-01
-4.708479418635631575e-01
5.996793735902886668e-01
1.625379449364311724e-01
5.602288280530868386e-02
-2.488894205800866455e-01
-1.050807088631002528e-01
2.477785352746153524e-02
1.393159313336435612e-01
-4.997203879444903768e-02
-2.312851922206352745e-02
7.106518596942916488e-02
-3.265274235394374225e-01
-1.946715601220871117e-01
3.146676745105080886e-01
6.759383758953912968e-01
2.654541737079078034e-01
1.482752591722218474e-02
8.882433883089681237e-02
-1.147606681700936125e-02
-2.306463739470815677e-01
4.039369852698756480e-01
-3.361579538267217004e-01
6.791797182866485816e-01
-4.785587312793428416e-01
-4.170325987911844834e-01
2.097404791736914020e-01
-6.070574625003751779e-01
2.039274099992451905e-01
4.146185841371018976e-01
1.000140827104222391e-01
3.612959631260256876e-01
2.772967674306220931e-01
3.255540863405577690e-01
2.186538625342165088e-01
2.710164477942583194e-01
1.720292177807979661e-01
5.132647155607586997e-01
-3.085908276335316280e-01
-2.160231043253820621e-02
-2.483245582322849143e-01
1.473032667223538317e-01
1.812073755571861622e-01
-4.334166923472927424e-01
-3.786573874422785035e-01
-5.146018398699983010e-01
-8.433884450162906776e-02
2.787109539523932034e-01
-6.429650254829961942e-02
1.237025560115090871e-02
-7.475917718119572120e-02
3.725939542565854246e-01
3.016725372898159119e-01
1.594367732740256394e-01
3.329553803234509002e-01
-3.647866777777583613e-01
5.356362135676101532e-01
5.212310254087043626e-01
3.562743418458257094e-02
2.440896752299144268e-01
3.136463769685692848e-01
-3.798657028034656546e-01
-1.288588912217460691e-01
-1.384822193891670494e-01
3.501713968886959183e-01
-3.641119395547262605e-01
5.045624381771945943e-02
1.052532802579312921e-01
2.262622857066185211e-01
6.149529218268825481e-01
2.561854910408067898e-01
-1.079302369010771284e-01
-3.402572836826456837e-01
-7.271901218995259486e-02
1.781767373435695356e-01
3.185064214087723888e-01
7.091233869514250443e-02
-4.073736118162051278e-01
-2.209135724307381421e-01
-1.534260913636205370e-02
4.443033032656157899e-01
1.511235075540761641e-01
1.558677899812365153e-01
-3.897736342103879092e-01
-3.983635309539228508e-01
2.658343514268645194e-02
-4.243232462576948527e-01
-1.479694237960226533e-01
