1.854939439186919503e-01
-3.742897367774040973e-02
7.733573021027201344e-01
-1.668222508775204505e-01
-4.091001013640734318e-01
7.664047187474602729e-02
5.096226911629100215e-02
5.611407279138405091e-01
3.293405867040544721e-01
-2.561682623939697812e-01
4.563834955213715849e-01
-6.993410779405882967e-03
1.074018107974223230e-01
-4.403925813246094556e-01
-3.298180000623888719e-01
2.591683500385916911e-02
-1.918561840384632455e-01
-1.690861031969619621e-01
-2.652898202950092488e-01
3.159741504470281459e-01
7.811256127086074752e-01
7.979496237199315556e-02
3.424832842884013018e-01
-2.141587105872906627e-01
2.046017101149171513e-01
1.594183407676824926e-01
1.485772923904216392e-01
2.179131759603070984e-01
3.087083731729071689e-01
-5.227509688929946052e-02
4.647722338513864127e-02
3.325265008625936658e-01
-4.224916400912532774e-03
5.845326989132316742e-01
1.426343073767649128e-01
-2.581903650846238407e-01
-5.188489910840746733e-01
1.694426648519441192e-02
2.535281052453993919e-02
1.976877369374091808e-01
1.861231229988576097e-01
2.684114184479358678e-01
5.298338332238728965e-01
-1.086906117888442047e-01
4.097638666237203575e-02
9.979731656928655936e-02
1.648927441894968704e-01
1.153771406197103971e-01
4.578867569084463240e-02
1.544213365740245980e-01
3.292167575187773254e-01
-1.084809824282587792e-01
-4.420486449568266085e-01
3.537083418441169802e-01
2.028765527153215120e-01
-1.268784511879823551e-01
-2.283179466842373273e-01
2.017677319311798889e-01
-1.963411704628830745e-01
-1.626007471098232515e-01
3.238036728001230657e-01
-1.184608985508484869e-01
2.682374138437179090e-01
-1.627127792602367784e-01
1.791111267033434484e-01
7.647499498470237134e-01
-1.242433635070088332e-01
-1.488115749851134928e-01
-1.501005297100130587e-01
-1.314931949294184665e-01
-2.290793754873885202e-01
-6.703700331915360411e-02
6.937445572472945576e-01
-1.523122009493337037e-01
-3.688830059889146584e-01
1.080318047644070051e-01
-1.069794460237225575e-01
7.681910998928428991e-02
-3.930681150599417695e-01
-1.209532187924516611e-01
5.036125200352523645e-01
2.172902002894827322e-01
-6.129119424675873173e-03
-2.117432885230286777e-01
8.747526500570775021e-02
1.493701410025584653e-01
6.031790218143507909e-01
3.342721839684436591e-01
1.503929466640352708e-01
-4.335534203476726356e-01
-1.467480601292796838e-01
-1.280732072907858343e-01
1.620394470897873473e-01
3.010682233562703147e-01
1.473394031965003237e-01
-1.669869294774681823e-01
-9.620388944452649971e-02
-6.013826655601369753e-01
1.629047544578443862e-01
7.604766236735745200e-02
-3.044736994017012144e-01
-2.102808035299749967e-01
-3.163208358914417762e-01
-9.332503464854922937e-02
4.155462204502178430e-02
-8.152546964048249314e-03
4.859672100463682809e-02
9.528157011146112798e-02
2.472923520296230748e-01
-3.692134971097225105e-01
-2.281819089629598396e-01
5.429693173832654818e-01
-3.727031254692789730e-01
-2.344468087858484623e-02
4.052782194273322758e-01
1.222857321845597783e-01
1.759344342445660347e-01
-6.432615209976390303e-02
-4.229695445643205653e-02
6.737565894259887889e-02
2.216813293151997238e-03
-1.757456806997071685e-01
-1.942915042530445058e-01
4.940361570064501495e-01
2.837162087288999657e-01
-2.731706295710902010e-02
-5.445356187454816581e-03
4.316462644324657316e-01
6.479658823602806039e-02
2.794773767383496380e-02
-2.251261425550059037e-01
5.335635945096318077e-03
2.007322894557317383e-02
1.101198157720811727e-01
3.390082772038295889e-01
-3.654682053613598214e-01
-4.772959318495795245e-01
-3.427817504786787040e-01
3.985132028040286323e-01
-2.221012859588159319e-02
9.512935301588713866e-02
-4.453162798742590356e-01
-2.704855152087104475e-01
-1.894420681443038934e-01
4.637330015853309284e-01
4.921242516643326015e-01
-3.190747480107238854e-01
1.644479163731253080e-01
3.227449351919060017e-01
1.547110312413727817e-01
6.756534926432469779e-02
1.772108491538802177e-01
-3.898743515120077219e-01
-1.613790637968565700e-01
1.075557763884238266e-01
-4.255570786563931396e-01
1.683424203798759011e-01
1.065601346413602851e-01
-5.773620820425231365e-02
1.384146457048200385e-01
3.875396585836136665e-01
-1.537764972437385969e-01
-1.587476863504333480e-02
-3.053525984566298757e-01
-1.118136433081798470e-01
2.921044780574056920e-01
-1.691804481001731586e-01
1.724530507580295247e-01
-1.694009497632814054e-01
-2.981070258069506429e-01
4.357313509929346129e-02
1.714274900906296029e-01
4.560093548026806221e-01
7.105923184897765255e-02
-4.240157072182157982e-01
1.583489046622740259e-01
3.558621332232878576e-01
-3.744499682431919746e-02
1.289061959736396146e-01
3.456024928334860413e-01
-1.753479129162127115e-01
-8.785430869881898086e-02
2.567058526807955432e-02
1.254803225669936240e-01
-4.727730354417534336e-02
-4.589559938935090511e-01
2.361292608042000196e-01
-8.196185383076805275e-02
2.950115558466152518e-02
-2.520730249413070667e-01
7.212585964346641676e-01
4.127905054218906078e-01
2.864044411280618485e-01
9.278970975997640203e-01
6.252399627868915344e-02
-4.369823758667815139e-02
4.721434657054343065e-01
-2.892179214994581860e-01
-6.974768251688780174e-02
-2.414227026519160102e-01
2.625012365880812215e-01
9.379481382579804485e-04
-1.932271139621306033e-01
1.006191618930006582e-01
-2.821407464106859275e-01
3.483494373253417237e-02
3.688398700733019897e-01
-1.837186807099510655e-01
-4.431006835702134272e-01
8.052737561545526557e-01
1.632781993593153125e-01
-1.287603149615613729e-01
3.765260589075510866e-01
-7.992223170781688202e-01
-1.965829569108800551e-02
-1.918118725706958461e-01
-3.105893496940372867e-01
-1.597839889269327407e-01
2.477634290513285042e-01
-1.553572898129258750e-01
2.820093896216120388e-01
6.426622960950688357e-02
7.347084896123408093e-01
-4.780727267738310582e-02
-4.418597601789818197e-01
2.889620134142327212e-01
-7.410858617187493502e-02
-3.882420395145962932e-01
-1.662132198472457967e-01
2.481638842260296962e-01
2.955986502295419593e-01
2.029544809167472749e-02
-2.049009572417213876e-01
2.949150533904253413e-01
-3.262294169909141922e-02
-1.543974655110987582e-01
-1.659826614154067542e-02
-8.206642229252547605e-02
-6.562428869036214529e-02
-6.910852886441964937e-02
5.558441509915333922e-01
-9.797912064951926070e-02
4.615546867991880964e-01
-2.130468458118615627e-01
-2.821519070801624396e-02
-6.597116730504248849e-02
1.045191733257387484e-01
-4.832151411548077924e-01
5.957367701739218341e-02
2.114116850543526771e-01
1.812391319599490902e-01
-3.369315198362929920e-01
1.998633072380497089e-01
2.386331215430225194e-01
4.041229391785896609e-03
-1.896061234528580441e-01
2.487182485610924809e-01
-5.037299662379921550e-01
4.125693149580321739e-01
4.087771855402408949e-01
4.348678102558702352e-01
-1.030999634760418615e-01
-2.465671881797946996e-01
5.592408601271827706e-01
2.976552304305333796e-01
