3.368795855984824672e-01
3.744478970664105733e-01
4.331432628914129168e-01
-6.141523991154406170e-01
-4.930245572331659609e-01
1.513955843149289715e-01
-1.584534252015813161e-01
2.231295088354783018e-01
2.305053602415666203e-01
-3.092018296682101375e-01
-6.308810767431661803e-01
5.237183863309540222e-01
-2.024460370075164828e-01
2.418572280543809794e-01
-7.775082189993315351e-02
1.625024373133080180e-01
-5.150905600752524877e-02
1.867625856370290216e-01
2.610494901533684242e-01
3.091954644830149368e-01
-9.358594481937709819e-02
1.854338560316419471e-01
-5.795565186884572622e-04
-1.470905297241361653e-01
2.170793720608087674e-01
-1.591348775009846783e-01
5.611090885847092036e-01
-1.838563774675834595e-01
-3.600031169437470369e-02
-2.164782881813303445e-02
3.753872869106436583e-01
3.507346553826500291e-01
-1.084526476589463273e-01
3.155527925784901155e-01
3.151179293460416031e-01
3.907817978629744005e-01
-3.771855613496251647e-01
-3.634426723669310078e-01
3.641158845323550636e-02
-4.639265863258796863e-01
2.270700716165969524e-01
-1.191851886449248332e-01
-8.527224700620345292e-04
1.170112374687886370e-01
2.032842310433836397e-01
-5.094124130234662928e-01
-2.888687470255940637e-01
-2.826182435810511429e-01
3.279939814533885944e-02
-3.609683865135843162e-01
3.674459161823209752e-01
-6.444041007634566665e-01
2.662511402970286212e-01
-2.896297129760502798e-01
1.489191138649873236e-01
2.326009062249659309e-01
-4.582315189597143540e-02
-4.232371461757227227e-01
3.106460121688242593e-01
-2.988935175335893923e-01
-5.679322060808780770e-02
7.877907514867601990e-02
2.039807716893183298e-01
-1.994644547539253521e-01
1.700340102948355858e-01
-2.835956974365392291e-01
-1.780659494399043641e-01
2.613897239580162402e-01
3.265702934806433699e-01
-4.493504607058519396e-01
8.379018808970610521e-02
-1.111852092275239928e-01
-2.632048120983032091e-01
2.459905091792320142e-01
6.968195746553499520e-03
-6.764389393910238968e-02
6.102844519934135237e-01
1.911738708699316225e-01
1.329862907225423940e-01
7.654415274179552364e-01
-1.666352118994180245e-02
1.474520896561795635e-01
2.377701174747666180e-01
-2.531626311552676034e-01
6.831501391813317448e-02
2.962363022744480268e-01
-4.802177099978247043e-01
-3.376192665733963177e-02
1.021664029009635849e-01
-1.391755831316402459e-01
-7.102566523332725090e-01
-2.164225978812297502e-01
6.114244466180466381e-02
-1.084055806031551661e-01
-8.028157702765793824e-02
6.184814748991551703e-01
8.146474615574829381e-02
1.621950026084703900e-01
-3.081691540106970897e-02
1.579084344808365237e-01
8.094938714669978885e-02
1.749134919096437812e-01
5.459885510926629770e-01
-4.904218107378157665e-01
-1.170809148130622229e-01
-3.266562709792162483e-02
8.796445752067817425e-01
1.805097912099356550e-01
-2.230002371388896121e-01
3.470507053078545345e-01
-4.469733741747328182e-01
3.423323126437844560e-02
-3.466936857556225937e-01
-6.644958267601043522e-02
-8.872223635939405773e-01
8.843888612290416729e-02
-1.897887681354783751e-01
-4.444622016944347470e-02
2.935943904985821029e-01
4.367067189198690080e-01
-3.050930719030730542e-01
5.729466963540684465e-02
-1.108263876155572564e-01
-7.960173351336417846e-02
1.135803654453996503e-01
-1.260137583391639782e-01
-2.351419489694428142e-02
1.283072951187579080e-01
-3.566559918934857354e-01
4.170107164572826597e-01
1.862824058859360588e-01
2.621007462213685857e-01
-7.236714940707321408e-02
-2.628016249779909219e-01
1.007005196883828391e-01
1.272679230118928077e-02
3.349692826940284252e-01
4.723628576406602858e-02
1.583452551863819280e-01
8.839228711873152455e-02
3.151642307559928691e-01
3.710169635476812666e-01
-1.258121795262515941e-01
-1.672095894685904915e-01
3.260135186812520014e-01
-7.011484157953137841e-02
3.495660156466206536e-01
2.405460689508433780e-01
-9.755048338195096425e-02
1.716983691164052639e-01
-2.886454851171156299e-01
2.120898275632255858e-01
3.756884685121403833e-01
2.708436718573907220e-01
6.693917498611100247e-02
-4.232033723065057318e-01
-4.074990010273334129e-02
-5.166944639407763940e-02
-3.720710680524922376e-01
1.072255421257695546e-01
-5.668138755621698888e-01
-8.685827230318469983e-02
4.277431235035498991e-02
1.715976311154135125e-01
-7.719274506416647086e-02
-2.872357859219042409e-01
-7.473395995222135990e-02
1.755232300538893120e-01
-1.900469130457622391e-01
1.135264082245479589e-01
7.189102027013795360e-02
9.276333270340915427e-02
-1.030984275013718254e-01
2.234672539854779816e-01
5.708782141603171989e-02
1.345631821432713704e-01
-7.777620763354604616e-01
8.877625680404734043e-02
3.838777719576056402e-01
-1.399158479958224899e-01
4.431770993816698256e-01
3.963614012703182143e-01
-6.104026079378083169e-02
-3.903065516755985231e-02
-9.096426661082450404e-02
3.309080704369882220e-02
-4.031688512579422179e-01
-1.441410320318681042e-02
-3.133310853550701491e-01
-1.115758841162929060e-01
-2.178344584710950604e-01
-1.836854754867589812e-01
-4.586853453127482938e-01
-1.384538558268543496e-01
3.121284114788301367e-01
2.623497698582724288e-02
9.020897793680950072e-02
3.005134313842081073e-01
2.496846448023525844e-01
-2.622641677239652691e-01
5.185287538548711828e-01
1.370660839678899401e-01
-4.232468379473142139e-02
-1.053688998258240500e-01
-5.738433867360531737e-01
-2.810981063975883099e-01
1.771832007284615818e-01
9.650990389925875879e-02
-1.499386418953787825e-01
-2.560249575090549692e-02
2.402927412373664917e-01
4.229612991795313887e-02
1.963243783784881027e-02
-3.321441136795472149e-02
3.177544302269972309e-01
-1.615954053633660847e-01
-2.470796535039486153e-01
3.263341304504149831e-02
6.746692757207901625e-01
5.149827015362483662e-01
1.754815335449663380e-02
7.639992169492575147e-02
4.292894650081052199e-01
1.710171942726942118e-01
-1.940759236670807630e-01
-4.706718854780737038e-01
-4.314849594628694107e-01
-4.341754754393090110e-01
-8.375969115483097860e-02
7.976989830787536984e-02
3.226236819362702790e-01
-8.883722553986643511e-02
-3.209469978152726388e-01
-5.607273719005089613e-02
4.624510445821212734e-01
1.551793327139793788e-01
5.345750004292075808e-01
2.813304055515307156e-01
-4.486469092372515344e-01
2.508328087725888444e-01
-4.309327950471392721e-01
-2.456335192576364901e-01
-3.901233943766807544e-02
-3.036772788554725211e-01
-3.421376548521069538e-01
-3.845412625007054719e-01
-2.706949293436618498e-01
1.842260631504656285e-02
5.062285793999630190e-01
4.191342955814801874e-01
-1.307371201868009203e-01
-3.333480397091458935e-01
4.449081371353378889e-01
-5.371150002404746077e-02
1.895712682344827260e-01
1.606356449817971169e-02
1.508568873673296618e-01
1.464821613117932575e-01
4.317048228040408150e-03
3.207101002423164426e-01
-9.447461081586457088e-02
1.966944111636842463e-01
1.337021952648563272e-01
-1.622295316151049493e-01
1.071493030781984629e-01
