-2.535820499519274573e-01
1.246731614734611915e-01
1.755384640636279692e-01
-3.370476825463805670e-01
-4.190902528063349120e-02
1.349186073003149355e-01
5.514682603401518390e-01
-3.917385607345767462e-01
-2.111689408323818851e-01
-2.675724895921555713e-01
-1.298829321707623274e-01
2.019481055279636339e-01
4.189682089734915182e-01
-3.970192794877897557e-01
-9.322017466270855757e-02
4.580931670341382711e-01
3.037812175891680191e-02
-2.384314422187282789e-01
-2.730321624468521891e-01
2.244479179582907769e-01
-4.301803067111625301e-01
-4.201423921095002491e-03
-1.770768978091422086e-01
-9.078357800319267756e-01
1.700896427756686535e-01
-2.018426238579779375e-01
1.179218909725997660e-01
1.248403922325607984e-01
-4.264540145357423317e-02
-5.128041174900939067e-03
-1.460982927824801443e-02
-2.752278618648024491e-02
8.147175574929545194e-02
-1.647474988016246478e-01
1.860253066527091936e-01
-1.338863489107178784e-01
4.218020724181896219e-01
-3.467987151659656098e-01
2.362548445211282155e-02
-5.447950261868907129e-02
-3.369066579539136547e-02
-4.091669966667786928e-01
7.089251987711964187e-01
1.893884111359203995e-02
6.325582763865558733e-02
-4.124730908181654249e-02
1.222084604807773395e-01
6.062299688711904055e-01
-4.396065626930683590e-01
-6.625030957433458711e-01
-1.816755585709683152e-01
-2.350777542704477613e-02
-3.935709070263331832e-01
-1.092325207606659326e-01
-2.784434539155785648e-01
-9.117728882707178129e-02
8.826671291986483425e-02
-1.685212874673215275e-02
-4.443134778793226408e-02
4.916249033825627612e-01
-1.726496462512330798e-01
-3.959097586157999116e-01
-1.989028776252486572e-02
-1.257168981931169362e-02
-6.900667697526728650e-02
-3.535076699855186910e-01
-1.104239989433293961e-01
3.482024977891099576e-02
2.586203681355064843e-02
1.972341776543339864e-01
-1.058809552482622984e-01
-1.699264698340957266e-02
-3.419018560245331573e-01
-5.496413574813929434e-03
-6.519460194794648999e-02
-2.529452644366235181e-01
5.593835287223550834e-01
9.306619355937235660e-01
-1.562973452940205621e-01
-6.029602704120595388e-03
-3.824397040875783804e-01
-4.721744236464772704e-01
1.993328812388984184e-01
3.451518893421521433e-02
2.240793172085027429e-02
3.462010805512481110e-02
1.935326034687949170e-01
-1.303302553048312808e-02
-1.866530544811390718e-02
4.027813225325432844e-01
-9.283763584569078020e-01
-5.200757090593961796e-02
2.085010791286406318e-01
-1.093195344630790676e-02
-2.487930164906293762e-01
-2.471468915351819062e-01
1.427567484141758214e-01
1.916797840852378088e-01
1.598473972217569483e-01
3.000750263099616344e-01
-1.877444613353438929e-01
5.345911261902419609e-01
2.709705313886089928e-01
-9.708770815299264112e-03
-6.528311463873984200e-02
-1.410983053060493042e-01
-2.850261628731725061e-01
-1.433248171839104912e-01
6.335272836963430632e-02
-3.974130406593100878e-02
2.201462787416339217e-01
-4.446304986761615008e-01
1.598914020425009352e-01
6.204582307422518150e-01
-2.908857561566773331e-01
-7.825558458103761342e-03
-1.018272833596530480e-01
7.104326314472035608e-02
-1.364197344445014781e-01
1.027980295645405245e-01
1.788063693002811816e-01
-2.900654369965349200e-01
6.368633031813759615e-01
-4.806472303794898648e-01
3.410599786505377762e-01
-1.853137744704106971e-01
-2.218653662832113793e-01
5.408915013827089724e-02
1.809664587299792127e-01
3.499055860000740287e-02
4.642872267085684235e-01
-1.291096475935855359e-01
-9.583870913666943381e-02
2.501396923761624660e-02
-4.932403732204959090e-01
1.680882980732451015e-01
-1.924162635376790512e-02
-1.112107801824537417e-01
-2.284603171625789464e-01
-1.253860170041666000e-01
-4.671097274922644260e-01
-3.808817376315223879e-01
9.744907891368394248e-02
-2.510066488623401426e-01
6.464184152719222309e-01
-1.687847560142381187e-01
4.139153128698448980e-01
-9.120282393771701468e-01
-8.269623987180653446e-02
6.733345780457504481e-02
-4.378403922015896010e-01
2.337062741316307257e-01
1.511560034605429204e-01
-8.913398033508192209e-02
-3.264319194706254978e-01
3.929776749727388885e-01
2.674779845084832020e-01
2.770380728429715500e-01
-2.940380128080053446e-01
-2.940277280798795356e-01
-4.924555008302033965e-02
1.491258390427932512e-01
1.885213210282602747e-01
8.510297298744284866e-01
-5.027774717564729157e-01
1.492027390636789241e-01
1.030049656368798271e-02
7.520999989740521086e-01
1.165439201170795358e-01
-4.869159721965537341e-02
9.923686751707169740e-02
2.884108172696432382e-01
1.369223230673328184e-01
3.512830575352059448e-01
7.518131746330165843e-02
4.358759774446879232e-01
2.666326223707382037e-01
4.236988038613951901e-01
3.959533687721403239e-01
2.455765178416241812e-01
-3.619790767612114830e-03
-3.262001653622201292e-01
1.880887271730078900e-02
-6.917982104878245275e-02
-1.305279433900876328e-02
-6.139014112380710708e-01
1.710784425831017308e-01
-3.353247709741024457e-02
-8.782245136627084281e-02
4.386783795395398852e-03
2.506863405293604519e-01
-4.469205020049681898e-01
-9.376631288924393293e-02
1.943222399985952142e-01
1.099533123588934957e-01
-1.820207756113400854e-01
-1.992120743221548196e-01
-5.547626735264141740e-01
-3.792841848019183892e-01
1.657702454662683955e-01
-3.667782278456401257e-01
9.026134712383194758e-01
1.561279783124641385e-01
1.040986288375397445e-01
2.689702570688771166e-01
-1.559442771080124246e-01
-2.573485814842619290e-01
2.206745492321221178e-02
1.788863211800558461e-01
6.946208018367326653e-02
2.089133687829116681e-01
1.039508716188046605e-01
1.754196825646030800e-01
1.557330805901142035e-01
5.683563042795954090e-02
-1.663456944887425071e-01
-4.696835984516799928e-02
-7.518234417627878141e-02
-5.250085159487108966e-01
-1.369152437964390456e-01
4.706795667340252232e-01
1.642385579899759487e-02
-3.073600841666629946e-01
-3.448175920309023423e-01
-1.521331757504888471e-01
3.075199641037890813e-02
-1.433407068786219374e-01
-4.919925789521454318e-01
2.898414274993025841e-01
7.230366343643607197e-02
-3.582856624132849110e-02
-2.499777682294309147e-02
9.732432525041923022e-02
4.148695177153759184e-02
5.509070881947730758e-01
-2.125938473908438927e-03
1.493306533045884177e-01
-5.184001155757638202e-01
2.003244753954330076e-02
2.569505706918499000e-01
-5.069247670068808276e-01
3.795716333563025069e-01
-4.478193191701500958e-02
-1.561117938627216151e-01
-6.299089921866821151e-02
-2.049925576776599756e-03
2.395563278768336468e-01
3.768860443449223996e-01
8.963865710514921925e-02
-2.463743770215046369e-01
-3.992953895697658462e-01
3.900683713222197757e-01
-5.886523451782836869e-01
5.441387430924339297e-01
-5.749176899168672618e-03
-6.493549809367626935e-01
-1.304628780363513152e-01
-3.675998272708358439e-01
3.978090543010091851e-02
2.998017406852991340e-01
-1.162471735051531230e-01
-3.650855805190099390e-02
4.325627563550355492e-01
4.363850656958715990e-01
-9.259503421634752984e-02
