2.202386207410403640e-01
-1.105204403871655194e-01
1.053125925467524315e-01
-5.574761711857585400e-01
-9.881798367574429198e-02
1.719935394457684508e-01
8.916214931484615913e-02
6.850494224398319398e-02
2.572276112637776890e-01
4.870918907328167791e-01
4.462903126247966951e-02
-3.208193577551048947e-01
-5.661382699607845348e-01
-5.503233855055682522e-01
-1.804021947604612930e-01
1.312619693514848196e-01
-8.459233905459095926e-01
-2.343908680533007272e-01
-1.301544131139441840e-01
2.856721422463744386e-01
3.409539195502550579e-01
-8.229224815569813334e-01
-1.024655570335922111e-01
-3.172360305575933070e-01
7.660927961717289847e-02
4.151116757854700912e-01
2.498057992609615807e-01
-1.215615568330627727e-01
2.097491574191683583e-01
3.456683921463356898e-03
-1.412604209464049521e-01
7.152154858511786811e-03
4.126765193943185417e-01
-1.462867689587891810e-02
-5.688057670445572506e-02
-3.478908056137299809e-01
3.388017810914422667e-01
3.034640296392316847e-02
2.637853659788620408e-01
2.783268193895301057e-02
-2.672345457018856507e-01
-1.307381357615557127e-01
-8.466644735986926518e-02
-3.729316642223118317e-01
7.302249841453657686e-02
4.409217970218426430e-01
-8.253171744729999315e-02
1.473290690362201727e-01
-4.836710616902633042e-01
-6.178286597694951365e-02
3.124566849621250864e-01
-9.622157993179615565e-02
4.588747953475197927e-01
3.971058962707555429e-01
-4.939291255944309178e-01
-5.025663323834125146e-02
-3.266174993236934387e-01
-2.607287014733812580e-02
6.274137389150320487e-01
-4.683211176808524945e-01
1.351355818098424477e-01
-1.425744639076866604e-01
2.595640525154350731e-01
1.712799728358709028e-01
-2.474950202724085849e-03
4.861373347724289307e-01
-1.542177622577167173e-01
-1.630652286468064760e-01
-1.068076684936871551e-01
2.183305238999208864e-01
-2.971426127711652709e-01
-1.719437908542325449e-02
1.526147535137564563e-02
-6.984142701743112358e-02
-9.172071557907807149e-03
2.595930336966161267e-01
1.147281782422019669e-01
8.146360390350994296e-02
-4.377953855581818467e-03
2.682034709669729386e-02
6.863399024594410425e-02
-3.656742339733393687e-01
-2.995715026593631092e-01
-5.443528630635902088e-01
6.776843570717547283e-02
3.761337952624942971e-01
4.649873038364397693e-01
1.411463267483241968e-01
1.751797427840401725e-02
1.814134650280746150e-02
9.447073425217934750e-02
5.905451035725406417e-02
-7.768674691599426751e-02
-1.983897509187532507e-02
-8.384541064171614766e-02
-1.523608078233325280e-01
-2.975961994170358421e-02
-9.903339558518552133e-02
-2.531846447582781767e-01
9.071121388320613210e-02
-4.073513377299456950e-01
-1.303839598530435184e-01
-3.475697204987407973e-01
-4.314452680655716521e-01
-4.273040943600025371e-02
-3.066963033410938927e-02
-4.845050751162027769e-01
-2.320799328680360762e-01
-2.312033423088046269e-01
-3.809872267156975689e-01
-1.107129931315089938e-01
3.023117667257443908e-01
2.887429063121678130e-01
6.321248210639139609e-02
-1.196135857655476614e-01
-1.519821991472135037e-01
-1.342229844331967459e-01
4.303068359579592106e-01
2.435709772900879755e-01
2.729253448846790525e-02
4.156394460833445770e-02
-3.377616885396924062e-01
-1.446959143541415860e-01
1.508500469433536606e-01
-4.024183359608110577e-02
-2.448266843985191787e-01
-6.487247023171137661e-01
6.086359435983817318e-02
1.092183691462796508e-01
5.715298600431707454e-01
-5.145203413800455809e-03
1.346768053305306967e-01
-2.225509379165111629e-02
-1.375271356708147874e-01
-2.633128802106881605e-01
-1.499072946882941404e-01
-1.210122510497256970e-01
-5.822888336284506305e-01
1.408127817109561253e-01
-3.425795719656254956e-01
1.383172811692873205e-01
-2.972827915196236681e-01
2.579187026219231793e-01
-2.353408247241683127e-01
-4.473147776687102367e-02
6.881513243241342559e-02
3.185171054524034706e-01
4.018065392550352888e-01
4.153535335763636760e-01
2.252880446696023664e-01
1.656160136686687934e-02
5.808713599448199760e-01
-2.390034397259030441e-01
-1.351534605427040514e-01
-7.446225293421980529e-02
5.618382033140166820e-01
5.141175861777376455e-02
-1.056585503962786804e-01
-4.405452480024760198e-01
-2.433865062341219465e-01
-2.270343704012326991e-01
1.654312668961471777e-01
5.451937467766406753e-01
6.077028602322495643e-02
-4.807377023110800257e-02
-3.170080892492499469e-02
-2.291660840025324872e-02
-3.755414538208412534e-02
4.090545007202538164e-02
1.552904520856922821e-01
-4.720608303978277021e-02
-2.184325872724907081e-01
4.209569966172838767e-02
-8.591851896887461870e-02
1.011087172346763086e-03
-2.316377915016957223e-01
-2.012114283747709342e-01
3.576936370611718541e-01
-6.016093162391019655e-01
-3.943602970245659867e-01
3.944332686359612594e-02
-3.541404850865758625e-01
-3.532160676131377852e-01
8.613654847036086859e-02
-3.970557660442945447e-01
1.878054384974481850e-01
1.947947942884212802e-01
2.034923401600923776e-01
2.035329882693415540e-02
-2.453637568112227441e-01
2.430016637189174600e-01
4.266018155644138998e-01
-5.819933489404277571e-01
2.916661508734267327e-01
-4.103176237420875783e-01
-2.966089058659289734e-01
-9.474087589109050911e-02
-2.036298952314023400e-02
1.840765703465618158e-02
-8.726408810549300954e-01
-4.216043529240194321e-01
1.541597153552329638e-02
-4.896225299643476303e-01
-2.922846618761273593e-02
-4.633272439280565203e-01
1.041223348622582756e-01
3.590566369465564289e-01
-8.389090972967777615e-02
-4.093767801630743830e-01
-2.933011909111651327e-01
2.219241764563408548e-01
4.390929303182702914e-01
1.251953084958790929e-01
3.356988779541578705e-01
-5.766834162286191279e-02
8.328135719522341412e-03
8.512418349634243153e-02
-9.990315130442628533e-03
2.216429245880779386e-01
3.311335570948175655e-01
1.124637921644111999e-01
-2.924375520506766191e-01
-1.213527540529422549e-01
6.810715024643815285e-02
4.503036579923658939e-02
1.240017914736793979e-02
-1.512520805828838910e-01
-1.167590406756523480e-01
-2.883342042804743488e-01
3.111043282111413122e-01
3.023381462237489381e-01
-1.021140071795446080e-01
-3.023514990968745875e-01
-2.284715392595909611e-01
-1.144446130510611559e-01
4.433832654232449655e-01
-9.957611498345195211e-02
1.579547085074827217e-01
-1.126511527633821258e-01
-3.661509870926293181e-02
2.661507342143569835e-02
1.170569585554562947e-01
-3.133527577228588101e-01
-2.317359160618829295e-01
4.994107640840495521e-01
4.538460861846080330e-02
-3.974141825923561688e-01
4.214620290616067910e-01
-3.610231945244121721e-01
-8.520550259546826044e-02
-8.277096665947741849e-01
-4.047961176740884626e-01
-3.367181150508233300e-02
3.669725016323711897e-02
-4.722700087325217705e-02
-5.030332347047823394e-01
9.612701117603343615e-02
4.242646415316236874e-01
9.242918366697160104e-02
3.507946398188867970e-02
1.178761550866918029e-01
-2.661553637457232391e-01
2.354324847966901557e-01
4.275938134545024805e-01
-4.050255336763814440e-01
