-1.323106080821645492e-01
-1.712608972159006815e-01
7.572218450890612074e-01
4.909420834537825407e-01
3.199811777152899439e-01
1.905486225520844346e-01
2.278364179500032560e-01
6.221554466692465896e-02
1.273884740277585192e-01
1.265606393658027518e-01
5.172148775691224332e-01
-6.460991803863619376e-02
-5.728982431547591236e-01
4.920089726263272012e-01
-2.407145145975034539e-01
3.446992476286743767e-01
7.290184879745498225e-02
-4.120517918718641370e-01
6.110812919372299312e-01
6.020265409884285601e-01
-3.430044130604578689e-01
-1.393225515706965865e-02
-1.728541230942269580e-01
5.534291610224407743e-01
2.536242532638632863e-02
2.510628347615714295e-01
-9.927424272870398470e-02
-2.563110311911930839e-01
2.828961380888986854e-01
5.710977334761910829e-01
-3.501542258321094399e-03
2.224808021929945145e-01
2.709357703519935656e-01
3.401080910525078327e-01
4.061432916663130221e-01
3.153353240021457560e-01
2.334022739078336905e-01
-2.910866837297001672e-02
1.255128562605875020e-01
5.547210554511178976e-02
-1.477180746818961554e-01
3.486101089597273828e-01
-1.917145991634421065e-01
1.509326004480386965e-02
1.437917860119010405e-01
-2.116404354753665951e-01
8.302597126954250339e-02
1.750862889068183770e-01
-3.436623680749926746e-01
-4.439656161052479844e-01
2.072767635427411326e-01
-7.856414825006365898e-01
5.199374626465718130e-01
4.830636039414055172e-01
-5.684057060175738973e-01
1.419987223430091150e-01
5.099172432915114600e-02
1.971234853530629688e-02
5.853458816523146035e-01
4.134430957896901293e-01
1.719457061897385064e-01
4.816207726174977499e-01
-1.022181178264865570e-01
3.493966819511976074e-01
-2.411246253794692776e-02
-2.659265170500376141e-01
3.481359663346039190e-01
-4.664075076544820786e-01
-1.273628033876458010e-01
-1.441667767944063705e-01
2.897363076901340873e-01
3.058375869297595417e-01
6.800750134743470676e-01
-5.412780424633525378e-01
6.405202004041203601e-02
-4.561237080258823684e-01
2.536483313260721739e-01
4.688813740718968948e-01
-3.060946361068417332e-01
5.610829556969660903e-01
-5.362255836499443262e-01
-1.555643277692693727e-01
-9.534844128780610717e-01
1.199770227249726401e-01
2.587631489139398111e-01
5.130839171938511578e-01
-1.879236726077567199e-01
5.466477132273720452e-01
1.165893206647871244e-01
-1.282796898237015815e-01
-3.792749253196848191e-01
3.260340908926477321e-01
5.905666358137856564e-01
2.590996340863773173e-01
-9.737128489366709827e-01
3.278513389128515088e-01
1.612324658764945073e-01
9.936959474298000597e-03
-4.410134887403332482e-01
7.986351579219946872e-02
1.454928403602089027e-01
-2.744704495663151667e-01
4.070652046385561107e-01
4.816554477876001245e-02
4.462523701011126415e-02
-9.483554261179186207e-02
4.165803519907539387e-01
7.961461124312808890e-02
1.187375432360875116e-01
1.130903371724093776e-01
2.922081620335330032e-01
2.613280791171659900e-01
-1.312916696558878160e-01
1.808024986384098309e-01
-8.359690343770936893e-02
-4.071680864942325284e-01
-9.566716276692895093e-02
2.937221665776376667e-01
4.229067600782917408e-02
2.024530736485175356e-02
1.178455152469067291e-01
-2.882711010969500887e-01
5.327710267736469607e-01
4.521011304381169355e-02
3.000442436648287914e-01
-3.582377707961865720e-01
3.537520898017496029e-01
1.230269169433132193e-01
-3.646993556975027806e-01
-3.126806393406584283e-01
9.771136999804842793e-02
-3.694880212607187242e-01
-2.256609146912214869e-01
-5.889847021720434617e-01
-4.740649600328961794e-02
1.195028464682112435e-01
-6.343150458937682479e-02
-3.079498450018060274e-02
-1.855973269481528687e-01
6.689817266308062393e-02
4.259992782240919484e-01
-1.834222847024000180e-01
-2.920997088159165700e-01
-2.939014887836092216e-01
-1.101306991636053084e-01
-1.297768362589226121e-01
2.660695674862807447e-01
-1.633637504963009468e-01
5.724983422538975075e-01
3.707092633696978945e-01
9.078340870016250730e-02
3.160320190746987445e-01
1.388949101964449817e-01
-1.960042919176726572e-01
3.003074781670143079e-01
4.915386340092818829e-01
1.805213666218007107e-01
-3.183725336209681234e-01
-3.885369426959683382e-03
-1.658175044690095301e-01
5.371106446843344484e-01
3.186834711254769026e-01
6.951939833436066030e-02
-9.045826076618222744e-02
1.120377276053949461e-01
2.726231392146438171e-01
-2.239471152430249357e-01
-2.374922697978400499e-01
9.396751376840984478e-04
-1.044809789050132887e-02
1.639246941305647770e-02
-5.518083015469646968e-01
1.300530686379033907e-01
-2.329136245881153686e-02
-2.698269748886335528e-01
-6.184049961797296602e-01
-4.729744852520492010e-02
2.618084750768382568e-02
-1.010853602161436299e-01
1.432541971656004220e-01
-1.154313426415509714e-01
-3.339181519404290088e-01
3.358797970190817717e-01
8.951632940068149358e-03
-1.751144052113389957e-02
-2.443582441683938011e-01
-1.867124955033154857e-02
-4.575977273833806702e-01
-6.999142536352923050e-02
2.421393083373481470e-01
2.085685326877494486e-02
-1.207230431436943745e-02
2.858707651820250328e-01
6.987368677523050908e-02
5.741974912955938315e-01
7.389785867870632408e-02
9.694713626100689985e-02
-2.203692699125931742e-01
-1.720300539525631278e-01
-2.566138100018447998e-01
2.641323062275011679e-01
2.374405849136646540e-01
1.626108562696624571e-01
-9.672129428633416404e-02
-1.822207250803665468e-01
-2.384189379943835729e-01
3.375465560300330153e-02
2.386598716888641281e-01
-1.380160909845634110e-01
2.046341369284597478e-01
-5.839271995393968684e-01
7.813555239567677724e-01
-2.553165345083882251e-02
1.453428550108450401e-01
4.689183820501891531e-01
-5.739772399052269769e-01
-2.365203490563766442e-01
-8.345250897827836134e-01
-1.823151610680369128e-01
3.702138623005163942e-01
-3.573449337025260131e-01
-1.750613289539091899e-01
-5.789915148297580458e-03
-4.544285209972683259e-01
-5.278876984121490257e-02
3.508327693305287043e-01
-2.801753000259082568e-02
-5.956062843504513760e-01
3.087820165699999286e-01
3.913595598191044744e-01
-4.888822660591475300e-01
-1.106508127393509566e-01
-2.237396288347933415e-01
2.394085283305427692e-01
-6.299871049265916012e-01
-1.593227400595211563e-01
-8.754168066884962518e-02
-3.863930775184976074e-02
8.598227629630246505e-02
1.553160001990656729e-02
-2.855557677686433316e-01
6.219932465099071717e-01
-9.579586429257065661e-02
4.353551138363049300e-01
4.718486310771649039e-01
1.920916362982796055e-01
7.365969137452772764e-02
7.260479744512202127e-03
-1.282583754878472704e-01
-3.758339933040902303e-01
-6.926831984957450006e-01
3.830442348675696107e-01
-7.826472573099828300e-02
5.905142180252151429e-02
-5.226522187703967759e-02
5.048116851354785689e-02
6.854706682942121043e-01
-1.209847292216061077e-01
-3.137659491426549041e-02
8.605381054791672035e-02
-2.728721479361587154e-01
7.802007260823638768e-02
-2.120158491769593978e-01
5.693145001001478356e-01
1.663102592894453169e-01
