-1.339998417242314332e-01
-8.548952141969012875e-02
3.899338263548632333e-01
2.085775102518247215e-01
1.731725682543745204e-01
3.008107876973124539e-01
1.504662930705537305e-01
-1.872461141402937124e-01
5.908809985349980365e-02
1.857256824172250631e-01
1.724263299622245671e-01
-1.223362293661747202e-01
-5.281893615237941431e-01
1.321957337996388926e-01
-1.058637204526075848e-01
-6.711639386566167764e-02
1.334367898514072226e-01
-4.502474796316393024e-01
5.396442936300160920e-01
6.373958488417397206e-01
1.250631124346541501e-01
-8.904428364128010032e-02
-2.260054083393196467e-01
5.035991719722963111e-01
-1.511581246756742714e-01
2.674472194893566246e-01
-5.663557851288582995e-02
1.237589107689556212e-01
1.827620196011482956e-01
-1.152139328815424274e-01
-7.320454139501725299e-02
1.484713109903257611e-01
2.547302237758596322e-01
-1.990848149314970728e-01
4.008611366587794267e-01
2.979897796281812949e-01
2.387621236723689588e-01
4.826710528743100720e-02
1.738201893837063583e-01
-4.933846057861427381e-01
-6.280154762844902816e-02
-1.388350735176837047e-01
-9.458051152495938751e-02
8.659593106037499766e-02
1.178790586998708784e-01
-2.092864731681909618e-01
1.889516286180646931e-01
2.029842630431984707e-01
-3.905254414305102117e-01
-2.718823506051044614e-01
-3.516540664378789427e-01
-1.076223806214186007e-01
-2.280282081159803187e-01
5.006722882871658120e-01
-5.828141233434054325e-01
2.013703040426495505e-01
1.243624397306263563e-01
5.081851402865431022e-02
-1.948105196686811813e-01
3.413358794492337145e-01
9.877006895359534411e-02
4.547099532179076364e-01
-2.448698215142447454e-02
3.644265873367306119e-01
9.176104986062372237e-02
-1.565814427220500182e-01
3.091342132419948596e-01
-4.967491306235952697e-01
-1.081045886885799862e-01
-2.083224582908357880e-01
-3.921558941416473099e-01
-2.750683026952498444e-01
7.932400908156551633e-01
-5.076736884486430235e-01
1.144067414942830790e-02
-6.570205604884027384e-01
1.926787836648388708e-01
3.723829677472545452e-01
-2.968198816477178315e-01
5.065035961996056102e-01
-5.854850085864344855e-01
-1.332455652414223368e-01
-7.936541890120930864e-02
1.103475187640134136e-01
2.921872711471130701e-01
4.104386785798241899e-01
-1.486640939672534412e-01
6.404734688886619676e-01
5.391414717597606820e-01
-2.258128060524258740e-02
-3.743982707145950711e-04
5.691140041013691142e-02
5.517311673957743245e-01
1.660389645809246528e-01
-2.132661134274163595e-02
4.100063843182071843e-01
-1.221235363010480801e-01
2.917011433235500856e-02
-3.954721841849189179e-01
8.851573216938542210e-02
1.582335686539294017e-01
-2.314186098312712159e-01
4.902782181818354235e-01
-7.248858275715039934e-01
4.626931755914613642e-02
2.388354872706130450e-01
4.265409522050193636e-01
3.984073547452500474e-02
1.180164076002437612e-01
8.171895638501686099e-02
3.431939273358786680e-01
2.779803280255041531e-01
-8.399808197910291208e-02
1.406152515033660122e-01
-1.992625393639476106e-01
1.286902932792339249e-01
-5.200870674946723310e-02
2.523232536189588537e-01
-2.952436814378969210e-01
1.461618293818263969e-01
4.012635987211921745e-02
-3.630554229699007318e-01
5.571093071389668916e-01
1.564547454730165835e-02
2.401856153588853571e-01
-5.277201865321810015e-01
3.451412684360205541e-01
-4.735671000950665566e-02
-1.637149784434015487e-01
-2.241849909205804459e-01
5.467049136544943622e-02
1.492409257390495958e-01
-1.544912215836926617e-01
-6.006072675714784204e-01
-1.156573317231165618e-02
2.625906070356488486e-01
-1.552791117263348231e-01
-6.547378117702028211e-02
-1.007205438570573930e-01
1.571644616607495160e-01
-4.627745402573076872e-01
-6.367688393028457516e-02
-2.925785668550545671e-01
-2.698420083331319330e-01
-9.329047952520248821e-02
-1.955557587010589571e-01
2.502992196694017735e-01
-1.190017439752262957e-01
6.224286648753600826e-01
3.743104386459123467e-01
2.024888341531686231e-01
3.057909017225300952e-01
1.204490635342358035e-01
-6.152431091796119883e-02
2.736951873250803025e-01
5.085939410330593269e-01
2.677816770653705380e-01
-2.864025701599033358e-01
7.626275432663134554e-03
-1.182420521601158930e-01
1.009151827515022415e-01
3.061321918173245393e-01
-2.439528126037671801e-02
-6.449879743778526298e-02
3.569878513413096699e-01
3.257943340960064438e-01
-2.557819890167315480e-01
-2.588391397846457886e-01
4.930115754910070758e-02
-9.675518828583534736e-02
7.011695064475055583e-02
-4.530481913433253571e-01
7.455493546045932618e-02
-1.582902439520243384e-02
-2.237519656473707097e-01
-5.930575609228582179e-01
-1.532839671496974421e-02
-3.301331004316421236e-02
-5.650794451580950367e-02
4.974920717686202865e-02
-1.694529428977057106e-01
-2.991576832918840800e-01
3.644331951923877044e-01
-9.861818843176192728e-02
2.108628675520897444e-02
-2.352978829144493356e-01
-4.341057425990640928e-02
-4.886267234321222674e-01
3.513792001217175831e-01
3.825726741766605765e-01
-1.543656978860057372e-01
-1.897558255770240010e-01
2.302230887727882425e-01
8.590607873045807974e-02
5.325493845729959430e-01
1.351580077410121095e-01
8.175171665338455684e-02
-1.845734476847418759e-01
-1.866938851975658009e-01
-2.749373370401901329e-01
1.963543135696113051e-01
-3.618717076965004553e-01
1.531189679759733246e-01
-1.703760928022636789e-01
-5.333498368533632489e-02
-2.285062260600880246e-01
1.657395859477646394e-02
1.927770182486174266e-01
-2.453921799213641952e-01
-3.730793847910655880e-02
-5.735142906260095597e-01
8.293318411864710749e-01
-9.178240257066358487e-02
2.003169959250245546e-01
3.232400465737855222e-01
-8.719947183705464844e-02
-2.758009231968124864e-01
-4.943854974351610809e-02
-2.173924670970065476e-01
2.614046774527131745e-01
-4.478560792069233298e-01
-2.954943863383682756e-01
7.811047699763259966e-02
-4.386695841697099696e-01
2.770453919377002805e-01
3.014358116104293717e-01
7.351239585466906590e-02
5.398787717361808874e-02
3.820775551073257170e-01
3.352788336974655836e-01
-4.345126152913326711e-01
-1.341048364748385069e-01
4.742003541190145111e-01
2.158910469966106305e-01
-6.160356974768066429e-01
-1.336200636215539583e-01
-1.075780508080984854e-01
-4.253629186149174290e-02
-2.995553738323355336e-02
6.930611712304086958e-02
-2.943269486780918931e-01
4.539411829896830008e-01
-4.913970817609256136e-02
4.303652677378358993e-01
4.727036978285094060e-01
2.221063076849705831e-01
-3.250341393422604558e-02
2.197569771838975283e-01
-8.047680913604157715e-02
-3.442341170909164472e-01
-7.141083793982709871e-01
3.807736924913291410e-01
-8.684123930820572546e-02
1.566468522778401429e-01
-1.149095358969276504e-01
4.522961825358028792e-02
7.754550965133686358e-01
-1.396408494750418505e-01
-6.795998815927237202e-02
1.876376230352253816e-01
-2.995338861047708301e-01
4.030475278660526905e-01
-1.647986533731908287e-01
6.453481868536959931e-01
7.273955171920006013e-02
