4.457100735520903578e-01
-2.444981302577067528e-01
1.201923108958043995e-01
-5.366614875465175460e-01
-3.473994786118747569e-03
1.770247055058216945e-01
-2.293626495205540738e-01
-4.323992447081358437e-01
4.299826624375886058e-02
5.267747455527888034e-01
8.501848006408739555e-02
-3.175182442067160382e-01
1.444841689749711278e-01
5.633726602326305510e-01
-3.808816669384670894e-01
9.885219178031330600e-02
-7.083317306157019821e-01
-1.248115443913053596e-01
-3.556905396246969886e-01
2.977633573479867013e-01
3.114957277078409525e-01
-3.160258037355031524e-01
-2.494678717995533757e-01
-2.943340823468212353e-01
2.863632129003268467e-01
3.295299197492827514e-01
3.102198160445499564e-01
-8.961620243824210130e-02
3.108771993687544644e-01
-1.123940699568742596e-01
4.330009570796528040e-01
1.155228000012633593e-01
4.295455246721098241e-01
-1.300505742906458637e-02
-1.274728037325382757e-01
7.123955749925131586e-02
2.988954404732434567e-01
4.133044298434020158e-02
-2.408637557537932072e-02
9.290962955376706744e-02
-6.780096333354088123e-02
-1.784311998354014550e-01
-1.708598008388065304e-01
-3.661299074404925080e-01
1.436558238881768534e-01
3.933011551324235855e-01
-1.516948528523109352e-01
2.381087225260193618e-01
-1.087350378354854374e-01
2.718564682183360337e-01
-2.432104983109004137e-01
-1.113463710060316747e-01
5.014533409503267869e-01
3.024371548359116035e-01
-5.383391617799532236e-01
2.463089561018983603e-02
-3.404863887196093453e-01
5.863365896191367194e-02
4.492255520782715283e-01
4.615754101413489102e-02
1.499913013831756792e-01
1.630228364151681264e-02
3.054701833866122485e-01
2.452503553019834415e-02
2.176611519980881093e-01
-1.036858628742976518e-01
1.847236465789370286e-02
-7.681849079838821981e-02
-1.189806771003035085e-01
2.064980485903502028e-01
-3.983137318042673236e-01
3.362313065558794611e-02
1.463841127217236360e-01
-7.978163459191074669e-02
2.759695279704968418e-01
2.161632026935760564e-01
1.158938091001139870e-01
7.564766978961678934e-02
-2.630246371838362851e-02
2.631746796232029006e-01
8.028579912888522685e-02
-3.064305798999805708e-01
-2.991190183486938658e-01
-6.294594453951343205e-01
6.106500027529319918e-02
2.847647898704038782e-01
2.751812140638209003e-01
2.076121692254892792e-01
-2.697321632885278930e-01
6.032511018914641365e-01
1.146088766516079188e-01
7.991086972114791465e-02
-7.525176787058363015e-02
3.153393163572956737e-01
-3.011987479513512644e-01
-9.567394285082621297e-02
1.615198959561923164e-01
4.917948671501628372e-02
-1.894594511049990104e-01
6.540166580945752650e-02
-4.128890055535310299e-01
7.559613236727132091e-02
-1.452420686838731823e-02
-1.395682034592440335e-01
-8.573414249591282399e-02
3.370645842210909238e-02
-4.765227754315965458e-01
-2.782377342683233779e-01
1.955109322590836973e-01
-1.933383218229069167e-01
-2.510697813861658134e-01
2.867036265531632822e-01
3.525535809841160440e-01
4.886125859288092954e-02
-2.716987574457386811e-01
-1.348651380312207715e-01
-3.697924472358295883e-02
4.436737222295989991e-01
3.767376763839129228e-01
5.295900954089290125e-02
-2.289866948099554544e-02
-3.968194132091452664e-01
1.928379986114250599e-01
1.387071728749629806e-01
-1.961233485757452044e-02
-2.259712522417586800e-01
-3.869806535673731701e-02
-1.752543951927346133e-01
9.350081063521963054e-02
4.201533914236650347e-01
7.076903108368241824e-02
2.236911861889067099e-01
2.064325613872772247e-01
-5.590438397032788942e-02
-2.874382988771276848e-01
-3.308986676170589530e-02
-1.381492824863369551e-01
6.387013104770903338e-01
-2.791401828428481946e-01
-2.769793125132318790e-01
6.756025570756177268e-02
-3.741618186895168119e-01
1.961425405935757760e-01
-1.168763690346385220e-01
-1.785085041042498988e-01
1.244694539623105167e-01
3.403523887905918199e-01
4.619225199594815257e-01
5.990609292997006730e-01
1.502782070350140164e-01
2.736683671432609821e-01
1.980266412041286617e-01
-3.059329417129301731e-01
-1.751340595062328698e-01
-1.604122121658646261e-01
6.020012506709779831e-01
-2.055244655117311608e-02
-2.425830141351041913e-01
-4.486754542151376035e-01
-2.313104995142246378e-01
-2.644432240038865345e-01
1.478524659874419223e-01
-3.345852836155288057e-01
1.408879090546420187e-01
-4.127505387231729661e-01
8.092920832440370082e-02
-2.394488309276794347e-01
3.054748293269008430e-01
2.633132544482391091e-01
1.750304179270785743e-01
-3.292160554057663863e-02
-2.299903877273124508e-01
-1.045265707211981976e-01
3.951753690829164396e-03
5.601063738097784850e-02
-1.517584545982000876e-01
-4.604882700791634864e-01
3.032684729556748837e-01
3.902751889790277359e-03
-4.050219204179832388e-01
-4.035876474669615119e-03
-3.737174147792572398e-01
-4.118295829361414140e-01
-4.224740196689908966e-01
-5.771301525480511119e-01
-7.337923450296375549e-02
1.633808928989503861e-01
4.463011237884286220e-01
2.714544287366225939e-02
-2.732686016336939860e-01
4.802955114022949279e-01
5.168165920394760526e-01
-1.588115638557385523e-01
1.029815097613186736e-01
3.622957879554432603e-01
1.294986580166959389e-01
5.974112421702412745e-02
-2.352162466174762337e-02
1.234693379672222729e-01
-7.220870153648625833e-02
-3.300887006130404089e-01
2.396837403896413810e-02
-4.913540773776360893e-01
9.390315011035302306e-02
3.644638158629806557e-01
9.383481491112047324e-02
3.296272096677380636e-01
1.037816792750436423e-01
-5.658962693364216756e-01
-1.890420187026010113e-01
-3.738453836594941015e-01
9.181786848066957052e-02
-3.707461155008205667e-02
1.484525392340076411e-01
3.684760891805388683e-02
7.688335781644087263e-03
5.454968181650050874e-02
-2.209114555731875318e-01
1.890390341955946463e-01
3.633929254000501374e-01
-9.938128220091516085e-02
-2.019827777167168825e-01
2.691823885042251008e-01
5.947963642022272013e-02
5.064392933075794606e-02
3.475067001623055041e-01
-1.286213706743764562e-01
-2.073513822753487168e-01
-2.049041849267510818e-01
3.210154785187179782e-01
2.815114043755654327e-01
-3.373253815174439563e-01
-1.703965043850858285e-01
-1.750832824378684982e-01
6.208348765654524842e-02
5.002494039088526412e-01
3.674257497337436035e-02
1.981578767169524524e-01
-2.233282598632818083e-01
-1.236521565733452455e-01
1.777086926708866532e-01
5.500269632560809141e-01
-4.324475251507133855e-01
-2.415284703956310230e-01
6.749816774053709612e-01
5.476388336570250370e-01
-4.327972947114511193e-01
4.081642008723001536e-01
-2.640523033370963391e-01
2.633237519288601503e-01
-9.489465497927784821e-01
1.046442497954803014e-01
-8.068575431910096629e-02
1.226331233600978232e-01
8.915593543006478106e-02
-4.811281902553660172e-01
1.544238020146322388e-01
4.752131244846911073e-01
3.874444663095315267e-02
1.242829118640025911e-02
1.939900034482184288e-01
-3.672487582809759177e-01
1.998899035013897985e-01
5.099118833960424313e-01
-4.907173163172811048e-01
