-1.000000000000000000e+00
-1.000000000000000000e+00
7.141386606450912389e-01
-4.152668941413025228e-01
7.104713114095362325e-01
1.000000000000000000e+00
5.432011306810375917e-01
-5.341055119344694235e-01
-7.269410542568865985e-02
1.000000000000000000e+00
6.005119069597332215e-01
2.238718359152538917e-01
-6.712990558264909646e-01
-1.000000000000000000e+00
8.398852199341336755e-01
-4.553390545571671666e-01
-1.000000000000000000e+00
-1.000000000000000000e+00
5.637591758692408472e-01
1.580001416650589907e-01
1.000000000000000000e+00
-1.000000000000000000e+00
1.000000000000000000e+00
-1.000000000000000000e+00
-1.000000000000000000e+00
1.000000000000000000e+00
-1.000000000000000000e+00
3.630120656114609323e-01
-2.512888640314688837e-01
-3.340204378326384616e-01
-9.183135894694167689e-01
-3.296250843503830685e-01
-4.220687215358738809e-01
-1.000000000000000000e+00
-1.000000000000000000e+00
-5.657549237367511807e-01
1.000000000000000000e+00
-4.574337675151101124e-01
2.309799861977342994e-01
-6.804256531893535520e-01
-1.000000000000000000e+00
8.220855050460458280e-01
-8.090868543081759512e-01
-3.780448802568403543e-02
2.926192244833591971e-02
-5.236147051285163778e-01
-1.000000000000000000e+00
8.094081115472981924e-01
3.297572348995113645e-01
-2.382716039289219934e-01
-8.845401724188053372e-01
1.678673465498184969e-01
-1.000000000000000000e+00
-5.122480353008802556e-01
-5.990865315830300464e-01
5.161147196974007478e-01
-1.000000000000000000e+00
1.411996152159614160e-02
1.615135350610598097e-01
7.871100273601164821e-01
5.206459620218311102e-01
-3.152562790335671772e-01
-1.000000000000000000e+00
9.721830620858763483e-01
-6.506134249818222859e-01
-2.804360103764664824e-01
-1.000000000000000000e+00
4.165343705772339700e-01
2.765882933867254145e-01
-4.418875535731270343e-02
-1.000000000000000000e+00
-7.621576551517255105e-01
3.399601361748095241e-01
-3.587270799756395734e-01
2.852166681052787922e-01
-3.068831370084931232e-01
9.112259410365910473e-01
-4.596612042015608690e-01
-1.962707237681013961e-01
2.697789798458670729e-01
-1.576503197500890852e-01
7.679185820348877201e-01
-1.000000000000000000e+00
-5.008649417880322030e-01
-5.251934615546871576e-01
-2.562716132065807548e-02
9.059372064186055340e-01
-3.232953665032566870e-01
-3.737262217339382686e-01
6.873547188940781760e-01
-1.000000000000000000e+00
1.000000000000000000e+00
9.827557382213645276e-01
6.001448241950464446e-01
-9.746797537645865983e-01
-7.389333454790888434e-01
4.430278708767660945e-01
-6.058364847570582024e-01
1.000000000000000000e+00
-3.144233353231864481e-01
1.000000000000000000e+00
1.000000000000000000e+00
-3.954895023076089311e-01
1.000000000000000000e+00
1.000000000000000000e+00
-1.000000000000000000e+00
-6.560737537016878562e-01
-6.413574308586550421e-02
1.471956436927764900e-01
1.000000000000000000e+00
3.487480872630517315e-01
6.191123040399586497e-01
-1.756421667960986754e-01
8.853875440855850654e-01
2.470223714627239886e-03
9.506126799964174090e-01
-1.000000000000000000e+00
-1.000000000000000000e+00
-2.697663610941017365e-01
-9.994834885577049688e-01
7.331175790472282960e-01
-7.118648747097051643e-01
8.585436755119080221e-01
1.106757166714922302e-02
5.565957914008188290e-01
-1.000000000000000000e+00
-7.335011823250072727e-01
-9.803680492497536259e-01
1.000000000000000000e+00
1.000000000000000000e+00
-1.000000000000000000e+00
1.000000000000000000e+00
1.000000000000000000e+00
6.954102288976373725e-01
7.595326270964001258e-01
4.728684831918507081e-01
-3.108504200238680348e-01
-4.043397351115018967e-01
-3.438399044278797057e-01
-3.491598590513351752e-01
1.000000000000000000e+00
1.000000000000000000e+00
1.000000000000000000e+00
-4.874438721228370186e-01
1.000000000000000000e+00
-5.246979791814809085e-02
-1.000000000000000000e+00
-1.000000000000000000e+00
-1.000000000000000000e+00
6.303550220972252704e-01
3.449770451595285392e-01
7.302069698908841833e-01
-5.639105686492886793e-01
-8.494000432057066119e-01
3.428752157119530075e-01
5.473541084748803076e-01
-1.000000000000000000e+00
-1.248294489483675468e-01
6.415264773241697860e-01
-6.422295301208202911e-01
1.000000000000000000e+00
-4.904552481134050179e-01
5.278642519183980308e-01
6.285229585059218804e-01
-6.510332827983837944e-01
3.547724011841394409e-01
-1.000000000000000000e+00
3.400519738595617625e-01
-2.764107368992448355e-01
1.956562598564794975e-01
5.823802277394312110e-01
-1.000000000000000000e+00
-6.008890355744820333e-01
-7.955833767571430792e-01
-9.588596127233842137e-02
-7.896288801222257625e-01
9.732161220897850296e-02
-4.425596717007412306e-01
-7.028208375867703861e-01
-4.592167320956725973e-01
-8.757565304099719228e-01
8.565881622337254697e-01
5.844491389709595142e-01
-6.978922086735804831e-01
-1.874503420566042688e-02
-1.000000000000000000e+00
-1.000000000000000000e+00
5.270905779925351142e-01
-1.000000000000000000e+00
-1.000000000000000000e+00
9.051004092705712267e-01
-1.000000000000000000e+00
-1.000000000000000000e+00
-1.000000000000000000e+00
-4.572540315243551201e-01
-4.697618829648263494e-01
2.162585813782507138e-01
1.000000000000000000e+00
1.000000000000000000e+00
-9.600031262848170988e-01
3.306732398617614477e-01
-1.000000000000000000e+00
-2.622873077473785730e-01
-8.386653075772076971e-01
-5.928459327693197389e-01
5.473349505825673145e-01
3.428926715606924747e-01
4.023470251422245902e-01
2.244922321731778192e-01
-3.642827576852146754e-01
-7.542255738436591805e-01
-1.000000000000000000e+00
1.000000000000000000e+00
7.611714787614779487e-01
-4.532841348606331255e-02
-4.704707032924623222e-01
5.467164869466896171e-01
7.762092777577890290e-01
-4.357373852225334687e-01
-3.671706948631570655e-01
-9.680713645662760714e-01
-2.067564597778984714e-01
-2.452816987263221060e-01
9.135914570919206890e-01
7.878055329810479401e-01
-4.971063329353964111e-02
6.393489323798892121e-01
4.282396182629251147e-01
1.000000000000000000e+00
-1.000000000000000000e+00
-1.381634113948911058e-01
-1.000000000000000000e+00
5.206636426465948153e-01
7.421423241100018053e-01
-4.097261460581061443e-01
1.000000000000000000e+00
-5.589438400010182662e-01
6.589718409861452519e-01
8.166764204596158594e-01
3.612428963062574994e-03
-4.126346018217716405e-01
1.000000000000000000e+00
-1.685739062488389450e-02
-3.928834268098754801e-01
-1.575762812568013982e-01
1.000000000000000000e+00
3.220411264470627311e-01
4.256018270788616831e-01
5.556798020451386710e-02
-1.000000000000000000e+00
8.681226799505171732e-01
2.513979786670478278e-01
-7.559407398715672910e-01
-3.701438955957314647e-01
1.040571540582295729e-01
-9.076128877545672768e-01
7.457648240594481059e-01
4.713607815384283084e-01
1.000000000000000000e+00
8.077338509665845656e-01
-6.605573064702910391e-02
-9.648108641205757063e-01
1.000000000000000000e+00
-5.936787114953572253e-01
-2.401734055181760086e-01
