2.392660804344404757e-01
3.631014295993163776e-02
1.706044819533821533e-01
-1.476007811550242577e-01
-4.242401031646176879e-01
1.164893910841089814e-01
-2.767383612054263309e-01
-4.290144691168601421e-01
1.765615715464657065e-01
-4.259908356254589190e-01
-4.894131483093196178e-02
-4.052364227657304085e-01
3.029694121564237008e-01
-3.565388729921744465e-02
-9.195076852051517480e-02
-7.597114791352621577e-01
6.947764711021736650e-02
1.796330730782459140e-01
-1.389108705084387552e-01
1.864408854497407730e-01
-7.766561945892618002e-02
9.826596772354771747e-02
1.997866141378404070e-01
-1.838798314162330694e-02
5.298386776762452621e-01
2.152511270042388736e-01
5.256933690105497492e-02
-2.613397386288377477e-01
-5.749218580630728326e-01
-2.147782112890159190e-01
6.001436308711608492e-01
2.692332585851694993e-02
2.485278724091072311e-01
1.373147256458407406e-01
9.605942219828682294e-02
-2.199429673171116040e-01
-1.863183406905541406e-01
-4.238860688858963610e-01
-5.626618682348836220e-01
5.954127354430560626e-02
-2.262897429371257541e-01
-9.032528112294081757e-02
2.147846693523717543e-01
3.138950317788998245e-01
-5.029792140667728173e-01
-7.525305629270023777e-02
1.338212391100605803e-01
7.649810846062901626e-02
3.057456546486052584e-01
-4.278539883602006655e-01
1.273194090736836925e-01
-2.059912568017176482e-01
3.504768860618530657e-01
3.520001299988376187e-01
5.384363389987650156e-02
-1.356621999428520887e-02
-1.551328712209205929e-01
-2.591294876211834297e-01
7.115284365051509630e-01
-2.339789774847862713e-01
-3.621995843944577076e-01
-5.295585117375477546e-01
-5.566376100574660368e-01
-2.490485903995416361e-01
-3.169293075398700865e-01
3.744886887789306562e-01
-7.184780083684554064e-02
-1.472959005245433849e-02
-1.029314575723267039e-01
-3.737673748862926915e-01
-9.465036901629492183e-02
-1.012717543174846274e-01
8.565528527983511109e-02
-1.122804013885211893e-01
-2.805710532998881845e-01
3.319921518914881742e-01
-8.013605972692534191e-03
-3.365867028682226758e-01
-6.309572644863821189e-01
-1.292449349094907524e-02
9.710530266873584893e-02
2.152034126858443364e-01
-1.151661094661395462e-01
-2.829794646951046613e-02
-2.414444051425946314e-01
-1.579461247242776589e-01
2.792798205200138217e-01
1.872748099706068869e-01
-2.134719960804468408e-01
2.841311800460329384e-01
2.065201903889798407e-01
-4.516764033241960075e-01
-2.133100432442538996e-01
1.886017386937009488e-01
2.158990537889529937e-01
-1.392909174279696218e-02
3.239562165719146822e-03
-3.263676525847057919e-01
-3.045037204962539046e-01
-1.268862149175007392e-01
-3.279181552488647650e-02
-4.379800586305821475e-01
2.059114866540051048e-01
-8.999019160284667251e-02
1.251913766419640583e-01
-3.000506840721449686e-01
-3.027913489660390145e-02
9.786187117597804352e-01
-3.660143400752963183e-01
-6.457066840401675112e-01
-1.205298086566865684e-01
-1.061237417903648922e-01
3.998253486812356483e-01
2.992368815552199912e-01
6.796484801114388574e-02
-3.183717822267540520e-01
-1.000437699718999263e-01
-4.781974899979363203e-01
-4.224562210213737151e-02
-3.955307684162265858e-01
1.413258313082168260e-01
1.383317491202478433e-01
-2.205376820441862229e-01
1.430018771767984920e-01
5.072185875528775201e-01
-2.488080270180857978e-01
1.511853505436937806e-01
9.434258107251194403e-01
-8.262434897847782678e-02
2.068666850119315823e-02
-2.649244244358872069e-01
-4.532542316217876843e-01
2.355889657680357296e-01
-2.134537120649010189e-01
-2.098560365046105852e-02
-2.343053859329682076e-01
-6.973807760785726007e-02
6.925591364065360189e-02
-1.709857287989705321e-01
-1.523711169631165874e-01
-1.314119395814774549e-01
3.940438831208122328e-01
1.522318105569577668e-02
-1.642961665509273805e-01
-3.029380159494843988e-02
3.781583016060608426e-01
7.862865199421999185e-02
1.818792005916791132e-01
1.507881936955781654e-01
8.931963105120409308e-02
4.580946278879683975e-01
-4.094098677874171699e-01
2.879237153567270613e-01
1.501669352088592091e-01
-1.597425404782067682e-01
2.821456855915533968e-01
-4.860635491125053775e-01
2.942549498063476432e-01
-2.623797052437430999e-01
-2.009923946441067796e-02
-1.698468819794109463e-01
-1.328815447564311303e-01
1.456600994712933528e-01
-4.204520544877305421e-01
1.552817973051775213e-01
-2.548889143450921435e-01
-2.338363690941717421e-01
1.455436505688681714e-01
4.670647112795159317e-02
-5.949183142035626704e-01
3.737834616211195837e-01
-2.931178272426018805e-01
-4.849311041940733147e-01
2.375290953204172717e-01
2.007111983950090051e-01
-5.171711180311850953e-01
2.411723268639748841e-01
5.781843416957214155e-01
2.708568738514218199e-01
-3.903722863074462479e-01
-6.972590659900738119e-01
1.655687321400531042e-01
1.582766027059950009e-01
-7.349956003615744360e-02
-1.254205073831951567e-01
3.369519529511927902e-01
-5.149071462697363960e-02
-3.208346687231083405e-01
2.575408317507368317e-01
-4.024030733565817086e-01
-1.818184366623063486e-01
-3.645119207559518459e-01
2.142700124723046773e-01
-4.190896611861860133e-01
6.922089528706054651e-02
1.716758389789685979e-01
-1.330909425086816145e-01
3.680045734386290790e-01
-2.018415281645107029e-01
-2.066643625213673563e-01
-5.678518050296746944e-01
-2.594549658496294042e-01
-1.204506312955055669e-01
-1.564564861267847828e-01
2.895575273556100782e-01
2.291813783127669701e-01
-4.811740211290507219e-01
1.755100929024318579e-01
3.162767878269621691e-01
3.143065571277316173e-02
-2.011674318142240847e-01
2.533733787970253726e-01
-2.342911006965746890e-01
2.079991221605305071e-02
-1.799397979567203543e-01
-1.201494073984108873e-01
-8.980866232859804899e-02
-6.988529347132881042e-02
2.195424654661843333e-01
3.389036133897155995e-02
-7.554239559390597547e-01
-6.002349851192716468e-01
-7.390201932947111640e-02
3.879563554879709719e-01
-6.876208770199053744e-01
1.344066327395517790e-01
-2.522524721627648625e-01
-5.662703152684642749e-01
1.821548514800519769e-01
-4.183202048649027893e-01
-2.535175986485641575e-01
-4.283871815251602544e-01
7.242601564629547184e-02
2.826777006041850671e-01
-2.241453602966334835e-01
4.024879686269613316e-02
1.511683101974095333e-01
-6.064316467705463398e-02
-3.544169327189630181e-01
-4.093799944804626945e-01
-1.174355391154347228e-01
-4.349364997992353349e-02
6.028906768916572623e-02
1.155230730478090939e-01
-8.953514951770821101e-03
-1.579371937148110194e-01
-2.376650596174717245e-01
1.224480799158775834e-01
-3.378768989835627679e-01
-3.084977281037140640e-01
3.121400235114409061e-02
3.112586313904225355e-01
-1.893386343166960362e-01
4.356670615528548951e-01
-2.522949255429648985e-02
7.347259370100632514e-02
3.649588451581723958e-01
3.828983958109487967e-02
-7.764726251924443379e-02
-1.735842269923489334e-01
1.795228598759614214e-01
-2.587839462998327567e-01
-1.305010354052577315e-01
-4.431331874729045883e-01
4.357526900984189933e-01
