3.236447378835708988e-01
-7.620330327523364145e-02
1.438753378613454315e-01
-2.493320614812141456e-01
3.407794053564400794e-01
-2.622951270909859023e-01
-2.612446702885953265e-01
5.422504752952456847e-02
3.415670188330368617e-01
-1.372558420155727543e-01
-5.462650491013288506e-02
-1.279883737636040020e-01
-1.112698491251112691e-02
-3.049519100176552033e-01
-2.976896898279460801e-01
-2.665019049407232887e-01
-3.794312239691015054e-01
4.739943062864796636e-02
-3.368619074267137914e-01
7.262430572783576954e-01
2.869664247033891780e-01
-6.315738281093524753e-02
2.308505721038008052e-01
-2.276873241503552248e-01
4.230403935870019811e-04
-1.607706286088218250e-01
-2.768944349032587127e-01
4.966380606343729354e-01
2.227785955211445679e-01
4.333991440855622934e-01
3.462393364867803747e-02
2.473193988529318321e-01
8.321730492943046897e-03
4.142646221303642462e-01
4.305351987210655207e-02
7.169972899393090016e-01
1.634614887206243816e-01
-2.316908550590245086e-02
2.765430963781889684e-01
3.158392361294560385e-02
2.364599754487764494e-01
-3.006594356314081784e-01
1.381943433405506422e-03
-9.133908020261881366e-02
6.099851252655811296e-01
1.384569454037855030e-01
1.163287809011142593e-01
5.791637311644667885e-02
2.929501478405575621e-01
-7.971077201102448606e-02
-3.664977385408577648e-01
9.798293660617234113e-02
-1.217866833034032675e-01
6.325697762267354363e-02
2.742918928475058804e-01
-4.035719750446292720e-01
-2.454263111459059898e-01
-2.928572865579814888e-01
-4.814690515447702657e-01
5.703243665824739850e-01
-2.686041856373831971e-01
2.153490508983594426e-02
-3.483107617878476725e-02
-1.114194251528512029e-02
3.842051779964749114e-01
3.164996883090522711e-02
-1.633858587639275828e-01
-8.409043737616041236e-02
7.063273627641589725e-01
5.928057988894337542e-03
-7.111289254619897193e-02
-2.488141778152644368e-01
1.070696122938752902e-02
-3.216891386209004555e-02
-1.150825763407885699e-01
3.503656859067335039e-01
-6.923656355851246502e-01
-2.993632003897193639e-01
-4.941358383103850449e-01
1.197465610976778116e-01
-4.746901303754795243e-01
-4.657697998752109436e-01
-1.529649354676496653e-01
2.923927675857720954e-01
-5.997570819801384401e-02
7.692090444882755673e-02
2.058753866728821047e-01
1.869531381408860160e-01
-6.982011060514340395e-01
-5.613166554667455843e-01
-3.815533622889639709e-01
2.905141765577205493e-01
-1.609716538728699076e-01
-3.730194603322572466e-01
-6.870542046340319398e-02
3.285582214026115944e-01
-3.889923311296181185e-01
-3.396682597403868215e-02
-6.189735680852777311e-02
3.747236719422723517e-01
2.620339728981321281e-01
1.086819576823545991e-01
7.568634633979534065e-01
2.559476587917419374e-02
-6.227026690296221245e-01
1.361047657629833041e-01
-3.934737707582230959e-02
2.899265622964593558e-01
-4.524795359393923161e-02
3.818076019521497444e-01
-2.088650011873895984e-01
-9.840697995446985591e-02
-1.439736510244351286e-01
-4.267269679235979329e-01
2.927757016282100944e-01
6.520540642367366191e-01
2.379715604939287021e-01
-1.560895142961070958e-01
-4.793317763316873314e-01
1.747676620679527171e-01
2.438896829730319571e-01
-6.313124822867542951e-01
-2.910529683119458255e-01
-2.348061067863148610e-01
-2.955213436790062320e-01
5.108703469603544794e-02
1.852215261879954222e-01
3.978566954656024834e-01
1.518489963408296839e-01
-5.601505256220673523e-01
-2.318570143167815456e-01
-6.372801117548829164e-02
-2.654525032362566317e-01
2.219563275614901132e-01
7.597392011241296816e-02
-4.730946994601256117e-01
-2.619922829356403082e-01
1.019586494549543920e-01
1.313737043152060635e-01
-5.979915496117407248e-01
1.149996400691722376e-01
-1.563509839378999233e-01
-3.372307109820753546e-01
-4.942328124059879868e-01
-2.535634016295063575e-01
6.543894953302943629e-02
4.792494040981621906e-01
4.925400080649041668e-01
1.453432570219820308e-01
-1.011752988093158057e-01
1.016982392497451509e-02
3.927810170683730950e-01
2.740725696610035178e-01
-2.090865353028779350e-01
-6.745155614619928464e-02
1.797730266195115001e-01
3.338007837958494040e-02
2.576439935403618819e-01
2.342677658691915132e-01
1.170112707297785298e-01
-4.257051110201601762e-01
-6.281530387775526025e-02
4.189731876925806286e-01
-1.567412117399115401e-02
-3.913133891953257115e-01
1.409507673786571380e-01
-1.464521992045438314e-01
-7.576309696014491002e-02
3.952998270249928336e-01
-1.129176564692012386e-01
-1.568739917295123576e-01
-3.784044630930528952e-02
-1.902029718570124317e-01
-7.228906989716682441e-02
-2.267805535987271835e-03
-2.398896845204277484e-01
3.491018604305869827e-02
-1.888955891071158744e-01
-2.178658105295968317e-01
-4.169854461897057329e-01
6.064831904285023639e-02
-3.384251628314521310e-01
-1.758831485284844953e-01
-1.901334693981418245e-01
9.027771292607994491e-02
1.071051978633583424e-01
1.529948955834643798e-01
-2.214148973265110398e-01
6.566022870301627679e-01
2.671653694719478556e-01
2.645019779230586843e-01
-3.011497975640614055e-01
-1.071137572659738579e-01
2.259096637925338547e-01
2.728365208905611516e-01
-5.005129635696182744e-01
-2.251778907027240928e-01
2.509933066468501006e-01
3.696262839362577934e-01
-1.300063745941896776e-01
-1.570674500206181712e-01
9.516090023986130408e-02
-3.969858543380266336e-01
1.409480461807524794e-02
-5.937002324266807407e-02
3.047646489084094856e-01
1.066063842457343480e-01
1.743163485883749142e-01
-2.606838926016574187e-01
3.255754296440059870e-01
-6.139345350938171797e-02
4.498872715048210513e-01
1.188158629715809073e-01
1.129976133874331934e-01
3.998174405137495668e-01
4.591585898848008496e-01
-3.302544780820784731e-01
6.427597412578496539e-02
-3.580627019606860695e-02
3.253485361990706148e-01
3.413046903382849773e-01
-3.145943077004092481e-01
4.401101476854348271e-01
7.801974674089035000e-01
1.673171268170468295e-01
1.673581138733117868e-01
2.456200264086535745e-01
1.068512287220689805e-01
-4.333662477971736426e-02
3.063156635299520980e-01
-5.665647226928832714e-01
3.331298462036410002e-01
3.675944184028067108e-01
-6.592424496232762721e-02
-5.259344035094843939e-01
2.000394074320658855e-01
-2.742680429473288162e-01
-2.279300716962908424e-01
-2.855356765130776520e-01
3.988518133477936822e-01
-8.031176769920351788e-01
4.701912572996339579e-01
-3.018141743011316658e-01
1.127268855354743721e-01
9.854761735113400090e-02
-8.270383788202683162e-01
-2.624857095259210127e-02
-5.495667036773808217e-02
-4.537030633655881467e-02
3.455443374169647197e-01
-3.518446906229131810e-01
-2.348694959496293588e-01
6.447872275197791270e-02
5.488193414986711760e-01
2.311635933807446378e-02
-5.555151090628355354e-02
5.997173745249081978e-02
-3.223293632730779568e-02
-2.347665471656293634e-01
3.410851560919597042e-02
5.458989772243099114e-01
1.022924954531475722e-01
-6.257806410816764420e-02
5.049839063965394503e-01
-1.750852295423686866e-01
