-3.357605305725108735e-01
-2.704402460058726310e-01
2.432973274667883656e-01
-4.058528225430467762e-01
1.058538914673309017e-01
-3.428768832721527660e-01
-2.822826238719974845e-01
2.884203373858933508e-02
2.911770988817220518e-01
-1.807851758212283555e-01
-1.508056429948196331e-01
-4.229028953225055093e-02
-1.983833415305158998e-01
-1.710448061179948576e-01
-1.481018528596670103e-01
-3.059980568298522607e-01
-3.779487792550237368e-01
-1.530412297904409358e-01
-3.861560723729337563e-01
7.758461457087025837e-01
3.637436411648130030e-01
6.330592620826129557e-03
3.547087552464166516e-01
-2.333830394072336500e-01
-1.751250700818750561e-01
-2.233460486315038407e-01
6.029231720829281160e-01
1.251097269756692998e-01
-1.291404502295123713e-01
3.515405675986961187e-01
-1.146204053785431776e-01
2.495435766765831398e-01
-8.128100031145732429e-02
2.983668363254498024e-01
1.866143299995842719e-01
7.643710677300282752e-01
6.310931653357966242e-01
-1.314755323566172418e-01
2.894342011723581853e-01
2.440070863643887256e-01
-3.096763719474981413e-01
-2.828579995534467040e-01
4.296438355075993254e-02
-7.420788770763639408e-02
5.995006512130580667e-01
1.667592932181709009e-01
-1.449144820328643890e-01
-7.812638798476409518e-02
2.901861214000883704e-01
-1.850409615783440986e-01
-3.506618659797641757e-01
1.003317478601737089e-01
5.854966591135691845e-01
9.452285777376956410e-02
2.450673009865065310e-01
-4.539567829100972784e-01
-2.477454881044014179e-01
-1.823722044508654383e-01
-4.795235310925372585e-01
6.133781119502947909e-01
-1.428952645724982928e-01
-6.760723000122707826e-02
-5.111383636257142704e-02
-1.562796516913212141e-01
4.039810571997570765e-01
1.428320572804055166e-01
-2.386805170628562012e-01
-3.082057264118474027e-01
6.209418521068291730e-01
6.072633918228423355e-02
-5.675510056086036093e-02
-1.955590289329035836e-01
7.873250463788596110e-02
-3.820819163418172348e-02
-2.933826521949654126e-02
-2.371126739250502269e-01
-7.402267403293973924e-01
-4.049583998050900746e-01
-3.189925722026332733e-01
7.110519644902174585e-02
-4.358140066461665962e-01
4.071759625912392544e-03
-7.782074626590135269e-02
3.204601732908723410e-01
-1.226739876853580047e-01
1.596600371887846315e-01
2.237705090109475825e-01
2.007376328016467482e-01
4.586821370665964959e-01
-7.262918485485881925e-01
-4.358979293867609739e-01
5.270303059585441929e-02
1.266246720451932872e-02
-2.969149446601173081e-01
-1.189809810658849776e-02
3.929251288757882876e-01
-4.836552295815468305e-01
2.754372069870157924e-01
-2.571119787771464216e-01
4.994124266813337321e-01
1.461488479998466761e-01
1.791218483792129668e-01
7.773033669197944029e-01
2.541270252640383948e-02
-6.598991755213148291e-01
1.067284868161209044e-01
1.020781683489457858e-01
4.341660160281003433e-01
3.220563911076813196e-02
5.455617813421728135e-01
-3.899617205287399524e-01
-2.672607264278595296e-01
-1.651269759610631271e-01
-5.486258113914681545e-01
1.735563007618591003e-01
6.263501802181783429e-01
3.345665807727553065e-01
-9.798853738829547966e-02
-5.923126326542405007e-01
1.510448994991763494e-01
2.410369475635170400e-01
-4.618441443619439868e-01
-3.150494252855074451e-01
-6.141379471077097751e-02
-3.516299056730629036e-01
1.285873422009204403e-01
1.861248290949406858e-01
3.303166835586329730e-01
-3.317992663680293525e-02
-6.347719125753287228e-01
-2.465745969053202979e-01
2.533221879631349926e-01
-2.113682250439687105e-01
2.852017966318094455e-01
3.489740994597913260e-02
-5.354258327887679858e-01
-8.142809843517498369e-02
9.980449272940614125e-02
1.806934708420401825e-01
-3.843917193345596783e-01
1.690373511553688313e-01
-1.022907569587179349e-01
-2.625688866711070601e-01
-5.254405597994832311e-01
-2.282650093914757039e-01
8.410088131649916532e-01
-5.428639522292371122e-01
4.917120083375673967e-01
2.142415529774153726e-01
-2.554698167411171839e-01
1.218305604431592706e-02
3.664174964831291570e-01
2.304780847466131044e-01
-3.185461466334779668e-01
3.148455019088557127e-02
-4.222853589128618967e-01
-1.889517651315137867e-02
2.706871923120354739e-01
2.320318467786277039e-01
-5.035965051081059407e-03
6.042939034531433218e-02
-1.098963232755993807e-01
4.323426853750229060e-01
6.446747030423179148e-02
-6.116431748740378538e-01
2.471099278700033541e-01
-2.504423671958362352e-01
2.425578327974031723e-02
4.714501069610342876e-01
8.871688016449846836e-02
-4.611983343902395505e-02
4.286116854865767989e-02
-8.647350240932390186e-02
1.585587135417682314e-01
2.658272268736576183e-01
-2.046057193620685055e-01
5.703986447977894142e-02
-3.684370126240559817e-01
-2.811519010931275986e-01
-5.127532832263995699e-01
-2.648299776667560335e-01
-4.321062465703101596e-01
-2.185843110744365714e-01
-1.818824639022370571e-01
-4.141625727812248137e-02
7.832999517966872383e-02
-3.486327276689894783e-02
-2.014042385594786710e-01
8.051730603231291306e-02
-1.254899296736579628e-01
2.551099184904384032e-01
-3.740346256301932404e-02
-5.625981432271525556e-02
2.637696984276767243e-01
-2.143691005701285068e-01
-5.878645697747156840e-01
-2.309771282061055808e-01
1.417677224010475689e-01
3.756149903107600663e-01
4.878477131296923841e-03
-3.213563562655171180e-01
4.075749041957747038e-02
-3.992034143325762230e-01
-2.852146797615575519e-02
-2.460848345999070708e-01
4.699934963091363382e-01
1.170258769153012385e-01
4.188366860776157607e-02
2.824915367658846210e-01
2.237907593914244264e-01
-2.485107644274207050e-01
1.750998178449209020e-01
3.324129058770624034e-01
4.213529547090409666e-02
3.998174405137495668e-01
4.140827029465820042e-01
6.369757086715134298e-01
-2.513574536335104193e-01
1.138596383509236087e-01
2.304834564596960345e-01
1.774197352966731256e-01
-4.004292534379820800e-01
4.667434001214800232e-01
9.004291280327446634e-01
2.341427510436769055e-01
6.922489354784651105e-01
2.902247009721116711e-01
1.196502441612120188e-01
8.697034806548650798e-02
-8.392756899418886141e-01
-3.759648214081201534e-03
2.471603959162998743e-01
1.888890800716860885e-01
-6.724746646592814903e-02
-4.127583067464914990e-01
4.722207183314099110e-02
-3.883665224802178573e-01
-2.452682715259590362e-01
-4.926093365874335550e-01
4.359622935533567500e-01
-7.083733737831048316e-01
4.831603006223016972e-01
-2.476107447729637701e-01
3.956751829515708918e-01
3.925361004242869378e-02
-8.371159513190860046e-01
-5.615837847162246516e-02
-1.513236021254246166e-01
8.588971224839374308e-02
2.550302403643590621e-01
-5.076379942696312986e-01
-3.039213141365653126e-01
2.798469150231678304e-01
4.288404098595912095e-01
1.237854271227426528e-01
-2.171006537955260662e-01
4.340881100097245260e-01
7.821546161723937907e-01
-9.773828311920468304e-02
6.397157081075786900e-02
6.377920437207489357e-01
3.491466771766178756e-02
-4.301638686933962480e-02
6.156180961545606456e-01
1.114006827314704684e-01
