-2.967584050307602861e-01
3.586509777635439322e-01
1.999259503372897151e-01
-1.563677367227231940e-01
1.071854223797393812e-01
6.003360904351418004e-01
-2.233991907106905872e-01
-6.272258905793248740e-02
3.997112715337088895e-01
-1.788870502816408414e-01
-2.083695650369198626e-01
3.084283745668273125e-01
-1.479980504672993302e-01
-3.812524919811183244e-01
-2.592414095419431908e-01
-3.401420202309481389e-01
-3.751718339274101588e-01
3.775747686370884565e-02
-1.645753251313215038e-01
7.753532927270663233e-01
2.987368536205112779e-01
-9.035536900304233510e-02
-1.313891132224464520e-01
-3.186815294600625625e-01
-1.068385716398645296e-01
-2.286217015478055337e-01
5.464737936594004086e-01
4.850937266414009352e-01
-4.874147794556872859e-01
4.184148553329380960e-01
3.230113238914308904e-02
2.131317940704471892e-01
-8.552111312375083874e-02
3.594437736654433335e-01
3.290284498743425434e-01
6.772542063293147674e-01
5.260153175687831695e-01
-1.260512196905392013e-01
-2.010599216379871934e-01
1.722227516119893553e-01
-3.096763719474981413e-01
-2.171426242340207535e-01
-9.254773590647888404e-02
4.144582206391361767e-02
5.611640565924677082e-01
1.425481125971445051e-02
1.074911108250363317e-01
-2.198601685905935688e-01
1.401273663642332024e-01
-2.703617390249146157e-01
-3.624518850579736551e-01
2.214187338360158464e-01
6.127930305193421967e-01
9.925292992014997373e-02
2.138851583771240461e-01
-4.999142394912871046e-01
-3.231135067204907174e-01
-3.396880302098414517e-01
-4.469772253929255035e-01
5.634921742712184489e-01
-2.869819162920449473e-01
-1.143543540879110587e-02
-1.362382966314946986e-01
5.832085398218943284e-02
3.939769976999050183e-01
8.632135160970322296e-02
-2.010996247230376899e-01
-2.724516089242293715e-01
6.464720180594387688e-01
1.363302606349125479e-01
-8.909579745513039606e-02
-1.857067994777254483e-01
-4.829635289005497489e-02
-2.352960863486290577e-01
-1.783944705007739218e-01
4.092743869760316899e-01
-7.456198597085214042e-01
-3.611353183707988190e-01
-3.221977094628206140e-01
2.346994359125813556e-01
-4.725855696946190676e-01
2.902194493344598114e-01
-1.802288908632797004e-01
2.481717468656499670e-01
-7.450577442372040282e-02
7.625631071798125160e-02
-1.710571627779088333e-01
1.314882460289837907e-01
6.315799474466627927e-01
-6.048449564404932977e-01
2.576411354479358207e-01
1.448569078753404182e-01
-2.818975211049979945e-01
-3.166306325720488202e-01
-1.777735030652728976e-01
-1.232269041491506484e-01
-5.405802243615766001e-01
4.215603472147384789e-02
3.003703310122398107e-01
3.978875730475820438e-01
4.343987464898765305e-01
1.393504220134138549e-01
6.809569313270718016e-01
2.702835858234590299e-02
-8.369426109372550826e-01
2.588032028040576638e-02
-2.917301355633247772e-01
3.735683532833165010e-01
1.506580824764621462e-01
5.543872489203179876e-01
-2.732936537319360371e-01
-3.371734143747127932e-02
-4.243015603531480329e-02
-5.486258113914681545e-01
2.099907337844360011e-01
7.160406242880662520e-01
2.618858465149049852e-01
-5.548404840601980220e-02
-5.797298855980554944e-01
1.510448994991763494e-01
2.453299630253678865e-01
-5.138180524748329203e-01
-2.289965079810216686e-01
-1.104999834341821030e-01
1.329297173016943667e-01
1.984796387698688769e-01
1.834896398672788420e-01
3.474395062038411475e-02
1.846049221783693239e-01
2.899449257715001615e-01
-1.376684812485511333e-01
1.642067778670956990e-01
-2.098435274706824671e-01
2.148218216920542156e-01
3.749414008152596733e-01
-1.506311444882501016e-01
-1.182118509191456973e-01
1.403151405068235325e-01
8.119406141985938130e-02
-2.860882006412956979e-01
1.955053011722772682e-01
-1.766710138026629795e-01
-2.748429862985171113e-01
-5.751672626843806757e-01
-2.470312419230997203e-01
-7.488460195551692455e-02
4.985642084733068469e-01
4.962349600418845541e-01
1.678874430207734081e-01
-2.076423926485898575e-01
-3.540562275760972266e-02
4.099934287126231203e-01
2.306397244380135880e-01
-2.439239831000148961e-01
2.861470011036341687e-01
-3.411617200177105569e-01
-8.171118428144394374e-02
1.306040505014535447e-01
-1.000817472226344790e-01
1.855527421674511845e-01
-7.750472737061367412e-02
-2.242811454604567989e-01
5.329489322616655367e-03
-4.909373292953794765e-03
-4.471730375342647390e-01
1.311367105735250504e-01
-8.564691873529586830e-02
-1.991511821423195411e-02
4.530900962366635754e-01
6.030723460852611267e-02
-1.243078463712060239e-01
-1.801959801236987790e-01
-1.791467255538363168e-01
4.526340772692513670e-02
1.703267932271320395e-01
-1.975566744405821695e-01
3.491018604305869827e-02
5.577666582251581545e-02
-2.495180324951318251e-01
3.563727703012221637e-01
-2.298376659423049806e-01
-4.363850964222536488e-01
-2.823281433854238909e-01
-1.968730032402111196e-01
-2.430594644539513238e-03
9.148201502769966187e-02
-3.091069923311470236e-01
-2.450576508125811293e-01
1.205635814467157368e-01
3.571078347437879885e-01
-6.211442676150690234e-01
-2.385980590454437889e-01
-1.437323685706034214e-02
1.367565240770231560e-01
-4.915953466997285970e-02
-4.986923855421898644e-01
-1.401567562024300662e-01
1.984485557437566938e-01
3.188003524911258713e-01
6.009783382251529353e-03
3.833941609128503347e-01
1.306033582447266028e-01
-8.960443152681456247e-02
-3.948644616011187658e-02
-1.564388460423556393e-01
4.530152060856794671e-01
1.365088279994275955e-01
2.633193810288925879e-02
-2.076927724505242545e-01
2.988480660324864813e-01
-1.763353798534362388e-02
4.189177706541994950e-01
3.933380303725109162e-01
1.319581917957436679e-01
4.303807979936042916e-01
5.127383337518175432e-01
8.260960395348098118e-01
-2.204168989941250045e-01
6.055475404792909355e-02
4.022687884486428334e-01
2.574421442927462000e-01
-2.231701546094855826e-01
5.226916971293220637e-01
9.280105591487867178e-01
1.075882383827283517e-01
6.348440290394166130e-01
2.364306046263930372e-01
1.494985381531859225e-01
-2.456471372089963079e-01
-3.771483397018315920e-01
5.944721419347287483e-02
2.665018108291029586e-01
3.470569201820237204e-01
-1.076508335714683878e-01
-3.728072288250942057e-01
1.906867203391343635e-01
5.152299950402218220e-01
3.962541434795602280e-03
-4.701735498155792392e-01
3.107423297889722047e-01
-7.473866134670024142e-01
-1.316401567066111666e-01
2.151179231503166644e-01
3.927725192654258901e-01
-7.434732100825264256e-03
-8.737127644163596996e-01
-4.728397896975778877e-03
-4.557598982732716242e-01
-3.088545370444653604e-01
3.850619754935660222e-01
-7.002738050777554957e-01
-2.285056601732924908e-01
-1.391202925588402861e-02
5.266215403916838511e-01
1.830545177825485537e-01
-2.511270028465027448e-01
4.390612508280063442e-01
7.903423309190968360e-02
2.951746638701653325e-01
4.711631328661927687e-02
6.896347159757750811e-01
1.922292160464220828e-03
-4.216516463643730367e-02
4.761790790021390163e-01
1.100252606420361323e-01
