2.525247180466556607e-01
-2.224003846116598404e-01
2.345984480614603795e-01
-1.047915826698212344e-01
2.153359408306668721e-01
6.911545869269263009e-02
-1.282931793170769275e-01
8.547551979532951316e-01
3.599961960393521232e-01
6.822564170674663142e-01
-2.839375175370919546e-01
-3.354026713622868527e-01
-9.406626556727550742e-03
9.150142024296087362e-02
1.946176347257330130e-01
4.112355017765005893e-01
-7.310828675521706399e-02
3.237643562703825251e-01
-9.285443116920265999e-03
-1.672170314835000893e-01
1.291535838016899251e-01
-5.279275331720927333e-01
-9.415785557075071477e-01
-9.164084645637725346e-02
4.031418453394388646e-01
-4.510301789492917462e-02
4.035085351711605317e-01
-4.662276911214676134e-01
-6.757422489345919769e-02
-5.072740404430977484e-02
-2.445810006474915255e-01
6.858283260159057093e-01
-3.425986418983995030e-01
9.139958924461827339e-02
6.030512364667584002e-01
1.196168460922497762e-01
1.986765668102635496e-01
1.943983205580397666e-01
1.035056692249005511e-01
-3.260346831618499697e-01
-3.133758089955054893e-01
-2.720143991831971975e-01
-4.518417527117863375e-01
2.886468850761950145e-01
3.886904498948179909e-01
7.031374854094718518e-02
1.963412766878892546e-01
2.378828951292648319e-01
-6.903149576628421213e-01
-6.011608928209332542e-02
1.665975680659036728e-01
-2.300483934945591613e-01
-1.011398296871176758e-02
2.439851429560325469e-01
3.488299644860409221e-01
2.527501348285227101e-02
-2.457354221674429573e-01
-3.466478116462992642e-01
-1.009828749671724396e-01
-7.802168631593778270e-02
-2.058230179834201201e-01
5.388661659432579520e-02
-1.278581981132372591e-01
-2.295480495489183315e-01
8.803517767267947380e-03
4.376869809039865000e-01
2.600714698517585244e-02
9.938764835697007360e-02
-1.280167042673342748e-02
3.557644962302051184e-01
-2.700990941903101683e-02
-2.469694568314330929e-01
-7.193918532203551208e-02
7.340588150381427424e-02
4.783078728454841499e-01
-9.001040882084497541e-04
1.128857686918206538e-01
-9.312165082319488751e-02
4.496047101983485228e-01
1.193055132275742530e-01
1.858774128773406364e-01
-2.396289952880034380e-01
-2.229979909144403916e-01
-1.765510518260975381e-01
1.816349199375232593e-01
5.900586590334147008e-01
1.000389586864974534e-01
-7.639569466940340781e-02
-6.177339628160542773e-02
2.177961138344083336e-01
6.584320809574831235e-02
-4.363479648084809814e-01
6.498667934459093076e-02
3.541377192665751683e-01
3.779903754760419732e-01
-5.129942087358847769e-02
4.477581937076128282e-01
1.599054651593799503e-02
-5.655535803915656690e-01
-7.550587127109638086e-01
-8.026176612530547261e-02
-3.294860516894803082e-01
-3.335267817645521521e-02
-1.051616205408125448e-01
-5.084570674187972872e-03
-2.254964556462474012e-01
-3.613764886299737911e-01
3.561528038254106465e-01
-6.969867214682375911e-01
4.159686705148545882e-01
-8.045990433991667690e-02
-2.630981894499482415e-02
-6.496289387182381247e-01
-2.649373210138976642e-01
-2.945698533445555850e-02
9.595537110398884295e-02
-2.166929419484426300e-01
1.232667524307951845e-01
-4.707982272751201624e-01
2.041781101648822427e-01
-1.637722879947441368e-01
2.531770415531545138e-01
2.447772125883787286e-01
-3.922664635589956927e-01
8.108854863043002403e-01
3.870995872458143361e-01
5.125994102791461282e-01
-3.716773747904815184e-01
2.660639101967697817e-01
1.926969680373804839e-01
-8.482731157175007475e-01
9.715762210978178270e-01
-2.984937231758134635e-01
1.450089703509985228e-01
-5.895766512971180318e-02
4.109421119833379099e-01
-3.296817443608549558e-01
1.658496409730084720e-01
4.180708825315743726e-01
2.384111360461642262e-03
-7.023176318204985558e-01
8.288412072331540204e-01
1.394462104141490633e-01
-2.230862764980677260e-01
-6.725311192435164120e-02
-5.116718427820384774e-01
3.991961672234725644e-01
-1.859011421829389610e-01
5.381810814267595777e-01
3.673767791303641506e-01
-6.532257933363090630e-02
-3.375275776941252803e-01
5.972496663197986860e-02
3.186309608649996045e-02
-1.286957149561585023e-01
4.803149086542783941e-01
2.974399363136311092e-02
-5.021073550887907855e-01
-2.457376566732197842e-01
9.494651631180232865e-03
2.057784867963127762e-01
-3.448878232199275029e-01
-1.656460747599017846e-01
1.012762808616010507e-01
-3.929053190855346656e-01
2.834080463991782081e-02
-1.706755795742530279e-02
7.998889302615657115e-01
3.288080768986624269e-01
2.807088716563447273e-01
-4.026874210605401738e-01
1.504833094741780120e-01
-4.597846921385868035e-01
-5.948426750508062355e-01
-1.402375533896850490e-02
5.753666386290983564e-02
-6.014681693994754497e-01
-2.902848102142895348e-01
-2.820600406389153769e-01
-2.056980258337221812e-01
-3.888080557981612451e-01
-2.235580497284494206e-01
-4.587101072646648792e-03
-1.541368432213044426e-01
2.478091238480499559e-01
-4.386318632287397601e-02
1.477203251542478224e-01
2.097667426239271660e-01
-6.837168053238680196e-03
-1.790508345026448622e-01
-7.271037743107065798e-02
-2.614800235684888174e-01
2.537855385272541064e-01
-2.628131054312697334e-01
-8.106807667040180077e-01
-4.972532129853405869e-01
-1.881724353845601883e-01
-3.198236714681170212e-01
-1.377873570470597997e-01
-2.278070643314249744e-01
4.907231473368517394e-01
1.322882806086215224e-01
5.375183590864873739e-01
3.131847861783227938e-01
-8.199990086619551866e-02
1.224390841645445205e-02
-9.304809296551419528e-03
3.956461535568426419e-02
-4.442012658837247718e-01
-3.670347731344688474e-02
2.800571725888950647e-02
1.085311613261839975e-01
-1.067587098627136022e-03
2.219405954272956061e-01
4.143243246116595779e-01
-2.446364291591092699e-01
-6.080261199481162837e-01
1.848666665198454573e-01
-2.518784163833867606e-01
2.270056984335165340e-01
4.538237962372543843e-01
1.775403547227641377e-01
-2.210631990665097857e-01
9.266708937187549677e-02
3.210650475975692641e-01
5.428972609823311535e-01
-1.075075114116081226e-01
-2.034737608081832461e-02
1.013822753001098614e-02
-1.635299345125421355e-01
-1.717650616397022878e-01
-1.423314308501184844e-01
1.448562269950946779e-01
6.577412946658514614e-02
-2.306917027772546758e-01
-1.223886392415865776e-01
4.067833899466959113e-02
-1.449385400045854477e-01
-2.776240990594054658e-02
3.033725260922041644e-01
1.033369491379887845e-01
6.435305612339388415e-02
3.687137469907207366e-01
1.476633332415971944e-01
-1.654769813120617605e-01
-1.116749978705663532e-01
4.439813498537615311e-01
5.098392466914998533e-02
1.582027019631973008e-01
-1.287921968145189222e-01
2.253716197446676006e-01
7.251352420499050655e-02
-1.112023551790040504e-01
6.275048071073845435e-01
-2.732093880853998513e-01
1.133339724587071606e-01
4.786418221134000062e-01
7.912779577549764465e-01
-4.491506417769233206e-01
-1.771476508095245206e-01
-5.073079054907204677e-01
-2.573265935708331509e-01
5.529226023709471471e-01
-1.375169486311766109e-01
-3.348335718502275238e-02
