6.511797671642960417e-02
2.224643298532566205e-01
-4.855897345131588994e-01
-8.585356820580489212e-02
-4.611316965448698096e-02
3.355572074266734983e-01
2.836057534903972943e-01
-1.383479120874098016e-02
2.139597098112516194e-01
-2.182801013856413008e-01
-1.195884000375033174e-01
2.007834204613038187e-01
-5.449928870430785777e-01
-4.204471241730671216e-01
-3.692202581379940285e-01
4.854376288431602737e-01
8.107984873104780166e-02
-2.660180971659725224e-01
6.491442668511934189e-01
2.454238897441086142e-01
-1.686024967096554084e-02
3.500132317211696598e-01
-1.725655540767587759e-01
-4.986045544218636882e-01
1.521846506358487672e-01
2.448521887803760955e-01
2.484506928667721826e-01
-3.098143363663996563e-01
-3.419756283086093918e-01
5.134338494952619403e-01
2.185939951105944079e-01
-1.422571391983288303e-01
-6.244908047825579317e-02
-9.588954125071900980e-03
2.557213672210587596e-01
-3.227542235520372005e-01
4.875655604172317997e-02
1.226167707463007295e-01
4.170509372521795655e-01
-9.946133576890328620e-02
4.279912026751496457e-02
-2.425563285386171664e-01
-1.339559237533392844e-01
3.378733247354103741e-01
1.164884453093634753e-01
-1.027626055656231246e-02
2.574813161530974809e-02
4.499857189179409245e-01
-3.639174900763781917e-01
2.871944944304650194e-01
-2.882837483589775068e-02
-4.784252133131404461e-03
-2.558542079590339635e-02
-1.046313789084213908e-01
-6.728887038891154804e-01
1.819912887899162099e-02
-4.089915658720144620e-01
-6.024951658532331361e-02
1.146361327240262296e-01
-7.561917179645837317e-01
-2.449767654644042780e-01
2.485506553568490873e-01
8.303565530730504241e-02
-1.219129611300973498e-01
-5.261175619006078774e-01
9.322040067378835337e-02
-1.072178620927543950e-02
6.078892936698258170e-02
5.762070051609742560e-02
3.090289498175026184e-01
-3.959362897044812341e-02
2.749283418071726270e-01
1.802771267668774879e-01
-1.103776693797262898e-01
5.244118562111101944e-01
-5.544386264435120781e-02
-2.767959574660472377e-01
2.867556577796464001e-01
-6.342524869397166976e-01
3.511486247413243555e-01
-1.511023519230326739e-01
-4.496281725243572169e-01
1.665959597393597003e-01
-1.971135455490404531e-01
3.558741208197891415e-01
3.273464510469924899e-02
4.051197415469113272e-01
-4.488476756349505381e-01
-2.039635377568581598e-01
1.159686986888870952e-01
-1.582181891227280590e-01
4.004758296164023235e-01
1.948122759876264043e-01
-3.136768216457876401e-01
-2.840994876409754302e-02
1.718461811055811972e-01
3.723209832752135684e-01
-2.104414623259208694e-01
3.857378562800863886e-01
5.922830281727708979e-01
-2.036019157088938547e-01
-6.916344073061995168e-01
3.217606105934602834e-01
4.983416680880062288e-02
-1.642312090505786693e-01
4.614368335652334341e-02
5.433978625427862003e-02
4.150760451999122719e-02
7.402792095560650765e-02
-3.529095041443051084e-01
-2.721931884713396643e-02
-2.030539959683942963e-01
-1.397462465395049591e-02
-2.732203067272555574e-01
4.439277430096404964e-01
-3.383183681013394173e-01
-2.233850038595511234e-01
-1.480834904792665552e-01
-2.778406877999530233e-01
1.404396539032005675e-01
-6.194110677445195945e-01
2.662724581864122642e-01
-2.999481777674343208e-01
-4.207101876545485952e-01
1.162997541793480416e-01
-2.510033023115224027e-02
-1.993684695576147803e-01
-1.602651669198673634e-01
-2.280973478537183241e-01
-8.113451513669810156e-02
2.501050808819187399e-01
-4.448129787773270616e-01
1.691980407048964546e-02
5.250359304794861570e-01
1.863981345187106509e-01
-3.260931309318680915e-01
-5.224740885806956614e-01
8.102095244549584185e-02
2.952530821180541776e-01
-1.664819802319848219e-01
-1.395883894540145553e-01
-2.840928410498677059e-01
1.733355322626207451e-01
-1.161327759487383454e-01
3.723136561062860561e-02
-1.777264872171340493e-01
-6.766580387850698597e-02
-1.908012654891632631e-01
1.297921843878620252e-01
-5.765995795436222870e-01
6.717433592077830529e-01
-5.142890271540425662e-01
1.104703689947260196e-02
3.294130634733584417e-02
-7.989484568545870968e-02
-5.594928812952705277e-01
1.992367100231587362e-01
-1.472183935419902612e-01
1.632102304942122939e-01
-1.286117851337874596e-01
-3.046485897534598197e-02
1.978005172176298121e-01
4.865561127216631032e-01
3.668551420267498475e-01
3.290827786550841183e-01
2.139256697725846340e-02
-3.469942561446810458e-01
-1.935216043092645721e-01
-3.000311429473764835e-01
-1.480806637389374680e-01
2.017322203505603206e-01
-1.617437797049359471e-01
-4.508578981057078522e-02
1.374613862011125898e-01
-4.409672876015086618e-01
4.953816188976330193e-02
-2.587869143317267015e-02
3.730942779634397466e-01
3.140548087523191700e-01
8.173193536912065627e-02
-7.488626673160929392e-02
7.397032101884762345e-02
-1.836800743740642783e-01
-1.065948109187861426e-01
-2.995097708366395994e-01
3.023794949358328266e-01
-2.678921860681532374e-01
-1.287465915002472538e-02
1.650046744335117999e-01
-3.566821315078426424e-02
-1.926025505230886947e-01
8.201910659846231577e-02
-4.814188409759660725e-02
-5.792331629725473441e-01
-6.760973940800359128e-02
-6.525307977519799740e-01
-4.308961200264255775e-01
2.662026905107876540e-01
1.141592362572216302e-01
1.897960921076533858e-01
-9.254447820968086935e-02
3.748459730648057708e-01
-1.855756520159725087e-01
-2.152065300380599511e-01
3.396719687031635182e-01
1.837367531377639626e-02
-7.065651700235803245e-02
2.040369252004486655e-01
1.851524872194850457e-01
-4.232648043301117657e-01
-4.020068361184239714e-01
-2.989909663408130136e-02
7.941540339311564667e-02
4.569482060807769641e-02
-2.081413102758848943e-01
-2.358861352178211537e-02
2.739199478677087352e-01
1.530686509844025600e-01
-3.618351793236355696e-01
4.558301078864682165e-02
-4.210854979101614770e-01
-2.132415272923161575e-01
-3.796533151164375730e-01
9.520143132665070951e-02
4.091309794890966023e-01
7.998234702179854438e-02
4.963231941159942928e-01
-4.176687465794284154e-02
3.927484240762823403e-02
1.266229833915184511e-01
-1.597274682601579343e-01
-5.210940818898477517e-02
-2.131849293044171534e-01
3.573133149340043113e-01
2.728934619124072369e-02
1.673719925293763039e-02
-3.356635473435884420e-01
7.575087289987093853e-02
-1.408010287528015381e-01
1.560066188656672737e-01
9.944179078082251641e-03
-1.461448730825934683e-01
-1.119022536163616077e-01
1.236875686195280655e-01
-5.542198746082806216e-02
-1.703058580794516164e-01
-2.376021864483303728e-02
-2.074283191359405087e-01
-5.007031550481387538e-02
-8.943923734801917380e-02
-1.501930355639087278e-01
2.523448169301431010e-01
2.655170795550594320e-01
1.078375219870307544e-01
3.894501725589555319e-02
-3.798220209944552228e-01
-4.062948535962864205e-01
2.465274027879124918e-01
2.651800102884527832e-01
1.421133009070738029e-01
-1.114532692651831608e-01
4.086406646639965112e-01
9.095028614132992517e-02
1.188352585539591832e-01
3.268695973458001641e-02
