-2.082224889111238542e-01
-1.046449320683564138e-01
4.519234524732381741e-01
4.770824770377850993e-02
3.061745653200641515e-01
2.875841883747696226e-01
-2.041945424289548228e-01
-2.463407644297777865e-01
4.484750638922025967e-01
-6.910725074713449656e-01
1.442382317590815144e-02
-2.279338987107763503e-01
-2.778249005284638695e-01
-4.982258657672090085e-01
3.609958650806732172e-01
3.555070238675348548e-01
3.326753588860170696e-02
3.209987029176734064e-01
-3.813900724030548639e-02
-1.205652821186879164e-01
-1.654239631256981813e-02
-5.263433183251806646e-01
-8.592692218965146678e-01
-3.778092988811558584e-02
1.010799431890996303e-01
-5.310564947343482389e-01
-8.153439960858140101e-02
-5.448612871809360714e-01
-5.904402205190513175e-01
-1.556814099065977897e-01
-1.822895957532225386e-01
5.925462243528145656e-01
-3.100819826110577382e-01
4.201046903771168961e-02
4.923492171210545054e-01
2.492971235998238666e-01
-7.184342826918134473e-03
2.815981276772251962e-01
3.154840325905630127e-01
5.987250735397095514e-02
3.220086301833720022e-01
-8.545866039451875673e-02
-2.747584861265864875e-01
2.094898236940445357e-01
8.655172536139640882e-02
5.986783743398373936e-01
-5.401879932017654706e-01
1.922407152394837448e-01
9.318896152165812019e-02
-1.731484762224471535e-02
1.174625451977885648e-01
-1.862970232768854095e-01
-1.750783275140649353e-02
2.015281697682611006e-01
-1.594190808677647953e-01
3.212010839429510489e-01
-2.852632110923354891e-01
-4.376606861942791138e-01
-4.730246968949982506e-02
1.703106030778384350e-01
-1.925780759968992450e-01
2.370539736789824825e-01
-2.767332752799163131e-01
-2.230150247349755310e-01
-1.618251150852459130e-01
-4.476191776880455442e-01
-9.540662395949535413e-02
1.383156945539320004e-01
-8.306982081973937615e-02
2.391200061104428731e-01
-3.170428274847561512e-02
1.718866618175961536e-01
5.763687548559307677e-02
1.392327015985308225e-01
4.814956637201964207e-01
-1.140863412087405049e-01
3.686579193659961229e-01
2.883492998868646823e-02
-1.608696960589794667e-01
2.501204226411839482e-01
2.447766821703792894e-01
-3.415327882113622371e-01
-2.609574982157494283e-01
2.218801177756352938e-01
1.166648993613102203e-01
3.825161097960420864e-02
1.589367340215228352e-01
4.706620042690337624e-01
-1.327234346503580464e-01
2.691585856731085191e-01
-7.905314225528789485e-02
-2.515842953040433039e-01
5.649546743148112227e-02
1.984301355185068561e-01
3.289138757564440407e-01
-8.794710987859069573e-02
1.499162967218225229e-01
4.967876311453545829e-02
-4.104513547076649865e-02
4.085483284200090992e-01
-3.368313851564299494e-02
-4.780151445243786545e-01
-3.954236484850694872e-02
2.665593231031856969e-01
-2.827484914570718016e-02
8.427913709747676674e-02
-5.147300497845482825e-01
-1.150092823104465270e-02
-7.095869084184314168e-02
4.884628198660506682e-01
-5.429284246645276618e-02
-3.259159711163346906e-01
-4.628250549374955947e-01
-1.207354274905712843e-01
3.923897513753860089e-02
-4.462414782375515726e-02
1.449826189104787277e-01
-1.346182493715348816e-01
-3.198623172723095709e-01
1.036801250038543593e-01
1.603705817112435483e-01
-2.490498800767623755e-01
2.816292240469612240e-01
-4.475481180267695813e-01
7.096695163533088824e-01
2.852152201545776755e-01
5.278781109960390960e-01
2.108713823711106383e-01
3.767559948284588955e-01
2.881401626591134288e-02
-6.459709666620251367e-01
9.568684400188207650e-01
-4.392276898183775646e-01
1.240163484500108881e-01
1.194089258982393570e-01
-8.422434111168566329e-01
1.131980897960803006e-01
9.901836143180037242e-02
3.970973418428963009e-01
-1.480730188752529264e-01
3.757831972516219587e-01
8.115037811215540797e-01
-7.056222114231815168e-02
-1.879008157164779869e-01
9.254876979766971101e-03
-5.234637952228261559e-01
3.909210872559193417e-01
-1.790993879669642297e-01
4.743461615897796024e-01
4.587820313697151819e-01
-3.689105491851119578e-01
7.826422735973101452e-03
6.184500238989341231e-02
-8.229080098446199532e-02
-7.564523268479242391e-02
-5.075705032906835390e-01
1.577175207710492313e-02
-3.421842093980086430e-01
-8.711864541101022041e-02
-3.656815616571932881e-01
7.377847263814757417e-02
-3.345634752885160434e-01
-3.886423902317135970e-01
1.335870048645975694e-01
-2.674631558246404750e-01
4.362712898853712828e-02
-4.913856327774375199e-01
-4.350299384649860407e-02
3.226927953397228377e-01
1.754767339829612083e-01
-2.590431419448721573e-01
-4.128237934448148461e-01
-3.036450944922780004e-01
-5.410300028273027362e-01
-1.248342302412260574e-01
-8.528812092109928633e-01
-5.511055131306171750e-01
7.196826386547230947e-02
1.162041574765307478e-01
-8.553560132332421739e-02
-2.980875826951813190e-01
-3.299090580761495084e-01
-6.862282444823650240e-02
-4.155318881545733700e-01
2.951426626216603344e-01
-1.629881153478812961e-01
1.487257922852799619e-01
8.536662829178778833e-02
-3.307971317513397902e-01
-2.554324395244588208e-01
1.817664815512549659e-01
-2.966673919225069067e-01
3.806534250425611110e-01
8.710843359361078453e-02
-7.631145961715736226e-01
-2.929156373889128528e-01
-1.005603515128566383e-01
2.494452386980463843e-01
-3.467076720436459980e-03
-3.885685495851975979e-02
1.107697864288492706e-04
-1.649511190632575383e-02
5.880176445008085118e-01
1.426804758075291557e-01
7.580039523484211061e-02
3.561376279474597756e-02
-8.869424797344063749e-02
-7.264483465407339802e-02
-4.316368398685973551e-01
2.923589184106417660e-01
-6.226774139215984077e-02
1.382227230455627676e-01
-1.678432007373450996e-01
3.556362106785782018e-01
4.629497884232155469e-01
-2.937373892993845881e-01
4.990151917740585086e-01
-2.939034586949844652e-01
-2.323237825911531051e-01
9.368344286142431254e-02
1.806742360579826068e-01
3.751580958040451330e-02
-4.396744327207269265e-02
3.297230406664052316e-01
2.401357673787928027e-01
2.745896146006090444e-01
2.864499505190554740e-01
1.058650750257042750e-01
-2.441954036040773768e-01
-2.033041227773014006e-02
-2.933202645681112219e-01
2.453678572763303978e-01
3.487292097765589127e-01
-3.032850946694504168e-01
1.419041401091100663e-02
1.767268857778800037e-02
-2.819689046449383452e-01
-1.264801487641452060e-01
1.272706509839573452e-01
3.949918054585018767e-01
1.340176394262478643e-01
9.293525758381274149e-02
2.382702375159070907e-01
-5.127470889198478821e-01
3.708414845856704556e-01
-8.698471634186084878e-02
2.001385708882922332e-01
-1.106188097434957496e-01
1.561089793311717933e-01
-3.002180756876443035e-01
1.869949948443596077e-01
9.786899781583981162e-02
-2.343756342405712428e-02
5.873954600786772673e-01
-3.228766075220927956e-01
1.946027223336653858e-02
2.576767250121146380e-01
1.123497188799021523e-01
-4.644137881255850919e-01
2.339399950655958460e-02
-1.191786863788214523e-01
1.206619418218655981e-02
5.400847525040695096e-01
-2.986482878799122387e-03
3.060873776681953540e-02
