-2.380995130731187182e-01
-2.044078836323675874e-01
4.023576008422507511e-01
3.824383348117131876e-01
2.928882468038777886e-02
2.977031406732805197e-01
5.857286088300037719e-01
-5.596484057917964217e-01
3.212105479551737308e-01
2.436032214304632570e-01
-5.206916653921985633e-02
-4.240381884962847736e-01
5.292790711825405559e-02
1.686336680797389798e-01
-4.027528663184298252e-01
-4.196247522268089503e-01
6.106919204492691211e-01
-1.448534181408893118e-01
4.763316446061817144e-01
4.063984438911555364e-01
2.003485339860198444e-01
-4.472209960129728823e-01
5.034280323969807930e-02
3.941561290024414022e-01
-3.883147165863681805e-01
-1.516331596929730574e-01
4.219760831298491333e-02
-8.516135195892828025e-02
8.158742122242398573e-03
-3.930493980446087554e-01
4.026644142533689630e-01
1.438942142511201450e-01
4.392704495377052210e-01
-1.570067538993523693e-01
-6.364650157325651980e-01
-1.393738260353205860e-01
1.294688602535037647e-01
4.445507024825341991e-01
-1.288777004422740624e-01
-1.594813561798415213e-01
7.191566723773895782e-03
2.383892075611720451e-01
-9.541093011614183717e-02
-4.356382988717516502e-01
1.501623251963274119e-01
-1.894288260271878577e-01
2.896359222115856835e-01
2.918698680800045353e-01
-3.477457846776477873e-02
-3.178529572175392004e-01
-1.526336106616063004e-01
-1.651105214180626779e-01
1.441558886182688348e-01
-5.935696871454266832e-01
-7.228805987682079826e-02
4.281054150747395370e-01
6.147791584161510503e-02
-3.507190387207272386e-01
-6.260418446810783744e-01
-1.422332534925291880e-01
-8.280933105473099742e-02
-3.759046547547176265e-01
-2.456224981848870170e-01
1.314502569680056077e-01
6.182863712270270096e-02
-6.448424565198163094e-01
-3.329527004674786017e-01
3.726932530004748445e-01
2.886800977671346580e-01
-1.846535594092661992e-01
1.072314546790024692e-01
-6.325820274762363749e-01
-2.141262645798071851e-01
-2.723091752603883364e-01
-7.275354294813904943e-01
-3.662984720663604588e-01
-3.267283420317800835e-01
3.038665673474634232e-01
3.093990168659406514e-02
1.000530107194449042e-01
-2.514881782727863002e-01
2.004207026336361774e-01
-2.532074292557338624e-01
2.643523814634115010e-01
1.315221121298836560e-01
-2.146535579765928847e-01
-4.524069338535420259e-01
7.361351783547669114e-02
3.707351805359063862e-02
-2.209442759398438372e-01
2.574770213017233411e-01
5.472813931154343337e-01
-3.403818417642982541e-01
1.992793999651303327e-01
-2.216614448933665049e-01
2.439156456675919404e-01
-1.048680324122416713e-01
-7.242754288667439810e-02
1.423836934803144605e-01
-5.473456616667138341e-01
1.133988348822444342e-01
2.263357841965440431e-01
-2.337833834721989301e-01
3.190962786978061017e-01
-1.238968318550000003e-01
-9.754580869873864801e-02
-1.021736324628811921e-01
5.927116380582825306e-01
8.386344810498728153e-01
-2.047162786706607507e-01
-4.871036584942302627e-01
-9.384242030002050428e-02
-2.183142409881470569e-01
4.171401029789732484e-01
-6.231428879907719987e-01
1.123468621950144269e-01
-5.773612745319300910e-01
-8.267515100170393094e-02
-1.236587018271277788e-01
-1.244350466136366976e-02
-7.431467030064061730e-01
2.931949729150252204e-01
-1.308715230889273273e-01
6.877158214745339171e-01
1.814038460239496831e-01
5.524180005462956400e-01
1.155562496039121007e-01
-5.802284605462945111e-01
-2.913027550007162292e-01
9.789744077822561119e-02
-1.766180457455435726e-01
1.075949626932567876e-01
1.017326040486482841e-01
3.376297639134025891e-02
-3.987550670871258807e-01
6.985107468780357709e-02
4.460418181832821044e-02
1.239387578867200135e-01
8.094076749008376481e-01
2.147948861600243176e-01
2.647978122118859190e-01
6.609772794431312271e-02
-3.914214116911513552e-01
-1.744662598293402755e-01
-1.172758317106869785e-01
-3.452283755172417812e-01
2.885487597468376908e-01
1.327862994039467892e-01
-5.677043999258717388e-01
2.909515856657883259e-01
-4.833568816046510674e-01
5.460446026026811728e-01
3.278681567859105805e-01
-6.481574529524396222e-02
-2.000510965344247383e-01
2.142454872727971860e-01
-2.970819576140039664e-01
2.054838591961557701e-02
2.890574507228029777e-01
1.392727462530217453e-01
1.192275798379778887e-02
-1.540428068490169167e-01
-4.737025250731058956e-01
-8.663167797793941416e-03
-7.757957156960625100e-02
2.443969948673918313e-01
2.036079767714823185e-01
1.755489884331823680e-01
3.252943097660171978e-01
-3.010462028652134969e-01
5.218164643611277187e-01
-1.245587433436630975e-01
2.436745596233006184e-01
-2.799072190954387529e-01
-1.796714472344431712e-01
6.305088038693780483e-02
-5.279511323037643367e-01
-1.547158413215765083e-01
5.948771779033775603e-02
2.786410034705535388e-01
4.349451548730168260e-02
-4.652721463951555725e-01
2.099408905185486673e-01
1.276303684757545791e-02
6.896124016631740572e-01
3.068060503226861524e-01
8.343625639030118890e-01
3.141152433177930581e-01
2.331817230855952883e-01
6.233150812065069851e-02
-6.892220874998547520e-02
7.902768853910378810e-02
-2.375589702725031949e-01
3.444508136613310678e-01
2.661012126232219048e-03
-5.331357804004420720e-01
-3.322689181575875228e-01
-6.477122138222989045e-02
-5.130369790756249548e-01
-3.314943023661484633e-02
5.633058269513395444e-02
-4.903628782060340807e-01
9.265618029350590479e-02
5.394214604043671146e-01
-5.360065770884290259e-01
-5.137369737110558665e-01
3.530805835160233386e-02
-2.304172589511830072e-01
1.654338111161607616e-01
-3.617248115414446463e-01
-1.625072963073295462e-01
-9.296039762032590192e-02
-5.809891922220936644e-01
3.716897129974791603e-01
3.802501199257956599e-01
-4.266842965122448761e-01
-2.457282337182501997e-01
2.490484707855522561e-01
-1.612584341200709870e-01
-2.976237255530049808e-01
1.836345486632185720e-01
-2.826142033095245809e-01
5.535208585589633523e-02
2.349712984549011952e-01
-9.631529320154838536e-02
-2.658620601596575761e-01
-4.451881489902634326e-01
-5.486859718494296878e-02
-1.099436182254159566e-01
-1.563458564343107871e-01
1.201627478985081154e-01
6.821912664003874083e-01
1.666936083787793899e-01
3.381825702424577362e-01
8.983634920186960027e-02
2.370918814861326107e-01
-3.325954950843436619e-01
7.960394887536188790e-02
-6.225579423954211711e-01
-1.772652824707517116e-01
-1.891917951249918670e-02
-3.109395063631950965e-02
-3.750251037537475352e-01
1.628972339407507020e-01
3.213659502269867194e-04
1.466954053771987732e-01
-1.745490584897683717e-01
-2.508946683141788370e-01
1.300807091284785777e-01
4.359471789272897913e-01
4.395314802485133891e-03
-3.443603134937265331e-01
-2.229852674071100826e-01
2.611724750589473065e-01
-1.709293084189417861e-02
-5.572692998505366369e-01
1.918581818051807719e-01
2.586149483893084855e-01
-8.165838553878530803e-02
1.548083333958692187e-01
6.661482654423078742e-02
-1.539353045256578248e-02
-1.593038512849980493e-01
-3.326252296021028343e-01
2.181614701473250650e-01
