4.496892677182253162e-01
-3.556568106483080915e-02
1.199373746549174669e-01
-3.050698503753348015e-02
1.860783148007723597e-01
-3.905893719363226491e-02
3.324263957167861161e-02
4.613328042174025256e-02
6.687293069642749610e-02
4.907956343997587623e-01
-1.257431840140707247e-01
2.963917635412798846e-01
1.681347297744946179e-01
-4.091897713022653593e-01
5.514987538229073616e-01
2.716035940989377367e-02
-4.078669623393670896e-01
-1.431088972610902177e-01
8.303666076417842712e-02
1.961699516520152946e-03
1.628927270884052148e-01
3.521200733712059328e-01
-3.523613180693249136e-01
-4.895303074702519464e-01
-1.034465586515677521e-01
1.959528715837733914e-01
-1.224666262272162132e-01
5.642710398951445994e-01
-5.212988913357493453e-02
-1.697844028181486331e-01
-3.317012840508245519e-01
-2.556995922062481608e-01
-2.554993039387525866e-01
-1.882903993528110831e-01
-2.327542966415765413e-01
8.108186133524504513e-02
1.941239956017717372e-01
-1.738407218619532346e-02
4.043133036589858786e-01
-9.064184368776501133e-02
-3.950025237528133060e-01
-2.540745284132038262e-01
7.725215671525295646e-02
-3.977161315917361606e-02
1.283543129681679607e-01
-2.730656989294968917e-01
5.374284075135847827e-01
2.381414628795216690e-02
8.837001803084017226e-02
3.692186840535982562e-01
-4.192001041796827171e-02
-7.004649598684989376e-02
1.289532954169633761e-01
1.656955640908707450e-01
-1.004063529941698479e-01
-3.492916938614978317e-01
3.130618343703751583e-01
1.402564974703207068e-01
-2.894175135485165251e-01
1.984790557582274406e-01
1.082697890259613216e-01
-3.814725095309264846e-01
-1.292470353398597616e-01
-4.182636816171576843e-02
6.457417876792485023e-01
-3.254304448803147648e-02
1.598131880201231481e-01
-1.954745012596612319e-01
-3.894882196320821888e-01
-3.159803799100059374e-01
-4.268415090597996175e-01
-8.064931778224142256e-02
6.406767675476937596e-01
-2.760031200735679202e-01
-6.749009198137041476e-01
-1.503564099443922553e-01
-7.465337422058777872e-02
-2.395383215473733188e-02
4.324167256034798790e-01
2.367864100894537527e-01
4.689008116972590567e-01
6.402321863313734651e-01
-2.312651730956692964e-01
3.952844744789366094e-01
-5.403065191994241984e-02
4.266991566462721708e-01
-6.938680928476742560e-02
5.798844602163618633e-01
-2.198610151261438383e-01
-4.941133069552759438e-01
-8.686432874919941538e-02
2.260957019697169279e-01
1.122137424682754930e-01
-1.538049383755624444e-01
4.017191707640290210e-01
2.959606790394295750e-01
3.137018496738265827e-01
-3.369394989709560417e-01
-1.745831004756200899e-01
-3.236126020201132714e-01
-1.198694625970496558e-01
-6.096590409455980852e-01
6.894028520108602676e-01
4.373094827155237230e-01
-3.746556236598919121e-01
6.677557572528013130e-02
2.359754534137926685e-01
2.902132807231792011e-01
-2.907024108823883513e-01
-2.134596315882070494e-01
-9.025483025590959330e-02
-7.987294697532891785e-01
5.813893880142362303e-01
-5.119088868775267809e-01
2.949588768145582907e-01
-7.167593983606193597e-02
3.877935188807960648e-02
-2.386116600289825695e-01
2.741512999064748546e-01
4.193983623731064037e-01
3.762685778908768097e-01
1.971391730089004646e-01
-2.174024974160293500e-01
3.861060978709328073e-01
1.451479259774653835e-02
-6.157172347112457866e-02
-1.797342837720948272e-01
-1.912824297877576685e-01
4.807185752904193921e-01
3.348222142591293360e-01
-2.545495152437458053e-01
7.261275736431203887e-02
-2.656300914999836227e-01
-2.966255415211235258e-01
5.318879663385964879e-02
-5.915078443928573071e-01
-5.060877229409965067e-02
-1.022782157715866197e-01
9.290970352715748060e-02
-2.899611788433311688e-01
-1.464772513167659218e-01
2.886890456721705744e-01
-4.462409382209860942e-01
2.842801871633277022e-01
-1.137187105215761163e-01
-1.965639898557628162e-01
-4.766369539322841131e-01
-1.173415065440696070e-01
-3.774456080023818050e-01
2.421427861204496768e-01
9.830771084747404187e-02
-2.860303461084217069e-01
1.263895337803873919e-01
1.454425211654691852e-01
-3.794748618809527518e-01
-3.038252503901609503e-01
3.382631109566269778e-02
3.515530244985851809e-04
1.715238663903903282e-01
-2.550235466648989591e-01
7.033982671623223437e-01
1.324431604688731390e-01
1.028305992507866501e-01
2.560298220041385409e-01
-4.414323481045140940e-01
-4.292179786431436495e-01
-3.060806443118060938e-01
-5.507668655189910112e-01
-1.987633449730773216e-01
1.758061998171492057e-01
8.420473073716004675e-02
-4.522961838671279988e-02
-9.154033265432126587e-03
-6.191814031925784167e-01
-3.656739350512618753e-02
-3.558333184122351028e-02
-4.779486833573441951e-01
2.420709451615416785e-01
1.505682768481065581e-01
-1.260387095477009944e-01
6.194232002706430602e-03
3.475570438082573044e-01
1.004436512834464834e-01
-1.935020563409128036e-01
2.606795367530723162e-01
6.468416660038519561e-01
6.633176507026322666e-02
2.771155640007409438e-01
3.386611937950159135e-01
1.394595209233926991e-01
4.804360431882668814e-01
2.559256611321186151e-03
-8.385210863173858664e-02
-7.040388921050073912e-02
2.513533014480216488e-01
3.337697032713798223e-02
-4.629201227429968757e-02
-5.930387719507165811e-02
5.394641553452698135e-01
-3.637082862563199848e-02
2.492271390709422940e-01
7.597017805062870888e-02
1.190580249554044068e-01
-4.835103359082182362e-01
4.502665493324821688e-01
3.974892936927048592e-01
-1.770410266184325176e-01
-2.019117592499767577e-01
4.486080485812057178e-02
3.901214953999183610e-01
-3.274440866595592636e-01
2.586388875909191865e-01
1.542642810253407881e-01
-3.816913520666619097e-02
-1.177593380836807896e-01
-2.054931939960634446e-01
1.200249625019969568e-01
3.316679025192474373e-01
1.473614764627738938e-01
1.070081738189257586e-01
-3.274903014069150964e-01
-4.556136347988462010e-01
-3.886329516078725760e-02
1.995521548463038697e-01
3.166019039999382612e-01
-3.269300483870466456e-01
-2.399166494269698857e-01
-1.009565034144610796e-01
2.904120529295746711e-01
8.411557516660680411e-01
1.455091674250999223e-01
-2.101125034525894719e-01
3.667917276833005530e-02
4.594668557155021649e-01
3.622337663204522329e-02
-2.663038279521510177e-01
-8.253985441423199454e-01
-2.883762418499016267e-01
-1.677196148313833401e-01
-2.153519136336209949e-01
-1.916543166077902816e-01
2.778771932208664031e-01
3.100200487050960296e-01
-1.756011834913048242e-01
4.097861219528145527e-02
1.552532801449565958e-01
3.742456134179058536e-01
-3.558485105853944619e-01
-2.343786653147002519e-01
-1.228563755222742138e-01
-4.626059259645426414e-02
3.553952753383918250e-01
2.548782623939222503e-01
6.020223572598306649e-01
-2.833390362053106459e-01
2.510070707956313374e-01
-1.427481089215887067e-01
-4.422453445618977352e-01
3.772186807785803814e-02
2.282041087603233209e-01
-3.095633003926883189e-02
3.173586247849294328e-02
-2.130571175864341416e-01
1.297924837429209888e-01
-3.600564540698598104e-01
