4.783039535836240697e-02
-1.456731327928114939e-01
-1.096431255277871726e-02
1.487057210575175870e-01
1.990123934909808767e-01
-1.211174648703631090e-01
8.629254087381818539e-02
-2.734282203309630344e-01
2.801817549062685098e-01
-1.955283024337579056e-01
2.355243876003431380e-01
-5.839369705731065618e-01
2.043176025669383999e-01
-1.084564046927293801e-01
2.154519003074285843e-01
2.457112525145941362e-01
2.178679542801584268e-01
1.537658230308735705e-02
2.286183847121066592e-01
4.249625837124348382e-01
-9.462915727957925405e-02
-1.196373397658559018e-01
1.558990594346592595e-01
-2.337538327417461592e-01
5.258314176803376983e-01
-2.595693565500000188e-01
2.324532596747910240e-01
7.010587366280907062e-02
3.836483999923861465e-01
1.204587948571796685e-01
-3.119329392611199792e-01
1.028357354928505912e-01
5.636007340562378953e-01
2.791672327388062813e-01
-2.360297626544768934e-01
3.770837140401580578e-01
-5.372697105487725944e-01
2.596500706183310636e-01
2.234136975256894031e-01
-1.194833268525593156e-01
8.241979973411084348e-02
2.110128939065149603e-02
-4.948513955214693949e-01
3.362158242730498708e-02
-2.741980322116666091e-01
1.879558436097768237e-01
1.177296325612017247e-01
2.356768057580833353e-01
4.758239499529877681e-01
3.324538561182960872e-01
-7.886731641265629089e-02
-2.172067295520959951e-01
2.133651461355333054e-02
4.987387511780005389e-01
1.974678793915527475e-01
9.647079776731373735e-02
-1.259305019862090591e-01
1.001145643441866614e-02
2.428845351478954862e-01
-4.266089010947053672e-02
-2.516939755365089626e-01
-5.643873599499910076e-02
-1.676771512492515603e-01
1.970751236433484765e-01
-1.824692540287984333e-01
2.277619704141378432e-01
-1.047483757981328700e-01
-4.019792142504665100e-01
-5.010134253238282542e-02
-1.206733789072130664e-01
-9.151771996428346989e-02
-2.294034378252107487e-01
1.607084521700087310e-01
2.843584673198112367e-01
3.299445480851258272e-02
-1.926813180181291552e-01
-1.811070299719602650e-02
-2.623463992615374663e-01
3.724630499867112032e-01
3.615943006328783960e-01
-3.680685969122716311e-02
4.931054115588535680e-01
3.214611055170681353e-01
-7.511469337568479898e-02
2.283822114580324469e-01
1.445415356714864485e-01
9.166476519783439691e-01
1.912336862003368998e-01
-2.736737856398762103e-01
9.548897156297987687e-02
-3.083443255137626945e-02
-3.902174354115632571e-02
-6.743357742836610935e-01
-1.435187689523927668e-01
7.098807703143229786e-02
-1.160386846476758882e-01
-2.814235418684092951e-02
-3.791527254240830702e-01
1.550001605973505281e-01
-9.708890428176529530e-02
-2.328128894280714900e-01
2.508470824391718645e-01
-1.323192437851252456e-01
8.962360310583657175e-02
7.409139951513348255e-01
-3.906013984948741302e-01
3.663885327852438034e-01
-9.109369660783880884e-02
-2.944670274080179451e-01
1.204487991027019672e-01
-4.553048306181534666e-01
-1.657152603769977972e-01
2.958574947969025426e-01
1.267217974435911054e-01
-3.324725034539783852e-01
5.424323312795393398e-02
-1.800972760041344711e-01
-2.074231298166966664e-01
-2.750016284103966591e-01
1.500418319382966492e-01
-1.805254392036710620e-01
1.590209807125303743e-01
-4.018199164770763776e-01
-2.465852435794457231e-01
1.888657352211985455e-02
2.643740339742387535e-01
9.040231111910239370e-02
-4.032165593916962054e-01
-2.351817795436887404e-01
1.527024389253362757e-01
-1.357066643206239764e-01
6.151104183333402364e-01
8.764543124767443238e-01
-1.583731927393246530e-01
-2.100428230755942427e-01
1.425269775198388655e-01
-7.837380987600368887e-02
-3.338364909602405395e-01
-2.481498943087389053e-01
-2.783046604052738515e-01
1.639859926976864057e-01
1.886310809604253291e-01
3.418624239719753911e-03
-1.232281098025748839e-01
1.597482725555223956e-02
1.652402712353270575e-01
-4.933480172469294489e-01
-3.959246796505686561e-01
9.456484165377733453e-02
6.761456524139134450e-01
3.437555871240256106e-02
-4.723803856823983183e-01
-5.093298911902968129e-01
-8.010899273389306130e-02
-9.486947479265796235e-02
-3.879426247627220103e-01
1.102483929694208081e-01
2.114891111852255645e-01
-2.267923745649770284e-01
3.009405791330134750e-01
1.653465536732592611e-01
-5.666602129565682100e-01
6.601370929216935357e-01
3.826226611581069470e-01
3.878335125049121035e-01
-3.956391344376718883e-02
-5.547751379553143014e-01
6.498434724357319281e-01
1.354383452806333377e-01
2.265819260173487781e-01
-3.915741504573865273e-01
6.742758792230543752e-02
-3.741157642127003746e-01
-1.470391893120333859e-01
-6.758842249703981599e-03
-3.475684358003247598e-01
-7.138073956049091617e-02
2.790744209922440544e-01
-5.487219645937342453e-03
-1.257656261797388819e-01
1.846975239891641418e-01
-1.883968021629492673e-01
3.633461211314624184e-01
1.866186638983085844e-01
-4.818843023519343016e-01
-1.292272616128559981e-01
-1.526407459949034873e-01
6.697238123247795105e-02
1.549485796623032707e-01
-1.622243327521357970e-01
1.976736381841127099e-01
-4.369178593844835756e-01
1.828692924928408403e-01
3.860431025620430501e-01
-1.532454468818675863e-01
-3.218298986358784641e-01
1.161062693176973665e-01
-1.082945250244889135e-02
-5.313771600723870420e-02
-7.199911643251338811e-02
1.231716757349032715e-01
1.389735155702448155e-01
-6.340472672126989950e-01
3.051605955851484087e-01
2.041102165558775494e-01
-1.192681040114280111e-01
4.233551183846215871e-01
-3.060574246516814534e-02
1.020173166310084194e-02
-8.728776949860243828e-02
-2.383873537660415598e-01
4.859000317992475532e-02
2.355955741870641440e-01
3.590149635248935933e-01
1.121491387303030357e-01
-3.521935332275300534e-01
8.305719830553139754e-03
-3.327272226125939647e-01
-1.725388581547189215e-01
1.295756231272973957e-01
-1.037831199252445824e-01
-7.837399152696315763e-02
-1.207405684039175031e-01
2.128295621041684516e-01
4.557310789903361581e-01
-3.406307477009811180e-01
-3.428720619480903065e-02
6.754166698987548734e-02
6.013429450722721503e-01
5.689514492521012823e-01
2.779183457072321728e-01
4.907138411866616146e-01
1.131397230686628265e-02
1.603049287667725198e-01
4.709817000820391147e-02
5.650449849450045470e-02
4.270769492860736483e-01
2.111815760743514236e-01
-1.153965624605201301e-01
1.095709935778839683e-01
3.209261728850748008e-01
-2.604422283343074684e-01
-1.656849880694992172e-01
-2.621847289530090386e-01
-5.619974579706973200e-02
3.789613492909254533e-01
-4.021714798735758767e-01
-1.138641426547968433e-01
-5.322292098499470381e-01
4.669177619511493543e-02
1.171875582994257314e-01
2.883030089144434926e-01
2.795654024807856519e-01
-2.489582933645970164e-01
-2.843980938679604442e-01
-3.986368858457621234e-01
2.698033481752356577e-01
-1.155517363551279847e-01
4.919057903177075364e-01
1.872171112413404392e-01
2.433378666233506349e-01
-1.373282263441404256e-02
3.385124001680938077e-01
-4.305048413964279730e-01
-2.392443069640182718e-01
