2.931459039489408003e-01
5.132931812034415842e-01
-1.356850453228903020e-01
4.870326404947641907e-02
-4.671398661635859512e-02
-5.353161192709676719e-01
-2.151258436226597404e-01
6.779030163666897035e-01
2.189368518705891442e-01
8.285095068411430300e-03
1.167697666099904996e-01
-2.174970226773998150e-01
5.918647271941716026e-01
-3.201396505477008825e-01
-1.723933210858925036e-01
7.269722155225917526e-02
-3.828551427788282058e-01
3.953991460250752543e-01
-5.495134723134569299e-01
-1.392712394632886763e-01
1.136351563916637442e-01
-3.428140618554912367e-01
1.314672459848155728e-01
-1.315153822412953866e-01
3.297800297166021410e-01
5.197725478885467654e-01
-2.886201684510634191e-01
-2.909806294146389805e-01
1.006035173615049683e-01
1.439395076345659219e-01
1.520804075555952720e-02
1.188214507612994075e-01
-1.105246841116587497e-02
1.382890400624889882e-01
2.942459115185559748e-02
-6.137388217493416898e-01
1.440195750081993964e-01
-3.011896504544075426e-01
-4.264786633327701248e-01
-1.964877902150607980e-01
3.243406885874705603e-01
9.558340630481666766e-02
1.481288664056782389e-01
-4.287411614345937316e-02
-1.316187926402885219e-02
2.429144040307676111e-01
3.732801712442920805e-01
-2.625379165057799558e-01
1.021799781424542197e-01
1.684781615544746480e-01
1.878586932017465572e-01
-5.061670399417879107e-01
-3.291418938117407489e-02
-2.809971022129606477e-01
6.849515741381545508e-01
3.841557915500252718e-01
3.578024364842136151e-02
-8.466210621417098736e-02
-1.078476305043960248e-01
2.921272054061082590e-01
7.166845353658374274e-02
4.666693122429848573e-01
-3.650719687551451931e-01
5.604757364644294970e-01
-6.052276109298891926e-01
-3.043543457609788894e-02
9.273689655779066010e-02
-5.851505026137460153e-01
-1.364972971085654241e-01
4.206071897571392326e-01
-5.635458294855666406e-02
-2.594309118465791819e-01
1.395447178059406601e-01
-2.049378577203415652e-01
-5.146668164327116574e-02
1.849648737986069047e-01
-1.802978169124792029e-01
-4.196619220786809712e-02
5.511946616452641223e-02
-5.446765827841600072e-03
4.330852771017109082e-01
-3.151673015022319335e-01
-1.115941775396269708e-01
-2.323577457614448005e-01
2.951997188208807521e-01
-2.703733719652226530e-01
-3.551861434163711140e-01
6.616673938330459581e-01
-4.411049919672457298e-01
-1.697755008537061017e-01
4.001510121641804058e-02
4.129331535614980120e-02
1.846488968463079125e-02
-2.205863766349387411e-01
5.380088294818065053e-01
-7.197365875114217215e-02
1.741026382478770285e-01
-1.367698491596755495e-01
4.017283103701521640e-01
-4.965625174367302441e-02
-3.444821641620582353e-01
5.383255179642508770e-01
-5.572839347174839419e-01
3.471131626118833524e-01
1.538923102238674567e-01
2.578416419187359171e-02
2.039702036406116636e-01
3.596225068198626862e-01
3.929896605576962410e-01
2.911292696886672582e-01
-7.932701047087754587e-01
2.529828759553081063e-01
-6.144523839468403192e-01
9.495251471255650166e-02
5.001912268819129759e-01
4.913937323803669877e-01
-6.426934225915632848e-02
-1.802601209219433231e-01
6.991250214787590733e-02
8.055207011960041630e-02
-1.931607203318966848e-01
4.551473460934961079e-01
1.336851022381740639e-01
-2.178978922186603218e-01
2.714073400677028403e-01
-1.421240838005826956e-01
-7.942296093219106123e-02
-4.633042152635676314e-01
-8.060970197611400101e-02
5.718840000669693502e-02
4.964921141984221520e-01
-5.701397408266357658e-01
-7.757319478414208269e-02
-5.151971207880375048e-02
2.309532371697985975e-01
1.719032207552889935e-01
3.177500757313228563e-01
-6.272785713352513337e-01
7.222244633388926749e-01
3.557245245607135176e-01
-1.594606106386450561e-01
1.292082296987934753e-01
-2.881473906357091552e-01
3.452872505816392823e-01
3.345849803329553618e-01
-1.204960448626869185e-01
8.766273855353731159e-01
-6.639384667269818130e-02
5.511204924052665044e-01
4.171814162071352250e-01
-6.778492707077961310e-02
4.557454182242198781e-01
-6.619922536152500481e-01
2.082877516714051747e-01
-5.327629880276956165e-01
1.572930789627275394e-01
2.479369452313971156e-01
-5.766484838567239590e-01
-1.321063173612012920e-01
-1.017487809216057193e-01
-6.481260711331654489e-01
-8.516253445803932676e-02
-8.624325136942481151e-01
5.418632598521262445e-01
6.469011447209099819e-02
-3.375953752078773573e-01
-4.916984498357636624e-01
2.145534644921536227e-01
-2.106725283567109364e-01
1.913741184259538652e-01
6.916825529608876533e-01
-2.557947106418766436e-01
-8.711019807570316575e-02
-8.544455904509631883e-02
-1.489449738571527737e-01
-4.620712425640580157e-01
2.447237125703913274e-01
1.867416647189201195e-01
-5.348819700475919703e-01
-7.368603992976048567e-02
-2.082881398531742645e-01
5.738589594607871325e-01
-6.925837749591490233e-01
-2.224707150729581528e-01
-2.685987752440973653e-01
8.550024459209264183e-02
7.715964284715034482e-01
-1.255611477948645749e-01
2.372103683355949177e-01
-1.330372281050033467e-01
4.479443382914345684e-02
3.346529736906506680e-01
-1.340523850458461286e-01
-4.417296369864228134e-01
1.243224152439407204e-01
5.944936983712616474e-01
1.008768781742353793e-01
-4.730607090340236548e-03
4.626523800858789448e-03
2.316693259332576749e-01
-6.012189217640935279e-01
-4.316267315831893159e-01
8.106495373734437515e-02
1.011276696915080625e-01
-4.031521430815643292e-01
-2.262454887855379349e-01
5.699997994698238757e-02
2.393800111715710388e-01
2.215701605824099141e-01
2.631692339751124862e-02
-2.508593615638440300e-01
-3.222017117324347396e-02
3.152624719482790550e-01
3.759958360451008952e-01
3.681521084434341562e-01
8.621540220732973880e-01
-3.679762730524158698e-01
1.489661004320792237e-01
-1.373667175273222407e-01
1.691257696368877184e-01
-2.252050578679841986e-01
2.919249539732889365e-01
-4.229083645256875162e-02
-7.081462597793508618e-01
4.686363476064068778e-01
-1.085029912692513643e-01
-3.042249500344109681e-01
-1.414254593281340233e-01
-9.362826780732499965e-02
-2.297976199522046570e-01
-3.091022617575531206e-01
-2.554124360467591170e-01
-2.279687894277682841e-02
3.104889770711372066e-01
-1.622845275841044155e-01
-2.549632182679990589e-01
1.673591120201291249e-01
1.679889848535440211e-01
-1.576208839627923353e-01
4.451883824214240837e-02
-3.524209296044172879e-01
1.565268160166188860e-02
-2.101694695408680078e-02
-7.682875159020954858e-02
2.702496213095192945e-01
-1.360325402759613445e-01
1.073106745865856776e-01
1.701440970893120519e-01
2.860930232881206958e-01
-4.593820935103082315e-01
5.434334964174168947e-01
-5.859212244112645962e-01
5.486739799432438502e-02
2.701726099699969241e-02
7.343609091926833754e-02
-2.705300310405117092e-01
5.284541720604070125e-01
3.225267324193038521e-01
2.211295350378436261e-02
4.694234942024292367e-01
4.551908810388735627e-03
-1.275129210326852169e-01
2.571794358031170846e-02
4.868893486092445433e-01
6.767505250993305355e-02
