5.087584212945414630e-02
-5.115707784952887999e-03
1.112635742415829521e-02
-2.638128720977024333e-01
-4.025653530534613056e-01
-4.257110453475997369e-01
2.176397272756035173e-01
-2.043272529651325720e-02
4.652377066239207215e-01
2.800196303869951220e-01
-2.358881487259115728e-01
8.703276200558363040e-01
2.940331164073163306e-01
-3.679657659679027581e-01
2.982219013191316631e-02
-7.060530837240301671e-02
-4.357795308425033709e-01
3.410508448848125207e-01
-3.611319622169484322e-01
1.577595633184723234e-01
1.931621630229034547e-01
-5.521933680158889191e-01
-4.818061153585999068e-01
-2.609054310682180633e-01
2.293085756955606791e-01
9.890961043489908400e-02
5.579551108386474612e-01
-9.165855049969573454e-01
3.650340165861471475e-01
-9.698201933226041627e-03
-8.726134316184505635e-02
-6.472517619064565020e-01
-2.029560154531031002e-01
-3.425415393140355258e-01
3.730244969183700299e-01
6.616443441800276548e-02
-6.223799181784477330e-01
-5.040571045934827410e-01
5.487032400831412526e-03
1.858224425897367915e-01
1.204273115519225446e-01
5.670276198124472034e-01
-6.455776659338383627e-01
-7.597147933650012785e-02
3.621108000288761897e-01
1.298772082499183023e-01
-4.510764454926455280e-01
-5.097156776755913388e-01
6.788700740330988470e-02
-2.615685568654568249e-01
-5.866387639731913684e-01
-1.359275646697792606e-01
8.028501103210866630e-02
1.572818038305275334e-01
4.787804927043790015e-02
3.287469758366408645e-01
5.832105503235295030e-02
3.789196023330739238e-01
1.014658428265476919e-01
-3.945748409053466410e-02
2.654443752963222547e-01
-6.816930927672911755e-01
2.914624619714674680e-01
1.379588383431280818e-01
-6.156098757359450974e-02
-3.429836907686933944e-01
-1.334104733817381705e-01
-1.866193211512797434e-01
-5.214080779942852351e-01
4.225646747383940971e-01
-2.918961833828812025e-01
2.067067639934535295e-01
-1.687928997222442051e-01
1.423075038417890292e-01
-1.210033153314613863e-01
1.009998325640994593e-01
1.928546976558870862e-01
-3.414030632633182627e-01
-6.344935582080667436e-01
8.824005718388376607e-02
2.405535823746568491e-01
-3.057851578085613586e-01
-5.560297106470720729e-01
-3.930872384753806847e-01
-7.613161519500505348e-02
6.699916848715637974e-01
2.044232240900578923e-01
4.920484018376120733e-02
-3.145244957262683383e-01
-4.254526656328376788e-01
3.036238893620690771e-02
-5.936657452005449365e-01
3.508456589058535080e-01
-1.000000000000000000e+00
2.074541909597624190e-01
3.609299301792316950e-01
-4.420256587131873305e-01
-1.055670456220879488e-01
-2.615135200847337194e-01
2.493611351805228860e-01
3.548828267227709943e-01
1.313498267571377165e-01
-1.758408125082107643e-01
-2.097457658722950424e-01
-2.879954776684297280e-02
2.492225480521262082e-01
-3.007030462069488763e-01
1.015098208379043021e-01
-1.429185520753187555e-01
-4.806376837708692951e-01
2.632064047999376211e-01
-2.806575527110864443e-01
-4.258015998585402972e-02
1.719436676355017846e-01
8.435925176605247877e-01
1.763013369432954169e-01
3.806869669270689094e-02
2.509616143899948831e-02
-1.488134376582123386e-01
-4.917660329711753819e-01
-5.004073842868644872e-01
6.766836487184360593e-02
3.281941177881460003e-01
4.093307861575841144e-01
-3.148244342531467677e-01
-3.888149727782660298e-02
-2.670573317534082405e-02
-3.940660723106336194e-01
-1.288005166127381973e-01
-1.331544068154469351e-01
5.334763061030319831e-01
4.207188233729706184e-01
5.090925040687297454e-01
-1.759919878449465319e-02
3.695420669587541340e-01
4.060251109607156961e-01
-2.503615554776307262e-01
1.792769003619285595e-01
2.732781293970789060e-01
4.008766008507119727e-01
-5.904327867785562622e-01
1.546258588385454602e-01
1.960599460869558996e-01
9.710804340275899782e-02
2.755604336913181074e-01
-2.785492999261254266e-01
-2.399902546317506380e-01
9.305116147856043463e-02
8.763715927557591545e-03
-2.309145253286739030e-01
-6.733909875972922121e-01
1.022422454776243106e-01
-5.929522405324264001e-02
-5.436139256697867239e-01
-1.625715590697448046e-02
-2.750217070514354156e-01
2.901553632420680873e-01
1.665790859798360335e-01
2.925301946040600315e-02
-3.185101935325164169e-01
-8.575646655991302492e-01
-1.290155129735385264e-01
-2.043358223696440379e-01
-3.703991608256035906e-01
-2.647855462070408117e-01
6.490091771306381041e-01
6.007242905032171565e-02
-4.263224347468448361e-01
2.041107126210387201e-01
-2.459394947104656393e-01
4.136630377582519724e-01
-2.995286230298847552e-01
2.854698976616538708e-01
3.274725603234788229e-01
-5.074285875380170341e-02
2.893058228142613708e-01
4.899522237767761079e-01
1.079446090286582532e-01
-2.788125397036604891e-01
-3.871397601160471158e-01
-1.030360929434653572e-01
-3.450043084218661904e-01
6.914767953449056648e-02
-6.257030374355999625e-01
7.698633489453611534e-02
2.833368181698790039e-02
-4.391504204723740701e-01
-2.351690557772316906e-02
-2.540693152792953269e-01
-6.584073042492657457e-01
-2.358818517212980526e-01
-4.203885861111030797e-01
3.987158070353874484e-01
-3.226198167918080673e-01
2.081612494168441907e-01
1.385642448335914767e-01
3.018023156283390351e-01
-4.505664749252647483e-01
-2.625548347154591650e-02
-1.208245414260525341e-01
1.262643315132423727e-01
-5.566573557570868580e-01
-9.945050706392649653e-02
-4.556994454367093716e-01
8.001021751454585607e-01
2.067041758953317432e-01
-5.956999536087378977e-02
-6.843647993908444360e-02
3.591824307198977495e-01
-6.130027770391143216e-01
1.317151852403733447e-01
2.910410712648288101e-01
-1.542025006610104332e-01
-9.319484860095700318e-02
4.110543025982362764e-01
-1.871030247173383065e-01
4.999487821425495360e-02
3.550222422607114958e-01
1.085541411676791829e-01
-8.576408151655282031e-02
2.374622146902137867e-02
-4.438623247423936768e-01
-4.729018078995076979e-01
7.772567639692460340e-01
-2.813328553812864674e-02
-9.687072416053824075e-02
-8.530067190764313578e-02
3.685031913294918859e-01
1.458054857780129165e-02
2.569990289298629271e-01
-1.391851674372680814e-02
-1.216482148048711187e-01
1.549851780680719382e-01
5.363460888682748673e-02
-5.833706310358760527e-04
1.308644737839294858e-01
-5.079756690644607331e-02
4.362744039119205719e-01
2.291446160102096896e-01
6.323563430433926102e-02
-3.263749700644721918e-01
4.020463919306387357e-01
5.561019371712377923e-01
3.453600137452755292e-01
1.825536892918934728e-01
1.631172122090883136e-01
-4.969204143905721072e-01
-4.676569996856604766e-02
-4.045057852745145843e-01
-6.123611671503599585e-02
4.524072321566546817e-01
2.683564793247215086e-01
3.711834149104023539e-01
1.373754873202720321e-02
-4.829281183708985514e-01
-4.763948353520232604e-01
-2.885716197431421604e-01
-8.743651615589900783e-02
4.347677974105489951e-01
-1.979804994796195983e-01
8.893761049315718203e-02
-5.118572053829676394e-01
3.984979742272217185e-01
-3.367972599607219064e-01
-6.998767784808193615e-02
