4.409496516202662808e-03
6.092983245452208152e-01
2.218342720139970248e-01
1.026249949646265980e-01
-3.118853488018331066e-01
1.705365352745901175e-01
3.428635267075462179e-01
-1.511047466295932507e-01
-1.107457741638989690e-01
-5.087827552310311141e-01
-4.635466910210999103e-01
-3.646147461175047177e-01
-3.767494169811738125e-01
-1.457417570378991278e-01
2.105516918287850536e-01
-2.827776786546339904e-01
-3.822298527977701643e-01
1.427310678186191964e-02
1.371675681787422607e-01
-1.321395592834772592e-01
-2.209712148821059985e-01
-3.600522421528966621e-01
-3.115029900846343347e-01
1.772779876081223560e-01
-4.098310117526836605e-01
7.329228425715152151e-02
-1.666242881434891188e-01
7.472504972718155836e-01
2.824773875980501892e-01
2.261065277276608221e-01
1.130943548978820268e-01
2.195114957375179088e-01
1.053320718170792786e-01
-1.758711118405356655e-01
4.932346118089274423e-02
-4.971131172726258041e-01
8.844009200636183954e-02
2.753425375649727336e-01
2.969277967256365725e-01
9.624439451823256497e-02
5.461661517026990265e-02
2.083870078377802193e-01
-1.145322170572286441e-01
-3.499033821480471151e-01
-5.076767817510776659e-01
1.996486138380320075e-01
4.392327982754458404e-02
4.830526501984132581e-01
-2.641848536113156065e-01
-1.732475459258582262e-01
3.152291975259182144e-01
-5.698674365453756385e-01
-6.952509469247927787e-02
-2.194654306982685710e-01
1.220692867122237929e-01
-7.424640976056813557e-02
-5.144964673616410078e-01
6.679987768660214376e-02
-1.372561589094094259e-01
-9.972704340813091928e-03
-4.947057785794467533e-01
1.775811593775594166e-01
-1.441803662079743642e-04
-2.799235358515729244e-01
-4.185031478490889301e-01
3.182943148835510883e-01
-5.927762381546537451e-01
-7.295465731782008190e-02
-3.483208986893267245e-02
3.625897053198966491e-01
6.567608620168732814e-02
-6.949631427386818161e-02
3.605653443652157009e-03
5.063806883618403587e-01
-3.682329923643110070e-01
1.373680984731543431e-01
6.800866751544590860e-01
-1.552877077560009811e-01
-1.037373818945059450e-01
2.547779850418986636e-02
-1.345584354737291710e-01
5.459880143216470083e-01
2.433600900176579873e-01
-7.081141827110140619e-02
-3.416366107893598070e-01
1.593238892968537046e-01
8.127453143840399075e-02
-1.255911090289776599e-01
-4.421448844807011058e-01
9.531785708275472557e-02
4.204835485554203611e-02
-2.305997565031894236e-01
5.582667896655260087e-01
-2.398788164173339399e-01
-2.028837528009357072e-01
-2.495694434055905631e-01
2.100472954221596980e-02
-9.002259698753199701e-02
-1.796127899385975280e-01
-2.288883921679665534e-01
-8.519264521435576665e-02
7.848699721440084709e-02
-6.088686556670201699e-02
4.450295828802625087e-02
-5.588753319349190063e-01
-3.363144100456098573e-01
4.394258608505507979e-03
-1.314952123152790531e-02
7.079699935235600483e-01
3.329649785048002797e-03
3.717720691113279297e-01
1.807278809678376230e-01
-1.726917993104889748e-01
-3.992655127355940192e-01
-1.953621978685968485e-01
-1.423546708900719215e-01
2.359920016419478628e-01
-2.216980283556388431e-01
-1.471043338679138557e-01
7.492830381961315123e-01
4.843586609108325169e-01
-3.371202265258936570e-03
5.235966537265099863e-01
1.411427014894028609e-01
-5.115570715704855775e-01
-2.769975303843628112e-01
-2.385131106643239018e-01
-6.541115465847936461e-01
9.328115663696796567e-01
-8.590165002928536186e-02
1.463679170665478646e-01
-5.658757968171215791e-02
1.205415720691552506e-01
2.063347616188251910e-01
-6.609722295140296744e-01
-1.247140194642178679e-01
-1.429280611497702747e-01
1.864940529922222701e-01
-1.950967761289704727e-01
3.988854460013210868e-01
-2.208445555776358121e-02
-3.400307284824303222e-01
-6.717424571880331596e-02
1.977167173384261623e-01
-1.107650925492797006e-01
-1.020750435628494934e-01
-1.395676011197136690e-01
1.828715863107237549e-01
2.816243563206762834e-01
6.252737208228726917e-01
3.421377337924346174e-01
-2.079297936504776179e-01
1.679350097235042527e-01
-5.257502465010958220e-02
-2.396342812189712346e-01
-3.317492458982649883e-01
-1.694101627757179929e-01
1.604641794062263427e-01
-3.049309263427351091e-01
1.419210757938945966e-01
6.125552466771639476e-02
-2.205116753848566091e-01
-2.499826289970484561e-02
3.840077813498635750e-01
5.916858213525657550e-01
2.693305937085418433e-01
-5.220751717410013204e-02
1.183113721495698267e-01
2.101303135518104437e-01
-1.028825295611755369e-01
4.242197243080530478e-01
-2.537895814749638670e-02
4.497719182212545769e-02
2.413082035857850097e-02
-8.832729062542746257e-02
-1.099552680362544770e-02
1.646636167819213736e-01
1.026501070924176473e-01
-5.367773979093849041e-02
2.621969950256835546e-01
-1.907838586723674956e-01
3.864425365018686054e-01
-1.020962134794453982e-02
3.086841364986995795e-01
-6.729547752619244871e-01
2.316386487437594455e-01
-2.210926052569682221e-01
3.101506166173830792e-01
1.199139513699908760e-01
1.334044478940956679e-01
3.635178477839512978e-01
-1.943719310670708189e-01
1.132516901984521873e-02
-1.856708856381146522e-01
-2.171595943787476002e-01
-3.966468036130673669e-01
-2.731961358713328458e-01
-8.748339301558036296e-02
-2.917687609247909264e-01
1.589803795461550706e-01
-3.767501932263388476e-01
-4.240400950055637358e-02
6.531747234398876945e-02
-1.025095403843588326e-01
-2.785837688819378655e-01
5.785994979782477926e-02
-3.149582945795515454e-01
-3.307117787150641863e-01
1.917830170295253267e-01
-4.523529253429904862e-01
-4.493645461895567905e-01
-5.056613845720897560e-03
-8.402835720185634905e-02
-4.688604190358405810e-02
1.153887616134507688e-01
-1.058115373750066340e-01
-3.625633941756999934e-01
4.026835371505722849e-02
-1.034821841551686883e-01
-3.884491352311452705e-01
7.902963401330542759e-01
3.766049986163971797e-01
4.379609348084076981e-01
4.161631836321414424e-01
-7.559859407116642505e-02
-4.760230036464480063e-02
-1.985832702680632167e-01
-1.610418743339932235e-01
-2.756678744499680422e-01
-5.703078075904367134e-02
-3.223308811259802120e-02
5.309644712887422457e-01
4.514144140788927673e-01
1.731371954510487754e-01
4.086027707585343505e-01
5.392366628890659097e-01
5.688917100214715417e-01
2.777677199556559118e-01
3.524243173524368444e-01
4.819795800751362769e-02
4.834353436776853141e-02
4.342813364253207409e-01
6.194341866921246886e-01
-2.009089595601658562e-01
2.251928492536345999e-02
1.045143291657213425e-01
1.732042292365600922e-01
-2.683065071702154247e-01
-5.690929101698490727e-02
-6.715170804451522923e-02
-4.075437286564341233e-01
6.118687684896766815e-02
3.974920645806976349e-01
2.024489784904135725e-01
5.394054574037304706e-01
1.320751478025523201e-02
-3.713670506022447859e-01
1.447342499406512883e-01
1.238843787369647009e-01
4.097179802618896582e-01
2.215616769007595216e-02
1.146841966321608675e-01
5.363659535384754928e-01
-2.990176559123169236e-02
2.671967541696795290e-01
