4.671288396889083927e-02
4.707499505736880696e-01
-1.839381085457444387e-01
3.412624773649990395e-01
2.431799798542925162e-01
8.925879537371875783e-01
-8.429501491276718550e-01
-2.333315288555423694e-02
-4.925430352178787607e-02
-2.615973106048972707e-01
-5.548454696364401029e-01
4.070495360976972288e-01
1.288914125240446691e-02
8.264072931795163335e-01
9.509628533032388198e-02
-4.537465269433586523e-01
-4.915701280768769443e-01
-2.240409847851392022e-01
-1.714977118407894352e-01
2.917324082821193265e-05
-5.023620037995680798e-01
-3.661302131401021620e-02
3.459093399410236025e-02
2.328891200287236118e-01
-4.358124396938219958e-01
3.346495940818022263e-01
5.451697979905203995e-02
-1.817337656913809163e-01
-6.559442317637016739e-02
-4.894443248740683594e-01
7.195066533091347416e-02
1.962376129672185054e-01
3.143307035140341377e-01
1.678924932994178554e-01
-1.579235732379569435e-01
2.002252636408508313e-01
3.485973943097315786e-01
7.123798418743484961e-02
4.444556733365746803e-02
-3.005420752244187810e-01
-5.016009446223343993e-01
1.050129835679752682e-01
-2.847721093259493741e-01
-1.474910266246326485e-05
4.673250222545242971e-02
-1.625273759593136857e-01
-1.619119270612903727e-01
-4.863946302792133969e-02
6.863524801931869534e-02
-5.413174072091139766e-02
2.174401982728917937e-01
-1.215278121712757287e-01
-7.566069451177853677e-02
6.174206880400076036e-01
-5.514016126910925575e-01
1.817300993737791248e-01
-5.416673897725894360e-01
3.293278297027161378e-02
3.537042729773469674e-01
6.897115497728439903e-02
-2.569520164437550935e-01
7.517791348879200308e-01
-1.000901549670826229e-01
5.400477891206161007e-02
-1.567155305144110333e-01
3.927304922253485597e-02
3.727833973611576757e-01
3.317868257904508233e-01
1.752651845986965412e-02
3.130982858937604862e-01
-4.168821845643831403e-01
4.299352552674178818e-01
4.173389189576403036e-01
-4.862462030424770654e-01
-2.267902076647192178e-02
2.176016257064989912e-01
4.117605045296697519e-02
-3.532658863252117198e-01
1.764801544627950247e-02
2.334015505170299598e-01
-2.046649790584061102e-01
1.024388426016205056e-01
-1.162168510909893371e-01
1.762394421357962593e-01
8.340257813369779394e-02
-1.915605175212861389e-01
3.335240436701428779e-01
5.364191139168821287e-01
1.519001143823841549e-01
-6.778616136172082030e-01
-8.213674894273857718e-02
2.243129079146733429e-01
-2.553872734588507609e-01
-1.523735059813673409e-01
4.061119713170227574e-02
-6.561156681370788890e-01
-1.427798121575457324e-01
-3.274696018213554827e-01
1.050885330881696778e-01
1.404958790285090464e-01
2.210917854181864983e-01
-1.545942411405760164e-01
-2.338193250100725762e-01
3.723602856728979171e-01
-3.424198923082170248e-02
5.129297134038561801e-01
7.402437952535427801e-01
9.723351393644838470e-02
-4.823853634665006829e-01
-3.130978482943713170e-01
-3.799459719934791813e-01
-1.360742451635121308e-01
-3.604353550341522772e-02
1.841757576536675808e-02
4.061187971039974531e-01
-2.799852832224813959e-01
-2.763945985588296961e-01
-6.475605213072060939e-02
-6.302791630999672601e-02
7.006347063022341781e-02
4.322641845776558495e-02
-1.250999236818075566e-01
7.881740730600911293e-02
-4.556685207500806856e-01
-3.368561069085908993e-02
-1.227557501221030051e-01
4.505811727301651803e-01
-4.965521732410987377e-01
1.706317470115024659e-01
-2.503166373338958639e-01
1.655412277219421302e-01
6.469067514653234485e-02
5.634861349932638319e-01
-7.525486098151753511e-01
6.651521870676201098e-02
1.407464365140632390e-01
-9.207310863943440893e-04
2.310142650848522883e-01
1.509825111076473214e-01
-1.426803515056324911e-01
-2.044857820480404723e-03
5.716367590510994523e-01
2.122887858328536756e-02
-5.295444467995442245e-02
6.898094361822765253e-02
-4.047247227512969225e-02
-3.321436246303665629e-01
-4.613100479804369686e-02
3.096605582920681221e-01
-4.520705734706527146e-01
-5.004107829541033781e-02
2.039825993175850838e-01
-1.400555505310539239e-01
4.404449736326524478e-01
-2.032671275542461964e-01
-2.037769103204811472e-01
-1.313894555832549327e-01
-1.189075566807983042e-01
9.918063853736669433e-02
4.431986820710866193e-02
-5.470074101349852586e-02
5.533440534061934840e-02
1.276499567891695719e-01
-1.306343724061380732e-02
-3.699723017700790595e-01
5.110951043773653835e-01
7.511377331572439975e-02
2.349860974569963623e-01
-2.644354072646254092e-02
-1.616687151649999488e-01
-4.298608249282560023e-01
-1.361005013240398354e-01
1.910867154148591235e-02
-1.837447032519832768e-01
-1.013322352792296877e-01
-5.666870306206597263e-01
-4.798131493865512298e-02
3.500897194301020865e-01
5.128596395567459609e-01
4.265156667141035973e-03
8.479932765038036835e-02
1.920982369780321053e-01
-1.713816715879705188e-01
8.960780254322205096e-02
-2.891943862389351194e-01
-1.200488182861347841e-01
3.476444084441380755e-01
-1.753812090350392594e-01
-1.831538043721742115e-01
-1.196872707932405133e-01
-1.330316052153473483e-01
5.082524758759570105e-01
-3.923391024245533321e-01
1.906216425913112578e-01
-2.177081281272880697e-01
-2.589311098498759539e-02
3.833483717477345065e-01
3.210213836931238851e-01
3.788323418815580657e-01
3.152560623336586598e-01
-3.524041491784680180e-01
4.626235370563461791e-01
3.050186083294511574e-01
4.806612019600308150e-01
3.716766958004433241e-01
3.897918653224107244e-01
3.690962209387659287e-01
8.056285765310637614e-02
3.494559827372679117e-01
-1.027637624389799581e-01
3.083540663521091574e-01
3.034058664187133658e-01
1.608470470378298156e-01
2.312418601743251312e-01
-4.487349807574562699e-01
-4.167126740574623178e-01
-1.549425072990528451e-01
1.455690701546291377e-01
6.914038209499007159e-02
-2.144612891837019419e-01
-6.958484457521604827e-03
2.055535173916310798e-01
1.924501819537597358e-01
4.998229467504174961e-01
-5.617461110850797967e-03
-2.872103058356478278e-01
4.326559757118694227e-01
1.791513569679273887e-01
4.017507010121937894e-01
-2.440578761181426415e-01
6.101180838264777528e-02
-4.117338695414975436e-01
4.113885500371817772e-01
2.500083613114021386e-01
1.717027551690086806e-02
2.595284968020775129e-01
-3.946939400046495239e-01
2.842236437271976057e-01
-1.216482622442614930e-01
-1.000000000000000000e+00
-8.503973158742778038e-02
1.809389614814528591e-01
-3.820538360272094924e-01
-1.657387083204043265e-01
3.558902549898734780e-02
2.784221026680630540e-02
-6.558532940451895499e-01
5.821809306419547525e-01
2.005576234851481343e-01
-2.344293659819850495e-01
-1.850491761713533578e-01
-1.441868387186298339e-01
2.436686852674143644e-01
-8.276831584174255962e-02
2.102836773430528106e-01
-3.509968745622465969e-01
8.509974997052718870e-02
-2.993262309927315901e-01
2.055731743266922262e-01
-1.033347022506585916e-01
2.292859102077084987e-01
-4.492839283783367499e-01
6.206532299060371072e-01
-3.645766799022943094e-01
-2.961463312608613174e-01
