3.446170107610088129e-01
4.553582612936170060e-01
-3.626457081064931032e-01
-1.185013077952346561e-01
9.354702564825706501e-02
2.275461416158161276e-01
1.668693321337898772e-01
-5.261927994974738981e-02
8.227674266004003645e-02
1.981196526927216928e-01
2.373547773657064541e-01
-2.340738130361873504e-01
3.496242113454703371e-01
-1.073471365745603673e-01
-2.833878722609278755e-01
-2.706983395057350195e-01
2.150923176840924544e-01
-1.722777428765671082e-01
-2.816574755325870205e-01
6.100660906068906542e-01
-3.549368247758638573e-02
2.654221621654437868e-01
-1.740317817362050101e-01
1.570116322600399739e-01
3.357551676005970376e-01
7.693472499492816363e-02
2.154119597504544625e-01
2.074600328674981453e-01
-1.713783794600965971e-01
2.294639373437591667e-01
1.002744248408187350e-01
1.532840793461413553e-01
-4.642352932416429073e-02
-8.177901214848751210e-02
-8.798529878120054937e-01
1.546338791942270148e-02
-5.802467850261663340e-01
-5.001068433737638763e-01
-2.976097491467035727e-01
5.510197116162634384e-02
-1.459413771238746160e-01
-2.128045728321502073e-01
2.066363951531760002e-01
-8.784946546696940917e-02
-4.204527641029549012e-01
-1.708644964603223404e-01
3.107697450318740173e-02
-3.153630553669119485e-01
-2.941808462801452917e-01
-3.987450801150873581e-01
1.424151546739787222e-01
1.652663602221170203e-02
4.241172800849949964e-01
-7.019685181979684607e-02
-3.655833839550141906e-02
6.544090646338890371e-02
3.396241019614556489e-01
-4.244579809478821186e-02
1.228726913642044782e-01
1.894792849447111960e-01
-6.129588452733651938e-01
-9.550026119441301642e-01
-3.608627864490004944e-01
-1.874670431009833049e-01
-3.757482901226984473e-01
-8.840549910577468959e-03
-1.951714897860793232e-02
2.862803209975413599e-01
4.639650450095891832e-01
4.947558811284322733e-01
-7.603659490790763698e-02
3.967383301433729526e-01
5.814083262019024145e-01
1.684246225985538414e-01
3.355448114035840951e-02
-6.763988899107412078e-02
6.560272014823917419e-02
-1.652950984830442796e-02
1.239314583668682523e-01
1.230942518524800050e-01
-3.466456015303984173e-01
-1.968338802109504682e-01
1.732470083095613844e-01
3.036636255616911861e-01
-2.371881021827368374e-01
3.828499869815907980e-02
3.234420097249894599e-02
-6.078657639008679947e-01
-1.051370993270177995e-01
9.074748699746938707e-02
6.590383156834452860e-01
3.735170290983829688e-01
1.039530143962361236e-01
5.628825224678895012e-01
6.391927972380420653e-02
4.508558394695098004e-01
4.751884167736886710e-01
-2.468203646795898432e-01
4.885923859059526642e-01
1.159706811608654520e-01
9.138655281039233247e-02
3.503488630127128411e-01
2.244870487253504410e-01
4.081442969970450751e-01
-1.315898132408502980e-02
3.732378715783329914e-01
-1.884573746841305686e-01
4.131688274729705124e-01
3.749513018223782357e-01
-1.607321283632901499e-01
-3.910394885795038383e-02
-4.369328368025615639e-01
-1.899970504607030042e-01
2.088098087685575921e-01
-8.791104345246410212e-02
3.464669320083438864e-01
-6.774478940369704771e-01
4.221570421455036470e-01
-7.063068662199005476e-02
-6.955952367399531600e-02
5.841598994846335380e-01
-9.306128348943996931e-02
-1.035863725779621741e-01
-3.745941977738694306e-01
2.208002293952739808e-02
-1.112225083145563370e-01
-2.425496457694520935e-01
-2.155573274108766035e-01
1.039681501164651106e-01
-1.535836086584213833e-01
1.861829536142182162e-01
2.791279691290632914e-01
-1.984240939582826435e-02
-8.985986892807824866e-02
4.417257089321552921e-01
3.675102033627608566e-02
-1.683875063567100983e-01
-2.675341135787493996e-01
5.738386181595125229e-02
-4.235386235496815810e-01
1.959658143812495756e-01
1.930054654790031021e-01
3.021410506168855648e-01
-5.402174407811835000e-01
1.021026024506900137e-01
1.062695124806565944e-01
-6.211367563267378156e-01
3.693277775190886847e-01
1.070243772658137221e-01
4.528814089714234825e-01
5.084291634932512280e-03
1.900686907161779071e-01
6.410027927540923320e-02
-1.101485192502610622e-01
2.119850142589888575e-01
2.297744947339505905e-01
8.439406566865469139e-02
-7.051022880884240118e-01
8.529436789994913892e-02
-5.958355310385366616e-02
-3.565257498497788058e-01
2.901190365259661008e-01
2.590016670065879434e-01
-1.707511507248277993e-01
5.342832561828571025e-01
3.656994772212893707e-01
4.860466583565985210e-02
2.208087058457550156e-01
-1.894240739889801461e-01
-3.422120616439769392e-02
7.447709261090829092e-02
3.350270197077520051e-01
1.729705732322735501e-01
2.416028977043016557e-01
1.593800312559744137e-01
-3.006884339022762864e-01
4.256125445572358362e-02
-1.337794466987073105e-01
2.537808263161260916e-02
-3.765410043705685328e-01
-2.848721803663836205e-01
5.399741567988532998e-01
-3.990360035983378517e-01
-6.957971894737684238e-02
1.473431498643636706e-01
9.094890500049378212e-02
8.221807799177299758e-02
6.431958625314047051e-01
-4.829212889337727160e-02
-1.048523726820943525e-01
2.356989412086639979e-01
-2.650116719080589656e-01
-2.737142261483455075e-01
2.044114810325423082e-01
4.239721111598373504e-01
-2.787071318739745562e-01
1.529502383849737357e-01
3.544386975312816684e-02
1.459662789525928706e-01
7.939569185783583449e-02
1.290798706497927328e-01
4.668548448215846247e-01
-4.331710052200751782e-01
-7.031722006075074027e-01
-2.043645321997867095e-02
-2.316374606029273156e-02
1.638535082972608914e-01
1.996092349004567612e-01
-4.968619670924145915e-02
3.490217561852188705e-02
-3.795981162306841239e-01
2.529951072765268538e-01
-1.764306267833055941e-01
3.425017879005440302e-01
4.960326095533175161e-01
-2.573389436737637537e-01
-4.591871222877775272e-01
1.245582910886524203e-01
-4.023499943776994714e-01
-7.710234811117819276e-02
-5.170260904163095222e-02
-1.505004710209713048e-01
7.891003713584881021e-03
5.432258474332811449e-02
-4.978415392072705892e-01
4.502083238761250827e-01
-1.492993761976394718e-01
6.713467155142849307e-01
1.444561486072295786e-01
1.903641121921346158e-01
-2.096622585222956137e-01
4.963965157929769445e-01
2.037738409351579853e-03
4.694088130215587906e-01
-1.512144895341316075e-01
-3.363315150007759047e-01
3.312378738748354978e-01
1.305709054814342129e-01
-1.133945077454034944e-01
2.620091775830307168e-01
-2.723743609243577946e-01
5.973337185758271772e-01
-8.393013753728066628e-02
-3.109622845411507130e-01
4.306025086451795159e-01
1.342899149534554359e-01
3.958333546285273674e-01
-7.385551235105956847e-02
-3.680061352173337186e-01
9.414204334096459501e-03
3.509711508637544664e-01
-2.480685307141183502e-02
2.655619334601577730e-01
-2.975686219097796181e-01
-2.893725479040550885e-01
-3.435982536592545045e-01
-3.372618653117326337e-01
4.222097611632542602e-01
8.366875154154458649e-02
7.642227887236664463e-01
-6.100431717544144705e-01
-1.688403819926845018e-01
-1.083724444392249187e-01
-1.119814288777778721e-01
-4.638742330520354562e-01
