1.608891827658694151e-02
6.359879978763058328e-02
2.808079319318846911e-01
-3.573873322309915890e-02
1.756929143832718365e-01
-1.003624684788318316e-01
2.295616528132395431e-02
-4.697546595428345739e-01
-4.628941730880151151e-02
-5.544757470396628474e-01
-7.814044689969684709e-02
3.538537294790166099e-01
-4.214544283490705839e-02
-1.338536947625231788e-01
1.412005996383261519e-01
-9.918410128375680646e-02
-2.386014610235505096e-01
-5.897694697463492543e-03
2.098798182354384700e-01
2.515098017365995919e-01
1.391464620917992334e-01
2.179222422044318208e-01
-1.084104142029373163e-01
-4.979421684873601706e-01
-5.232963139302667654e-01
-2.129585235758146566e-01
-4.716962400789585785e-02
2.331904428613858493e-01
-5.467169976551522481e-01
-6.901890905713481406e-01
-1.252273009933013437e-01
-2.985384141944090741e-01
5.061951420577818356e-02
1.372372228082762713e-01
-2.329928544726048503e-02
-1.709237689613974931e-01
-6.541875728059179940e-01
-3.085778272246139653e-02
-4.935035900264199693e-01
6.359094025090215874e-02
-1.405718150856455351e-01
-2.400540012337661899e-01
-7.227240954492306871e-05
6.383308725303658837e-02
-7.329442990057026541e-02
-2.374030221303310983e-02
-5.393304492890064195e-01
-1.986964374499955790e-02
4.176136437227620513e-01
2.565361654964166127e-01
-9.862505747689636476e-03
-1.982202698676038544e-01
-4.557687775819370124e-01
2.778235074001070976e-02
3.012578891621632837e-01
-2.892199254135662256e-01
-4.675761770543769291e-01
-1.830315378362810663e-01
7.232041854015694438e-02
-2.217909166561689294e-01
3.654226182798045452e-02
1.000448634524887803e-02
8.783590862928727927e-02
1.882639661274930765e-01
-4.619409543012076985e-02
-9.149124473790844203e-02
-3.841704579548074761e-01
3.187887527627480955e-01
2.093215689995934700e-02
-1.384987622246428296e-01
7.305558368837412886e-02
4.131216753118207019e-01
4.269304377565674713e-01
-4.212947127913613254e-01
6.855817270839931199e-02
-3.146594286381346750e-01
8.290358168058563348e-02
1.010048363983104963e-01
2.225700159350924023e-01
-1.020589389752045960e-02
1.763991050317439135e-01
4.955596649710835577e-01
3.422937992029384535e-01
-1.243283993705019408e-01
2.779151275278125000e-01
-6.047009561245688669e-01
1.194102237030173486e-01
9.629683498087671101e-02
-3.803488448431585622e-01
-1.687588818227234513e-02
7.856207291151014183e-02
3.269360169518886194e-01
-4.665907682866425321e-01
6.460482252158411542e-02
2.888332195851300299e-01
-3.338959464604059901e-01
2.028701450116723592e-01
2.674442789722672464e-01
3.291839387676845918e-01
6.988324893141936028e-03
4.024644676850416269e-01
9.853465524501377193e-02
-3.143358761685429159e-01
-4.152907364065618334e-01
6.595784841317975378e-02
-9.511364624697478398e-02
-3.205498247175881388e-01
1.516970740843255061e-01
8.836780627116982423e-01
1.549709393715924532e-01
5.736034419844375787e-01
1.159084828185924900e-03
-4.942138010196797659e-02
-5.320191128071928288e-01
-3.566206298732334523e-01
1.331349751869198850e-01
-2.263479420670666542e-01
1.298699711370062126e-01
6.812574457223755098e-02
2.222063090966353571e-01
-8.018349147152779854e-02
-2.506487332268056423e-01
1.319129667431518382e-01
9.419614194484561553e-02
-1.878211904152275180e-01
3.754520827589997167e-01
-3.194312014766790414e-02
4.427979960540938120e-01
2.999972442874056511e-01
3.482025661199182609e-02
4.511254596099666947e-01
-4.051002666856826778e-02
4.608711249610505378e-01
-4.125582451736768408e-01
4.461628763129754094e-01
9.178294789107672991e-02
9.125308058293359059e-02
2.236515576293137963e-01
-2.834081347258771699e-01
5.039655773121258786e-01
-6.119652667422961212e-01
3.100470452969825153e-01
1.936396823514778542e-01
-2.582685069009180712e-01
4.948162665204095534e-01
3.912429117552562174e-01
1.504598056349962798e-01
-1.943154337514430841e-01
-1.684502086779760544e-01
-3.624079401707266945e-01
1.841094771404895580e-01
-8.939879908472236902e-02
-7.957831307618083716e-02
4.697907848161305550e-02
-6.285506327346461475e-02
1.920162025788792193e-01
-1.081966933987885543e-01
1.193535692038352747e-01
-1.109587063479415131e-01
4.219911852224030729e-02
-1.622527476974314486e-01
1.831583023965900892e-01
-2.958863858247435252e-01
2.076039652598751228e-01
-3.563512812146469311e-01
-2.935659163564078855e-01
2.894055150657871001e-01
-1.538219636877122543e-01
4.891783847750558190e-02
-1.173389217201709217e-01
1.590182749501511256e-02
4.917404693554525696e-01
-2.522517934164736908e-01
3.649123257825336863e-01
-3.258439609973441675e-02
-1.541176359134758256e-01
3.383594487951760987e-01
-4.003896693260485667e-02
1.195896692505691861e-01
3.893033992599949644e-01
-1.099779236484632466e-01
1.625293803179472807e-01
5.405172544020295788e-01
4.205533171919339508e-01
-3.798206484073483602e-01
-2.323528589987055304e-01
-2.884370166301046257e-01
-5.060274403600079074e-01
-1.331889368225091796e-01
8.601173483434160216e-02
6.237149969089025303e-01
-1.674120408190323817e-01
-2.271180115442268110e-01
-3.393800006897781385e-01
6.421222988358943340e-02
8.957639623096808057e-02
4.266856209619049323e-01
-4.514245906554685273e-01
-1.809660778138328652e-01
1.903202189309940451e-01
-2.206840082034056127e-01
-2.583588973384063903e-01
1.367405505538636101e-01
-4.084896231686971912e-01
-7.149575526393421310e-01
-1.155077121678619034e-01
7.342549747789887116e-01
-4.327161256462238037e-01
-6.585421758662485248e-02
5.301959426594146096e-01
-4.620488482083949799e-01
9.806143812468594290e-02
3.734871155748684807e-02
4.170950078794853355e-01
5.751150632029612408e-01
-2.688326206626445031e-02
4.605928015808515297e-01
-4.796523600902634632e-01
-2.637782640860643624e-01
-4.728942228150860051e-03
2.494712935982800472e-01
1.359244446369667902e-01
1.572632192671738205e-01
7.265944496429498078e-02
-5.066059765714792107e-02
1.960718308638614293e-01
-2.023350040649599391e-01
1.973443546232268864e-01
3.591079374221861076e-01
3.576327585589508251e-01
9.390040341913019617e-02
1.969160903389381989e-01
2.948488772499523458e-01
-1.523474209906174048e-01
4.209348328186783839e-01
-6.300108451878971838e-01
3.398923413364873247e-01
-2.007490759823193915e-01
6.426393461940029805e-01
1.996897610048189164e-01
-1.831040939248129717e-01
-3.909954217446041658e-01
3.916660298962154063e-01
9.286500651461486455e-02
5.353239960300217037e-03
-3.916466084872287090e-01
-1.663043385901895044e-01
-6.620702090744576274e-02
-9.065719552140472093e-02
-6.280462299208550148e-01
2.971801436590563728e-01
-4.713436115413274230e-01
1.871684711276526969e-01
1.201499330697784473e-01
2.309541912689783150e-01
-5.584668508715544544e-01
-1.782150618257924424e-02
1.226612898880419522e-01
-5.046364430689345149e-01
-4.026022276697518998e-01
-2.165576540879421820e-04
1.774884272108783259e-02
-8.686717273889789370e-02
8.214591657510016132e-02
-4.275687541658442781e-01
