-5.600373119012516110e-01
-1.471905708294284632e-01
-4.464147842409977307e-01
4.388154435993635305e-01
3.667639065047053615e-01
5.148342196919422631e-02
1.623941866081885788e-01
8.194440519783573185e-02
-1.138276690973549915e-01
1.433719979202990602e-01
-1.672914324769108896e-01
-5.378710431742404069e-03
-7.559731434265107297e-02
-9.113666821288106401e-02
3.406953162340101149e-02
-6.823383440513669518e-01
-1.249090374820135130e-01
2.018295642642198295e-01
2.000855563573433749e-02
-4.841573083469055128e-01
-2.228662229550509022e-01
1.342720634992718431e-01
6.807364138160165723e-01
-3.996223567458386805e-01
2.673624211096642042e-02
-8.464883977737228116e-02
-2.009941175994085505e-01
5.601757763539642054e-01
1.521779230411244854e-01
-6.894145945019164445e-01
-1.773013309094961798e-02
-2.657035105892122662e-01
-4.268625024757615183e-01
1.161482130536323487e-01
-9.252900571209794478e-01
-5.061328332050274437e-02
-1.657849387847728020e-02
1.324855724231198684e-01
-1.328415193195044419e-01
3.622926834438038035e-02
-3.392051485915122955e-01
1.209089704636251428e-02
8.224850040938883056e-02
3.133238143620113991e-01
-3.849031319429244702e-01
3.313152864210962556e-01
2.558634417460674548e-01
1.758531176836576615e-02
5.952803536801734574e-03
-2.288053353951882002e-02
-1.051821778657982265e-01
-2.437209901976042647e-01
-2.666988987712713977e-01
1.143376824913943102e-01
-4.540976301792174485e-01
-2.651349485542181528e-01
1.012519059729815318e-01
-1.091887160499169229e-01
2.835338299724016187e-01
-5.098282944188257115e-01
-2.849679256080438483e-01
5.042243919780291239e-02
3.539239115553175496e-01
-2.310317228128922762e-01
1.267408289557528100e-01
1.586042220548654902e-01
-1.769543402333300375e-01
2.121992074265450223e-01
-2.946659293222212983e-01
-9.136388541990476675e-01
2.827821731108955405e-01
2.909126754052910879e-01
-3.517435062423849290e-01
-1.770178438272760058e-01
-2.889919173695877919e-01
-1.866744875933450953e-01
1.635288100378299303e-01
-2.734683946400099930e-01
-7.343253508160716425e-01
2.381167488829059042e-01
-5.110875229305433809e-01
1.438597023689749954e-02
-1.041575311656092045e-02
-4.993350523393657037e-01
4.772276742019105900e-01
5.809717965434861853e-01
4.324485318088713837e-01
9.055023310120072222e-02
1.855632511768709469e-01
-3.366060041733808239e-01
-3.332193328415734151e-02
3.034191398924727667e-01
2.539549621944312552e-01
2.905360062794817289e-01
5.258521875972538978e-02
7.156933492815156228e-01
1.932886625724353491e-01
-4.678923391700369749e-01
-3.463309476650375807e-01
-9.121022600322754859e-02
6.226682270852512691e-01
-5.324732351176659773e-01
-1.831138066945597609e-01
1.838185802128100010e-01
-8.342906879622959126e-02
-3.229076784419716573e-01
-1.227173508409374614e-01
3.055240248876266995e-01
-5.985604321154672780e-01
-1.325466073700177216e-01
1.471934744281941931e-01
7.869012563534647509e-01
-3.035690362216261068e-02
-8.958722370559898951e-02
3.222078979076843375e-01
2.264458667409871007e-01
7.934792999303205696e-03
7.749555021632709151e-02
3.347620760730453671e-01
-2.285592515206341102e-01
4.682801259804795224e-01
2.145745736027488137e-01
3.331639671587927620e-01
-2.200977583784617386e-01
-5.350542821057997500e-01
-2.454990326121154198e-01
2.504133659706998527e-01
-2.956945266564086627e-01
8.324162897138177863e-02
1.713463357818194865e-01
-2.559385521180414930e-02
-1.350564063049142227e-02
3.527003122531174317e-01
-2.414961305395630364e-01
7.719525400140596627e-01
-4.406733643332851336e-01
-3.230490344746307363e-01
-1.340142061691017017e-01
6.986058137389554723e-01
-4.183423881313338422e-01
-6.926539407812372373e-02
1.415807183863051488e-01
8.324336420956421345e-02
-4.839217581326646367e-01
4.422174089409269121e-03
-2.761718318645072223e-01
2.589207287202664465e-01
3.024886942566161752e-01
-4.104482383420687830e-02
-2.465018064327476610e-01
3.046907536893231350e-01
5.604111222050448538e-01
-4.715197994944790305e-01
2.668708871475079514e-01
2.705997756628472084e-01
-3.336040128213156597e-02
4.184765788721980101e-02
6.207598313881614038e-02
2.539103502441958926e-01
9.489043291660079205e-02
3.072031912458615677e-02
3.000523098570310743e-01
1.454411941525962093e-01
-2.526237691806224595e-01
1.908094358116763645e-01
9.627843201779989063e-03
-3.270251006868460375e-01
7.532332028251670364e-02
4.538509590182120412e-01
4.056429027548144606e-01
-2.170392382568386291e-01
-8.682200467274134303e-02
-2.380514033976600663e-01
-2.821761747442264046e-01
-1.700523155873979453e-01
-1.143913151461543182e-01
-1.280687833567439593e-01
-1.005211814040507384e-01
-2.270398228034519600e-02
-1.799121715807715793e-01
-9.528878878121699314e-02
-2.240257058548986158e-02
1.058405520745547834e-02
-5.638721867048764880e-01
-2.293974029562161898e-01
-2.486812218021118293e-01
-9.375059722333681234e-02
-4.025004221667340815e-02
2.056783407314875523e-01
2.800095539668614464e-01
2.976588293340767799e-01
-9.819731531963514851e-03
3.169889195775386082e-01
-1.108060069560250493e-01
3.126528444234454307e-01
-1.071297350326798348e-01
1.947915511700598623e-01
-2.582737449346219627e-01
-1.667916515589537574e-01
-2.605124757876903785e-01
2.084953820430271165e-01
4.666946212040973263e-01
-2.982961475880008262e-01
-1.270004513562281723e-01
1.996686387336938373e-01
-2.995747268575270628e-01
3.609327449960911954e-02
1.119120655236468115e-01
-4.773340440517821470e-01
4.982474523318409232e-01
-4.918422297143471011e-01
5.403859371275648860e-02
7.319309054587338492e-01
4.084168022596589842e-01
-2.729630820944912301e-02
4.822265328104344967e-02
-5.062253037746883289e-01
3.935562963144654258e-01
-3.602033000017914044e-01
-1.023867347270345646e-02
-1.277835127209537847e-01
-4.493148923089190228e-01
1.946073459026144425e-01
4.813673823547930386e-01
-4.169322556409119640e-01
6.759859325581341061e-02
2.478895898420251653e-01
1.131342650789271265e-01
-1.401221506822344920e-01
2.408689064624003062e-01
3.823532719718987227e-01
-1.880830103331653791e-01
1.186955860931154794e-02
3.606857789968799799e-01
2.796996215010574827e-01
3.651648240931213985e-01
-5.337111588317540456e-02
3.481168830786854351e-01
-2.973841945697948685e-01
8.700768124249455560e-02
2.791933431093539253e-04
-2.754355752783663180e-02
-8.517671313102034847e-02
-2.925673315173801248e-01
-1.586387321398174399e-01
4.445084507211075620e-01
2.150526925006507328e-01
1.008036593581342344e-01
3.288276135971721081e-01
-1.177514221846728132e-02
-4.274586723120527010e-01
1.618662025599635901e-01
6.945562649012754219e-02
2.739165460009891917e-01
-2.800905477437196089e-01
-2.468291108343441953e-01
3.239560600415682945e-01
2.235917811743382000e-01
-6.475236344241977471e-02
-1.118054474059194947e-01
-1.945496517295877692e-01
-2.113587517841426441e-02
4.477454887098470948e-01
-4.940403449283466142e-02
1.517180239125330843e-01
