2.602393890126870057e-01
-6.622683076260944823e-02
3.202549275130738698e-02
-7.790336667394374276e-03
-3.161140581320560639e-01
-5.694586104036812868e-01
-5.198505693350738976e-01
3.630550155165757076e-01
-2.151388531695616335e-01
-2.072685234570920410e-01
-2.425611378127822890e-02
5.968781057383432467e-03
5.045051200099542887e-01
6.829719299781809860e-02
4.169572783709454278e-01
-1.195857998923608445e-01
4.493685115104127381e-01
-6.866519199619022795e-02
7.646374685419732309e-01
-2.459891173216653126e-01
-2.888162019848670714e-01
5.340076983987127046e-02
-1.403724842277652429e-01
-1.335315222380884514e-01
4.980125004103612592e-03
1.419072326079282298e-01
5.883855564340449706e-02
4.477845826408259344e-01
2.415472595029331815e-01
2.466056251143543543e-01
1.493514278024802022e-01
2.214602619894344426e-01
-4.348443618569796665e-01
-1.661247386370239831e-01
-3.395216729831503355e-01
-7.620622223100202708e-02
-2.004058763784657970e-02
9.142934387134235563e-02
-2.305212046379263580e-01
-3.762838106731788423e-01
-1.863297121324530570e-01
1.425541866734362784e-01
3.162564900513915034e-01
2.165602943847641237e-01
5.670376270094843463e-01
2.769117716583133215e-01
2.682285863754130806e-01
4.455109429513985919e-01
-2.059623499591472506e-01
-4.317553737798909830e-01
9.540833467666720580e-02
5.029471318043308992e-02
3.505008012976608689e-01
1.417980144451492369e-02
3.971726806596975745e-01
-1.985046733484077675e-01
-4.199467937158703895e-02
3.603158694969751386e-01
5.021972135648726798e-01
1.538493594679005982e-01
6.978380409257392558e-02
-1.433424615281083392e-01
7.073751345023292225e-02
2.973241730779973557e-01
-3.304407815502139467e-01
1.091792015567913110e-01
4.758337628931461616e-01
-4.466339783958298004e-02
5.332821874138755636e-01
7.891670621254043283e-02
-3.066184215558853121e-01
4.017513191835116459e-01
-1.253044211203716563e-01
-4.254869637471453414e-02
-4.443184066394760823e-01
4.292283189612772221e-01
5.361766084427164319e-02
1.098357790578303600e-01
3.200287240913219922e-01
-3.924196921672086225e-01
-3.145461933720851699e-01
-9.350316767828702538e-03
3.298635302624982613e-01
4.614797412979556590e-01
4.104009991524317780e-01
-1.973314664625348547e-01
2.008464551192872816e-01
-2.425812832725452450e-01
1.536050086544073039e-02
-2.553828394998408635e-01
1.007143040608567131e-02
-1.413527229381944528e-01
1.842153842271767039e-01
2.971077234728262684e-01
1.781324259806298105e-01
-5.111993189293527751e-01
2.880417846720812469e-01
6.817678110959392301e-02
1.786125821416849058e-01
-1.522372897381192025e-01
-4.373776188493671557e-01
-5.010095420046402070e-01
-8.856017908968469299e-02
3.299495402204546957e-02
-1.004675528826035752e-02
-9.752412685873425302e-02
3.717886674838568051e-01
2.976370656878363913e-02
-8.867504275480762033e-01
-1.970524093105095464e-01
7.121205927187773677e-02
1.182028755384500057e-01
3.574160437262769441e-01
5.625059204400845170e-02
-1.507371286768536822e-01
1.443702937679619824e-01
-1.032589794425491231e-01
-2.639433622956456893e-01
2.774612817527909447e-01
-1.461545311473262110e-01
1.171743625343994455e-01
5.458645265459329821e-01
1.562462504193468105e-01
-4.808039697990913464e-01
5.022262636925507451e-01
-1.974298265030918764e-02
1.641256083783295960e-01
-8.944161561529712090e-02
-1.363369182037691418e-01
-4.286356302205011071e-01
1.462271837557851950e-01
1.753718370825405881e-01
-1.918029040857051892e-01
2.218389620834928522e-01
-1.093144544486749914e-01
2.233042275386944719e-01
-1.911758371743730797e-02
1.941668599662109140e-01
8.167538876122476532e-02
5.857918499708247850e-02
-3.033184177337064271e-03
1.091294086677565972e-01
-4.335683614191167545e-01
2.571281953589529823e-02
-2.462369363738736994e-01
-3.290383753788986843e-01
3.649922970838084813e-01
1.363687179697096741e-01
4.386285854461486333e-01
-1.166036545267153113e-01
2.497667934822296321e-01
1.805508322323233217e-01
6.456738070679158836e-01
1.415406382830882714e-01
-6.806067560972297592e-01
-6.656691992992437301e-01
-4.636978338382654607e-01
1.501428060607662984e-01
4.347746676792125231e-01
1.952430834188268183e-01
-3.016705432695227507e-01
2.376566863314184264e-01
-2.873793859320131205e-01
6.452217322863848525e-02
-1.338325341902688037e-01
4.922077145256398834e-01
-1.497048557090006060e-01
-7.983412909533206189e-03
-3.583366468577507957e-01
4.613393135224720387e-01
2.085653252580784711e-01
1.578697270055551966e-02
4.794674693935064846e-01
2.782467897517486299e-02
-1.898606412362054130e-01
-5.641486819919218076e-01
4.208095388600888165e-02
-3.516131652198641322e-01
-8.560171167338714859e-02
1.941144913085387502e-01
5.881995033842170040e-01
-6.206000483141037583e-01
-6.003149888749726992e-01
2.240023913880912487e-01
-1.198142996700011509e-01
-7.592021844529957264e-02
1.638133782614908940e-01
-3.043618128803092793e-01
-3.461311515735546185e-01
-7.543156710001633347e-02
-2.314883678565016201e-02
6.960809570074473207e-01
-1.075418949932639839e-01
3.910456159036529988e-01
1.787967019645959610e-01
-8.112873827816213801e-02
1.652242745195288687e-01
-3.892901383463277520e-01
3.345924513714828574e-01
2.807548827747031184e-01
-7.092628616257914964e-02
-4.352490520966088017e-01
-2.443369124525662239e-01
-9.849557069280881483e-02
5.854758542336988558e-01
3.748893073226309269e-01
2.371938370656723472e-01
4.283364800575979042e-02
-2.805047527358672244e-01
1.087436157842259360e-01
1.656182060740674922e-01
3.001566103169694966e-01
8.444900961982283460e-01
3.147700166116779164e-01
-1.194227510115067475e-01
6.998632717454661423e-02
2.623453345524704924e-02
3.930842944816602402e-02
-1.114296831799950621e-01
7.790019086337163223e-02
-3.449548324862483639e-01
-3.570569867418114662e-01
2.459120528097023528e-01
3.030360122653799615e-01
-4.619913275223161420e-01
2.962072789900530717e-02
-2.308864224066971838e-01
4.013242197721390153e-02
-1.164875579321241958e-02
1.500710589081472035e-01
1.653395752899218529e-01
3.198262121851691564e-02
-4.092588690453253381e-02
-1.699790996544104094e-01
-8.420117084595132306e-01
1.293187991041331447e-02
-6.086706845495357121e-02
-6.775148279101229909e-04
3.548018273991837557e-01
1.550096086290110309e-01
6.899018691991436469e-01
3.810515986545337519e-02
-2.253930411445758120e-01
-1.035935669269278103e-01
3.898315430874107479e-01
-3.817294069742139251e-01
3.707044557085164560e-01
3.025662426281797157e-01
-2.992838538706865670e-01
2.379390768322235325e-02
-4.497224079855158818e-01
3.312133736393179650e-01
-3.945458440938541256e-01
-9.309433025034813403e-03
-3.775429890114759823e-01
3.860127090176227460e-01
4.595495662392659053e-01
3.417676184772399095e-01
2.427714587852956019e-01
1.338219321137821827e-01
1.925993109657052060e-01
-6.771442133562046717e-01
7.578576608815071336e-02
2.816796731695912492e-01
2.891124140356605143e-01
