4.631839551572910357e-02
1.416035566074578811e-01
-3.934255372679854035e-02
6.482334316300185362e-02
-2.686909918453376789e-01
4.913290913711007568e-01
-2.585395362454907531e-01
3.401230683853744274e-01
-1.697389872308158187e-01
-5.002214354923371908e-02
2.379352051794514367e-01
-4.970654797801222768e-01
-6.519574661339848642e-01
3.170614673425700136e-01
-2.499351070404108865e-01
-2.799416873694973718e-01
2.825194999705976651e-01
1.400319438847730802e-01
6.697678042633059547e-01
2.815956354285785446e-02
-2.670832722139261928e-01
7.550263248035044006e-02
-2.474444515017517332e-01
5.634743000235235832e-02
7.024881498577100203e-01
5.351786404857199475e-01
5.697103293770795496e-01
-3.308068133876353178e-02
-3.357005296206916345e-01
7.213465046167369943e-01
6.058911075016186754e-01
7.313592117518023794e-02
5.624604305703748697e-01
-7.331941528231064598e-02
-1.412046873813158077e-01
3.188443581725993736e-01
1.687501690969724355e-01
1.228356675055593261e-01
1.273256778321624483e-01
6.097009822231649334e-01
2.889990187588410975e-01
3.784356604096133503e-01
6.598822727490089024e-02
-2.637452668300157566e-01
2.543405291527959800e-01
8.624726111323244293e-02
2.113107022137928892e-01
-2.472460217472892408e-01
-9.776433037786367089e-03
-1.030406085612864953e-01
1.805302116939873636e-01
5.762788631482028689e-01
-2.747918003021124905e-02
1.325592523230494368e-01
-3.751224192246577771e-01
-3.189346414782670558e-02
3.502278280822065937e-01
-1.633298868781424551e-01
3.816953521570897179e-01
-4.556478516197463580e-01
-4.020116275018700280e-01
2.374164957081241201e-01
-1.453174398507625087e-01
1.393657940508863935e-01
1.950712687177071775e-02
1.340877777029925444e-01
-3.527127904727082042e-01
1.824259322922148208e-01
-2.188364366073556888e-01
-5.345600701008756256e-02
-1.522411410914820962e-01
3.769456499347894618e-01
2.736598909451205541e-01
3.839748157532384409e-01
1.621671679138559086e-01
1.445889905172220991e-01
-7.159227513253030306e-02
5.534591224103161539e-02
-5.891335353951080434e-01
-1.519930386055216021e-01
2.507725581310359386e-01
-3.875848969537922795e-01
4.644139793740783423e-02
-1.265052004296983168e-01
1.872874466009551431e-01
-3.110246027592310225e-02
-4.389434475146787862e-01
4.688063537976359108e-01
-4.842161083859920501e-01
2.806609672786221088e-01
2.755465559625009872e-02
2.625819368500701412e-01
1.416522746138589306e-01
1.211359368380312829e-01
-1.079356822116956105e-01
3.738109898316643864e-01
4.088472836181766823e-01
-2.205498580012838217e-01
-1.433747349961287387e-01
8.211762646481883532e-02
-4.499618953367617857e-01
-3.221085655328928543e-01
3.361371471460096461e-02
3.703268318685502547e-01
-1.080338702526695005e-01
-2.399360168819496819e-01
3.035591519731169474e-01
6.696001432460892133e-02
-3.374079960348946305e-01
7.155156571272273947e-02
2.483866728080823816e-01
4.498825000031199117e-01
-2.029648799459933262e-01
-2.391034694574063757e-01
2.685441626063488352e-01
-6.253266526067818853e-02
1.361350986625315396e-01
-1.946166742008682837e-01
-3.650063910431647352e-01
3.407142586552120433e-01
-1.927756389995787800e-01
-3.023618594110563107e-01
-3.157053793923654816e-01
-5.194773652286207577e-01
1.751926678370414325e-01
2.926824480652167604e-01
-2.206893239156168529e-01
-1.404622660412064017e-01
1.716653745944142495e-01
-6.104558643311843724e-01
-2.407230257763940950e-01
5.318442506894874855e-01
3.900589564088573491e-01
2.707716486958741120e-01
4.029313520576165986e-01
1.707421131288970606e-01
2.425334977126415714e-02
-6.720767334634900614e-01
4.102683562596759481e-01
9.997227786281963346e-02
-3.444305714273329100e-01
3.093720949087072625e-02
-1.266147034168817742e-01
-4.135385464306235992e-01
-3.990302523807318091e-01
-1.545136811043588965e-01
-1.411383409477104667e-01
-3.679347997241147472e-01
-2.111295565353769055e-01
-5.336283454687190675e-01
7.659724016052382733e-01
2.949023121735835917e-01
-7.918027475492510348e-02
2.515059150746863370e-01
-2.001012431591832515e-03
1.315125823199279897e-01
-1.121161628030709762e-02
3.013161195218043154e-01
-6.882520206800619988e-02
-1.023221872396869458e-01
2.676695304685138832e-01
-2.213535597646050790e-01
5.009781236526943821e-02
2.989552972850478274e-01
8.327991015268744468e-02
1.278396826450073909e-01
-3.174599233726388414e-02
-3.152639498260906836e-01
-4.321368864410027877e-01
1.425337474986579714e-02
4.271732646296407809e-01
2.966873834332162813e-02
3.403477157891696137e-01
-2.120726829911136480e-01
-2.712577622436082581e-02
6.958590675179683327e-01
1.883868033692772948e-01
1.016133568517496311e-01
-3.599991954427669838e-02
-1.359280322959514620e-01
5.754195621101225733e-01
-9.312544893847329863e-02
1.251912430738351678e-01
2.200316098064782067e-02
1.549248990371034640e-01
-1.180114814969481785e-01
2.017053607337814802e-01
1.272576546486126337e-01
1.803416712777929920e-01
6.596851436393179613e-01
6.772628933152020914e-02
3.034849503010778604e-01
-4.792085547780547405e-01
-3.651860410377967270e-01
4.889430401123795455e-01
-2.647206834709008305e-01
3.502042569000504701e-01
1.950016158705371316e-01
-2.979369003225943446e-01
4.501937277631608003e-01
-1.872422328012489645e-01
4.848455519476433939e-01
-5.656012862619349546e-01
3.845968023398058100e-02
6.552263338477816168e-01
4.359568151510742062e-01
2.310299687916841371e-01
2.561568652841813565e-01
4.500170468143073199e-01
4.207109259948555446e-01
-3.820991669412691083e-01
-1.702907492735327988e-01
1.138558611633684603e-01
4.138678911737865840e-01
-4.501520667006646548e-01
-5.050706940977048864e-01
-1.580055850655748620e-02
7.130168089170998424e-01
-3.312946176196798764e-01
-1.351578078697561469e-01
1.672306008103797426e-01
-3.184015135318359335e-01
-1.730878239869677593e-01
1.245846550911382522e-01
-1.158203503908500492e-01
3.534715320046496467e-01
6.493203485471242542e-02
3.801307072195246883e-01
2.010776264032181349e-01
-3.974744414924776814e-01
-4.504006748465214649e-01
3.948444163638596405e-01
-1.035880297683467455e-01
-1.592191390191156908e-01
-8.095515672478589830e-02
6.820769486920810754e-02
-4.528527557825801075e-01
3.198620491680995714e-01
-6.696107741266865698e-02
-3.526534245448189470e-02
-1.103595728728617165e-01
-4.382097568534026877e-03
-5.877351726422852529e-01
-3.919829915535347903e-02
-1.766649092277090549e-01
3.882543047694895222e-01
-1.033062594368251430e-01
1.394208185825281665e-01
2.171964815977550992e-02
2.348946169696577990e-01
-1.730270057426186725e-01
-3.131664983456931006e-01
2.789189984925948274e-01
1.022012383313798400e-01
-1.205931267450188471e-01
-9.729143878942314583e-02
4.474671860215002628e-01
4.019024096555401382e-02
1.831864737062398329e-01
7.294657194745423311e-03
-8.102570983083189071e-02
1.683508483981832615e-02
-1.084500244259283541e-01
3.622560963182913096e-01
4.832117604635319252e-01
