-7.596690723957794100e-01
-2.711084623912708436e-01
-4.457369626097108101e-02
-4.206668841060470787e-01
-8.043691954692448742e-02
4.215681578360873094e-01
9.128345821256800274e-02
3.334886761496715785e-02
-3.986505238359545622e-01
-7.529931678790376115e-02
-3.032343849242158385e-01
2.837685003487056545e-01
1.071840484600115329e-01
2.028760211846146744e-01
3.979494512993889677e-01
2.359843968824612281e-01
-4.308183958800410052e-01
-1.575755469463286165e-02
2.361039127645809255e-01
-3.320842648940725006e-01
3.097809667476630335e-01
3.930344146378209752e-02
4.731452076462745460e-01
2.579251152810714820e-01
4.725890027263651150e-01
-7.675110193600623298e-02
4.990115368838496379e-02
-2.927139664375678629e-01
-1.361645331530500214e-01
1.296706341832846443e-01
-2.180092920884203478e-01
2.064423353308418238e-02
1.328000360062052132e-01
6.226376094881585360e-02
1.457346214492445391e-01
5.313594158168138959e-01
-4.492822131966939248e-01
-2.683098443318805426e-01
5.232457209955895250e-01
3.332993504829362408e-02
6.973562327261552396e-02
2.051139007433844530e-01
-2.833132351920554792e-01
4.435908301087000960e-01
3.016747058603244658e-02
4.741238477399585260e-01
-7.777193347575990512e-02
-4.553483720783156330e-01
-7.820419358603947213e-02
6.788245598840941808e-01
-5.005419445519661004e-01
4.310771835418308884e-01
1.652558232608812572e-02
1.981191003018027419e-01
-1.147802764478514370e-01
2.863510506023446700e-01
-5.517261901659481493e-02
-1.955900850321901363e-01
3.208585451722202331e-01
3.597730949100519937e-01
2.445173988707241286e-01
1.203962504930109201e-01
2.226431904473531176e-01
1.674083737142883013e-02
2.357127666908548358e-02
2.290692927237494292e-01
5.377553303904442084e-01
1.270974394067891922e-01
-4.432452653725582614e-01
-3.130801873826717374e-01
7.273732205578163851e-05
4.514330031621247574e-01
-1.386353795451736315e-01
-5.094256470269705739e-01
1.502151489539752804e-01
2.064912139656142065e-01
-1.493750111740597408e-01
-1.547412499919895434e-01
-5.145903996159783417e-02
3.283995141826269726e-01
9.322491939317002763e-02
2.271452734928132433e-01
1.231299260220561076e-01
-3.783434513037089442e-01
9.052878315727069802e-02
-4.368843743506910515e-01
3.164964810406299400e-01
-1.123051565469604246e-01
-2.040432717243029909e-02
-3.379962565125013696e-02
1.299480379500334293e-01
6.997778322185907451e-02
1.742789320385404461e-01
-3.426451574141893275e-01
1.285559469055784776e-01
3.663270488098692157e-01
-2.202377898382651966e-01
-2.217027977365480240e-01
1.498242307087066516e-01
2.081058524254002784e-01
3.562607204843197262e-01
-2.854792788451394614e-01
1.563408961390985730e-01
3.941097096669252120e-01
4.338917037960589029e-01
2.844029353576591479e-01
-3.668354804386139700e-02
1.081702456684398017e-01
-1.618200133052462020e-01
2.916516026687556162e-01
3.168339169241681796e-01
3.482911615040512610e-01
-3.839041181722741003e-01
1.423843152798034695e-01
-3.558811141171559500e-01
-1.268124479164619844e-01
4.850536780277872606e-02
1.879492839967173146e-01
-8.699406424255230752e-02
-5.225667053400500084e-01
-1.002026420498416254e-01
-3.211870468233950504e-01
-2.777671790966811383e-01
-4.955283132847645433e-01
1.864741066352282317e-01
-3.649506253260045158e-02
5.557030294832432382e-01
1.026869474374653146e-01
-3.527148089007836607e-01
1.001870849605289715e-01
7.947424924829717130e-02
2.034795767983929582e-01
-4.044112186510893936e-02
2.177131509854978164e-01
-2.817596313371698025e-01
9.432205329108218905e-03
-1.663882850131191415e-01
-8.173595393850677238e-02
-3.477742854462598232e-01
-1.234554949492719239e-01
-1.066959835587963507e-01
-2.257741192669495411e-01
1.019275776175352088e-01
4.446011912711196890e-01
1.992655823435074136e-01
-4.435935273529204026e-01
-4.824546757868073410e-01
6.018418109068470606e-02
-3.797981604811303535e-01
-1.543678282749892938e-01
1.437950181965441387e-01
-1.560879972550380246e-02
2.324343484041543340e-01
6.140829289749930586e-01
-1.757181392737128534e-01
-3.065624801160944657e-02
2.311160419976690181e-02
3.643436322210290013e-01
-9.956469405626965086e-02
-1.236001292790970679e-01
-2.332256927635627947e-02
2.497642982137071588e-01
1.723785171948338524e-01
-2.392526287358873183e-02
-5.318668757430791011e-02
2.918983435835589280e-01
1.751006674470019231e-01
-3.976106415707760244e-01
-6.651320532132581897e-02
3.303847885778116722e-01
-3.153225488769516582e-01
-2.033610800585636258e-01
1.269125035711555875e-02
-1.468342043598279689e-01
4.884341342094912219e-01
3.817932926478989630e-01
-4.392809455359952819e-01
-1.099167956576491134e-01
8.098430513387522289e-02
-9.648126548813971970e-02
-8.838549831147779479e-02
-5.666612355246825050e-01
-6.717532386398324118e-02
-2.867961588888396848e-02
-1.479020137639922017e-02
-7.313707862210930277e-02
-6.391207243801261262e-02
1.010880580631202258e-02
-2.232942973038190837e-01
-2.404296306588457957e-02
4.583745109147798619e-02
-1.365579814815833654e-02
3.469317212397554639e-02
-9.176734751160944836e-02
-1.593335654627557052e-01
-3.492555511493962428e-02
-1.196406678575418076e-01
-2.428109256739008071e-01
1.691559632898201604e-01
3.906077329338094040e-01
-2.368214960391367696e-01
3.800851010626436488e-01
6.511301455018349005e-01
5.542691907922898675e-01
-1.205130499852722498e-01
-2.114325107910067780e-01
2.722362315790132770e-01
1.992476369518998425e-01
-4.629927193496506388e-01
3.001425603183480173e-02
2.164776055182100201e-01
-2.735405244123821633e-03
1.247433419371949542e-02
-2.168936597824065449e-01
-1.085757398314274175e-01
3.304173474735226657e-02
1.014077238917896334e-01
-9.710606687180169116e-02
4.199877842321212418e-01
1.203231371826331830e-01
1.123495632313512710e-01
-3.909306166522881765e-01
8.820643815528178555e-02
1.185158859867208592e-01
-2.923086038431300659e-01
3.745231795248362694e-01
-2.566659529545016749e-01
-1.434490355493684213e-02
5.759974067645002860e-01
2.814250774541073863e-01
2.227820792582822090e-02
2.851341461216942708e-02
-2.310779683269946205e-01
2.842176193991508004e-01
-3.023615275034859384e-01
-4.631610269883177367e-01
2.641991034702157459e-01
-3.965903227624256733e-02
9.900964227355461833e-02
5.907842215878972986e-02
-1.155186773138175416e-01
6.216920473685550591e-02
-2.275542324859210486e-01
1.458651093233696294e-01
-7.776197555660979699e-02
8.889554097085028417e-02
1.971865168160110426e-01
1.758736661887036756e-01
3.689950131583843995e-01
1.180856601907231407e-01
2.443034049114917172e-01
-6.726512770831181154e-01
-4.225122809996130768e-01
-2.737209942838978449e-01
-2.718008178449103918e-01
1.118686336876365678e-01
1.611928116314806370e-01
7.892955671561685538e-01
3.062354543822317643e-01
7.505332525762535567e-02
-4.214109999390594496e-01
4.108447242237883712e-01
2.068729136960462955e-01
-1.836090498009875782e-01
-1.734900904199062621e-01
