-3.091525661784164103e-02
-3.574379443613565632e-01
-7.048321211667764666e-03
6.560097142031683370e-01
8.438608648566259252e-02
-2.814908996169352556e-02
-1.294799011006559086e-01
4.301146675790550322e-01
1.254443433197443003e-01
5.524010960857478336e-01
1.013057089407925493e-01
-7.896977232942996305e-02
1.582414019070193523e-01
1.841660973643029497e-01
7.617140117299092683e-02
4.838167445852115112e-02
2.455022585449057326e-01
4.795515130889254629e-01
4.172960480971647790e-03
1.638688823692545649e-01
1.178463160239265756e-01
-1.118064274427833932e-01
-4.154465521195688238e-02
-1.387989489726814685e-01
4.200763509514817695e-01
-1.398440620830586345e-01
-4.014933326514120715e-01
4.947818004730863972e-01
-1.983482035866913629e-01
2.782008280209424811e-01
4.406677203224718675e-01
7.671889262931698428e-02
4.596756989506742275e-01
3.455714814949671920e-01
-1.371594673387111496e-01
-5.294528775062343900e-02
1.226562418840399099e-01
-3.239143311356519339e-01
-4.039857386460141142e-02
5.990292782725557819e-02
-4.643755431799403421e-01
-2.429204192274098395e-01
1.643128095319140169e-01
3.518492937745037463e-01
-8.724757729277567153e-02
-5.841239131005550311e-02
1.276098016591048490e-02
1.535090692851059091e-01
-1.934398486705409814e-01
1.045206299944253514e-01
-3.282536286125440350e-01
3.349103761285256442e-01
-2.715203229480070771e-02
-2.078591372529689507e-01
-9.141576064373116428e-02
1.889452582595049224e-01
-1.739347510909946548e-01
-1.632347398382143211e-02
-1.380608942206137391e-01
-1.574012547170451359e-01
-9.831624564388481702e-02
2.299622793895675088e-01
3.707942097666878656e-01
3.738122311503696560e-01
2.630230767935896607e-01
2.538443487719038716e-01
-3.298869602893331199e-02
5.625203005593350236e-02
4.174348350685416764e-01
3.282163437206900292e-01
-9.673177818005455897e-02
-3.212569977911663432e-01
4.073252805373432928e-01
-4.628443211282979863e-01
3.383388438103164253e-01
-4.624583609641732540e-01
-5.313632916098109948e-02
-2.395955276063478911e-01
-2.723656202262185744e-01
8.035789622948788513e-02
-2.446801434804597719e-01
5.665546219428374553e-01
4.285362939815440808e-01
1.013635470607511385e-01
-3.879841700318206743e-01
-4.211196097416425310e-01
-2.970800425340269779e-01
-1.292968044831271368e-01
-1.626481451733967354e-01
-1.421010845578113968e-01
-6.047916820609410687e-02
2.768591642183475601e-02
-2.295092525656191318e-01
-4.798263724551352083e-01
7.868010077145894121e-02
-1.831375742990427602e-01
1.719136055069693803e-01
-2.247859226970858049e-01
6.874984324210450248e-01
1.755275462869915898e-02
-5.841358572595340970e-01
-2.102390503212018813e-01
1.245823685854103961e-02
3.163251703620174188e-02
-5.328156047879306634e-01
2.777655885405356795e-01
-1.736629408786273532e-01
4.143586518857908518e-01
1.472488869386971155e-01
1.238279291864129023e-01
3.107775951033590195e-02
1.885551724775612892e-01
2.796279163550862146e-01
-1.386075371237495968e-01
3.496755243710671368e-01
-4.290667760652923102e-01
4.754317823590425984e-01
2.954296063216715895e-01
-1.250929700480072904e-01
-8.354097919267287897e-02
-7.656562072764092064e-03
3.380481380027589716e-02
-6.073169222178532722e-01
1.707811397561401490e-01
1.260595419623302960e-01
2.938664884218666895e-01
2.405539459240724487e-01
-6.988491720232312687e-01
4.320816179370564475e-02
5.484574563123657542e-01
3.336395248127247970e-01
-1.355501000647584553e-01
-1.395110044390770465e-01
5.592526597423458368e-01
4.322140640228506747e-01
-6.878262885258524043e-03
2.292790487486344175e-01
6.108538336407391967e-01
4.410610963049779731e-01
2.804793004366027409e-01
2.635938537356328770e-01
6.418102060497563044e-02
5.451539909882054946e-01
2.863556784937522082e-01
1.308468752344274788e-01
-4.880864048688856455e-02
4.941528052550684946e-01
-3.229988148507631496e-02
-1.509568219805425549e-01
3.857456827735922245e-01
-7.537956584086498157e-01
-3.077369616074803194e-01
-3.133722580692309689e-01
-1.253310413183452710e-01
-3.574970818758653190e-01
4.160462915660481653e-02
2.336648025022645681e-01
-3.491046142434014316e-02
1.222018972815352295e-01
4.712778792513604986e-01
2.663898192711244839e-01
1.376315826579848078e-01
3.479998351552173741e-01
4.640736977312228118e-01
1.218089606806588288e-01
-1.298615417613080414e-01
3.278256635821790721e-01
-3.663356422387925027e-01
-7.645129707977978140e-02
-3.002287320145313188e-01
2.128840458703029903e-01
-2.777382628577869730e-02
-7.165160201826706876e-01
3.770062573689497709e-01
9.210654179993074675e-02
2.634944036055320363e-03
-5.440549273388294305e-01
-6.984538589894531690e-02
2.428121893458166092e-01
7.818325948558106642e-02
1.785494131202131074e-01
9.780328386219808157e-02
-2.490741694881027923e-01
7.115303839129447083e-02
-4.357742300559033777e-01
3.565477517763279702e-01
-3.281420629775572140e-03
4.187047056398856548e-01
-7.282420462595948218e-02
2.283294200830399134e-01
3.732885889176427163e-01
-6.448314904631334554e-02
-3.069630294317835517e-01
1.251394773004962657e-01
-3.394268304737155795e-01
1.795968113252107215e-02
7.874189879331150443e-02
2.618660467014858884e-01
1.185027323015636902e-01
-4.213260315272059076e-02
1.830605996016025638e-01
-1.811950617971227750e-01
1.387329190149563241e-01
1.440984775579517430e-01
1.178305182320887601e-01
-1.129263858050402192e-01
-3.431847494957337985e-01
2.635445538682796296e-01
6.617338927774110702e-02
1.786595498884080147e-01
-6.462938714219111924e-01
-3.083466594333499899e-01
5.270758757117827153e-01
3.829798175046651987e-01
-8.164805413099962550e-02
2.172905748839327189e-01
-3.392341194191367260e-01
2.426496125871811238e-01
-2.318505632080244405e-01
1.576718398718509884e-01
2.415142337967015607e-01
1.614350455129518469e-01
-3.978930956804985763e-01
1.694335049635276036e-02
-1.938022089673492598e-01
-8.274980830717086622e-02
4.176252238533239014e-01
3.112891718095430194e-01
-1.460396354375260997e-01
-2.414396529206716824e-01
-1.004898055385944761e-01
1.995675807230261611e-01
-6.993266782615233934e-01
7.492506769010274237e-01
-7.894369997791905735e-02
-4.089587679608104320e-01
1.080986967563500739e-01
1.825064037794068006e-01
-1.608034779193393271e-01
-2.646120621826962283e-01
7.518389164443185779e-02
1.486281342179829323e-01
3.637202616159256330e-01
6.119470289502118576e-03
3.833037368020340563e-01
6.049981130918258287e-01
-4.051540266683633096e-01
4.751984535091208217e-01
8.091766747375049584e-02
1.943392774027596914e-01
1.838100854317452348e-01
-5.795582520025818196e-01
4.171611134083565986e-01
-1.087588711898314353e-01
-4.809926845080488844e-01
5.090752966958088654e-01
3.122221579968758598e-01
3.829982506881313697e-01
1.766649445109925165e-01
2.683932829184895175e-01
-4.232608975697699782e-01
-2.794589673211721539e-02
1.764998378341345320e-01
5.482501283959061444e-01
-2.033889000733375418e-01
