-3.990387414769164809e-01
1.450682188238932024e-01
7.478196909208499610e-02
6.482334316300185362e-02
-2.903752253936879857e-01
4.406939159589874921e-01
-3.640851595065072166e-01
3.135960465247963347e-01
-1.152745333097102143e-01
-4.553745383896275895e-02
1.598680968773812938e-01
-6.332870936272662066e-01
-6.027039595874915667e-01
2.981773372594951343e-01
-3.306180741702602344e-01
-4.092561202028122125e-01
3.603596629761750270e-02
1.162403644908539951e-01
6.515863074686831791e-01
4.922209454877352064e-01
-2.396265864682336488e-01
2.186109061404214668e-02
-3.230051256595274922e-01
-5.410148617693337492e-02
6.317717268556016785e-01
-1.505049976732202588e-01
7.095033152824199441e-01
-2.377700970068719055e-02
4.890067587363407520e-01
8.134663656253501296e-01
6.550051444188241812e-01
2.241531861990400665e-04
5.211936310207169187e-01
-1.529155139832344967e-01
3.538978909778937032e-01
1.646142156568913828e-03
9.287722191815453443e-02
1.048587964177561255e-01
1.784418160849124968e-01
6.466679730558918537e-01
3.809152958951787515e-01
3.723777911262687312e-01
3.159302657777544876e-02
-3.248629923352890359e-01
3.264332885350380575e-01
5.944999132211957471e-02
2.397662275622826078e-01
-6.976676288260059700e-01
-4.788261826673193694e-02
-1.280900354912105632e-01
1.561405329499497008e-01
5.156345045426942164e-01
4.772996603140039484e-03
-1.409417111466348405e-01
-3.791197599411253449e-01
7.883684365937423943e-02
9.208957267195144736e-02
-2.047177514714025315e-01
3.629913151659058812e-01
5.039721595917568964e-01
-3.898231282681231535e-01
3.095337215308621714e-01
-2.493921969315377185e-01
1.108047126512817088e-01
8.400743637233754058e-03
1.639769310350523979e-01
-3.783740692059867072e-01
3.507226550943981502e-01
2.532447694407612970e-01
5.348304050168235790e-02
4.332271353322622032e-01
3.472202182361954215e-01
2.457334249752919642e-01
2.806658117481121706e-01
-3.516510616676102874e-01
1.792152356375203981e-01
-9.979155982839005290e-02
5.864753867754429056e-02
-6.296534598097689450e-01
-1.375885309612597807e-01
1.550360834726015602e-01
-3.409687231877511771e-01
3.968262603848816961e-02
3.283773982888064102e-01
-7.703381040749626707e-02
6.204222358731818765e-02
-6.301659484574791970e-01
4.234369832736663009e-01
2.948393589368097367e-01
2.612465773674224265e-02
1.339760042469925749e-02
2.818224826804381911e-01
-1.129558494245169048e-01
1.492577296882552640e-01
9.525453110357559594e-03
3.128298347401063384e-01
4.151084212949215368e-01
-1.915907617177942113e-01
-3.281740480176513486e-02
1.455998717343681415e-01
-3.896184975143767715e-01
4.456418563321432602e-01
-6.390383091567626572e-02
-3.723367589653219789e-01
-7.398218813817980521e-02
-1.512426702343845630e-01
2.070214894174292053e-01
1.187792047780391463e-01
-3.092804803767064126e-01
1.024022909025511935e-01
2.371631037066886938e-01
-1.728166567852127203e-02
-2.815206739176844830e-01
-2.788942476778625834e-01
2.929984277507609591e-01
2.430132308402752073e-02
4.508869664784717624e-02
-2.644341221679970544e-01
8.036420420550546839e-02
4.687351411011561053e-01
-7.033886912230898070e-02
-2.974053660147711331e-01
3.298624255371553904e-01
-6.279564933952798134e-01
2.899535348468305074e-01
-2.182012742808142058e-01
5.991518972595367698e-01
-3.010198247661947102e-01
1.973386318595358180e-01
-4.945859838251799590e-02
-3.403827491566749908e-01
5.681460416510782929e-01
4.392456322960382464e-01
2.557103952288879434e-01
3.533056955997575521e-01
2.490768334890348934e-03
2.127957487245221019e-02
-7.489434785638342529e-01
4.063887367379274140e-01
9.660136928851456584e-02
-3.821352748236674368e-01
1.567013809260183466e-01
-2.907862695961780375e-01
2.422092028461492186e-01
-4.259522106432144795e-01
-1.545276608579837230e-01
-4.512720565083283564e-02
-3.848816083379555386e-01
-2.126571980664002104e-01
7.741146991583978954e-02
8.990154604090719870e-01
2.258558739640725010e-01
-1.726820565617872560e-01
3.177529870065308182e-01
2.764735327854321856e-01
2.063005471817482839e-01
-7.609124785262531832e-02
4.342986048077088768e-01
1.989253287289637073e-01
-2.990258197723613121e-01
6.072539774182290628e-01
-1.296232533915689933e-01
-1.197373445535553083e-01
3.967076026824113422e-01
1.738796398290433087e-01
-6.941374618948098485e-02
-4.603871779205609416e-02
-2.972263808749622815e-01
-5.408733912623238105e-01
1.502818036880153585e-01
4.814453351310568618e-01
-1.740762256720041479e-01
3.922651638645491268e-01
-1.818480299103029940e-01
-5.821678098906211962e-02
9.211288071760795337e-02
1.819150011274719425e-01
1.319823433193076379e-01
3.800874031441202339e-02
-7.055459447097360559e-02
5.590181794749661259e-01
-2.974025704851242236e-02
1.058749385742032839e-01
1.103144273056979319e-01
9.871730430368444442e-02
-7.427680730760716221e-02
2.244291463294756650e-01
1.284412199247314257e-01
2.016213447010970217e-01
8.712532058506777810e-01
3.748178838251707556e-02
3.536280869407381067e-01
-3.509061879564117636e-01
-2.391791046563914447e-01
3.999194020677271366e-01
2.264947711998633317e-01
6.110975089264979176e-02
3.129632533185765508e-01
-3.262676148840626955e-01
4.855757622136188667e-01
-9.815930166332705042e-02
4.693272051099665609e-01
3.531147633236690619e-03
5.887310252670722305e-02
7.335729062044837878e-01
4.824773932243960339e-01
2.399223893658895268e-01
2.419230336631762734e-01
4.271368977866996652e-01
-1.529163210926422212e-01
-3.100333524520124673e-01
-2.043660703293951331e-01
1.580859198811123689e-01
4.537526681878942814e-01
-3.654069998759154614e-01
-5.625321237543740027e-01
-1.246170160187517612e-01
7.111770403088627512e-01
-3.816737724254303243e-01
-1.266910140275991914e-01
1.066761279711643251e-01
-3.800088383383475321e-01
3.084911640095455154e-01
2.363894143294831274e-01
-2.033861602623401321e-01
3.726896370169777151e-01
3.232317554856729835e-02
-4.330198443163861821e-01
1.636639942151230098e-01
-3.966273140462477365e-01
-6.643815587066655148e-02
3.897493818236626995e-01
-1.872810655705972605e-01
-1.214204651283299352e-01
4.665913359526507875e-01
1.638236050962262880e-01
-4.086887257219833369e-01
3.409500998416647999e-01
3.913531361948121429e-02
5.134710339053424194e-02
-1.469270382602124447e-01
-8.616054333558961775e-02
-1.370869973719344437e-01
-7.394512322431276777e-03
-3.777689128854001543e-01
4.396227354970519974e-01
5.522058298863804504e-01
1.838012002898396502e-01
-4.238483544551432392e-01
2.448834630553102243e-01
-1.462365285600882581e-01
-3.778371565862486126e-01
2.408225802770399826e-01
8.980110162123616790e-02
-2.594770088848207257e-01
8.329281706518999739e-02
3.711899835051515883e-01
1.886077140755344772e-02
2.460115654700334720e-01
1.128402552396321531e-03
6.000747034437994842e-03
1.529635791494551311e-01
-1.331638237710623951e-01
1.316232551982293997e-01
4.910739778150146617e-01
