7.246181248097910421e-02
4.993651328003275713e-01
1.239894546426206258e-02
5.595320449673162333e-01
-7.383680835324964997e-01
-2.203431378772007735e-03
-6.867063385315451407e-02
5.637242815413615604e-01
-5.348744476292949246e-01
1.448446545003689023e-01
-3.161899106668401571e-01
4.996843860867413167e-01
2.251692290841756372e-01
6.823108387078455905e-01
-4.791587764159783158e-01
1.384592193824445150e-01
2.095237048171365857e-01
3.157812044666118978e-01
4.276557951598658480e-02
-4.118750833613636642e-02
-5.428881895452746242e-01
4.588824464480559251e-01
-3.106554519055202412e-01
-2.590271645553787055e-02
4.255631692940963218e-01
-7.831573382256877547e-02
-6.193511595315396301e-01
1.762013272524811380e-01
-3.348495280996131584e-01
1.063687086085815664e-01
-5.480673871633135602e-02
4.439495637775680570e-01
4.478119912767002941e-01
4.754196764503052508e-01
-6.378583471755509826e-02
5.699130478817840961e-01
-1.072367363172776478e-01
-1.349946002428413679e-02
5.488085266548840130e-02
3.755298478879754431e-01
-2.367472441095765379e-01
-8.209496750215383720e-02
-1.749922304848396393e-01
2.128449879942027057e-01
8.031959765341119273e-02
-6.752821881132710369e-02
-3.507589061752626747e-01
5.355755299285699239e-02
-1.894372588695217574e-01
-2.217523839104819094e-01
-7.544944127090354169e-02
1.337867161900896940e-01
-5.010049836650209976e-02
-1.744982450648702721e-01
-2.272653009543198765e-01
-3.999423813410058481e-01
2.693249701754435455e-01
8.945626316171360892e-02
2.771920024687874462e-01
-4.447968625410904653e-01
-5.192557928938222878e-01
-1.695436126485699024e-01
-5.474245488693026823e-02
-1.635559500436324643e-01
6.004254702605767990e-01
-1.628459504072602426e-01
7.653190488303299177e-02
-2.885962676220015788e-01
-6.631245781872091571e-01
-2.802467168503178230e-01
-8.291649416380939552e-01
2.321322362865071154e-01
1.979695015733474450e-01
2.966252348201439204e-04
5.773538718899666744e-01
1.928189054411563186e-01
1.790704319419694490e-01
3.622694547971698209e-01
-1.924932863755936252e-02
-5.140436143535550562e-01
-2.275970483418263690e-01
2.106343163448988198e-01
-2.785390820856681326e-01
2.638264878216799447e-01
-7.655032654087347288e-02
-1.117761966592753786e-01
-1.015767655438887113e-01
-1.283575912717816736e-01
-1.061217390335971456e-01
7.588284999437805434e-01
5.242321240258270842e-01
7.570080574579943766e-01
3.551655762866380295e-01
-2.994140293121476670e-01
2.794868132604234612e-01
2.827627009923742649e-02
-2.903416003532405254e-01
1.951897775273039870e-01
1.280853474105935752e-01
7.982079488046527060e-02
-6.573071134507623148e-01
-3.178504610769865013e-01
7.187427849284416803e-02
-2.970108465784002116e-01
4.446384731432057591e-01
3.772973878317969487e-01
-1.905605068397314417e-01
-4.300943016538486541e-01
-1.676706815420362928e-01
2.188749682915783201e-01
3.776208770927894781e-02
-1.471629922954474368e-01
-3.272517904813747047e-01
2.554090363844078310e-02
-1.317325440822230131e-01
-3.894613552620490582e-01
4.798073671099621629e-02
1.024384729833329039e-01
4.312012707612742912e-01
2.611920429667658472e-01
3.162304672701486408e-01
1.935666524114440859e-02
-5.400838282509602406e-01
-4.974373497171447056e-01
-1.889354661093655408e-01
-4.323949856372432538e-02
-2.435249205742600342e-01
-3.648234059474756430e-01
2.271201349733743269e-01
8.184131049843924866e-02
1.052506649134345579e-01
-1.326788424660227672e-01
3.564958130285052484e-01
9.373137710645426668e-02
-1.661296991224321951e-01
7.745876081102970323e-02
-2.768422417083113984e-01
-1.986211276874918774e-01
2.919953242716161190e-01
-4.272294549581984735e-01
-4.247266415151469965e-01
-1.202535784561927293e-02
-2.050093133001846812e-01
2.616099749351092907e-01
2.171998677385127696e-01
-5.608284195862001109e-01
1.070719067316279862e-03
1.158666884861425245e-01
2.008559081831360060e-01
7.381231027538528444e-01
-5.930136682281099691e-01
3.574246877386436649e-01
2.949440235868694971e-01
-2.136320458929497068e-01
4.354953341751400253e-01
1.852306370079575409e-02
-1.115424249851204759e-02
-3.209401565673436485e-01
3.675432455440615365e-01
-1.023681283287055932e-01
-3.295577967884320558e-01
-3.329545948981081360e-01
2.746884158211621019e-01
-1.893219131189297355e-01
-6.357836396002558565e-01
2.260717403156588257e-01
-2.561593557989683134e-01
6.366023948945394306e-02
-4.442446005818942445e-01
-5.682605455894557123e-01
9.983455890993124526e-02
-5.190588546480297272e-02
-1.256523840132254821e-01
3.176065781458899950e-01
-3.637081839582889664e-01
3.117663833514773830e-01
-2.872891079984083440e-01
3.261809400007505411e-01
-3.816779063896135749e-01
-6.767684310212082610e-02
-1.222689262644925667e-01
-4.661194174439786675e-01
3.348678048293800558e-01
-1.755422382659019009e-01
4.588798279796794111e-01
-2.898145518333694257e-02
-2.878476005669268756e-01
1.948163677706400698e-01
5.779704765602105242e-03
-5.100704614048167523e-03
4.725575352322669564e-02
2.674500361262443365e-02
-8.984837958299178584e-02
1.531665705552154033e-01
-3.143501497175830717e-01
2.385749798641681185e-01
5.879787258558117902e-01
-3.888167052292175185e-01
-4.044352249862207538e-01
-2.570605030519688139e-01
-3.984706996497899834e-01
1.099601651710398059e-01
-2.063027060807521296e-01
-1.761844406037483546e-01
-1.945972497247518418e-01
1.087172545806992796e-01
2.254776206034717900e-01
-2.195457013730039986e-01
2.282488867286836254e-01
8.546007989663623183e-01
-1.346095260901346569e-01
2.328998678176351922e-01
-5.127317907333079489e-03
-4.280464624392376627e-01
-5.538356588764444810e-01
2.110962615883622134e-02
-2.603292335370906430e-01
-7.404548016439046476e-01
1.801238591510175013e-01
-1.239755753350434975e-01
-2.748082752763741365e-01
-4.962294037095677131e-03
3.213432351418258476e-02
2.834073973976148908e-01
2.703043342026071882e-01
-3.901764042504358154e-01
-1.972770170076581508e-01
-8.675056619767378130e-02
-8.043200824900564871e-01
-2.385633407503680581e-01
3.790581787937821190e-01
-3.406165095173547819e-01
-2.616676466656009947e-01
-3.869215047750369091e-02
-2.259261118367439647e-01
-3.441497434454184323e-01
-1.385915272962822686e-01
6.381699610552808710e-02
7.071739086805790830e-02
3.456421519403119480e-01
5.685644811145696975e-01
1.997797987802140962e-01
3.009041616633305327e-02
-1.985231453875286878e-01
1.397170623199737172e-01
1.293798195326958389e-01
2.900975761537035180e-01
-4.031463744760404588e-01
1.211476426290584441e-01
-1.858975028200215290e-02
3.103253717950315016e-01
9.352074969441820373e-02
-7.140243145573475780e-02
4.074886853260271669e-01
-4.795580778214930673e-01
-2.304147556035175681e-01
-3.107526459412124908e-01
6.953334652249559822e-01
-4.347011124969845652e-01
-1.295454162355671734e-01
3.260532720959180564e-01
-2.448622581710794277e-01
-1.832298616765189875e-02
-4.640135981790217135e-01
-6.393577953530251712e-01
