-2.510375689636890062e-02
-6.790926126033725030e-02
-1.523896929103670528e-01
-4.173782194094882020e-02
-9.116725465050837252e-02
-2.630623516499850933e-01
-2.217610535392555149e-01
-1.796687422499240461e-01
1.519254607788981248e-01
1.763950656545629561e-02
-1.161276015347148943e-01
4.667498382039875909e-02
2.344334421942087521e-01
3.195819629964901099e-01
1.274100423879991895e-01
1.704746112727420770e-01
3.678727684170866180e-02
2.213100853403074109e-01
1.640972510670491713e-01
-2.551937834561424090e-01
3.492865528484116466e-01
1.475466593891742728e-01
-9.627925896355372937e-02
2.478976305218149045e-01
-2.409341135959379432e-01
-3.411963701666432813e-01
-6.334746189935848149e-01
-3.083204320243764784e-01
-6.287009235021838449e-02
1.291358969304271798e-01
-2.570030690664279471e-01
-1.535105579086984695e-01
1.882745489863772714e-01
-5.296896050624329000e-01
-4.283207733804461625e-02
7.175933457685251468e-03
3.588567472150935855e-01
2.403299965315939396e-02
-3.133446144357449059e-01
-9.254426666708091137e-04
-3.565034572059727624e-02
3.222600202396582597e-02
4.627928135079342753e-02
-4.821914453707666637e-02
-3.217624619482849502e-01
1.278746664868881944e-01
-3.645450151559496144e-01
1.644905211265577094e-01
2.131523336884025011e-01
-6.063033163828016742e-02
5.625508091824089618e-01
3.286412383476169929e-02
-6.518806190018936464e-01
3.481638806761054583e-02
-5.659345711004081236e-01
-8.158663545570497000e-01
-2.490170219788834793e-01
-1.815918255280101479e-01
3.294729600131593439e-01
8.878656063037453083e-02
3.644991559585492036e-01
-1.665663698844516982e-01
-3.088271171164210654e-02
-2.685437888069456824e-01
-5.959206991656796903e-01
4.003017455003687886e-01
2.948150369413827243e-01
2.118683375769815636e-01
-1.698550993940675380e-01
-3.519799726854553890e-01
-3.737151269481546190e-01
-5.181675849056623928e-01
-2.671996052065515048e-01
2.699753730969083887e-01
-4.121457122079161262e-01
-3.214677484489566334e-02
-5.515328688504522042e-02
-1.830864020327193087e-01
2.655081973736259093e-01
3.120918799264586485e-01
-2.487003592858554879e-01
2.544064221893935773e-01
1.821119805876306175e-01
5.317654594204609259e-02
1.416770383170148639e-01
-2.128838829495805635e-02
2.061261221472941718e-01
6.023013176162049787e-01
1.325555683552619435e-01
-4.903563527663616639e-02
-3.316690038242061100e-01
-3.286337730873304941e-01
-7.280750804005076127e-02
1.792252726245073813e-01
1.205620959929542685e-01
-4.035642471982207602e-01
2.547236078254658809e-01
2.970585783001066793e-01
2.473260819046901593e-01
-2.660141901167277778e-01
-2.314703741216341537e-01
4.637389382786089725e-02
-3.761668241867040935e-02
-7.039598192237908059e-01
-1.858754506004804685e-01
5.478573343345195627e-03
2.019615083717657689e-01
3.376116148695628705e-01
4.101415727504602315e-02
-3.846643122063673342e-02
-6.219739479718356528e-02
1.700424452355540628e-01
-2.625979346143487159e-01
-8.999309741252713157e-02
-6.048781074520082068e-01
2.118374314702749228e-01
-6.105727287135983561e-01
2.703148382707261654e-01
9.606287050461619070e-02
-1.731875383462308793e-01
4.494208126189311314e-01
-8.848415566669839971e-02
-4.731353970660188146e-01
-7.572749925767776613e-01
3.828968114156503511e-01
4.699996757661732416e-01
-3.166543413142846042e-01
-8.326022800109614819e-01
1.450972065299783453e-01
-2.267696252687210201e-01
-5.972397964672650217e-02
-3.400904024723225838e-01
-5.215122831794568453e-02
3.846237280277398640e-01
-5.716226108522718397e-01
9.942295270737160073e-02
1.077794791784260874e-02
8.217613400722301176e-02
1.071318987971256187e-01
-1.344269872462418858e-01
-4.763706711524403059e-01
-7.303754221642426436e-02
1.287232625090042326e-01
-3.979575115772208682e-01
-4.451321035299897200e-01
3.462540678350220502e-02
-3.340820551862146992e-01
-3.398269065605297734e-01
1.245809125006536872e-01
-3.311307341790496461e-01
-4.011167842383405735e-01
-8.483330837880330433e-02
-1.180563786040575158e-01
-8.443956593710585934e-02
-1.014643922414143196e-01
5.549464402995469836e-01
4.781092381255573898e-01
5.690727739335730423e-02
-4.336655424768369807e-03
-1.826126213672503718e-01
-3.268410587944072659e-02
-8.493213529694300032e-03
3.363316867457532000e-01
3.303035582216876653e-01
6.735945007177604471e-02
-1.999482778951829631e-01
-2.612922700775097695e-01
-3.035502494206612778e-01
-2.601675875727193360e-02
2.778514198763966103e-01
2.073566671561916444e-02
3.915691077491426086e-01
2.120865939042332893e-01
4.506658003533045020e-01
-1.085430507667564798e-01
2.961263422738689144e-01
-1.554778385156515563e-01
1.443682959829832857e-01
1.306368367172647781e-03
2.783123475428587734e-01
3.562319029370713402e-02
-2.749930848551667140e-01
2.246403887371756780e-01
1.285018072970179615e-01
-1.766988435697851648e-02
-4.864905866279918834e-01
-5.488775608373609727e-02
-5.144613890028586489e-01
1.933667190723766666e-03
-1.797825506503250223e-02
-3.510016966254823623e-01
6.028310295199401647e-02
-1.965079592985123635e-01
7.164805384730008053e-02
-1.760601847539921549e-01
-1.812188341826013738e-01
5.501974549671182491e-01
1.643045874181993937e-01
-4.561943190749135346e-01
-7.949782885834627555e-02
3.129874334706757022e-01
-3.884804522070985783e-02
-2.897784090464028406e-01
3.383950871010713568e-01
2.436864030133272657e-02
1.959927321725472293e-01
3.652918375128080819e-01
1.817192565937676141e-01
9.594967975154028092e-03
-1.762655324439912907e-01
5.045800942317139187e-02
4.834733318181307360e-01
-6.209202879068367320e-01
-1.033292631766639241e-01
-2.816395346535582322e-01
1.327388963699389635e-01
3.502804433211143542e-01
1.254394024594184809e-01
1.361142697378553250e-02
1.188249321477929388e-01
5.480901029851484862e-01
4.514386750058669295e-01
-3.963691617334614281e-01
1.795160899105812391e-01
-2.229401872921033811e-01
6.396937490559163608e-01
8.499293080481409857e-02
2.187622676120384024e-01
3.554321631683801663e-01
-2.802359831262141721e-01
-5.819900517745260071e-01
2.292574581148242030e-01
-2.986647943769911162e-01
3.599462396939548947e-01
-3.231949200598320249e-01
-3.239378109581540488e-01
-4.119937582047544233e-01
-2.950480938105332629e-01
-2.155575671128952264e-01
-1.067676146114035773e-01
-3.640087254914690096e-01
5.060330473049168276e-01
4.142133898567034178e-01
8.665660906885461201e-03
1.427472191934963004e-02
4.425151925766972888e-02
7.443285936540035286e-02
-7.035007973719870078e-02
-1.740802649088693532e-02
1.939347543899634374e-01
9.521530935773821550e-03
-3.598730224286951773e-01
-5.710573767737181505e-01
-4.480800561211071426e-02
-2.289787888028699536e-01
-2.869380759737424902e-01
-1.623271651157950080e-01
-3.349448157710766538e-01
-2.323497625181630832e-01
-1.606879747576446527e-01
-6.149384859915416578e-03
1.158952462428653185e-01
-5.872635868971558537e-01
3.018030819523934705e-01
2.308578988262023624e-01
