-6.868387084044705326e-02
-1.579563857333747268e-01
8.142057440563088555e-02
5.509857727540499184e-01
5.647174362016167404e-01
-4.569856308137215106e-01
-1.095382768691817443e-01
-8.366310832631294880e-02
4.704290524598274403e-02
2.241645703824179658e-01
-1.746317449077341433e-01
3.202605192929989797e-01
-1.561738212278150628e-01
-2.566357822875834915e-01
2.479409149352320429e-01
-1.654588031306133689e-01
6.730888903669161871e-02
-4.162040154143288873e-01
-2.811048941792292366e-01
-8.013042697003910919e-02
1.813640772242781085e-01
6.059539278349763691e-01
1.517682768279053906e-01
-4.735122415213931513e-01
-1.173822137381190095e-01
-3.107938510426225265e-01
4.099469138558938242e-01
2.277769880354045193e-02
-1.218171444055253655e-01
3.376636957485681934e-01
3.105311336759258301e-01
2.987234241084478215e-01
-6.257016188157308312e-01
1.241972838123052564e-01
2.649894184315149115e-01
-4.092077451327896243e-01
1.865922812054338076e-01
1.704342144368524437e-01
-3.939252802867995173e-01
-1.583888742766687285e-01
3.709011813335946761e-02
-2.621446948000412114e-01
2.818897544425385537e-01
-3.624636682320745429e-01
1.192273869442452144e-01
-1.263515910464967640e-01
4.874126698617718412e-01
-1.210899473434735030e-01
-1.159989382413386533e-01
7.785645625479216403e-02
3.582790435901418435e-01
2.797788039692351014e-01
4.668428798320308770e-01
-1.247029067372129457e-01
-3.962749108193985847e-02
-4.584476017854719615e-02
2.719804906527189536e-01
-1.960638004442704641e-01
-3.077982546330026437e-01
-4.714654865369199421e-01
-7.028834902487277048e-02
2.446771198883781195e-01
1.564796413096653516e-01
1.436590335239963379e-01
2.227555391241740901e-01
-3.088068898669387718e-01
-3.502247091913334720e-01
-9.324282723329753442e-02
-5.155902679978602299e-02
2.037876374882428010e-01
-1.778588020166509964e-01
-2.237586957919763531e-01
2.362937652218134177e-01
-5.508368732307421939e-02
4.821430540336441029e-01
2.713682075481562705e-01
-6.859144169389776169e-02
2.448271246552262137e-01
-2.040549496147597841e-01
-2.880278706640047037e-01
1.453750530821083242e-01
3.854491354624762223e-01
2.140109184199694425e-01
3.452466697773743931e-01
-4.158061306908558685e-02
-1.626451696887076526e-01
-3.473689891549955888e-01
-7.304162322528396922e-01
-3.083548540105675653e-02
-2.370777580305026000e-01
-3.038406741312164039e-01
-5.752185325891344680e-01
-8.027207399146492339e-02
9.676037334239684373e-02
1.448325143928585329e-02
4.304564805972789787e-01
2.919632020166815223e-01
8.062088254661410602e-02
-1.437340472529483049e-02
-3.811082016981008347e-01
-2.538571252410208312e-01
5.418221543522915296e-01
-2.003401684861235710e-01
6.772017867768061195e-02
4.627755276140381735e-01
2.251914634057566311e-01
9.062068500470468746e-02
9.140121927570177274e-02
3.009349699779801518e-02
-5.760927306803971248e-01
3.314469939850431257e-01
-6.156343851368754894e-02
-9.144455382479983740e-02
1.725690587135335630e-01
-2.390922880165505526e-01
-5.227444810969398281e-01
1.005199605760545428e-01
-4.343044479599374452e-01
3.029740729497558127e-01
-3.124712892420338783e-01
-5.260508448659844127e-01
6.312741739334447599e-01
-1.675854255619191602e-01
1.477129388573679980e-01
1.933460924685489746e-01
2.553084000063468584e-01
2.266833515570072233e-01
2.563279362934164363e-01
-1.080815558061243298e-01
-2.010924933065749431e-01
2.545165645983519243e-01
-1.366927037395860856e-01
3.156030470712368752e-01
-1.226694121961325601e-01
-2.753406063393739056e-01
-3.646397497781895258e-01
-5.787720195013607016e-01
-4.855502629763842198e-02
-3.074368540002968189e-03
2.151420453388925014e-01
3.686379507668167271e-02
4.153913944687161880e-02
2.149730240056361708e-01
5.565129848654292583e-02
4.199847301015256495e-01
2.279962144120792900e-01
3.458475415795538299e-01
-1.956982224384955227e-01
-2.559168882909345633e-01
-7.624130709759832300e-03
2.286085989562351983e-01
-1.924469414906906373e-01
2.058495676707675359e-01
2.785545905138648790e-02
-2.487349914805687123e-01
3.392008057731879522e-01
-3.195578415419781937e-01
-3.230209262813595883e-01
-8.404656113010033902e-02
-5.418647997269710609e-02
1.291345198367801206e-01
-4.336842046243704618e-01
-2.654583944080842750e-01
3.804454439190909087e-01
-4.806199462210412610e-01
-3.866216005288655722e-01
2.739198952844332791e-01
-5.794747428197750683e-01
4.367721012840132810e-01
-2.558700498266400780e-01
-3.774603394542181967e-01
4.002679257861447432e-02
-8.713026221710733557e-03
4.551002318320247070e-02
-6.602123828118144910e-01
2.976704755541582231e-02
4.434216123548975763e-01
-2.529564818958252026e-01
-3.640720922855693042e-01
1.121680211397364929e-01
-2.587550733714965578e-01
-2.241920926854317486e-01
3.106396778759886734e-01
-8.202422563933629840e-03
2.562406793296710394e-01
6.576242757164186756e-03
-1.598474358808754103e-01
-2.556518061398219688e-01
-7.653929373630964650e-02
2.070598817606358333e-01
-1.493970401756203881e-01
2.262131414557994602e-01
-6.641337681190093156e-02
1.137613350080216718e-01
2.709769515585339072e-01
1.173280507906625109e-01
4.602139339598753653e-01
-1.372742888403562511e-01
3.755194812326477227e-01
1.231721724010958899e-03
2.788383093795916423e-01
1.672767772488989724e-01
-1.993912141645723668e-01
-3.154537754689134554e-01
-5.447426461278125076e-02
-4.427860995726234233e-02
1.763132852620175883e-01
4.204657492749726555e-01
-2.619880953558136397e-02
-2.078836499723566156e-01
-2.320303212110672586e-01
2.596399719199060305e-02
-4.997457858946346976e-01
-3.210071688132327683e-01
1.881194675394289029e-01
2.622855249433276303e-01
-2.400028976879708953e-01
-6.000926228020093955e-02
-4.665502150694872951e-01
7.618418336135164559e-02
-1.148270794585855986e-01
1.420714169732530119e-01
2.378241538786627085e-01
4.129372394591749318e-01
2.130663331219223577e-01
2.881433001545060102e-01
-2.848922292340051454e-01
-1.622318263506595803e-01
2.306201310406771898e-01
1.233327207467581066e-01
-3.377933904105577256e-01
-2.018873644930295475e-01
1.622540239891258618e-01
1.260345745534534045e-01
-3.521824713181500033e-01
3.214651210005626397e-02
4.056923396736312193e-01
-3.420759056155093236e-01
1.033367735480660438e-01
-4.065178289330415723e-02
4.205912880868912240e-01
-6.000915022249569963e-01
3.631902488975139454e-01
1.779746069489792915e-01
-3.427040928999904867e-01
-1.641120442860531103e-01
9.406400128262075097e-03
4.093044279357437865e-01
-8.896332268451598302e-02
6.396132415064027799e-02
2.711989174711589290e-01
-2.790426151485784767e-01
4.234576638709683372e-01
-1.919773483408166170e-01
2.094154399269616829e-01
-1.643035964311668207e-01
1.353037434473609024e-01
-8.726083997496032751e-03
-7.982840282686173849e-02
3.300888506964329006e-01
1.184881254846929521e-01
-1.189104262935118395e-01
-2.100842573220856602e-01
5.645123279459891563e-01
-7.636205104502653551e-01
