-9.698331414926479599e-02
3.146369257324924673e-01
-5.269008377537803128e-02
-4.301825415007461823e-02
-3.049244692201166784e-01
2.462482965706119797e-01
4.327527352593859428e-02
-1.503039643664201563e-01
3.469722040577621347e-01
1.533286926316567711e-01
-7.023247620947636882e-02
-2.658076267660735015e-01
5.861084187315794558e-02
-2.036674311664468662e-01
-5.951260614608596677e-01
-3.799828037682945747e-01
-7.187953200532562481e-02
-2.340395756124847779e-02
-1.701018098157575931e-01
-3.887722368329448591e-02
4.710824914922639994e-01
-8.852933575822116014e-03
-5.093120560578123790e-01
4.487888255587382802e-01
1.127247102640051707e-01
-4.489296918762568089e-01
-3.048606240179655980e-01
-9.688643295604416200e-03
-1.656395186100558248e-01
-3.762642694526058262e-01
-4.289250287803132999e-01
3.466700522944921037e-01
-1.721525213728873904e-01
-9.505554864510083746e-02
4.079320650863474951e-01
7.530965479102856575e-02
-3.003394107052108630e-01
1.428354879314526205e-01
5.029339376712307352e-01
4.861565817955871283e-01
-3.176030128401874930e-01
-5.926300444556512059e-02
-4.367496411764549280e-01
-1.346343021414840302e-01
-2.072076349198119505e-01
-5.196499350968328823e-01
7.905693139655194102e-02
1.172048797960091454e-01
-1.543389099051566682e-01
5.470543130633813700e-01
1.474325480208806827e-01
2.511853533205493094e-01
8.100807326571172196e-01
6.961071636908106042e-02
-4.301085705741143350e-01
-2.268623713291607891e-01
-9.316610265778778321e-02
-3.653297516615280904e-01
-1.076483866788730537e-01
-1.240432818922474444e-02
5.041671794620217195e-01
-9.531866501459780594e-02
-3.079717801051722326e-01
-3.601399673412615243e-01
3.067949314562276597e-01
-4.470712209810527860e-01
2.853164518963762775e-01
2.474264079118337345e-01
2.609317479678691654e-01
2.255176390334715786e-01
1.655479216005480980e-01
7.918054559511635004e-02
-2.355750941045993418e-01
4.992988478741696573e-02
-3.234653737058650336e-01
-3.613263345762289247e-01
-1.939946955871150180e-01
-3.147633981995555108e-01
7.073088089958494418e-02
1.598721263489118471e-01
-7.405284200664452587e-01
-6.501756264907712635e-02
4.788078360447687865e-01
4.233790448722654642e-01
-4.473474934747956322e-01
3.799907899961926239e-01
2.136144476523457389e-02
2.015719024005387661e-01
-3.513443348907601543e-02
-3.121620396175685541e-01
6.587160040131067040e-01
-1.776882133245574480e-01
3.979856251557379321e-01
1.481372451707597127e-01
3.374045112459886919e-01
-3.734340728447217983e-01
-1.304009889925969445e-01
4.211662561002981614e-02
-1.694817365409372334e-01
6.152016899135268752e-02
-1.962832303551503288e-01
-2.908237053948071194e-01
-6.736149241293647172e-02
-1.131131707334770697e-01
5.658026259709445505e-01
2.107303906513499359e-01
4.301675453873097243e-01
-2.329931832405804648e-01
5.581052718696473125e-01
-3.309208042448764653e-01
-3.405803925235147411e-01
-6.883060324235940920e-03
1.301197349899572975e-01
-1.157047670600621220e-01
3.151690346432205886e-02
9.282293533184865497e-02
1.683461344500388271e-02
1.516020683014411008e-01
-3.406207513391145553e-02
4.253851458727552770e-01
-1.340667244014846493e-01
9.316464208178669437e-02
-1.809954553790409093e-02
-7.080290885918694155e-01
-2.209473198248839698e-01
-2.522478587483536483e-01
-2.870818995317462319e-01
-6.119262405368022101e-02
4.233975774858014240e-01
2.488153978234774188e-01
-2.924198217051240389e-01
-4.915602239993490663e-01
-9.042142216938633958e-02
-7.682319197007651812e-02
-4.152647067222436927e-01
6.813205033261136856e-02
-1.558685134603331468e-01
-9.360069705619486480e-02
-5.336810033712607870e-01
-1.610837861847425334e-01
-6.705243869092810671e-01
3.917308942559550311e-01
2.465903476734973010e-01
-1.989677752091015828e-01
5.888257153080109774e-01
-4.355179578818643149e-01
9.343024972769363445e-02
1.000000000000000000e+00
-5.484365277657409637e-02
6.642139143984381322e-01
1.768154643493634326e-01
-2.785644244966575811e-01
-2.745641442058505688e-01
5.925630039816550676e-01
1.769065617194215678e-01
-2.532276100627775528e-01
-3.117516833501173812e-01
1.458098072281669155e-01
2.462320035574515065e-01
3.831314382510849770e-01
8.136745084965288921e-01
-4.076059130602280312e-02
3.706152069916724967e-01
1.255311880210249753e-01
-7.392767812027393193e-01
5.937723497982239085e-01
1.952627933564647089e-01
-1.436675457138944234e-01
3.935686830714059115e-01
-1.308649519169662323e-01
2.247318308109331475e-01
-1.231526848206152963e-01
4.064478294478484632e-01
4.249392376096929880e-01
2.119472344881542514e-01
-3.000332476111266522e-01
1.187906014186449442e-02
7.869133010831244265e-03
-2.840360647857123090e-03
4.108243720633364959e-01
5.379689028560473707e-01
1.833197501668152596e-01
1.007315096966071855e-01
5.089952081940915659e-04
1.882510730545592648e-01
3.864982394599849047e-01
-3.316281980004407992e-01
7.891455360245065720e-02
-5.862597676057854784e-02
-2.362569791558005380e-02
2.281621551491792299e-01
5.856234827942277676e-02
-2.087010371947942422e-01
-2.985626700822026636e-01
-3.764468565686940882e-01
2.145513117312229101e-01
-7.221937793984861687e-02
5.047254905641874317e-02
2.678016511189858506e-01
1.597126522613965052e-02
1.906933835110834197e-02
6.131694349165756064e-01
1.000000000000000000e+00
2.504600082541658668e-01
-1.393037032196726421e-01
-2.627908011014517186e-04
8.591678357987468651e-02
4.447290163124284490e-01
-1.616879726536580297e-01
8.423759122497838370e-02
-8.460271815711051246e-02
-8.025045964139870813e-02
1.823697533696048978e-01
-2.238372219533243945e-01
-4.988887762774733836e-02
2.492758013992484034e-01
-2.976604417482504039e-01
-1.827782921025316032e-01
8.496045878584197464e-01
-3.408933797376385855e-02
-1.562894639346765549e-02
4.284899791758072785e-01
2.496094507109062055e-01
-9.846654554247642743e-02
1.657865167113364568e-01
-2.196838881459692028e-01
9.790106979749445271e-02
3.072788399598803122e-01
6.562454938576058050e-02
6.213897172441774919e-02
-3.662772093501757142e-01
1.553390610566073304e-01
-1.072661853469153020e-01
-9.385739343688753386e-03
3.641014438952986376e-01
4.395701520243998073e-01
5.811175223417432145e-02
-5.770172375628479511e-01
3.848703965137026395e-01
5.189835735528043337e-01
-8.019112079366992607e-02
1.632858939187537550e-01
1.958684446507950525e-02
5.096293691803737563e-02
-4.407026542525005475e-01
-1.781223484019358039e-01
2.849094528318695252e-01
7.619540067432128971e-01
-3.184970488682217771e-01
-3.305005546136369210e-01
-3.042655164592627526e-01
-3.731538061158821973e-02
3.473332750391272539e-01
2.294491382345860975e-01
-1.060268074569151037e-01
-1.211242469498789859e-01
-1.898053559568466664e-01
-3.210257862712091737e-02
-4.846554117624724545e-01
3.124467466888144335e-02
1.030738219232256586e-01
-6.168267834608366362e-01
-1.811890143153697397e-01
6.869832037257448398e-01
7.070359127404818311e-02
