-5.281106559585764249e-01
-4.094304234213517746e-01
-4.098246656344816663e-01
4.134249918660703460e-01
-2.956745145974199462e-01
2.640059890967403899e-01
-1.907174437836200998e-01
-1.232866415314989306e-01
1.676544067404752147e-01
1.128828975950723207e-01
-3.925556668362769827e-03
1.166056997800171274e-01
3.347716031817561944e-01
2.775871313044239730e-01
1.996466001987037553e-01
2.208753071932163803e-01
4.036273885120478244e-01
-6.135617528684194077e-01
3.509511742056378031e-02
2.249084200070465001e-01
1.163541190438745487e-01
-3.184825060762948579e-01
2.426654472235402760e-01
7.969349636810375836e-02
2.057775067123980006e-01
3.273519685855746375e-01
2.310278137021880007e-01
1.405518063436836940e-01
-1.283136864175817848e-01
-1.818246445236967324e-01
-1.042144502947556367e-01
1.866815717163945176e-01
-7.780335368676755126e-02
-3.490559871691263916e-01
4.764951301511192172e-01
1.511682298560798332e-01
3.509659870725039266e-01
2.140572797446193554e-01
1.463095382616132478e-01
-3.959837846910169157e-01
4.523599766544954270e-02
2.079476462500572942e-01
-2.678317000053365496e-02
1.076273638332438526e-01
2.362292775096229702e-01
3.045290601841265654e-01
-2.590450727987450019e-01
3.529316810618344236e-01
1.111976055418607973e-01
-1.842344497452575447e-01
5.938335772014240177e-02
2.344795375527266301e-01
4.537639609931339857e-01
-2.689540449684570400e-01
7.715151837198147566e-01
2.268754580349753303e-01
-2.487822915988109895e-01
1.672140475192491482e-01
-1.563184150689004570e-01
-4.635322492634005170e-02
-2.977619949844616531e-01
1.930981965162694158e-01
-5.639692452447961912e-01
-3.548735045680567746e-01
-1.093778475975556996e-01
3.064431575322538182e-01
1.488933312176291823e-01
-7.310296229449941841e-02
6.036054643819807053e-01
1.569832750050144041e-02
-4.433218430929212195e-01
-1.971296337660988218e-01
-1.059897483198589674e-01
-2.149211579249878934e-01
1.311544168693113688e-01
-3.394040947850454626e-02
2.252786700666013497e-01
1.452460837583660668e-03
2.215197545047801198e-01
2.812213748781552947e-01
-2.085158919469660699e-01
-6.332495267120511473e-01
-2.137068070904491746e-01
-7.550374315584021910e-03
6.666858997101059170e-02
-5.698673743313583673e-01
4.597707208359289033e-02
-5.930360959872070792e-01
-7.667912101274765302e-01
7.444214935080517570e-02
-3.760365019237127959e-01
-5.807373436559694069e-01
-2.056755252581208004e-01
-1.686814017036763758e-01
5.079280412899182112e-02
-1.622850334925079671e-02
-3.823698474147010362e-01
-5.409044666487392711e-02
1.513691928541607001e-01
4.599839268145447524e-02
-7.771386927919674004e-02
-2.099516835863374509e-01
-6.620889144499152446e-01
-1.378720534720556667e-01
-1.638902467557234732e-01
-7.899264276946545149e-02
-3.946136851900357012e-01
2.618846928473722024e-01
5.771827152634248503e-02
-1.046639648453147747e-01
3.164499293524682955e-01
-1.956064377602151072e-01
-4.286663098468316835e-01
1.100857937590964675e-01
2.908615562148744726e-01
-1.257952514187884174e-01
-1.057795784914026677e-01
-7.493497106493735016e-02
-4.994340703489070776e-01
-2.475554473999183880e-01
-1.926185071698419959e-01
-1.103847504190907103e-01
-1.301237122694661741e-01
-1.082956164606669984e-02
3.769675286968627442e-02
5.433772233840831328e-02
-1.389639200162262334e-01
9.505392795728982713e-02
-1.015038465509277357e-02
7.870624033699427091e-01
-3.735064339220461882e-02
-2.747843019784280139e-01
-2.465735467288627802e-01
2.159677067613026968e-01
9.493837438052044053e-03
2.999072868948446380e-01
6.357888636033306451e-01
3.120375745726129413e-01
6.223195034407154325e-02
1.068834869156316397e-01
3.925308354470368188e-01
-3.816049504893436750e-01
4.225188132088162352e-01
4.138576289651271778e-01
2.320757653762715311e-01
4.315062643955532018e-02
3.471253078433864103e-01
2.876598771921701214e-01
-6.384783807837930425e-01
2.998999523130435954e-02
-4.512839698168314428e-01
-1.854925041403756858e-01
-5.155857682597096009e-02
-2.451734837185812754e-01
1.109940937627345164e-01
4.589952512087739911e-01
-2.844590324358664546e-01
1.675797916226901552e-01
7.915173676247813650e-02
-4.824961687201257537e-02
-4.833458378755544071e-01
-2.041546009940284692e-02
-2.515989352815654612e-01
3.800973533821019879e-01
-1.811339621607713501e-01
6.261259193231749620e-01
-1.084516569405191838e-01
-7.755423608269335078e-01
-4.586896122378967405e-02
2.342463079153301458e-02
-3.670561679456266213e-01
-4.941695374599259886e-03
-7.568044947157093194e-02
1.586782495970357199e-01
3.552250570624796988e-01
-1.743228918908587832e-01
-2.226517758699724514e-01
-6.024164904863255066e-01
6.475555813023994300e-01
-3.667771189280535915e-01
1.236727335345652462e-01
1.073988789896627299e-01
-3.028628422753701921e-01
1.373100462099272334e-01
3.555667842313720572e-01
-2.967433112485544089e-01
-4.736998237085797425e-02
4.628869470133469693e-02
5.186599714164249475e-01
9.602553546442282872e-02
5.553615686743790941e-02
5.272178375500952141e-02
2.947636986827515959e-01
-1.318584643051669281e-01
6.369659240266499767e-01
4.203995647912515676e-01
-2.043377924605493667e-01
-3.654874884085734105e-02
-4.683581415709661133e-01
5.966338279664420985e-02
1.348989739080790895e-01
-5.084747237568593148e-01
3.634866550225032134e-01
2.991089272672448063e-02
-4.320038452766535308e-01
-6.266596015064621605e-01
1.054496505493501129e-01
2.896018707857179741e-01
-1.531480194575659259e-01
-7.203726824085700253e-02
1.379782286680976688e-01
1.525040016037060853e-01
2.135340793514184654e-01
5.115986462523153255e-02
2.404234420118344095e-01
-2.586105607578942922e-01
1.220423418382833719e-01
-3.507193284414426154e-02
-4.989172927995537132e-01
-1.499738616719640261e-01
2.412644919950077127e-01
1.865050491577467792e-03
1.039061267010625428e-01
-4.434859900689118450e-02
-4.785794911891061258e-03
8.161035042052702804e-02
4.884284149627424187e-01
-2.066954373148189028e-01
-2.980899270954343594e-01
4.379381480704899049e-02
-2.995830961526759206e-01
-3.315153997206009562e-01
3.556615266613558646e-01
1.055503701170203146e-01
-4.778472061336442311e-01
-7.996767503939798682e-02
-1.201733435625754048e-01
4.728914664543778373e-02
1.993124759655663381e-01
-1.367618509590448339e-01
-8.819741680230795688e-02
2.729986395317466896e-01
-8.420384442430590977e-02
-7.733205555377092345e-03
1.763478588735715447e-01
1.732970068206826988e-02
-3.630474476865320210e-01
2.014807323151391882e-01
2.972277802688269022e-01
1.832530399860086145e-01
7.820253061161441463e-03
4.898570305022647009e-01
-6.876322138187073163e-01
1.276282096334224563e-02
-4.255186139335827011e-01
-1.515447555111193723e-01
-4.849594300409467706e-01
1.177785437609544655e-01
-2.991137397991011082e-01
1.100480575962297924e-01
-7.042216874891481238e-02
2.698488692410481171e-01
-3.148601965241668021e-01
-2.029277635877118902e-01
-4.714130589702062585e-02
