-3.359736058777758605e-01
4.323301202157529000e-01
3.030203924925757852e-01
-5.154752615479464284e-01
3.193995053755278590e-01
4.393285187030999683e-01
-1.356209359413866888e-01
4.928584169425290207e-02
-2.623217524447086224e-01
8.666205765775457370e-02
-3.637272579437590414e-01
-5.031657605327369831e-01
9.769185178581567611e-03
-4.767578306882352956e-02
-1.646582482932876512e-01
1.423649521595747036e-01
-3.672095257727078232e-01
-2.126867718355492376e-01
-1.688815097479032801e-01
-4.505480824427469250e-02
-3.533576779747294450e-01
-1.398082384171014103e-01
-3.947949200090539179e-01
2.309357716665748350e-01
-9.196678146658086861e-02
-1.039270496760737322e-01
5.776304003994166270e-02
3.259786354992884605e-01
-2.366003757520979411e-01
-1.485784712583225753e-01
-2.901981664835663888e-01
2.713243781613193795e-01
4.813959282204499646e-01
-1.088837721103550205e-01
-5.266217946633884317e-01
3.767969651369317274e-01
2.567555114966251772e-01
2.092833067893222140e-02
-3.452544954451726520e-03
-5.816460461670082405e-02
-3.775223933476217208e-01
4.582842999841717224e-02
1.296451225162801313e-01
-1.591347828439574341e-01
4.301753398359657310e-01
-2.518175016332147576e-01
-2.933991953140490661e-01
1.000000000000000000e+00
1.499384354527406316e-01
6.440765157032281307e-02
1.209099468551571264e-02
3.096772265364872156e-01
3.137697061290258271e-01
6.139084980798793501e-01
-3.169903897408996585e-01
4.282507051475273330e-01
-4.252178580852313851e-03
-3.568389941095856388e-02
2.743300202027318946e-01
-4.434169436342588200e-01
-3.202976478056814846e-01
-1.411375973518810556e-01
1.207552200989216035e-01
-1.754580073062555201e-01
3.446148712988120200e-01
-3.046331040145627278e-01
3.872080804406666799e-01
2.147401238049032601e-01
1.810461156586924969e-01
2.391720992301839543e-01
5.639861407770174750e-01
3.139943735215101894e-02
5.074803037669848305e-01
-3.687220280070336448e-02
-4.031919641797707815e-02
-3.142809208501739365e-02
4.857941306901275014e-01
1.927412595580165755e-01
6.124315297380915867e-04
-3.108702751066029502e-02
1.056660232413381660e-02
-4.907033840848201156e-01
9.399798044645986117e-01
-6.213819655590878399e-02
2.515896212581197108e-03
-3.211092349149850117e-02
9.861375657316895707e-03
-4.832944398951825038e-01
-1.909391747511474668e-01
1.304316773330608525e-01
-1.606001200506983195e-01
-3.187898367471759808e-01
-1.091642906194514456e-01
1.157973013338959301e-01
2.044149415693636285e-01
1.983249113824884710e-03
2.619488277367710838e-01
2.999052464202066615e-01
2.407579091252264047e-01
6.623853031837909078e-02
1.907435647745127083e-01
2.548066178930314396e-01
-1.580361261401908302e-01
1.440273256019830306e-01
1.584733295885753512e-01
1.977811254410478115e-01
2.718787093672592747e-01
-3.510234820297093994e-01
1.111742490338127158e-02
1.197577165158339452e-01
-3.871111759030415045e-01
3.847270244239526238e-01
2.298166660707029185e-01
4.024430874828656135e-01
9.194789908532803591e-02
-2.643050887192646137e-01
-2.617014130759949264e-01
2.705763217640481666e-01
3.753898998381633573e-02
-1.099044152701062621e-01
-4.797461092060748000e-02
-4.016377858834783293e-02
-1.097202227722021278e-01
1.784581954541729631e-01
-5.900717140816142958e-01
-4.982011438772861178e-02
4.471853884297050108e-01
-1.394526334403945779e-02
2.506548445741639541e-02
1.203200649405166828e-01
-4.779801236523683605e-01
1.921476819918861711e-01
-5.971948859376202678e-01
-1.078726324469639342e-01
-2.045402504911894292e-01
2.317232585327702321e-01
-7.552356150244297073e-01
-5.056676299614989469e-03
1.408774725169971709e-01
-1.742712671130334512e-01
-1.909356404305022348e-01
9.533457379883659988e-02
-9.991656346636773600e-02
2.668628027902008593e-01
-3.669926970939789701e-01
-5.232651058869684096e-02
-3.818922919517477310e-01
-3.322956569672109728e-01
2.060728965758224229e-01
-2.065676148950622015e-01
-1.219324539440157645e-01
2.500515583826848909e-01
-2.496268996783835015e-01
2.029045205385101303e-01
-4.321206163619690233e-01
-6.015265651106792566e-01
-6.212599702177943467e-02
-2.924471954998551781e-02
2.489694414169140724e-01
2.515318828774315910e-02
-1.623767394562323496e-01
4.744621705870987610e-02
2.514572245583712173e-01
-3.079558870593828573e-02
1.174167386853519762e-01
3.637464275069052233e-01
4.440967736672279953e-02
5.074109364940270206e-01
5.222013617355705795e-02
-2.208431353628167726e-01
1.194915580734151744e-01
-4.694153411779523055e-01
-2.779762630114325228e-01
3.870976682925451606e-01
8.829938676740529957e-02
-2.755395243151290141e-01
5.258947990502398362e-01
-3.107770173680846626e-01
1.026386376694861796e-01
3.194047740361105614e-01
-9.275785279879870948e-02
-7.377532610920937151e-01
5.333521337098096060e-01
3.826975477247589463e-01
-2.266934867837975265e-01
1.221730338231756530e-02
-5.330953824984139416e-02
2.158256577425829159e-01
-4.505951903031189532e-01
-2.138928456270332013e-01
9.820425395546655833e-02
6.233392633552885254e-02
-1.266741242193691330e-01
1.685747318363352010e-01
-1.894192548432912238e-01
-5.969561095360822328e-02
-2.531136237484279961e-01
1.287777611152150226e-01
-9.503516442292253216e-03
-1.787453416739551160e-01
3.818756373361146816e-01
8.823551765444899442e-02
3.648566188292605705e-01
-2.212484866773261616e-01
-3.292408919483491014e-01
-1.298422424403552211e-01
1.684873715782036208e-01
6.454590386601181951e-02
-7.044076420421255258e-02
-2.365270478158842116e-01
3.021911608644090030e-02
-2.706396553969739882e-01
2.541329153242541383e-01
-3.231294293821223573e-01
1.668306888247523545e-01
-2.992956945550424158e-02
2.513247349952493215e-01
-2.247477938304149464e-02
3.218586999628169631e-01
-3.710072839605112471e-01
-3.957751963188975153e-01
-9.136622687253284636e-02
2.564796904484585305e-01
5.005507047032404788e-01
-4.867612945805834673e-02
-3.978377628128541565e-01
3.816324569640111575e-01
-3.193409776042266945e-01
3.228336997905896788e-01
-3.331583193174629531e-02
2.015485299737094227e-01
-1.741595477126579167e-02
1.836419667098759811e-01
5.710518665841506775e-02
-3.690982346447257423e-01
4.084724491099376298e-01
5.392707337297253378e-01
-1.898789767168324316e-01
-1.847494751885187803e-01
1.756535267023606175e-03
2.283898470253648005e-01
-2.103435611031892749e-01
4.890906050885706069e-01
2.309823967198470704e-02
2.557460698151262091e-01
-1.879000780218289257e-01
4.369070879478658131e-01
-2.384404382779601872e-01
3.405611228714732763e-01
2.800671164262648685e-02
-5.576782893676067721e-01
3.597120107630627506e-01
-3.695250242327782209e-01
-1.015367447714858318e-01
3.984955262477710147e-01
2.300877530459726761e-01
1.494085017027911022e-01
-2.459027190837533294e-01
-3.214475591613786265e-01
-9.487810052069335642e-02
1.353314299702746137e-01
2.619885693944195570e-01
2.374967584652695751e-01
-2.763139822600519865e-02
1.944483815806644367e-01
