1.910949691200944933e-01
2.242701778505744870e-01
6.342686587549831723e-01
3.678697608180546696e-01
3.066170585116576031e-01
9.232489404311926273e-02
-1.449072741715010104e-01
-6.745382292205570618e-01
1.800447673658933656e-01
-5.006500203176017516e-01
4.058476714375137684e-01
-2.902702745776755133e-01
-4.239670680304007400e-01
-3.068184273618674296e-01
4.177959378924084310e-01
1.575017006258035146e-01
4.501574856105423628e-01
1.485675378306239303e-01
-6.201586663990579229e-01
-3.346378991014902771e-01
-2.921073721731776845e-02
-3.408165286688921713e-01
-4.253600842516881420e-01
-3.128182354876542504e-01
4.606304625783910756e-02
3.666389513630347735e-02
1.763044354743974751e-01
5.969172598038611222e-01
-1.863848550204889876e-02
-5.452261070773365415e-01
1.525153291386935062e-01
2.392257251685143693e-01
-2.537966322199787239e-01
-6.258422575294696026e-03
-2.537655855398785465e-01
3.373351977725750905e-01
-3.128280037354177479e-01
2.408399779959652098e-01
4.263186383400344726e-01
4.247912254209483263e-01
1.404192818904901330e-01
1.501346989889804084e-01
3.799613684161735616e-01
5.127981320753387945e-02
1.292595051809037332e-01
-2.898471924010518341e-01
-1.160412104870650607e-01
-4.916404633060431767e-02
1.084186189682797979e-01
-8.408582547349637004e-02
-4.874374445721777471e-01
1.556686981322581154e-01
-9.271890709015215976e-03
-4.952567220446839336e-02
-4.616135096571418739e-01
-2.316869559775500131e-01
8.228892243450909305e-01
-3.135703337534637702e-01
-5.512735389719215506e-01
-1.168668583435003051e-02
-3.104421472193100162e-01
6.822987922900770608e-01
2.850994573254200110e-02
3.409116521307937742e-01
-4.737896975678707601e-01
2.560790845336735067e-01
-8.139573704552229838e-01
1.706192875886064220e-01
-4.616024307622011991e-01
1.523672802268396798e-01
5.538789318517379767e-01
1.437384396038117462e-01
-3.546877778945566329e-01
-4.326065995899067845e-02
-1.533128817920157427e-01
8.328293021648981720e-02
4.247644081779556324e-01
4.931420452411505173e-01
-5.540568169693306233e-01
-5.697774963989119534e-01
-1.940796943491817361e-01
-2.558718266442844835e-01
-2.640204553381257369e-01
-2.137836571468109126e-01
6.610685664653853655e-01
-2.883112467692935249e-02
2.958308250773656889e-01
-1.137484603177514736e-01
-8.444117032437380432e-01
-1.088383859954789173e-01
-2.332677272183019956e-01
-1.940283370577309055e-02
-3.732534387717242885e-01
-1.553950348705486484e-01
7.187086328162992088e-02
3.666863092811982749e-01
3.870128033610910068e-01
-3.215519640342049401e-01
6.647809939790865208e-01
-1.000000000000000000e+00
-2.249046934093459071e-01
9.165023982694286975e-02
-1.302687976959653743e-02
2.704816028127289274e-01
-1.746986691152733473e-01
-8.668459886435117556e-02
-6.133487428090510230e-02
-2.943900142678086973e-01
2.339165650088478321e-01
-3.948623233350314066e-01
-7.387301981776899229e-01
4.185120155934189401e-01
-1.056840087155853647e-01
1.899217742284244337e-01
-4.016184825155601733e-03
4.719379545055794184e-02
1.973708501643066660e-01
7.558304993196506005e-02
-1.165628655643891065e-01
-1.934898636843752906e-01
-4.783965100664812065e-01
3.394212413189347521e-01
5.117381190236421074e-02
5.532672101741803461e-01
-2.292121943057794931e-01
6.082964345958918884e-02
2.066388836684648622e-01
1.489401408059351783e-01
5.311573592856180248e-01
9.655387602973486763e-03
-3.336512197076432762e-01
6.978636572824470667e-04
-6.625753002217463772e-01
1.245875465179317326e-01
1.745773777868463508e-02
1.231730519573594890e-01
-1.461830694347945325e-01
1.351080889417912399e-02
3.204896454898603642e-01
7.962847644480814946e-01
-3.177989492094091591e-03
3.995431346428455766e-01
7.809349466277919205e-02
-4.479225862105666311e-01
-2.151335514396261750e-01
5.627103914241742694e-03
-5.367901148896223051e-02
1.191093282374587614e-01
-1.862818616019442375e-01
1.424297290054678949e-02
1.837028549072635686e-01
1.431118972007411339e-01
2.937229672740913622e-01
1.983064389624824841e-01
7.321544085650016909e-02
-7.533205415983414976e-01
-5.699074687875666650e-02
4.271236913094526022e-01
-1.719224410656619850e-01
-1.181070148755471449e-01
1.077357970352323668e-01
-8.108993392460938851e-03
1.578560456950767188e-01
-9.509044691844506514e-02
2.453076232584059102e-01
-2.074377092502814046e-01
-2.639891663116056275e-01
3.732605085197538558e-02
2.818988764133185110e-01
-3.384195406927558714e-01
3.984212800288398915e-02
3.890943915775391115e-01
-3.463752119047456834e-01
2.422567538211581328e-01
1.362402893147477388e-02
1.052932082311915790e-01
1.567789773713893775e-01
4.816946280774174749e-01
-3.847948465885817765e-02
-3.180866216567193594e-01
3.354760027852694559e-01
5.389360125529442380e-02
-1.972076851580212287e-02
-5.009348678250726827e-01
-3.133114624072023124e-01
-2.139425756713647098e-01
-1.402293443268174539e-02
6.996101892918010767e-01
-5.608937893712369060e-01
-2.347237153078403360e-01
2.511916165919307262e-02
-9.121686008778341626e-02
-3.782295000565683574e-01
7.860823355878342189e-02
-3.859694143369884478e-01
2.394126502980712112e-01
-2.607618903125044629e-01
3.770003019181481646e-02
-3.069080205087538205e-01
3.411795214046545177e-01
-7.175895672481266141e-01
-1.986002965355472272e-01
-1.332014189429413797e-01
-3.942747978113589347e-02
2.775625947137276284e-01
-4.400416043623415208e-01
2.631277538377811420e-01
-2.408355995252760562e-01
7.459031374701925732e-02
1.617388509157290377e-01
-1.743362569447306498e-01
-1.141858411258167422e-01
-3.387093285394324194e-01
-2.153344555186813558e-01
-5.401449673777671684e-03
-5.855113323815133719e-02
2.553841772709673497e-01
3.997404483126846264e-01
9.540193045183778531e-02
-3.345368891734161743e-01
-4.214263784222473941e-01
1.170956236804608919e-01
-1.434931607433029971e-02
3.173678180222000433e-02
-1.849124167650029529e-02
7.719390438521973874e-02
-1.681773799915013690e-02
8.448181540482910257e-02
-3.834624232469174276e-01
-1.198324254872520506e-01
-3.562023889785284059e-01
-1.987267100610128068e-02
-1.330767797504221750e-01
6.499707617209750099e-01
-7.671888968615696303e-02
2.223275329000676814e-01
-2.134368474298934115e-01
-6.522546057207108394e-02
4.643410940644646656e-01
-1.104968364592453373e-01
4.589496583852159528e-02
1.845351212121092987e-01
-2.186650282392375300e-01
-1.925485531862228816e-01
-7.314162795494168201e-02
-3.017096001331264765e-01
2.666533462369662932e-01
-5.935698371789630556e-01
6.170907713777761261e-01
3.142558681989292002e-01
-7.507235242367847616e-02
-3.571348522373855583e-01
-1.069117341104098839e-01
2.724801468102328594e-01
5.060783264023779315e-01
-1.193459354430384256e-01
5.866580898370205716e-02
1.269240174609794214e-01
-8.124255633326658843e-02
-6.374517313592807932e-01
1.005492213685229008e-01
2.311726419912792929e-01
-4.864849234794114963e-02
2.373301663730451039e-01
1.635325037481198951e-01
