-1.282861905552019066e-01
-3.323728554829725734e-01
-2.321096169151432576e-01
1.585855194002594101e-02
2.451499394548583011e-01
-9.553804472829335870e-02
1.549584721939010201e-01
1.658674357591952420e-01
2.146615061585918083e-01
-3.603222561934900647e-01
8.372299821240553053e-02
-4.809272180049151135e-02
5.301589165244335877e-01
2.710180962929057413e-01
-1.071943369449679523e-01
5.304998986862347055e-02
-1.655610839109946109e-01
6.251220477037050527e-01
-4.605983935974168331e-01
-9.175904694022986308e-02
-3.233353026372569605e-01
3.227348800320757882e-01
-3.975073015975542634e-01
-6.990276431162444348e-01
-8.838881613491963996e-02
1.662768068605183502e-01
4.131863577590753622e-01
9.978204453925160113e-04
-5.699853317242800643e-02
2.305129297845461833e-01
5.427065569884882007e-02
-2.467736980031770277e-01
-2.821154683069046487e-02
-1.196682290551308869e-01
-5.858654198929225815e-02
-1.363563284212147564e-01
5.430152987332039771e-01
-1.540503703135877034e-01
-3.271807471349778562e-01
-1.206496385185548970e-01
3.380147127166384102e-01
-2.547020814256391041e-01
3.927624663900707302e-01
3.160260219416090588e-01
8.719281512074415763e-02
-1.263272521966677941e-01
-2.367914596906838323e-02
-1.845736467006444947e-01
-1.501486483540514227e-01
9.217669398712856343e-02
9.971334623380910533e-02
-2.422532909882366137e-01
4.349977797224414133e-01
5.535865568957385463e-01
-1.471941379423030438e-01
3.765768320188725427e-01
2.975025803495672250e-01
1.012174846167178538e-01
2.583019859310524691e-01
4.578710032720608725e-01
1.129182961371074934e-01
-1.085440533810737157e-01
2.353082484734671798e-01
-4.362613288571016157e-01
3.435126878977772247e-01
-5.720789420269146719e-01
-1.183182103016998665e-01
-1.984374010376681319e-01
-4.029605437756955122e-01
1.577094119084481577e-02
-3.666015005862848786e-01
1.154083821656815140e-01
2.913652852906952195e-01
8.101383618346069682e-02
1.004524804411364991e-01
-4.141418960447488251e-01
-2.737353116281226462e-01
1.000000000000000000e+00
1.328839659029605602e-01
-3.844346471693261824e-01
1.833605940101886433e-01
-1.917690469855546920e-01
-9.316692947514816636e-02
2.097252371745035593e-01
8.132038018288557935e-02
-9.907379361065210555e-02
4.709832768123639601e-02
6.661738021988534708e-01
-1.104336634708518866e-01
2.929502115765442727e-01
2.215543365768255224e-01
-1.079754085389660057e-01
3.412670134388751664e-01
-1.827174570813440979e-01
4.720527853007683849e-01
3.379345746207473855e-02
-1.541669389936357604e-01
-4.365543447001425381e-01
1.474304945657111399e-01
1.634315309672310923e-01
-5.478033716408165638e-02
-3.764595688585723465e-01
2.086676735100940483e-01
4.602042635956034022e-01
4.143261920760280548e-01
-3.850526836881192350e-01
-2.745976415425399053e-01
-5.526409270924288464e-01
-2.251254066129373677e-01
7.968484177284110292e-02
1.431193110535562973e-01
1.734620472590625850e-01
-2.614456487741774818e-02
-1.820294308779907555e-01
7.960314150247198295e-02
5.527142976067738189e-01
-4.884084219518131098e-01
3.663068187483594085e-01
-2.852260039119896007e-01
-5.021050791434481519e-01
-1.840535524044673854e-01
-9.940529182121916885e-02
-3.813132354487359099e-01
1.623256000817226152e-02
-4.178041738333416744e-01
3.023233017842741899e-01
1.818533530008077659e-01
-3.618365350033557384e-03
6.495945225104575449e-02
4.609570547835744048e-01
-7.537614586097420369e-03
4.502083812930138262e-01
-1.963682521172393225e-01
-2.533706947103913643e-01
-2.839483566404229498e-01
2.493436119194159528e-01
-6.755644840330462531e-01
2.260952506066125564e-02
-1.161022906903900753e-01
-6.620041217426879399e-02
-1.132414530258318008e-01
3.949188320607204816e-01
4.238725495789105180e-01
-4.258946705043256120e-01
1.925431281839723799e-02
5.897881510876566008e-02
1.738846647532477918e-01
5.687232004551186909e-02
2.544060902491241394e-01
3.699408158129967039e-01
5.897255207791952947e-02
2.625419486518501544e-01
7.934769166534851037e-02
-3.583271466091703713e-03
1.154908534251500168e-01
4.793546902352780470e-01
6.297893213988379202e-01
-8.049654973534471625e-02
7.664955229140442416e-02
2.423915354704105629e-01
3.975273479034811125e-02
-4.330641513115842667e-01
7.946800868568666409e-01
-2.256393035850089157e-01
2.300985287554139780e-01
1.586451515001092993e-01
5.164109451657864502e-01
3.911963984554239077e-02
1.125758764614398222e-01
-2.064427872172169276e-01
1.451603892207997404e-01
2.292056501420811077e-01
2.378688437096648511e-01
-4.989383963891821927e-02
-1.252632147721971789e-01
1.722045583899719234e-01
-3.043373849381106888e-01
-1.140508346583018473e-01
-2.889055815500302660e-01
-1.208177703498579808e-01
-2.692928956904376211e-02
-5.598555528109127044e-01
1.505046002358418900e-01
-1.742133488408943720e-01
1.065494545535659032e-01
-3.532287373227987470e-01
2.625241433188776896e-01
-1.909595717438493934e-01
3.126233061711173877e-01
-3.130177784250746664e-01
7.140245286025291571e-02
-6.380322094954145318e-02
2.005560177862487081e-01
3.408811166263810977e-01
3.753672210132352055e-02
-4.457133576100407888e-04
-1.404565766053178233e-01
2.161667813980904518e-01
-2.513504721186870725e-02
-2.283427639770145290e-01
-2.528474112083413106e-01
-5.630106882600303120e-01
5.216342808283105370e-01
6.406984901760418571e-01
9.423872230017216189e-01
2.093915976719293581e-01
-1.342807118609928574e-01
-5.780938362580632928e-02
4.090956027032655595e-01
2.922943432076136050e-01
8.368278139673208937e-02
-1.181404602487285821e-01
5.542155371006449727e-01
3.576385657434007909e-02
-1.195348411929660765e-01
5.748499908540834896e-02
2.047321034651576610e-01
-2.586558775835037793e-01
5.920464877885255744e-02
3.814187715138546153e-01
3.299099855010803606e-02
-2.033869088778423040e-01
4.746716587702293211e-02
2.002964946522859946e-01
-5.683008209455635805e-03
-3.654409846413332885e-01
7.864011447747824846e-02
-2.858409812509108416e-01
2.894128367073128261e-01
6.195470098368895812e-02
-1.067502131326845960e-01
-3.874659720810265662e-01
2.292953462924110161e-02
1.606429273920265688e-01
-1.355535322728156911e-01
-7.452947263396464406e-02
-3.317252432932480954e-01
8.260410613299400129e-02
-1.313430822121449681e-01
5.161470375671982636e-01
3.115070241029835318e-01
-2.614103820664641642e-01
-1.525897822296312933e-01
-4.322905974736592771e-01
2.173191273814921443e-01
2.036794988912847271e-01
-1.499513572422154772e-01
-1.809959812038457738e-01
-3.856156074262025862e-02
-2.421054504602213331e-01
-3.070633968127705615e-01
-1.544398856789769570e-01
3.788034833093061882e-01
-6.953332184609464783e-02
1.355980557366270045e-01
-3.370881263373474157e-01
-3.221470846583184833e-01
-7.203293390418218090e-02
1.961212753600388436e-01
-8.690644069951146411e-02
-2.820247747720885378e-01
4.705912372382907161e-01
-1.290349739868187351e-01
6.728644724365831498e-02
7.616723139205135162e-02
