-4.075976497970837387e-01
-4.336830238154950057e-01
4.029916953649317346e-01
-1.807228631652431916e-01
2.743905168772931558e-01
3.767408825143693241e-01
-3.352388571082204338e-02
8.061925098757701802e-01
-1.250165221974788021e-01
2.912369308963125847e-01
-4.424650298021660655e-01
3.543575903540180927e-01
2.810982964205751000e-01
-2.651501246011224722e-01
4.044596116817991693e-01
-2.146940920741018111e-01
-4.586569163393185433e-01
5.994118351267576639e-01
3.284027166053192226e-01
-2.674270469046702847e-01
2.887298333500363801e-01
7.915052020218543705e-02
-6.354854117723197637e-01
-9.184311971944017494e-02
1.351419820522801463e-01
-4.672689372980628475e-01
1.932957807631463243e-01
-4.094773115185638690e-01
2.086875446835043391e-01
2.060269888850162767e-01
-4.522175656195355220e-01
-4.892972531986468643e-01
8.629143723433473079e-02
1.638063999838303142e-01
-6.375609005918572714e-02
1.797279332009096009e-01
-1.561497854265967433e-01
1.494073478084448070e-01
1.842465252826442634e-01
2.151329754229125424e-01
-1.179227117165367461e-01
6.875224651764468842e-01
-1.115296596495647385e-01
1.370518553497829528e-01
-1.274463296967653092e-01
8.134047143662224977e-02
-6.673240904781468918e-02
-1.407257335504397966e-01
9.709544494122987479e-02
1.513069473082362393e-01
-3.977709520924319064e-02
6.175861323520048102e-02
-1.763269851825560453e-01
-2.682593905561290182e-01
-1.192593693339600303e-01
-5.789883781113181610e-02
-4.452901201575342610e-02
8.592868652652378703e-02
2.727749873852746698e-01
3.297853514117767698e-02
1.591258633211032614e-01
1.794826120980822781e-01
-7.246139904055417733e-03
8.906651674591196943e-02
8.723209624722632061e-01
-3.684634683762216811e-01
9.520571913025750732e-02
-1.783884898382326611e-01
-2.898038902469600164e-01
1.964703092129853335e-01
-4.441034011008541116e-01
-1.512117092803361429e-01
1.877266146179541739e-01
-2.158031374656148305e-01
8.028583625683403946e-02
-3.929219065291790769e-01
3.517630455151438129e-03
-4.299587572568610017e-01
7.317004274659900664e-01
-6.022283050988262998e-01
-9.220012174399634663e-02
2.832415662348797825e-01
-3.124652730935369854e-02
-2.243081678640383991e-01
2.481714514047950737e-01
2.913225134430730973e-02
1.009023892151876892e-02
6.293942720760771214e-01
-2.428675493717695477e-01
7.199558047672320604e-02
1.087965602011242705e-01
-4.228769190044581738e-01
-5.347812802775717689e-01
7.805974712519007930e-02
5.634136179812005985e-01
-7.897301635745833381e-02
-5.516927554032508008e-01
5.975043981470680166e-01
-6.793575325026673939e-02
1.637404551513091111e-01
1.100629457401940542e-01
6.563359385209972807e-02
-3.149567853711269794e-01
2.294847025760931858e-01
-1.385534985286755449e-01
5.855231715043668350e-02
-1.271840555723677546e-01
-3.909663413575397151e-01
1.943761261757810319e-02
1.665285098890104953e-01
-2.659761857439508770e-01
-2.117989746367932025e-01
2.404108178173872679e-01
-8.137887402936234624e-03
-2.196752472190884875e-01
7.322762556210148099e-02
8.043860856960464295e-03
-3.897703944083433236e-01
3.228573804546646664e-01
2.114725989689159313e-01
1.053190751486579452e-01
-5.214025389980773140e-01
1.395874732855451328e-01
7.616345986909280052e-02
1.931608835031455862e-01
-2.657025613805203967e-01
-2.474531992553968829e-01
-3.100348201110587065e-01
6.348485453283811975e-01
-7.938621980324067628e-02
-4.150953530282368575e-01
1.351432770695797925e-01
-5.555736124719018454e-02
-4.498739911626659094e-01
-3.719128036923141645e-01
-8.627518315596545417e-02
-8.404321551999510698e-02
-3.581178167091551567e-01
-2.049318261087315074e-01
6.516850119591271161e-03
1.817810142378837590e-01
6.151299226605554393e-01
1.007317213437164821e-01
-2.980136864460885548e-01
-4.789772750741370100e-01
8.093282756950007095e-02
-1.952428435708472576e-01
-1.303071779626649995e-01
3.157576468192642427e-02
-4.153465427312049152e-01
-3.817438160280611521e-03
2.200417626503727020e-01
2.240910323926322695e-02
5.793337174454455951e-01
2.170069964117807629e-02
1.496607412994034603e-01
-3.023866964412514347e-01
-1.503539064851077967e-01
-1.812262991017773439e-01
8.364511831337141656e-02
-3.340716377591064490e-02
-2.244626948209896000e-01
3.520213007296227326e-01
1.277890867934026176e-01
-1.273350049773148418e-01
-1.051043456359626038e-01
-5.572254006690191552e-01
-5.089507225345883956e-01
2.197373371757573579e-01
-5.567690710457067205e-01
4.294469531466137968e-01
-6.566610688500323922e-02
-5.284710116448763095e-01
-8.059760380685686287e-02
-7.108963765092212173e-01
-5.998787357482547877e-01
-2.898975704950643162e-01
-1.715083475654426148e-01
-2.542430606721358122e-01
-4.032520390456952319e-01
8.181368486502599291e-02
2.240572151779977872e-02
8.482754261557991227e-02
3.813131986366334325e-01
3.558910669330886400e-01
2.193606790656749128e-01
-9.023328102946956419e-02
-1.134630045759010691e-01
4.142981578368352680e-01
1.612348568096377832e-01
-5.251821956983114825e-01
2.196437630539289088e-01
-2.173075338008574331e-01
1.934442318028026520e-01
3.190355611389868451e-01
-1.620735625237775535e-01
-1.596980809301558335e-01
1.016446648173909284e-01
6.710506684566339142e-02
-4.124682266891145921e-01
6.111313975372660856e-01
-3.449938235520688679e-01
-1.477693622087086212e-01
-2.051135100626045194e-03
-4.234763228504800359e-01
9.650661589188382072e-02
-2.626007088411806967e-01
-1.711206607190555729e-01
1.739247248896490794e-01
5.394265847887256271e-01
1.125271699167455230e-01
-6.496615080819274635e-01
4.660133170837172933e-01
4.490376589177770827e-01
-2.115444245442348395e-02
-4.201367792042837862e-02
-2.350990974164830494e-01
1.097436234069360944e-01
8.424209589010327182e-02
1.549498908139247955e-01
-1.772336457501267060e-01
-1.643750690484521715e-01
4.772706468296547544e-02
2.580481197460625653e-01
7.253702455063106231e-04
-2.735789003290442500e-01
1.005093732315441163e-01
-7.464389530830531916e-01
6.150177909479809246e-01
-5.050568036927748777e-02
4.710538567959088319e-01
-3.733645270218685641e-01
-5.353597254580511056e-01
1.194859190880289135e-01
6.117200918568550527e-01
4.620469881968843062e-02
3.937593155443635529e-01
-1.305780336061397040e-01
1.199539344295162402e-01
8.868133789895495112e-02
-1.455461688789519148e-01
-1.131508816318703703e-01
2.220215013589268427e-01
-1.680765517556460920e-01
-6.301349264589824195e-02
-4.633353076032066531e-02
8.640645564063904882e-02
-1.464942911466334376e-03
-5.716828990722383486e-02
-3.627186360463088288e-01
3.617029219508236665e-02
-1.340229491574909115e-01
-2.994633129190577003e-01
9.256182768083327794e-02
-7.660600179475628158e-02
2.258358032960501027e-01
2.144145303922832535e-01
-2.947697329933245403e-01
6.620108795080671682e-02
1.427492532396558433e-01
-2.347284223632409850e-01
1.721991299546874604e-02
-4.822111672274269623e-01
6.157227025450365959e-02
1.421448069457849628e-01
