6.370401100590979970e-01
3.710299176258248510e-02
2.833457817723584737e-01
5.190836369286010443e-01
2.450708240726565124e-02
-9.403376276853894766e-02
-1.819905289396578363e-01
1.873729369089653374e-01
-3.361351386778235056e-02
-2.010696793432650148e-02
-1.544041029679987520e-01
3.829631371930521389e-01
-1.449566394314356910e-01
-3.212387681260701067e-01
2.995284163026918495e-02
2.640343872408484546e-02
5.376286140407375846e-01
1.083222506824387116e-01
8.586457002395192148e-03
5.467685217370672479e-01
-2.606883316705025377e-01
-5.428841469641191297e-01
3.551560140325992210e-01
-8.032934701377766884e-02
-3.543620200602990433e-01
1.364544666710614529e-01
-1.067195119004957227e-02
3.416409340093497504e-01
-3.210321218383268005e-01
1.000320179109017160e-01
1.933572291747664429e-01
-3.133069435284870918e-01
6.802624342603438845e-03
-3.469926151960487370e-01
-1.165776928091118991e-01
4.970220158162105273e-01
-1.522426941069604245e-01
8.922499120247102955e-02
8.172499963120565258e-01
1.018372105239870040e-01
2.235577419030567448e-01
1.116845767636604064e-01
-2.391286798645760048e-01
-4.826945922134511791e-01
6.034928671229236596e-02
-6.292682354666646605e-01
3.843286532867329353e-01
-8.485339387077099615e-02
-3.194131126642755364e-02
-7.708828260822406242e-02
-1.868143882130655076e-01
-5.518651957957089460e-02
2.289160218024393068e-01
4.188224658284810942e-01
3.658735638187763373e-01
2.007103858881909009e-01
-3.749211704358518249e-01
9.165439458561969177e-02
-2.021026420056674378e-01
-3.610357633402802580e-02
-1.104026519507476933e-01
2.238003645015927690e-02
3.920363052695209904e-01
1.998514872290078070e-01
1.118551665421440577e-01
1.933175686122460268e-01
-1.933462535996977594e-01
-1.689646521309363103e-01
-6.574076296645907647e-01
8.651813377314880871e-01
-3.488373753803904187e-03
5.189000484575038985e-02
-2.991720207913592389e-01
-1.901711007535428766e-01
-1.632867115669142666e-01
-4.424412108158991552e-01
4.210588046392281236e-01
-2.827905054162707654e-01
-9.022696423126723431e-02
1.261173304978303045e-01
6.185904667646831001e-01
4.136766804901983452e-01
-2.611021429643102243e-01
2.180780328146087466e-01
-3.910999539674261949e-03
4.427164946329525258e-02
-7.328438552298292830e-02
1.000000000000000000e+00
-3.457021075876266503e-01
-5.412584304966491233e-01
-3.804633708097836242e-02
-3.919079460909213330e-01
3.627788080014511252e-01
3.152533538778544142e-01
1.556392139345393610e-01
-1.669627499345717470e-02
-5.761793018074383710e-01
8.073680489039412878e-02
-2.640665332581531577e-01
-1.273630219448913248e-01
-1.203637300556394535e-01
-9.500008941658988348e-02
-6.447032808905553969e-01
1.676711508834324293e-01
5.275447589356542233e-01
-1.793704989407226835e-01
1.581833679609717935e-01
-2.189568540584041212e-01
-6.186737618936407612e-01
-2.257759788024223113e-01
-2.082182658105580578e-02
-4.245463714142205108e-02
-2.049961977598609986e-01
-4.300343810952313994e-01
8.418787888887574455e-02
2.341813418173384065e-01
5.143939987931330782e-01
3.878359013923960985e-01
6.076029028693583633e-01
-2.730937097266356028e-01
5.397452398319142752e-02
3.312696280344100686e-01
-4.167298417229374774e-01
5.014387621119245630e-02
1.315558417904560962e-01
-8.825801655304935101e-02
-2.479515854428024635e-01
1.928818297828192030e-01
2.345670727212539330e-01
1.270715780640667703e-01
6.077221825603953409e-01
4.031504829871034867e-01
1.190638456123175731e-01
-5.830660517041248436e-01
4.046439802657682272e-02
9.421628732414569218e-02
1.100391087864301121e-02
1.444009768356978030e-01
1.522752093421306518e-01
3.878649877196836959e-01
-3.356165072838523389e-01
1.177985887953317268e-02
2.930524775385775493e-01
-4.277601834305925221e-01
-2.915678377874189042e-01
-3.884966134823081285e-02
-1.802728110554871477e-01
3.011139730915269874e-01
1.006189224082291306e-01
2.470596050015183009e-01
-2.787450866498211721e-01
5.759547631195952588e-01
4.366744037764794806e-01
-3.108394313701411948e-01
5.762588826283798066e-02
-2.557075440248716136e-01
4.597388905779581370e-02
-5.826917928724486551e-01
2.347506171871613801e-03
4.739397864211004618e-01
-3.516801685157899815e-01
-3.770124337936824888e-01
1.168432346867895183e-01
3.811863985528582410e-01
-1.120346813499957933e-01
-2.874188146605115290e-02
3.635398999474105941e-01
5.884791722280804382e-01
3.869575670555883140e-01
1.092473312860217233e-01
-3.986368744470852876e-02
8.909263527142087247e-01
-2.277414933402268638e-01
2.689431244690608236e-01
5.824338683102074643e-02
3.120309340020903377e-02
4.775731353900426052e-02
4.497119957866945184e-01
2.294517187430352712e-01
4.480055403927190039e-01
4.814021203507590219e-01
-4.099523450091615562e-01
-1.448921653253503194e-01
-1.751248644692826872e-01
4.162047212780510819e-01
5.641652776249771184e-02
3.846925470447521977e-01
-3.192161883279065471e-01
1.389801898359691035e-01
6.235894961728722929e-01
-5.889266108624030549e-02
-2.231674274593368756e-01
2.947282857489857966e-01
-2.950478173464969878e-01
3.851174771034260313e-01
1.615297743516876106e-02
4.049864092010637684e-01
1.037827567545524104e-01
-9.499492572631060283e-02
-1.983588272205730751e-01
6.678872416470181539e-02
-5.976408243872226578e-01
-9.848958934828594414e-03
6.017571743514023297e-02
-1.871027115343459890e-02
3.930154153095565261e-01
4.055513973611778455e-01
-1.442437440431705575e-01
6.210997815307937042e-01
-2.100447357238506008e-01
-2.700297081572334279e-01
-4.084222320236769455e-01
-1.042829688833675772e-01
-4.250259853997723214e-01
4.106675263891737537e-01
-1.574403327475932535e-01
-6.594422762038290031e-01
6.280745826207227711e-02
4.367394672659269395e-01
3.677588262210333969e-01
-7.654943463876608123e-02
8.483527538998950623e-01
3.412601191418652979e-02
-4.917800601104574398e-01
1.758582671931688268e-01
-4.036509365267667016e-01
2.839454191527499560e-01
3.623738111215354385e-01
-3.917671097275028935e-01
-2.102761649502001839e-01
8.856163646338230389e-02
3.026862077064397250e-01
1.502440484334336378e-03
-5.576588108955411460e-01
2.985716719111201622e-01
-1.043810446205632458e-01
1.242611785867132612e-01
6.436938240290057678e-01
5.534609424731859462e-02
3.963389828488244615e-01
1.398098583063991096e-01
-9.891571862866060938e-02
-4.590471522532247883e-01
2.675945760764439352e-01
-3.919338333455827939e-01
-1.230452008249257601e-01
-1.522805015964435460e-01
4.612198007133248567e-01
8.700089868199306631e-01
4.760402351307598257e-01
-1.300965752424140254e-01
-2.227323421949681248e-01
-1.516691129223906309e-01
1.977357765118812616e-01
3.412767838999647418e-01
9.399686496479024711e-02
-4.751230859554934072e-01
-4.101660527986894511e-01
-2.740310798812761184e-01
4.614103352254839141e-01
2.396960559672933755e-01
1.853789514742108235e-01
2.212967228426177269e-01
4.871332249183863566e-02
-7.135693353403257944e-02
