6.423327164907753628e-02
5.498269121490121369e-01
7.062824988248228575e-02
7.187263505296626054e-01
-3.345363217292686708e-01
-1.379800954247844547e-01
-4.738112273698165122e-01
8.502695927607317739e-02
-4.710593857784885485e-01
6.844225090780796661e-01
-1.191062696072356236e-01
-4.015485251146582169e-01
-1.968969732178339205e-01
-3.225552852255213487e-01
-5.858134184929182364e-01
-8.466427647396229661e-02
-3.914078059696764478e-01
3.394105367099151116e-01
3.161207450887653092e-01
1.332478031170371280e-01
1.626121233941917876e-01
1.392878942423613764e-01
-4.353546730968573253e-01
-1.229099553876880357e-01
4.777114651084518604e-01
-2.870322589625319276e-01
1.153439161708686156e-01
-1.000955840428808391e-01
-7.376224933993992539e-02
-8.556013421683253406e-02
-2.184114028667673291e-01
1.046091969869967359e-01
5.850594245053030162e-01
2.758353158863829924e-01
1.352464021492734148e-01
3.748755153384763367e-02
1.016958847673408439e-01
-1.439366951076621604e-01
-1.186459219577279400e-01
2.297292806042044444e-01
-3.355365326169432727e-01
-3.150352688711638427e-01
4.368146476137161338e-01
5.024656538605027922e-01
1.051753117917070962e-01
8.118862259071617585e-03
-1.589843735680849524e-01
-3.130251710801947862e-01
-1.893120576002800537e-01
-1.907921976408127607e-01
3.330518056302507746e-01
-2.064142471303930249e-01
-9.171321205527996345e-02
-4.101879853457570668e-01
2.755775662575504215e-01
2.276855134681166903e-01
8.229891263279594249e-02
2.110677187293368562e-01
-1.064234288547875051e-01
-3.669448714595112682e-01
3.294442912024267978e-01
3.504449726725494818e-01
4.716307242889827278e-01
-1.798822042637514013e-03
-6.395328682937495568e-02
-1.242917949370753866e-02
7.016566782263783386e-01
-6.710900823553325734e-02
-2.554181181398035849e-01
2.463090151801814454e-01
-2.498972710276151366e-01
-8.540097385678686592e-01
-1.311141875414484348e-01
-2.358196402148803397e-02
3.509908605724222919e-01
2.776830177486181994e-01
-2.534203838520123764e-01
-7.339038488580648112e-01
-1.406622344791737256e-01
8.802604910786434589e-01
-1.227784668577588667e-01
-2.351897755086298780e-01
-1.234713017015277997e-01
-1.788276460246083777e-01
4.898342324283793126e-01
1.460768728707886044e-01
-1.612528808361376187e-01
-4.188962357325795582e-01
1.240824931764554079e-01
-2.971484738302822559e-01
-2.042389811958627843e-01
-2.279890929365609858e-02
7.870888284796526135e-02
2.070234260056621478e-01
-4.567134102290263398e-01
4.470148563065475256e-01
5.687613171384149346e-01
1.869021644589057007e-01
3.316912162818703158e-01
3.048113483931247925e-01
2.526525370795010272e-01
-3.504364081326651337e-01
6.060214278768587537e-01
1.612314503138510269e-01
3.523394072525586340e-01
-1.648909359549033393e-01
1.348301002186084174e-01
-3.548773520026023420e-01
-2.383046074157564032e-01
1.257807323123796839e-01
2.478686500620889410e-01
6.116279886726637416e-02
-8.604511328672338755e-02
1.857947619527018368e-01
1.004598380791885126e-01
4.681590192658647287e-01
1.874579854092130182e-01
4.638522708630626185e-02
1.171727941396244477e-01
2.507144647270674875e-01
2.136053045094881905e-02
-2.785430628756564442e-01
1.481084259313028839e-01
5.208049262671974461e-02
-3.352661504300993855e-02
-1.159232474904006577e-01
-4.140909230940691965e-01
7.624522744256934624e-03
3.380310381050781188e-01
3.651005552148063327e-01
3.409933454607947390e-01
6.131832202137967730e-02
-7.567631387876429250e-02
-2.433330879353416965e-01
-1.000698304716614029e-01
7.158536511133912761e-01
4.382464754497141790e-01
-7.872666497083745385e-02
3.198711029420601287e-02
1.770533934586451764e-03
-3.771239565428255447e-01
2.176742224625029254e-01
1.752106482604006421e-01
2.228272632378357904e-02
8.561709935407944838e-02
-3.428966083194058823e-01
2.710627660110212500e-01
1.165191884656868182e-01
-1.338364524718152204e-01
6.789457141713418908e-02
-1.262097272394922531e-01
-2.985076616371404867e-01
-4.809283677612979924e-01
2.538707904782506186e-01
-1.050111247995332148e-01
-2.181534014654280262e-01
3.622752084093104896e-01
-9.656864973239699668e-02
4.774032098009041714e-01
2.327631166341004032e-01
4.154213696857071703e-02
-1.304414798760126781e-01
-3.889866815234546138e-01
5.644230539560269877e-01
2.394496422588416884e-01
-1.006279436960203499e-01
7.501090452578455803e-02
2.060939116139960114e-01
2.999836495973088324e-01
9.168887864764260764e-02
-1.000807350056939354e-01
8.289214134716950400e-02
-2.497503922903738793e-01
2.373914857641568066e-01
-1.526152841770234414e-01
-2.317032738919642398e-01
8.659974344748214148e-02
-5.427897274966441143e-01
5.154862811082367574e-02
-1.829714500490279838e-01
-1.914397003982257484e-01
-2.466748323874838889e-01
-1.444038772115871783e-01
-6.930233163493905446e-02
1.673383992380930163e-01
-4.281516583930115583e-01
-3.169426976620083602e-02
-1.171128229442406077e-01
-4.236259314483329375e-01
7.790302418909501869e-02
1.748468571720853126e-01
-1.561373009063437844e-01
1.651928751377749749e-01
-1.257183196497504429e-01
-1.076966551949376100e-01
-1.554903601242100808e-01
2.648784088198939402e-01
1.566344634758644883e-01
1.565966661932301496e-01
6.979626081727722253e-01
-1.810977442326085762e-01
7.561708302809186898e-04
-2.660042413525028904e-01
-9.204579797230789673e-01
-1.230071601857594676e-01
7.423682425085220693e-02
-2.820330663681756000e-01
-4.959048301495873057e-01
-3.056418169379007330e-03
-7.720382842848362570e-02
-4.450407244341695878e-01
-2.868288884653605875e-01
-4.587309682217387968e-02
-8.446337951882381886e-03
2.116890510742891196e-01
-2.027921504671767738e-01
-1.422843515412065551e-01
-2.456446269125855397e-01
-7.907180439623061330e-02
4.916929985550488325e-01
-4.198705565974499704e-02
-3.196466430292262406e-01
-7.617240848938953979e-02
-3.421565601266056689e-01
3.523299438536591777e-01
2.693670979023461975e-01
-1.673099737952902510e-01
-1.164047402436272638e-01
-1.051909147188411359e-01
2.552955661496326134e-01
-1.963230239224172669e-01
2.115247625412271931e-02
-4.991060254215125280e-02
-5.787742719379481704e-01
7.145460374199358311e-01
-1.359841134335257329e-01
4.334191794094808259e-01
5.224990917608387520e-01
8.611267313559144154e-02
-2.017400573501852978e-01
-9.345450280783078323e-02
-2.304627765114932725e-01
2.236545475032943320e-01
5.609475497801320598e-01
-3.126712502391825188e-01
1.628533730216197017e-01
-1.112920663014877742e-01
-1.985098642185186002e-01
8.962412829807026027e-01
2.210659869836202884e-01
-2.541346494774583964e-01
-1.437598128606066006e-01
3.240431003381092911e-01
5.950571136288340668e-02
1.980937507684859267e-01
5.521663498392576780e-02
2.141575432271799750e-01
-1.443548231614325827e-01
1.813879078258508193e-01
-5.817162780738611705e-01
-5.489084266081987185e-01
-8.009598316907708127e-02
2.288333362901819601e-01
5.700316044922774106e-01
-4.984049517209800974e-03
