3.079602223162713481e-01
-6.978047993686299355e-01
1.928192952999878418e-01
-7.862903631579376551e-02
1.523557064800755978e-01
-1.790765317579177673e-01
-6.789491017885969093e-01
-2.724593294783487774e-01
2.931929436780816856e-01
2.578211980374805479e-01
1.693737288065106927e-01
6.221373146467684689e-01
-3.971188633231625964e-01
-1.023041409284129177e-01
-4.182795635630868758e-01
-4.216228106769768225e-01
2.516908044956580465e-02
-3.478489483867910348e-01
-4.163412899902801945e-01
-7.070603893880170743e-01
-2.793882904945828027e-01
4.473341190881607310e-01
6.300098460214911822e-02
-5.144626431976015990e-01
-2.052027739354918279e-01
1.635394970557992045e-01
-4.831706973798779309e-02
7.006303211986255122e-03
-4.703423023846338702e-01
6.762030644249155120e-01
-9.466209876860004480e-03
-4.705332839155532687e-01
4.044053850219924695e-01
-1.352560191813826640e-01
-1.943601484008982416e-01
-2.311939061059475886e-01
2.795836444875542115e-02
6.145890255679915815e-03
-1.243313900098845515e-01
2.959677058024380303e-01
1.090854994817560542e-01
-4.561213846262571203e-01
3.123111038258422067e-01
3.751823913309417780e-01
6.634944560659319923e-02
4.532779327829646043e-02
8.569581516502546015e-02
2.128353074318428406e-01
-2.337171574018122311e-01
-2.964972536146062709e-01
-3.833877865878520391e-02
-5.053505959906741118e-01
-3.021029312529536770e-01
2.048164468743920996e-01
-7.658157358490500499e-01
-7.757530622835084877e-01
2.771990283872606264e-01
-2.980504476225345201e-01
-7.826532915250913880e-02
6.215986684585549787e-02
-1.700812258376938058e-01
-2.748572889582025502e-01
2.728580228080592085e-01
-2.626463840919018161e-02
2.884035522980705202e-01
6.057756156955412807e-01
-3.123925701746712025e-01
2.558685218774411907e-01
1.425392852996871240e-01
4.526623933411502154e-01
4.729518580052500393e-02
-1.654430885496484538e-01
6.414501886987744594e-01
-1.908662100348828550e-01
-5.565232822098978988e-03
1.505648165772733443e-02
-3.164789910432255771e-02
8.997064967506455957e-02
3.148025572427786689e-01
6.365107700544588853e-01
5.912651640222807981e-01
-4.179930098274414751e-01
-1.493785363529512855e-01
1.145847358768809637e-01
7.515516323004685362e-02
-1.880537184149994601e-01
3.145357053231314648e-01
3.705450187199869072e-01
1.028862937698609287e-01
5.589371817913998952e-02
-2.266252903279686315e-01
-2.190836761009774536e-01
3.397374084023101481e-01
2.108096375784751231e-01
3.194816875634067244e-01
-8.638005346430348286e-02
1.110113479595566666e-01
-1.790916872444959229e-01
5.411513793822018137e-01
2.756117771413236217e-01
-2.818008379988026432e-02
5.135811940010690524e-01
-2.149149841643500369e-01
3.811571124670119770e-02
2.398825565172776342e-01
3.641568268774569850e-01
1.812151473594862394e-01
-1.165441765168006155e-01
1.582959965355540954e-01
1.586429546981889260e-02
5.583807012118562341e-01
-7.289424514138622690e-01
-5.656273537887506614e-02
-2.110267597625957725e-01
-4.506145162592923858e-01
2.275207458688257856e-01
3.281839254441528686e-01
3.076313187857354636e-01
1.006759816098907745e-01
-3.912534856198142119e-01
1.571545657511767002e-01
-2.316479550672891630e-01
-1.603741392028141532e-01
-1.567321996424499153e-02
4.018977214923143970e-01
-7.501070622072861238e-02
6.944315710077858528e-02
2.584506659173915755e-01
-2.986401293725641781e-01
1.053360470883620836e-01
2.985159053186277681e-02
3.306622909608800120e-01
-4.088439036591346443e-01
-2.911943050522015630e-01
-1.441478919798976355e-01
1.609317375334675670e-01
-2.923018760561353624e-02
7.328590709980373208e-02
-1.053971781243564498e-01
2.892792059433623719e-01
-4.387780311378301490e-01
3.482421728586537202e-01
-2.007574438494276747e-01
1.695552608424315544e-01
2.513790624588536637e-01
-4.220651612177757084e-01
-1.898300172697485744e-01
1.468788025615869741e-01
6.757145022960052427e-02
-1.157067588053730389e-01
5.244695362068324540e-01
-1.932842245963626582e-01
-1.262803190068643722e-01
6.447790983135757159e-01
-9.790075185108537692e-02
-2.425685516147538523e-01
3.563634325804324737e-02
2.102220376624180376e-01
-1.559220477561095719e-01
-2.668434049180318235e-01
6.727245649722360943e-01
3.449936810377045582e-01
-7.681742551556744458e-02
-1.878972113551524714e-01
2.646785674680568468e-01
1.359743111138559113e-01
-3.139111964687146261e-01
-5.111732215284447989e-01
-1.157141925197518739e-01
-3.933405057090316181e-01
-2.230595685860700950e-01
4.627362807974499948e-01
-5.911074603384710580e-01
-5.578954875793236123e-01
-1.480140082728217954e-04
3.595798466978998853e-01
-2.968585944938569310e-01
-4.944262128070705531e-01
-7.361607280355828009e-02
-1.175111166625648039e-02
8.713198480799903001e-01
1.723843152638896703e-01
2.571326969766790094e-01
-6.481876255092298145e-01
1.841663305868536660e-01
-1.079143594323256627e-01
-3.502277089936702281e-01
3.604229766139434299e-02
-1.421250249596171245e-01
-6.519662353355524242e-01
-5.079273516367290853e-01
-3.263984817495910878e-02
-4.651583604564293317e-01
-6.159670376520468560e-01
-4.224309377416259892e-01
-2.345591034684967324e-01
6.068085768080964115e-01
-6.232595311995189347e-01
-6.737695928384560551e-01
-2.234022711399093197e-02
-4.463054080094372433e-01
3.335551021439174812e-01
4.250136189478192529e-03
9.702722327543575331e-02
9.406704370320964625e-02
-3.130624457912491998e-01
-1.582547036186397471e-01
4.737731023616092996e-01
3.428893165391586617e-01
2.186124497212815487e-01
-2.934926344132242626e-01
-5.195291164188031718e-01
8.156722562132584509e-01
5.701670544715938815e-01
8.530012680938711678e-02
-5.604651714051960276e-01
3.295914498698083728e-01
-6.451471357973748155e-03
-1.580833973952679439e-01
2.816051689047150974e-01
-3.584907621229349584e-01
1.980902992359473425e-02
1.316671996569884762e-01
3.257596614114132705e-01
2.600677774212734050e-01
-5.922722539990699087e-02
-1.848506793906753154e-01
1.830866823810751998e-01
-2.886986777194509579e-01
-2.553904400544327880e-01
-3.238100749019311442e-01
5.613077590615772605e-03
6.882363849466045513e-01
4.082007737940348546e-01
-3.032145103252643081e-01
-1.694311538349883156e-02
-1.548858307047578931e-01
2.140919924171419964e-01
-1.805227436619420353e-02
8.769653493713730485e-02
4.997312471694789759e-01
1.687351702271158993e-01
4.082254993763989592e-01
-5.456835220935463138e-02
7.484527771992840472e-01
-1.575534269372743101e-01
-7.052340507523785496e-01
6.357000687131565408e-01
-5.183943624065486810e-01
-6.093859160961896393e-01
-3.044262114340756109e-01
-6.329150149982755436e-02
5.263993366501336091e-01
2.032937859718908502e-01
2.810413470038408135e-01
-3.735312553506121569e-01
2.536587880212121671e-01
-4.845012918853328077e-01
6.092071267429086667e-01
-3.495032789298385678e-04
2.534132494193741536e-01
3.559599771389251877e-02
3.599708946568849766e-01
-2.603168534908773535e-01
-4.170014118732756070e-01
