2.547363732258996483e-01
3.429745677604270626e-01
-2.807841640889417456e-01
6.667784737811562057e-02
2.090238265439366971e-01
2.665962511487099396e-01
-8.223255093429202023e-02
-2.924408870807840288e-01
-1.539923962489493092e-01
2.652184184694720767e-02
6.641333539715378598e-02
1.963855810959261039e-01
-3.886004579107962820e-02
1.417997942247352927e-01
4.435057922163895827e-01
3.474774541997004973e-01
2.305523872143639963e-01
-4.041045650009534446e-02
-2.548781896328288776e-01
1.549748777634283869e-01
2.973693665135369035e-01
-1.828972829136125411e-01
2.140465903743894449e-01
2.380249104507774216e-01
9.567535301651440560e-02
9.497277206340794253e-02
5.822302581936299459e-01
-1.653943747672391440e-01
-6.743699219226761445e-03
3.965418641773724162e-02
6.298634428498404991e-02
-7.022919326459795691e-03
-1.423241324716155720e-01
-3.761174796698025791e-01
-8.534361384692973340e-02
3.567429773914216999e-03
4.715307555748442236e-02
4.425253793923418777e-01
3.729029485785523984e-02
1.859607255695457095e-01
-4.630693905917810937e-01
-3.574368376054773422e-01
-8.989431844277338823e-02
-3.630336419326241071e-01
-2.371482092690676557e-01
-5.528665487878470924e-02
-3.816637237738974009e-01
-2.477403397779755490e-01
-5.834681443831308822e-01
1.232004218730657803e-02
-1.244477029573799222e-02
5.368634550778833558e-01
2.191325560536025452e-01
2.339913849491530029e-01
4.668849909695145239e-01
-8.486640249793353519e-02
-1.000868287867625814e-02
-4.195778094565807970e-01
4.381264982551397180e-03
1.444722303858279322e-01
2.605447601810793601e-01
-1.270470087318173180e-01
-2.968348588480246297e-01
1.596725599752130131e-01
-2.176836537741438371e-01
7.808836994179295388e-02
4.569356761554704827e-01
2.756952341835564591e-01
4.170352885469282705e-02
-2.546909860114368040e-01
-2.815118672245656151e-01
1.994205709362064927e-01
-2.886164162973849368e-01
-1.680411420944414314e-01
1.432997061162076535e-01
-4.467213493892966542e-02
1.118789334543701247e-01
-8.442019002103702541e-02
-2.499581389376508422e-01
2.269459465523468722e-01
2.637614632926053582e-01
8.739938240010031167e-02
-2.617703542857232057e-01
1.581249089145192743e-01
-2.016846953831913924e-01
4.086233658381909634e-02
9.246122709860160604e-02
-9.488941780463608366e-02
2.825033704001243540e-01
4.545609787319779826e-01
1.454950452074521283e-01
2.163220525736558875e-01
-3.447185253793119686e-02
1.453801738206598471e-01
1.288160203872237841e-01
-1.043710883402682171e-01
-6.993997754726190286e-02
-1.036736963467734113e-01
-2.277616201829490150e-01
-7.371589189609338566e-02
4.130051928739917888e-01
-1.134610300159185625e-01
-1.496251805965451431e-01
-4.189894930500404624e-01
3.006858813272599851e-01
-2.955516430020184715e-01
-9.008522523614723165e-02
-6.028896066067648829e-02
2.017954481742531836e-01
-3.927665627987855235e-01
-6.181260969937951710e-01
2.852873123322637733e-02
-1.487261340208778926e-01
-3.826397335712881098e-01
-9.122132805286094215e-02
3.738008574213778634e-01
-3.607505224388113940e-01
-4.742820183184128235e-01
2.283770937670946966e-01
1.307999247892879802e-01
-4.747602416571249373e-01
2.838740037516606501e-02
3.117002782627699697e-01
-1.886614306585074063e-01
3.429705331783742314e-03
-3.191063586428952159e-01
-5.433948817854897806e-01
-5.465139000154153187e-02
7.225561502781260859e-02
-3.152096078035103166e-01
5.821517071562425372e-01
9.767587755522678591e-03
-1.295299121722943980e-01
-4.387699743898473836e-01
-1.829971870889476604e-01
1.127299634614342266e-01
-3.843144339088523931e-01
3.655362643558613955e-01
1.058232205747441923e-01
4.913261710047936992e-01
-3.245751321848076021e-01
4.132152545669990906e-01
6.793325794160610942e-02
7.675723362387192050e-02
-5.006776662383683602e-02
1.476178779986297152e-01
9.627186416753293063e-02
-3.942785873275982955e-01
5.764480345179522069e-02
2.454225847629000201e-01
-2.914607811769786005e-01
-2.372958232357399999e-01
2.304210253737885294e-01
9.155951976993303987e-02
-2.622069941781121072e-01
2.714697987925022704e-01
-1.251812696129476210e-01
-3.281056249649126344e-01
2.838202546081892708e-01
1.774559637461723405e-01
-2.632829062876919646e-01
1.503582378004222342e-01
-2.186769702616448985e-01
-5.350720625726490542e-01
2.705997806321770380e-02
-1.337982023711282720e-01
2.033095791652702600e-01
6.999820993730733465e-03
-4.114624391666124037e-01
4.818390264708519166e-02
3.238550399094154986e-01
-3.424776049807607969e-01
-7.238368654426993731e-02
6.502842123910754224e-02
6.434208794789210151e-01
1.245534959243997791e-01
-6.249989661916216521e-01
-1.183562029304549568e-01
-3.910248234063175565e-01
7.579029848847033957e-02
5.105528657002198489e-01
-2.070378120365340135e-01
-5.874449086226380956e-01
-1.023095058404819291e-01
-1.824894273585134785e-01
3.625953645765825351e-01
3.099220302728099563e-01
-6.164792928360420809e-01
3.288937295789316484e-01
-6.123192552652374498e-01
4.089697826912849776e-01
-5.756133330445803997e-01
-3.212174277955869850e-01
-2.634601982116388866e-02
-3.294803965461645667e-01
4.913658313735524419e-01
-4.035377500147729890e-02
-2.816402999295352094e-01
-1.525507313375617791e-01
-1.716473937023683671e-01
3.176093730007949201e-02
1.203829512956586661e-01
2.554263706538309475e-01
-1.603723307748754212e-01
-1.571462496364462724e-01
1.358989433747565256e-01
-1.522634009872621819e-01
1.945303867064600845e-01
-4.836070069945093697e-01
6.670236234418827070e-01
-2.620119430784690895e-01
1.002125691491742993e-01
-5.684120971079011930e-01
6.542640526994743244e-02
-2.608940932191912143e-01
-4.734872516433333983e-02
1.335457837426391736e-01
-5.743081261818013816e-01
-9.304119786374139001e-02
1.158724615109316958e-01
5.356143240837437508e-02
4.336954462940240118e-01
-4.258022248905762863e-01
-1.798997192376529386e-01
-1.155298565583950388e-01
2.360699501494148977e-01
2.067569620183069279e-01
-8.510730046397718337e-03
-2.867683273921749904e-02
6.418614632878129334e-02
9.219345741913058390e-02
-3.490458493727024991e-01
-4.855963942909334863e-01
1.516683711211619379e-01
-5.338876188657345478e-01
-5.811955366089017749e-01
6.224072905341318518e-02
2.354348660340691013e-01
1.512649138152589445e-01
5.659954369430711396e-02
6.501555740936449945e-01
-1.998883248244589794e-01
5.478042123399697733e-02
-1.199156416089021127e-01
-8.249399227422778147e-02
-6.306095388493412335e-01
-8.867111890391123075e-02
5.036634433754814087e-03
3.808298268383890073e-01
6.172619037976702083e-01
-1.503629369037357000e-01
-2.426212770360880455e-01
3.061384896409206635e-01
5.280971857163102579e-01
-9.371442463573835535e-02
5.478098489527825909e-02
3.824021689766181065e-01
5.058240119971063598e-01
1.551023282672632231e-01
-1.980458224090700381e-01
-5.903475039145442693e-01
2.182820635668911435e-01
-4.063915740233869367e-01
-1.121714884668501555e-01
3.640107340812568509e-02
