3.862145128561865759e-01
5.363333645005616823e-01
-2.079322718095360234e-01
7.528833898756889798e-02
5.384463614704050327e-01
-7.853322378483681976e-02
6.620540266586935063e-01
-2.131973575774360474e-01
-1.770612272489265060e-01
2.497077415116367993e-01
1.417740157584232163e-01
-3.303081459401652764e-01
1.789049069175207562e-01
2.256077930806056897e-01
8.240416799738155273e-02
-8.296254844098334413e-02
3.897217810739388999e-01
1.231995211254907907e-01
-8.791489683448178161e-02
-1.793132028623027341e-01
-6.426812397271847166e-01
-1.096043624373241182e-01
7.344120440928986193e-01
-2.473420317472416474e-01
-2.128543560155008729e-01
3.353228588917544356e-02
1.032584005459818849e-01
1.054977749162625961e-01
4.996756511971144760e-02
6.232425376038880360e-02
-2.474817165411327402e-01
3.436593563569443899e-01
4.193551055924081283e-01
-9.817886333915513963e-02
-9.371492957216186886e-03
-3.707611518100762393e-01
1.665058797745997410e-01
2.414440232808442999e-02
-4.363084127845213711e-01
3.353272068602303757e-01
1.846314825348800703e-01
3.796111484459371854e-01
3.844422990188213207e-01
3.853544498646752636e-01
6.123295271938730133e-01
-2.742801366116269235e-01
4.262008967429662953e-01
2.932500361798446309e-01
-1.948817608205744845e-01
-1.672473670577188931e-01
-1.167650837977379508e-01
-1.246853359778450632e-01
1.292376087518230625e-02
-1.733854382161205965e-01
-1.401491668520749856e-01
1.125137075870127346e-01
-3.110422624161847671e-01
-4.467498941406519708e-02
-7.518419807243482966e-02
4.641745894390232607e-02
4.492569441213977582e-02
-2.576695046782872534e-01
-3.791704308304528342e-02
1.789206319035620552e-01
-3.528044779993968483e-01
-1.478854699961698049e-01
2.065238289260466487e-01
2.787513665317927769e-01
3.148333216248269412e-03
-3.158612300863787858e-01
-1.642605449022120079e-01
1.424232343912119336e-01
3.209055812406837460e-01
-5.578273402956028804e-01
-6.901213507675236711e-03
-8.135915494410498328e-01
6.318530253455357792e-01
2.153876306442597810e-01
3.106514756542089195e-01
2.271505982078736163e-01
-2.167983574287627932e-02
1.556011056300044826e-01
-5.819410076467165793e-02
-1.370250675172375310e-01
1.081765395105030031e-01
-4.385778135416444345e-01
-2.779239634705500395e-01
-2.022225188213077618e-01
-1.146388984631322855e-01
-3.221687275225766367e-01
1.804485995677438392e-01
2.095014008974851183e-01
2.417903290544033967e-01
5.144862390837443566e-01
-1.295168618389204163e-01
1.831640106236209764e-03
7.214564250026536674e-02
2.497816933340578638e-01
-6.228153261928128653e-02
1.713906404000834216e-01
-2.721968786460055023e-02
3.071689629057789417e-01
4.897629571197319176e-02
2.105122259401304985e-01
6.270082287299159063e-01
3.875724199551845630e-03
9.970909876419346840e-02
-1.985176574706396802e-01
-5.567036508404068496e-01
-3.396741965462748980e-01
-1.380598654322018892e-01
-2.921277692400520154e-01
9.999287944699875030e-02
-3.061050146938437133e-01
-1.205565091837393077e-01
3.420151198696179118e-01
-3.837893423432275353e-01
6.206951636800026595e-01
3.210191050352392828e-01
3.680967618028097021e-01
-3.337979658135484251e-01
3.292234232578982595e-02
2.577450468899058489e-01
5.577442033545991773e-01
-1.708537830700664339e-01
4.099176678827038400e-01
-8.353645043826084249e-02
3.532202259159494262e-01
2.380101013738712412e-01
-5.756139112880935826e-01
-3.871254060819855070e-02
5.787492918232756134e-02
-3.364398516974975717e-01
7.233649812415811342e-02
-5.783203498517431873e-01
-1.202016769478409797e-01
2.374711362266440917e-01
-2.610008496388566690e-01
2.002802054392952558e-01
-4.934461323449615411e-01
-3.124166348195617227e-02
3.627285172601420471e-01
-2.415779917781072927e-01
1.023393018101525498e-01
-1.938542419806110750e-01
-4.912541932456510052e-01
3.683514234762979012e-01
1.906324707255220852e-01
-5.521889056183514333e-01
8.116687406122898851e-01
1.140558947301680837e-01
-3.885537719739522999e-01
-5.880131774960328794e-01
-1.037113444299547077e-02
-5.391135109193041508e-01
-4.519813540452453648e-01
3.575937398572548442e-01
-4.357350804362897234e-02
-1.198551994528604808e-01
3.038925444172887319e-02
1.680043552699242437e-01
1.092274248913526064e-01
8.465133111978001210e-03
-2.292258180792250410e-01
-2.544916012794196658e-01
-4.781633538897669955e-01
1.603083741545392737e-02
-6.581708067580168686e-01
-2.528019770590157478e-01
-6.169027074943744110e-02
-3.709201933512499827e-01
-4.332800701032352847e-02
9.982758346994956289e-02
-1.880244435262769798e-01
3.714516346037242123e-01
-1.005965202779533357e-01
5.680195535640512050e-01
-2.407886023389284036e-01
-2.391637713511188812e-01
7.552460104089012138e-02
-5.072490585526906459e-01
-3.575883430366267879e-01
-4.587779134187197627e-01
-1.206863698517913197e-01
1.588976608215637853e-02
-7.772718214004316339e-02
2.505679910537825794e-01
-4.470808135762066593e-01
6.717216771541902887e-01
-7.769432827844092726e-01
3.814761012884155394e-03
-4.889072477636147718e-01
5.779883990803520444e-01
-7.539167171372676557e-02
2.475640573629982466e-01
8.732300499968910501e-02
-2.321516479481016693e-01
-3.338476442497873564e-01
1.880256924845960242e-01
-7.377433654014184383e-02
-1.716261197496306290e-01
-1.720531539989637038e-01
5.675252157708204903e-02
-7.638860505059382744e-01
-1.197187079281426814e-01
5.820321649568731548e-01
-2.968414918684103010e-01
1.594333837587428096e-02
-5.944403773688129722e-02
-1.538386091233589215e-01
4.156313558302507927e-01
4.127996550278720256e-01
2.688671814629020052e-01
2.853915973155083385e-01
1.049584752617785249e-01
-3.144534372122366195e-01
1.804320688952935903e-01
8.401601520056241335e-02
-1.168185047864617881e-01
5.451020951636301737e-01
3.363504336557812113e-01
-4.120138066661453435e-01
-5.222105816193443190e-02
3.784905275671704983e-01
6.267215182510851301e-01
-1.210326184303730512e-01
-6.461833325413622597e-02
-3.709712198784245185e-01
-6.503775653060762940e-02
-4.604244747662287196e-01
-2.994562350702633172e-02
-5.007455457503646318e-02
8.492142550582791605e-02
2.622150872637827312e-01
7.421835845010210653e-02
-5.439636915115018123e-01
3.111690645939771752e-02
-2.273191364535977286e-03
7.900615813885734917e-02
-2.714848385621431714e-01
6.610608996695198358e-02
-3.975981760107328289e-01
3.535993663207764315e-01
2.824207218379325059e-03
-5.466401120229585214e-02
-4.062532297960950722e-01
4.696477326857915191e-01
-5.367984317264090123e-03
-6.577851905179588066e-02
8.403481023790082549e-01
-7.150938672306332566e-02
1.113838079817532078e-01
1.454460893261437238e-01
-3.851238880817884486e-02
1.816619655954173629e-01
2.097234499216673598e-01
-8.477481180577438671e-03
2.102759653082877933e-01
-4.473747921977118680e-01
3.394042857901459487e-02
-3.820193756148997366e-01
-1.533166792524993938e-01
-1.086284427333406299e-01
-5.518587973376303246e-01
4.456130531638781145e-01
