-6.627326472741689178e-01
1.313978690546448447e-01
-4.618218576746808135e-01
-5.458329694115880981e-01
-3.538004997902468030e-01
3.402050014724351534e-01
-1.582974680703248815e-02
1.510867213371362532e-02
-2.732334087138121315e-01
-2.756363444170114793e-02
2.668184865852051835e-01
3.051716284796159723e-02
6.301217962521656890e-01
5.672769925304875782e-01
4.606989162763738821e-01
-1.170535478642758948e-01
-3.090666394702829001e-01
-1.703990224717439050e-01
-8.311406661246503735e-02
5.304965668563634829e-01
-3.502617622010545384e-01
-1.991540398800977288e-02
-1.847836419304692279e-01
1.123601305898054709e-01
-3.956830444494139343e-01
2.133819581980259950e-01
-2.120444524200573722e-01
-2.698453663386127799e-01
-1.825466502178890449e-01
-1.535620520932389488e-01
2.357037748694141011e-01
-2.665886690900752809e-01
1.225875209912470620e-01
-5.826668466824000414e-02
-4.253402851903030912e-01
4.851171611004207462e-01
-2.919651624843152549e-01
2.149767170966523089e-01
1.046953998174389583e-01
-1.756845944807765847e-01
1.583646460223797625e-01
3.475890739082774239e-01
-5.439786455347516564e-02
-4.457141919135848562e-02
4.908347520310142320e-01
9.451434354681742186e-03
2.382749805703364698e-01
-3.547590986775510102e-01
-3.052393743196718523e-01
4.063708366720414356e-01
2.007135306787163204e-02
-3.230955925343346191e-01
4.177584959597547831e-01
-1.899328594364062262e-01
3.454990901432734574e-01
2.362307709225470662e-02
-5.799567256946103894e-02
3.926440206497137653e-01
2.145683323961626865e-01
3.407821662239931548e-01
-6.826070282568917624e-02
1.650885639458523181e-03
-6.286872600785817222e-02
-1.000000000000000000e+00
2.302065130973363072e-01
3.906290383975465352e-01
5.286781186799704990e-01
-2.403755018853616088e-01
-1.593243016363227460e-01
-3.427607050428837510e-01
-4.326244831839836519e-02
1.976452576661588134e-01
-3.344163549715148953e-01
-4.704032831578111584e-02
-5.388428899213562051e-01
-3.229403824858413929e-01
1.593128231355056268e-01
-1.904927874470989380e-01
-8.298737418222499329e-01
-6.352049740441836900e-02
-2.839905607366949997e-02
-2.581207933025603807e-01
-6.801568430435679657e-02
2.788833184948443233e-01
-5.196940955915407834e-01
-2.723731469995224197e-01
1.285923190842635233e-01
8.137163404211871232e-01
2.026458032420446753e-01
4.816924134455572576e-02
2.386434475140252476e-01
3.398826358706571460e-01
7.782482717228882130e-02
-3.570840203001467428e-01
5.010193571940005364e-02
6.777693769253366474e-02
9.923713801862393824e-02
-7.961475044001374568e-02
-3.053073638001317924e-01
-1.096698946823422838e-01
7.037183398776328813e-01
-5.727201918598662234e-01
2.042744906109735248e-01
6.617088128656446744e-02
6.220776391779050257e-02
2.297408560535400268e-01
1.496644972655069017e-01
8.956819670441491799e-02
4.511573450390966578e-01
1.599338512190730532e-01
3.772099719184167088e-01
3.414245398412646959e-01
3.769315438263383666e-01
6.042379570717802961e-01
-1.873350728970961110e-01
-1.373679901282101878e-01
1.234088524669898906e-01
2.690433119875644818e-01
-7.919771925322136030e-02
-5.212947725703316326e-01
-1.327903600210355861e-01
8.879959136581988544e-02
5.285798829375562558e-02
-3.876405737890800673e-01
-7.298890554607377623e-02
-7.877075960457512183e-02
1.225372537114062660e-01
2.046693099822937401e-01
-6.646499631365290761e-02
9.960712289862151680e-02
5.192246414001523425e-01
-3.321286269362227483e-01
-1.614715298470913996e-01
-6.018668589125113488e-01
4.497304261113238000e-01
6.357444775638501633e-02
7.017255800718309733e-02
-2.459023813835606032e-01
5.367340867675536586e-02
-7.147615073239310668e-02
8.163211809509303418e-03
-3.617399443372076862e-01
-5.493266722467929908e-01
7.901890681831334751e-02
-1.357720277717866242e-01
3.585676490005088035e-01
-1.930362192633789109e-01
-5.764209417889546057e-03
5.713138887068818228e-01
3.872048611295676457e-01
3.086500447965915828e-01
-3.479498530814044144e-01
-3.160230333296821237e-01
4.051745241384100554e-02
2.176214403082789295e-01
-4.103953455398762218e-01
7.812897612447318174e-01
4.360196272106241500e-01
8.536047539699487957e-03
-3.942202921307971786e-01
1.539600239148147531e-01
3.300310165305136434e-01
-1.957888222686831048e-01
-8.474500780841527636e-02
4.777753712645141926e-01
5.511949031227861839e-01
2.479925150287294947e-02
3.380528226552849680e-01
-2.350526602704064716e-01
-4.073807700083091898e-01
3.629211386334505601e-02
-5.661407181078327924e-03
2.283488951909255493e-01
-3.093617941395511717e-01
4.125655405029973188e-01
3.026969616556668963e-01
-9.363291002318226489e-03
1.819876003483443250e-01
-4.340309080402231928e-02
5.379140477302713635e-02
1.244817306894230591e-01
9.241941628126087993e-02
-1.607321075335180899e-02
4.698053513823127053e-02
-4.344938249457914736e-01
1.394123995079663836e-01
-1.469235784469539174e-01
2.509328005880085422e-01
5.330291274632906195e-02
-4.369826706128396299e-02
1.056763628062584205e-03
-6.064658504328632183e-02
-2.785743393297563375e-01
-3.552443279641250007e-02
4.664890052980190660e-01
6.181925588919990472e-03
-3.121408000458041343e-01
-2.209642226107594587e-01
3.675956700824735690e-01
8.646860669518379242e-03
4.734576540288794044e-01
4.096320769726107258e-01
1.485638864573254891e-01
7.785338899137665691e-02
1.811414690491885970e-02
2.232451006181866426e-01
1.273240737852643634e-01
-4.654989572336532544e-01
8.999333923721002104e-02
-2.098762432959336011e-01
-2.063787457237832301e-01
-3.387874849594564863e-01
2.751850213490786290e-01
2.859974738786714155e-01
3.124094580532328913e-01
-2.333405503506907203e-02
-1.505973768109041822e-01
-2.147197490079260640e-01
-5.907422547792323675e-01
-5.252936572643251978e-03
-8.869770403814453141e-02
1.165069742357019017e-01
-3.802140987491966495e-01
1.529069714570471528e-01
-2.295723450865342907e-01
2.216138153455919635e-01
2.182126275990478592e-01
-1.007347337339227489e-02
-1.880657632571268445e-01
2.124870040213751310e-01
3.481517557065555990e-01
-5.362347125809521220e-01
7.390563507683976796e-02
1.333449030080029740e-01
-2.869695388732385055e-01
3.489756759668701247e-01
-1.822879720791732161e-01
4.865156908953396746e-03
-2.117575963738367768e-03
2.908010991290447059e-02
-2.756552832632075747e-02
7.667955116206445210e-01
1.413404540233504925e-01
3.462269031677185638e-02
4.914135504393962045e-02
4.197310897971136545e-01
5.341714818353324734e-01
1.458914639234977773e-01
5.953723287003217512e-01
2.635014960366845183e-02
6.524127198685986118e-01
-9.975002379821863718e-02
4.601841426199669849e-01
-1.718887189036239216e-01
3.387125644869641850e-01
-5.745742539006771787e-01
-9.660124154139219932e-02
-3.508187359692659935e-01
2.777043037380810819e-01
-1.011440482670632884e-01
-3.773694936731372684e-02
4.399308803463063966e-01
-5.416224839655130463e-01
-1.421151053355872718e-01
-5.831131162812083768e-02
