6.470163370866370556e-02
-8.666174810929933026e-03
-1.429356273894867579e-01
1.005962558343485719e-01
2.619131550043353185e-01
-9.208579652079675049e-02
2.696579867176665535e-01
9.799341686100539184e-02
4.927434518319495638e-01
6.391327969405344311e-02
2.345456411521986695e-01
-4.478527864311845907e-01
3.326184830426297256e-02
2.980991170071810026e-01
-2.167359312978181241e-01
-3.190689735470986776e-01
-1.232533228284157512e-01
-2.321893800890156290e-01
-1.276395540061558975e-01
-7.855988137721683362e-01
1.182397293410027694e-01
-3.368090082875653812e-01
-1.502268089465076950e-01
-5.551686107199979014e-01
-3.654017988805241535e-01
-4.402693740078748030e-01
1.944378833427791164e-01
-9.199472193109903273e-02
-2.481854463770706842e-01
-3.702206934138283501e-01
-3.207940996267986955e-02
-9.125117220938874785e-02
4.991293565501308399e-02
-1.848214150355487195e-01
-5.393960946121469091e-03
-3.666184062811044808e-01
2.465589065861336082e-01
-1.210822668114855533e-01
1.177019392389529462e-01
-1.439360302579261938e-02
1.406922648614893356e-01
-3.476971928380016841e-02
-4.273588680053855837e-01
2.631357304289954069e-01
-4.922588351959116815e-01
4.073962788322957329e-01
-3.402543855686591678e-01
2.526860706620676078e-01
7.801306616109886516e-01
-2.642821961106838202e-01
-1.632474903508101260e-01
3.766357162180385132e-02
4.779484445296223322e-02
-1.103933930541531189e-01
3.696825673343793195e-01
-3.295210803213280415e-02
2.896655071404310999e-01
1.248885330476887379e-01
1.932187564916246214e-01
-2.047637455545497642e-01
3.304017790924655973e-01
-1.418469762481894964e-02
5.176070589872097116e-01
2.906529047521055897e-01
-2.736232283859149073e-01
-3.649637269259464745e-01
8.193130222718902900e-02
5.507418583005860291e-02
-4.270560747287829861e-02
-3.227242151884335275e-01
-1.064028430684351711e-01
4.855122204274177067e-01
2.898717799311198440e-01
3.060280342333200274e-02
-2.737147995641299736e-01
4.119026460360246111e-01
-1.059141482255607780e-01
-3.297706095276866090e-01
1.276634569431624455e-01
-4.507113171118908301e-01
1.000000000000000000e+00
5.900107881579757380e-02
-5.364307532447148974e-01
4.831321573744547931e-02
2.522722336145534205e-01
1.587187267910000199e-01
-1.403652002224144713e-01
1.423949735885290946e-01
-4.186532067294213566e-01
1.273730432443491087e-02
-4.845566925241084344e-01
-1.221329123481905282e-01
-2.115391236885320048e-01
3.647931034359199742e-01
-1.065086508695847894e-01
3.788225580117168256e-01
4.860559417552040018e-01
-1.383468652230638585e-01
2.550710500030939909e-01
-1.499254869718801841e-01
5.391246876272934863e-01
-6.967085885745201435e-02
-1.910296849443965383e-01
-3.283128115683692227e-01
4.173433417823079750e-01
4.884261733089650392e-01
-3.635397074741549273e-01
-6.043454415170766980e-01
1.604282645066821000e-01
-1.746030248903463478e-01
3.839714408370290544e-01
3.258409198315329047e-02
-1.732536505304498320e-01
-4.604361699221847792e-01
-1.588175361456299270e-02
1.379509304958133342e-01
5.845842299766747935e-02
-6.104002547368433951e-02
4.485089005373310567e-01
-2.170346974713461830e-01
2.260840009845165588e-01
-2.119064017123152288e-01
-3.626091647027480658e-01
2.742363356960245829e-02
-1.618961736317913735e-01
-2.544693411375215097e-01
7.636637638629449609e-03
2.478635124593727701e-01
2.689513077681948139e-01
1.207863967336366973e-01
1.120866568287288007e-01
-1.761923643492775970e-01
7.463414809416339946e-01
-4.253078595448498561e-02
-7.582203851784422022e-02
-4.044998511599575686e-01
-3.545636372283668125e-01
3.232188850667919167e-01
6.549566648833847482e-02
-6.405034706320368587e-02
6.414305486980451110e-02
5.949548259853176813e-01
-3.785046194377040263e-01
2.074741016984702480e-01
-2.278177643524145757e-01
6.903283322299895719e-01
-3.705139892130687729e-01
4.221161428238925928e-01
-5.671274850674765666e-01
3.490059243441527292e-01
-7.874395318893936957e-02
-3.857455665654034582e-02
4.743517260333927066e-01
4.598979436009893729e-02
1.311178352750427649e-02
-5.043401227478407078e-02
1.670890950135593134e-01
-1.071962177997247585e-02
-2.840579770789609937e-02
9.823369234235371228e-02
2.230852153697693852e-01
-3.268775905795444359e-02
-1.498819761365687842e-01
-1.775451199832225602e-01
-2.116598506016678927e-01
9.949518865870421447e-02
1.982336878483263176e-01
-3.005005077496636368e-01
-2.887866843085221125e-01
-5.001426116047285042e-01
5.851764983861329483e-01
4.108911706358420873e-02
2.751993434472233546e-01
-6.226039564994433062e-02
-1.823504407097436553e-01
-2.489696702763313230e-01
-3.254274305184617216e-02
2.999812272756575693e-01
3.645527254902696662e-02
-2.678517574443364246e-01
-8.988188772497535811e-03
-1.638153367037573915e-01
2.391979939233631058e-01
1.280988104345630874e-01
-1.232387408352447339e-01
-5.584169997899396387e-02
2.753193682713473561e-02
3.621226664210157042e-01
5.592017853133833816e-01
-1.308460170486482055e-01
2.254224406197036512e-01
2.659306348148698929e-02
9.582530906673039639e-02
7.311406217139375385e-03
-3.001856058443759800e-01
1.402653170923227888e-01
4.026172931344099148e-01
-5.701542581625185235e-01
-3.405789595933982061e-02
7.756417258697458073e-02
1.343553455234480776e-01
-9.867796016617172428e-02
-1.291234856458918778e-01
2.349485750664940253e-01
3.660878574718232636e-01
-3.857783241564285426e-01
9.313461537266477797e-02
2.379224455193818255e-01
8.887680029940447923e-03
-3.938828888706285003e-01
-3.757375512400587536e-01
-3.374366045997321262e-01
-1.887575307073252606e-01
3.409343793925433408e-01
-1.132540469807085115e-01
-5.857072443354682800e-02
3.403465400446183953e-01
2.235149732120373933e-01
1.733829993864683949e-01
7.300583440581463746e-02
1.260744762424489684e-01
5.499851328598160949e-01
-4.161362271918050415e-01
-1.109752032142336114e-01
3.554908257869741628e-01
-2.588456150757985699e-02
-7.091629589346094831e-02
-4.281889441097692095e-01
1.687165070184196841e-02
-4.449879449549784538e-02
6.713348139366401846e-01
6.925092967921281373e-01
1.409348470165409373e-01
6.443303840620281941e-02
-5.092022961539579423e-02
2.344219763543665125e-01
-6.422763670986691986e-01
-6.250401566819234755e-01
-2.885012297077078069e-01
1.297499255272355489e-01
-2.525664318150537269e-01
-1.856931518696413874e-01
6.612554499578263134e-02
-2.509087083616751146e-01
6.758311629341012816e-02
-1.487455285428974927e-01
2.942959809786798164e-01
1.402597856687143318e-01
-6.989774204144259817e-02
5.462543204500789340e-01
-3.766237826141519140e-01
2.315087014542108468e-01
-1.879050679352660402e-01
6.484812423116870228e-02
4.661871958198751109e-01
3.414347713003658691e-01
-2.270325133508786508e-01
1.230357334264331470e-01
3.692012187966001863e-02
-3.383502032402517790e-01
2.521869351092934641e-01
-3.951134246229855984e-01
1.573517419895321956e-02
-2.893454183591920303e-01
1.137190837495122980e-01
