1.468709583683401043e-01
3.104090647067047626e-01
-2.025626592456385711e-01
1.128167676643981043e-01
3.881144053371564651e-01
-4.758255672237421408e-02
6.900308771962359033e-01
-3.014798644751877088e-01
-8.061951293669737673e-02
2.314638707765815928e-01
1.322527631123943115e-01
-3.798982275879550508e-01
-2.939764256546437693e-01
-7.427557895965926360e-02
3.306192133300804581e-02
-1.073447807951205396e-01
3.897217810739388999e-01
1.062745131125741455e-01
-5.746640404720348289e-02
-6.586258833920284606e-02
-6.617934362252938518e-01
-1.521025373445017981e-01
-4.641044154987836734e-01
-9.216709710427380131e-02
-2.950747295450993346e-01
3.353228588917544356e-02
3.005826843273214782e-02
7.922294979249899782e-03
-9.777610947934559094e-02
3.754624037000389714e-02
-2.545686752046735224e-01
2.353493713087992101e-01
3.002824603500066081e-01
-5.487298067437582777e-02
-8.613141712021721297e-02
-2.772252182217164185e-01
2.259910986530535015e-01
6.906978126096863235e-02
-5.827765044512447368e-01
5.021298148910811054e-01
1.565321476405386047e-01
3.127579839190017807e-01
3.372901440145770757e-01
3.963252585352345925e-01
-7.500418218848545759e-01
-7.884604851273591120e-02
4.072280397454081657e-01
2.572701720581805351e-01
-1.649106722497755417e-01
1.960036915481778996e-02
-5.250451761650727633e-02
-1.646640878017702481e-01
-5.084336074356825275e-02
-2.173635520188183790e-01
-1.784903844948060314e-02
4.895924850556579999e-01
-3.145530357423271250e-01
3.906422085579040748e-02
-8.354153031562898402e-02
9.770261721932053944e-02
1.017574990772537324e-01
-2.690349574174975000e-01
-5.940153597051477108e-02
2.026996727931402176e-01
-2.836489087723385039e-01
-1.416794095390795372e-01
1.329636002301501363e-01
2.908066952836496633e-01
-9.296490840785856524e-02
-4.857784183717216431e-01
3.156680137249454621e-01
1.136493274461849307e-01
2.985824818063309571e-01
-6.827109605532046821e-01
5.653164719969838714e-02
-8.450719105879058723e-01
5.478119189438555026e-01
9.792199936011028449e-02
-1.179697083974446670e-01
1.935486739023071223e-01
-3.534596794010896881e-02
1.782094624398183891e-01
3.750230841766510892e-02
-8.417675121091038049e-02
1.193664714412348560e-01
-2.571831722534784898e-02
-3.997277123957853062e-01
-1.096303801978242842e-01
-1.385455376913324321e-01
-3.828256638645521348e-01
1.166364175920558549e-01
-1.021504813160734187e-01
2.481862745079061461e-01
6.414705365080073385e-01
-1.084939232011677829e-01
-1.957522435381235937e-01
2.294727655064800198e-02
-6.536114740736234108e-01
7.277677699921247800e-02
2.493946125580818740e-01
-4.378533970479153714e-02
2.845879700706427373e-01
7.388736384949028124e-02
2.588522455558474600e-01
5.301526041390913768e-01
-1.226016369888390384e-01
1.719405027055958546e-01
-2.164467369145758879e-01
-5.254534549327688486e-01
-4.166536546757811932e-01
-9.023537104352996607e-02
-4.444137302005582990e-01
-1.886665503542122452e-02
-3.393624840137616228e-01
1.630133434539896009e-02
3.050118535188031665e-01
-4.897401438943333463e-01
6.155068860031357447e-01
3.866514431195391954e-01
3.452341031842839914e-01
8.934694973996411271e-02
3.061226922609037310e-02
3.225949633074328693e-01
5.700119168398990466e-01
2.959892275802098460e-01
3.480020248079384593e-01
1.096954467130022287e-01
1.021432694517261791e-01
2.537434663128796952e-01
3.947241646332169673e-01
-1.756540695940642938e-01
8.403997158138110102e-01
-3.281077567168342313e-01
1.718006903627862236e-01
-5.719297814888402165e-01
-1.415783661191165055e-01
2.209594133608472899e-01
-2.141822909069066028e-01
2.370359054541152921e-01
-5.335401695419667023e-01
1.586595753788315466e-02
2.438595053169288762e-01
-2.851774460905050490e-01
9.564798945810089326e-02
-1.780708424294656367e-01
-5.299543685280974081e-01
2.541634380687775030e-01
1.986647113720525770e-01
-5.547273569988281361e-01
7.841112801238599994e-01
-3.336233164064820733e-01
-4.167844577619300717e-01
-6.767779378744752661e-01
-1.031945287476521977e-01
-5.099451108327743842e-01
-4.854385700100836143e-01
2.742230331506436691e-01
-7.098441976080024918e-02
-1.149626575255412314e-01
9.792221489844149529e-02
1.495853805694487837e-01
9.136233102923874139e-02
6.999934957242805178e-02
-1.096519812668221849e-01
-1.146596445933301817e-01
7.162435941981688814e-03
-1.785528287479033402e-02
-6.553655463844195728e-01
-2.074202149427799291e-01
-2.095042997850827260e-01
1.257513785985541095e-02
-2.958582986464405873e-02
2.771918479572114125e-01
-1.944891280032444159e-01
4.348596609379307143e-01
-1.358254807735494729e-01
5.256567142285285543e-01
-1.775437276874415327e-01
-1.831506494954061037e-01
1.486187343400370217e-02
-5.656792979253928433e-01
-4.079358274113774607e-01
-4.349654606971466442e-01
5.968335430076205511e-02
3.485432430533106918e-01
-1.121436356353442410e-01
3.726381314698266611e-01
-4.027059383429704709e-01
6.878764696078829566e-01
-7.625708937241640895e-01
4.776616776788669000e-03
-4.532881634214236954e-01
6.738050751763193791e-01
2.752534005571849463e-03
2.884404107057547684e-01
7.932412449150713640e-02
-1.912761612023576863e-01
-2.944634340343580958e-01
1.924415680533259898e-01
-4.980475871547400402e-02
-1.762563670871728494e-01
-1.146310413504761094e-01
3.748168735079306785e-02
-9.089309183499449940e-01
-1.601910341053229547e-01
5.915714422349891422e-01
-2.839459143209036585e-01
4.253220607214946991e-02
-1.129901950980704284e-01
-2.069148073724572379e-01
5.126368080705975272e-01
-3.698011526647592556e-02
2.837221917532601889e-01
3.130567152664694985e-01
8.776795537139024661e-02
-3.295265420168168036e-01
1.315432796288216466e-01
-5.552477767395563868e-03
-1.125289303111268457e-01
5.810544268356276909e-01
3.798632046678643848e-01
-4.197428122699025099e-01
-5.710070961898615349e-02
-3.104016258701555644e-03
5.779543670496879448e-01
-9.760994800007612160e-02
-4.343702132152064965e-03
-2.316781012408401508e-01
5.283255023691056929e-01
-4.468960595983487161e-01
3.842610486236582024e-02
-2.132509947354360724e-02
5.324792854012302401e-01
3.588157111766830942e-01
1.044364322323327043e-01
-4.906718827942437855e-01
-2.510162053966363480e-02
-6.114949411213518315e-01
-3.080456488183148100e-01
-2.587009346209654947e-01
1.254137548696415139e-01
-3.471765404853414672e-01
3.017646814404885136e-01
-5.481154088298627325e-02
-1.329036229403871006e-01
-4.200660636800854220e-01
4.717433100270425061e-01
5.604406609836164871e-02
-1.413452724163608565e-01
9.071164587862158291e-01
-5.464694810358206034e-01
-4.070236875508694008e-02
4.978763752584881852e-02
4.095374250112644443e-01
2.464579397037363340e-01
2.335032478012441515e-01
-2.029709510003174094e-02
2.094845804220342445e-01
-4.602671622975950116e-01
8.709510220962264626e-02
-3.689965003115110997e-01
-1.511836327703000860e-01
-1.676357896137824488e-01
-3.174951013797886468e-01
-4.086218367530919937e-01
