1.439684627115729032e-01
3.747199005176117814e-01
-2.266364677466670696e-01
7.853012465553116384e-02
-6.195640923924879140e-02
5.372189253994093250e-02
2.829495937192703647e-01
9.850218353898534951e-02
4.968133716275801581e-01
1.536972971594305626e-01
1.406865698676379450e-01
-3.766708849018653993e-01
-2.832802036739773266e-02
-2.122325750521118215e-01
-1.793607846541366013e-01
-3.404982088396368289e-01
-2.434668240102969838e-01
-2.255943607714273047e-01
-7.120018486792427381e-02
-6.393467647547851351e-01
1.990168119248370004e-01
-3.558669911189341062e-01
-1.458402846783224682e-01
-5.944412975410380273e-01
-3.441761566927460381e-01
-4.587548606840285426e-01
-3.606119354692586820e-01
-1.271793196541504689e-01
-2.184472527648561035e-01
-3.140796867295075345e-01
-4.933683871699673373e-02
-2.597570584767849855e-02
-3.197764294894676895e-03
-4.267691014879896327e-01
-1.127012252471694814e-01
-4.003073195537333318e-01
3.490931588901672877e-01
-6.344600470658340319e-02
2.571393954107346058e-01
1.115566585503580538e-01
6.568525971847093137e-02
2.817623666046066289e-01
-5.010023223001647263e-01
2.386310725713444159e-01
-5.417802607258228598e-01
4.455259706817946141e-01
-4.243881889829707599e-01
2.551952436793704648e-01
7.890004843221214426e-01
-2.115777458382447074e-01
-1.593133592704054913e-01
-7.975371790787044723e-02
7.096164821396647171e-04
-1.497037962893092433e-01
4.348349859965885966e-01
-6.116887795415357904e-02
3.574127936374976722e-01
1.292010293257357945e-01
3.810644468370489313e-01
-1.809243031942041890e-01
3.185801367855735089e-01
-3.709275217983938611e-02
4.249559101011494699e-01
-3.870868460770915953e-01
-4.209482567849404666e-01
2.496644466062581669e-01
4.183045471578184515e-01
5.406502875499950150e-02
-1.043478974652580216e-01
-3.584169491939769858e-01
5.661914452168910206e-01
3.969635999749719923e-01
3.201151077117615484e-01
-1.004387338220423531e-02
8.601550892543420590e-02
4.643533598171153964e-01
-4.963263039884754924e-02
-2.750334292576136486e-01
1.488824820870693066e-01
-9.828423820174184145e-02
9.962231548192993502e-01
9.530345038547877179e-02
-5.436728473080723045e-01
1.737075450109717423e-01
3.167413939256644717e-01
2.838987853693217822e-01
-6.784955257930247452e-02
7.018326014298695292e-02
-3.459826191239559479e-01
5.374713612736656265e-03
-5.039782479641005120e-01
-8.184650710320301448e-02
-9.988991931130815349e-02
3.309487924531794856e-01
-1.155340263703646814e-01
3.309730815624642442e-01
5.633348614198221416e-01
-1.616314212435469577e-01
2.581459796734326684e-01
-1.786000786639933280e-01
5.108292842490986807e-01
-7.698649281287041346e-02
-1.344257798654852343e-01
-2.639388997284380367e-01
4.083334542955603386e-01
4.414969168440776026e-01
-3.415792857691468676e-01
-5.556092717715390705e-01
2.119411835124369869e-01
-1.970560084683380953e-01
4.604880193967332835e-01
-7.632238872593165302e-02
-2.299520593575015981e-01
-5.000325035943536944e-01
-1.484953351393487608e-01
3.104619799654350157e-02
-3.480199807994024952e-02
3.600106921953590833e-01
5.421610715351030674e-01
-2.610063485998021515e-01
1.205844496740466343e-01
-3.307818061987953251e-01
-3.143041464575345723e-01
1.472519173595161074e-02
-1.184875938281174101e-01
-2.708058855696481304e-01
1.039976102169863775e-01
4.301564110586079681e-01
1.825726828317746631e-01
4.571559343013550936e-03
-3.058185950604422887e-01
-2.088723520072426898e-01
-1.672966307225527693e-01
-3.080782550575592721e-02
-1.121131783656421355e-01
-5.049569441944701254e-01
-3.059297506519852994e-01
2.587123709162816865e-01
-3.403781794038658326e-01
-1.248983392333017153e-02
6.270088605120063829e-02
1.243852722591635290e-01
-2.671775657099152990e-01
1.822077389747665532e-01
-2.148214153377364377e-01
8.098296515094541848e-01
1.052958639895017756e-01
4.456758136228712863e-01
4.513656864046673711e-02
3.710366828840255815e-01
-5.323428154075918184e-02
-6.304863981971178810e-02
5.334522064382913875e-01
6.053356703257536942e-02
3.274548025418035253e-03
1.227836985750570264e-02
9.546114659036475381e-02
4.057026492132062567e-01
-2.619925279781999961e-01
1.640605547704584444e-01
2.929724623860109345e-01
1.181848733878412550e-01
-1.776286540539191161e-01
-1.571276737493780273e-01
-1.929413451478470543e-01
1.129177100307090231e-01
1.718711673056888267e-01
-3.926105830869484614e-01
-3.836718735776441513e-01
-2.016978252472932942e-01
6.891340230681115564e-01
1.590689874046382624e-01
2.509467756771626701e-01
-1.729999431277916555e-01
-2.244356473671172969e-01
-3.656378462002369822e-01
-8.590680706711753545e-02
4.228998076180793819e-01
1.797702475147463369e-02
-2.912353331559524583e-01
-4.984312825054915130e-02
-1.864103447751317977e-01
2.520249755358075494e-01
-6.465974414944376802e-02
-8.266475543613789334e-01
-1.584388255653101929e-02
8.062196185927561487e-02
2.821461859277519246e-01
5.387177093462771627e-01
-1.705763536480572884e-01
1.419138518596000931e-01
-2.087229611063219636e-02
3.330383440395301431e-02
5.628793048044943709e-02
-3.011686256227772973e-01
1.900955438756625759e-01
4.466553384260806836e-01
-1.252042359577856256e-01
-5.229499741129928214e-01
7.192994225338837644e-02
1.512347074102677602e-01
-1.225378910841834479e-01
-1.945652316563557249e-01
2.095013153257103133e-01
3.393065903937040328e-01
-3.489121100113249385e-01
-5.867283539049972241e-03
4.482331065047693852e-01
-8.031482061521520721e-02
-5.081381491929620742e-01
-3.710123742874474884e-01
2.538831470992269218e-02
4.744654431511328291e-02
3.494620505497803009e-01
-8.163509412470820736e-02
1.515157612411869442e-02
3.046235917847872066e-01
1.795617343006061795e-01
1.113308238089950331e-01
-3.899355205076693309e-02
1.595413251908067986e-01
5.283064884546487816e-01
-3.902719468371664835e-01
-2.074300560818384542e-01
4.629875778277359744e-01
-3.492955800300676095e-02
2.228019215458846569e-01
-4.463530312210649553e-01
-1.199350561856345476e-01
-7.777326731752980116e-02
7.295078795721960940e-01
6.742105028394264066e-01
3.185559560478722352e-01
2.880264089349713341e-01
-4.800649741977276036e-02
2.102316317100749454e-01
-6.481126431993197157e-01
-6.833169702452868144e-01
-4.142908622175915379e-01
1.175917171667905103e-01
-5.534659441077316444e-02
-2.476357355130702487e-01
1.286218929273826861e-01
-2.624256386866466451e-01
-4.680617627930568070e-02
-8.029235717629255864e-02
2.979488416070300572e-01
2.238658253616741534e-01
-1.275856426410920397e-01
4.553248811577970123e-01
-4.242013607874342007e-01
2.178865770535749202e-01
-1.480125327279773473e-01
1.803320293656225370e-01
3.043786130741444884e-01
4.136753376679400684e-01
-2.841011178664409331e-01
1.926927697051792343e-01
3.494862016699877560e-02
-3.111905400930886079e-01
-1.399184786643183354e-01
-3.550086042318202351e-01
1.213214419015807774e-02
-4.859056714208819655e-02
8.783369063024164258e-02
