-2.297604668590642191e-02
-2.241616114071604549e-01
1.580122713285694314e-01
-5.922417476664114389e-02
-2.374070557537276416e-02
-2.245728771072892094e-01
8.584872540333345070e-02
-5.743410248415794506e-01
4.841443844411619235e-01
2.244998226207099157e-01
2.641313823514463213e-02
-4.883661453898850008e-02
1.534932724199637721e-01
-1.271320553830669331e-01
-2.003965375759739487e-01
-3.598546336171392634e-01
4.447997568169565624e-02
-4.575505722815733645e-01
2.698109693258566796e-02
-1.515174983907563722e-01
2.695083426616762604e-02
-3.862535669079161793e-01
1.477107257469588986e-01
2.249120489581019899e-01
-1.962849993529500736e-01
1.609939080511622878e-01
1.339662647186610489e-01
1.815144402082737862e-01
1.375706060332895775e-01
-4.046454399279379444e-01
5.269464021174752322e-01
-2.125649250284908105e-03
-1.623737408561864159e-01
3.062452909969575199e-01
-1.604689939665852605e-01
4.526599606762813678e-03
2.755747988357286626e-01
-3.366444979794870895e-01
-1.844591109693959063e-01
-7.759671736093683159e-02
2.826979940965361759e-01
-3.278724355812774882e-01
6.262079978813201997e-01
-5.767732357197975779e-02
-3.524577610478702994e-01
-3.034828604602400892e-01
-4.917119243335777989e-01
1.403474912609015413e-01
6.130617628087233623e-02
-1.528169518046578468e-01
-1.287086161514800486e-01
-3.580017539871252485e-01
-8.215847373479380489e-02
-2.013558089031909082e-01
-2.914175642788284781e-01
6.297251472494882485e-01
-1.316991666122787064e-01
2.435731035190044913e-01
9.199619041097710503e-02
3.061098474096271560e-01
-2.386704329607791664e-01
2.277529226419822694e-01
2.317763024357570312e-01
7.908156528817816833e-02
-1.770790732003850176e-01
6.256843088533123320e-02
-1.970657049742831346e-01
-2.237098838430483794e-01
5.218538238905422455e-01
-1.168687555067430550e-01
6.052532939719457855e-02
-6.872025569505225973e-02
-3.734783097252752232e-02
-8.044854732264938510e-03
-4.615872939621955967e-02
2.850656472201251179e-01
-2.635709638955797129e-01
-6.924835207485424693e-02
-6.991764493084685894e-02
-3.067795854504841158e-01
-6.114438694162870058e-02
3.124342559125934393e-01
-2.012113191634714027e-01
-3.513385435107799770e-01
-3.572228107290648658e-01
-6.230070014932586053e-01
-1.999142954702763653e-02
1.084955409287504530e-01
3.056314127277297565e-01
6.016966850965769220e-01
3.639706419357302547e-01
-1.773068862824518921e-01
4.399508121741454447e-01
-2.962702554681084233e-01
9.364410742311066876e-03
1.429841662182586293e-01
-3.681838161008919585e-01
-2.020907289939174664e-02
2.439156622305986011e-01
1.693384072948436458e-01
4.972143004175059305e-02
-3.830061371245789270e-01
-1.084215383489987722e-01
1.168233689371850070e-01
-2.897131391094325825e-01
-2.534487054751850543e-01
8.468616848874707670e-02
-1.295749675805768775e-01
4.210723309535576164e-01
-6.043280646856953320e-01
-3.905195149845395314e-02
-8.829392029545454768e-02
1.203019058972787519e-01
4.421054085174173226e-02
-2.302562161999525958e-01
-4.461503907466461416e-01
4.311806828147748960e-01
-2.149575009394144032e-01
-1.018250528059735788e-01
7.962480981046535233e-02
-4.732965266224362783e-02
2.658814304212623325e-01
-1.510540549738857360e-02
-4.165987718806192230e-01
5.211655864137751948e-01
-4.126106204397185784e-01
2.542889705449192239e-01
-6.328371083169020972e-02
-1.637741737052725022e-01
1.662514897108408607e-01
2.327096975118796429e-01
5.413636003494945968e-03
-1.707871692475950998e-01
-2.849474377765175148e-02
-4.475466602459022281e-01
-8.398787741601997092e-02
-1.529225672082602239e-01
-3.093801738383417654e-01
-5.324600222011680734e-02
3.421759190791769378e-01
3.794459043112580199e-01
-6.537589059451096030e-02
2.883946970962302236e-01
2.198716501796021128e-01
-2.939189148465511381e-01
-2.153131773488768663e-01
4.504432839058530869e-01
3.104819377316045056e-02
2.181645254548328916e-01
-4.888915971710722230e-01
-1.224348392292039789e-01
1.340755839780690961e-01
-6.727687160708134551e-01
1.338369713084537616e-01
2.644291402153143844e-01
-1.868704323989406613e-01
-9.493383828739182517e-02
2.679176999270656556e-01
-2.086008507231005768e-02
-1.775274209164454664e-01
1.085399121292648233e-02
-8.425923713664577874e-02
5.396784578155771478e-02
-2.174265043818423074e-02
4.683500971806307117e-02
4.344081978058259574e-01
3.831942198716302150e-01
-1.152985851924820948e-01
-2.157247799386822207e-01
4.867324474308137305e-01
3.434611120567052645e-01
-1.467076435226461958e-02
-2.347097124214522212e-01
3.986073609232627102e-01
1.213073753224010176e-01
-1.475532333799176032e-01
2.384626620545379216e-01
1.450243690463583757e-01
6.446377967587566538e-01
3.403777893759042383e-01
-3.663402087858008693e-01
-6.755405156096797592e-01
2.297358138509857373e-01
7.911596269183694685e-02
-5.015627590732826130e-02
1.792358067724358073e-01
-2.189555136867442908e-01
-1.394776443127812848e-01
6.524555026630995958e-02
-3.829914339391415901e-01
1.009056604070534824e-01
-2.117525795954649515e-01
-9.216627075305926231e-02
1.378940045551211857e-01
4.283038748663275247e-02
1.987833250115573491e-01
-8.248004008597289993e-02
5.070593951979078529e-02
2.304324398005797303e-01
-2.765717761539621677e-01
-4.865892699172060798e-01
-6.196186384790906138e-02
1.762529846841816294e-01
-1.717816528393334707e-01
1.952038956446564277e-01
-1.399299856529396258e-01
3.133957563545318181e-01
-5.002462801781117768e-02
3.711722582163055062e-01
3.760903024991288923e-01
8.443017023001943289e-02
-9.841369317628678726e-02
-2.493727765860281054e-01
-1.969707862838760704e-01
3.074459800523350328e-01
-3.448559556239438328e-01
7.339597902165524712e-02
-3.108473383479544161e-01
3.925806906150450803e-01
2.925881566623372843e-01
2.606873593117086108e-01
4.510172541362658660e-01
4.788716013799585447e-01
2.477573660960754112e-02
-2.798418641110125282e-01
3.932280565718980492e-02
-1.524463657701879971e-01
3.859493118772135828e-02
-1.713164917328047210e-01
-2.160816110704112669e-01
-3.868918586457889552e-01
1.190389888493353782e-01
-3.273504288862013056e-01
-4.954422704971974123e-01
-3.368008586445323527e-01
-5.636892310001866135e-02
1.709565915498172939e-01
-1.866946172647515959e-02
3.435701572533032544e-01
-2.400654719170354223e-01
2.640550749938015418e-01
-4.311284122384318462e-01
-3.525391078251940979e-01
2.800240435487755808e-01
-1.477407270945428341e-01
-4.457095695694129195e-02
2.099262846074601285e-01
-3.237121560333143799e-01
1.406535864553489501e-01
-3.888567828848868979e-01
-2.885871268707333043e-02
-2.054584254951807021e-01
-1.221495203816228142e-01
8.363324198590225966e-02
6.569478859104825597e-02
5.763382645163537231e-03
3.181595418030219169e-01
7.577920204584667752e-02
1.314854561927700782e-01
-4.737466812911718117e-01
-1.441988278970495474e-01
1.125089739500306357e-01
7.370095908717864130e-01
9.842141057045947217e-02
-1.288315764711935041e-01
