6.067581075694581383e-01
-4.709969842912087867e-01
5.876938867997214544e-01
3.630944314235857728e-01
1.615292304734708695e-01
-1.298293243433708000e-01
1.037918553515091991e-01
1.880625008857935987e-01
-6.290589899379260552e-02
-3.560261270255888344e-01
-3.901050168433158327e-01
-6.423267929431988321e-01
2.322937007071240734e-01
1.676183179790388944e-01
-1.107731325095333563e-01
-4.795255523063363667e-01
2.529316412055188090e-01
-2.230596925484394644e-01
6.383296463919652108e-01
4.960696261856198941e-01
5.877480162042357792e-01
-9.056924105337373077e-02
-1.070073288951230994e-01
3.496864155200624102e-02
-4.807689461198693115e-01
6.961835409493324911e-02
1.741712787174787003e-01
-6.046731630037033289e-01
4.661568261317228790e-01
2.385971464978087764e-01
5.224703932930806483e-01
6.751266038130282476e-01
6.333434339370071220e-02
-4.448293939047245349e-01
-3.154095858064738245e-01
5.892926425301005938e-03
2.634786478623801775e-01
-6.858293491690944932e-02
-2.141693690166171157e-02
2.069689519551450863e-01
4.207449092955745651e-01
1.158316762382717406e-02
-5.738050739982771681e-02
-1.937419637762800018e-01
9.465030583013740728e-02
3.326330755439940029e-02
3.820231245677738752e-01
-9.527685276974263984e-02
-2.722119123329344026e-01
1.097024149369011520e-01
-5.767546389365822701e-02
1.408604604457632525e-01
-2.071260281894560518e-01
1.381135493708130803e-02
-8.484001833651214075e-02
-8.206146236445786835e-02
-4.548752360675166473e-02
3.327994756952789568e-01
-4.318947758535388037e-01
7.042484360867265480e-02
4.455123917241967102e-01
3.038807750627173787e-01
-2.815817640841757896e-01
-3.022801536964558333e-01
2.036643990688911665e-01
-1.282413759470342474e-01
4.890134924011849127e-01
2.309433063758372928e-01
-1.436143033921002121e-01
7.157032372467776460e-01
-4.902880376796817097e-01
-1.932091574539989212e-02
1.064062169132317798e-01
3.080728388442020016e-01
4.116045507940471748e-01
-3.551262644638777388e-01
-2.594186185165105463e-01
1.988682347932616279e-01
-1.647535700850285834e-01
2.904467070330070122e-01
-7.197173342131601981e-02
-3.576634024166530645e-02
-7.340225875081167473e-02
1.710193801613117681e-01
1.445353718196935588e-01
2.877204939094413737e-03
-7.781147089264305317e-01
-4.858062244791305079e-02
3.270360067275948079e-01
-1.645225396398322382e-01
2.776512441127713671e-01
1.412109316496125699e-01
2.218662226281495342e-01
-1.555291134378786744e-01
-3.092426134659930770e-01
-2.489152052989131170e-01
2.151968173315162158e-01
-4.514894449534623960e-02
1.008363786582691102e-01
-2.219683271517193784e-03
-3.171423464123793723e-01
-3.204457071118571587e-01
-1.071025066066599446e-01
3.619952667344743524e-01
1.574189880934925012e-01
2.363951322937207222e-01
-1.208408683839845149e-01
1.883847345031788856e-02
-1.250892123578395930e-02
4.828504102111733642e-01
1.368489934321501789e-01
-2.498197524826170357e-01
2.478974803834407270e-01
-3.032919323048800103e-02
2.537578969159782205e-01
-4.043681182100581500e-02
2.703976115106904721e-01
-3.226657534912328873e-01
-3.375681980234194746e-01
3.300260882842265819e-01
3.658645773620938790e-01
1.693284559107826326e-01
-2.360708038574649559e-01
3.015636184804872111e-02
-3.753121451785269569e-01
-4.072298126081907998e-02
-2.315816571873623442e-01
5.868015789897901291e-02
3.727624118896090688e-01
2.244645159422130054e-01
-4.629275284159035109e-01
-8.677865600941400692e-02
2.688840996614980661e-01
-2.104213649120253715e-01
-1.395635893638373370e-01
2.912115375355331381e-01
4.277945630382781195e-01
-2.876272020695261888e-01
-1.353761297961076637e-01
-9.919827206786088758e-02
3.822376295520097389e-01
9.267488111504249004e-02
-3.099334451146020311e-03
3.445509346626778879e-01
1.263143587861633166e-01
-1.857659265419951411e-01
-8.517649096320376589e-01
1.661825669861832777e-02
-1.668650431192956474e-01
1.770947447518617934e-01
5.752625804108424390e-02
4.070037190130506022e-01
1.264214939622405331e-01
2.113635120215276164e-01
-6.240586929633136215e-01
4.870460828886489235e-01
-5.379911043412374250e-01
4.726779419675794514e-01
-9.741645243775762242e-02
-3.830056096658422948e-01
2.748995481981514888e-01
-1.786255779900998153e-01
2.757884597057666531e-01
2.729765103177484442e-01
5.141962455848062691e-02
-3.411814465104268668e-01
5.337808234621803649e-01
2.679215298625375885e-01
-4.720521687570877756e-02
8.114451412613689074e-01
1.041934117782272323e-01
-3.419105807829965760e-01
-2.827797463278519108e-01
2.243084265793097998e-01
1.286725383077599698e-02
1.805322783234260819e-01
1.475907739416598696e-01
3.718844427017661824e-01
-3.330907313985299045e-01
-1.261424620401490615e-01
-2.775695876140141238e-01
1.807336671808549011e-01
-9.887608132627216662e-02
-1.880528628239435951e-01
8.832192884803209687e-02
-2.636751156100068938e-01
-7.134434135479498229e-01
-1.261351204470666926e-02
-5.792948419723357167e-01
2.504345667330558634e-01
-3.356148023986865042e-02
-3.735056980376297298e-01
2.507765089563929739e-01
2.467555750022958627e-01
-6.074236054513214578e-01
1.925244108974152879e-01
-3.921442291194027208e-01
1.780734291577836248e-01
3.707385083459441288e-01
1.674064805412091295e-01
-9.978470720460597132e-02
-1.012734417721132818e-01
1.185375995112781938e-01
4.758616009421762216e-01
-3.597670257559537621e-01
-2.753778581385252777e-01
-1.613604526529580918e-01
-2.224645781505451836e-01
3.640698889531582827e-01
-2.619687023545689830e-01
-6.134468249852561422e-02
2.652684490761826330e-01
3.077266676694686010e-01
1.260611217977399556e-01
2.251874376747314832e-01
-5.294549964604459147e-01
6.119231528012270688e-02
-7.667683581494989797e-02
-2.649888737650568094e-01
1.003513388484657681e-01
-6.861024630003266234e-01
4.303049158724862183e-02
-1.574213955903647488e-01
-1.643806174718387414e-01
3.118385634217486491e-01
2.340681825111102232e-01
-1.746088989869893915e-01
4.047631802268529810e-01
-1.030659227706369196e-01
-1.616448983190663102e-01
5.296585359379115676e-01
1.981199961942184395e-01
1.676608873451982673e-01
-5.083577931037254471e-02
-4.613065067532547414e-01
-8.365031628205392422e-02
-5.022201151232712490e-01
-1.997287015658505416e-01
-3.507675745191505823e-01
-1.602259027246372147e-01
7.719187877680814269e-01
4.276228279683866318e-01
-4.120883451489907312e-01
2.465080422390212300e-01
-1.427621689801814586e-01
-4.974722315643422821e-01
-3.108145698974550397e-01
1.769617221315858413e-02
8.072762033144585680e-02
1.344681481070980344e-01
3.097522966884991846e-01
-8.956252044663880196e-02
6.286313446334829136e-02
3.881181132843975479e-01
-4.096205479573264419e-01
1.588914907036563517e-01
-1.853750124480504566e-02
1.143109762467246771e-01
-6.271842834216964646e-02
5.296101420623751110e-01
-7.242787798310572345e-02
-3.940309149490324181e-01
-1.521053178282447127e-01
-3.308857081043946047e-01
1.806088722941364896e-02
