-2.835661445770994438e-01
-4.235745381458649872e-02
-1.455529501722852281e-01
1.962097697383441974e-01
-3.691900261410099304e-01
-2.158166316187398182e-01
5.176987155531139750e-01
3.268215836142347452e-01
-2.598085702483591275e-01
-5.848484452158408953e-03
3.033404592816633660e-01
2.248846886298906389e-01
7.744420184994351697e-01
5.624803948402399278e-01
6.326425346002716166e-02
-2.857980981977783497e-01
1.200456214965236051e-01
-2.573582616133442968e-01
-3.521383368275470271e-01
-9.447615935712613822e-02
6.620854339424306345e-02
-1.573761789260570976e-01
6.591668216230395227e-02
2.277054111740702547e-01
-1.478991718054005755e-01
7.064477076120879717e-01
-1.629401456417271105e-02
-6.869312884662223673e-02
5.039593808494302607e-01
-1.901584909144594104e-01
-5.906777112251426765e-01
2.503121244245536392e-01
-1.111858596135078814e-01
-2.271545334400838778e-01
-3.886891368263027668e-03
2.654839320073808517e-01
-4.289482012398519450e-01
1.896728617180035159e-02
-3.861929408104264883e-01
-4.388515176127548434e-02
-2.046344965440765051e-01
9.911111523859218730e-02
3.623895659493551191e-01
1.995051992903161819e-01
3.070175850325805311e-01
2.139012366334301918e-01
-2.081570057338033297e-01
-1.170562116915759149e-01
7.825841379814948429e-01
-2.790963095837423746e-01
-6.095712277374762400e-02
-2.299858439941165900e-01
5.393534845894187857e-01
-2.066618485296371766e-01
-3.540935356089858210e-01
3.522367263902461132e-01
-9.607862052021502730e-02
4.450373565433918266e-01
2.926683609627261234e-02
7.562140512114234880e-03
5.777257029968180246e-02
3.973827610954931977e-01
-3.097386538486703311e-01
-1.768708294153566174e-02
3.783587917935636868e-01
1.530438488733718363e-02
8.233807101788105653e-02
-1.051428899034581588e-01
-7.689267096139043578e-02
-4.563919355122979249e-03
5.287891037063301436e-01
-3.899859004961651054e-01
-2.584636448988829605e-01
1.419169019352250205e-01
-8.448312676005711452e-01
-1.820208770321768421e-03
-1.642446871164775779e-01
-3.233708847609026993e-01
4.690593347310419436e-01
3.667957576650072160e-01
2.066570522996055148e-01
-7.784540361382860651e-02
-1.457653489494556975e-01
7.671113186865559375e-02
-1.172992246333995486e-01
-3.947983923413153073e-01
1.816714553216104977e-01
6.040049067579951192e-01
1.750687140613347015e-01
-1.201191166293272272e-01
-4.062468543731891785e-02
2.387887762978754130e-02
-2.628826520556323126e-02
-1.370715808746325037e-01
-4.207724226920610960e-02
-4.097852215813176935e-01
-3.408052408402135330e-02
-1.620247308738275160e-01
-3.089519206495796033e-01
4.009571337522159773e-01
-7.111196550834663066e-01
5.221799201794997680e-01
-8.587784581703819531e-02
7.092488367794139714e-01
-2.247930444691453311e-01
-2.248326809971522844e-01
1.508572338332619389e-01
3.437942881512512372e-01
3.829811887989562069e-01
6.235714815493533791e-01
-4.425745013990471932e-01
9.523422713431085179e-03
2.282603638973284832e-01
-3.188616952722701514e-01
-1.032830995774035726e-01
-1.772847375440655682e-01
-1.676403302884056923e-01
5.505102644198148765e-01
4.627462805915791844e-01
2.119108780707018302e-01
2.461029829586940665e-01
-6.394364789742283950e-01
-2.104566957101853542e-01
-2.758111595538970465e-02
1.079435818647256767e-01
6.011511649501171117e-01
-3.910875040219342624e-01
-4.500822672381787903e-01
-3.627090819680075517e-01
-4.637479196328883058e-01
-1.899961904813736724e-01
1.645597867194305286e-02
-3.457056889281053813e-01
1.754612716000759076e-01
-3.134990698124891922e-02
1.573519120642623975e-02
1.955976741811330522e-01
3.242880221363314552e-02
-1.669900683226171190e-01
-6.441700334411202267e-01
-3.238803422712629998e-02
-1.818011019472362821e-01
1.576756863368739270e-01
-3.962333124045038235e-01
-1.220972036223307022e-02
-1.835211990456427356e-01
-3.109621741389695937e-01
-2.941394344479263956e-01
-2.475315514630942737e-01
2.718792701576648596e-02
-1.080766948582329440e-01
1.830866614320183772e-01
2.408201044453259498e-01
5.125174721289642576e-01
-2.253236675729595184e-01
-5.387179278490660250e-01
-1.220018078183668642e-01
2.463283101233065819e-01
2.003415241931925661e-01
-4.409694060386627062e-02
3.254885935437539235e-01
6.093665194750955694e-01
6.344655423931679916e-01
-2.054913019545767106e-01
4.366897003267416477e-01
2.500435367492811478e-01
-2.127793732013402161e-01
-5.066314459660539171e-01
3.328512954439947769e-01
1.896807500715180783e-01
-5.124670320792483469e-02
-4.037160804555766092e-01
3.707654616690382876e-01
-5.251485619119410780e-02
1.443331186405999444e-01
-6.135774101460320651e-01
2.646625258352787169e-01
-6.946378404346418289e-01
-6.394398767161648678e-01
-3.152408238532120044e-01
-2.759443681170015705e-01
-6.211792364271453426e-01
-4.519411091460992513e-01
3.249533147724922300e-01
-1.608709410735143230e-01
-1.452604536138795421e-01
3.745559979373653814e-01
1.796201813320187635e-01
-9.449581223119143947e-02
5.331874873447594032e-01
-4.935486412368995240e-02
6.351655644232369058e-01
-3.344954068370132871e-01
-2.123547650660007058e-01
-6.049665609433438895e-01
2.075876257315280304e-01
-2.576437908329496373e-01
1.612816306655577570e-01
-7.032259777166138814e-02
8.622077588150599547e-01
-3.545828948516093204e-01
-4.420657010652752072e-01
5.600269039942730176e-01
-1.093920304774632091e-01
2.106124618682641766e-02
2.819825612363333622e-01
1.438195155645247136e-01
-2.684420572311746467e-01
7.867890732113931584e-02
-4.094646561753026992e-01
-3.608387482167245142e-01
-1.497988029258695009e-01
3.755529118484418616e-01
3.212076110152254360e-01
1.607365617731185969e-01
-2.360146823771877289e-01
-2.918224259492116501e-01
6.834567148398944525e-01
-7.287238847396552976e-02
1.564090168226444089e-01
-2.464373568773604584e-01
1.346558018607916241e-01
-4.090479718395165221e-01
-2.789954619809680292e-01
-3.259789695280877475e-01
-9.579636617259176812e-03
1.052895200359178253e-02
1.242713635389814247e-01
4.846399023260292704e-01
-4.538267764238566593e-01
4.483546337111101177e-01
5.351547360278690463e-02
-1.874696556434163053e-01
5.901815346083137959e-01
5.000428500322791348e-03
3.019861449190470726e-01
-3.212668815079361972e-01
-1.483533392916438487e-01
2.262880878518156169e-01
5.221674465991842373e-01
1.640953191159102292e-02
-1.356537750731415526e-01
9.820380540035590980e-03
6.500314960694056343e-02
-1.034096107168574613e-01
-4.887605530252737696e-01
-2.521010576440919082e-01
-1.427510884050107731e-01
3.034894385534296912e-01
8.036183448920570793e-01
4.009766090891346557e-02
-2.827571295813945396e-01
4.434187389168151583e-01
9.535695609310708420e-02
1.590349382286761204e-01
-5.245289547658871232e-01
1.685894973648517092e-01
3.689797832844716186e-01
4.900484972937365069e-01
1.946134181195864621e-01
6.530132288995509071e-02
6.679353084084979075e-01
3.492156621507927494e-02
2.098870712778636016e-01
1.211865490921025940e-01
