2.688214544606708500e-01
-3.334373580758304145e-01
-1.803527089165765651e-01
-2.641882691941979666e-01
-2.531555154597131541e-01
-4.905049687963582150e-02
2.533884297124290308e-01
2.678242781918796500e-01
-1.372127322284089623e-01
-3.422074771755737044e-02
4.437390680957600808e-01
5.349718696316428934e-01
-3.123962783277149935e-01
2.795789848993369131e-01
-4.318254341584015082e-02
-4.413395712808904081e-02
9.810114948780097877e-02
9.271333357361916105e-02
3.669446131232161068e-02
-3.165322493094548384e-01
3.973635501808633896e-01
2.511329786342367254e-02
-5.321481797163887806e-02
-2.647859186734929371e-01
-3.121039352164240444e-01
4.661375518574513432e-02
-2.979707552025842032e-01
2.801599499816668226e-01
4.110158096398216498e-01
1.292259348137259067e-01
-3.505489251996949940e-01
2.780237469868595060e-02
-3.603636576318176021e-01
-6.180450281886401900e-03
-2.004997108648420151e-02
3.704493023194009860e-01
-1.976070520965333976e-01
-4.840133787674401611e-01
2.621428383626901448e-01
-6.331063730738430984e-01
2.138631259410827268e-01
1.235681726423327187e-01
-2.320202893496554897e-03
1.198803868556868879e-01
4.981464021080609372e-01
1.538917432350349057e-01
-2.346997129903196921e-01
-3.835979353052142438e-01
1.587117342224344529e-01
2.368558343948418410e-01
1.665737435716375670e-01
-3.486937939472724013e-01
5.512890021110556510e-02
6.973216876431023725e-02
4.072519158011096985e-01
-2.768846493035543865e-01
8.182297734255772337e-02
-3.476351833539073621e-01
-1.000000000000000000e+00
5.852461363563444818e-01
1.358955725317087526e-01
-1.145366838215513272e-01
-4.052646692576690468e-03
-2.637078822852400584e-01
6.043568752557129109e-01
5.637348698368006839e-02
7.172056192585800349e-02
1.332842069893719339e-01
3.045887691586403045e-01
-3.793957985756228890e-01
-2.009588936461907671e-01
-1.418181191247097628e-01
-3.651811949610397345e-01
1.000000000000000000e+00
-2.410230942082049743e-01
-4.845052610253459680e-01
1.796430182894010463e-01
1.260014234662870658e-01
-1.870913997126327499e-01
2.003923579430663959e-01
1.482152467742598595e-02
-5.260771066359104520e-01
-1.584275983804527554e-01
-7.346479638478836671e-01
-1.939193415098974249e-01
-3.168049466769136679e-01
3.835788144767023899e-01
-1.153039578475325011e-01
-7.283365594380530883e-03
-5.791342431199046625e-03
7.005938970080238803e-02
-2.729655643089494710e-01
3.575291014267404366e-01
1.602514515934491679e-01
1.689649749452130645e-01
1.379258635889581974e-01
-1.168345355339427682e-01
4.134624077427596078e-01
5.302193188171925309e-01
-1.826462122606772598e-01
2.545698893149588304e-01
-2.313744517697108871e-01
3.827650262406467885e-02
-2.624198817274768503e-02
1.498300989101989944e-01
6.173875787145461924e-01
-1.634096884694827279e-01
-9.283289969958258281e-02
5.268608928232941802e-01
-1.435423452004679357e-01
-1.776211770440895843e-01
7.363977259759023342e-02
-3.246744071276659871e-01
3.353048281415759724e-01
-1.305338155510634979e-01
-1.666163757170306403e-01
-3.676035788126991721e-01
-2.769307811175553691e-01
1.174627636201212716e-01
2.650622635661350479e-01
-1.335482251486039273e-01
2.738959597214162267e-01
2.492325217769017498e-01
-1.103749392556692827e-01
7.863091119061513257e-03
1.317256568147004980e-01
-8.891424238025980031e-02
-6.260057363967157507e-01
8.408946366539014061e-01
1.209448749752325136e-01
-1.690471335799255126e-01
-4.619644526460716522e-02
7.909364621066354573e-02
-2.216756307175465901e-02
2.454098090699241563e-01
-3.366130796143303461e-01
4.222597332216926347e-01
9.371728439079174411e-02
-3.647189703306616959e-01
-5.628172205737095313e-01
1.088443660409028207e-01
-1.055602445669047290e-01
2.852861271566125567e-01
-2.051873641643263413e-02
2.960229558043864229e-02
-1.014254966673509284e-01
1.559523471338868095e-01
-9.862097960600049729e-02
-1.283175270290901060e-01
-1.105827976165546650e-01
-2.827213460807578294e-01
3.814744386599087239e-02
4.703087177899112348e-02
-5.265712623873258780e-01
4.482440188526121139e-01
-4.021355901680719880e-01
6.963109555479021218e-01
-1.223618407311621581e-01
2.745233946359797450e-01
-2.811052146411459618e-01
6.720776606957684640e-01
7.203053517888809987e-01
1.228528474122411035e-02
4.010497074624292946e-01
3.374858617966797203e-01
2.178387318741142886e-01
-3.314976329301779767e-01
3.498973558502075365e-01
-3.586364215887118123e-02
1.196053119542104387e-01
1.681087118247697465e-01
-1.770402397002193012e-02
1.091730017173059286e-02
-4.946323204636154380e-01
-2.754777500883565655e-01
-1.911574607847797702e-01
-1.232905713629122713e-01
-2.089718570922391161e-01
-1.022578935226723801e-01
-7.484908204964325212e-03
8.162079474253777778e-03
-2.728652136989596633e-01
1.406845856090433999e-01
-2.455816966404443524e-02
-4.909965955552480499e-01
-2.537489751813039041e-01
-2.461388251062883448e-01
-1.072011599032481194e-01
4.806969960650289697e-03
-4.749788977475234431e-01
5.177495294386282865e-01
-7.386798205340698587e-02
4.250770961403395609e-01
2.935496063430349523e-01
2.023844754021255354e-01
-6.726742487015051342e-02
-3.001113431896456490e-02
1.245362896691419863e-01
2.203933018063684302e-01
-5.056586961910553013e-02
-3.584313038964508369e-01
-2.785515950226653131e-02
-4.126313242657427827e-01
7.348856144508032762e-02
7.161500916518840354e-01
1.556863677978263805e-01
-2.398076950957873932e-02
-2.732812304226845956e-01
-3.289609312269799468e-01
1.238361641054926687e-01
-3.016663640524380186e-01
-5.392245036302628636e-01
-5.921201260387710247e-02
1.543349133296731401e-01
-1.428771775117183562e-01
-7.165614681449333778e-01
-2.043608321218722268e-01
-3.669300590860703482e-01
1.959851441499574631e-01
1.302242863589211375e-01
-4.560687672162515999e-02
2.318871164510387939e-01
2.202233866462820489e-01
7.374639667838969737e-02
-2.430233115024299506e-03
8.498440568082252233e-02
-2.842515317965205734e-01
2.595550222627139858e-01
-2.123138476024324928e-01
4.435917691493256043e-03
-1.873157295222336594e-01
1.380947067841481191e-01
5.010489477278680104e-01
4.323807470545282805e-01
3.420345571602069201e-01
-7.139233378670678531e-02
7.202467677602513163e-01
-7.224743504380238823e-01
7.074113269111410862e-02
-3.970764484619038193e-01
3.135523575468739943e-01
-1.887059801207346954e-01
-6.908808376366745718e-03
7.508747557141791373e-02
-6.596015757164599980e-02
3.510697219149029602e-02
3.108754274748874447e-01
3.150354990414230838e-02
-9.648053319810666328e-02
-2.365732972170443010e-02
3.869333465478125289e-01
1.083250114057815877e-01
4.245129911764457947e-02
6.321602332509718147e-02
-4.591611697985935603e-01
1.114349301748037979e-01
8.105203523209758565e-02
-2.179615916154175326e-01
5.044876730206466764e-01
2.186328081707227811e-01
-6.320778918062358587e-01
-6.326312100995834520e-02
3.047503218981240103e-01
9.322719893169022221e-02
-7.583893499048552922e-01
