-1.521645159222783927e-01
9.713547510047715328e-02
-2.743781465735369296e-01
1.140561012508206351e-01
-3.755910817504560240e-01
1.102333399685039884e-02
5.521990779072866173e-01
2.593732281515426230e-01
-2.948169994512483405e-01
6.079215041516151941e-02
3.832860864798890432e-01
1.105819117782100847e-01
6.593276850574038006e-01
-3.540273262414845856e-01
2.608780224593542085e-01
-2.565774903753899050e-01
2.762722374200201614e-01
-2.271234898222797838e-01
-3.371479598566207159e-01
-1.246625393810308208e-01
5.708638749847945171e-01
-3.094318461398273823e-01
1.432888542023025846e-01
-2.288369209287269557e-01
-1.499551185545118341e-02
6.111064999514037588e-01
1.764747391064639681e-01
-3.616201541879789927e-01
3.569351477005370255e-01
-7.378842874640870186e-02
-6.123972663893427759e-01
2.960682877378778555e-01
1.160548530771159104e-01
4.238282248489257942e-01
6.762735601987913958e-02
-3.468947284759024696e-01
2.340373881772317768e-02
2.312907412545957275e-02
2.290143891080924018e-02
-5.913952191074366843e-02
2.063525729525088614e-01
1.417650760526536768e-01
2.789998825786850767e-01
-1.634889516182697344e-01
2.576789480438447244e-01
-9.264830812729110687e-02
-3.272100250929481195e-03
-7.224509494171774127e-02
6.581256805833167745e-01
-1.750103935637419006e-01
-3.805584432099762965e-02
9.297759343226959239e-02
5.311743995134877716e-01
3.943036732902215347e-01
6.098672552763011456e-01
1.215062752041941585e-01
2.199949875166544999e-01
4.599665122857292121e-01
-2.354895177530179698e-02
5.327717962615099445e-01
-2.679982060648500308e-01
4.379282712933119659e-01
3.881211560694498020e-01
-4.041306058656743416e-02
3.038320878440460282e-01
1.959821635643224733e-03
-1.609164058180105605e-01
2.543168560575901349e-01
-1.486628783774134877e-01
2.682159571219787653e-01
5.338885584996353462e-01
6.398553632400281188e-01
-1.688042582146449255e-01
-1.397366070481347311e-01
-8.426256559314843075e-01
1.440013470010454051e-02
-1.140165472632575089e-01
2.790879976883793578e-02
-1.206028180343014615e-02
3.535848852257580943e-01
-2.117792098336450102e-01
1.129559432148685531e-02
-3.644890302495178841e-02
6.820100358270612118e-01
3.526187943938052793e-02
-2.525697535528674265e-01
1.017435709726833698e-01
6.882306540019821339e-01
-2.525877333298938779e-02
-8.630808487711229271e-02
4.937827800457275651e-02
-1.115193552604639426e-01
-1.119452807610775008e-01
3.444341356071817795e-01
1.051678933143593980e-01
-2.213552402573303601e-01
-8.437765500302371602e-02
-1.087261357989275368e-01
-2.924734184229230705e-01
4.163231731766973143e-01
-5.273134125064352640e-01
2.525345522208808924e-01
-9.084064786848537743e-02
4.447699632888971188e-01
-2.092972443435363317e-01
-7.109936449204218301e-02
1.257048247006272990e-01
1.090774444861788983e-01
-2.412532107199286124e-01
5.345409941521949149e-01
-1.581370210959638645e-01
4.634047128020034323e-03
3.964181318020380540e-01
-3.857112694064028235e-01
6.619688056843114898e-01
-1.346127089002099875e-01
-1.780318017017974708e-01
4.864852378090354645e-01
1.340977860161708390e-01
1.569585754662272958e-01
1.171406490438951647e-01
-6.123641507570625198e-01
5.401200303114246370e-01
-4.141261374349494151e-01
1.465155759240737710e-01
4.204658090083154276e-01
-4.264483780242284694e-01
-4.472992090088185879e-01
-4.690552532599394364e-02
-3.467622042483829436e-01
-5.172932316497926841e-01
-5.899711729607147459e-02
-2.447185008038521847e-01
3.874450292626960279e-02
-3.226420171012502058e-02
9.765510503652732877e-02
1.969065713270629625e-01
-1.503683850646193032e-01
2.379862801791996774e-01
-1.412533834587836601e-01
2.417965712742409234e-01
-2.947916324639219265e-01
7.565707654644515667e-02
-4.721416183445562575e-01
-1.085538988105015645e-01
-1.927121401960600888e-01
-7.532302952418929998e-01
-7.272930530592876426e-03
-2.055475260211828692e-01
2.232641314925619402e-01
8.090664473905118115e-02
1.143629576730600672e-01
-8.378762614874391002e-02
3.299059542651298638e-01
-3.610110944744072126e-01
-3.978457491914946798e-01
-2.151813695713462871e-01
9.308220168272751671e-02
8.563949177310843652e-02
-5.938901024995356381e-02
2.419770675213291644e-01
6.927695258577720727e-02
7.329591759936360251e-01
-9.091831612055469025e-02
3.869782131648620838e-01
2.771876726680825784e-02
6.570693832988639960e-01
-5.618190325072792701e-01
3.831159812079867888e-01
4.051516862680815678e-01
1.419487904740086293e-01
-3.427171112926544194e-01
1.124272215476006670e-01
-8.449354677067281993e-02
2.501638132463165354e-01
-4.967970146115509578e-01
1.753437530418012757e-01
-6.956848670487710828e-01
-5.921201847655187533e-01
4.051934236217276386e-02
-5.811462446860973241e-01
-4.889608336683285428e-01
-5.789242870448391143e-01
4.973275289492747886e-01
-3.507324073456498659e-01
-5.291182933572025765e-02
2.948166472273353045e-01
1.222254478223190471e-01
-9.494218920674316747e-03
5.809815492233946221e-01
-5.390625737625726055e-02
3.926136953736432122e-01
-7.413746858033228027e-02
-1.964191998213293544e-01
-6.239540789094911721e-01
1.355436490519490444e-01
5.620946966699917891e-01
5.857186562626871817e-02
-2.706217880496188458e-02
7.455550021010474149e-01
-3.468619515749941651e-01
4.631394276216113659e-02
5.183986708320068582e-01
2.897337067758362335e-04
-6.612806604033480418e-02
-3.162480252693782301e-01
-2.366173469008643337e-01
-3.676904771464674093e-01
4.882546746298711826e-02
-8.698406312137349494e-02
-4.062413248968091972e-01
4.484556976304497899e-01
5.091891855875866346e-01
1.660338504461519593e-01
-1.122320191693074176e-01
-4.576268351723262150e-03
-2.617624081668767366e-01
6.209078772231786392e-01
-1.095924386253053912e-01
8.635097993409900086e-02
-2.884143603689544588e-01
2.641060675896318988e-01
-2.219943586552629300e-01
-2.219530393275875035e-01
-1.075015164570303633e-01
-1.018376098277457009e-01
-1.010646018718285993e-01
-1.722970039147430910e-01
6.436095031673827460e-01
5.612192502219494061e-01
3.330003390653923367e-01
1.512366023972423756e-01
-2.295563013312057199e-01
4.623189737237349273e-01
-9.797603646373957698e-02
1.470158869851006800e-01
-3.881544608113629558e-01
-1.743222708187631143e-01
2.420573973802080392e-01
1.514250680985108066e-01
9.760662672612199775e-02
-2.403869210801645451e-01
-6.693215481167245906e-02
2.169805276043562936e-01
4.268307465112587962e-01
-1.759111879175072335e-01
-3.154540320490432093e-01
-2.930506232457251725e-01
-1.780737830550392087e-01
6.871409134174051303e-01
-3.795231486176032787e-01
3.406329377192502950e-01
2.783921430240097750e-01
3.873895767029298387e-01
-5.883919692057640836e-03
-3.869040825041457077e-01
2.349253841525166531e-01
4.934225501910556311e-01
4.461366884282420564e-01
3.529192123994165931e-01
2.790891426283985122e-01
1.994707328431054305e-01
1.594949531993480329e-01
7.325572202622922247e-02
-1.007043016658339257e-01
