2.924438235768554994e-01
9.367860697729231134e-01
-5.235290948104605047e-01
-2.773595012355312139e-02
-2.619306640540904341e-01
-1.678208806501313710e-01
-3.114806862951678412e-01
4.347954166278093502e-01
1.565371620499867444e-01
3.730276163824969293e-01
-1.882432727278707252e-01
-1.811568285370577513e-01
3.026430763248117439e-01
-5.051005435202291505e-01
6.463962286764288745e-01
4.857921643436756420e-03
4.277680072028703373e-01
3.561324339730724264e-01
-3.286224997409262216e-02
-1.315592953016433975e-01
-1.044053978133554911e-01
-3.875983841022561105e-01
-3.074614958330544878e-01
-3.547143641688306204e-01
1.818810489603431280e-01
-5.654292237034556079e-01
-4.540444175055731446e-03
-2.858795853066760650e-01
2.429510812096113415e-01
-1.171086489984203838e-01
-3.891474127751301526e-02
3.096114256394650321e-01
1.639549286182210852e-01
2.548240991041053061e-01
-1.852325581805438492e-01
-1.620882442207011165e-03
2.194433397298779509e-01
4.426708562482001286e-01
8.044453335821939444e-01
-2.926108169345215115e-01
-3.546513278621020171e-01
5.292290122559447640e-01
1.798013472971174143e-01
5.931309085462987962e-02
-6.502401737750204136e-01
1.055388740154842020e-01
7.318126171377090095e-02
-3.411347096318774197e-01
-4.649789135351958258e-01
4.017483433892992117e-01
-5.805944992642666502e-01
-1.263580569338358314e-02
3.364050192755815849e-01
-6.137484085263246458e-02
1.871990633114699876e-01
4.907292632595000592e-01
-2.870595047095700347e-01
-1.705007688900513352e-01
-5.439147349097160911e-01
-4.223545384354978061e-01
-2.311164133650633612e-01
3.229000999038268427e-01
-7.054729997313125001e-02
6.587771246086683574e-02
1.187036327133980662e-01
-2.628163677406069806e-02
-1.230602719200744183e-02
1.252809181194108890e-01
1.761668141736031645e-01
2.661688510930985962e-02
-1.301652666459645127e-02
-5.271697411097928665e-01
-3.565603015146807248e-02
-2.381745004459913662e-01
-1.905023614949953592e-02
3.231327374032423316e-01
2.920832716361442816e-01
-1.107296323341253191e-01
7.623219020830664105e-02
3.326133576397206082e-01
-7.263046765297046514e-01
5.260706663576197178e-02
2.339868215848242006e-01
2.022530798386372175e-01
3.058980272900478914e-01
-8.799808760921561113e-04
-3.139148609734710993e-01
1.281135921795695520e-01
-2.729139457265863378e-01
-2.776568882201965183e-01
-1.526078292698204442e-01
-1.457996290775269987e-01
2.397792763195839144e-02
3.094388832494925912e-01
1.048989521421491919e-02
2.981879404285941448e-01
-2.372734255964227268e-01
2.757135195309401987e-01
4.576418432552261002e-03
2.464538775672518445e-01
5.170899728200828438e-01
1.108937258448304819e-01
3.869265345088640506e-01
-1.141761500557926801e-01
-2.619258399489071687e-01
-5.152490680402249668e-01
-3.598972560232122087e-02
4.863346837068438511e-01
4.012187649789609178e-01
-7.040617767828363238e-01
3.995516753065644355e-01
1.382556173269459954e-02
1.555769569032586508e-01
-8.452607737184059111e-02
-1.683548577922144296e-01
8.660231908768875608e-02
2.195436905661402593e-01
-3.784789038400394184e-03
-1.306443231029203178e-01
4.051766719506437117e-04
1.325450573664860854e-01
1.428280376111542016e-01
-6.334836827554082284e-01
1.673197486107960708e-01
-1.482541900194261908e-01
1.425980583500126644e-02
1.063236779412384675e-01
-3.598305894292928575e-01
-2.511620743504456854e-01
-2.702022939946460700e-01
4.790201739442510598e-01
-2.453458192471975330e-01
1.144282691783597983e-01
-2.791076439992971614e-01
1.225670306043740443e-01
9.213279264456518403e-02
6.481684339470837886e-01
-2.718150525700672171e-01
1.179846337986348165e-01
-1.097627039950998390e-02
2.928275352233257189e-01
-8.946668288988269824e-01
-2.978401295625177636e-01
-1.273222168123801928e-02
3.841703979136736891e-01
5.215154598650365569e-01
-2.175183397164361099e-02
1.249780329409521246e-01
9.359534742469306778e-02
2.194310832134734324e-01
-1.392096341038179808e-01
8.065708857948737931e-01
-5.843331933747190898e-02
2.710178931339986552e-01
6.854689441786088189e-02
1.673050299857109513e-01
5.042923267686071076e-02
-6.790436533402541275e-03
-2.987268434013579665e-01
-1.533181910710327278e-01
1.416012832537255905e-01
-1.227313264700810591e-02
3.065949122102128444e-01
6.322274711825734417e-02
-6.253964127080460789e-02
-1.328016760399954588e-01
1.328683436284830710e-01
5.682212136029320126e-02
2.157301328566957888e-01
-6.798213704943706359e-02
-1.866590669927295498e-02
-4.833723985060201650e-02
2.774518514644156442e-01
-1.164750009061291253e-01
1.416320364308472357e-01
-2.121559474426109315e-01
9.299348152225483943e-02
2.972071115920923989e-01
6.198256654715613712e-01
-1.221637667178857301e-01
1.559868530495147898e-01
1.747791211456138916e-01
-3.399222566507569265e-01
2.569570587808804873e-01
-3.492790998090176124e-01
-1.271848511828360118e-01
-4.444450961214353041e-02
-2.590999465938667590e-01
-7.212783622613530010e-01
2.038122657065845056e-01
-1.261485527830816245e-01
-1.560952899673302696e-01
-3.110529778114648480e-01
6.356853461852988163e-01
2.964285601679391216e-02
-3.009595181345122161e-01
3.860519099346371164e-01
-1.488415739428371465e-01
-2.087517406233247164e-01
-8.151771465908716485e-02
-1.006566271990295691e-01
-1.558619199200968475e-01
1.713800688513735654e-02
6.374251364891069249e-01
3.120755797173924151e-01
4.727352541946946429e-01
3.601246573539865770e-01
9.196315722359683920e-02
3.936015264960204263e-01
-3.562938846157593376e-01
-2.186699332869405932e-01
-4.352561219339390886e-01
4.202669439268682527e-01
5.883231911542073922e-01
1.828025146373137566e-01
1.525641410511274221e-01
-5.389030651688702100e-01
-4.783898918662862765e-01
4.848607739030869612e-01
-2.473325039838415729e-01
2.401556214264070621e-01
2.098235646366002349e-01
2.805052833425902142e-02
2.491503895948492808e-01
2.486960025909761840e-01
-2.822829202508489455e-01
2.695512686161039562e-01
2.163024339231508775e-01
5.517487588247984437e-02
-1.087687474823140488e-01
-1.487864203497439308e-01
5.585683317409333437e-01
1.722726764559005808e-02
1.645776571842356151e-01
4.041552122085440013e-01
-2.911608492057722875e-01
1.115592045135597662e-02
-7.014770349026579199e-02
-2.535696135575935678e-02
4.655141500360572282e-01
-5.619847821752350231e-02
-9.694294278865404901e-02
3.514512566786299752e-01
-8.859199398571242501e-01
-1.916925027788424496e-01
5.080234347431303865e-01
1.935257490573449313e-01
4.430312130867411491e-02
2.045761872816961868e-02
5.327498388244894523e-01
2.227214077189498542e-01
1.084462249075486828e-01
-2.522800910420166520e-01
8.014846950972560891e-02
1.366798163056834603e-01
-6.801630527545337035e-01
4.045311389331635588e-01
1.333369261698517383e-01
4.174810930430900013e-01
7.330103780032170002e-01
5.182275689268680541e-01
-3.174901821676237024e-01
2.769215106812215194e-02
1.151190944406999400e-01
2.906012383735603888e-01
