2.210026064130947432e-01
7.981642101459889282e-01
-3.020222068682409389e-01
-2.211845492944956304e-01
4.018535359361646297e-01
4.461680364466731885e-01
-3.297596939965817819e-01
3.000090954026253254e-01
-3.596356335161752238e-01
-4.646516196230262574e-01
-1.751263677417117526e-01
1.141636187221998777e-01
3.088535675925795920e-01
-3.101257213399668533e-01
-9.797588324781143776e-02
-2.253769738268885867e-02
3.162258045577128751e-01
-1.384997797687039234e-01
6.545847388483684581e-02
-4.184069020975838549e-01
2.088387000921145681e-02
1.064348648338936248e-01
-8.779372169746939292e-02
-1.562830939318133605e-01
-8.354573472659364286e-02
9.653202284934708777e-02
4.140238743913077224e-01
-1.321029173308616855e-01
9.646833176966107537e-02
2.052942155392159240e-01
-1.299883441262722761e-01
1.266268348755784923e-01
1.578410108685221469e-01
-1.876237201130847576e-01
1.506890796412172218e-01
2.044262139071800488e-01
3.303802525870363493e-01
-2.361923243059228794e-02
2.522801428165346582e-01
-3.578367399066405621e-03
1.417714628276947053e-01
9.661451044401757338e-02
3.579600407122239258e-01
-3.464953614225399492e-01
-4.729275502396103059e-01
2.108406839946317668e-01
3.651606409570073292e-02
3.046906523023401037e-01
-4.615558812782072362e-02
2.954138405967427494e-01
-4.621383420251269913e-01
4.346552048472890895e-01
-5.940140607226596786e-02
-1.106204269881154167e-01
9.710003750061545480e-01
1.916173432517512820e-01
-6.393303392649785089e-02
-8.426652223065465852e-02
-3.964873962919575612e-01
-4.367893501711871962e-01
4.087370428401108230e-02
3.027205390164783294e-01
3.077782989907894562e-01
3.362071940157045080e-02
4.169060353207258707e-02
-6.681926695852328235e-01
-3.714290372953024111e-01
-2.188716745468446134e-01
3.339651257156802111e-01
-4.710271338462756474e-01
3.272760017008877198e-01
-2.551692576498919007e-01
2.455766875424749140e-01
-4.204515758817540250e-01
1.617608816865139243e-01
6.999170049705999430e-01
-2.403979535673931300e-01
-4.187143120128273277e-01
-7.771536207942418562e-02
-1.618411474879352663e-01
-2.974094183914601230e-01
-2.683896033185421692e-01
3.418057774319275266e-01
2.037750271198223231e-02
-6.019648202001352116e-02
1.272762509118328944e-01
-1.178310040620310639e-01
1.126762183373564569e-01
-4.352429562093983184e-02
-9.034203745874595792e-02
9.916931949185957273e-02
2.320645611764663718e-01
-3.519333674482831298e-01
4.330512416101198192e-01
-1.355984756718435491e-01
-5.148261841136381883e-02
-2.032888846787134496e-01
1.517273498105261298e-01
-1.044539466001244837e-01
-2.607123061973242173e-01
-9.086833932389741519e-02
-1.648196942289413269e-01
7.731469513193381382e-02
-4.320927331987243353e-02
1.884903272603646041e-01
-2.344732564183902856e-01
-2.642184295653533521e-01
-3.410567371301812534e-01
-3.752738007476544291e-02
-3.766831860670892818e-01
-5.985294827842538995e-02
4.592581286679635610e-01
1.623805056783334810e-01
-5.860549653411987192e-01
3.184545850033386472e-02
-4.413695140697309477e-02
1.171462002378653999e-01
-2.456000016985085965e-01
-1.633629104978259472e-01
-1.766350124924069565e-01
1.995032773018523900e-02
3.372335883057036021e-01
-4.520904933905570133e-01
-1.235531509871107270e-01
1.281487703183005755e-01
3.181622350951289757e-01
1.965195719069246505e-01
-3.617130418255624091e-01
-5.020822402691592634e-01
-2.345167747136528702e-01
4.249077541848384487e-01
-2.289616630275315701e-01
-3.085892945908545459e-01
7.876774625752076542e-01
2.798185840804227054e-01
2.645158840712347192e-01
-7.177592260094008136e-02
-4.007438308292868845e-01
2.051804001763286311e-01
-2.438551535822348626e-01
2.004344341470110091e-01
1.178811881218892049e-01
5.795900790461244040e-02
-4.489183594231077601e-01
-2.415662175375188903e-01
-4.137214608630025020e-02
2.099299732049550449e-01
8.639838415393298610e-02
2.669634969686089307e-02
1.358487849342192022e-01
-1.667492878586135097e-01
1.270853680117626228e-01
-3.170678876481320546e-02
5.106797123027412288e-01
-2.863897925431826419e-01
3.007689172253343035e-02
-3.500908548354013106e-01
1.395233114878122183e-01
-2.969955429521112800e-01
8.565200341644124693e-01
2.139631194848049534e-01
-1.175306478384132575e-01
1.335725246290469792e-01
1.977063809324104693e-01
-3.689162450537508686e-02
-7.330233779411905737e-02
7.114210045368496438e-01
-9.156022721090388561e-02
-6.451415611362342206e-01
5.338882308219872891e-02
-3.031597355727861931e-01
1.451212966349685052e-01
4.002734549736262637e-01
-2.078438920142429147e-01
1.776866644005488938e-01
-2.827109938422205371e-01
8.480483198497808239e-02
-2.616192725003412822e-01
6.222873391333612059e-01
-1.154939614335940556e-01
1.918199612447291369e-01
2.213020206054127914e-01
-6.985402798106088440e-01
4.229993903396168098e-01
-6.413939794815719762e-03
1.759911960939083142e-01
-2.103007094930544815e-02
-5.388523040818136295e-02
1.275024447864839261e-01
-1.000000000000000000e+00
-1.595833344722474845e-01
3.773310363385982136e-01
9.737745099413760985e-02
-1.146996910953549942e-01
2.245360901216037208e-01
1.240410700444066067e-01
1.047007906480386524e-01
-1.226980506902890372e-01
-2.410987822027458316e-01
-6.807429830793648717e-01
2.554515539885347519e-01
2.084815830116840130e-01
-4.162918732186400295e-01
3.726264977391789412e-01
-2.965050925198564058e-01
1.305782682135917805e-01
-1.392746127036987025e-01
2.579225995264892712e-01
9.923747794669439404e-02
-3.437232832892684331e-01
-8.140973792212971571e-02
3.890791972860350723e-01
4.050266439460732948e-01
4.901793662472134216e-01
-1.923878512128815721e-01
-4.465978102475425815e-01
-5.790404336496955962e-01
-2.920546703228604213e-01
2.254043907602845398e-01
-3.935685516707637110e-01
2.254478557394907212e-01
5.109352375175901795e-01
9.621590250882715301e-02
1.347158535840516924e-01
5.497735368997098693e-01
-7.233163786760070380e-02
1.537218615800812482e-01
1.714882481479911291e-01
4.892658967908458667e-01
-6.556777869423457972e-01
-1.751220766705403331e-01
2.518676889981858943e-02
-6.756701763551666018e-02
3.116179646831498951e-01
2.529698089147400242e-01
1.836168037506744066e-01
2.599997269788725807e-01
-1.310855716822068862e-01
1.965943575969487933e-02
-3.825165960742197835e-01
-7.847138285975327476e-02
-3.402976946589009177e-01
1.734028475906435607e-01
-1.829007381881575800e-01
3.494314297061254602e-03
4.476379178047761309e-01
4.245388494708891153e-02
1.878378338658725499e-01
-2.397450539240769327e-02
3.302731120902386852e-01
1.720786151629082050e-01
8.050660229334689888e-02
-7.130340782633030061e-01
-1.206716367705992637e-01
3.156217535557350184e-01
-3.676962212894939186e-01
4.138059619537747258e-01
-4.419161323050045942e-01
1.341681051976059413e-01
5.491336718601712574e-01
4.946323024919320466e-02
-2.869833539896978272e-02
-1.812171414712814010e-01
1.483135544339286294e-01
3.729364382535751976e-01
