3.641716155836812741e-01
8.804173887206686588e-01
-5.192283712831639031e-01
-8.792363905763336818e-02
-1.664128546726170998e-01
-1.440906886018486210e-01
-1.365046927602250881e-01
4.482117664968468529e-01
2.111943935993271515e-01
4.307184383643740677e-01
7.977994290992657458e-03
4.030099697778578571e-01
2.306518741653977023e-01
-5.052542864514572019e-01
1.080139970891520473e-01
-4.406096177450026241e-01
3.797219189014224283e-01
3.444719618597700816e-01
7.969023806234031004e-02
1.049194733180129901e-01
2.219444563033294571e-03
-1.201885434310817902e-01
-3.371096131524273232e-01
2.010377132126636157e-01
1.253642649236848608e-02
-5.361395501499377492e-01
-4.968694215880036652e-02
-4.591865325091740724e-01
2.553820780109968824e-01
-1.911809066795643608e-01
7.578570680165028217e-03
3.940574304942613959e-01
2.720579043598023855e-02
-2.023117391296437306e-01
-2.877570627139294790e-01
-3.521554377136289909e-02
1.908763135192776961e-01
5.204878271467947570e-01
7.749752340036987208e-01
-3.107163985315356536e-01
-4.777317423056102325e-02
5.409821713007689770e-01
7.538613301228792585e-01
-3.551221455292211115e-02
-5.603443289293026375e-01
1.718187264273075832e-01
1.495058947852245801e-02
-3.401953203352964250e-01
7.704068695411545598e-01
4.310232041371737655e-01
4.705881170278183312e-01
-1.470869023914990192e-01
5.244575226802782736e-02
-1.093809959249973512e-01
-4.732242305542050942e-01
3.830333139481960636e-01
5.366218678096870143e-01
-1.404306094353933165e-01
6.816817492909764409e-02
-3.808298940461140591e-01
-2.059696766608871410e-01
4.355016711494131831e-01
4.806421557456674321e-01
4.715596891376543920e-01
4.305187743285291552e-02
-3.837431978896381490e-02
-4.567141428910696799e-02
-3.538838453386795868e-03
5.973077918221769700e-02
2.064814178215501617e-01
1.272752768700972092e-01
-4.403209804142423356e-01
-1.622219212868979965e-01
-4.368971147473556527e-01
-9.854176053699489901e-02
3.274489844398946747e-01
2.579102736424084830e-01
4.040165730928174659e-01
1.658165239381874656e-01
2.887509976700277647e-01
-6.250968563236188880e-01
6.725703415812736563e-02
3.562848589538427646e-01
2.248114256522160959e-01
3.794730593971659682e-01
-1.466689937539379651e-03
-1.534906557458456389e-01
1.119683652838222854e-01
-3.016293219706682738e-01
-2.436076293867152076e-01
1.287509082382261999e-02
-2.351456189707649691e-01
3.596350104147201243e-01
-1.366362370793830494e-01
-3.772917823396328141e-02
2.031188555848877086e-01
2.007957078420715691e-01
1.118912097360717367e-01
9.838419080038898201e-01
2.692413030905155269e-01
5.296455521976675129e-01
1.083599906180535977e-01
3.766989202489320898e-02
-2.905516525688237595e-01
-2.453263565251697920e-01
-4.516526299816817080e-01
-4.663614099825477699e-02
3.677724889123316077e-01
3.731065464658236408e-01
-3.501751895667188363e-01
3.183713618473165141e-01
-1.360115322102412039e-01
3.196094160688495167e-01
2.123326466398944151e-02
4.114678892709912605e-01
1.486816913596036294e-01
1.160461651437241642e-01
2.524598308884826170e-01
-6.720452531158731535e-01
7.591824006766041688e-02
-5.172772455231532396e-01
4.147137315945669811e-01
-7.637682018003609796e-01
2.631278056740542493e-01
1.095149354857542917e-01
-1.023089401712946045e-01
-7.479087132467206189e-04
-2.538983606220033273e-01
-1.688428056304852320e-01
-1.522216180494188054e-01
4.803850953058754758e-01
-1.504470074452898820e-01
1.485805121368154874e-03
-3.645982238218430926e-01
2.027007985250497135e-01
-2.269255893095879772e-02
2.293888634066817422e-01
-8.793988945745294383e-02
1.319294205828252381e-02
2.446054128482996748e-01
3.062756324054324297e-01
-8.373972276128516246e-02
-3.391889588929392629e-01
1.751480559928541847e-01
2.679104925620440225e-01
5.165724733021602733e-01
-3.257892794033956374e-02
4.076592081646594479e-01
1.070337902272028990e-02
2.870509568019034147e-02
-4.314708602165688300e-01
8.544746639410105704e-01
3.372717241776653774e-01
5.680912487381767351e-01
1.435720332866934068e-02
-4.119036980041826390e-01
3.133621200232619142e-01
-2.290110487037513853e-01
-5.896980908149786899e-02
7.165245248995942562e-02
-4.697123237135190921e-03
1.710705742958887332e-02
2.552551492804080446e-01
9.920116478454668596e-02
-4.180485310377102248e-02
-1.822706279333129453e-01
1.934686073319025756e-01
1.104380244803771227e-01
-2.050140198756587318e-01
-1.604393268731011402e-01
8.856827278920467728e-02
-1.976024292663575849e-02
3.480084530094843531e-01
-1.574270414897280257e-01
1.499477296735142184e-01
-1.660171794258284705e-02
-1.013452989256919679e-01
4.944157358449385864e-01
5.592257661810622338e-01
-8.245918933721857469e-02
2.763899219666792612e-02
3.499183381277045091e-01
-4.066731478250826259e-01
8.584328107309097122e-02
-1.778104500453977499e-01
-6.664294948314557210e-02
-1.836663502387269054e-01
-2.717550238048221933e-01
5.568666417074134151e-02
2.074970669161582959e-01
-2.953823748173680652e-01
-2.180558406703114738e-01
-3.377845092368309543e-01
5.616545314047394211e-01
1.492683901688540149e-01
2.914785478722790590e-01
-9.002343053832560782e-02
-1.855593134948705092e-01
1.031904624620614969e-01
-1.144802806977805454e-01
-1.094853999362460778e-01
-1.762507874017839038e-01
2.914038353053591268e-02
6.585535860516061879e-01
4.045810823653029908e-01
5.680353431639966200e-01
6.555760123955185481e-01
1.535645067266823149e-01
3.350486863576728203e-01
-3.801751677169669663e-01
-1.263634627349177197e-01
-3.063061007047767625e-01
4.283977702061985138e-01
4.104260812380119416e-01
-2.179989949183802067e-01
3.824812424357218466e-02
-6.351189088901764146e-01
-2.101721271901502153e-01
5.760594951517746809e-01
2.695705313727282393e-01
2.373161714822001334e-01
2.575539863765114457e-01
8.424686932308689258e-02
-1.551501463183985186e-01
3.952351257323188372e-01
-5.480048018497479800e-01
-9.374673334266335478e-02
3.377507303870858624e-01
1.569538553014542259e-01
-1.739847703849894678e-01
-1.502844782087274511e-01
6.157453701171662352e-01
-1.464397389885350176e-01
1.375972997778703577e-01
4.047969492755215670e-02
-4.878615861268026932e-01
3.471994702588368509e-03
3.549213116879894603e-01
3.315902164469874958e-02
5.059737580387360101e-01
3.003149636890253271e-01
8.194350636747314148e-03
4.512800111091597177e-01
-7.156232623366238776e-01
3.727675652882649349e-01
5.180779597765511335e-01
-4.312357640429632655e-01
5.551574962331304874e-01
-2.045108760135309345e-01
1.807059427886656411e-01
1.613064813438377376e-01
7.389372344334182996e-01
-1.676576161066180015e-01
1.292755307848879598e-01
7.890422535107045887e-02
-6.538173677274267126e-01
3.762532922727093165e-01
3.318600124730028966e-01
1.590302087453975832e-01
7.028612945109198318e-01
5.463885401407884146e-01
-4.790076365859177177e-01
4.555127222312361779e-01
1.096518321588105388e-01
-5.180614348709470240e-01
