1.551876761655920922e-01
1.945046004194455613e-01
6.702364110788883167e-02
-7.045285571041948192e-02
2.662047937979208356e-01
-1.291356889007129194e-01
-6.526108607989841714e-03
6.467425544937066562e-01
4.755526543861199884e-01
1.866721220081363763e-01
-6.982360749470731265e-02
-8.631844496043691861e-02
6.149979280033223555e-02
2.426263207091755580e-01
-9.454311595617038988e-02
-3.349795123117216833e-01
-1.923672281276415236e-02
-3.931765645802492992e-01
1.368754667562181726e-02
-5.148419880297661066e-02
-2.499216148778476976e-02
-3.911570427125557470e-01
1.780507732319975556e-01
5.893765665353959404e-01
-2.318729959248627959e-01
1.395352064471735709e-01
3.153485474771998143e-01
-4.976177922014522748e-02
1.711125533679876964e-01
-2.105848326006016236e-01
5.374926827106737415e-01
-6.306543043292840711e-02
-1.279952710411348393e-01
7.583505713172868090e-02
-3.407341276675204256e-01
-6.530204589367613610e-02
2.004250658059622547e-01
8.792985427804025922e-02
-2.937984763091174845e-01
-1.600744784807281440e-01
2.996104534657167973e-01
-3.144338884417168800e-01
2.208829929549138982e-01
3.412925330070011934e-03
-4.554503362058814342e-01
-2.915729619170656650e-01
-6.655316344443811261e-01
-1.302229680066989692e-01
-7.329870627151044427e-02
-1.708297206899323240e-01
-1.167683431717773945e-01
-3.572333494948435328e-01
-1.584618028554624081e-01
4.650190807851980468e-01
-2.969729324621561140e-01
5.924958780776348188e-01
-2.476547701897085230e-01
2.024009572748788899e-01
1.081690365865925485e-01
3.642846906408535035e-01
-2.320191009003767235e-01
1.294416735811770858e-01
7.759232237256170894e-02
4.129213297698608454e-02
-7.249072493266624229e-02
1.130763076167823067e-01
-2.783851432089876621e-01
-1.257439609410382075e-01
5.382389911653472359e-01
-1.435262550984375829e-01
3.925424334546682992e-02
-8.524592454634782879e-02
7.041380010519757149e-02
-7.094268217508845065e-02
-8.258688122891474914e-03
3.525947300452983435e-01
-3.029697099763999923e-01
3.391529567500283227e-01
-1.331247441808174892e-01
-8.544282879633646743e-02
1.678914026653192601e-02
2.631496080908945490e-01
-9.882305118606823924e-02
-2.113843284985240101e-01
-3.455278640961239045e-01
-6.288591136805519177e-01
-3.965671362438008551e-02
1.910623571162406442e-01
3.030895569258005851e-01
5.175516763752882055e-01
-4.579590618581377837e-01
-1.330758741218981966e-01
4.541685039086842957e-01
-3.252943459655353586e-01
-1.139517812803761132e-01
1.277670099201082821e-01
-3.625823872866428821e-01
-2.505170532351405632e-01
-4.667329583545385546e-02
1.412864770420864946e-01
-4.768063273858410001e-01
-5.518062737487545721e-01
4.056689740682588308e-02
2.784595061631102431e-02
-3.243582845658009584e-01
-1.287821046855731622e-01
7.931605673594607775e-02
-2.043504029349179352e-01
3.312256490697193523e-01
-8.314921670793253006e-02
-3.892456310866226898e-02
-1.195202166406583721e-01
-1.484069643738580302e-01
1.529446924512255501e-01
-2.909151633151084160e-01
-4.691130895099634990e-01
3.824332775737065426e-01
-2.223568970739147610e-01
-1.911984778334769597e-01
-4.849047096599719969e-02
-1.085159374910242280e-01
2.044628062916608313e-01
4.716612299515508810e-02
-3.603033575651215514e-01
6.704192561139874496e-01
-3.772966907620944887e-01
1.896336351786477581e-01
-7.743552612895394927e-02
-2.929825932457807980e-01
2.555836593210181196e-01
3.838392571514053220e-01
5.404775286478359642e-02
-3.227147035118779761e-01
-3.598230481364442790e-01
-4.104416680417781182e-01
-8.995560135226644827e-02
-9.521591822060455901e-02
-3.718906850121780905e-01
-7.554697070193523434e-01
5.197362570734505027e-01
1.746521284988573619e-01
-1.299753155704855279e-01
3.463288477466698878e-01
2.659927040840698309e-01
-4.029223238619265568e-01
-2.544450586033630279e-01
4.214429976361243613e-01
-3.689130621048667402e-01
5.886852943846591080e-01
-5.010073525490987834e-01
-3.441127727416520149e-02
-7.424783264627377033e-02
-6.854892991415645342e-01
-2.531460447410439074e-01
2.633947726889577789e-01
-2.229264539859113214e-01
-6.563259332265428125e-02
2.745052997298966790e-01
-4.822678840740807216e-01
-1.847222558876936149e-01
-5.392678108236758500e-02
-3.558805267342276396e-02
2.504785879328492726e-01
1.537475698362486543e-01
3.520814136196734334e-02
-4.201084495275408948e-01
4.557107271641421264e-01
-2.165790833719755115e-01
-3.186867314584314048e-01
2.855236194017648499e-01
-1.205675320483333944e-02
-1.943433636395690001e-01
-7.587390122854222041e-02
8.492405249180765003e-02
2.133963368564828489e-01
-2.610492616040920866e-01
2.805710595705825372e-01
4.079233805918053291e-01
-2.320101031113108170e-01
3.969906123546688148e-01
-4.684447996762926558e-01
-4.240370276505321390e-01
1.439200199440923700e-01
-8.420921845587708843e-02
-7.347323734957730834e-02
1.351116771853343446e-01
-1.388086594662422402e-01
-1.078073204088680903e-01
7.790832096787027317e-03
-4.028016777132226167e-01
1.418129633367481990e-01
2.705112949113650522e-01
2.180312235800691695e-02
2.560430729696480112e-01
3.679582267641358373e-02
1.039490551366717974e-01
-1.086206828284685955e-01
5.283698438720200175e-01
5.138460684888277452e-01
3.967716677304332085e-01
-1.427955490770320135e-01
2.799204896193627778e-01
4.187644847457114849e-01
-2.870528507539129581e-01
9.988426621527007887e-02
-1.915835376734846551e-01
-3.275159676792487873e-01
1.541933774499180954e-02
3.197254144669412490e-01
3.887013661645642992e-01
1.124206730753076755e-01
-1.181130299553592444e-01
-2.837076977942916134e-01
-1.792014200287285197e-01
2.290467471795742671e-01
-4.228971356082500410e-01
2.050874619630924101e-03
-3.783472568725411156e-01
3.246429865262641101e-01
1.242083874043443253e-02
2.681535567372405060e-01
3.487195800268447776e-01
6.017919646531580957e-01
2.666891481581461498e-01
-3.090652155831913328e-01
7.227782523758601030e-02
-1.474010737093014722e-01
-5.052589931279831692e-01
3.285421000546712156e-01
-4.217071080976680375e-01
-4.327951953413420316e-01
5.978626736865864238e-02
-3.041788105038280565e-01
3.349141773219457136e-02
1.219581152371773947e-01
-7.521096220676749544e-01
4.029692478701009384e-02
4.129331122571771040e-01
1.790682328395137024e-01
-2.217868948019754982e-01
2.728130769486415419e-01
-5.771218121803376455e-01
-3.493359757413022626e-01
4.090988377155396760e-01
-1.014108498295061556e-01
2.490060427309040425e-02
2.275936082865018251e-01
8.643331775927146077e-03
2.607620384950891101e-01
-5.655942763110535232e-01
4.559774323669382040e-02
-2.000490363626650225e-01
-9.301555640953731996e-02
7.603323170554215915e-02
5.228231033768282465e-02
2.064164377489049462e-01
3.469461363019045730e-01
-3.385265065464487799e-02
2.341805346901842388e-01
-3.360692577427777383e-01
-9.939602479412992797e-02
8.027049608459022045e-02
-1.387246319800702898e-01
-2.897385545419962904e-02
2.843449202996825576e-01
