5.066293752157452479e-01
-6.397898450856187580e-02
1.495013874669355938e-02
-1.351458639793053362e-01
2.040574635534372905e-02
-4.401769248275186897e-01
-4.086941402240542032e-01
1.233099456220057427e-01
2.240900696984864660e-01
4.517842777114619013e-01
1.882436706489662992e-01
-2.503187389303949129e-01
-1.636433274262899806e-01
-8.118426355017624441e-02
3.302995155284857431e-01
2.533350644900433934e-01
1.077370328642264091e-01
-1.911132082989833725e-01
4.217977987589511257e-01
-5.792818874527823070e-01
-1.750754832332978850e-01
-3.400234033761901069e-03
-2.200571281893634323e-01
3.321671195282335787e-02
5.121819030092249203e-02
2.144021553520412959e-02
1.118407238961787419e-02
-1.302737461535745378e-01
-3.553021920645064724e-01
-1.012147388672688664e-01
-3.525966123206136782e-02
-2.147978220930980842e-01
-2.831843055981616078e-02
3.463371362682214349e-01
6.526423092873775422e-01
3.398703596272300564e-01
1.052152972046151019e-01
-2.985433666283119347e-01
-5.420350597927944269e-01
6.086119432418274355e-01
7.228400110203734436e-03
1.065593195637750540e-01
3.045234189201114980e-02
-3.270604061061236911e-01
-3.824692484757942212e-01
1.200500015771726048e-01
-1.527707030930421372e-01
-4.963890946804806470e-01
-1.461124052802724727e-01
1.051689591565265758e-01
2.902401966931659749e-01
6.530900407212683612e-02
-9.680964410809121679e-02
-1.738474200320770657e-01
2.348474636677755911e-01
-1.346083560445094085e-01
5.462967349405410955e-01
1.000072450487014958e-01
4.715706252171019547e-02
4.378360039222270461e-01
3.502539866551870329e-01
2.836594091940222717e-01
2.515297245050150954e-01
-1.637752034549316005e-01
5.011655783253374796e-01
-2.096662525975424018e-01
2.019416879705772938e-01
-1.639763992111561708e-01
-4.178500792007587283e-01
1.343941899238174920e-01
-6.979309988086566108e-01
-3.618825510030916903e-01
-3.064911535087277983e-01
7.103289426745988677e-02
-2.269187900590435292e-01
-5.154745850192071766e-01
3.277189925868881359e-02
-1.894142969259042797e-01
-4.536934623255226701e-02
-4.636080913360980937e-01
2.302437543283895605e-01
1.897104734537280735e-01
2.949577349026268891e-01
3.787543558005573296e-01
-7.982473502475455618e-01
1.345914982131818649e-01
-3.043639103638595134e-01
4.456525701865353128e-01
1.000000000000000000e+00
5.859404262414341646e-01
-5.462790140892705149e-02
2.451382295231289699e-01
6.416152624328091969e-02
2.555050553715830230e-01
-3.714252956190582933e-01
1.881237792753229776e-01
6.859909082548406589e-01
1.343280793801701067e-01
-7.391119951178767855e-02
1.009441078921710644e-01
2.882723415574409143e-01
8.922248866980654614e-02
2.176433389361815685e-01
9.933079456552877662e-02
5.142926698408849528e-01
-1.209742023379541120e-01
-7.787359946103664110e-02
-4.503914161988676890e-01
2.279909656921478012e-01
-9.557128855559202107e-02
1.843554160028133826e-01
4.436969809684234572e-02
1.024404405224070558e-01
1.110387598859797070e-01
6.451285526934420478e-01
-1.617482574336520373e-01
-3.692067982105891599e-01
-4.302067429554062850e-01
-4.047566796194706495e-01
-5.145532599420539199e-01
-3.264946585564652559e-01
-6.536817416350402254e-01
-1.970089526251499745e-01
-4.132581217994281131e-01
3.581562550831696862e-02
-1.240707236943194708e-01
-7.441799276920630923e-01
3.916407843638869402e-01
1.575532073035087188e-01
4.956798868907336120e-01
4.432916266808615280e-01
-9.309059841450381678e-02
4.299112223996585658e-01
4.541526911882982076e-01
7.714370760212008182e-02
3.735326568768350397e-02
-1.358175549120611315e-02
4.225249497487081063e-02
-1.749828604327737791e-01
2.435879344770515154e-01
1.988173178969800392e-01
1.338580397526098476e-01
-6.484427356793327490e-01
4.622066900615459106e-01
4.188467069242966523e-01
-4.802941933577387079e-01
-1.558626914475154945e-01
7.018952791572202754e-02
7.573009502599968579e-02
1.500919459793987332e-01
3.169043028729510297e-02
3.550592069294137842e-01
1.504345974886707460e-01
-9.632903001927194120e-02
6.997073109086002773e-01
-2.091491126518786048e-01
-1.097208504003524682e-01
-2.633677445692223507e-01
3.317743405912419730e-02
-6.198918063595124650e-01
1.553466535292192807e-01
1.100940227757711554e-01
2.210419064664854716e-01
8.557207438475201988e-02
-1.219047819508954078e-01
1.609505540608689445e-01
-9.592732517886622123e-02
2.215374659321335538e-01
1.215231888816818290e-01
-3.768944129693062028e-01
-1.995654274176396348e-02
2.404928117026653989e-01
3.591693605460439254e-01
2.863194158720618332e-01
9.594710966862539381e-02
-1.872649243031582894e-02
-7.772721979948367388e-02
-2.785763362148365729e-01
-2.529592343133035270e-01
-4.558847533426515358e-02
7.258035311464608452e-02
2.869782319391196990e-01
1.248626267849369809e-01
-3.002396777175539433e-01
4.797345196470287898e-01
-3.473259317718191963e-01
7.858534838729487326e-01
-4.114292546402869566e-01
-1.393090760771084971e-02
-1.915308350131785797e-01
6.175603195114803823e-02
-4.951567596785304559e-01
1.228248397871237185e-01
-1.402282111154028454e-01
-1.571850118133967522e-01
2.470553024046493462e-01
1.824288386442981524e-01
4.196994381745466351e-01
-4.688416142391862995e-01
-1.879281969561743260e-01
2.880265784318508659e-01
1.353501777276803486e-01
3.997170636156709839e-02
1.645919260850505772e-01
3.453122295236105144e-01
1.206623471365741579e-01
-4.970820206746897618e-01
3.395074231581740043e-01
-1.463018064949868080e-01
6.520080504822958201e-01
-5.789615047438197992e-01
1.121839040066710119e-01
5.633254226221431349e-01
3.786011453169781105e-02
3.387914405717557531e-01
2.108027472609827480e-02
4.560087072762661897e-01
1.267690466121497161e-01
-1.796467117920834411e-02
-3.597305870276361339e-02
1.502934652222890077e-01
3.828568217541719609e-01
-3.349486030683121451e-01
2.336473669561069111e-02
-2.345355121885781824e-01
-3.823160643496732042e-02
-8.413112726435598154e-02
1.537517849032367656e-01
-8.886638219648376746e-02
-5.854436261006915054e-02
-7.984484616086258424e-02
-8.179944062857181786e-01
3.565233809809287835e-01
3.237773841013595333e-01
4.758022792416053415e-01
-2.202441481143971869e-01
1.651758865408269605e-01
-7.127794179624848125e-02
1.599175961267579327e-01
1.502233470796294212e-01
4.240055303331909387e-01
2.488066764606288728e-01
-1.549210959063210824e-01
5.549904291785956109e-03
-1.407421916298909892e-01
1.958493232311526722e-01
-1.019670317346754729e-01
2.377935273205472877e-01
4.632709385101644317e-01
-2.662550220021051572e-01
2.776881913949316161e-01
5.337825125578314622e-02
-9.005660770602598453e-02
-1.980237431435904749e-01
-1.749487036923134120e-01
-5.497436509274516991e-02
-3.618167911102811857e-02
-1.507423591100078009e-01
2.062909636049205520e-01
1.491106999395269174e-02
-8.776573624245475047e-01
-2.583473625386463746e-01
-1.040632188520902585e-01
5.564756692940974608e-02
-3.474213312778564045e-01
