4.434288855938640916e-02
1.386824693843977663e-01
4.033831702304403743e-03
-3.447125927159679915e-01
-2.516020781185292488e-01
5.850106769260861317e-02
-2.289714760482840505e-01
7.856054578365001539e-02
2.304002454046675391e-02
-1.300503010993684927e-01
-9.530668735593571250e-02
2.689550530215049085e-01
3.209768614079520632e-01
-1.603457909699730621e-01
5.374830365868518700e-02
-1.761339291810028462e-01
-3.090985161151991178e-01
1.948123285380531367e-01
-4.431472170301508640e-01
-3.417656949911728748e-01
2.190455243021899867e-01
-3.681653073704413415e-01
-4.711883501178363298e-01
2.893440376922161716e-01
4.570069424774345079e-01
9.541578466880883125e-02
5.998299192794276369e-02
1.938213226209950513e-02
1.252568462949206485e-01
4.442766805154611531e-01
-6.049306477239752011e-01
3.165798055884782580e-01
-1.525884838242243247e-01
3.545604975131892711e-02
-2.184121776338265042e-01
3.707534243561588783e-01
-5.147666956211964517e-02
1.233522115881524051e-01
-7.125632378212481965e-02
2.147181078507651164e-02
2.600541065335531393e-02
4.156261963264819559e-01
-4.520180352895183384e-01
-3.084075170665729893e-01
1.977355392842183868e-01
-4.259680868428377121e-01
1.930105377593101523e-01
2.512223755043221374e-01
-8.128388983909122512e-02
2.337232385086512876e-02
7.369657699436276133e-01
-4.651760241705487076e-01
-2.304705130775178967e-01
2.067454580792055518e-01
3.643835518521850725e-01
2.490186369720202020e-01
2.793746907037267246e-01
6.309788320112779125e-01
2.861503764397794747e-01
1.177722517337152774e-02
4.357200857880270117e-01
-2.167162454982591024e-01
-8.960529752018332739e-02
2.204759887871780566e-01
3.133584919816826964e-01
4.473851668940903581e-01
3.946843558025850962e-01
-4.688136607406527268e-01
-2.792489853863416305e-01
3.167976784962306391e-01
-1.766851685760590374e-01
-9.409156665447127033e-02
-3.227699157621971016e-01
1.572143780448522765e-01
-5.203234672148455697e-01
-6.006958648746856325e-03
8.773796908396254424e-02
1.338234928030211102e-01
-8.273515096550199122e-02
3.067728333717531508e-03
-5.657402236960497321e-02
-3.282042052851733699e-02
3.831139433481330903e-01
5.927376609189418666e-01
-2.396657682369942033e-01
1.701593773481384075e-01
1.432116529727953669e-01
1.858242101361203824e-01
3.553067991993631436e-01
2.125699407560875387e-01
-1.621049978229088251e-01
-3.812600500789895541e-01
5.708230798076412427e-01
-4.471582308693979324e-01
-2.724324625980496101e-02
4.988611045125306287e-01
5.531136463444916718e-01
-2.870439017010990163e-02
2.660416928510260237e-01
8.020009937181068471e-01
-6.080789186405552438e-02
2.632841254602116265e-01
-1.094649550147350769e-01
-1.429651998037261562e-01
3.577193778097048082e-01
-1.281704369074158079e-01
-4.577257364315867605e-01
3.245299690244783930e-01
-2.186042902645258801e-01
8.113909021556382772e-02
2.256206333908436501e-01
-4.380137430799677101e-01
3.980380320963318730e-01
6.366330865984596299e-01
-1.846250104082194921e-01
5.765824548278666861e-02
-4.613655824051682286e-01
1.277960148931075179e-01
-2.169567190260691114e-01
-1.984425290219859750e-01
-1.147554871253524261e-01
-5.159684737045334701e-01
5.459714626522943481e-01
-3.803539511971946729e-01
-3.902366272402490455e-01
7.357343448851698386e-02
-5.002469114006459217e-01
-3.224684694530265128e-02
-1.569390536755331245e-01
-1.016208424139068422e-01
-5.274773960303598130e-01
1.278212035318825046e-01
6.026409870721854967e-01
-2.882433062322022344e-01
7.207607726840924434e-01
-2.003051828024569880e-01
-7.055268342104378254e-01
1.943801834565720421e-01
-1.706722851660231743e-01
-2.216136452973095361e-01
9.088543976134092484e-01
-1.325514010379368057e-01
-6.451497006126233336e-01
-2.837202855106449317e-02
7.586200933797236645e-02
-5.645466634479299195e-01
-2.891833074163168149e-01
-9.580915989905053332e-02
-4.340433295594834373e-01
-7.868419704124333947e-02
-1.674199907205728977e-01
1.676245367190220548e-01
-1.372175199699500747e-01
4.080191953398085158e-02
6.382494068127678721e-01
3.581103379932867870e-01
-1.048916154064354622e-01
5.287037012418577264e-01
-3.915406129348897660e-03
1.320747842851667520e-01
-7.687138477045039053e-01
-2.711421814434593625e-01
1.980649551620402848e-01
2.733048275678894717e-02
-1.126993300265620029e-01
9.234715168214757686e-02
3.714346213205230868e-02
2.941542159924458444e-01
-1.882071581043792408e-01
-2.325361698239155062e-01
6.831663845876794205e-01
4.326960195039994406e-01
-3.331971284459140509e-02
-5.965662098599523455e-01
-5.121070302836933097e-02
3.086603071101939322e-01
-3.809982278423381108e-01
9.303475953013978783e-02
-6.418781092946493905e-01
9.868078420606127277e-02
4.420662203207336577e-02
2.375465151660432483e-01
-3.757500272387534479e-02
-5.813270150906290484e-02
2.129536863094577681e-02
9.462463362317231896e-02
-1.313776316436066072e-01
-3.210800211602488075e-01
4.076312858542919804e-01
3.749423154100947619e-02
-1.207707717192095520e-01
-2.463963107642298533e-01
1.731946717234374433e-01
7.266354796390427362e-01
4.888305599817535096e-01
-2.743972185070260306e-01
1.175724025903122499e-01
1.590708896995443600e-01
-1.705219536115724910e-01
1.935538956625016405e-01
-2.088442302372842951e-01
-1.107987874274408702e-01
-3.530439615334869385e-01
-3.529802783892838081e-02
2.172768146718496163e-01
-6.916459421600265611e-02
8.651384897901778781e-03
-3.778658447662608388e-01
-7.050860793775031166e-01
5.220480330690559917e-02
7.713238805468167203e-02
-1.798705326731292464e-01
1.783521107029574504e-01
2.676291179287241390e-02
5.258178442550667797e-02
-6.202990012121525204e-02
-2.279110121426331792e-01
3.584480016210236375e-01
-8.400351230475178177e-02
3.328091411629223173e-01
2.764871298062890337e-01
-1.864365960059266580e-01
-6.574304686408904974e-02
-1.756025898806914953e-01
-3.614007330844636878e-01
1.717604246699403620e-02
5.574403913953124290e-01
-2.409193736758476756e-01
3.277240125982070623e-02
-6.493424790140296665e-02
1.044280928661449337e-01
1.019125978261064130e-01
6.049663641634954736e-01
-5.116214829954772725e-01
8.309183194191364918e-02
-4.436374659047740976e-01
6.245865071591477635e-02
7.156712067046630543e-02
-1.021747282892279396e-01
-2.217283521252775280e-01
1.546276377869476304e-01
4.173768246531949777e-01
-3.780658740118115202e-01
-1.843798592721657137e-01
6.168779540496989178e-01
-4.639094356900236304e-02
-5.894450666481183543e-01
2.367176166275782034e-01
8.122478032358034783e-01
8.962694705563999387e-01
1.417826867400433233e-01
3.439685773536195756e-01
2.112975703213637868e-01
5.115974467405179915e-01
-8.086823891211430970e-04
-1.279958598589956975e-01
-2.301713180019656080e-01
1.928320849355155131e-01
-3.391737670994067755e-01
-1.172143188172816708e-01
-3.194445247429856805e-01
-2.941057522611797981e-01
-1.063122026765323802e-01
4.127139685079428411e-01
3.525006152605842380e-01
