-4.957124888466143270e-02
1.714367421983901407e-01
3.449863518542167773e-01
-7.522048067717758413e-02
7.678549780912594658e-01
1.887894574849885987e-01
1.081241270810551630e-01
7.324062709168080443e-02
-2.377162309629569925e-01
1.763531237734496659e-01
-3.082782853579528193e-01
1.322536127336085554e-01
2.227827200046238743e-01
-2.464501724745123308e-03
-5.335086018058856488e-02
-3.000866951233156499e-01
-8.513022361096017621e-02
-1.269008456626020132e-01
3.131587754731547935e-01
-1.279123057876039027e-01
1.074558138174874083e-01
-6.852351513178397413e-01
2.701595309830748248e-01
2.133912614470230840e-01
-4.352589761355233344e-01
-3.390723569759571676e-01
-1.428218461145011609e-01
-2.897365581715128369e-01
3.152740221760730877e-01
2.727853204353706748e-02
2.060044931018543968e-02
2.325312391378110133e-01
-2.470459605727879648e-01
-3.191004537405224273e-01
-8.390747579861002059e-02
-1.383280131767611679e-02
8.312292839324361138e-01
3.315843908401338580e-01
-1.334767074381147667e-01
-1.932232182873125370e-01
2.728741410711952864e-01
-4.171137974988953778e-01
4.353797105465050388e-01
-4.115678363543758822e-01
2.397887936893383642e-01
3.018238404723627144e-01
1.750141850316175030e-01
4.479855998601904310e-01
-9.631996725823582794e-02
2.340476625120100351e-01
1.369775389323620585e-01
-9.903948189105479805e-02
-5.712254533686994540e-01
2.042962105859616184e-01
4.355402924379226520e-02
-1.151574032827716032e-01
1.136008950754858332e-01
1.573331160842340315e-01
3.098283463373871505e-01
-4.493952394054462895e-01
1.294568481163878015e-01
2.118441081738242915e-01
6.400271002148770483e-02
3.817448790878729126e-01
6.929700849984014865e-02
2.179080419498193866e-01
3.259988261786507802e-01
-4.627599801128583490e-01
-3.430956969001884849e-01
2.832362979206909936e-01
-1.879409778176919232e-01
-3.381611981628729890e-01
6.497497809111532074e-01
7.088843417562205873e-02
3.214008767433964020e-01
-1.801465175128738883e-01
-1.174230196249406583e-01
2.426754977852442208e-01
2.195455760348117569e-01
1.669905649142613135e-01
-5.187394379617035062e-02
4.340233716139584724e-02
-7.230781301270913231e-01
3.005375271349956523e-01
-3.124955913569492094e-01
-3.913070579115617842e-01
1.753529616496176946e-01
6.960856147166377683e-02
-3.011499026351637798e-01
8.240916097839190435e-02
-6.080403874042585033e-02
1.126524667470156643e-01
-1.095141528456397041e-02
1.195523982404489427e-01
5.489880543585114875e-02
1.063730227181142879e-01
8.558133855900701414e-02
-3.169269599600545995e-01
3.371940823834477380e-02
-6.129635871629034449e-01
-5.040048146102379389e-01
4.982949736689829684e-02
-4.228091208635188086e-02
-2.180770803436368754e-01
-1.301482065361049822e-01
-2.941615141223890562e-01
3.094667081107758677e-01
-2.857203919076237164e-01
-4.987007550010502666e-01
-4.456494459406037251e-02
-2.142946428210926180e-01
-1.453518272358426261e-02
4.475051848063483773e-01
-2.871899949764103455e-01
1.186977654312509345e-01
3.619652752388340944e-01
2.404589542906335475e-01
2.719465389706740566e-01
-1.923187110387439003e-01
2.753142053226114716e-01
1.165448457148211547e-01
-3.377729985437878946e-01
1.405253617252279763e-01
2.076134539500228415e-01
1.913863404813633817e-01
-2.765357600502101332e-01
3.278864009840999627e-02
1.304344699951431874e-01
8.891675464604252566e-02
-1.287254313249598381e-01
-4.253594738159062194e-01
3.342379241755631392e-01
-1.721943651339726336e-02
-2.644395739098482911e-01
6.432582317068458178e-01
3.294146773894995189e-02
7.081103967826667817e-03
-1.751650895379590345e-01
-1.782053038600548422e-01
-2.203621965805631355e-01
1.707551263312265255e-01
-3.650338510698502431e-02
-3.215143343137667059e-02
-4.114008523700902198e-01
1.836272852870768080e-01
-1.526445206153041745e-01
3.696092596473699587e-01
3.135080637305461271e-01
-3.356065504670464605e-01
8.027219877036456674e-02
-3.249916819074098462e-01
-1.738884838321931581e-01
-3.194136364992262722e-01
-5.246182725052319640e-01
-3.687325552478145640e-01
6.349106823673308919e-02
1.056276357314773623e-01
9.678469346092288816e-02
3.972318043875208704e-01
1.548068207544998432e-03
1.054031670874347112e-02
-2.460110558918118112e-02
-8.918372871693186488e-02
-6.962699924159162501e-01
4.032395475098032867e-01
4.739191843941702453e-01
-2.430257589947804608e-01
4.945237615246211860e-01
-1.110673467975253625e-01
-5.888919228326613270e-02
1.007840955356207324e-01
1.306176711479425934e-01
-1.687536428248711806e-01
2.366322975855706112e-01
-5.922713503412009306e-01
-2.091198368556801135e-01
-5.405842369366324618e-02
-6.459224807196496665e-03
-2.493024356044699075e-01
3.059845701972221388e-01
-5.988301421223499732e-01
9.805065011975933054e-02
4.279732243952456827e-02
4.099074916623013931e-01
-2.802000150118165722e-01
1.491864096703924281e-01
-4.656802606249979548e-02
-1.670720902590412393e-01
-2.015665917974918675e-01
1.453644178473319504e-01
-6.499548356592572962e-02
-4.165037976406816278e-01
6.694655767654363876e-01
-5.531438581707340957e-02
2.476661958720343948e-01
-4.608452944571657384e-02
-2.002705781722432798e-01
2.028845948726716586e-01
-2.561640928247324034e-01
-3.596660941762257202e-02
-3.861382933455098088e-01
4.706320977980564813e-01
1.163515759052888981e-01
1.502985354831526399e-01
-7.477862723235176312e-02
-2.903855501060258471e-01
-4.886044754000147816e-01
-8.985495394820711135e-02
2.165320769189299846e-02
2.609631115158782613e-02
-2.199876369989293701e-01
9.650101956922203794e-02
-2.262735638998357168e-01
-3.935852464053987698e-01
2.543538445993949737e-01
-8.960971561658150064e-02
1.544967531686687046e-01
-2.294747336875313237e-01
-1.447816874203076143e-01
1.209949038427740736e-01
4.833476853826597641e-01
8.254580253687124336e-02
-1.405477779707366703e-01
6.975685080766015345e-01
-2.731174940566727938e-01
-3.356469319198714107e-02
-1.226005405035831275e-01
4.606328934534824060e-01
-5.109181579329716977e-02
2.572062865820070043e-01
-1.614665362676392935e-01
-5.199012664920504845e-01
5.501438203688054779e-02
-8.108764370161161694e-02
3.593236728522439943e-02
-6.096712045599034235e-01
3.276369003972138261e-01
-1.685075385311915475e-01
5.672250399770200069e-01
4.085560052127006764e-02
2.542553708654416572e-02
-6.434841359140049954e-01
2.405141259307834734e-01
-5.473451297169710239e-01
-1.865529611298369084e-01
-4.952348050922892320e-01
-5.110439206179827609e-01
1.868613968441288631e-01
1.402389890456561539e-01
1.148140320557609062e-01
4.817068347476764489e-01
-9.361117822567929792e-02
2.699339317125786300e-02
1.382887519270474264e-01
-7.188459099915016359e-02
-2.175992351613537934e-01
1.001289614842958142e-01
-2.396778128876134173e-01
-3.118669112286808764e-01
1.333873488433630350e-01
3.122400798544692213e-01
-2.583614050020295247e-02
-3.587145790430127379e-01
7.467975838269327316e-01
1.917743872865697308e-01
