2.734521127220163605e-01
1.730796278677886602e-01
7.232784689958038360e-02
-6.218804512950099062e-01
-3.288787891186241152e-01
2.639935153513255361e-01
-2.189227540562753149e-01
2.736702192225354269e-03
-9.185854496077824893e-02
4.408402916156351631e-02
1.582612364139475980e-01
3.629375755678023729e-01
2.694669004195240913e-01
-2.578324235609317783e-01
6.378115786801394349e-02
-1.578231843215315844e-01
6.901336185224586917e-01
-4.147248692595595920e-01
-4.164752999028453750e-01
-5.294075659744773565e-01
2.445018825741539781e-01
-4.022889993625800020e-01
-8.785066765631387165e-02
2.869943163676460518e-01
4.336020358407272068e-01
2.539120936418520769e-01
5.655746254392780142e-02
-4.517774317106934556e-02
2.469039319486932005e-01
4.619480918592944740e-01
-6.640948889815041500e-01
2.001969486524908248e-01
-7.604231570996551615e-02
2.468587225628090243e-01
-2.567198268743239864e-01
2.909769260279394532e-01
7.033500916659496394e-03
1.792797183701530794e-01
-6.241312007453122396e-02
2.180472971855419023e-02
7.321407661818402079e-02
5.676295399732399494e-01
-3.700567851130520669e-01
-2.424103840053521697e-01
2.048636177033308081e-01
-4.458236227100549343e-01
1.798833136591307114e-01
2.576668430098222884e-01
-1.658426549608622846e-01
2.192367484027454294e-01
7.420198494192637995e-01
-4.088600881266896137e-01
-1.887057076678392564e-01
1.993240892396630493e-02
2.971381490014128879e-01
3.202018243384224250e-01
1.505256065115793407e-01
-4.722922343278031232e-02
2.042661573019146359e-01
-4.491134382362314825e-02
4.469042646837663724e-01
-1.301669079297258225e-01
-2.564196447658417255e-01
-2.913632820768419229e-01
2.946517007279784162e-01
4.625977277639369278e-01
3.855966671639415866e-01
-4.557253499936179675e-01
-9.747661073839455903e-02
3.731086600493971339e-01
-1.750167441626747644e-01
4.977328590625533788e-01
6.058047664317944836e-01
5.312026689312762118e-01
-4.518885586824610279e-01
1.585359389562345789e-01
-5.084544394976897586e-02
1.176167838160059875e-01
-7.372894828302621606e-02
1.393824262860515473e-01
-4.688451426222166318e-02
-7.359601140465894809e-02
3.950984302872990184e-01
5.348604256339642982e-01
2.104834495631526248e-01
1.298443486906432909e-01
7.704582003000198798e-02
1.340902738560373064e-01
-5.071969238966161919e-01
2.799692270969631469e-01
6.637963645237160426e-01
-1.677407017730275784e-01
6.162929871481621635e-01
8.438389233460592831e-02
-9.013068512234866103e-02
-8.519098933917398919e-02
6.371720192140251093e-01
-6.957446694601090997e-02
3.511330585590993758e-01
-3.172044243166379229e-01
-4.853000479110570337e-03
2.820359406979606187e-01
8.972807375861964474e-02
2.662360308329061453e-01
-1.282558675457520503e-01
-1.243758426197614925e-01
-4.819132180846634195e-01
3.689006746899372025e-01
-3.852759487486038803e-01
5.424324594786103515e-03
1.923710388898780821e-01
-3.772140875129389448e-01
4.088118463898972599e-01
-1.592332044391879808e-01
-1.581000390026460201e-01
7.534519059027759702e-02
-5.148621904264731874e-01
-2.014856270120823634e-01
-8.864188739156954322e-02
-7.326711392899065700e-02
-4.313837886215428352e-03
6.498396639329933645e-03
5.895852914454433602e-01
-3.294571145944892310e-01
8.736555681980184840e-02
1.318178864339316636e-01
-2.300576333765545767e-01
-7.599982565984280125e-01
-2.559163957850746351e-01
-3.637692497993263441e-01
-6.327417767334766463e-01
6.635353757863117485e-02
6.107915703268348429e-01
-2.584558024820282629e-01
6.339930285841033353e-01
-2.687561567539348828e-01
-6.631430610609110321e-01
2.647598776847051028e-01
-2.786155604247527728e-01
-2.183596812427028300e-01
2.076229684917665630e-01
-1.405598123251214915e-01
-8.422329527571935648e-01
-4.701481484484283657e-02
6.273156421747294598e-02
3.574103426472660661e-01
-1.050759196266810996e-01
-6.410049568386670671e-02
-3.410463306527457550e-01
8.125442970104312934e-02
3.121090515663046960e-01
9.381678296722223420e-02
-2.090822819422838708e-01
6.147797123589135437e-02
6.248463038203579956e-01
3.760424444044241366e-01
-1.353732162007469653e-01
5.721632307675852402e-01
-5.833962027384277382e-01
1.158101400809457282e-01
-7.138590862177027763e-01
-2.697068346749315615e-01
1.548701631004262835e-01
-4.617346657034744339e-01
-9.731847833946025150e-02
-1.498957216805755499e-01
1.086001759616359030e-01
2.267781806681783419e-01
-1.186772093683790413e-01
-7.752959597240242917e-02
-1.801362735766207646e-01
4.637357882131274422e-01
1.202887741052211489e-02
-5.241573842975654207e-01
-9.276741330809412656e-02
2.891863858031820667e-01
-3.986024136336078771e-01
1.478689848369515447e-01
-7.139947771963340850e-01
9.886548478697537723e-02
-2.923891315819360237e-02
2.342392133347757366e-01
-7.930924018741829229e-02
-9.680368781022972990e-02
-3.380353179189858615e-02
3.336311228838343412e-01
-1.806513287927878353e-01
-3.689745210534897679e-01
3.778481611669514684e-01
7.863087200743985872e-02
1.398416171372393255e-03
-3.184139592126356555e-01
1.992498934159107338e-01
6.737104053924507507e-01
3.334545663022753792e-01
-4.500377234122080461e-01
1.125399723698868037e-01
2.772885869495590461e-01
-2.492621815103371885e-01
1.184615826812570466e-01
-2.611668777386271789e-01
-1.671570420858133899e-01
-4.007237642736877214e-01
-2.173052858450983879e-02
3.127585346637240526e-01
-7.872423473797789395e-01
-8.339527943205893301e-02
-1.701969255602936160e-01
-6.734719238783724027e-01
8.760375072758883053e-02
8.068004877442684630e-03
-1.362395806534406062e-01
2.377007143488425178e-01
-4.219590700633182867e-02
7.472527067286240110e-02
2.923833290118393879e-02
-2.267444585421181380e-02
4.309693000132276408e-01
-1.044364063490059585e-01
3.846176024727562814e-01
3.513669907439554430e-01
-1.034890193907882644e-01
-1.745352347029171733e-02
-2.195320964718710799e-01
-3.762065541509422295e-01
1.719013408461968206e-01
5.392653737568560146e-01
-1.657601467530837314e-01
-9.287758355231214361e-03
-3.305835777714588586e-02
2.013509244419739719e-01
9.391174188081266583e-02
6.409522029336003901e-02
-4.987740948192893597e-01
1.671744849965165619e-02
-5.191045054017588978e-01
1.016874754292632216e-01
9.477299892970872386e-03
5.106623762616280260e-03
-1.159036013431812978e-01
1.770235378958676109e-01
4.430653921951767660e-01
4.597756116946861704e-01
-1.415903766621757764e-01
6.186753276432819248e-01
-4.579842311242756162e-03
-6.336516521745153563e-01
3.886934103031520205e-01
9.196399305517525269e-01
-2.204349949426526734e-01
3.881584212322748001e-02
3.666591936808180074e-01
7.032992038447252736e-02
4.573088407735277361e-01
7.843790609273153247e-02
-1.601934667073503515e-01
3.605964784527084244e-01
2.631108971139916042e-01
-2.797233281730074350e-01
-1.538480473506893542e-01
-4.020515363708969114e-01
-3.011557082272687813e-01
-1.966331290768766615e-01
6.846799394799187866e-01
1.893200604424943312e-01
