-1.803372999530098719e-01
1.980824458971898183e-01
4.033831702304403743e-03
-5.776561054440990661e-01
-2.625879761026103099e-01
2.745047143499006470e-01
-2.380383264855244208e-01
-1.171786011457685850e-01
-9.185854496077824893e-02
1.141172182256968287e-01
2.235506039337203654e-01
3.258015039987697814e-01
2.209955641710298346e-01
-3.131777447634054856e-01
3.234363497239398089e-02
-2.352783336077207965e-01
2.140859561845414594e-01
-4.015722677990008482e-01
-3.807425405293767273e-01
-4.438535470470862943e-01
1.137336426533307188e-01
3.168053152614441759e-01
-1.713431721522031825e-01
3.383341047781495137e-01
4.728371505921157292e-01
1.617722334937339856e-01
4.961510314513863096e-02
-8.641301906437502678e-02
1.865282761624023899e-01
5.449712488908098340e-01
-5.456499515802857442e-02
1.880733627138881925e-01
-1.865296935487272267e-01
2.249409986361340097e-01
-1.654884314452862160e-01
3.764927193218920998e-01
-8.429858950486410207e-03
1.743405519563958894e-01
-9.051684843644064449e-02
9.603699973783882959e-02
7.321407661818402079e-02
5.676295399732399494e-01
-4.047580104987318905e-01
-3.298605704744551614e-01
2.181070484251863839e-01
-5.054608521702829149e-01
1.363701097453127176e-01
2.689982752465931437e-01
-1.740009777299582061e-01
1.301334293131768682e-01
7.365617066913582311e-01
-3.891430060829115245e-01
5.664132855343806394e-01
7.748154609686611072e-02
4.894435844731570007e-01
1.717929417498595956e-01
2.989023859530187677e-01
5.997124694163198377e-01
3.482227797622222121e-01
-3.483358692414417063e-02
4.860983721821100501e-01
-2.352321082294091259e-01
-1.414281138030011042e-01
-3.217173834182499581e-01
3.625420337372323720e-01
4.538161385783631152e-01
4.307535977515182801e-01
-4.415809733037608931e-01
-6.514758179917826131e-02
3.400952093388127651e-01
-2.238363219198143128e-01
5.351716655415875712e-01
-4.057354608672846252e-01
3.881860663911211873e-01
-4.539393531754474798e-01
1.200790972516783267e-01
6.064991676685313471e-02
1.300737905400532191e-01
-9.704109395513063618e-02
1.476609862414273722e-01
-9.056989637501007551e-02
8.883670791121053845e-02
2.685640612021980567e-01
5.960840523242524336e-01
-1.059866947704712070e-01
9.054491831024383264e-02
4.241942611972916721e-02
1.494313998641878527e-01
-5.071969238966161919e-01
2.339372043819401559e-01
-1.696460789089690724e-01
-1.677407017730275784e-01
5.805969717032379851e-01
9.157150687621912200e-02
4.559123786821906998e-01
4.799564905102743917e-01
6.564487747220048020e-01
1.544427230583480526e-01
3.103674171894880152e-01
-3.288906772708888315e-01
3.811226831340913113e-01
1.901343453183867160e-01
-7.814249453049887384e-02
2.732823404497419784e-01
4.337585311833691004e-01
-5.960488696945924481e-02
-4.848164043226314557e-01
3.312479845602851469e-01
-2.442937868711904659e-01
7.045456698537411189e-02
2.493634312405223485e-01
-4.512443668340851421e-01
3.696654000192370892e-01
-9.652178364201026428e-02
-7.560718875684659113e-02
9.737917993788337834e-02
-5.183585829783419197e-01
1.413561799305176614e-01
-2.029738789668311949e-01
-9.531433616475132320e-02
-5.283074730668804037e-02
-5.548548451661493575e-01
5.716112254920495683e-01
-6.785883727191018844e-01
-4.231365834457901931e-01
1.324115707099524364e-01
-1.529117954794655676e-01
1.394328222613220314e-01
-1.862595116593748212e-01
-2.475304159837519724e-01
-5.828793693663920639e-01
1.486168548882634277e-01
5.859223875550854110e-01
-3.316653057777064206e-01
-2.657296698659594170e-01
-2.516931144836484502e-01
-6.867193603104749799e-01
1.943801834565720421e-01
-1.885725030368791411e-01
-2.246276546316880451e-01
1.628073488995845086e-01
-1.879980415838156116e-01
-6.796959231791358524e-01
-2.743485432963152504e-02
5.913719244609254994e-02
4.522778398003596823e-01
-8.439091200239817736e-02
-1.668278673001977186e-01
-4.843498827068989376e-01
2.325276322914168747e-03
3.532886154015512647e-01
1.165214800404782147e-01
-1.684676890529116511e-01
5.797185339455666192e-02
6.431211770417644136e-01
3.836477884727679255e-01
-1.552454191001804706e-01
5.466955957406975930e-01
-5.850128212697298657e-01
1.158101400809457282e-01
-7.138590862177027763e-01
-3.064290934034241687e-01
1.891226634187064826e-01
-3.966412816536838415e-01
-1.353526605977308228e-01
-1.863873548466415675e-01
-1.653982535930953457e-01
2.267781806681783419e-01
-3.234834428740544499e-01
-9.273487312522454840e-02
6.278778892914715914e-01
3.817258911035281699e-01
-6.884829129374187007e-03
-5.708983764365693769e-01
-2.992617533094744930e-02
2.008687387136609548e-01
-4.420962999923332970e-01
1.535842812659567735e-01
-6.279735647730970705e-01
1.480779888810083295e-02
4.606507376840590640e-02
2.538327551234308421e-01
-7.930924018741829229e-02
-8.829046673448298632e-02
-2.168591121780573394e-02
3.952867639996563986e-01
-2.035067628748183644e-01
-3.741230118065987931e-01
3.698211836683570342e-01
4.064603460812542257e-02
-1.252044790605307822e-01
-2.629508407125509817e-01
2.266073263583985864e-01
7.564347691789606865e-01
2.959838650667945825e-01
-3.816931295480405217e-01
8.311995408538937202e-02
2.725059166896849905e-01
-1.530185405275071298e-01
1.824898593115475975e-01
-1.395345386741530247e-01
-1.520357473854055952e-01
-4.494360971663508009e-01
-9.051896974022040354e-03
2.223771635794200563e-01
-7.793089823250964887e-01
-1.420576906470342737e-01
9.061424494476172375e-02
-7.208185714447692405e-01
-2.958921025310742164e-02
8.068004877442684630e-03
-1.729529069392947704e-01
7.883834947751830469e-02
-1.037664868474893476e-01
6.652335930490757554e-02
-8.985693739481973030e-02
7.010445728297176604e-03
3.488372343698415423e-01
-6.026828386772517532e-02
3.846176024727562814e-01
4.305034604978025259e-01
-1.172064702116502044e-01
1.532149351661210579e-03
-3.009858562859562547e-01
-4.085413607392788804e-01
8.027027057404144406e-02
5.324509401715389334e-01
-2.650264275542626446e-01
2.347657793775718982e-01
3.316926440068758419e-02
1.698313040590624101e-01
-3.534811336985917846e-02
2.834527549865093615e-02
-5.945316421333346479e-02
2.940271456495198721e-01
-4.806508199002812454e-01
5.197182600301503141e-02
1.962364798968343482e-01
5.389485197670167843e-02
-1.891648861661090197e-01
1.424808416983532056e-01
4.852205967053176416e-01
-6.393149261587025012e-02
-2.294063484648910800e-01
5.695133991361485126e-01
7.687495797929123909e-02
-8.123763404738393312e-01
3.886934103031520205e-01
-6.105332009853958047e-02
-2.781490958189968277e-01
1.486212087241250424e-01
2.634961299907821464e-01
5.851214468303664318e-02
4.862862336617655989e-01
-3.294565806422640464e-02
-2.310248194982152947e-01
-2.867991706267087881e-01
1.924577527259905829e-01
-3.094721786814205733e-01
-8.799126869091875025e-02
-4.125931406104804133e-01
-3.011557082272687813e-01
-1.921122062737040115e-01
5.389478050836403744e-01
4.064340478640778853e-01
