-3.158970213773840130e-02
1.384974466424082618e-01
3.751302442180742269e-01
8.921978521168977272e-02
-4.287104535642024539e-01
3.220754353173871931e-01
-8.025466847627260591e-02
-3.507472963697744889e-02
-6.746099744920157348e-02
-3.197623210469436317e-01
2.042634479660967450e-01
2.491041841633415410e-01
-8.857628532879937427e-03
-5.772710102213984840e-02
-1.173191516330494011e-01
-6.586590723261620539e-02
4.407453188406285083e-02
2.725018532891721468e-01
-3.478143678946012951e-01
6.758257844079375021e-01
2.322761680604948920e-01
-2.604310849259856564e-01
2.343845625304419311e-02
3.842654242643286921e-01
5.768393114213623551e-01
-8.672763426468540482e-01
6.843084490331520497e-02
-8.985870234542080170e-03
-4.631165990922806452e-01
4.997378680323880662e-01
-2.624801463138938251e-01
2.221653910383196706e-01
1.464344734224639621e-01
6.256685853014808396e-01
-5.901430476218391674e-02
-1.202656611506902201e-01
1.108533163243233255e-02
5.910710782165939231e-02
-1.990074500363040177e-01
4.208389169085900439e-01
-1.407148485820441594e-02
2.983969501614995856e-01
-2.358766847890633733e-01
-4.237230757804877346e-02
2.705970260163323982e-01
-3.461465208295008700e-01
1.984303700485486321e-01
-1.888538787530610885e-01
-9.639268431866096498e-02
1.020783859170261015e-01
-3.717541350726463190e-01
-3.869846993250314893e-01
-1.653927511554073859e-01
5.040447255125660164e-02
3.694308628043828646e-01
1.323667602276596134e-01
2.865505045442489143e-02
5.922593559292689269e-01
3.196626516367576665e-01
-1.522438209561591538e-01
4.899689449140131048e-01
4.409245853664778281e-01
-1.665719204671846712e-02
-3.593087649240628845e-01
3.210752111768475081e-01
4.784033466247648025e-01
3.249089981022030837e-01
3.869492956934382777e-01
-5.558497140236590139e-01
2.892454430788219399e-01
-1.114138464498651004e-01
3.199259611348304055e-01
-2.974732391673401422e-01
-5.926255936993438667e-01
-4.903578623751615462e-01
1.746544751632828629e-01
-2.410036740645004824e-02
-5.229776842853036678e-01
-3.878471150784377347e-02
4.120362710044839227e-02
5.030076181307355926e-02
-2.076997674395272137e-02
2.390939200287857391e-01
6.245384045596730216e-01
-1.808395566072079075e-01
-8.051702038480396117e-02
-1.200061880345890120e-01
3.897500735388751414e-01
-4.547021076467247513e-02
6.669537472367938202e-02
-1.096344663962456160e-02
-3.379722847387844897e-01
5.505285438401613662e-01
-1.834662123526515087e-01
-4.530125229687607946e-02
5.212652539794491169e-01
1.805589592525842502e-01
-1.332703808139703017e-01
1.690386603591899073e-01
-3.536712827604966691e-02
-6.033445142266574690e-02
3.391386412438096021e-01
-2.015862768744074163e-01
-5.519340931247288529e-01
4.365833895410242693e-01
-2.148830999370408001e-01
-4.881173930280914286e-01
-2.469052002278280047e-02
-1.785932532487326529e-01
2.008584631173692681e-01
5.422967416274103447e-02
-1.471681575802845088e-01
4.074443673243473008e-01
-9.275125218931623561e-02
-2.045495117334031332e-01
1.290395989465900617e-02
-4.112009874946909727e-01
9.533108857129163338e-02
-1.627676892226876393e-01
1.367234713283318418e-03
-1.448760948656765968e-01
-6.530042277363364844e-01
-4.908138033209343692e-02
-5.660941721563166329e-01
-2.103548628337844895e-01
1.886560722811420621e-01
-5.504377214332352164e-01
1.438493860956905623e-01
-1.233779385676034984e-01
-4.157843331084002392e-01
-4.172483809719999548e-01
2.156640458976453734e-01
4.126537892795142243e-02
-3.258734396660957211e-01
2.449653450696062662e-02
3.253943254201508983e-01
-6.952298306114204074e-01
-4.854307888552030770e-01
-4.122171162307645270e-02
-2.865792709903628999e-01
9.589747287844665458e-01
-7.345369563699868931e-02
1.213745557394024510e-01
-1.179511802613056048e-01
-2.279377555479207285e-01
4.641796716688364466e-01
5.563649513468350571e-01
-1.867037161827862501e-01
-5.655079160115896730e-01
2.649482049515437532e-01
1.251478932153682888e-01
2.027443072352109465e-01
-1.527459060509959998e-01
7.137990715803224639e-02
-2.717410563840852999e-01
3.677858052071366068e-01
4.481771259065953084e-02
-2.749218036409892263e-01
-4.967808039611549820e-01
1.540770780137363516e-01
-3.184871184346569351e-01
2.453640048782874394e-01
3.177279201492359539e-01
-2.858630777300361636e-01
9.559727342152522095e-03
3.026738651825140042e-02
-5.258171377263362589e-02
1.853958072956074163e-02
-2.081096355451057811e-01
-3.708965483653682282e-01
-2.473436084775022248e-01
5.226250163769353974e-03
-3.985702334295369159e-02
-5.922698359965146153e-01
-9.424921923336904497e-03
-1.276396570492461247e-01
-3.963574125486209465e-01
1.699190788750115644e-01
-5.482852911080143832e-01
2.145646504956585932e-01
-6.715374149724460950e-02
-3.972142110134612158e-01
1.059438639703568774e-01
-1.868058831953898213e-01
-1.073785769293319481e-01
5.310591658520134178e-02
-2.716460818911671793e-01
-3.880577521124898288e-01
2.229167971837471007e-01
2.188072002442703334e-01
-5.196202341077482689e-03
-2.960455377450127989e-01
5.557971200270874629e-02
6.811849888175347534e-01
5.148210481539855499e-01
-3.016590168247727521e-01
-4.365843479036711217e-01
2.168554431339520805e-01
4.270794712290607031e-01
1.335448356328994557e-01
-1.292163558720418326e-01
-1.059961549073253489e-01
-9.765002319033830314e-02
1.917051516695212621e-01
2.355750367651638921e-01
-8.042723927683242957e-01
-1.776076468697225519e-01
-8.000287270504570503e-02
-6.363442869764158738e-01
8.722007814282627114e-02
-6.627498016922696022e-01
-8.470640921085427488e-02
1.236644900854220880e-01
-2.363925212881488047e-01
2.052294713642901780e-01
-2.938068260730284514e-02
2.988377456809003241e-01
3.400909596937601864e-01
7.852999965175411212e-01
4.155956105767212860e-01
3.153111613736530594e-01
-1.399827922026802562e-01
-3.051725031940183408e-02
9.315292930715018960e-02
-3.869452500146499108e-01
-1.545211079408404520e-01
-5.329993436834806753e-01
-4.591131059576715745e-01
-2.484025092640038818e-03
-4.265451356355354218e-02
1.442463463526371358e-02
-2.053766817055361904e-01
5.245472458122049098e-01
7.985149453898596206e-02
-1.907149424883982508e-02
-2.461859364350761081e-01
1.629779124094281051e-01
3.694895498361001895e-02
-1.607623357259279351e-01
-2.680151648662114083e-01
3.951420720169245004e-02
4.820847740858485442e-01
-3.157542571062137426e-01
-5.878461685111748686e-02
3.521215130420071171e-01
-1.602280821585149173e-01
-6.910368614418819222e-01
4.862810031067799632e-01
7.658058537721572634e-01
7.845006888343890594e-01
1.715663622963483903e-01
2.842832716688023509e-01
3.742099949687067162e-01
4.174626737947492172e-01
2.818024522935369883e-02
-8.637548856108367978e-02
-1.211690381983623888e-01
2.683685780221825024e-01
7.429368872293526382e-02
-2.880471912123660494e-01
-5.326132232490490143e-02
1.513940908396199381e-01
-2.268234865672661138e-01
-1.671781824892752122e-01
3.736030111037341728e-01
