2.118483717667063448e-01
-1.283395041196669362e-01
-4.812453355727549509e-01
-5.408684826046413763e-01
4.585489610307992847e-01
6.350581052826234085e-01
4.390581899170194202e-02
6.226336513608626139e-02
3.603759088608669836e-02
1.994120375427207992e-01
4.070777002126298449e-01
-6.156480509632318576e-02
-2.280746477134445171e-01
4.868519694861178637e-01
-9.057770293827076269e-02
-3.609998172070903455e-01
1.097002122562026200e-01
-9.196731998047265322e-02
-2.481757839498465179e-01
2.026414999067234490e-01
6.316523118627988265e-02
-6.508362046507689680e-01
3.127674606206353181e-01
-1.111487876913053591e-01
3.342025081447968504e-01
3.389170452430282504e-02
1.519862065276753882e-01
-2.409226948488945308e-01
6.559659454033894832e-02
-1.544262203627613517e-01
2.666875699850789205e-01
2.210289569293833745e-01
-4.672564562773200841e-02
-6.650175895393116710e-01
-6.963620622388812242e-02
1.199499683299497244e-01
2.264353948727356458e-01
2.136103016496732412e-02
3.195144958244263561e-02
-4.149399396515571908e-02
-2.998417544618616759e-01
1.168707715186048102e-01
-1.907747457981652517e-01
-4.477971409812588899e-01
-2.600949985422344388e-02
1.938348969385195464e-01
-1.010831451760275945e-01
1.772676913956431621e-01
-9.514599246608961003e-02
-6.717223222285701595e-03
1.814543597150371501e-01
2.054875655501236242e-01
-1.839363443088117556e-01
-3.902035050856079157e-01
-1.669055061989710986e-01
9.368737629897201658e-02
3.537936727835683248e-01
1.227344895111662781e-01
2.225119491739192268e-01
5.043021569531503934e-01
4.301128197727709102e-02
-4.114029571076067288e-02
3.349020358499961714e-01
1.455754100146124663e-01
3.347930688840599633e-01
-1.336136960046901134e-01
-4.778138183126596217e-01
-1.393054339154205790e-01
1.174024730591461119e-01
1.274884091927700192e-01
7.153390927492719702e-03
2.906199091700358283e-01
3.878559022281070079e-01
-2.781051976723067365e-01
3.211158374510429403e-01
-3.425370559627109457e-01
-8.244048990026807411e-02
-3.227516894066292941e-01
2.175415343433023396e-01
1.988204142660594809e-01
-1.541181094718516720e-01
-5.252092076673828269e-02
9.533076296183568693e-03
-5.833284900623433161e-02
-1.429321495538992369e-02
1.165865560420549507e-01
-3.051682548267395934e-01
-3.565202641062971134e-01
6.354254422278915460e-02
-5.389884722344819856e-01
-8.569524741167620918e-02
2.587590788124142782e-01
7.104900085039561608e-02
1.691384633236539814e-01
3.162595193274649330e-01
3.538056271344724307e-02
4.500758700166043735e-01
2.507572502673766079e-01
1.331701062743090302e-01
1.728391583808903120e-01
2.464565978367836974e-01
-1.447934684095641134e-01
2.458208132318777106e-01
-4.752983523126983606e-02
2.307017759633025189e-01
3.927278660410820632e-01
-1.119187461995467120e-01
-2.692132952199993157e-01
3.651686279216796449e-01
3.091387928729648071e-01
-2.807784904048748476e-01
-5.469969165446345732e-02
-3.848064349762229108e-01
-1.178105003482124991e-01
-5.600313719040703742e-01
-8.555425352284710960e-02
-3.000288194842915535e-01
-4.411587976950969575e-02
-2.647400209446973407e-01
-2.432362782847086735e-01
2.503586565778061906e-02
-4.107045277006007855e-01
2.186142085610393582e-01
-1.997707118281356053e-01
3.771734147207879695e-01
1.579690727654077809e-01
7.983790960683766480e-01
-3.103425566117666290e-01
-3.777304684474000473e-01
9.113095985787411646e-02
-1.961885052833304277e-01
-3.560656160331431841e-01
-6.449862444862377586e-01
3.680535514821027809e-01
-9.673614926733474549e-04
-2.880643574215864811e-01
3.692483026184660289e-01
-3.609613444820552464e-01
6.809871404954057073e-02
3.852070781190073956e-01
2.884882167537570763e-01
-1.199712961153732993e-01
2.934047671103474086e-01
3.219920152202055408e-01
7.739143873572022769e-02
2.245282780316055771e-01
2.596464041649007570e-01
2.012133303807097651e-01
1.076874430791188580e-01
2.308705563419618523e-01
4.838383131492458578e-01
-2.796936112823022458e-01
6.638514061229484897e-02
-9.976875874388334287e-02
-7.840787429597958491e-01
-8.727781486198055161e-02
6.075265177350673562e-02
3.321769842939940598e-01
5.999907658306206232e-02
4.395495988035881263e-01
-2.053195145414583866e-01
-8.837853241990245579e-02
1.672092745857234608e-01
-1.805883376371725246e-01
1.875907688636984649e-01
1.557136672030798308e-01
5.304179057583058299e-01
-1.794809901780926586e-01
2.410704728386831308e-01
-4.235518334933781603e-01
2.135131671483633531e-01
2.823763030733293933e-01
1.313387982399109311e-01
7.888676702120771267e-02
2.266698730074866441e-01
-6.479548335852079732e-02
2.786182979535213322e-01
-3.089815448037572243e-01
6.390571440806643855e-01
1.748873134465838974e-01
-3.952157183840264154e-01
-3.025485627099988029e-01
-1.215580828113580203e-01
-1.572025853443097809e-01
6.002185677340228231e-01
3.809727235631431286e-02
4.974877574274271241e-01
-3.722229210125220233e-01
-3.909465117044829546e-02
-8.027084526001964510e-03
-2.885900517420728062e-02
1.823054911844944892e-01
4.185768914623969050e-01
-2.046142360740491051e-01
2.682212503445529084e-01
-2.807706162979118347e-01
3.108926939218696894e-01
4.373215844036312250e-01
-4.787624642095024696e-01
-4.282041622653149360e-01
-7.510266958778787083e-02
-1.037349663126535954e-01
-5.576796356793654041e-01
1.661817321978656947e-01
3.639210963306506175e-01
-3.379094542948440916e-01
-4.700749681744793851e-02
-2.908096161604563079e-01
-1.927140046960283126e-01
3.985099159400138924e-01
-1.077931902622968202e-01
-1.764927710074153389e-01
3.027497923784491229e-01
9.284811970060691255e-02
6.768603376651685655e-02
-1.851406482097852357e-01
1.560859469656846465e-01
-8.089169756432638136e-01
3.057958202367121459e-01
4.744445547880122849e-01
2.903464231808723928e-01
2.575618850197050058e-01
3.024748976441844484e-01
-3.939304461284077741e-01
-1.614951989897585038e-01
6.067199853086771011e-01
-6.314616438290004963e-02
1.989464518269581650e-01
-4.698475891921664038e-01
-2.332793944206130177e-01
-6.979505358293828232e-01
-2.340791650051854064e-02
-2.020666480909954210e-01
-6.132165821239036335e-02
6.214458167225964808e-02
-1.578348377109725920e-01
-2.555436630931304243e-01
7.760365897128265744e-03
-2.019872865064823581e-02
1.839426168010381835e-01
-5.446993896628933296e-01
-4.501438756433509547e-03
3.813270805018740273e-01
8.887009677956146658e-02
-8.756675983256537177e-03
5.183336306037110777e-03
5.428859065474227474e-01
-3.212299030310825781e-02
1.756403532813809731e-01
-1.870385835742878131e-02
-4.301069036206084384e-02
-1.712361125171217580e-01
-5.826443325062510836e-02
-5.651753778119612132e-02
-4.071476063111636456e-01
4.890131229839569937e-02
-4.243767880354434169e-02
4.132234929517892286e-01
1.041873231961765178e-02
-6.668351700321975550e-02
5.729313271211733394e-02
3.445489033044210059e-01
-6.227828071317070141e-02
3.555047426964084156e-01
1.679333330743056629e-01
