7.216198066370770325e-01
-4.938102231744077031e-01
-3.410236037151229138e-01
1.659396787894038827e-01
-4.462250933823589949e-01
-1.173558211343000840e-01
4.602398170721681558e-01
-4.080760784447547973e-01
6.141859482893861216e-02
1.637731137107845472e-02
1.300821303161090181e-01
1.626022009776340593e-01
-1.020449137539757439e-01
-4.069232597390706196e-01
-4.584923635588107338e-01
5.135622677120382090e-02
-1.158920872580912476e-01
3.197359185840279450e-01
2.585382377998575107e-02
3.376120414156018046e-01
-4.111692928353965493e-01
2.439628381638667687e-01
3.238349688468335902e-02
2.016351922647428296e-01
-8.852006708566069471e-02
1.025165032644338170e-01
-2.361078155907136433e-01
-1.636196986353683769e-01
-2.411554271902749402e-01
-5.148239432079747963e-02
-6.418154465868981529e-01
-1.779627654548710525e-01
-2.723274158171573034e-01
7.274446324103796269e-02
-2.785609462301231187e-01
-2.027502064156153916e-01
2.302781685813348467e-01
1.736201814629388662e-01
-5.601925572912561657e-01
1.240640780757149703e-01
-7.342091115868897011e-02
1.440262551105941369e-01
-3.554669214551205436e-01
1.057376582332750642e-01
-3.605132747400685012e-01
-9.230409409818298716e-01
-5.060332586580627012e-01
3.654558735957229576e-01
-4.853888877049836736e-01
-2.387732588964244784e-01
4.936773349895584584e-01
3.725531014713436839e-01
5.618532526933877475e-02
-1.164343995613088961e-01
-3.296451618325514921e-01
-1.445103126852407549e-01
1.790999480859276349e-01
-4.695696136073480020e-01
1.975692147261947362e-01
1.498293167240609958e-01
-2.935967140012321064e-01
-5.481400397469090441e-02
-2.818941325956807464e-01
-1.734650790897847572e-01
-2.563863245148901848e-01
3.649464988543461852e-02
-2.964056966264935200e-01
1.312298097072046033e-01
3.775081285260935560e-01
4.181586833824428306e-01
1.434985847081705901e-01
-2.210366242793056768e-01
-1.272066313086899214e-01
-2.634430106603020127e-01
-6.697045781336952164e-01
-3.728106466019319165e-01
2.316195832546679156e-01
1.455726306156859551e-01
6.186584464852710186e-01
1.638127337586890372e-02
-1.932992347876296979e-01
-2.554199360713019229e-01
-9.358934993202974728e-02
3.095966418047147450e-01
2.063246041222329408e-01
2.491932307390876677e-01
-8.860480528616354601e-02
-1.418228805670057324e-01
-5.886085829622882647e-03
-6.791399044340409308e-01
-1.503972812452095409e-01
2.106512431379896910e-01
-1.435360493447558443e-02
7.790651981820585770e-02
5.849163178415064390e-01
-1.794474362330548411e-01
3.795906476178209088e-01
3.570370855885292294e-02
1.911058932145068973e-02
-4.810071539451546418e-01
2.175700450620148552e-01
2.560162681885201907e-01
9.915082750176575088e-02
4.497026935908025602e-01
-5.361373314012260471e-02
-2.114281742835928402e-01
-2.866868943831228922e-01
1.172696659759576571e-01
-3.548498564429547475e-01
6.206560275114963998e-01
-7.015426771244019644e-02
-4.406465399818160766e-01
2.267895930101295199e-01
3.431731369672952892e-01
-2.453656937686142861e-02
2.510140437918308987e-01
-5.021186360225774088e-03
2.212501781380621715e-02
3.288701281298697099e-01
-1.363651545029448409e-01
-8.140112582657341167e-02
-1.199462229135361269e-01
-4.670110478097121431e-01
-3.064909537944006113e-01
-5.981418509026118491e-01
5.584474661162400766e-01
-2.971731825425779072e-01
-4.188775197979209552e-02
-1.175342889698336446e-01
-4.862485565358231066e-01
1.097897957139460090e-01
-2.934105906374831485e-01
3.752306337299939343e-01
2.913575494694060075e-01
-8.030960863766445357e-02
-2.271438562044748588e-01
-4.608106668493739538e-02
-4.023934899527477627e-01
6.639601541199046698e-03
4.144292533227626474e-01
3.561759715400757975e-01
-2.771396283037519392e-01
2.274152686464131490e-01
-1.163168316995690510e-01
4.546364881215626541e-01
6.099441512140477695e-01
-3.522140504877233069e-02
3.068376933872047352e-01
-1.326786192255292041e-01
1.866912448908353006e-01
-1.008731103878352658e-01
4.147908912365310674e-01
-4.039801120906781617e-02
-4.668110700478402819e-01
-3.978449379459508307e-03
-2.254478075791425118e-01
-6.977808531047932639e-02
-2.218104843725588748e-01
-7.239255529250768206e-02
-4.462887154107138543e-01
-3.479081959551550418e-01
2.968928991547607477e-01
2.168854129316277191e-01
1.538945210660365159e-01
-3.784337812518101529e-01
-2.462752769986101820e-01
8.579227864792142444e-02
2.893230514262175035e-01
4.910147291474176168e-01
1.804915081577516123e-01
3.736073165648008954e-01
-4.238096673664711739e-02
-5.109792461008202946e-02
4.072608525738684038e-01
-5.750128964930376618e-01
7.536582256248668121e-02
-3.711913037778004354e-02
2.404403104114438972e-01
2.641012671094856157e-01
-7.657262403095463354e-02
-3.963871761761381673e-01
4.578364807773516731e-01
-4.157994013857505000e-01
2.595101116901010752e-01
2.561331554151681511e-02
5.226993083221064262e-01
-2.580182214374922567e-01
-5.486527127436403584e-01
1.551040852003519009e-02
-5.726070990490203516e-02
-3.679142156373286787e-01
-5.816608243358697278e-02
8.757076925457734241e-04
-3.045305966154682742e-01
4.803112745746763168e-01
-2.325282495990115272e-01
5.865852181627200235e-01
-8.966388021275567555e-01
6.773528501738497465e-02
6.461852994822310237e-01
-1.035728281679943741e-01
-1.443540214292086399e-01
6.513620108149130450e-02
2.575884692303569423e-01
-3.645543576060434887e-01
-2.706174923944844601e-01
2.307708529752950377e-01
4.443225487701469301e-01
-1.974155715287132795e-01
1.349284961602263133e-01
-1.664547303880835882e-01
-6.933600850942164828e-02
-1.698526935872064492e-01
9.163788537863990294e-03
1.618490870263201709e-01
1.592401135365112130e-01
-4.624040217966547406e-01
2.723525903202512755e-01
5.384867314050024723e-01
-5.130941112460849635e-02
-4.474695813513012710e-01
-4.483050968142333059e-01
-1.747291940915270472e-02
5.731301161330440985e-01
-2.059016954634794727e-01
3.095434689939201983e-02
-1.534004373960000112e-01
-2.561906450784121048e-01
9.839938332653004605e-02
-2.167217112662701561e-01
1.460566425283102432e-01
-3.839630815675765252e-01
-6.348422005823293503e-03
1.802292366678439062e-01
1.559875280575779011e-01
1.115421639560412598e-01
4.034803588464379032e-01
6.291317610588387232e-02
1.534722600737500608e-01
-5.859420588078871894e-01
-2.752507596119860844e-01
-3.288441544425190627e-02
4.854806557733314792e-02
-5.351916791100932436e-01
-3.649550898598980520e-01
5.869592104888617101e-02
-1.700298734324966754e-01
-1.760884902969969967e-01
-6.221718174334337492e-01
-1.263143376994052269e-01
9.261677606776581861e-02
-2.399396104417212544e-02
-2.971717826064768087e-01
2.283379378532742199e-01
-1.067596628926665431e-01
-2.184157015259432788e-01
2.799736863866832959e-01
1.965747899033975510e-01
2.234053775141389142e-01
1.690767789051589032e-01
1.382710697102867980e-01
-8.717273170657699466e-02
3.170066460285486110e-01
-1.078443158690357978e-01
-6.690796654883077177e-02
