-6.084476064303767640e-01
-1.265993208500772182e-01
-7.512879509381953803e-04
-9.138545938079656317e-02
2.288442171187721197e-01
3.830123949095292635e-01
-7.184680261671241297e-01
-5.086646880729811526e-01
1.155035981120822730e-01
7.209456899572133648e-02
-1.256193691210848729e-01
5.718170320850459731e-01
8.309234836339567110e-02
3.541428417606506396e-01
-2.344913911180073196e-01
8.397110595184459347e-02
-4.252928131776169685e-01
1.668006930412007510e-02
9.606612520221709250e-02
-2.014186017043260654e-02
1.220197639052775784e-01
-4.621034240992381026e-01
5.360343988306780910e-02
-3.247139834051017138e-01
-3.330520433685207893e-01
5.743617579828098202e-02
4.779135495467484035e-02
-3.814232630794974765e-01
-2.448126563305887959e-01
4.905229428025419808e-02
-4.982054429425922248e-01
2.927074382075303682e-01
3.553114979885770852e-01
4.622277174757458695e-01
2.594579322299997992e-01
-1.204745893001200607e-01
2.928322830673916743e-01
-1.228051489539365784e-02
5.652558961587003106e-01
4.387664608835353808e-01
-2.184907696371441999e-01
2.203405628355814827e-01
-3.054676648630833546e-01
6.749140214359714007e-02
1.246162335459980869e-01
-1.370516825525909255e-01
-1.241879257524121927e-01
2.163006717672026902e-01
3.511059872030145024e-01
1.758769759822714773e-02
1.595352311199684514e-01
-1.056598310648251965e-01
4.850582755034395510e-01
-5.072349677681997626e-01
-3.169785095165982697e-02
2.700643776364357040e-01
-2.738139986490412681e-01
-5.388188985169998224e-01
-8.162332042995777692e-02
-1.648600092423842534e-01
-2.443007255340421402e-01
-2.795831571513745506e-01
7.985485239231059074e-02
-3.482004066735767678e-01
2.507226764628923132e-01
-1.363453571644505369e-01
-6.001697998708033222e-02
4.482199405228735611e-01
-8.337837168027337209e-02
-2.604402491253635654e-01
5.921249217679370735e-01
-2.269802800992928860e-02
-2.969468168417498943e-01
-8.172285971609547506e-01
-4.196951219048534187e-01
2.349228954489067933e-01
-3.231152686149179609e-01
-3.141198544111741819e-01
-2.676439367537215008e-01
-3.294030823695930921e-01
-3.719304158198625809e-01
1.611615674874719295e-01
5.573736055441368409e-01
-6.442641934877030296e-01
-2.674087887842529487e-01
1.437553219385688807e-01
-1.345801270381579567e-02
-5.196102408239504644e-01
-1.349610506976058610e-01
1.491724400946004524e-02
-2.353979294915985176e-01
1.718640708792761873e-01
4.083132475676686246e-01
-2.123937506057684554e-01
1.701419793882880394e-01
-4.055214277957077673e-01
3.466499933034458778e-04
-3.151341701635197445e-01
-4.537053500213664853e-02
2.155933580091293489e-01
5.240397282729742923e-01
-1.329086994520779219e-01
4.082633176754727616e-02
5.077145562496956366e-01
-5.154725900537026062e-01
5.479801037646597067e-02
5.076090840452346375e-01
9.740389258461709665e-02
8.355029544947744843e-03
2.358313102895082669e-01
-3.765667470916549409e-01
3.320118392652685602e-01
-3.834171278346708012e-01
4.002571431159637205e-01
-3.453277470617122091e-01
-5.201233651489848286e-01
-1.463352955095226227e-01
5.799316829717234834e-01
-3.871748855596893191e-01
5.621470447607166548e-03
3.142147533481589039e-01
3.905986748006316511e-01
-2.520708140761124816e-01
-4.308008202087858923e-02
-2.637938976361173804e-01
2.012487770323521941e-01
7.755074875575021509e-02
-3.787992609359583374e-01
-3.974179838629544048e-01
-1.348506766233149856e-01
4.815684396167047021e-02
-4.157465493150698244e-01
1.596930335108842081e-01
-5.253200839034003478e-01
1.919011752709646190e-01
-5.202531101205605246e-01
6.309022589287786031e-01
3.849434506897654318e-01
-3.592944221567519886e-02
1.864540892898582103e-01
1.254800597002251605e-01
-1.653057410176374253e-01
4.776762824573034527e-02
4.394431087221443155e-01
-8.718861835740544797e-02
2.736836367690403393e-01
5.037605678015581734e-03
-5.384323760797469216e-01
2.637310463954686823e-01
1.781085994375224413e-01
-5.887533283646100291e-01
-1.222895687120151703e-01
-4.787664271310945350e-04
-4.676338869170966195e-01
-6.876306669584304476e-01
1.468077246804767311e-01
-5.103265053920079675e-01
2.050087310268719210e-01
2.522395014733163077e-01
-1.751369770277518279e-01
-2.909912702300622711e-01
-1.889641222437669910e-01
-3.380340005239085288e-01
1.970319927848566410e-01
5.296354728095470366e-01
-4.125582478511438667e-01
-2.126841873743177680e-01
2.205990549116939106e-03
-4.718210035906947319e-02
-6.843345899336254756e-02
-4.577835341418122761e-01
-2.604526624265146931e-02
6.170450159900051600e-03
6.844382414271715787e-02
8.792560714418203027e-02
-3.514062072785778534e-01
9.646837654371794024e-02
-4.906526139781910295e-02
6.212342087503873976e-03
8.375943521885473309e-02
2.560566757903382507e-01
-2.071538556031689293e-01
1.296298554120188518e-01
1.128443739190497092e-01
3.858093840235163885e-01
-1.324837036744124508e-01
-2.263138594032638173e-01
-1.458823844418056515e-01
-4.111824701006999705e-01
-3.317914474570421990e-01
-1.355829144675255171e-01
-2.061484930303407459e-01
3.850703988077333051e-01
-7.234204497027307834e-02
-1.004801151122032971e-01
4.055109920236559806e-01
-7.143530963023914104e-02
1.968963614214806757e-01
-2.179058960764727604e-01
1.355501090821734922e-01
1.065526453550382918e-01
-2.884098519196297561e-01
1.566451347363025381e-01
-2.671245109722582001e-01
2.400425836960715653e-01
2.382479115674983883e-01
1.776776882147073355e-01
-2.841761364554178382e-01
-2.733050610798554714e-01
4.820207206938230127e-01
-1.782419563332236778e-01
-2.964624142504896920e-01
6.449443488107250988e-02
3.134706228474324896e-01
2.643037806666778677e-02
-1.056403366791106302e-01
1.232669662765048385e-01
2.796519074996299259e-01
7.590534361387974993e-01
-2.141965326061061325e-01
-3.205123479991628943e-01
-7.875059349074940707e-02
-1.348864860694250732e-02
-3.901022377796015128e-02
1.091945860955062381e-01
-2.923334966832337733e-01
3.490669575400297542e-01
2.865088846498214381e-01
3.985345475347686905e-01
2.136644822552353773e-01
8.209568856123831970e-02
-4.054211803087872101e-01
7.984096466230203304e-02
1.991608678015546197e-01
5.256115116377075430e-02
1.943918650279176374e-01
1.412498509132823765e-01
-2.308688070032091089e-01
1.442464966604007637e-01
-4.131545496245334764e-02
1.054115263143402398e-01
-2.001346133171797437e-01
-4.154217789278278339e-01
8.643720471248587944e-02
-2.971611511842613962e-01
9.288076622810535754e-02
4.358944143121541437e-01
-9.882446725438226443e-02
4.239624807533501349e-01
7.362205387097277287e-02
6.194495803356194451e-03
2.980128209854568944e-01
-4.662952574840850684e-01
-4.870915376757288806e-01
8.903239101187312987e-02
-3.741259121653313646e-01
3.082239774186976700e-01
4.926268940860089596e-01
-1.154436465803934386e-01
-3.240764068940091280e-01
-4.713729633230696187e-02
-4.141084343406429280e-01
4.041977307482357840e-01
1.992591431698997537e-02
-1.636105278905276295e-01
