7.216198066370770325e-01
-3.214028141741199218e-01
-3.270840110954522095e-01
3.784887260716700980e-02
-5.111360574694628900e-01
-5.653724549950972511e-02
1.540792692500023708e-01
-2.823628818110363037e-01
1.140115464451865041e-01
-1.470143815483304639e-01
5.881488259609101155e-01
-4.822402901520210783e-01
-1.135352581364545560e-01
-2.601965154285862392e-01
1.070978150805280971e-01
4.267822716367687397e-01
4.135255438397058558e-01
1.244893304182491944e-01
1.657094689039363411e-01
1.836319972182725024e-01
7.419242860930284900e-02
9.609508520484230654e-02
2.637861870361594696e-01
3.507421556682216446e-01
-5.784637209469400965e-02
-2.038961340809176126e-01
-3.587880656247312561e-01
1.280801194337538307e-01
-1.538936735758574328e-02
5.021591246453444013e-02
3.377230921387160412e-01
2.083396295753006389e-01
-7.242758154583692209e-02
-1.956481316412438387e-01
3.584728552929947187e-03
1.648560665083741161e-02
-1.985899177246023273e-01
9.295367386465555604e-02
-5.112011544025146792e-01
3.636385515842247007e-01
-2.507249502613066450e-01
-5.641140097345428289e-02
-2.807296717276939191e-01
-2.681117301370946476e-02
-2.177124915854413145e-01
-7.207839747774204275e-02
9.939812881080914431e-02
1.618197616384050852e-01
3.250196950687159192e-01
-8.650526020769551405e-02
2.813332258459900204e-01
5.507479180338685498e-02
-1.548147687784931781e-01
-3.099531869083780311e-01
2.382758799532048999e-01
4.473504004756290731e-01
6.093305941777554802e-01
2.846633175745915678e-01
-2.274894433105513758e-01
-6.321259501244558265e-02
5.845016771144736500e-01
3.670099787447055895e-01
-1.979741748670079682e-01
2.209171003012097290e-01
6.415754190752909203e-01
7.854986753530482368e-02
7.270243556004351085e-04
1.635305962288959303e-01
-3.396104838735204412e-01
-4.172918834018330414e-01
2.105174872253327556e-01
2.418582427114847055e-01
2.996135636001880376e-01
-4.168789933743209386e-01
3.500780576969936275e-01
8.292901720450063241e-02
-3.733386672618079771e-01
-4.841735869888744714e-01
-7.130661478944224640e-01
4.381147285124868396e-01
-1.858697425728121910e-01
-5.751874397064908606e-02
-6.234722890652559524e-02
-2.095743780840844117e-01
1.285435137461288790e-01
2.523011974984133432e-01
-1.220434271412970950e-01
-2.797074561553728952e-02
3.187011497884939537e-02
-3.718174295883217018e-01
2.346061071573742399e-02
-3.665223020015864197e-01
-1.767036091780092022e-01
-2.463219769488307620e-01
-6.161071791616896665e-01
-1.148131143254185471e-01
-5.210899902491903379e-01
6.753383758156258354e-01
1.938333269866151717e-02
-4.090686480375380629e-01
-2.185666693914607717e-02
-3.644100394975700596e-01
1.973440548674290362e-01
-5.268760659684161851e-01
2.526629709764172116e-01
-2.812762323529602662e-02
-1.720550944530180038e-01
2.927769031274873174e-02
-9.775467799598028251e-02
1.832306938502760718e-01
9.566325026072807630e-03
-2.140879205542188246e-01
-7.555518164476930920e-01
-2.365935106847036340e-01
2.181061032917804288e-01
-6.937553746558217105e-02
-1.894250214763903428e-01
4.953085605034769634e-02
2.485014040747232644e-03
-1.286728791895482560e-01
-1.598664303063257464e-01
-2.364402825975587819e-01
1.009805713410283773e-01
1.215495007223996171e-02
-3.934097263619186213e-01
-2.312650581107453945e-02
2.981541616117358573e-01
-1.705533260808505258e-01
-1.304506270573717597e-01
3.349597927877485115e-01
-2.883356125692427829e-01
5.798444393481434062e-02
9.159845786994094685e-03
-3.576573087762495440e-02
-9.661830362114670612e-02
3.227933600508882672e-01
2.551499627722400021e-01
2.364598919920982145e-01
-1.936232445679667014e-02
-2.248683635243634849e-01
-1.264609811267514705e-01
2.073049159367558736e-01
6.509087373361061024e-02
-8.930395470849812611e-02
-3.663506406210467747e-01
-2.103562706047127084e-01
-6.902197759018852130e-02
5.591155269227836566e-01
-5.159976194688445927e-01
1.074212971931634841e-01
-1.630436656392411088e-01
6.967861187385567673e-03
-1.409790119851106749e-01
5.707625029387319859e-01
5.140360720683194717e-01
-3.512758097718478023e-01
-1.605742415490385433e-02
-4.870647664749518380e-01
-9.083166939426810804e-02
1.404449387452891829e-01
-3.224276248300073644e-01
-2.911178223421268529e-01
4.823206505354244444e-01
2.147332380468346402e-01
2.289678093185046337e-03
1.547488538300878791e-01
3.993386124463860765e-01
5.927995305489248690e-01
1.121783828999649429e-01
-4.750644010889218394e-02
-5.241043361446100501e-01
-4.046081609229916498e-02
-1.635936005787145819e-01
9.794160246307745399e-02
6.502953968209262969e-02
-5.691189320559975062e-01
4.471334809166914170e-01
6.054459178552497045e-01
-2.073201283350971716e-02
-2.625701217785738617e-01
-3.613062576445218999e-01
5.043060440362301389e-01
-9.676212204100434477e-02
1.766348511595789705e-01
-5.248019989249479433e-01
5.505320571329832546e-01
-9.536342930637745074e-02
-4.215397043476643013e-01
-2.538550666168896269e-02
1.309647197900463134e-01
-2.845755418035666451e-01
-2.762782669153101001e-01
-2.244991807882545931e-01
1.474920122905409303e-01
5.982448975658405388e-01
-2.073493779134284037e-03
-1.179004471232622010e-02
-1.244875753416603281e-01
-4.438588318085244511e-02
-3.936083208979507253e-01
3.353396523168422627e-02
5.932300556514076284e-01
2.254205139583330686e-01
4.398836407682664151e-01
-8.034090436711546768e-02
6.308474661480828471e-01
-5.078144955361750812e-01
1.043037044589673890e-01
-1.562389967077110753e-01
3.137582336193802529e-02
-1.375954903129756324e-01
1.368279017989425250e-01
9.226141110242143395e-02
4.019596040536929649e-01
-3.277928235637526111e-01
1.851650349933270379e-01
-1.723518923562000205e-01
2.366363340659225212e-01
-1.247434599271131928e-01
2.639709801912462628e-01
6.266870085956148806e-01
-1.606876417392680279e-01
-1.508006123634245133e-02
-3.361889787822602838e-01
-5.249023956500986632e-01
3.568430540711066690e-01
-7.195819923130263029e-02
3.858290862711608038e-01
6.721700904036352897e-01
1.796927711011067075e-01
-4.345560046020604528e-01
3.047635972957430384e-01
9.740574944840846294e-02
-7.307796036041140642e-02
-3.726375727955682504e-01
-1.007986345351805785e-02
3.725248132485657893e-01
1.693362557311265393e-01
2.082524535116575259e-01
-3.176329400626832777e-01
2.159609661055109445e-02
-2.480635084894992626e-01
1.871024758871272231e-01
3.438202939096937638e-01
-3.889242999470970963e-01
-7.765302681895952519e-01
-6.956123968112253031e-02
1.964555311691947026e-02
3.565819828229817023e-01
-3.880038136506288038e-01
2.455918020902956439e-02
-8.682641197284229895e-02
2.621434754856513671e-01
1.817393700330487971e-01
2.756810339205267857e-01
3.810299496511311279e-01
-1.806498208893366764e-01
7.851743280796541491e-01
7.454107062875467427e-02
1.455203937650048109e-02
-3.546915786163135076e-01
-1.325714088700735704e-01
3.790538193851334531e-02
1.465429406090511255e-01
-1.379793663242347146e-03
