-1.668250395067606417e-01
3.068589378163001924e-01
-2.388311939994062771e-01
2.766937194199692862e-01
-3.484154110434975471e-02
3.510670791339300101e-02
1.773937927758549027e-01
2.037925453343485127e-01
-3.231159797597862871e-01
-7.837059353727815481e-02
-6.756806356777284028e-02
-1.117486234193370703e-01
1.187767310106336294e-01
3.392579158611963019e-01
1.687566151779228973e-01
-2.466331213502727937e-01
-1.896846880118532030e-01
-4.632578930875391049e-02
5.991628232203561472e-02
-4.567779523579619805e-01
-3.774394326159108970e-01
3.390706959919603247e-01
7.936870784696672954e-02
-1.291706156376113412e-01
-3.516558059377787870e-01
3.376059007375539767e-01
4.719027101104735222e-01
-2.065955992202238301e-02
1.891805004165652560e-01
7.656043149939079084e-02
-1.196060907781065219e-01
6.571887982335203326e-02
-2.741834484345393591e-02
2.376119090127069844e-02
-2.167913933546127270e-01
-5.978843628991799275e-02
2.444394669664462158e-02
-8.613677130210538324e-02
-7.037767959516313399e-01
7.789718257278642477e-02
5.891815750477540359e-01
2.166907916215272678e-01
-1.288436650998866506e-01
5.097827834113868341e-03
9.397497620271301477e-02
-5.647447922471223736e-01
-4.964314573040217726e-01
3.002056943652037235e-01
5.359196812184051639e-01
-5.110215276841108267e-02
-1.971771745933137421e-01
4.294812899382426941e-01
2.679159249552214850e-01
4.146851766722788046e-02
-1.285773849091156606e-01
-4.788487915628888980e-02
-1.791147839559532051e-01
3.123652045930712107e-01
-1.377602921695784688e-01
-1.422192657263091631e-01
-5.171830919033131718e-02
-2.052302998467241124e-01
7.118639722351305377e-02
-2.232427831488170977e-01
1.559738371615324304e-01
2.008328981178116729e-02
8.591673088251286505e-02
-4.928569894649631467e-01
3.896217715084585032e-01
2.923245932017274895e-01
3.175625123843436315e-01
-1.168306806920207663e-01
6.174177760707467294e-02
4.461694953869957403e-01
1.832762637104046466e-01
2.765602660328383422e-01
-1.462201202569594072e-01
-1.346751839179559929e-01
-2.317801898226988788e-01
2.154514212231011250e-01
-3.647506844941741933e-01
-1.268876191411026921e-01
1.551706966875354976e-01
-1.319661777063050323e-01
-3.595860582391505189e-01
-5.673553520169649644e-01
1.835506495713337960e-01
4.656741095639363448e-02
-3.499466932411719050e-02
1.033938704300723099e-01
-6.875687135717996334e-02
8.673774307592551081e-01
4.305304323437798564e-01
-4.157888755570894601e-02
4.797075900992932573e-01
-1.255411867036082818e-01
3.116148673461447971e-01
1.369497443366941847e-01
2.640914883676487301e-01
-4.411435872660265933e-01
2.657909431830527969e-01
-2.507364131896664960e-01
-4.668359235362297133e-01
-9.749804519553535720e-02
-1.671811266504724391e-01
1.993952821806598275e-01
3.521344348715224060e-01
-6.307532083028902781e-01
-7.115756471868829591e-02
4.009963520877363186e-01
4.429750670642326749e-01
-7.593516902526206702e-02
4.129865664731199870e-01
-2.098896777515169287e-01
5.827002193190835566e-01
-4.010465278697692981e-01
-8.431078461852480055e-02
5.186283611024429252e-01
-5.098116909013804543e-01
1.349160609130697387e-02
-2.347332201253869155e-01
-2.924844589742477963e-01
6.341039431323117759e-01
-2.485995209829088351e-02
-1.350129674544385816e-01
2.900468133005670510e-02
3.282844366271009950e-01
8.316877280838182868e-03
-2.281292239121565923e-01
4.668647244688058362e-01
-3.404276199636278033e-01
-5.894824629964185991e-01
4.104985464680288021e-01
4.270228902590547659e-01
-2.457510785569521627e-01
-4.226376324364128911e-01
-2.757303428722321370e-01
-3.582430484876248690e-03
-1.843321955623215269e-01
-3.196580777436971998e-02
4.248653625810620837e-02
6.019582942319733343e-01
-1.485989381867228176e-01
1.832632430577199600e-01
-2.622646665864174498e-01
-1.616312787871578838e-01
-9.883121643109148147e-02
2.736332875724299951e-01
-6.595299415895066186e-01
7.472222362122732386e-02
-3.533348423026060753e-03
5.903101352986001027e-01
1.334710617505641683e-01
2.805814293678537408e-01
2.634402906375906891e-02
1.348779228389499762e-01
-5.284663911393439051e-01
2.477930918994268039e-01
-3.599761283038026560e-01
4.050682058216416581e-01
5.361902730182738913e-02
1.589846846659540569e-01
-1.269367136633992310e-01
9.420203819867374595e-02
4.340434089276549168e-01
1.706292383112321676e-01
4.152477650126966680e-01
2.651121309616639166e-01
-7.698034089416364023e-02
5.825351888682989143e-02
8.372109122533008541e-02
4.237285808721636959e-01
2.355322192725729390e-04
4.048502349828737024e-01
-2.642058432893104949e-02
-3.006330596196504223e-01
-1.610250471308700970e-01
-2.362681885763134593e-01
-6.029664565127338394e-01
1.063183488655912307e-01
1.901687605192693420e-01
2.923653828190665438e-01
1.119666017474502950e-01
4.193058812863967866e-01
8.224797916061303560e-02
-9.965980604646028362e-02
1.230107618391104718e-01
3.663378571435273456e-01
4.761110941002184016e-01
-1.755188356601425081e-01
3.676535168036056400e-01
3.436556793469575100e-01
2.751679975374266007e-01
2.935980108549379741e-01
3.166611368505560242e-01
5.208331757892510350e-01
1.773054074074849884e-01
-3.552911816889073315e-02
-2.407315290737101487e-01
5.923339375597690415e-01
1.041282105978743634e-02
-2.471163384971286278e-02
-6.542868287785364410e-03
-4.323687971757568527e-02
4.638172403240838904e-01
1.080793708245320062e-01
-2.149650397046105887e-01
-4.962879486227952941e-01
-1.144240845429107985e-02
1.514096586620139739e-01
-3.266414664370840271e-01
-1.976376653500399871e-01
-4.781703202354805615e-01
-3.102625605475944348e-01
-2.768539005663811503e-01
-2.539686368319264420e-01
-6.197874677743776539e-01
4.428101054374230204e-03
-5.475223562540261490e-02
-4.574152505660828982e-01
-6.164383109426625484e-01
1.806234957959546306e-01
-1.464971338491944386e-01
2.212982442201133770e-01
-4.650377717922470344e-01
-2.974981911767576315e-01
5.876444865194973000e-01
-1.055372436896594296e-01
-3.507342907274363375e-01
2.203415002128191191e-01
-4.357215889372871853e-01
-2.861605074531916038e-01
3.000600451328006568e-01
1.295403701163004850e-01
-2.201810667391723986e-01
1.776425274556385214e-01
-4.282635115181231966e-01
-3.079046537403329897e-01
3.271521462729326535e-01
-1.356156760150003804e-01
-5.749577930036528506e-02
2.510674152611278576e-01
4.218331742070080548e-01
3.640665733566539330e-02
7.296961932949590501e-01
-2.692445942559864094e-02
-6.993531274700474087e-01
2.488113522422501778e-01
1.833347308663769715e-01
1.056419159192097251e-01
-4.114208401177046892e-02
9.166667516184652531e-02
3.029910617200688439e-01
2.219030337345248016e-01
-2.064892565902960442e-01
7.693277648822888226e-02
-2.026608822750195632e-02
7.489708558558509643e-02
-2.748182552624922059e-01
1.636827314462366845e-01
-6.323195383952007198e-01
-4.510158745737399277e-01
-3.771554066122088239e-02
1.367462176230698490e-01
8.320506396025711959e-02
