-7.186075655840772070e-02
-3.715465187187181328e-01
2.975202675174975706e-02
-2.207848904058688499e-01
-4.641473860144535446e-01
1.080243831595084775e-01
-1.426272625780065639e-01
-1.772878232906976714e-01
1.340008829536988022e-01
4.517101729526015741e-01
5.902187327267390676e-02
-4.329247917365317000e-01
4.840044364299785767e-02
5.432414450363383107e-01
-4.863157161402129613e-01
1.426081081362846892e-01
4.602510512086409600e-01
6.286530015031795982e-01
-2.041118658626249471e-01
-5.012981688750633991e-02
-7.829371831306765339e-02
3.022439889173131333e-01
1.739796552412067321e-01
3.650782945637378596e-01
1.283159055005790028e-01
1.148675826888838208e-01
8.802663978540270495e-02
-2.331748026785280259e-01
2.072573435235883776e-01
2.085330731929178338e-01
-8.224586785629596497e-02
-7.194776714618551505e-01
8.129840420398632972e-01
-2.179182546100577877e-01
4.148672334328346589e-01
5.157750888931580263e-02
-1.999432346651564829e-01
-8.345443333688896959e-02
3.896248528910873365e-01
-5.536573368685431262e-01
1.000000000000000000e+00
-1.841792082299067296e-02
-2.069869943134283186e-01
-2.690156743759303248e-01
2.552659276070790573e-01
-2.838345990616871206e-01
-1.855713153625613843e-01
3.697879184049866069e-02
1.775952289954960128e-01
-1.204663894817040726e-01
9.010536632509813515e-02
3.800047920217762276e-01
2.252682842388910589e-01
-3.956734220409763858e-01
3.221316075735792817e-01
-2.565908533535879998e-01
-1.688545923881434596e-01
1.501824089066173817e-01
-8.991958088278954875e-02
4.622487413374148923e-01
2.140711568138262688e-01
-2.900207903602433634e-01
3.723333419861410976e-01
9.095061243290473996e-02
-6.990808210121627342e-01
1.249769820919927193e-01
2.129393843134908260e-01
2.480668338963511535e-02
-1.895868339734903610e-02
2.373450703359188951e-01
5.729505644959155541e-02
6.643268781629589892e-01
-1.266538423953058601e-01
1.898645574152497406e-01
-2.666918861026350562e-01
5.667358751013883422e-01
5.342376326181519364e-01
1.127180533631131493e-01
-7.167926406292281227e-02
1.658683946997935588e-01
3.603422981104396627e-01
5.580563503678453996e-01
9.752499104305664690e-02
-1.660806819852064624e-03
1.170946022639251100e-01
-3.468390876776497045e-01
6.305516197763159914e-02
1.000981476856758895e-01
1.000000000000000000e+00
6.415321406262689541e-01
8.035303171179919782e-03
3.597529671627797132e-02
-7.583066828494010314e-02
-2.343369318744561725e-01
-2.064726632916958071e-01
-5.779447084196609463e-02
4.231874499570286163e-01
-3.048701808251457201e-01
-2.093873509834146274e-01
-1.491943237760509355e-01
1.015967844317666458e-01
2.896710981534145191e-01
-2.655337411971862571e-01
-9.740685427001599672e-02
-1.085271690631782332e-01
-5.645923154691656620e-02
1.267701820257113301e-03
2.387142693549698103e-01
-5.803738887795743817e-02
-5.108682151650433337e-03
3.503586816458362230e-01
2.547085574060815594e-01
-1.431067644851237441e-01
2.553010352660295412e-02
1.296764286928908660e-01
-6.851945803443507677e-01
-2.132437304348041088e-02
-2.324737805366225429e-01
-3.098218197132444063e-01
-2.574908648849162374e-01
1.629747759717282973e-01
-9.454967995079610610e-02
4.501341129837367339e-01
2.420765140543646582e-02
-3.331825878348311787e-01
1.643472133709385219e-01
2.354755079223481429e-01
2.079615654963745952e-01
8.738306649044329244e-02
2.546629068433580584e-02
4.792313399169466082e-01
-3.430990493775325223e-02
4.831883261914117766e-01
-2.664065293735016701e-02
-3.779245703764790854e-01
-2.052645303576913216e-01
-1.373754763894662334e-01
4.626697268271732777e-01
3.144585186485417405e-01
-8.702061509985910270e-02
-4.075744800723789529e-01
-3.028161157405943049e-01
-1.354314081081102461e-01
6.553964582803263605e-02
1.953428546087536133e-01
1.111570590582779822e-01
-5.810128202108710838e-01
-3.134882833383793033e-01
-1.914006613150135150e-01
6.847969816104006180e-02
9.152173574950678292e-02
-9.017735605695091639e-02
1.343338567944756812e-01
-1.439265579391441896e-01
4.871644121836953278e-01
-7.982688638854136542e-02
-5.258877033196269861e-03
-4.156222575906213385e-02
-7.500094441437793469e-01
3.212011885253838739e-01
-3.332888736102497806e-01
-2.116700606907930826e-01
-3.944771498473293586e-02
8.379364511312161271e-03
3.311941785275568373e-01
-1.770395132244143022e-01
-3.074521614758641275e-01
2.825692585719963845e-01
-1.014351342094325370e-01
2.582158254161941446e-01
-1.905735832668679353e-01
4.118532602336269499e-01
-3.366502302735211449e-01
-1.183323986964587154e-01
-5.648352497259014060e-02
-2.457101020120188994e-01
2.407751167572825535e-01
5.394344455317007236e-01
1.532749899176707141e-02
-1.432739655451802929e-01
1.014198587271372132e-01
-1.291162396148340663e-01
-1.174268243138228973e-01
3.961637479257192340e-01
4.006889083434161392e-01
2.637908778833130130e-01
-2.847724896872684264e-01
1.026639661787809299e-01
-4.949728656424639550e-01
2.973714619636131928e-01
-4.103262116143305271e-02
2.601497069033357201e-01
-2.113836599889306334e-01
-1.487445556965031335e-01
6.143304640724808197e-01
1.154901504969930437e-01
-7.552413512091810804e-03
-3.659684411705206308e-01
-4.439457176075548017e-02
-5.708046266865132168e-01
4.843295562134974919e-02
3.457990962262493251e-01
-2.882197342660196629e-02
-1.164346847349550518e-01
-2.544204234249841101e-01
-1.929060624822477588e-01
-1.942197771333663836e-01
-8.513389840901619543e-02
7.382732094169418280e-02
-1.153546112545685287e-01
-1.639983852141359277e-01
-8.003755446435455445e-01
1.437148005521073912e-01
-1.005690158516224508e-01
-1.584613212777633562e-01
-4.925564459475669232e-01
-2.525953664787284336e-01
-2.339380383457570212e-01
4.882296119122669920e-02
-2.108284564364378000e-01
2.308021390281830287e-01
5.462896644007551039e-01
-6.574238094721381875e-01
1.474658117077586872e-01
4.464462192307117050e-02
-1.439001514350135569e-01
5.756454902914731608e-01
-1.897301130848482453e-01
-4.383406929311626371e-02
-5.440080524499562031e-01
-6.282636598494539815e-02
-7.986057009395882700e-01
3.214781317556588691e-01
2.982216534212054904e-01
-1.418267234793445589e-02
-5.753748885336561376e-03
-3.274677615518625795e-02
-2.269978990474315617e-01
-5.954679932000517262e-01
1.613704744722420092e-01
-9.469742261332358968e-01
-1.292933046712522183e-01
7.045761374418089973e-02
-2.042254841688440903e-01
-8.072909170482704677e-02
5.278717898525681768e-02
-3.036237810302869211e-01
-4.095506114223509270e-02
3.088465682005543944e-01
4.436052803479383910e-01
-5.242611833397441655e-03
-5.688869667585239043e-02
1.825568359837178092e-02
1.087745121061885617e-01
-1.180199236249191153e-01
-5.489217626605550349e-01
-3.051342183894336646e-01
1.402881940515630643e-01
4.444971854066832040e-01
6.289862839639487335e-02
-4.547575248032325046e-01
-5.668442774868388129e-02
2.111825195476499661e-01
-1.823673819249692629e-01
-1.867519368960333104e-01
