-7.512388276265492548e-01
2.045766086203662862e-02
6.540611306766234145e-01
-2.016924703561409904e-01
7.437395409591788242e-01
-2.141146504787928284e-01
6.032452050571392999e-01
5.208404533634787281e-01
2.383133938579233835e-01
1.825000937241079424e-01
3.673147159228868919e-01
6.188075663693499984e-02
-8.031823344757950123e-01
2.052383356522645141e-01
3.966989162530239477e-01
-5.149690071076743481e-01
2.594419572580271560e-01
1.195331126830712354e-01
-9.730050247083812942e-02
-2.893511754970032879e-01
-2.579658569337097140e-01
-3.660578842353519602e-01
2.314195666131266260e-01
4.241624402891530088e-01
-4.691188046093574399e-02
-3.966648248856520786e-01
2.036407218304618072e-01
5.987718320202273237e-01
2.143643491529697576e-01
5.674240846845495234e-01
-2.727587628832793820e-01
-1.691990653322639759e-01
6.554510826452484944e-03
-3.553767478666591817e-01
-7.580577402720696523e-02
-9.237779366620062216e-02
-4.751829356189872233e-01
4.791421068532270566e-01
4.398196489586284064e-01
2.207213826303224269e-01
-1.076844897976039356e-01
-1.673026446425487090e-01
-2.460422565864457956e-01
1.105653194734649569e-01
1.935643553967532904e-01
-5.651076357785730364e-01
-2.446707214038342515e-01
5.622882048459897780e-02
4.468725228906633706e-01
1.815828341182199324e-01
-1.514751820464450838e-02
-6.262724876938620122e-01
-7.256532161699354166e-02
3.933679053475998555e-01
-5.046654181129445194e-01
-1.502049079674762644e-01
7.383510290434762702e-01
-4.636845769761722691e-01
2.325275739434641831e-01
1.300321430134649126e-01
-4.710720052132602031e-01
1.171992405797616932e-01
3.035104330822265273e-01
-5.724271532343492286e-01
3.232287657806401926e-01
2.005458689566383748e-02
-1.439112791740166097e-01
1.955782209777806036e-01
-5.195774409262137183e-01
-3.747253719907057690e-01
-8.250921473297689879e-02
-1.375563999303663909e-01
-1.811754381302181360e-01
6.906834803216566065e-01
5.188456597810126025e-01
-3.977906154281888457e-02
-5.027628467070043294e-01
-2.661720827850304061e-01
-4.271390220629192047e-01
-2.991754211637344119e-01
-1.028219172342998006e-01
2.947969487950114487e-01
3.695813399483243722e-01
-3.640088280402200005e-01
-1.863749658850097080e-01
-4.616085821829987550e-03
2.391080094774565012e-01
-4.064714060810519780e-01
-1.497578537828908318e-01
2.777264891166369987e-01
-1.509258468548013432e-01
-1.499463274433260052e-01
3.250893731375719686e-01
-2.488173573492942214e-01
-6.765314805884861116e-01
7.529382109826886216e-02
-3.503879209249046167e-01
1.397844770341624965e-01
-4.105793378588860065e-01
-3.443772538794556692e-01
-1.731294068872835448e-02
-1.335989886044471886e-01
-4.259168297885764787e-01
3.248845901450158058e-01
-4.273497413950953505e-01
-4.089497972749332466e-01
1.842564279219946755e-01
-1.989903517160100388e-01
3.678991017017123055e-01
3.540860782802435908e-02
-4.582001840057305930e-01
-1.119552513157307388e-01
-3.702014424600824638e-02
1.794820018537440220e-01
-3.583894187084170069e-01
-2.840821896937067992e-01
1.990676908756097985e-01
-1.804933029415795864e-01
3.382870514216650831e-02
-1.534580063014779824e-02
5.716014958505856169e-01
-3.876981605994375690e-02
-5.916214143573986783e-01
1.323352572983914066e-01
3.412073668268820192e-01
-3.351311604540899158e-02
-4.093567608027661175e-01
-7.419109937461431104e-01
1.450071402267897602e-01
5.743480437126189386e-01
5.691496003221887534e-01
4.622364707190264044e-01
-1.076244492669163749e-01
-1.801954962399766047e-01
-2.634323149787161644e-01
-2.512042740783788919e-02
4.166447566675242076e-01
-1.171372630471936675e-02
-4.131347868435271686e-01
-1.899387761942058217e-01
4.647332988930735209e-01
-1.924939344630937632e-01
4.408021980550630436e-01
5.253427477610876639e-02
-2.782422036615262440e-01
1.281468623076533753e-01
-7.192489702658168456e-03
-1.246322651732606895e-01
-3.135220586549560262e-01
-9.219700641558076226e-02
3.358989683189473330e-01
4.066747110062551296e-01
2.415257646469281816e-01
4.040904233018396963e-02
7.752601425055908324e-01
1.487590049652009749e-01
6.810575850234641404e-01
-4.280820711468144232e-03
-1.064774687184468910e-01
-1.805460668810051905e-01
-2.220097929686475347e-01
-1.307517061948430814e-01
1.713814164593677192e-02
-4.853519523891121346e-02
-3.660580053834582709e-03
-4.210637919976590315e-01
-5.599061139314751578e-01
3.354523149661596260e-01
6.589474491404517451e-03
6.389889772478814234e-02
-2.089504648028644163e-01
3.368590576767614975e-01
-3.853397229555674541e-02
-1.012130399555250110e-01
-2.373232005290912550e-01
2.686434699673826421e-01
-5.610787794646200366e-01
6.401044341224652878e-02
1.520594190745784280e-01
-4.206223486703046521e-02
-7.050547522564968306e-01
-2.597935470116783177e-02
3.904193430269725651e-01
2.285787866082080455e-01
-2.131666759720932669e-01
-3.145112123441658469e-01
4.924949705082579676e-01
1.173929586004476694e-01
3.882444385937213749e-01
-1.322922222741878540e-01
-1.758615198779281130e-01
1.734945575213353020e-01
-6.213168171320239130e-01
4.664809835831255080e-01
-1.594937702621643250e-01
2.269951646045185456e-01
-5.711258915553849708e-02
2.227815030620591136e-02
-4.388627123769615057e-01
-4.779706531462253882e-01
-8.260300485830091022e-02
2.533354405824765274e-02
2.653356086061377517e-01
-3.225160787942349394e-01
3.710844693363462565e-01
2.194116604596406672e-01
1.105419605970720670e-01
1.034294136162345890e-01
6.691571617432973129e-02
3.305995299242438512e-01
-5.203036645322278025e-02
-5.988903022432173762e-01
-3.217439579595772203e-01
3.878270245400040200e-02
4.578544086863152174e-01
-1.962879131132118093e-01
2.564410005948521420e-01
3.764537059656914431e-01
-2.067317831985803489e-01
-5.773860873177707465e-01
-1.486188325429539381e-01
-3.121786766508515276e-01
-1.141290845563301959e-01
-7.682584436505011938e-02
9.675356662103311300e-02
3.393675961830656257e-02
4.841317156491756757e-01
-6.291770897377720051e-02
-1.563193693379335836e-01
-3.660319765915106549e-01
-1.542001831005848922e-01
-2.192716168568156487e-01
6.514938180455430716e-01
-1.105203063738482844e-01
1.358693544605008297e-01
6.769429052234275934e-01
8.704268569207477269e-01
-2.648292227557374479e-01
2.261928734423635790e-01
1.980337179266604686e-01
4.045111784485324463e-02
7.672510767802083187e-01
-9.209088067328745353e-02
2.959741265165018176e-02
-1.554392467069761613e-02
-1.433330539040030271e-01
-2.335710203082992931e-01
5.266389688438003480e-01
1.637168286079391244e-01
-5.890860539422507203e-02
-7.691646529697240831e-02
2.574143988517052506e-01
4.323590795271058940e-01
2.472156589464634957e-01
-2.119422550210465217e-01
-3.505029543117001434e-01
3.784685152454319024e-01
-1.724157492995656571e-01
6.178137622336121043e-02
3.177188642375661232e-01
2.028080442583526100e-01
1.159547193487367178e-01
2.953607837189062280e-01
-8.292781560947999620e-02
3.150099963309280215e-01
