2.245353286400473825e-01
1.079386761153892649e-01
5.584142102097320315e-01
2.633200946804223896e-01
4.386566203758675564e-01
9.057425368473749627e-02
2.554921197097505536e-01
3.522994991025822920e-01
-2.913748839715564198e-01
-1.335315683207330406e-01
-9.836276736008008059e-02
-2.634951331103492222e-01
9.978746019736323136e-02
2.177754026094904649e-01
-2.273617580731936982e-01
-8.229869565675629328e-02
-1.555582235866415919e-01
-5.610609069817561884e-02
-8.943368719878352913e-02
-3.806454848635540955e-01
-2.721827062357396465e-01
2.548654924033486036e-01
4.874329050485155523e-01
-8.445014139064287162e-02
-3.744484614182997384e-01
4.136113149825312307e-01
5.716733397363281677e-01
-1.100998452668440208e-01
-2.996613367704193953e-01
3.723449391035170142e-01
-1.436222954914288807e-01
1.098701094928007660e-01
9.290879528197903969e-04
-6.262336345393867965e-02
-1.884227325094765815e-01
-4.037068489313605513e-02
-6.525748110222523435e-02
2.867641808175838691e-01
-4.217861162000451358e-01
-2.704998134271204280e-01
2.479637219122563657e-02
4.460508246468372073e-01
1.183096100019769836e-01
-1.803736093462393053e-01
1.205250149082328082e-01
-5.606538065374148117e-01
-1.001869983981159562e-01
4.333024498553598169e-01
4.866071450371737273e-01
2.459392482396409729e-01
3.822957837861965524e-01
4.069216560846765085e-01
9.398454399098378487e-02
7.271144851557656552e-02
-1.398005001252791701e-01
9.855092009646052031e-02
-2.701053831187646970e-01
3.406936800512913033e-01
-2.217898163664275279e-02
-1.200786690008359137e-01
2.957685830622001077e-01
4.667243932322259065e-03
-2.281124866440832621e-01
-3.256966348852368132e-01
7.524531169647188933e-02
1.162960331043836060e-01
1.613112334763113775e-01
-4.355881647499395548e-01
-2.844303698105989930e-01
4.268781304533885157e-01
3.506260510362442240e-01
2.474311152143611470e-01
4.005259864876038467e-01
2.390075108237370016e-01
1.814808129670950898e-01
1.737651206758582256e-01
-7.164150475480673963e-02
-2.629591887309986054e-01
-2.701062547234160949e-01
2.952389264216037090e-01
9.050891424807873398e-02
-2.604554691463410454e-01
4.339896923751799251e-01
-8.592797789374233275e-02
-2.417824484451770173e-01
4.262020359841964812e-01
2.166064108589198789e-01
2.595465598487512460e-01
7.050542365791609423e-02
1.403639941486015119e-01
-8.673728497170327123e-02
8.155160232034610601e-01
6.096811612569544847e-01
-8.834493432148203540e-02
5.799346860383597368e-02
-1.986100253080681222e-01
2.644344558738282586e-02
1.509816098093119674e-01
2.828056814188265045e-01
-4.872935863092371922e-01
1.975189043931906419e-01
-1.015001011576586037e-01
-5.063627658394546094e-01
-1.566673605174150885e-01
3.606942074981014379e-01
2.908215776784364714e-03
4.183406702684040468e-01
-4.932465688003077608e-01
7.657930780508714896e-02
5.220534084721273338e-01
-6.841431723397227715e-01
3.077943581732901779e-02
-2.781005050475541807e-01
-5.519313665125581414e-01
-1.275968400424792315e-01
-3.793151563590348441e-01
-3.844241337996052166e-01
3.694626496794713444e-01
-4.595111711518054531e-01
-2.979168892648715108e-02
-4.622242363490822736e-01
3.243936420878716365e-01
-1.341571873018442274e-01
1.268297810092464672e-01
-1.248907147004892360e-01
-1.166835875964447461e-01
3.270863728796946091e-01
5.805569916522324014e-02
-2.446904503685155552e-01
7.274623281702809197e-02
-3.468268899741776545e-01
-5.039920694207097318e-01
-5.775135223139438168e-02
3.603080972183743680e-01
-4.065782258579165864e-01
-4.392587453019504706e-01
-4.633153790325860166e-01
1.261571909711750594e-02
-2.684990647997284596e-01
1.415139456731888401e-02
3.959976503025483541e-02
3.897445693219471763e-01
-9.551308059927685057e-02
2.381051725048732304e-01
-3.655734366035749972e-01
-3.317973625461442255e-01
-6.110457458838924882e-01
2.197131103405833563e-01
1.957383420439246791e-01
-2.950066182344566676e-02
1.442647943115551307e-02
4.234901172163094696e-01
8.758940157901147494e-02
4.099402263397971535e-01
1.057359897973060708e-01
-4.178409917035727505e-02
-2.372109103322514456e-01
1.754999482934762045e-01
-3.089292849995276535e-01
-1.887219602204127100e-01
-1.017221656337692626e-01
1.502571297220759439e-01
-2.718011132372541994e-01
2.701298793078859423e-02
3.654300329786103196e-01
3.133390891327214600e-01
3.047081265083319002e-01
2.800248895599760646e-01
-1.238709958624668525e-02
-3.553899860085444340e-01
5.725818735286561378e-03
5.841250740688631593e-01
3.319731406966672793e-01
-4.783638227402348675e-01
-5.704922425558678345e-02
-1.233361209676381437e-01
-3.965475854034073988e-01
-2.240698180080622770e-01
1.727811599274312604e-01
5.350722950179050835e-02
5.326732293135015839e-01
3.635206028037850645e-01
7.379562216151842879e-02
4.335719300364427320e-01
3.376611531921698550e-02
1.040120607444157408e-01
-5.935073832390225235e-02
3.758086148642071356e-01
2.659542713911955958e-01
-1.052768205120737099e-01
4.345506788952342436e-01
-1.877403257837676753e-01
-2.524717496855133914e-01
3.198450517919730895e-01
3.277489745679103561e-01
-1.940258012346846722e-02
3.162591202300137350e-01
-1.376681907281084305e-01
-8.562881780305656165e-02
2.585295449893282999e-02
-4.519641176963414830e-01
-9.654892361745999463e-03
-4.422567415143607156e-02
-9.108592333584865364e-02
-2.268057890586990255e-01
-2.127657877084355997e-01
-1.903003577559469472e-01
-6.106163857990694055e-01
-9.252378851698546403e-02
-4.753808404306067437e-01
-8.166415636169152559e-02
-2.360776174994339838e-01
2.851444110035494806e-01
1.757751613665903268e-01
-2.434706722378472410e-01
-1.180343349587117674e-01
-5.767745200183610477e-01
-2.197964832199153506e-02
-1.447603600832475870e-02
1.514240394553259816e-01
3.676851296557877569e-01
1.068664190039167183e-01
2.934251652937120425e-01
2.799575756865341769e-01
-3.401589039628308275e-01
-2.969815294331055178e-01
5.244296086473448915e-01
-1.194644457773691715e-01
1.044356495920727296e-01
3.560385525467610335e-01
-5.575511858005167687e-01
2.191766200595246239e-01
2.072785745960742110e-01
-1.678527369177836015e-01
-1.068300709812369104e-01
-4.988810950310703513e-02
-3.078044514310608326e-01
-4.217040657968353368e-01
2.216185838777151584e-01
-8.121853268460953179e-02
-5.007584790747547643e-02
2.276890846880092606e-02
1.318245678735829318e-01
-2.290144681957873019e-01
7.476547106520060604e-01
-1.235914150372129094e-02
-1.900153119513940392e-01
6.079634963653948176e-01
2.099546075456362459e-01
2.939275765582820277e-02
-8.346067458179498577e-02
1.191678613075703580e-01
-1.464134128516672573e-01
2.296898153079429405e-01
-2.392431276540589735e-01
7.135955970709711993e-02
-1.550761955392827574e-01
2.301228013230877112e-01
-2.120059482817969743e-01
-3.181400881019976756e-01
-6.233369393524418323e-01
-5.319520381355653527e-01
2.637580698489324638e-01
1.058593168526383577e-01
-5.180743869307994354e-01
