2.582750649990358388e-02
3.329696210919474986e-01
-3.444241037701728514e-01
1.765283352193476596e-01
-1.515926287669848715e-01
-9.198285683999041923e-03
5.505766904538985651e-01
-3.216009994831611207e-01
-6.632903835996091513e-02
-3.848946540843774522e-01
1.865605332342760991e-01
-1.689677582402871470e-01
9.672844774473715601e-02
1.648362729161220452e-01
1.081661934998298831e-02
2.748070485166207444e-01
-1.245104529739115562e-01
-1.296254147799956180e-01
5.765902608247568117e-02
-3.947726539511399180e-01
-5.135517516287243511e-01
3.558438256775585673e-01
-3.615229349375777557e-01
-2.896198942458189096e-01
2.981473582140057449e-02
1.583472100262833804e-01
5.827927115489366372e-01
7.472603672209738868e-01
-1.077824635917563334e-01
6.217396821185797173e-02
-3.051437277868655484e-01
-1.049237490276025420e-01
5.021313877223919642e-01
-1.459538419519532948e-01
-3.274299528568515305e-02
-2.449580316750964160e-01
-4.325466087151197958e-01
6.455090405051039371e-02
-4.637126313858546886e-03
-5.010820857941147288e-01
3.508345662955327654e-02
3.706286216434186848e-02
1.996624531722114571e-01
-3.145638361049508669e-01
4.426509313381475907e-01
3.272809950079033081e-01
3.088082720281990629e-02
2.814401741591583961e-01
-9.933564471775416238e-02
-1.865906901899356540e-01
-4.720236076227551925e-01
-1.467073058899070158e-02
2.863904215670510789e-01
-3.051086760261499942e-01
-7.661417922365370003e-01
-6.342782044654635687e-01
1.559544897580676659e-01
5.678112213519560525e-01
-1.485909149938515472e-01
-1.432034435564478458e-01
3.592459699112302007e-01
-1.416653493215367376e-01
-8.066107363293929799e-02
1.086914837390190458e-01
-1.926235196828784135e-01
-1.846548823033444253e-01
5.768426308340380837e-01
-8.322005183444243503e-02
-2.625403129040869768e-02
-1.210698074813165159e-01
3.657003061113353604e-01
-6.997586477142902529e-03
-3.663287730893459160e-01
7.003668383103538453e-01
7.579854072828651201e-02
1.165977312249406733e-01
7.338731600668616517e-01
-2.093419204626702779e-01
1.658106489701464958e-01
-1.679584068809957531e-01
1.035365461465662523e-01
-9.819570858763623789e-02
-3.890089189939745506e-01
-3.974758835419643366e-01
-1.814878919527085077e-01
3.872259433180882393e-01
7.786833556549273283e-02
-4.761339068752847292e-01
1.796979714436055253e-01
-2.712099457403983616e-01
8.181151268064844329e-02
-3.302969145561883146e-01
3.535256631704418173e-01
-2.710427344479565681e-01
-3.530984908571945247e-01
1.607191559529324298e-01
-4.776541708555914201e-01
3.392324108681009642e-01
3.203734793986984936e-02
1.320603870441225125e-01
1.736475794291571784e-01
7.178526977264142184e-02
2.458146349342335557e-01
-1.804279228699773585e-01
4.595308466518849833e-01
1.603518907168371421e-01
2.300477057553439453e-01
-4.725285305134132030e-01
1.059458508199104254e-01
-3.411139827593697715e-01
-2.350134379687439379e-01
1.814424733859313077e-01
-2.958396945044591275e-01
-2.779610202003581776e-01
5.091445269999957945e-01
-2.918996554314897685e-01
5.828447591122138949e-01
4.456575916364139897e-03
5.440209356633085580e-01
6.970311105546136976e-02
2.841400948750417640e-02
-2.750879248762169160e-01
1.555107873653808386e-03
5.133284476113891825e-01
-3.284874422747904865e-01
-5.996470638145323662e-01
-1.397322445720809159e-01
1.416604142980373016e-01
-4.618233520884080789e-01
-2.830445914870546309e-01
-1.645988875933967477e-01
3.592860742101727095e-02
2.481554322174192029e-01
-4.400435158322212326e-01
-9.302220178226797836e-03
2.320006865202725033e-01
-7.778711809710094072e-02
2.189007629554037271e-01
-2.428796980467870792e-01
2.803102298561093719e-01
-2.003983037181529536e-02
6.324076523419193407e-02
-2.084000749836911748e-01
2.085206271457759886e-01
1.085625445091376179e-01
-4.435223786373271304e-01
2.850509545000155520e-01
1.499250338206223609e-01
-9.460051818215636787e-02
-1.095100701922962355e-01
1.905111132346896247e-02
4.698459433484990927e-02
-6.721864263259245131e-01
4.203082448657546322e-01
-4.512237316386112362e-01
-8.283929514528587390e-02
-3.081311134584669431e-01
1.861068476902756619e-01
8.657100244524510435e-01
-3.998066819871652355e-01
3.780590224973311986e-01
9.083879627282948066e-02
-8.410469808887285348e-01
4.142145797712311617e-01
5.806473985532463189e-01
8.889970407138453323e-01
-2.201049453009243650e-01
-3.339654396972065453e-01
1.983767996713885762e-01
-3.016377499435997714e-02
7.234053463819975494e-02
1.896463642883857992e-01
-5.481207534814113574e-02
5.107896340847078998e-01
3.891278336663579474e-01
-5.415254517213525381e-02
3.461146065169699165e-02
1.564317101173040292e-01
2.463853337218919193e-01
3.694357459245941055e-01
5.619351737530753343e-01
1.283187645343038807e-01
-1.963036783724102230e-01
-1.831092975854658467e-01
5.852669260351753833e-01
4.172104490536661658e-01
-5.042001687547145172e-01
-5.055514682796109251e-03
-3.101040741049151256e-02
-1.707249753959962368e-01
1.776860299166691526e-01
-1.867475249192788456e-01
5.976313144369798103e-01
3.171371450380072177e-01
1.991161807173742471e-01
-1.136955025140104492e-01
2.899791480548059852e-02
2.959272247993450372e-02
2.275130547326310870e-01
5.986504745217519075e-02
2.919555462079872696e-02
3.770822858921546450e-01
1.358719426796607954e-01
-2.145222706718181438e-01
8.682373543843163732e-02
5.537674533386902631e-01
-1.206078597672030489e-01
3.852074692319879673e-02
-6.239438722504039303e-01
3.563496989804625925e-01
1.463490112497313478e-01
2.729780054864809347e-01
-2.297680964537264225e-01
1.106062459774683759e-01
3.299715459518441363e-01
5.763991847576165339e-01
2.828685795152770244e-02
-3.237549436030254246e-01
3.110644638534194525e-02
-2.620873827005827938e-01
-1.240461783170886262e-01
5.113965462375505977e-01
-1.011701428574409423e-01
3.830050847185255125e-01
9.025403252309850688e-02
-6.416576809550917915e-01
-1.833588033125167771e-01
3.313078159323488148e-01
6.602278681095818946e-02
-3.498019560509634251e-01
6.929707721929113939e-02
-4.211512988187969264e-01
-4.680367909468749477e-01
3.188418468464122579e-01
-2.453251472709331860e-01
7.254057873693610381e-02
1.512334050849601930e-01
2.146836023798584167e-02
-2.248320136889678800e-01
-2.638550138634896958e-01
7.891261608139570061e-02
-2.585647115528844631e-01
-2.467936221807707220e-01
-5.781091334545059544e-03
-5.474133468302149197e-01
-4.053372802491808091e-01
5.220405196101884915e-02
-3.420033595216459554e-01
-2.088990937764063638e-01
2.037800364191498341e-03
-3.017856919172521302e-01
-4.474786650092121287e-01
1.523891519683829576e-01
9.856812683187991808e-03
3.458499771134995737e-01
-1.157289414848222397e-01
5.543357185700473755e-01
-3.550955361729195014e-01
2.678370431662202567e-01
-3.067285390850586491e-01
3.759001189862694048e-01
-1.492846604000332700e-01
4.455369389072922348e-01
2.585740897996359824e-02
1.889146255561536536e-01
