-8.669782332080116019e-03
-2.492185216728078911e-01
5.455554771235149314e-01
1.953323861727540023e-01
-1.041409557162769756e-01
-3.108119657357888942e-03
1.567650452436753217e-01
5.491283346347227701e-01
-1.473505924877220874e-01
-2.324722335707258281e-01
2.875237416024471748e-02
-3.839793228933890412e-01
1.836844500431917410e-02
5.164452424406742459e-01
-2.075836546907553204e-01
2.694649078480126358e-01
-1.404764176397625963e-01
-4.148147972018228352e-02
-6.208924071710567594e-01
-3.129913362823459888e-01
-2.534868067434309924e-01
7.249442252576686341e-02
6.040202567763176544e-01
7.571485854249764003e-02
-3.417159394899404457e-01
4.866106035153163756e-01
6.239270826087905952e-01
-3.606957941132507561e-02
3.989843732447051483e-01
3.978826106004457186e-01
-1.915783769697998462e-01
4.981606300106010410e-02
1.326620365379786552e-02
-5.036464125375706563e-02
-2.966181119577582237e-03
1.172909952639107634e-02
-1.152505671139885113e-01
3.578951482761845160e-01
-3.910462159668930404e-01
-3.325348463597861404e-01
-9.603196828081721204e-02
4.213717042963641690e-01
-8.080318992609011874e-03
-5.260878833524299664e-02
-2.862673394802570659e-01
2.666707651035675197e-01
4.453086755069354252e-01
-1.293537226810224650e-01
1.627115351604921101e-01
3.028025166485308617e-01
5.391487245047504873e-01
3.915239288028449782e-01
-3.812687658823253334e-01
6.440248408963779314e-02
-1.980043380170210809e-01
1.372755605338834561e-01
-2.909591205713834006e-01
8.983826744184167379e-02
-8.969007599637021655e-04
-3.676558569850640890e-02
2.747352670323103402e-02
-5.150503468355147052e-02
-2.164733971576880966e-01
-3.503454536946002396e-01
-2.592258185883926369e-02
1.218358717185764051e-01
2.316839306826158351e-01
-2.687138625113041357e-01
-2.093457076782251625e-01
1.139347931186271007e-01
3.365701551831525307e-01
5.739199955279766785e-01
3.933860830701496059e-01
2.698161338097060935e-01
-3.521905763097363945e-02
9.674891611521939383e-02
1.343431101561762819e-01
-2.189119991557787470e-01
-1.515826808571714424e-01
-3.002630322038881139e-01
-2.006339688408598498e-01
-3.147885400460980754e-01
4.228764091382897217e-01
-2.049970462667748128e-02
8.733770016525256585e-02
3.493767419636127913e-01
2.635602535843716288e-01
-4.515732497165263482e-01
3.012919943686316882e-01
1.776758545778235332e-01
5.247474317017494783e-02
7.521713261609502821e-01
4.884835434411944899e-01
-1.239771527497231934e-01
9.070038295301805498e-01
-1.970683165173450768e-01
-9.005938681251250688e-02
-6.698544343795698186e-02
3.197674445168098845e-01
2.084652066016860483e-01
8.025543157178342824e-02
-1.452488897301303095e-02
-4.600270175313639909e-01
-2.075277243876926525e-01
1.644721835053720438e-01
-1.048338618660992344e-01
-8.627184668105795096e-01
-6.131349966460142298e-01
-1.407079218064494208e-02
4.141157839240904304e-01
-7.163194293761470099e-01
-7.024081663926792785e-02
-1.934254112312914498e-01
6.762140830024347682e-02
4.746519826791120722e-01
-3.654629948400246464e-01
1.452597049421564812e-01
2.683017416142738920e-01
-3.619491970227071143e-01
6.614779952950990138e-02
-3.372251813536548126e-01
7.479035002577041902e-02
1.568686828581427051e-01
2.734349514995783603e-01
-2.978270517467150880e-01
-2.341884379318708576e-01
-3.820113827626437364e-01
4.362583109194843878e-02
-8.227660276773847425e-02
-2.273213289585973573e-01
-2.560452053706869791e-01
-5.060399362338291462e-01
5.115743009637266914e-01
-4.256053499398413376e-01
-5.391699352947417756e-01
-4.075740485929608692e-01
-4.172412914906915571e-01
3.857174922473748380e-01
-9.696072977159440887e-02
1.980728978742343771e-01
-9.367053045673791323e-03
2.972044269863677920e-03
-2.670024138762348564e-01
1.770943787408699732e-01
-1.156759091470271339e-01
-2.566713382222130524e-01
-5.318645154827531529e-01
-3.252751735776577835e-01
1.017197993888440954e-01
3.350533219052634348e-01
-2.471824072213004431e-01
5.863038951621702966e-01
-2.963284534332908393e-01
2.340850721745691698e-01
1.687302947795650820e-01
9.068024188136941666e-02
-3.385238925387172859e-01
-4.682349755383972689e-01
-3.413714359162132173e-01
-2.829054615962856012e-01
-1.017221656337692626e-01
2.071004148182490345e-01
-2.981130514416299726e-01
2.603697239364049371e-02
-8.048640354640308747e-02
2.691447853378747257e-01
4.318083566431669129e-01
3.667959699127326667e-01
-3.383341548742428706e-02
-3.330834270742549230e-01
3.680834530962892592e-03
5.803458496314541915e-01
-2.203527704942976895e-01
-4.198084420939107164e-01
-2.172165173441971756e-02
-6.709433261406348992e-01
-2.430881855766123534e-01
-2.029542133455218278e-01
1.194845775964616941e-01
3.739211037317238806e-03
1.441281773863892779e-01
4.181290016712008728e-01
5.488117821106926197e-02
5.605626157111761598e-01
4.685171126344095383e-02
2.143233730501597489e-01
1.865781805244204894e-01
4.045980315981232422e-01
2.792356173858044355e-01
-1.007914696596913795e-01
2.993929779635081667e-01
-9.780170081644770641e-02
4.737475750292374221e-01
-2.720271319761472517e-01
5.041551898461475029e-02
-4.596114428594651469e-01
3.467587756802940069e-01
-1.529484829657651868e-01
-8.858993502578853263e-02
1.114817470858810999e-01
1.417023836758461719e-01
2.278448580295452386e-01
8.330006100019890850e-03
-9.042990050876678620e-03
-1.901849821894601722e-01
5.201226042650770875e-02
-2.754397160524898469e-01
-6.041337838336995336e-01
1.018096711880757399e-01
-4.982143274120280352e-01
-2.195910053170855303e-01
-9.890193505714894862e-02
-2.031618291776265406e-01
5.042298726646415874e-01
-2.005221243356091754e-01
-6.864864500540825143e-02
-6.395022219681345543e-01
-3.525015973165120942e-01
8.470028263529652546e-02
-1.395646464961168842e-01
-4.648063715814175767e-01
1.681809554099342463e-01
4.633220145908519827e-01
3.686749545305539888e-02
-1.495189614115834675e-01
-2.750239652912949695e-01
6.396367575269037431e-01
-1.239334824975792809e-01
-3.627081291769588822e-01
3.963095716972888094e-01
-7.445953375653316941e-01
2.003004838412332789e-01
3.264598594265227249e-01
1.973502744596483116e-01
-2.484931373084029449e-01
-6.286264356879193993e-02
-2.922756903542855222e-01
-3.271232985834453544e-01
3.459333509050239175e-01
-1.596281790383090315e-01
-1.517855880371235533e-01
3.005196448596021974e-01
6.328661939981886642e-01
-4.308419573347459230e-02
7.600450721979431501e-01
6.668414513271196664e-02
-1.970490453452677093e-01
6.582871141648996005e-01
2.389136177953829487e-01
1.468282284229068257e-01
-1.371460187069591385e-01
-2.637316465993365111e-01
-1.380932765424409958e-01
2.671803202552338052e-01
-2.040764277064849308e-01
3.088728312586268981e-02
-2.031698081231382291e-01
-1.886697436778359271e-01
-3.501643270563703503e-01
-1.388464744610508339e-01
4.367478180702236701e-01
-5.171837156817367109e-01
-4.443883080037802080e-01
5.621865424360769081e-01
-1.912283211131413918e-01
