-1.668250395067606417e-01
3.505993284868845206e-01
4.778090004820097492e-01
2.766937194199692862e-01
-4.171315696083155444e-02
5.183711166221167954e-02
1.799344493067782380e-01
2.396906439366719710e-01
-2.829065951953858016e-01
-1.829375632055788847e-01
-6.756806356777284028e-02
-3.774172459952384040e-01
9.009121029645053569e-02
2.582206798257494773e-01
1.569627887318653658e-01
-1.654025424710733327e-01
-1.226585269413607848e-01
1.186767322005766179e-02
5.991628232203561472e-02
-4.567779523579619805e-01
-3.719508720664003731e-01
4.376796245514005257e-01
-1.160884937447276832e-01
-8.179770321998514060e-02
-3.950129931244308890e-01
3.376059007375539767e-01
5.365025887735140886e-01
-5.966684682306948317e-02
2.146609201415717039e-01
3.417102340212764822e-01
-7.144168110032420027e-02
8.001033322151726579e-02
4.672475767889642390e-02
5.481966504715378441e-03
-1.907524092578435915e-01
1.718096550799341760e-02
5.965855679041054405e-02
-9.438008756888971451e-02
-6.550533379801293243e-01
6.674755726416857493e-02
6.300712144059107400e-01
2.646648570203424811e-01
-3.827141877070483478e-02
-3.012097366354914152e-02
2.134972201470268505e-02
-6.114625542294194194e-01
-4.596815750209486406e-01
2.905946906806279317e-01
5.176221955951074705e-01
-9.734665898113542548e-02
-2.848188001736926545e-01
4.188255078745321547e-01
3.167501062794181310e-01
1.406516351444583035e-01
1.550043813374586688e-01
8.475909010848277358e-03
-3.105243243382143636e-01
2.733233797630403861e-01
-1.117727876403973447e-01
-1.040796235147725124e-01
7.233607201446978774e-02
6.166943677151524167e-02
8.763792049446947341e-02
-2.232427831488170977e-01
1.861557073292453013e-01
3.875723600327593554e-02
8.970429820214996519e-02
-5.091835368793941052e-01
4.424836344782695496e-01
2.437868625144073154e-01
3.175625123843436315e-01
-1.419412741712162418e-01
5.855579394059494402e-02
2.372369013956522610e-01
1.309852285734436350e-01
3.006332991057815707e-01
-1.128614012338780281e-01
-1.910124572537504062e-01
-3.060262566572127807e-01
2.154514212231011250e-01
-3.587028697114696407e-01
-1.442834001348318185e-01
2.627883972019799397e-01
-8.234448383984697972e-02
-3.418185269547492355e-01
-5.483590001777688405e-01
1.623037020116857576e-01
3.118726009422870954e-03
3.521339220082534555e-02
1.675611204884955296e-01
1.701060745014956743e-02
8.673774307592551081e-01
5.239464764284623710e-01
-1.273660662285120981e-01
4.187049986211154873e-01
-1.986100253080681222e-01
5.384688632387156851e-03
1.197380903074349995e-01
3.503674563254975394e-01
-4.597430149704108682e-01
2.474823746468620966e-01
-1.984578665931006070e-01
-4.668359235362297133e-01
-1.696421466209123707e-01
-1.942902511080635275e-01
2.521866592193282575e-01
4.078271620651024443e-01
-6.093101484323406591e-01
-3.718769714979410640e-02
4.909066420501859151e-01
-6.246598494686966818e-01
-8.711279085018985846e-02
4.611675583833686476e-01
-1.810182264888747783e-01
5.827002193190835566e-01
-3.964146583836462567e-01
5.175511064137908734e-01
2.877564100243711342e-01
-5.098116909013804543e-01
2.671246151332314078e-02
-2.915566942434228981e-01
-2.895941971689656169e-01
6.669194580454806953e-01
-3.276468980062317155e-03
-1.350129674544385816e-01
4.446459349755524371e-02
3.329349293313881297e-01
-1.457390396640998939e-03
-2.205810847701023814e-01
3.884773664299953078e-01
-2.860041351931376652e-01
-5.938465837840494199e-01
3.112176424254122775e-01
3.712479766160107775e-01
-1.816527578044376257e-01
-3.898097452117306183e-01
-3.186930034756756402e-01
-2.190587514248878639e-02
-2.308900454423726822e-01
1.943901807174359259e-02
1.505823058639673209e-02
2.816778914563289882e-01
-2.509088152052212917e-01
1.709925819883783282e-01
-3.196040773266598523e-01
-2.136259199298960187e-01
5.223794360138866999e-01
2.349311533734735891e-01
-6.576859929436479346e-01
1.108089368827485932e-01
-1.189092650790171159e-02
5.439834080448643361e-01
1.278631595102440177e-01
3.248071845590349005e-01
4.061602103925710666e-02
1.514903781396727822e-01
-4.541590770722898074e-01
2.477930918994268039e-01
-3.644196787286438366e-01
3.686211718573622065e-01
-4.918662995971073704e-03
1.831245025793665493e-01
-1.269367136633992310e-01
9.622788705226772987e-03
4.475144730744577415e-01
1.706292383112321676e-01
4.125007931901032987e-01
2.651121309616639166e-01
-5.468728046892960132e-02
5.825351888682989143e-02
1.309290824515281781e-01
5.613967409634017525e-01
1.613005000689436350e-02
3.948625770047588524e-01
9.391097024180258823e-02
-2.892614681243796948e-01
-2.487128534758182297e-01
-2.376510898322535259e-01
3.694723404988372456e-02
1.409673058100751608e-01
1.552878313949539735e-01
2.762447635023381753e-01
1.119666017474502950e-01
4.327508613150388705e-01
1.091071127151575920e-01
1.357954191306255751e-03
1.076390797680115974e-01
4.220801690059285960e-01
3.670114890297125343e-01
-1.530158382451461963e-01
2.349147330598027883e-01
3.618421970848357816e-01
3.705796827973864005e-01
3.440995411948474803e-01
3.166906028151978414e-01
4.461511640170506832e-01
1.617059738490401188e-01
-3.552911816889073315e-02
-1.951382682244760247e-01
5.923339375597690415e-01
1.041282105978743634e-02
-3.644823412307496291e-02
-6.542868287785364410e-03
-4.068509536804694460e-02
4.989010554589100033e-01
8.615712114012161194e-02
-2.376514679169352273e-01
-5.395197433274370180e-01
-1.164430073121421882e-01
-5.209653765677818571e-01
-2.522111490242647247e-01
-2.038875633389203856e-01
-4.781703202354805615e-01
-3.102625605475944348e-01
-2.498783158270828642e-01
-2.787123329475396094e-01
-5.743791967580089697e-01
-8.649705972934174092e-02
-2.133395595598157335e-02
2.728954821630948935e-01
-6.647591949917053267e-01
1.691532453436536410e-01
3.912606139260930704e-01
2.704708926161048521e-01
-4.504813220715139233e-01
-2.963461204363145862e-01
5.115165129105035957e-01
-1.773995248199290442e-01
-2.789220196683478425e-01
2.133703354035517141e-01
-3.982215328706516511e-01
-2.087269865973707117e-01
3.042982685694466949e-01
6.876517093520426172e-02
-2.201810667391723986e-01
1.776425274556385214e-01
-3.866023601252335795e-01
-3.344332152148528081e-01
3.362618501649441427e-01
-9.141602096827211588e-02
-1.405203366320280922e-01
2.824899495762041024e-01
5.028319921355285382e-01
3.640665733566539330e-02
7.609805934577839048e-01
-2.017868822525608827e-02
-7.740354128179489646e-01
3.084058477872773096e-01
1.768350246506329437e-01
1.056419159192097251e-01
-7.649118460057430235e-02
9.512348994603590790e-02
3.688358320838642235e-01
2.766677050008689021e-01
-2.569595323032788925e-01
1.869192759191590225e-02
-2.997980940886158657e-02
8.601054023755526357e-02
-2.607967481174484625e-01
1.636827314462366845e-01
-6.348103255445619597e-01
-4.908853184699311645e-01
3.144118469121678916e-01
1.417526809862641457e-01
3.230364578650171681e-02
