9.835774245891919232e-02
-1.968394560666677506e-01
5.585476776465103654e-01
1.814708243079830030e-01
-1.079288166309454317e-01
5.779054088199001710e-02
2.065717655312797607e-01
5.189975320426081229e-01
-2.322237172826486507e-01
-2.324722335707258281e-01
1.012609283738427901e-01
-4.185706869753759718e-01
1.586405885776381863e-01
2.728160697221804210e-01
-2.075836546907553204e-01
-9.212528508586137477e-02
-9.486343807723271460e-02
-1.480704789722042947e-01
-5.976909395289922156e-01
-2.151698485974232744e-01
-2.422881629905365153e-01
8.063314758093070855e-02
6.014384679562335689e-01
-1.147130709702620516e-01
-1.190283097144196334e-01
4.358581727540711270e-01
6.016754022297050586e-01
-5.489043392349894634e-02
3.889769092757105473e-01
3.124180103613288240e-01
-1.769278599953153785e-01
5.801297602591763691e-02
-1.236138451012660545e-02
5.276080507597525476e-02
2.096118023142237441e-01
-1.216679702021054299e-01
-1.702483428445719094e-01
3.675217974579437774e-01
-4.295903752958678545e-01
-3.289617443543167430e-01
-7.172254979479637804e-02
4.224206290525720497e-01
3.994736570201733172e-02
-5.590686420270242485e-02
-2.159436867885139721e-01
-5.678304358161242460e-01
-2.687851910034084676e-02
-1.587565983702430294e-01
6.107949490345007115e-01
8.404767504997767702e-02
4.952261118650944094e-01
3.907788666106830622e-01
-3.364302689388599665e-01
1.277668901050638128e-01
-1.932624336744251381e-01
-6.021242515683061791e-02
-2.920622934001845250e-01
3.870943863052261347e-01
-2.292524302956099741e-02
-5.207493611889565943e-02
4.014976402121608542e-03
1.026270356512608110e-02
-2.164733971576880966e-01
-4.001332645965433588e-01
-4.540483391427525828e-02
1.306536940743324160e-01
2.243928365478068121e-01
-2.583338616903403939e-01
-2.033473362522154326e-01
3.327633933646799158e-01
3.497720366776974066e-01
6.485365924518949887e-01
4.390252419477701507e-01
1.482568206770743524e-01
1.991954236747082718e-01
1.844697885197488785e-01
8.292900812482445483e-02
-2.451208025894678899e-01
-3.144273488930050542e-01
8.167912566764599924e-03
-2.059491136398510502e-01
-2.465501839860418931e-01
4.084547489334962589e-01
2.832235813209487904e-02
1.381741581973664965e-02
4.298614299552488971e-01
2.266534914661821887e-01
3.691910355060919469e-01
3.012919943686316882e-01
5.286366861969583886e-02
-2.846704954267728627e-02
8.417272874817056660e-01
5.294183883326936124e-01
-1.184104714835792493e-01
-3.978805888116820205e-02
-1.736542169157915261e-01
-1.171326136836844667e-01
-1.031723575749785710e-01
3.197674445168098845e-01
1.992396466242837838e-01
2.679628067172379335e-02
3.410674138749369977e-02
-5.384512970735930715e-01
2.913421592381998937e-01
1.715237597774378897e-01
-6.334451840624777397e-02
4.969389305203549267e-01
-5.527178930943332791e-01
2.903903130016062817e-01
5.120130966164361253e-01
-7.264634126841931216e-01
5.244105457342879834e-02
-1.507748720923981767e-01
1.366342262904168547e-01
-7.548794912293899095e-02
-3.752462005265292944e-01
1.941261441591292103e-01
2.848294837148928615e-01
-4.680640326037479038e-01
6.415057646016290860e-04
-4.291554071788722391e-01
3.347207636601911562e-01
1.285091543126861691e-01
2.910331339704386178e-01
1.881271761769652551e-02
-1.924787465022167465e-01
4.292619261194804414e-01
1.989960221249456943e-02
-1.756640724408962406e-01
3.827320050044159538e-01
-2.880946565439611584e-01
-5.192719404919441395e-01
5.026514150404808312e-01
-2.833845974654874422e-01
-5.131667330519164016e-01
-4.090531101678539505e-01
-4.172412914906915571e-01
3.525582794441414203e-01
-5.852830516822388890e-02
1.143992741329244028e-01
-5.540312007177851383e-02
3.542323681528416479e-01
-2.525377153051544532e-01
3.444670010735944032e-01
-1.967160542516029342e-01
-2.427770031748883450e-01
-5.161251317647715942e-01
-2.994998922567060906e-01
3.430614717225207166e-01
3.342344882278765472e-01
-1.970810198196825125e-01
-2.820611026833766410e-02
-2.784018135293673257e-01
4.345874120090829074e-01
1.537010316892920281e-01
9.068024188136941666e-02
-3.832661685193615164e-01
-5.074506082972675136e-01
-3.010560616399194922e-01
-1.911379673709589222e-01
-2.592378386488492469e-03
2.320469696605072518e-01
-2.616193143461347792e-01
6.847272255416668452e-02
-5.893744566508414551e-02
2.691447853378747257e-01
4.321432316035547783e-01
3.106053151337282436e-01
-3.383341548742428706e-02
-4.184691177060326783e-01
4.177611314181993440e-02
5.805446697618495966e-01
3.437945689755717016e-01
-4.294352938272521514e-01
1.940064415834961975e-02
-2.011999388400922406e-01
-2.128536622500473707e-01
-2.522057749614398103e-01
1.194845775964616941e-01
8.912853403494615245e-02
1.990275667368798795e-01
-1.004565763703821335e-02
2.169093144585521743e-02
5.108574960348045702e-01
1.320565032549023687e-01
1.430887424039529732e-01
1.577667810450790742e-01
3.678073379402710952e-01
1.419709661767326048e-01
-1.543746189596129359e-01
3.017766161800693459e-01
-9.907282301149872294e-02
5.386344912382216021e-01
-2.614253727794220161e-01
-1.146847398382768723e-01
2.015806449330335981e-02
3.600432580828315521e-01
-5.487274970772281629e-02
-1.041220128182144405e-01
1.041271825986965216e-01
1.506126495738961957e-01
4.995431421191660198e-02
4.876498162503640765e-01
-8.887894113933210438e-02
-1.902939970630306565e-01
1.178193336640386418e-01
-2.361064082048228430e-01
-5.057369957814787931e-01
-3.181518819009214114e-03
-5.015280667286623473e-01
-2.244405006514076373e-01
-1.178962753702624405e-01
4.688806080418770894e-01
7.223200919152991673e-02
-2.449852685530792551e-01
-8.017645383380665736e-02
-6.284643872193883540e-01
-3.977938621679963371e-01
2.931566698948179922e-02
-1.506175465050906860e-02
3.386501031357906921e-01
1.272700047788524746e-01
4.907935456467740765e-01
2.391214348801267917e-02
-2.033000426792434256e-01
-3.576312901097916663e-01
6.472819723901360733e-01
-2.622520041114145828e-02
-3.557265762162463707e-01
-4.049047268160758661e-01
-6.650599409304126519e-01
2.456220391915669432e-01
3.264598594265227249e-01
2.370168455312219868e-01
-1.231849709550526251e-01
-1.742841746493862046e-02
-3.663089782743572664e-01
-4.394041601546573306e-01
3.784857125933395738e-01
-2.335198144867915993e-01
-1.227588902881658478e-01
2.646215614241682057e-01
6.071958936196698575e-01
-4.474453954195874855e-02
-2.265512200602224357e-01
6.668414513271196664e-02
-1.970490453452677093e-01
6.695769895459261489e-01
1.573376489977312553e-01
6.854150974036329891e-02
-1.636685675975695364e-01
-2.115821848642352454e-01
-2.585981384112073789e-01
2.566866627295666392e-01
-2.227758556858126238e-01
-2.216732738336707476e-02
-1.571744367234944595e-01
3.596891999320775968e-01
-3.194155984189160913e-01
-1.636928946272774021e-01
2.624979961639017367e-01
-5.902571243897795084e-01
1.991118400364097762e-01
5.571153450732726498e-01
-5.284879452192458027e-01
