-1.776813200956246785e-01
-2.475935982318499540e-01
4.761960684680860423e-01
3.067689853043327197e-01
1.940843062091673898e-02
3.731413664060744678e-02
2.147465427109708502e-01
2.396906439366719710e-01
-2.829065951953858016e-01
-1.829375632055788847e-01
-1.358338170201954798e-01
-3.656908500623924918e-01
9.009121029645053569e-02
2.582206798257494773e-01
1.468088070374617415e-01
-2.016679605493524874e-01
-1.674697756402791504e-01
-3.638855237933568548e-02
5.991628232203561472e-02
-4.101228883575036011e-01
-3.361997058682491546e-01
4.298617098588831675e-01
5.050972440886913883e-01
-8.804232120039529041e-02
-4.501612390988863899e-01
4.028104950147124996e-01
5.484718964446813061e-01
-3.920175221498550799e-02
2.203653889258577470e-01
3.838136387384575299e-01
-3.298105916330831139e-02
2.695659800881700097e-02
-3.316986526761688675e-02
6.849368882473713671e-02
-1.470317370919448641e-01
-1.086918876512789345e-02
1.171804226914805597e-02
-2.782083679580654723e-02
-5.663845237109647046e-01
-2.635310230727374581e-01
7.764884808746598532e-02
2.646648570203424811e-01
-3.124492410974610140e-02
-1.051107397972897706e-01
6.593660269711809629e-02
-6.114625542294194194e-01
-4.582129687414124852e-01
3.170341526693202239e-01
5.663533731713887853e-01
5.848863891915834223e-01
-2.696645117909096112e-01
4.320623791775133338e-01
-5.125542166403678213e-01
6.322730064086021229e-02
2.350998803373098855e-01
-3.863886737765803020e-02
-3.134545652047624476e-01
3.112156993776699632e-01
-1.689891553866509910e-02
-1.379531118816976765e-01
-3.831444745840797278e-02
8.271529356192741655e-02
1.128755277330922152e-01
-2.146202725202945305e-01
1.435019966946448067e-01
-4.327568789596386578e-02
1.543821875530496102e-01
-4.833844645483734714e-01
4.176132063305095232e-01
2.258443410367144688e-01
3.599055459603934803e-01
-7.646378642993843788e-02
-9.757582212588683523e-03
2.927694743094069740e-01
2.148544824714832546e-01
2.688462285254129003e-01
-8.609567179664050218e-02
-8.054608010143020358e-02
-2.970531711677458220e-01
2.184803349268495676e-01
3.431078761720697534e-02
-1.786389845830325118e-01
2.813855366299458094e-01
-3.024754601076887206e-03
-3.790027205004459221e-01
-5.283357739717242652e-01
1.623037020116857576e-01
3.645582452622266323e-01
1.323684350918266917e-01
1.967304565376087888e-01
5.381093825674101994e-04
8.554376654700653893e-01
5.326327943585801306e-01
-1.317565087278924629e-01
4.454043839987321673e-01
-1.986100253080681222e-01
2.369969678876857055e-02
1.932408794812743857e-01
3.098092693274945297e-01
-4.597430149704108682e-01
2.280533717052867226e-01
-1.594651160676769375e-01
-4.120720610933414907e-01
-1.621292388915247795e-01
1.134526156362646310e-01
1.156787809999788863e-01
4.373748850971351798e-01
-5.801348587767073406e-01
-1.693314665848373243e-02
5.213551676331209528e-01
-6.180779867207576439e-01
-5.851751943718538906e-02
4.717924319716632620e-01
1.996038387919491508e-01
-1.100586307646591600e-01
-3.269926991299838548e-01
5.201079962169105064e-01
3.412616807975100142e-01
-4.536272087628059335e-01
-7.025352493224952533e-03
-3.554901941999350501e-01
-3.525031103936969723e-01
5.601870552835052086e-01
-3.276468980062317155e-03
-1.804212348311261538e-01
4.698574557357222681e-02
3.373916467502053318e-01
3.412463890799562888e-02
-2.205810847701023814e-01
3.732266005945310550e-01
-2.298825952262562866e-01
-6.296050950749950692e-01
3.112176424254122775e-01
3.832403631446081871e-01
-2.604535138393663241e-01
-4.784785778326040573e-01
-2.520581435141673321e-01
2.627517103772756060e-02
-3.329552333700310784e-01
1.943901807174359259e-02
2.750386895149374220e-02
2.816778914563289882e-01
-2.840794076259754997e-01
2.167693958811854338e-01
-3.196040773266598523e-01
-1.450490823082087322e-01
5.223794360138866999e-01
2.338199046453180718e-01
2.140326392845162407e-01
3.241634658035738581e-02
7.523159825484437499e-03
4.845157466869667306e-01
8.144789204286537188e-02
3.605931875945027065e-01
1.276712847777283222e-01
1.017270105433526611e-01
-4.541590770722898074e-01
2.463212269104599894e-01
-3.733820976009203374e-01
-1.898958857620035301e-01
-7.062166386063500889e-02
1.635020532440722152e-01
-3.091574916311537469e-01
-8.465362451340434358e-03
4.588683326231332016e-01
1.706292383112321676e-01
4.348590139654592290e-01
2.945847012602224591e-01
-2.523861717409948621e-02
-3.468340732773271817e-01
7.888898450055106815e-02
5.830140046585884361e-01
4.774294700389739021e-01
2.031559429841362299e-02
9.535877085417955590e-02
-1.931942125777241226e-01
-2.690970718799674533e-01
-2.376510898322535259e-01
9.736338363381785710e-02
1.532630973933804819e-01
3.133720888960813133e-01
2.490015167080673331e-01
1.151868654694673810e-01
4.275272032190858829e-01
5.491846884493820080e-03
-1.452554674381884969e-03
-1.781834937092871551e-02
3.817503511069014754e-01
3.065909346680727454e-01
-1.530158382451461963e-01
3.436536534315360325e-01
-1.590396548533478671e-01
3.474261543725844503e-01
4.470310304933928780e-01
2.569738950365664243e-01
3.708324781853631902e-01
1.670745896427077715e-01
-3.552911816889073315e-02
-2.120601679291825303e-01
5.551898259421415016e-01
-4.334218538235604795e-02
2.948348919567593540e-02
-9.464601251078427757e-02
-6.219382209453026833e-02
-1.324776213784032985e-01
1.583799470412696475e-01
-2.797687832623391158e-01
-5.132948503232113158e-01
-1.164430073121421882e-01
-5.240347906503911579e-01
-3.012013837320539622e-01
-2.649236478578584908e-01
3.303084153199362105e-01
-2.810384740883138943e-01
-2.224000706300205688e-01
-1.149737010477956262e-01
-5.743791967580089697e-01
-4.011347121538631766e-02
-2.133395595598157335e-02
2.604147689807699839e-01
-6.760411302269080380e-01
6.973241782330158456e-02
4.179108447196618337e-01
3.153327493335029152e-01
-5.080640217679095461e-01
-3.146693238652821245e-01
5.250601009565637467e-01
-1.773995248199290442e-01
-2.936673527534888750e-01
2.374406064103333769e-01
-4.587245263894417224e-01
2.545134292806653376e-01
2.883043575600794939e-01
6.652005992834525427e-03
-1.862079110027136941e-01
5.796531049370659550e-02
-3.866023601252335795e-01
-4.373177293922866360e-01
3.480695087633255969e-01
-5.453542973269412397e-02
-1.345277527106878979e-01
2.474286489844246262e-01
5.573155957107167602e-01
-3.164153329590511932e-02
7.536694761339871595e-01
-6.147281747417861208e-02
-1.333101141228177910e-01
3.591592477884001378e-01
1.336197106031501991e-01
7.487685371347491126e-02
-8.100835248239780795e-02
8.334144334881073146e-02
4.056895950857616895e-01
2.766677050008689021e-01
-2.506706569619469027e-01
4.480972435454550623e-02
4.951058048775724280e-02
9.040177101756913247e-02
-2.815503764283394106e-01
-3.784292790455028865e-01
-7.013178625697239488e-01
-4.372018118017582666e-01
2.637580698489324638e-01
1.136754675516949420e-01
7.736384680601923747e-02
