3.815394117438228316e-02
5.307463176830332641e-01
-2.406959135177343112e-01
3.157375375842841891e-01
2.646758373719900748e-01
-6.034950378706397528e-02
2.603059809348171605e-01
1.999621280957380731e-01
-2.602414364258669455e-01
-1.829375632055788847e-01
-6.491615268574985054e-02
-2.824111857505138823e-01
2.034217587374587133e-02
2.764878266435709109e-01
1.615173353272183754e-01
-1.441824107590355952e-01
-1.716202043672861999e-01
3.350795466334328260e-02
2.821617989545610605e-02
-4.664481736142493951e-01
-3.114121342619464716e-01
4.722202128913855490e-01
4.621731026623582261e-01
-9.449660620732419636e-02
-4.679687901712966669e-01
4.320729434477099673e-01
2.035295494551625506e-01
-5.038738244168652902e-02
2.218036091966094914e-01
3.780569171117179050e-01
-7.307676763619692928e-02
-2.252333070208825672e-01
5.308486634318943659e-02
-1.139340857039841670e-02
-1.154366483910069241e-01
-4.555966310596037266e-02
1.171804226914805597e-02
-8.177226701755048455e-02
-4.962146262515096939e-01
-3.785774922747229265e-01
5.373775764987125114e-02
2.241937966340336319e-01
-1.733457759214567656e-02
-5.772273707436850754e-02
9.545844780323745060e-02
6.706417252952584507e-02
-4.240962275815843285e-01
3.343008532055878335e-01
5.071686582052890024e-01
6.103123728304573614e-01
-3.604215746730198289e-01
4.891665923670113214e-01
-5.917340602661247395e-01
7.110930825298800162e-02
3.558779787612514900e-01
-2.346444423393741208e-01
8.536260017547833701e-02
3.112156993776699632e-01
4.626578293744771364e-01
-6.835563604284256023e-02
-8.983431532281069276e-02
5.427216219935755426e-01
1.612931769349719990e-01
-2.795834459036722341e-01
2.148057338191657339e-01
-1.744098481979536666e-02
1.789183473990219320e-01
-6.226295977017552996e-01
3.723690104297222581e-01
2.118713755056502723e-01
3.066441106314464204e-01
-7.541717601441257079e-02
1.386865905059813872e-02
2.756656561054040555e-01
2.061655809955802166e-01
2.606546983119185090e-01
-1.009117018349209166e-01
1.549440046892344713e-02
-3.875915550133474663e-01
2.289627730554344431e-01
2.631775922431230791e-02
-2.267940581019831925e-01
3.126717073707789840e-01
8.075959715262949479e-02
-4.408840230732341547e-01
-6.073464975512063990e-01
1.623037020116857576e-01
-1.577984376016186574e-01
9.005700657331189296e-02
1.711103120026009339e-01
1.079401099337389675e-02
8.482626443693840335e-01
5.052520907900630576e-01
-1.018385878352247448e-01
3.527580117904633439e-01
-2.667074945869081226e-01
1.337803654988993229e-01
2.822541573171905571e-01
2.695250764312747682e-01
-4.447017121436995790e-01
1.832022151063222304e-01
-1.491990711213995180e-01
-5.383799888007847478e-01
-1.366121246913868936e-01
1.125902506304538309e-01
1.294213318949894165e-01
4.346867292660515636e-01
-5.885449318636170046e-01
4.037913809974161272e-02
4.094090020213141945e-01
-5.712389272004001484e-01
4.516577139734041790e-02
4.280488459369203857e-01
1.388951121746890005e-01
-6.892699905702517893e-02
-4.346079597694255114e-01
5.303440857076558990e-01
3.835879652945389795e-01
-4.568920467056839518e-01
-3.772968591416523548e-02
-3.554901941999350501e-01
-3.584555426310606085e-01
5.245158539577062795e-01
-3.276468980062317155e-03
-1.230844027130175156e-01
-3.699155381540942256e-01
2.924018055749020295e-01
3.480406282702785958e-02
-2.396043776278166948e-01
-2.681122952683314686e-01
-2.553799854693304949e-01
-5.239492360497701728e-01
3.253112592152502813e-01
4.551293302500346583e-01
-1.509145670601234057e-01
-4.900928767837895994e-01
-3.627229772430151655e-01
4.614991897716747005e-02
-3.329552333700310784e-01
-6.906562825689070706e-04
2.557721615463161291e-02
2.135220365320255331e-01
-2.840794076259754997e-01
2.751944778495590826e-01
-9.041569082635368682e-02
-1.422041330321794916e-01
6.058303003428567868e-01
4.292073847034208467e-02
3.064041813443095785e-01
-2.413287924338534951e-02
9.447727793079241376e-02
4.424563797652239505e-01
-1.658046298557122322e-01
2.734094706594881186e-01
1.500102602873912838e-01
8.044521314679317636e-02
-4.181602293564380401e-01
2.966343526375166961e-01
-3.365780983168430440e-01
-2.270204867957975603e-01
-3.667998881501267905e-02
2.170066782743028388e-01
-3.517321958260387627e-01
-3.191786658275335697e-01
5.182560285205046746e-01
1.513039749657724697e-01
3.603244959707309070e-01
4.988114881081868179e-01
1.614300418743482846e-01
-3.846449720563037133e-01
7.888898450055106815e-02
-7.140426483837120086e-02
4.881763344503600721e-01
3.036037941444834701e-02
9.535877085417955590e-02
-1.397787656490911690e-01
-3.292910437793732381e-01
-2.834172360047392258e-01
-2.523677202022810429e-01
1.415685431744368450e-01
2.935622326981744967e-01
2.485695626314256279e-01
6.516493399792380736e-02
-2.821303025807442300e-01
1.259278783654295408e-01
3.988534266162215014e-02
3.732917905799467556e-02
4.332003355423749147e-01
3.410345562386550844e-01
-2.076120517682671085e-01
2.950575232398555681e-01
-1.776461726135654395e-01
3.943449264699800949e-01
3.337553092390450615e-01
2.516192594893969514e-01
3.278051889991704382e-01
1.245064887537650489e-01
7.564154773828074552e-03
-1.718183298138418469e-01
4.319257375524258036e-01
-3.940112874456255798e-02
-1.173386227754828759e-02
-1.211619127198319823e-01
-9.167522107776635010e-02
-2.095312735922200131e-01
1.412844074991078114e-01
-3.192187455848479738e-01
-4.726357515485390404e-01
-1.164430073121421882e-01
1.135146309086012134e-01
-3.012013837320539622e-01
-2.649236478578584908e-01
3.164604753252099889e-01
-3.821819598094977621e-01
-2.410051758051556525e-01
-6.364896518188012386e-02
-5.040504245466546074e-01
1.769870890569784144e-03
-8.180086924718224517e-02
2.418035974983337166e-01
-7.131088259222082559e-01
8.973172759405945165e-02
4.068720669274521473e-01
3.403323701238039622e-01
-4.449182107747164383e-01
-2.685840228444423272e-01
5.496271322888691691e-01
-2.413973172427686942e-01
-3.939501075320436252e-01
1.738394371420943219e-01
-3.792647239354864364e-01
3.442649005711609922e-01
2.873750781776172603e-01
4.625366514678660446e-01
-2.759069498815153176e-01
7.081936467642056809e-02
-3.505770350014120185e-01
-3.841484641667238242e-01
3.702085749996902875e-01
-1.605295819302553773e-01
-1.642738511317655692e-01
2.771535827262855411e-01
5.715832126588177298e-01
-1.034960450577434021e-01
8.546556950759256477e-01
-1.144039464546643958e-01
-1.767911611689181040e-01
3.653736601291177610e-01
2.047116492286955025e-01
-5.579263133293051874e-02
-2.131822449002358788e-02
7.457978927663135027e-02
4.122456766076360579e-01
2.889354282893625281e-01
-3.239562610898193973e-01
1.762459884763392659e-01
1.269652138433857991e-01
9.358064603860304087e-02
-2.844047647645958077e-01
-3.340683155607466759e-01
-6.445930150118516222e-01
-4.567002818046415058e-01
2.192829452722479811e-01
1.456853541737535007e-01
7.757247222733125447e-02
