2.955841590070995006e-01
-3.340602461580506888e-01
-3.069408161982405403e-01
3.938491790750163202e-01
-3.985082410271927889e-01
1.793726863035024766e-01
2.856876312793679151e-01
-5.404181812835311821e-02
-1.378167546649700613e-02
1.872976995503381759e-01
2.103456280521269137e-02
5.724158310671424443e-01
3.814569416882266362e-01
1.936191521866358067e-01
5.027932662742052861e-01
3.818422802017163997e-01
6.025373230431003285e-02
7.865162936975454711e-02
2.054833959843082314e-01
-3.065654993212332813e-01
1.994668200649659176e-02
8.812271581734404391e-02
3.579802140889903894e-01
-1.694199852927487024e-02
2.076305917499146336e-01
1.021433993579891758e-01
-4.972463080773108918e-02
2.328949028748835415e-01
-8.981333992210864536e-02
-1.371678255707382832e-01
5.738364332936177759e-01
9.612497606776354564e-02
-4.332724096469967590e-01
-2.585507026661390192e-02
-2.490787718563553521e-01
-5.779146039549603459e-02
-4.549995107789685522e-01
-3.088064440663448873e-01
-1.726022949636142959e-02
-9.717936538044062711e-02
-3.607611572763299024e-01
-1.808691591542378185e-01
5.340682288107949649e-01
-1.922587943968089297e-01
-4.133038683487084697e-01
-8.429954015886637064e-02
2.782567939149909741e-01
2.698749929767824129e-01
-4.475040808431178796e-01
7.893626381003547576e-02
2.846421852385799811e-01
-3.658210509735903004e-01
1.003141922347110075e-02
-3.701676682844911026e-01
-2.528964930076055828e-01
2.234933016173638043e-01
5.429493588167554341e-01
-6.166309699023376778e-01
-2.173521138314799539e-01
-1.370264071715810751e-02
-1.729221635434073367e-01
-5.389535228574227066e-01
-8.200030192329406109e-01
-2.339530228920051469e-01
-2.493125746237507268e-01
-7.029861302410556068e-02
7.898718692907918948e-02
-6.193569359174231348e-01
6.793457307164374459e-02
-5.950176080665717793e-01
3.232922689054025800e-01
9.230504860166376391e-01
4.272819296613197815e-01
3.851322086313786475e-01
2.146925176817648107e-01
-2.890397922318919122e-01
-2.899345977658510098e-02
4.261641871156995331e-01
4.878766948003268045e-01
1.407497468702526532e-02
-1.880987944786685073e-01
-2.638780833831131933e-01
2.576898677351227834e-03
-1.432304655711038287e-02
2.760550227818906466e-01
2.420360732636361034e-01
-5.349423156598200058e-02
-6.311066247770985571e-02
-4.932794554063293369e-01
-9.736537015681093199e-02
-3.441088255993440814e-01
-5.204537437121933285e-01
2.023126589350748850e-01
-3.213046068744628281e-01
-4.187900794875000221e-01
3.339055319427604029e-01
6.989055881856692798e-02
-1.441618907846633491e-01
-3.021681812753974072e-01
-3.300520230803122290e-01
3.128690155470612577e-01
-1.171529178903709112e-01
-3.458632535678073938e-01
-8.191421089556480406e-02
-2.409429294766089191e-01
-3.818867055741335670e-01
2.360165776362445067e-01
2.738538036704337708e-01
-8.395423889142379636e-02
-3.727946223974675788e-01
4.199943441890795492e-01
-3.160830840098486361e-01
3.830743007671914141e-02
3.629011568244833730e-01
1.949557225364547675e-01
7.015607008351461282e-02
-8.616198541426763058e-02
2.062659052860308095e-01
-2.928307588862469335e-01
7.080489181385337671e-01
-1.491513612436951366e-02
7.411977995125627050e-01
1.031846068029241698e-01
-2.713918428098515134e-01
-2.071149345885597015e-01
3.150303901129737350e-01
2.365004208355832582e-01
4.215869562207126275e-01
2.519384682362846850e-01
2.785758292077257156e-02
1.975249281705518112e-01
5.609991332420192871e-03
-1.252614903124333046e-01
3.919029920476724271e-01
4.818100260329385987e-01
6.207879680446555248e-01
2.627607831913996161e-01
4.065354604791189264e-01
-4.035786890587934606e-01
-3.600998026335964358e-02
-7.996873792199961362e-02
2.312840786095803347e-01
1.553381361962538065e-01
-1.380113368565427830e-02
4.931786651239772334e-01
5.536194842266231597e-02
-2.941978817056095097e-01
-4.699734820591610629e-01
-2.361970265966234495e-01
-1.675132319920191737e-01
6.175672613316341986e-01
-2.432772305532205359e-01
1.173617872672138573e-01
2.722468433619316119e-01
2.209391004029263028e-01
-1.657858295004994709e-01
1.934587453874384300e-01
-2.920643842323536465e-01
-2.528018151883664189e-01
-8.871812559389831432e-02
-4.391211437618348090e-01
-4.258724525890546508e-01
-1.667008605928069487e-01
2.296269072716436432e-02
-6.031833391693872115e-02
-4.967877262939645600e-01
-1.947961744291592384e-02
-2.253213278213449244e-01
-5.646071763611027611e-02
3.933782754893973554e-01
2.245676265998896790e-02
-2.271084363119069832e-02
5.126096665727795237e-02
-6.062512670693274291e-02
-3.719643748916578452e-01
-1.466075360903819694e-02
-4.336028059254345979e-01
-4.078336000980688492e-01
3.357871161006498739e-01
-2.582807909959659587e-01
2.376365761859024900e-02
-1.571508592099235824e-01
-9.930619979450719392e-02
-5.452602869257506812e-01
-2.379245858928099588e-01
5.033572370593353273e-01
-1.330906178201292922e-01
1.253818998696911990e-01
-6.951385257688166286e-01
-3.550431023932806851e-01
-1.821709497949395851e-01
2.650043844181076413e-01
-2.319990873383137864e-01
2.132169208220029422e-01
-1.846279989757900267e-02
6.386215102699909218e-01
-5.197776441926800217e-01
-1.106566552491928673e-01
-2.333789813210146447e-01
-7.487949254871795191e-02
2.638340144324651804e-01
-1.156241846174394239e-01
7.118559425194059820e-01
-4.069136868561616938e-01
-2.398173186505319909e-01
2.405172509189930363e-01
-6.589728889741245377e-01
2.940178030706532830e-01
-5.498771248105087384e-02
-2.327764163061578906e-01
-3.887498434692284177e-01
-8.162523454914603904e-02
7.885512967724696287e-02
3.036763550173722792e-01
4.849891034987741101e-01
4.416449615679847729e-01
-3.196191848906616007e-01
-2.248264176354887456e-02
3.760219496626997504e-01
9.312435869286836421e-02
3.455791145840255152e-01
-9.512593061053352395e-02
7.035436750917006821e-02
-2.732529702404177807e-01
2.725097235076903157e-01
-2.008054945504079147e-01
5.700913829026366120e-02
6.653198288304695840e-01
7.979551923953295822e-02
-2.912646321258384741e-01
-7.928923626028864247e-01
2.154194984818362524e-01
-5.008240653595039671e-01
-5.713257178865465136e-01
7.133164052282629786e-02
-3.403661764035932347e-01
-2.023107577780910993e-01
2.516825892810063414e-01
4.515420727227361652e-01
4.865870514759436383e-02
3.319938565556389554e-01
-1.205294795356528365e-02
9.227895667247168823e-03
2.541121951474546448e-01
1.348350688093361525e-02
2.312671877100207773e-01
-7.997177503606468785e-02
-2.260729045217796940e-01
1.603818342626756877e-01
4.484360997782361568e-04
-9.361481978502563320e-03
-1.603685959096121938e-01
4.011980953540655315e-01
1.320676932559141370e-01
-5.131244111385203643e-01
-4.491247144139886016e-01
1.835675360851106164e-01
-4.239907237147198527e-01
-1.270780367156213730e-01
-1.010260026665002475e-02
5.433461493164027734e-04
8.656188030934032496e-02
-2.119451760959013831e-01
-6.734293117875368717e-02
-4.373806009814222850e-01
