-7.830176527921810237e-02
2.332722639627970718e-01
-3.373347398045157264e-01
2.481812909735434808e-02
7.069158473326984937e-02
-8.697223863854776360e-02
4.683157779752548239e-02
1.737527027330914853e-01
3.922341460344569986e-01
-3.674940659570268275e-01
-1.297222482788955578e-01
1.089831843735933475e-01
-2.407902123285045881e-01
9.513592792942034138e-02
-6.323430471835903011e-02
-1.277553926019666108e-01
4.270478216534528415e-01
2.557927424410383899e-01
6.208144930010867091e-02
-2.344183951384784803e-01
3.746082033500395814e-01
8.383626559317032545e-02
-2.119481834423830036e-01
1.229722036608987823e-01
-7.431571496887186268e-02
-5.932638212272564604e-04
-2.666043877754618041e-01
-1.000000000000000000e+00
-1.903218601196101367e-01
1.138011083411411134e-01
-2.098212717546417971e-01
2.031220733237670828e-02
2.786021806503956588e-01
1.341393086316753913e-01
5.337382820863518784e-01
1.410562502379207606e-01
-3.264376789296389858e-01
2.416443512133910620e-01
5.601993245781611286e-01
3.197399980378772821e-01
3.185287215525222093e-01
1.996288421276850855e-01
2.778280558067030420e-02
-1.865482766036059004e-01
-1.153410948492327864e-01
-1.409463253514092185e-01
-5.970137778401045647e-01
-2.560395775123143220e-03
1.744712474922058554e-01
-1.008505963439817049e-01
3.086578107172011087e-01
8.929790961505952585e-02
2.121975816689477060e-02
4.540762129084851551e-01
3.101969907637748894e-02
-1.439097508710982520e-01
-7.569068587201820408e-01
-3.164011531076474371e-01
-2.646797703126904100e-01
-2.870740515529221493e-02
-3.004357269242852180e-01
6.997930093718930655e-02
-2.360542503933787395e-01
-9.998116102620689671e-02
2.134448245579743386e-01
1.031618204399838146e-01
-3.630865747817159650e-01
-5.487788254663460430e-01
-1.477034545886725947e-01
-8.862437033844210166e-02
-1.387710592758552644e-02
5.126619433689175859e-02
-6.345305845222221075e-01
2.964504687918550485e-01
2.703148569090261799e-01
3.842158230061630542e-02
-4.409802008897692471e-01
-1.608860849759848402e-02
1.836238049085201773e-01
3.742033574855051226e-02
-4.090017479567134573e-01
-6.060551562328590075e-02
2.970536203142562504e-01
-6.760390434117626857e-01
-3.004016862406134192e-01
-1.573304730989523725e-01
-6.990775530042306340e-02
5.831579582377185295e-02
-6.066548163770962843e-01
-6.716903634789792021e-02
-4.487034215821997796e-01
-1.435730029467113533e-01
-1.296811373221666008e-01
-4.026274149234783661e-01
-2.774947990831411748e-01
4.751095824823282632e-01
-3.252679506958827127e-01
2.288768680469645614e-02
7.098674872931080848e-02
-1.951790611503063932e-02
1.343417584468019621e-01
2.095307827650014498e-01
1.966107232981821329e-01
3.077051172188381423e-01
-2.866773719783272112e-01
-3.134394379074609965e-02
-1.545647978302480130e-01
-2.658055009092852305e-01
2.136012003384744617e-01
-4.059287780077980301e-02
1.058488035225427053e-02
-3.830735825633495018e-01
-1.991511036336196250e-01
3.419821516006972817e-01
-3.443932469284659986e-02
3.499246057670674093e-01
-5.811932777446148224e-01
-2.179832943251922284e-01
-2.543629993735712080e-01
-3.620585733276627388e-02
-2.520264488358852639e-01
-1.559172016701676211e-01
3.183314963444819345e-01
2.649173329658240372e-01
2.935884301085298631e-01
-7.013776387008840985e-02
-6.084380040272639040e-02
1.394023954972086199e-01
-2.955409983790834860e-01
-4.055054937484822153e-01
3.403612438651865829e-02
-2.628566210220115162e-02
2.503649454244802341e-02
9.363692957306880560e-01
3.229845118612607036e-01
-3.647439039938407679e-01
-1.540701689613873382e-01
-4.308485056669689173e-01
-2.649284511972500589e-01
1.769801013300869308e-01
-3.077196336713341474e-01
8.237955684604833517e-02
-5.878883208731739557e-02
-5.851351333390192311e-02
-1.110352962820181089e-01
1.238202743717531917e-01
2.141841207540322589e-01
1.368848159016625987e-01
-6.419587947012269646e-01
2.760182629732234050e-01
2.127755333875190336e-01
-4.687748973301746752e-02
-6.874226199298817397e-01
-4.119997101504924708e-01
3.035951370721074460e-01
3.315727486359273946e-01
2.987762282922921120e-01
-4.359726857687452189e-02
-2.146443424197994887e-01
-2.999119679675775751e-01
2.857166699942906840e-01
-3.875403570581717472e-01
-1.681581616106211652e-01
-2.160007849106805322e-01
-1.915074895065403682e-01
7.636690824653585841e-01
7.860797885599943302e-02
1.505690315025031978e-01
5.641267832604211080e-02
-2.695726645915790809e-01
2.517636183071358946e-01
-4.531101803381254456e-02
-9.708877747067200248e-02
2.567929515985455380e-01
-1.439770183846498797e-01
-3.191461015634830534e-01
-5.470699081922612145e-02
-4.649508453391778540e-01
4.402654435045017522e-01
2.644688190495180224e-01
1.290472494617504184e-01
-2.847861634164023936e-01
-4.335197764543077814e-01
-2.614790870976722581e-01
1.532353296335667858e-01
-8.126085363321840227e-02
-3.268244542617871340e-01
1.946321764594337311e-01
-2.950862320544199724e-01
9.389512621210113763e-02
-1.393522764412337966e-01
9.619087687748331672e-02
6.392290119972636742e-01
-1.515112337007850848e-02
1.201720633744714772e-01
2.860070046469432303e-01
7.661939717549053064e-02
7.307364925542432221e-01
-4.743380668240590459e-01
-1.504805683923220450e-01
4.362766964728402863e-01
1.136104177527087339e-01
-9.474420098632621579e-02
1.364626274643032655e-01
1.236418696378007998e-01
7.955765602796602831e-01
3.803819215358347772e-01
-3.939585697229016498e-02
1.345161746362591448e-01
-7.372014648133985715e-02
-4.041565267613781987e-01
3.342859497682610925e-01
-7.805790525492879717e-02
-9.100028909345064809e-02
2.003003983485137640e-01
6.216206149547689463e-01
-1.582798642382855225e-01
-1.735890140168540874e-01
-9.599543967977931802e-02
-1.018293431340385052e-01
-3.411654574952964203e-01
4.197035370638271118e-02
5.474307552354392703e-01
2.670422421672304925e-01
-3.494091692637912253e-03
4.120299347043372973e-01
4.296699795847947478e-01
9.089546860900536707e-02
9.786980836329513267e-02
8.553165561626246971e-02
-1.289476607289232468e-01
-2.131273195438112833e-01
-1.024341864148167469e-01
2.738733248645348062e-01
-1.148755597593410227e-01
7.891014229694501281e-02
-1.000000000000000000e+00
-2.741909583397804662e-01
-3.627297899427814332e-01
-1.094744584327892595e-01
-5.210702585390550312e-02
-2.701252204416664249e-01
-1.618592625547148056e-01
-1.129636099839826380e-01
-8.153677113875650029e-02
1.271481615680742500e-02
1.361148678559243319e-01
3.679494660195060107e-01
-1.617327531537047225e-01
-1.461841820470757836e-01
6.846226314455364226e-02
2.716667040315566828e-01
2.792444179331582399e-01
7.577180137157189799e-02
3.272719987018540833e-01
1.499245694231467196e-01
2.537462360132955452e-02
-3.219021934500915227e-01
6.104101664249744763e-01
-2.482766219440882827e-01
-4.208133219222083832e-01
2.883259778427328390e-01
1.408193270290553911e-01
-1.237514470096158642e-01
3.120060543569380673e-01
