-3.551069445136834646e-01
-1.105735738819213360e-01
-5.409852361336366933e-01
-5.802668719981489698e-01
-6.815248196081837018e-02
-1.680032861752191187e-01
-4.643467064661263577e-02
-5.411944624556963568e-01
9.957361387789323004e-01
-4.163175249165512182e-01
3.652858372167465673e-01
1.261781358399873543e-01
-1.038297577471128802e-01
1.953905877359236182e-02
1.545452341856240752e-01
7.689026832392446831e-02
-2.429013584395109115e-01
-1.965158376609825452e-02
7.971462898751904835e-02
-2.205308984859942478e-01
-2.546935783249187346e-01
-2.601867513049108127e-01
-1.234559229796938357e-01
7.361056834266681559e-01
-9.721125427487700699e-02
-8.422187726350590653e-01
-5.923471048123883920e-01
2.968906918744668166e-01
-1.892279236039232093e-02
2.534747097289525852e-01
-2.886553075632901089e-01
-3.497930106269928618e-01
-1.527301012279407011e-01
1.231755954593217739e-01
4.878543119437898645e-01
3.390942163658411945e-01
-7.197841858391657022e-01
1.159964748760224096e-01
-5.697633123842491543e-01
-9.708081317053334214e-01
-4.153155367023704803e-01
3.440157079419206565e-02
-3.040245950858194712e-01
-1.749947457335453704e-01
1.618173127847468140e-01
4.210087100982308206e-01
-4.886042168016551356e-03
-1.936405503615309942e-01
2.718857461906691309e-01
8.024225207112004599e-01
5.479941104555500209e-01
1.752645663672568188e-01
-5.704626974753757018e-01
-3.866136286293893054e-01
-2.674644255856001851e-01
-3.576364666667021242e-01
6.414868103413812195e-02
-3.049962990833416376e-01
2.112279161857674170e-01
1.137848317100798590e-01
1.805520240829533440e-01
1.533297234945461829e-01
1.903242842959661230e-01
-7.030609218744910960e-01
-7.294929241900651729e-01
-4.909547262903640741e-02
-4.101648778301689169e-01
2.651153346326757809e-01
-1.678049872791065045e-01
1.372370909853456167e-01
-3.636478757487338620e-01
3.129052118393614301e-01
3.544384663122889245e-01
1.125361560494975988e-01
5.074126280520854099e-02
3.915492431153342889e-01
-1.000000000000000000e+00
-2.846167715105548113e-01
-2.111141284040499513e-02
5.994457901205603179e-01
-5.198660541373139043e-01
3.136504213535539626e-02
-1.058104198582204697e-01
-9.477308245497290118e-01
-3.123030540487445328e-01
-4.194899799936959162e-01
1.887337719847373418e-01
-9.633793262643802757e-02
3.300107757902750460e-01
4.905085704835054350e-01
9.926263800998488263e-01
-6.556696342573516967e-01
1.629136349987382881e-01
5.566155999418844758e-01
2.598506324980532356e-01
-3.849001526585779653e-01
1.658943770630907366e-01
-2.362447746518914204e-01
-4.250472817905766032e-01
4.810485293089746817e-01
-4.491985846577035146e-01
-2.354539374040361122e-01
-9.816832945862156989e-03
-1.330299313751804879e-01
-4.743429519433898789e-01
-1.316205564271653305e-01
6.172312170388507407e-02
4.055892507560724947e-01
8.245461795205101529e-02
1.265358891216192827e-01
-4.919422218858435225e-01
-5.228016802693000731e-01
1.101564299758012316e-01
-1.344873229448103891e-01
2.090473321333802259e-01
-1.704501546903829379e-01
-8.794348341504681921e-02
-6.444338218441673094e-01
1.061565737863937042e-01
-3.275988973690753259e-01
-1.675884796933655996e-01
-1.827827102115212599e-01
-2.016427086452830253e-01
-4.805025695541436104e-01
-5.246444989790647329e-01
-8.393815613927234354e-02
-2.526716042151718744e-01
-1.766459843427045096e-01
3.719290326960438264e-01
3.619258722408718459e-02
-2.044611776535486258e-01
4.339695208514000035e-01
-1.942197284130547930e-02
-2.489767324462289766e-01
1.791367117773900453e-01
3.641347854640493709e-01
2.693259432194070602e-01
2.387864798461009075e-01
9.138129959436784577e-02
1.973160605672624746e-02
-2.745632859954144078e-01
5.348564481021884642e-01
-4.635360305535976555e-01
-3.297865156830508127e-02
1.549609101941860911e-01
2.640487089490993755e-01
3.492689334409777024e-01
-1.212109031698935524e-01
3.416855053525508223e-01
-2.141333718597261959e-01
-1.113513807458780536e-01
-1.048550815136354841e-01
-1.371743700008188627e-01
-4.779249982335135871e-01
-1.189070552262105063e-01
2.315645323114549625e-01
-1.489043902945764164e-01
3.346018097255363810e-01
1.321188949181549555e-01
7.133335891692769992e-02
-4.680565084526118746e-01
1.078524113962519015e-01
-3.260932250703398871e-01
4.673210404300758292e-01
6.500086299581378513e-02
3.459639306719530100e-02
1.207149205424947608e-02
-6.256682371454691527e-01
1.357428120782815939e-01
4.052889864769501083e-01
6.310849069645517451e-02
1.839037280825132903e-02
1.118808136864204300e-01
4.019980435660797657e-01
-7.348518519803776128e-02
-5.775352673081226573e-01
5.252609645594282645e-02
-4.545920793214445199e-01
3.470601358042612467e-02
-8.775513966411092603e-01
-1.273866040212122686e-01
2.834985287679862576e-01
-7.150676445689604366e-01
-1.647479593586655411e-01
4.281908479280173430e-02
-2.406705380509399916e-01
5.292404242326675251e-02
1.508409422882555639e-01
-2.283966988942678564e-02
-2.214034282144948795e-01
4.458820703355469428e-01
4.528303841154451281e-01
-1.618045653356138258e-01
5.384683214446593924e-01
1.401228569480965913e-01
-3.323023407855899003e-01
-1.544155654862241489e-01
-9.604055624171380090e-02
5.373463652623520215e-01
2.843312822416515506e-01
1.588840780066886060e-01
2.058777530853625193e-01
4.594588067896423489e-01
5.142373022031532237e-01
-1.192288124876956790e-01
7.227805841465377856e-01
2.788684531268365019e-01
-1.596748572992298942e-01
-2.718445850227266952e-02
5.542736653807920494e-02
-1.022245678372526445e-01
-3.462182524515961535e-01
1.310923210136737405e-01
3.877257924396534938e-01
-4.011266528535780140e-01
-1.407402753106529736e-01
-6.330377833940981080e-01
8.188188516147069940e-02
2.318241818900137474e-01
-2.671310100996062697e-01
-3.311619857143215939e-01
1.745153490413439701e-01
-9.451466705970351656e-02
6.003678964690190717e-02
3.284563977987683403e-01
1.122958741452638465e-01
5.783831023429260032e-01
3.445671275796730604e-01
-5.023241596812301479e-02
1.659516909577051225e-01
1.739734919829461213e-01
-3.553570014535359367e-01
2.711895804033619961e-01
-2.508360602132252426e-01
3.601332370970944385e-01
-5.513004466098929690e-01
6.371219470210729430e-01
9.737368068601538473e-01
1.776419429281461682e-02
-9.560267654092288181e-01
1.477662257888407160e-01
6.465581926146609648e-01
-4.465458747764593506e-01
7.049345184691419020e-01
2.484780683858134331e-01
1.696578531522605765e-02
8.761115312479467176e-02
-2.523729902748132400e-02
-3.847443685795960688e-02
-4.295380968122419763e-01
-3.390188962748736379e-01
-1.103724901417885845e-01
4.990072955478488947e-01
-3.383307259722430071e-01
-4.164916005457675041e-02
-1.564289225713901277e-01
-8.499695000267694367e-02
-1.058352307904247558e-01
9.247016629118649800e-02
1.172207429309830157e-02
9.757813855175651030e-02
-3.022271084192361679e-01
3.790828313767162783e-01
-2.431025300466752859e-01
-1.444976310356746174e-01
