-3.270933714444709262e-01
-1.192891247975010061e-01
1.460618010047835813e-01
5.823897225828668089e-01
-1.632726811975650227e-01
5.837936708990285606e-01
-2.323113549690888902e-01
-3.977094965789381154e-01
1.327148268009379906e-01
-2.775781440330962746e-01
1.356732066659281366e-01
-4.072426831292796923e-01
2.429530603709371128e-01
-3.098930068682526073e-01
-3.179568933216209703e-01
-3.756069958842946366e-01
-2.321605881681217676e-01
-1.697374959226959912e-01
-2.593244661639902415e-01
-3.421427062002344033e-02
1.433827239408375642e-01
-3.111851796744632970e-01
-1.536626059434982317e-01
-4.774015253717519003e-01
9.924272594252879498e-02
1.279143981758433246e-01
-1.478402379502755382e-01
1.473587027108618774e-01
3.960671597716958203e-01
1.359513497000842952e-01
3.670401238580237382e-03
-2.469523868204516193e-01
-3.458519655387994884e-01
-2.626561175537170945e-01
4.916481273084420400e-01
-2.712588130762317098e-02
-1.797342160463011318e-01
3.869772002297366398e-01
3.603092855922399584e-01
1.993727262938989053e-01
-7.620442625032004536e-01
7.784742008412372238e-02
-9.055573495062740896e-02
-2.475735720585720695e-02
-2.972123252344605615e-01
2.349913839915101776e-01
-1.486570357426491296e-01
6.781703859629045761e-02
-4.270915048253128010e-02
-8.554269753358731410e-02
2.991619114415395853e-01
-2.460130969330467099e-01
-2.726373983757657271e-01
1.781351341594660243e-01
-5.712074341441935460e-02
6.772684417160533543e-02
1.115224583234174921e-01
-9.631737551311696233e-02
-5.136723453605562817e-01
-3.897295815471824576e-01
-8.670667611144336484e-02
-9.254694424221172888e-03
3.110993468071543422e-01
8.277433169885761721e-01
-4.012154273381686731e-01
-8.118030439138901322e-02
1.066988218855156323e-01
1.276875362434002348e-01
-6.168931884328165971e-01
2.373795213282682004e-01
-2.332746284305663997e-01
3.677340095153473071e-02
1.191154217784886754e-01
-8.368450962798267001e-02
1.709055245568360804e-01
-1.805637271498403695e-01
4.079903716267305192e-01
-8.827179166044195335e-02
7.782205091393386009e-01
3.563780660118277127e-02
1.777695785996770694e-01
-6.199732023904107325e-03
-1.591813047050201491e-01
-4.887830108832653120e-01
-5.497315507600343265e-01
4.435750862819652363e-01
2.110433432470501525e-01
-4.690306348679560422e-01
1.535454264818274239e-01
-2.318647874177693358e-01
-1.054761399212799933e-01
4.971545070982107128e-02
4.923460500911019389e-01
7.167241418952563503e-01
-3.482175594162522092e-01
7.267710321993963163e-01
6.928394659399088329e-02
-3.242287686919954059e-01
1.160314267792128817e-01
1.805725078238173409e-01
3.625441879391378963e-01
-4.252916004855757381e-01
2.960431513529212522e-01
-1.099493711722604461e-01
-4.552240042252531094e-01
-3.915664821802440909e-01
-2.168426918579733909e-01
-4.140267771051666656e-01
-2.380748273846411134e-01
2.745065322996651652e-02
1.457523157893513832e-01
7.243211577193467421e-02
-1.211138638446937477e-01
-9.176285035272874202e-03
1.206306842619568609e-01
3.528384880411238322e-01
-2.745927829815205667e-01
2.330076891898505698e-01
4.519822905688078429e-01
-3.023338313308474579e-01
-3.540002146433351982e-01
1.085449099907079828e-01
-5.788769985182658923e-02
4.278838514616031263e-01
-6.582526172546350196e-01
-1.734725967458384532e-01
-2.123757051270713098e-02
1.270768062446609725e-01
-5.559389820157903395e-02
2.317590929935180455e-01
1.044276550711436408e-01
1.134141649616705605e-01
9.978353547754748032e-02
8.414838647476477473e-02
-2.586637531596680528e-02
-7.960062524519856408e-02
-2.354086525064280622e-01
3.799022701189514462e-01
1.891383920316016265e-01
1.049910684647991643e-01
1.016287806170686897e-01
-7.578233292200575733e-02
-1.271917865281164128e-01
-2.468544975307519762e-02
3.559931913379024704e-01
6.533179179812922954e-02
-5.256068854128025380e-01
1.817930197316387775e-01
2.212351621321648754e-01
-6.356172971655316140e-02
1.077022922390128978e-01
-8.994038929408679217e-02
-3.692747093925777824e-01
-3.392012631142032331e-01
8.562094529934858311e-01
-2.352664050348231284e-01
1.378761420003782323e-02
1.339122017745026372e-01
1.560114127585928157e-01
6.319317633616542418e-01
-6.283867051397502845e-03
-1.258185611320585540e-01
1.114432598451058076e-02
1.722036469683491111e-01
3.320650073776243438e-01
1.310884916975528225e-01
-5.377613259505832632e-02
-5.429385206603478675e-01
-4.458306578015328592e-01
-1.852366643297715665e-01
2.587656749242158161e-01
-8.027660450770390810e-02
5.974733775327741858e-01
2.538752411839604317e-01
-2.398836962218018065e-01
2.263107651888681127e-01
2.563409763258058249e-01
-1.818516086357914174e-01
-3.109712983583335921e-01
-3.962486170366451566e-01
1.612184321454742109e-01
6.245203618180074356e-03
-1.363220248556981651e-01
1.316891461149239106e-01
-2.210287381516521932e-01
-1.594282492314222088e-01
-4.199100331044332557e-01
-5.077144928590200390e-01
3.210582682844143609e-01
1.194564279177042290e-02
4.370563935870216965e-01
-2.202792852072586738e-01
8.175852311315086052e-01
-2.376766740428510050e-01
1.063385555160236209e-02
-3.293719153654841580e-01
2.201807253973227796e-01
-7.165376707286724711e-02
-4.808901031090241918e-01
1.119401697890085728e-01
-3.792066435129080038e-01
6.908618604063779256e-02
-4.640345083437794615e-01
1.853539670465645939e-01
7.531269032113220574e-02
-3.211617378842385184e-01
-5.873710937581211322e-01
-5.084664864122809269e-02
8.162348572248451228e-02
2.892533020794793575e-01
1.616838796042847914e-02
-3.414290106621796217e-01
3.081495206403956355e-01
4.986464062895273885e-01
1.654037518231960269e-01
-4.271769217048606432e-02
-3.008987790632065007e-01
2.556700878333736382e-01
-1.803813107674780147e-01
-2.169433149439531361e-01
-1.040443424316603582e-01
-4.112968641447050100e-01
2.405879895926081313e-01
-2.617967752387599933e-01
-1.349661124285474467e-01
9.891604994153999075e-02
6.708591535413208073e-02
-4.310567116636305207e-01
-3.171191607616809932e-02
-5.312241784867569594e-01
-6.143643767835618164e-01
-1.787198259495931529e-01
5.312753473165682250e-01
3.448851952478176885e-01
3.728368599012330670e-02
-4.371053805852478935e-02
3.080915624890830096e-02
5.483841365308288890e-02
1.340953777063531305e-01
2.398978175832501281e-01
-3.347987878578759235e-01
3.352894054554937942e-01
-8.528556755031557746e-02
-4.240243281754695059e-02
5.117674521146831079e-01
-3.344417865499539622e-02
3.164019570917115387e-01
9.657560190151626145e-02
1.713417299591919046e-02
-1.363432509408714077e-01
-6.271539411943696241e-01
-1.497157087708209378e-01
2.442122124449066720e-02
4.060264815749791145e-01
1.668829995593411053e-01
3.364844552302623804e-01
7.110241014282523420e-01
1.800548637818292774e-01
3.460005514624393541e-01
-1.337899797947297853e-02
-6.269103395810441404e-01
-2.850897174522278310e-01
-2.075286303976249247e-01
-2.543839112018858040e-01
-1.031812642500665594e-01
