-7.063014411777068791e-02
-1.230325612496450255e-01
2.390602053238753966e-01
8.964226529196864246e-02
-3.302367043288286785e-01
-1.680865229849387299e-01
-4.790889616475820234e-01
-4.577930407269047430e-01
3.655190975763567690e-02
4.396424099793726503e-01
2.729008443779515347e-01
6.808388402838403408e-01
6.754124222360408103e-02
2.596801775487208586e-01
-3.273747154146028904e-01
-3.035169117226299562e-01
3.982847277428879229e-01
3.652471596135252740e-01
8.964594944007575616e-02
3.040645143093274605e-01
6.973255816353124414e-01
-7.557129352823720170e-02
-6.134039304222266287e-02
3.308687500366492285e-01
-4.790547528508645736e-01
-4.442829959502181403e-03
1.165362900678214853e-01
3.836298276144963215e-01
5.556181922691559860e-01
1.744576872269867351e-01
2.445645440572122020e-01
8.876066367229313095e-03
3.773063125331205941e-02
-1.226447140267573760e-01
-3.424553945262068799e-01
4.221051700851958383e-02
-1.029660585406272227e-01
-6.054335245650743769e-03
1.000000000000000000e+00
-6.811437976730532196e-01
3.884444227076063738e-01
7.716853474214198372e-03
-2.608137388419350944e-01
-2.514589129652435862e-01
-2.993132116039867174e-01
-3.252834919336311525e-01
-7.121325464087197021e-01
4.651651548510119527e-01
-3.078226444967433473e-01
3.511243663552185423e-01
-7.901149375795792074e-02
-3.429120409363493605e-01
2.522558471332278507e-01
-3.252582405284446671e-02
4.132304554823111875e-01
-7.922376798791173902e-02
-2.343016159421257572e-01
-2.421820772098901564e-01
2.394607596363834690e-01
-2.209912251826814666e-01
-3.106128634306029035e-01
1.000000000000000000e+00
-8.137863338014458825e-02
-2.814383319746022183e-01
-6.533180719342779330e-01
-3.030302379430669935e-01
5.048220029212636684e-01
3.241253212611870382e-01
6.203113367531171846e-03
-4.170436845846118429e-02
-2.456145766051243129e-03
4.106987185825293485e-02
1.896562763466803636e-01
6.816760002803673446e-02
8.249030972436111747e-03
1.209536906836351441e-02
-1.157189359699609260e-01
3.723857277881905126e-01
-3.797985397505238697e-02
-5.366413070863893520e-01
5.745023907087127846e-01
4.846538700293554491e-01
1.584605138848587669e-01
-2.011869439527935732e-01
6.355882726581136843e-01
4.769731830622336161e-02
-1.127489026801862214e-02
-7.701586354093434283e-02
-4.990917180409393250e-03
-2.108885648841279659e-01
-8.175712047816705019e-02
-5.915693548371627614e-02
-3.623313181356561663e-01
1.042750086731986936e-01
-2.516052743278026083e-01
-3.469084996802523913e-01
1.489068151636129857e-02
4.199085611807155255e-02
5.483068916561366357e-02
5.375087786803578460e-01
2.141922842820036255e-01
-2.437268343041726626e-01
2.927569953113077217e-01
-1.671825963236383272e-01
3.476402756367385494e-01
-3.075421600631139118e-01
-4.447930793847089115e-01
4.857548739449744912e-02
7.794264468190223449e-02
-4.410865037189929533e-02
-9.099540699228703122e-01
1.373887736246896252e-01
-3.939390426827928948e-01
-6.674777933951671436e-04
3.124319407803590187e-01
-3.463787898378865582e-01
6.690887109407182010e-01
-2.589848615874343341e-01
4.481663682727293069e-02
-4.660712944449721395e-01
-4.489896487481693371e-02
-7.826415269471300729e-01
1.291758194371290247e-01
-4.662412072428351317e-02
-3.852701414340627961e-01
-2.245778444917339578e-01
-3.480785530102579184e-01
-2.318640628483250449e-02
-8.592693585660747535e-02
2.280119317598890971e-01
4.918548878542391978e-01
3.402280053569656237e-01
7.229101942987030405e-02
-1.179624853837198534e-01
3.168085552858221909e-01
-9.693551405753675354e-03
-1.104242413009640378e-01
4.147046131562466265e-01
-2.635351784721818302e-01
2.773190073974043379e-01
1.064341029495216862e-01
-1.441592212804514717e-01
-1.823654807830032420e-01
-1.119067602206360590e-01
-6.816130859080937743e-02
-2.183552247531001800e-01
-2.199577364194507112e-01
5.086839929310932318e-01
-6.018811772375604052e-01
9.658793312831225053e-02
-6.531655775176856138e-02
-3.706435270764248807e-02
-3.602311677572905824e-01
2.153009003566467294e-01
-2.280858190921582762e-01
7.483121099223209727e-02
-2.664134327167997918e-01
-2.941699018038856361e-01
-1.827698914720836121e-01
3.393289316816972545e-01
8.952883713722270542e-02
3.358075511040474748e-01
2.006973905287221249e-01
1.150004213272687731e-01
1.711653159314068251e-01
2.127797661556293796e-01
4.201668735885770167e-01
5.747205598865047227e-01
1.218194596875181446e-01
2.875495901604954718e-01
-1.736626286855455503e-01
2.527347215208934905e-01
-1.062568443304082316e-01
3.950271787938243184e-01
-1.271783984499269549e-01
2.546575732941204206e-01
-4.340240750743130649e-01
-3.967092000599339169e-02
2.932204486584395475e-01
2.029293125336841808e-01
3.554657999903277354e-01
1.634988482996976595e-03
2.195593143898255939e-01
2.600689913278511067e-01
1.478549415382534038e-01
-1.621422057243240844e-01
3.816406818698332981e-01
-4.817597382461353273e-01
-2.852644706634285265e-01
4.462502473696933758e-01
1.829508093242896982e-01
-4.584867985223304854e-01
1.303513774386582669e-01
5.217018155898529158e-02
-1.275742375909824922e-01
2.195357926280035454e-01
-2.942573306280929502e-02
1.186000591670983983e-01
4.759019404918779506e-01
7.457248528438485957e-01
-1.823261768993261756e-01
-9.383369180769492168e-02
3.746715453201473478e-01
-2.591736533665496556e-02
-1.823212884598296168e-01
-2.631878792337122644e-02
4.077410427373917567e-01
6.066344354010960727e-01
-3.872183971195118646e-02
1.350550442445845045e-01
7.157399174903865402e-02
-1.957230796840349341e-02
-8.345741368169912189e-02
2.607582596555301779e-01
1.492231495205734726e-01
1.339091582535619773e-01
2.240216434295647652e-01
3.487854351268274145e-02
1.746554867328422578e-01
-5.498054639386158737e-02
-4.896406900199610779e-01
3.038205676316898529e-01
-2.037806778973675070e-01
5.301409943867493313e-01
-1.479185964609667225e-01
1.443637659817273433e-01
-1.392850878637580392e-01
1.832009408264875100e-02
3.473863429010011217e-01
-5.214141590025868078e-01
-1.739534294038471152e-01
-6.896580155361556330e-02
4.244641523295520913e-01
5.851275597722339905e-02
-1.197105269502439645e-01
1.988293696602643768e-01
-9.682216009015180702e-02
-1.886513379174894478e-01
3.576495390277530384e-01
5.425118868519448467e-01
-6.913755004036364893e-01
1.239459800655676180e-02
-1.937734211990178590e-01
-1.733037333737122987e-01
-4.250455116036294667e-01
-4.460029585699847032e-02
-1.283432823619729268e-01
-6.483127067876603977e-02
6.542485706086804964e-02
-6.191275340231924273e-01
-6.430045890257533037e-01
2.153660897741780378e-01
-5.586008473217914938e-01
-6.749541499350709961e-02
-1.832896442753319255e-01
-2.632740364113040910e-01
7.785517683932378918e-02
-1.356244350971138324e-01
-2.578792269733726217e-01
2.135060809318235220e-01
1.918161003726491509e-01
3.954328128728637134e-03
1.776670897298336313e-02
-3.654643218174445651e-02
-2.697636126332050160e-02
