-2.417943367102730612e-01
4.766814417144818461e-01
6.562258081189520365e-01
4.340003200884438028e-01
5.488290514200869774e-01
-5.510126354076510385e-02
3.574987335496019325e-01
2.862082534666354761e-01
1.342041814324433091e-01
3.698677686568148659e-01
-4.124028593982845825e-01
5.465668488368797401e-02
-1.077532891108188423e-01
2.181550888995488768e-01
-7.496956261136819566e-02
2.369216705066143069e-01
2.330378458043158851e-01
3.992871114739631189e-01
-2.763789623168168563e-01
7.064111096642058385e-01
-1.224223829343003417e-01
-2.437779142668151378e-01
-1.377623757918318426e-01
2.882157001772342464e-01
-1.470573826196792944e-01
-9.823238426811724544e-01
-9.399330314683668197e-02
-2.546203073266591760e-02
1.757814912570174193e-01
-1.761493879648920180e-01
4.548485498079566924e-01
3.301200262238163652e-01
4.928331074577708693e-01
-6.980693548523250747e-02
-4.812409863466409199e-01
-1.683351376128867372e-01
4.180828111360949950e-02
1.344862449052404152e-01
4.093178536900496378e-02
-4.428198701290132766e-02
1.355219383258023796e-02
-1.793562867444151998e-01
1.269274963463828954e-02
-1.159918804124664415e-01
1.898472011450490493e-01
1.048760075172931183e-01
2.006942425768406535e-01
-2.005613037647599739e-01
-2.329334951621740979e-01
-6.323835540737040573e-01
2.095057959220862909e-01
-3.192049376346260958e-01
-3.002777649948069061e-01
-4.363742675824366368e-01
1.114857724157127666e-01
5.602591886154328904e-02
-2.166589878163854010e-01
2.319420068019339698e-01
-3.370339481932053266e-03
1.514557467327924400e-01
6.275387695800074828e-02
1.208272963557685958e-01
-4.855388205960093351e-01
6.969194883489963077e-01
2.025698550209421508e-02
1.178892296946675439e-01
3.974711158930462895e-01
5.864643401762847930e-01
-5.828956069491576519e-01
4.111498191457901852e-01
-2.337119535567964423e-01
2.860430706407265378e-01
4.823186283271085339e-01
4.137758532602172079e-01
6.288845525579709328e-01
2.042481988083044153e-01
-3.705566597795126316e-01
7.154594744334893952e-02
8.747121024762247732e-01
-1.375957307840311450e-01
-4.226470834811943966e-01
-4.455954214847145378e-01
-2.241994671774606152e-01
6.850310307412575683e-02
-9.369121624665267822e-02
-2.912595194757490735e-01
7.415108336812992196e-02
1.349095603144918054e-01
-1.576519195424903041e-01
4.715316465594674433e-01
-7.263475093852566067e-01
4.557477213737959332e-01
-3.574257995888490691e-01
-1.653707640042311189e-01
-2.025013015262458749e-01
-1.053344462624594413e-01
6.140366742454274329e-02
-4.909587527197247225e-01
2.563202206728852350e-01
-7.236727171476693699e-02
-4.774207862242427214e-02
3.463781735321447980e-02
4.874752001636217802e-02
1.446182726648336248e-01
6.689668255501565186e-01
1.502924722084307829e-01
1.276296940663973825e-02
-1.527204571043869197e-01
-8.714734373854136906e-02
-2.819115037488884035e-01
-4.462814425891996617e-01
-2.417918476330561950e-01
-1.072925264232113401e-01
1.128118160320303598e-01
-5.826354845643313407e-01
-8.326934220630063388e-01
-2.299849492418781227e-01
2.624365058647900040e-01
-3.631140765106206647e-01
-7.104921661739982408e-02
-3.756616653720480370e-01
-1.605623858440195229e-01
1.560998420498681538e-01
6.918173789878770408e-02
-3.611059171281604807e-01
-7.723415701343316897e-02
-4.261899755479359175e-02
2.883526072054651834e-01
-9.741015291152008704e-01
-6.515896082466227091e-01
-4.320595659788012965e-01
8.545313576548043688e-01
5.043905036162716904e-01
1.933470571298959717e-01
1.671274575614963565e-01
2.817748868575399857e-01
2.183248483252589189e-01
-4.627139832329899560e-01
-1.341417078329388002e-01
6.152429162888245484e-02
-5.312126372614982550e-01
5.555876538971672718e-02
-1.358245554762406715e-01
1.681699072329516653e-01
3.250927860876776099e-01
-2.203201042888755512e-02
4.356996810498393047e-01
-3.594300568579478772e-01
-5.399397145837672718e-02
3.568837110304035054e-01
-4.268246092978155715e-01
2.129479561922703046e-01
-5.772097115186008986e-01
2.569588199496399272e-01
-7.753488275364736060e-01
2.387192163440590154e-01
-5.847693856844364546e-02
5.436864972609424251e-01
-4.922043268671433269e-01
-4.017604203656425232e-01
3.076686108643526540e-01
1.180255012547982291e-02
-4.386535290784426278e-01
-1.430802352912097231e-03
-5.852224417818724378e-02
2.110023401942215659e-01
4.541296820261489509e-02
-4.010724846801644317e-01
-7.146026184019059480e-02
-1.457703601744268496e-01
-1.369790131665493856e-02
-1.141754431661679559e-01
-1.270938282959483967e-01
1.709360254934259582e-01
6.903574319056512976e-03
7.953715179655277412e-01
-2.782179105140401010e-01
-1.603475024027467555e-03
-4.987292697142581832e-01
-2.333485897058159564e-01
-2.326795270350025535e-01
-4.537911921219495159e-03
-7.506454337801451993e-02
3.938428322495650669e-01
-3.920702280135880957e-01
3.499051902470902697e-01
1.362293941872717573e-01
-4.156255943422053067e-01
-5.410119025066256748e-01
-3.271381510125233316e-02
-1.730783100570588151e-01
-3.893342223445498407e-01
4.851231349763186762e-02
3.869800720522648119e-02
-1.596629324173798603e-01
1.858314629241729354e-01
2.181928041134597596e-01
-4.228967974913978856e-02
-8.764644282223454930e-02
-7.559395791177457580e-02
-5.702090488145332703e-01
4.394746322975827402e-02
1.614704260563945004e-01
2.759155501627569285e-01
2.785920565779889113e-01
-6.681089102789689038e-01
-3.002587469328247272e-01
7.887264110016665997e-02
3.343997693543432348e-01
1.724107472359994175e-01
6.264130794668117119e-02
-3.410719390032944665e-01
-1.592733185223005887e-01
5.635040078248265694e-01
3.656030256292755465e-01
-3.742110529979004174e-01
1.590869622552376628e-01
-2.252383785447594766e-01
3.440156644737915603e-01
8.088949353007890419e-01
-1.123041341880196865e-02
6.563728726400677727e-02
-6.669652446522985612e-01
1.602989869645888299e-01
-3.544322721424454925e-01
2.403882176164031104e-01
-5.413104759961364643e-01
3.449503991398191194e-01
7.898307497945276923e-02
-2.273993531376261312e-01
-5.165112660110859899e-01
1.220642952066172127e-01
1.736277716794147330e-01
-1.328997148608954404e-01
4.345264081073651474e-01
-5.091924410478352453e-02
4.662336605959288005e-01
-2.647294989550832978e-02
-3.613157697300012905e-01
1.059391951881459570e-02
-4.452837188361860599e-01
-2.930915056765648341e-01
2.423771881376604043e-01
2.813519622630465955e-01
8.089966204616627632e-02
-8.645014146994647875e-02
-6.852067385079783080e-01
6.113771532722704627e-02
-1.650415362217244053e-01
4.653688419508617002e-02
1.334023384766371001e-01
-2.098007990465551309e-01
3.508053926220812847e-03
-2.189611457508045533e-01
-2.770625867968899425e-01
-4.667053163863623677e-01
-2.538818480673034339e-02
1.511133055344834053e-01
-4.034763373207249093e-01
-3.258579658998814743e-01
1.561192350818224051e-01
-1.475934709568789693e-01
4.190579423987980112e-01
-4.177580700311691597e-01
6.954590151878372595e-01
