-5.206211531466056197e-01
-7.274743784061556973e-01
-3.445191095367280965e-01
-9.382074053008532255e-02
1.083561576412301330e-01
2.277232390936443918e-01
-7.118672131467608521e-02
9.158637833737878764e-02
-4.148547968862580926e-01
-1.565324294828970564e-01
-4.749554799215929823e-01
2.528205699385073779e-01
1.468443026425501896e-02
1.350045328567266723e-01
-1.686754516062326514e-01
-2.473897528018573211e-01
-2.068805675322507309e-01
2.315234220241460528e-01
-4.979853203034218523e-01
1.396413997290090747e-01
7.105770588624310546e-02
-2.406360441812135098e-01
9.103732496475397395e-02
8.538673903705651380e-02
-4.185877257451398048e-01
-2.658984389151292094e-01
-2.448034132713693689e-01
-1.776369430431774810e-01
-3.306603665506415574e-02
7.544735618722790971e-01
-4.579711563014667031e-02
1.675324505029022748e-01
-4.920455436627360069e-01
3.131335761859398437e-01
1.226277986292422240e-01
2.202224570308236248e-02
-3.027198780877413467e-02
3.543131685724578706e-01
4.230552254798113920e-01
-8.181236291192583998e-02
-7.874262363819847232e-01
1.380103898900148507e-01
3.002068623321445338e-03
-3.335401865438663016e-01
7.481854485347204375e-02
6.999591764765439317e-02
3.032355624423466178e-01
1.322041163127817553e-01
2.058834293723699194e-02
3.571258623241405777e-02
-7.553687625461702471e-01
2.885669146912466232e-01
-9.602863700438282746e-02
1.748174187936877566e-01
-1.356205118626453987e-01
1.426410373127827980e-01
3.293714875908670264e-02
-2.169182450092972669e-01
-2.977769469260328483e-01
-3.305523575573555140e-01
8.227908815420958977e-02
-2.069118632683413783e-01
1.819839752810328559e-01
8.266481904812859050e-01
1.008074810002436011e-01
6.663886740722304580e-01
1.873733695255617171e-01
3.279369063109355970e-02
-4.384909117136557843e-01
-5.710675526846623051e-02
-2.595543430096039494e-01
5.455122866185940778e-02
1.200649854827206958e-01
-1.169503159498210543e-01
1.311696694192752144e-01
-2.153732548133378000e-01
3.279701262743672796e-01
-1.663952523281153062e-01
5.750810380986803860e-01
-2.935686468819631231e-02
-2.535261712403483747e-01
1.374396028167540751e-01
-9.264771562094219204e-02
4.147892907722933731e-01
-3.109544523518034675e-01
2.017119668890911821e-01
2.317172639495982678e-01
-1.948882077411507041e-01
-3.612608580498436472e-01
1.716040707148562550e-01
-1.498337945502204067e-02
-1.249269944673685184e-01
-3.028042910316084413e-01
2.957423170113558375e-01
2.373177253481653926e-01
7.637722956838087773e-01
-5.444074656612812174e-02
1.319266614724786402e-01
2.034336187573413390e-01
-3.553477959669154029e-01
3.694673950567160525e-01
2.617958753504011638e-01
2.630987350733306473e-01
-3.301491448819002944e-02
2.048163937024832792e-02
1.855215640706963931e-01
2.837052019530118541e-01
2.424880986316815812e-02
4.481436067482374302e-02
-2.397256673938058802e-01
3.428279373979067901e-01
8.472625648504010787e-01
-3.612350135250936844e-01
2.505394354502934462e-01
-1.203338022066715862e-01
1.515201655169411410e-01
-3.019286440495841384e-01
-8.615655694054522029e-02
6.587638839495504328e-01
-4.816734416804883956e-02
-3.531884932157081103e-01
-2.458135393794608214e-02
-2.394401525457205693e-01
-1.361450062337783151e-01
-3.526839440826513850e-02
2.362117805675835458e-03
-3.367805705730203547e-01
-1.015887006942209903e-01
1.243487751609508862e-01
-1.485236652592127893e-01
-2.892225970602890772e-02
1.614089182587839788e-01
3.955817218873536878e-01
-6.428505845903831339e-01
-1.746482017392688157e-01
-2.526143863328512151e-01
-1.198078874444801212e-01
1.984413968834983222e-01
-3.169880382220473941e-02
1.666850243017805600e-01
2.549913295191236218e-01
1.413868108374254640e-01
1.276147101117345861e-01
3.407961120040021163e-01
-1.922560416959568641e-01
3.791140444995897973e-01
2.826195537127094148e-01
-4.889352219438328762e-01
3.106454227665808032e-01
3.575620422077549487e-02
-5.169582125450858934e-01
1.013879581101971399e-02
-2.613191086590399004e-01
2.696976724982695639e-03
4.174609760389930146e-02
-2.685703769154171305e-01
-3.237901863997925123e-01
-1.062202660670702736e-01
-5.774850186878034697e-02
-2.591628931652661949e-01
6.134918803902267292e-01
-1.940838856623673947e-01
1.555172327768888085e-01
-2.861992334658547965e-01
5.536056787981069593e-01
2.036534467461662001e-01
1.001617438354049927e-01
-1.650186620279996408e-01
1.494848300645344741e-01
1.626929421804958198e-01
-2.858762998985082127e-01
-9.454811225433790156e-02
2.666188906821168048e-01
2.081507110320506282e-01
4.769705907654896437e-01
8.552320516772579650e-02
-2.335326830102306961e-01
-2.190652604524020164e-01
-3.167254341122358596e-01
1.344583693393322510e-01
-4.734771267255910576e-02
3.371830518631230844e-01
-1.858086764023588189e-01
1.032342096686213878e-01
-1.644522695514799016e-01
-3.600193973022814409e-01
-1.861209944813470574e-01
9.225321481546472357e-02
3.273106259232031606e-02
1.791961840003674644e-01
1.474485267210128292e-01
-5.213551019262659958e-01
8.921012723801375888e-01
1.924876598348130297e-01
7.924381021167156702e-02
-7.891087978956876081e-02
3.682084764154588408e-01
-1.826815563550740762e-01
3.038287578394021082e-01
2.218574038884376931e-01
4.437178158728057563e-03
1.438101131806928112e-01
1.531050143787965889e-01
-3.513068408627099959e-02
9.027835977478462781e-02
-2.701078765196911480e-01
2.135906082428059849e-01
1.120360176990164713e-01
2.490199267234715075e-01
-1.973049598139647864e-02
2.581827663375136916e-01
4.241234678303911765e-01
-5.099172410501617847e-01
1.567957193214705724e-01
1.290247098660788072e-01
-3.610703101815203042e-01
-4.573279716367711911e-02
3.164355207257381342e-02
2.701940116839098016e-02
-1.664974814760874222e-01
-3.097038308621980623e-02
-9.776645444184535461e-02
-4.570257737059195136e-01
-2.084018072700039859e-01
2.209025964049556034e-02
3.433757829942024054e-01
6.502098416320310770e-02
-4.779162405401987668e-01
8.594419402713721068e-02
-5.708361590307637901e-01
1.200436051271521615e-01
2.961759064725730806e-01
5.732260939829485480e-01
4.917594996898776438e-01
-2.987001454240159060e-01
-7.769249940863818052e-03
-2.460245097067879222e-02
-1.387319276817200187e-01
1.261104736385967873e-01
2.826602097358864585e-01
-3.023509720801512146e-01
3.488905538883687041e-01
2.188105125226920411e-01
8.135478918438046048e-01
6.199236198883116833e-01
-8.799356297220842227e-02
8.331819077327926037e-02
2.951761622815462366e-02
2.150718176434975870e-01
5.416116979170508827e-01
-2.940637001020716262e-02
-1.956912967920711177e-01
4.993795596124183528e-02
6.407146389731697145e-01
2.578813513499574883e-01
-3.199208307735860735e-01
-2.496121899448283110e-01
3.457493840009839836e-02
4.102260464921930749e-01
-1.857384587279538313e-02
-2.947916801505586215e-01
2.532887988921925793e-01
-8.941834585813573932e-01
-1.445152420879619870e-01
-1.304925168061401575e-01
