-2.259524937301031766e-01
-4.179180950285890650e-01
1.605724853207172176e-01
-6.207751547383441038e-01
-2.818671340526829883e-01
1.000000000000000000e+00
9.218128956546976782e-02
-1.061264329453255884e-01
-2.739973606719973698e-01
-2.631251629764438764e-03
-8.495569502705414833e-02
4.344778551249325882e-02
2.069748813555555012e-01
2.377502454911951113e-01
1.946430438887339631e-01
-6.534460148246350186e-02
4.593585655406037804e-01
-2.895918449891403401e-02
-3.446835418449634147e-01
1.487258460693662299e-01
-3.971945397393500388e-01
-1.618168867535410560e-01
4.655824511334692717e-02
-6.007994439249267904e-01
2.671420324648100530e-01
-1.680091211155582964e-01
1.148515178572224321e-01
6.992236560810852208e-02
-4.183582815994369430e-01
2.550839750252065219e-02
3.529401833521870202e-01
-4.479325775231907669e-01
4.132709838113772238e-01
-8.879999407865143968e-02
1.170681319367563311e-01
1.471801704618009854e-01
-3.516823485195377241e-01
5.382879745533992732e-01
3.619756791465318646e-02
-5.861908541693497954e-01
-1.075849346732705297e-01
-1.529185422166034203e-01
-6.061648057201416556e-02
-1.519553724433526931e-01
-1.581551584204791694e-01
-2.034513002907828161e-01
-3.293671790416426437e-01
2.034039751389250528e-01
-2.551808674517550557e-01
2.784928067644740768e-01
1.899668256846983039e-01
1.610438197494546142e-01
5.028529754354566644e-02
3.135312107814909321e-01
-4.367728108167862056e-01
7.761207567825004205e-02
-3.294278044577513692e-02
1.699698768574230412e-01
-6.213266758680684454e-01
1.023427814590665702e-01
1.415584874241569147e-01
-1.691893422447530992e-02
8.899547607609809008e-02
8.232010701366423433e-01
4.513463736010609462e-01
-3.087149887941519413e-02
-1.811041293563973587e-01
1.309401206240428106e-01
1.460979255988191228e-01
-2.349196556007939196e-01
-3.410243241151869054e-01
2.317525670651146563e-01
5.177896335370518743e-01
1.886423407317680892e-02
-5.296655761401801721e-01
-3.194247406670041034e-01
6.504666099065380402e-01
-5.715026861815150627e-02
-5.326425858383312395e-01
1.777159320701753309e-01
2.093625921414447866e-01
-5.261478986973837646e-01
3.403211559193111135e-01
-6.548660767510335878e-01
1.783119117021416400e-01
7.689922127281621778e-02
-5.732014576307724318e-02
2.140691208524242439e-01
-3.002414550712044772e-01
2.261285419721256462e-01
-1.058301736018752437e-01
-2.294041203796810813e-01
-1.224262820941127289e-01
3.918230513264522319e-01
6.582811659943832439e-02
5.578005291546147548e-01
-2.791874745066066921e-01
-4.202422649631750162e-01
-2.430186011711949201e-01
3.668392952850826338e-01
2.352870593450856196e-01
-2.040605437847156645e-01
-1.960283925601357113e-01
-4.600818186498387141e-01
4.210298431110426898e-01
4.063428743788879971e-01
6.570419965716088884e-01
-2.430560718388932728e-01
-1.610780076898674917e-01
4.082764822643936836e-02
3.097180548706675585e-01
2.472359088124998217e-01
2.874349742691856835e-01
-2.400948601080014344e-01
-1.794546455828960052e-01
-4.782545381838441689e-01
-2.381620802516631885e-02
-3.716267501706359278e-02
-2.601743075196274319e-02
-1.254610557721280995e-01
-4.672363682333095791e-02
-3.161571978027963303e-01
-1.908679483437385194e-01
-1.613477562770504192e-01
-3.322238889113968696e-01
-1.017002602191036942e-01
-7.150615807376647926e-01
-1.330264963852715310e-01
-1.156720795776459837e-01
-3.734802940170287022e-01
-7.064298433442468828e-02
-2.575499782016933345e-02
3.428135935748752305e-02
-7.795976737172638504e-02
3.490058509340290133e-02
1.236531104443398255e-01
-2.286462809626342851e-01
4.561642006983345765e-01
-6.543901254591041328e-01
1.965477011587905831e-01
-1.027901465464727271e-01
-2.281464168064809839e-01
2.036810679809025471e-01
3.589656810911978635e-02
5.825918381213402997e-01
-3.531619379858947361e-01
4.498783919025106104e-01
2.850067571442846948e-01
-2.259772475567282668e-01
1.941460976406324257e-01
2.825225431284316691e-01
-1.155308723287672978e-01
3.494015004732695107e-02
-3.738884792395889556e-01
2.030557494416646847e-01
-3.497398450354535226e-01
-5.475378937496346854e-01
-3.622110176780721225e-01
2.619084117194894201e-01
1.663549927835563172e-02
9.305748397912991243e-02
-3.038262564059728693e-02
1.904925208471037468e-01
5.218945790102282045e-02
4.418458071120973663e-01
1.186452186872362369e-01
-4.835404330074527524e-02
3.411503758734117653e-02
1.409355501944395961e-01
3.550780094917279639e-01
2.013788820955454695e-01
-2.208331621415335899e-01
4.081982592524978637e-01
2.035369684652788280e-01
-2.729165917155325638e-01
3.269591601887755217e-01
-8.592695178144704737e-02
-3.299825258208256007e-01
-2.719539439239144762e-01
-1.700615625259080388e-01
6.978749873823739125e-02
2.223991565297405160e-01
-4.786319078984817010e-01
2.863999567489401432e-01
-1.707121540830644491e-01
1.026544981875320839e-01
3.316673261365220005e-01
-5.515032282170621025e-01
1.384212658450284517e-01
7.575080636509512466e-02
3.623052503078248998e-01
1.584131889343090016e-01
-3.491088153294081842e-01
-1.501001678778253190e-01
4.783668989557784967e-02
5.731260344421591491e-01
-1.057057944631058233e-01
-1.546025929723386094e-01
-5.408107573330267481e-01
3.689011548855539724e-01
4.812771019705117115e-01
3.492391698759179652e-01
3.586039007667500833e-01
3.476566651139893077e-02
2.308979119336954655e-01
-5.832986676305579321e-02
-1.108875902332112917e-01
-2.911351266150962180e-01
-6.171717756629324647e-01
-8.370821354333761455e-02
-3.308157125330846160e-01
-5.754701249081818348e-01
-1.922783207390489912e-01
-3.812656575361307865e-01
3.453338882717897906e-01
-5.763586734466531747e-02
-7.708411215287762630e-01
3.174347146409517428e-03
1.740279651817400186e-01
-8.010069463291484559e-02
2.722176577591307045e-01
-3.971828218329059856e-01
5.558522247664035576e-02
9.632389660353245231e-02
5.013624050607499161e-01
-7.228284148514992069e-02
-9.291405198368273000e-02
-2.903519649492671273e-01
2.060906909350048166e-01
-1.196357629984097504e-01
-3.778240368709290253e-01
-1.434174578988323123e-01
-2.153140731509520511e-01
7.414350855628665249e-02
-1.579511625692145427e-01
-3.683093653770273118e-02
-1.581157157125723800e-01
1.599658238443898428e-01
-3.332465887229704160e-01
-2.862744392657366466e-01
-9.180678547885820495e-02
-6.480776281486122503e-02
4.753588318649576427e-01
1.940243555662160835e-01
5.251680908349063426e-01
-2.940901982136913118e-01
2.573492738024060200e-01
6.888351103301907363e-01
-1.919136610060615533e-01
7.762201585951542526e-01
-2.516010390225649207e-01
-3.215849313378325580e-01
3.322531918099158599e-01
5.130630995147078544e-01
-3.438779067741067341e-01
-1.646230519329237585e-01
-7.013278867443192288e-01
2.628147497982235015e-01
4.132586027574005061e-01
6.651219271364092744e-01
-5.557721720917447872e-01
2.485639322764675585e-01
-6.230175640419821637e-01
2.723796219941758134e-01
-4.757376718969033025e-01
