3.767399585639923804e-02
-1.143204411556229642e-02
1.857533540365339242e-01
-6.576273696068899444e-01
-2.681658593161564408e-01
1.000000000000000000e+00
1.981229084721815581e-01
3.431062821884182153e-03
-2.402128912858556564e-01
-2.905516289726700063e-01
3.108510990258465112e-01
1.088845982276843982e-01
1.680930299409309769e-01
1.175364660341379763e-02
2.772441390958889640e-01
-1.166120859917318953e-01
4.851351658834505698e-01
1.646464358380061305e-02
-4.123972661140989371e-01
-2.507198339723512026e-01
-3.247992773817825474e-01
-2.375382101751286612e-01
-1.294161819191465279e-01
-5.781051964564429824e-01
-7.034323592159713590e-02
-2.213533574441270135e-01
-1.117209248853975184e-01
2.240270404341752342e-01
-5.787337662698537333e-01
2.254731676721737077e-02
2.765595618129608746e-01
2.535397871748426013e-01
3.691198129088768543e-02
-1.311629670693445771e-01
-3.906589333374149015e-02
1.560165869657493820e-01
-4.124396803802657940e-01
2.557984410312479917e-01
-1.282476999883589985e-01
-5.120920101914112899e-02
-9.850197762647097677e-02
2.398487105969180078e-01
1.663535545262230519e-02
7.342632463753590022e-01
-1.701247010945985960e-01
-3.084018307522675695e-01
1.078939739017971688e-01
1.813300468071673832e-01
-2.237311651711344218e-01
3.354206742118296392e-01
1.831135142521178039e-01
7.360096844444677378e-02
-4.345860119053245041e-02
2.403889519511443196e-01
5.328107987406899282e-01
-8.338377806737529152e-02
2.958876870195687250e-02
8.293669906907498446e-02
3.324053063544663011e-01
6.282023871629829892e-02
2.134649603414361385e-01
6.173757163108334334e-03
-2.646469910804122305e-01
8.234959639903629558e-01
3.676594204375829844e-01
-4.674037696078642973e-02
-3.373826712936722066e-02
3.871912022327431147e-02
1.044254650155001657e-01
-3.531040244842144626e-01
-2.390178646216644665e-01
2.372249908108060579e-01
5.892863784104562797e-01
-2.735271975490475849e-01
1.906509998111986792e-02
-3.048919286701829434e-01
-1.351981644991560039e-01
1.700557246387986443e-01
-5.552601200517260915e-01
2.328716701813956513e-01
1.654088263320933339e-01
-2.218978759106151610e-01
-2.476732776392600588e-01
-7.198774606155564637e-01
-4.123840825411048128e-01
-2.899662075076238701e-02
-1.594892683075827544e-01
2.195672410264154495e-01
-4.052302396997317091e-01
2.240351595591589529e-01
-4.438327640562013676e-01
-9.757554344528922285e-02
-4.948673057965140981e-02
6.020148378514664778e-01
2.380581831187833508e-01
-3.706680388003590898e-01
-2.681185776857623049e-01
-4.400191986704039548e-01
-2.626176667013643273e-01
4.297955100003868489e-01
3.846615002650271009e-01
-4.865107451874611799e-01
-3.096691480728622214e-01
-4.459917498714441320e-01
4.353807368558775259e-01
5.568230204489137414e-01
6.063049443622351431e-01
-3.981161929972710789e-01
-4.469966162808219901e-01
6.970582966522517743e-02
2.194416767268140417e-02
2.278444020308587892e-01
4.679909034705119764e-01
-2.699826115707506524e-01
2.579930706081503544e-01
-3.390132482510512246e-01
-6.179044894455564679e-02
-3.058947313888300476e-02
6.553399084305195910e-01
-1.090605188708087259e-01
-2.381464999253057185e-02
-3.412895200551341324e-01
-1.585637041132476610e-01
-1.582257104011297322e-01
-2.267198186500230250e-01
-4.784235566796566502e-02
-7.336431049348924871e-01
1.893079528367436204e-01
-1.045430964227909432e-01
-2.457213066033806792e-01
1.582379373453182692e-02
-2.954016635700848839e-02
8.927807565548391555e-02
-1.140314631713562343e-01
6.689662497676326369e-01
1.803745386994998479e-01
1.975517118154548613e-01
-7.442598534876826433e-01
-7.122829710673720394e-01
9.229660352141383362e-02
-8.614527459197887649e-02
-4.516804470910096847e-01
-7.372405352044837656e-02
-1.306534221222848402e-01
6.216089502045702986e-01
-8.645782887624151036e-02
3.705309503701119667e-01
2.478774719159409223e-01
1.366271495547108361e-01
2.391919576496055466e-01
3.072506116199806847e-01
-1.158107109692187164e-01
-6.274104878820824238e-01
-4.256453486979890899e-01
-7.577727737612706127e-01
-3.589235143533818784e-01
-4.340674754380794975e-01
-2.795870306058830246e-01
2.502674650880097884e-01
5.172863222515329540e-02
-9.614183167002086916e-02
-3.219654136791894744e-02
7.388970242056680515e-02
1.808599789575334738e-01
3.525722957720668904e-01
-2.486822431935641065e-02
1.279884345285682012e-01
-6.463029715685500443e-02
-4.680730054202582591e-01
3.374532959355688311e-01
1.399853446791020917e-01
-2.189718338986786916e-01
4.299031665348461151e-01
2.931754020901825575e-01
-3.704298369385106704e-01
2.492825603826380187e-01
-2.990815880835695495e-02
-3.077981391624488028e-01
-3.257871255776936814e-01
-1.483550136461298519e-01
3.751033092213211517e-02
-4.976198808620461295e-02
-5.405059743081271906e-01
-6.192338812459232678e-01
-9.887165484621582290e-02
9.710641048743212655e-02
4.088924490380461685e-01
-6.193070237847058124e-01
2.651307117190606077e-01
7.100533888003886240e-02
2.969604745958618341e-01
-3.077501790871483012e-01
-3.894087554471556967e-01
5.211398670388140975e-01
-1.702795834824342713e-01
-6.223682559025135730e-02
-2.102212669414993684e-01
8.556493296884922772e-01
-4.963594007855267609e-01
-4.219181790153578304e-02
3.745311438116281089e-01
3.124819033154641046e-01
4.035356778989597215e-01
-4.018512844995506539e-01
2.819664380618032706e-01
-3.083851630539180544e-02
-9.276571973936710569e-02
-1.314599864739197654e-01
-5.742487371414897179e-01
-8.959487236931919230e-02
-4.709879290539428220e-01
1.355615437026164993e-01
-1.427447460321285000e-01
5.110535377445121208e-01
3.540225771540870814e-01
-1.011374597395752056e-01
-6.849330226465786264e-01
-4.644633407215242871e-02
1.300715015842945910e-01
-7.564296156566134577e-02
3.979139325828939810e-01
-3.403828574370015292e-01
-1.336483421433626306e-02
1.348187043787598682e-01
-1.129054981883338554e-01
1.961840885286999236e-01
-3.280274479213243222e-01
-2.072339448302369658e-01
3.229024989260265155e-01
-7.910200500584234698e-03
-4.408117620429508610e-01
-3.380255240573409869e-02
-2.283581573487706573e-01
3.124319056760213043e-01
-9.772273964141608982e-02
-2.227960093480959025e-01
-2.920232830237564636e-01
1.692861932817251169e-01
-3.776831248628317317e-01
-1.862202638298148805e-01
-1.758264751251873426e-01
-2.198213483933759149e-01
3.098354937523541408e-01
1.344601830827637790e-01
4.013168923818176692e-01
6.456416144739884899e-01
2.238305672753136411e-01
7.030284675460819477e-01
-3.041447540832371843e-02
8.465021392238064601e-01
-1.945225082402753380e-01
-1.433458492058216627e-01
3.361920824939049202e-01
-2.553562679735742469e-01
-3.094894282976229927e-01
-5.895747456638523731e-01
-7.578975678218116130e-01
4.326441434263699204e-01
-8.019234336444457101e-02
-2.604047056770008584e-01
-4.190801835122199281e-01
2.363312978180000246e-01
-5.619014583865065138e-01
3.001576810444577803e-01
-3.056126491414768442e-01
