-4.617586905067812553e-01
-6.699008133140195165e-01
-3.918165457222040904e-01
-9.960743414325509693e-02
-6.190630030385313454e-01
2.777923251304146857e-01
-8.096994792271908215e-02
-3.323180314401317781e-01
-3.031544708103658392e-01
-2.546412115812600740e-01
-3.596242738628912528e-01
3.427461179977143724e-01
-1.290072835080215419e-01
1.749842102846641545e-01
-7.675792415000715074e-03
3.327823504809939575e-02
-1.290822357461689218e-01
4.163180460061062793e-01
-6.505058803763709152e-01
2.241466483332617832e-01
2.334683712914623066e-01
-5.445467260784137009e-01
8.847004421626297743e-02
5.385036452702606224e-01
4.184813989276852525e-02
-2.379100249647964627e-01
-2.666561316378210922e-01
-9.620925695933045529e-02
7.095827828916073665e-02
7.391816808269672245e-01
-8.505753950793937257e-02
8.715949043595976053e-02
-5.165941811213243806e-01
-6.732851307044508404e-01
7.238117990295403481e-02
2.960267228036341999e-02
1.032754448531671282e-01
2.308552405907759453e-01
5.246713865673964250e-01
-3.073433107597078190e-02
-7.901291958792165948e-01
2.446999645941094481e-01
-3.589927828951670064e-01
-3.492393259868129540e-01
4.184761387219726458e-02
1.857968520978754701e-01
4.412591731354421065e-01
2.371707722232739013e-01
-3.258253780876584765e-03
1.055056725425280728e-01
-8.157090054203174345e-01
3.186455125343031214e-01
5.093295083639914076e-04
2.421732940239689214e-01
-1.402330235701362837e-01
1.588621453181063015e-01
4.141914394345332789e-02
-1.301272202434794745e-01
-1.978352593714555185e-01
-3.082940231375864704e-01
1.645949393654144721e-01
-1.566193751263152134e-01
4.666013612704955626e-01
7.015859465166870979e-02
5.242025493486147936e-02
5.847809485073475200e-01
2.211638685231925305e-01
1.249373706036311371e-01
-4.399098101818899598e-01
-1.838462087788583221e-01
-2.790206896000837489e-01
2.352396438256297573e-02
1.362801746170083927e-01
1.543427641914911774e-01
1.643206730876397015e-01
-3.102757157448342018e-01
2.928697499332171272e-01
-1.904191042006871393e-01
5.165947218961484122e-01
-4.293605854125323237e-03
-3.272495724639693515e-01
-3.606359571374115336e-02
-1.175459984004135205e-01
3.275055350019449585e-01
-3.455442156355502670e-01
1.002080594645432393e-01
1.247539690081080760e-01
1.369873269932808946e-01
-2.830836230553582800e-01
1.195994787005221216e-01
-5.412882360726253145e-02
-1.455414302146485483e-01
-2.921216831047581119e-01
-2.265286209142796381e-01
1.683069230279511663e-01
6.972259571809585887e-01
-6.811387348141109688e-02
1.322674381570480007e-01
3.381472162490343214e-01
4.405614325544008336e-01
3.271221399956352749e-01
3.555600532330126518e-01
2.369358011469339942e-01
-7.625850867070668726e-02
1.712805436459997888e-03
7.228077033303959009e-02
2.119627050909346500e-01
-3.260110555224862705e-01
5.461499196905818948e-02
-3.126678450870508108e-01
3.788658973720033241e-01
6.734471058086580753e-01
-3.902724838289620690e-01
-1.486415317309905115e-01
-1.207432180196748861e-01
7.233957496609924598e-02
-1.961266323162642322e-01
-1.485496839205396602e-01
6.647937245917969751e-01
-1.070750105297733207e-02
-3.859897532782599616e-01
-1.350379010047000894e-01
-2.856541491221800122e-01
-1.718905450341060848e-01
1.044132014643354839e-01
-7.143228516004374029e-02
-2.225349719913769231e-01
-1.935327906718193880e-01
3.181057511057053810e-01
-1.473400432920406733e-01
-6.738491005399588341e-02
1.456861186091095439e-01
3.630481172297357895e-01
-5.833102540685554394e-02
-1.658112900097779008e-01
-2.868420435131838198e-01
-7.771343561555837942e-01
2.744148972599118608e-01
9.732499002769795515e-02
5.088464470069303802e-03
2.855092676654637507e-01
1.592585587881516218e-01
2.314347078208620900e-01
2.059324379973198338e-01
-1.878344153252749504e-01
1.452861198228002915e-01
3.751415860311594908e-01
-5.497782680750975537e-01
1.988774378097581397e-01
-1.152262752087407360e-03
6.945012598117683567e-02
-3.919347063015411470e-01
-1.648829423383356418e-01
6.985569227806757986e-02
1.122289206835119096e-01
-2.952144253935666818e-01
-2.580959673166811075e-01
-1.575538349705651042e-01
5.080308812071696045e-02
-2.067112070333954610e-01
-1.347716328883457604e-01
-1.518287953815928848e-01
1.575880022811036174e-01
-3.082854919045563968e-01
5.330321144720585602e-01
2.444068642282408443e-01
8.869707608760039885e-02
3.025328824391615434e-01
1.801816766714789964e-01
1.915465016948797450e-01
-4.923438295765383277e-01
-6.132322369781995075e-02
3.010651209459411226e-01
1.039286713421596620e-01
-3.569917258262713111e-01
9.779647919964837288e-02
-1.845435001067944336e-01
-1.626756638450126968e-01
-2.827845402557604970e-01
-7.489152798837994673e-02
-1.130088795325038808e-01
4.091405836251914563e-01
-1.944762600053440704e-01
-3.144001368591423096e-01
5.139573145355656736e-02
-4.097677529964418586e-01
-1.158578034076661878e-01
1.133485575994719607e-01
6.769064136807075027e-02
2.566070725567284883e-02
7.319475488547770581e-02
-3.196042437378127654e-01
8.729904553685323698e-01
1.819941324772593738e-01
9.138444595435529783e-02
-3.757323166457167407e-02
2.651917001689506614e-01
-1.816988383786719286e-01
2.634992631886567960e-01
4.225804397010510249e-02
5.552078078672265105e-02
8.346547087039660195e-02
1.089683774550022355e-01
-1.117009265482151459e-01
9.571882774171408537e-02
-3.507933105546167663e-01
1.291590315096808605e-01
3.195218051492887401e-02
2.171867264667276531e-01
4.643854799840381464e-02
2.035115925182485186e-01
2.516414711319502340e-01
-5.088777233348296125e-01
1.438480914817206746e-01
1.418252005559370588e-01
-3.536774992684446062e-01
-2.084773763216043463e-01
8.811916201347387567e-02
-2.489899134254682650e-02
-1.345711140766612246e-01
-1.847262367751738021e-01
1.295416458345863553e-01
4.021516352119511306e-01
-1.645591642605259142e-01
9.047357904828071118e-02
-3.503627756915628777e-01
8.525905557903529219e-03
4.154115319769316472e-01
2.358245351968865366e-01
-5.316972612281711807e-01
1.835246374959285422e-03
1.958580355377083082e-01
4.361444051180253245e-01
5.964718006605357337e-01
-6.838162898071262208e-02
-9.523263461239560301e-02
2.112967317421526880e-02
-6.838343791702784780e-02
1.572894628146863649e-01
2.496820850127184077e-01
-3.063996018638769914e-01
-7.278089362004209750e-01
1.487634459244473184e-01
7.576446630478329558e-01
4.158307640005858841e-01
2.282065344441623969e-02
6.785578764724606304e-02
4.322166173089355551e-02
1.880887329323304713e-01
5.699638067546943798e-01
-2.325764232452005587e-01
-1.836704677714408596e-01
1.225651918661166545e-01
6.346993746528365454e-01
8.654037697689154207e-02
-2.570528081566185730e-01
-3.290585037068177732e-01
1.192708528709709032e-01
4.000792471253267757e-01
4.749253726344460080e-02
-6.179538476457290264e-01
1.784629694642228814e-01
-3.235343159804508484e-01
-2.064882623330738520e-01
-7.120046213845829253e-02
