-4.284148355689514354e-01
-6.784328767299224738e-01
-3.918165457222040904e-01
-1.814676302284275455e-01
-6.190630030385313454e-01
3.010804640559467948e-01
-4.392733574211443726e-02
-2.002813015307885747e-01
-2.808602462003881861e-01
-2.665230979932948219e-01
-3.661654728011303206e-01
3.098388825137012303e-01
-1.588782461839333970e-01
2.136523824315326170e-01
-3.892977049671338813e-02
5.361946365966665379e-02
-1.290822357461689218e-01
4.175220717883416088e-01
-6.923469066966064789e-01
7.453029015604256680e-01
3.063238345719695443e-01
-4.982611346261724972e-01
1.092458351124116767e-01
4.470542681625852555e-01
6.762557912212756317e-02
-2.112316454085474415e-01
-2.350317385614540955e-01
-9.307907475982296619e-02
1.462057484972342086e-02
7.241166435597498063e-01
-1.482968691296652486e-01
6.239367626116089360e-02
-4.551022628919544899e-01
-6.891585323271818275e-01
2.804169244774448733e-02
-4.656943689930296247e-03
1.484728199816151839e-01
2.446844256692547459e-01
5.100505429092203613e-01
-4.253293465199683293e-02
-8.502371108624126039e-01
5.549940530270867090e-01
-3.752903658487684035e-01
-2.341704102693581147e-01
8.672026951842846942e-02
1.977943151342877737e-01
5.066310803513842664e-01
1.984759595062372262e-01
-4.702891555565626158e-02
1.190385118642489776e-01
-7.744548679547301751e-01
2.973464928636671556e-01
5.093295083639914076e-04
3.221801624541923426e-01
2.202098736429730363e-01
2.220311045095510749e-01
1.281180096003433355e-01
-1.301272202434794745e-01
-2.742854647616362884e-01
-3.594582738553671608e-01
-4.557670891409492109e-01
-8.972173884410653000e-02
5.044321600559429353e-01
1.261867294470025991e-02
1.402196298492595916e-02
6.630683741955708532e-01
1.370613367005437122e-01
1.302739739298356958e-01
-4.399098101818899598e-01
-1.497517454098745426e-01
-3.144772792907150061e-01
-3.675152406769990887e-02
2.678279507329411890e-01
9.453892133366259554e-02
2.002250136624398602e-01
-3.445510316249299487e-01
1.848999837563336246e-01
5.542277079203133949e-01
4.862476380168363477e-01
-2.492246711817476534e-02
-3.314488265382287135e-01
1.554316008038749558e-02
-1.082021068527373453e-01
2.476086000640268514e-01
-3.327198573300852447e-01
4.686432274161402012e-02
1.639187989306933324e-01
2.097284483065374461e-01
-3.565990055486322197e-01
8.227066351879087913e-02
5.300717019136829133e-01
-1.220221526626257685e-01
-2.825281595996746442e-01
-2.086998165375913428e-01
1.422399705572617301e-01
6.496727206785790631e-01
-7.356319920959752956e-02
1.207257731024019565e-01
3.693986788579486924e-01
4.377694369848348366e-01
3.271221399956352749e-01
4.133720739126857668e-01
2.406653186089237895e-01
-7.625850867070668726e-02
-5.860622354513728496e-03
6.800873785351636835e-02
1.948096880219421512e-01
-3.212405136187962418e-01
-1.412858546441068952e-03
-4.024944709631322892e-01
3.915177827492380969e-01
6.694182100945623715e-01
-3.590833102763125173e-01
-1.767674916765149540e-01
-1.291131684374171584e-01
7.233957496609924598e-02
-2.371795759390940006e-01
-1.117517009111630988e-01
6.835502795332446535e-01
3.835093925776777296e-02
-3.456208524032337026e-01
-1.129055860083875151e-01
-2.856541491221800122e-01
-1.600681062122772391e-01
3.640262739629396282e-02
-1.780512786745487852e-01
-2.028259933922496316e-01
-1.823179337706062331e-01
2.805211554512954120e-01
-1.551787846133754756e-01
-7.383193592793625692e-02
2.060905102672100364e-01
3.630481172297357895e-01
-8.705297516543779313e-02
-1.057410247288967098e-01
-3.288749084319973481e-01
-7.771343561555837942e-01
2.740875835230400237e-01
9.014313976628468561e-02
1.967197988147521559e-01
3.767346718997557908e-01
2.135115617882132333e-01
1.873299262065730719e-01
2.059324379973198338e-01
-1.878344153252749504e-01
-4.014603098544177739e-01
4.304245000623717066e-01
-5.431235580688602571e-01
2.016815699826441100e-01
4.652644669880479089e-02
2.783756138871842922e-02
-3.825549943650314311e-01
-3.627127529168389097e-02
1.080998207716934167e-01
4.711308765194924253e-02
-2.538232579711824366e-01
-1.718733233285635875e-01
-2.078431223851306409e-01
8.970327053166840536e-02
-2.488019748693712507e-01
-1.733842897333403021e-01
-1.493216482224385133e-01
1.276446737362252060e-01
-2.338416991634091335e-01
5.698644553968550408e-01
1.923700157396643073e-01
-6.636503149168489213e-02
2.867327486824595706e-01
1.775394072228636821e-01
2.786383013987245860e-01
-4.645969783087188221e-01
-6.132322369781995075e-02
3.047848890540929001e-01
9.963448326250544385e-02
-3.302440489618841402e-01
1.185395708466391446e-01
-1.696064380411179684e-01
-1.678582281415008648e-01
-2.827845402557604970e-01
-1.111113356298920329e-01
-1.729712964717970425e-01
3.078165021707883198e-01
-1.506844125584917427e-01
-3.151349041389057692e-01
-3.399998556344137335e-02
-4.175114019258392983e-01
-1.694018611887570525e-01
1.299743207909527798e-01
9.127966958658251251e-03
9.763576251022056118e-02
1.441012313579624893e-01
-2.654696664305775666e-01
8.870514550758016314e-01
-3.042746678567112562e-01
9.836213656686254581e-02
-1.194524627925985794e-01
2.760101155390697336e-01
-9.710981937708612621e-02
2.634992631886567960e-01
-3.518295391414527629e-02
1.085058351858020909e-01
2.957580034699368587e-01
8.834697373289057687e-02
-4.650474642194631081e-02
-2.329399464770135764e-01
-3.436248288841383114e-01
2.030014466057160349e-01
2.217124475157043056e-03
2.314423001950578485e-01
2.019770054202723875e-01
2.788239988292394722e-01
2.992364279055210741e-01
-5.607184479028793911e-01
9.821841313692997177e-02
1.687981451333749328e-01
-3.222337946623344274e-01
-2.691385617102846628e-01
1.495649166314515499e-01
-6.040589412082415094e-02
-1.780751334498745231e-01
-1.100854788205282708e-01
1.295416458345863553e-01
4.829354961880457653e-01
-5.632924170859857083e-02
1.652970833236077075e-01
-2.861776550986133150e-01
6.588524650800024751e-02
3.980683893550283070e-01
1.638726804534208215e-01
2.305919686372831512e-01
1.573119935091888029e-04
2.500053467773520333e-01
3.839349059520825724e-01
6.476475859325774298e-01
-1.259978340175104544e-02
-5.945781618992142942e-02
7.011709191959389353e-02
7.883894177119958602e-02
9.260358132241920670e-02
2.156897315954789396e-01
-2.289349017894915517e-01
-7.278089362004209750e-01
1.084263991368539792e-01
8.023211862906319825e-01
4.158307640005858841e-01
-1.309294772373937113e-02
-7.980925281731258980e-02
-3.944946083180290303e-02
1.880887329323304713e-01
6.491709499200223332e-01
-3.064966144024854344e-01
-1.030575710175221232e-01
3.083887347595075379e-02
5.977526467093278173e-01
6.718224504371041184e-02
-2.570528081566185730e-01
-2.603576760462051332e-01
1.111013481418089699e-01
3.805488273443777270e-01
3.315151925137684030e-02
-5.665954990287214166e-01
1.797248987048038205e-01
-3.488509792809970644e-01
-2.845594349505885523e-01
-3.050226438076557578e-01
