5.095333123317326018e-01
2.095469846949339077e-01
2.524080143913072227e-01
3.617014586231993567e-01
2.262112065019871165e-01
-4.753899602452915651e-02
-1.186740589380881894e-01
4.384192822000296252e-01
1.116587972824564651e-01
-2.831196414283573132e-02
-1.674058245896960784e-01
-3.234449357991583396e-01
-4.848782639352335333e-01
6.326105665013560808e-02
-1.705231337948805159e-01
-4.563227935547051195e-01
-1.326812659319112908e-01
-9.555069706884653262e-04
-1.081871448193554297e-01
-2.051759002173114965e-01
-2.554505201823719651e-01
1.449258723581279759e-02
2.303029464179756972e-02
5.189762850422402485e-01
1.155838803078651639e-01
1.200804901359704864e-02
3.519113076510620997e-01
-4.105509566160845392e-01
3.098154196250225145e-01
-4.545455807226088663e-01
7.736131745781786584e-02
-1.797904860697022433e-01
-3.645161011191306311e-01
3.708284842449023344e-01
-3.217910335059411138e-04
-3.283285014636148913e-02
-1.403295191712098378e-01
3.388342531366141386e-01
2.589985045403904729e-01
1.697196642911673603e-01
-1.540607808545755020e-01
-1.072489126984470797e-01
-1.114038634591392046e-01
5.356212642320028888e-02
4.574937392013725956e-01
3.834080289590318658e-01
-1.726065433776358404e-01
-3.340011879659074423e-01
-1.315468576302207537e-01
-2.015296025279044584e-02
5.790300284393765443e-03
6.584967097285994442e-02
-1.285309606090555834e-01
-3.604662164624546361e-01
-3.619432059919136524e-02
-1.623223210500732427e-01
8.588870203035886899e-04
-2.863203305586522682e-02
1.006044244249544029e-01
1.243461003884322180e-01
5.496445113358883194e-01
1.081899913902910626e-01
3.832034041740632335e-01
6.134501086443764351e-01
4.611435012635425323e-01
3.680595444824902862e-01
7.612038257767260452e-02
7.168023076843964558e-01
-3.480144460012443153e-01
4.571656170911668760e-01
2.525603079552558583e-01
-1.063134714506834694e-01
5.170024347255963715e-01
3.361820806021115216e-01
-2.247116321470717659e-01
1.709396755006174426e-02
9.301997259160743603e-02
3.434172760850338624e-01
-2.607578119591910659e-01
4.413555302515045214e-02
2.055903183066689621e-01
1.568283111272891495e-01
1.416354348311416600e-01
-1.589492068602287589e-01
6.168789497453073256e-01
-3.115624252506831171e-01
3.388158935212823852e-01
3.426220461546092277e-01
7.657063713773065716e-01
-4.298174486278234091e-02
-2.830295155710876864e-01
-1.551310504083928399e-01
3.934468759835049734e-01
5.830760402397718867e-01
-3.532460190658274213e-01
9.238335180583386042e-02
1.889320856270031435e-01
-1.830842941098305421e-01
-4.178579129635717759e-01
-4.006934984331112504e-01
1.020163659062625489e-01
-5.238649513518227607e-01
3.635605206610342203e-03
-1.614481284437940811e-01
-2.917001505685695717e-01
-6.935560121332072503e-02
1.922189168926629332e-01
-8.637749421145063389e-03
7.617636346199870012e-02
6.248689333734462614e-02
-1.942625548105246513e-01
-2.122709899024906033e-01
-4.212292261444180834e-03
-4.843834342921063962e-01
2.895792084973541902e-01
-3.907893490743772902e-01
1.183660013380762321e-01
5.604766632930626713e-01
-4.448584878644937235e-01
2.800822516953661578e-01
-4.140322933893401669e-01
-4.402938313799111270e-01
-1.729584378506665299e-01
2.251281656168385159e-01
-2.042396476568731634e-01
2.540818962893994781e-01
-1.945994287128336997e-01
-5.773367308547058298e-03
1.836998306291699190e-01
-2.150593598561379438e-01
-2.468816562416364935e-01
8.102454156727238732e-02
2.148320918846869931e-01
-6.459082955804329451e-02
-4.609842887270758638e-01
6.442447548253373013e-02
2.276279753652169779e-01
4.421371226157149725e-01
4.090799978433736633e-02
-1.758669430406905113e-02
6.736671256618774750e-01
3.612454361220493460e-02
-5.808670979891255026e-01
2.825652649901519986e-01
-3.374993360788474672e-01
5.041135245671055087e-02
-2.021398362270994953e-01
-1.012375232342918180e-01
6.225707666852152433e-02
-3.833690757768862950e-02
1.175910593721802566e-01
1.030184358042766785e-01
-3.239542181701156598e-01
-4.029411568523517673e-01
-2.192404885975045570e-01
5.918886540223380344e-01
3.097943499171070675e-02
-9.764969699999741237e-02
-1.437113630294392652e-01
2.229298301776448665e-01
-3.948706810344378426e-01
-1.744771675599992092e-02
1.669009061939117633e-01
-5.970911848576929692e-01
1.774254480374954090e-01
1.335489389840917585e-01
-5.433440708890501236e-01
-3.191516359007862680e-01
-1.805192404799723649e-01
-4.817817798934017487e-02
4.500928883404396452e-01
-4.325460892197173501e-02
3.813033506579839860e-01
-4.070516232034998017e-01
9.869603940718817137e-02
2.217584261863514428e-01
-2.421345734348178125e-01
1.109515042123256599e-02
-2.423414865319589717e-01
7.234991900281555199e-02
1.972448337191017032e-01
1.156932531340888054e-02
-5.862251170326329142e-01
-2.202536942077128190e-01
6.180192889226600317e-02
1.004909625120958133e-01
2.859481238048933519e-02
6.535271519746076452e-01
4.053040429069352801e-01
-4.787770423535688685e-02
-2.333500262531477687e-01
-2.456585474101577737e-01
4.882760940128153676e-02
-1.000000000000000000e+00
3.316502824870306426e-02
-5.815354925794057744e-03
4.028360980335722319e-01
3.371087508344979278e-01
2.487892534056080143e-02
-4.079504476683531305e-02
3.178762971635388374e-02
6.082633237438057547e-03
1.454183011166513273e-01
1.480264706994037782e-01
-2.412636561452235484e-01
4.849395014428120043e-01
2.859269577792628581e-01
2.606274644143096939e-02
-1.750979296974581878e-01
-4.385671787764643288e-03
5.031961562652495501e-02
1.793141974381105841e-01
7.313887451462369738e-01
-8.165018256671828789e-01
-4.645613767244768377e-01
1.650998437963806520e-01
1.433998089116794994e-01
3.804179257404241010e-01
5.875547562912070143e-01
6.030829210491074344e-01
-1.912780753254915422e-01
-1.135681239310792900e-01
-1.974469119319271354e-02
1.871827315185622953e-01
-1.773518136690822311e-01
-2.216011904417178047e-01
-2.676455670854542279e-01
-1.751642052463554533e-01
6.072486711912213064e-02
-2.737561093217441566e-02
4.951357701056592897e-01
-1.617197864028192544e-01
-5.219998989503817910e-01
-1.028989514145712131e-01
1.889420263617756224e-01
8.509163946587022798e-02
1.158917723798650462e-01
-2.265950326434523765e-01
-1.677494221330953217e-01
-7.141756920115467644e-02
-5.521411743417911078e-01
1.799406241892837210e-01
1.689677298301913710e-01
2.443788235180753832e-01
-4.212677312766655580e-01
1.100446310549250094e-02
2.959979841429400405e-01
-7.230378857892904914e-04
4.490938209830297456e-01
5.440368908398798276e-01
7.260803395428706841e-02
7.028933282066494870e-02
-1.674328617823774845e-01
2.083538562976152697e-01
-4.589041524866175475e-02
3.561457735322633850e-02
6.809869933317394541e-02
8.933865663573441890e-03
-2.038020709993691726e-01
-2.209120489134586696e-01
-3.392370465124986967e-01
3.192894692424178005e-01
5.151288310366491235e-02
-2.022260027924424608e-01
-3.163466796814413673e-01
