1.311257998414107062e-01
-1.060592852034564493e-01
-7.908448642649094917e-02
-5.595595769488542759e-01
4.104802653616582697e-01
-3.657948223779573793e-02
-3.914837368372867804e-02
4.127391609368777359e-01
1.992635438355563615e-01
-4.442711875486282658e-01
1.830235310938292115e-01
-3.135200962770169630e-02
2.435112942785561674e-01
-7.645048219408889789e-01
5.078072876382545564e-01
2.242158231016726233e-01
4.162736212978679351e-01
-1.613713081173945019e-01
1.194569526316417024e-01
4.468618046109615882e-01
8.624208085653560507e-02
-4.739282760046233944e-01
-3.846642749189810393e-03
-2.300337024723987656e-01
1.419090626330365146e-01
-2.592898727054024355e-01
-2.168439040165204279e-01
3.579024856558707945e-01
1.187370205845971333e-01
-5.292827884496726920e-01
-2.113283219120743184e-01
1.240158320019453704e-02
-5.080849295820141220e-01
1.733324060573219749e-01
-1.784259019909611443e-01
5.184857930901385359e-01
6.125205560586041154e-01
2.784464382483471390e-01
1.097826894637425749e-01
-7.057105824748309830e-01
1.795357306993893287e-01
1.271538711358966567e-01
-1.462596005292647050e-01
-1.477003669696923538e-01
-2.397987984496320266e-02
1.497820554942595472e-01
-2.608061331747665856e-01
2.706121744374785920e-01
-1.919377435103044038e-01
2.465628655770504274e-01
-1.882216782497046492e-01
3.414051490382785103e-01
2.115593178368286309e-01
-3.855836015318572230e-01
2.382782961467456717e-01
-2.084963922653058632e-01
-2.676889357253721680e-01
1.572831815448113846e-01
1.897190337824532225e-01
-3.073982479751593416e-02
-6.548676150455745582e-01
3.233763686090144751e-01
1.888672721880233218e-01
4.760903370529654954e-01
-1.112955809058326778e-01
-1.843573521552807348e-01
4.144451688906278242e-01
-8.837916523145120107e-02
-1.018949840061847967e-01
1.329273377633912456e-01
3.753728981853856478e-02
-2.008796320710945771e-01
-1.388232934139947972e-01
-6.724256171709162844e-02
1.775277094482346774e-01
-6.264226307539028094e-02
-2.399414588270117332e-01
4.059871756745690730e-02
1.548001062537235073e-01
3.521564426746646159e-01
7.658473007425535550e-02
1.105598832140292226e-01
-4.380892296152049670e-01
7.973983221983808878e-02
1.851098650691273273e-01
3.731609936645848835e-01
-2.338827340033880486e-01
5.676690886636519551e-01
1.146765573274143440e-01
-5.899020659007457867e-01
-8.115695339569943545e-02
-3.418053715590527175e-01
3.288074494846601747e-01
-1.360499363563646702e-01
3.861513642222829112e-01
-5.004639300175014460e-01
-7.335416996826337188e-01
-9.652303365097707200e-02
5.933508882225834585e-02
2.361522799919167637e-02
5.708668759588120256e-01
-1.390189043137369240e-01
1.153326438881448340e-01
3.612128683845926003e-01
-1.279340892244642258e-01
4.056099328654532155e-01
1.902434279497487724e-01
2.567926572035339472e-01
-6.239659290267999571e-03
4.176352347153022837e-02
-9.359496583863526065e-02
-1.869488818025419608e-01
4.387582461885290441e-01
2.407253880114668121e-01
7.870888842377353478e-02
-1.568463299443168812e-01
5.844999771730345628e-02
3.618107626543325961e-01
1.699936793655316691e-01
-1.077435554291304998e-01
5.875660174764127386e-02
4.803684575816171698e-01
1.699319126853549577e-01
-5.904492991512977351e-01
-7.683065066932022458e-02
1.627653442819109730e-01
-8.210588764799392480e-02
-2.657406069049189079e-01
4.599146773045495462e-01
3.546971859026149532e-01
5.138795228159130923e-01
5.549355271247810029e-01
1.472711852572406166e-01
-1.885492822089132048e-01
-1.033997477537441784e-01
-4.515533996429528241e-01
-2.765732226693420892e-01
6.920615902639136729e-01
-1.222018210650492182e-01
-5.892433639629601760e-01
-9.006512506540327589e-02
4.297153056331298737e-01
2.180563496269636581e-01
1.080251780507126419e-01
4.197720919085736191e-01
2.367104047130552946e-01
-1.655526029950275813e-01
-4.136440449830409705e-01
-1.484887765836492290e-01
3.905903707436933492e-01
4.477540422087223360e-01
1.711194058728671696e-01
1.171527280135730154e-01
-3.816179009722772686e-02
2.726038391079534939e-01
-2.251338893215406034e-01
-6.066792601699733112e-02
-2.991436593155080148e-01
2.315953496907146858e-01
1.782403419480637907e-01
3.208266164168608880e-01
-3.075866189810586016e-01
-1.883996790348021477e-01
-9.612577387346714353e-02
-3.784527856616728969e-01
-2.188549571764265567e-01
2.645657752652398886e-01
-6.838572841648938860e-01
-9.745356853645130712e-01
5.979870755939802919e-03
-2.773488262196064924e-01
1.635163428727879342e-01
-2.564514645541771456e-02
-7.507634041957295112e-01
-5.415852845125467691e-02
6.192940420794756928e-01
-2.573256759028449414e-01
-1.266175303438084598e-01
-8.442156685714462261e-02
-9.994826130204199910e-02
2.368118660145158150e-01
1.667810332739340651e-01
-3.409228206874312384e-01
9.955838491893112541e-02
6.588967569800548985e-01
-2.132778728222683995e-01
-1.707968463263616621e-01
-1.401042244018290417e-01
6.155787308657098555e-02
9.297048973079523673e-03
1.887331399588533243e-01
-2.780909779427603312e-01
3.878451951992452629e-01
-5.790921678049714555e-02
-4.043380459874947319e-01
-1.429144960591525182e-01
-1.596275771469032878e-01
-5.777089909808111323e-02
3.078037138641220860e-01
-2.362333714999791112e-01
6.445692176362431691e-02
3.136581034806797119e-02
5.071138337282224962e-01
1.629705307138687165e-01
-1.563149782527184783e-01
1.846501423474166403e-01
-7.698243194497196573e-02
3.788624935094702106e-01
-2.938054078917733958e-01
-2.675495521728338266e-01
-1.435616251382909603e-01
1.278855825685001370e-02
-9.631646471814153676e-02
4.522682358240130984e-01
4.476836115422551665e-01
-1.521640328954767252e-01
4.360640165615750630e-02
2.661146124737182039e-01
5.045880813060663606e-01
9.252580015338660729e-03
-3.277025882519911115e-01
-2.823044575620167751e-01
-2.412650160329821158e-01
-4.222175567607140967e-01
2.233544442240332703e-02
-2.507032992351908018e-01
3.021617750593810214e-01
1.930025516483300785e-01
-9.777068697677536446e-02
3.244101281256595026e-01
4.556660302491803982e-01
1.329738553255232214e-01
-1.416050961944246844e-01
4.602738240287612137e-01
-2.965045116476553999e-01
2.181479878536768044e-02
3.592623890210959181e-01
-1.233518553350312214e-01
2.255623680942040257e-02
-6.861640817901268896e-01
1.046658965041784156e-01
-9.911261345246395044e-03
-3.534637780118835004e-01
-1.129458581204586531e-01
1.952052336462781479e-01
-2.662121938993385339e-01
-2.950464646907466348e-01
-2.181585124621527039e-01
1.384648057737404570e-01
1.422349462911439433e-01
1.181225004593722261e-01
-7.327680751464588083e-02
1.556065905690388329e-01
4.532111758169391491e-01
2.718606311623747787e-02
1.781739815265278026e-01
-3.948051799438991732e-03
1.669384464887196384e-01
-3.236804270800673362e-03
-1.761173128766999885e-01
-1.850230573794844902e-02
2.491743126683778342e-01
-6.510081144244729556e-02
-3.604514521667269156e-01
9.066715914212905569e-02
