2.635207239320916939e-01
2.405855276055331449e-01
-2.416505475847384430e-05
1.638581033096313810e-01
4.917718282920605088e-02
8.880616742442846989e-02
3.610906804100283973e-01
-6.144477017636418292e-02
2.249337555504939967e-01
-1.800778315787222306e-01
-1.692713729082691992e-02
2.135147147339030160e-01
2.654823972566523402e-02
-7.467881563128446649e-03
-8.834776354159785614e-03
1.750574898968972615e-01
-4.363594824517525589e-02
1.302972968883434612e-01
-3.181336482795330545e-01
-1.889329081559892598e-01
2.534923528315263797e-01
-2.495525320589700724e-01
-2.671462013609027797e-01
4.877446012689442001e-01
-2.170103526526250826e-01
-1.000517133742552800e-01
3.199978432114972127e-01
2.876153657931522778e-01
1.223449831798766319e-01
2.733774164780246041e-01
-3.940940630709226511e-01
4.382938529740877387e-01
-8.292461974436957095e-02
-1.785870033387669809e-01
2.385634184868722085e-01
-5.144455966852796297e-02
-1.281425490088686225e-01
-3.826182661489560544e-01
-2.941336907110794416e-02
-3.940263506708553964e-01
-5.566573782095460832e-01
1.735797333043807011e-01
4.652337695485482261e-01
2.326898513103344002e-02
2.022730880940187548e-01
3.194467019919136064e-01
-3.128453121288522487e-01
-6.229575609033931594e-01
-6.431922259932231212e-01
4.996723190607084419e-02
-2.962378892056833912e-01
-3.706150135551074948e-02
-3.174717834572763908e-01
2.827051203801761448e-01
4.602627671828301084e-03
1.635517442216241901e-01
1.226633967176943424e-01
-6.318780245057656897e-01
1.422898672381082419e-01
-2.893081127602000965e-02
1.695592608727656547e-01
3.520858316522819664e-01
-4.681755136782973503e-01
2.851407799475395577e-01
2.150504256120509827e-02
-2.280384287704046928e-02
-5.688164598792987414e-01
2.285974487436361891e-01
-1.446863065059268705e-01
4.918990985957958917e-01
1.574058976148806077e-01
5.243858734575546077e-01
-8.689299565484341903e-01
8.753288199926005653e-02
-3.030011288307745132e-01
1.638169472357430267e-01
-1.425996888675724605e-01
-4.204048231712503858e-01
-3.582691269192727068e-01
4.451704039922961820e-01
6.381201527310101373e-02
-1.426426114027843917e-01
3.741878294887646672e-01
-2.572328053846666129e-02
1.629058518156734081e-01
2.280515849937955197e-01
4.791631184280718131e-02
-1.179060596278118794e-01
1.704221371440191868e-01
7.453683012802004848e-01
-9.344411506714071780e-02
-1.316190001659156561e-01
5.875925447961181242e-02
2.204556738251887138e-01
2.809227237361777707e-01
-1.650208729536906116e-01
3.204055148984559787e-01
-1.228135082284302279e-02
-3.897389115866946585e-01
-5.343623424667846011e-01
2.833823754983509358e-01
5.093676691064443762e-01
-2.437135477529214778e-01
3.533677789743635417e-02
-1.297299640085169785e-02
-1.555623320336512738e-01
-2.985452495670732342e-01
-2.612566930073988991e-01
3.496796503284722579e-01
-3.474444777253659078e-01
1.126178903974002360e-01
-1.934876229918083834e-01
5.592359543555933815e-02
-2.435076448524850778e-01
-3.166774323829613658e-01
3.181613346433019296e-01
1.842349405557667241e-01
-4.154954155370394475e-01
3.515728338921095264e-01
3.617222140650047657e-01
-5.680798701029108333e-01
3.249875336698290762e-02
-2.399239877403778198e-01
-6.502686674694610480e-02
1.234233257087119090e-01
6.596939815603007629e-02
-3.299139970959220625e-01
-7.766993242479188764e-01
1.711546524143939610e-02
-1.493827917495360313e-01
-1.114590903378474135e-01
-5.465207901171725488e-03
2.144629208645419671e-01
3.927210755086597560e-01
-1.040789898842797295e-01
-5.159113590475540301e-01
7.734200464370373507e-02
-6.385321657704601250e-02
4.235453586459605457e-01
-7.992247035569648161e-02
1.728392523599793784e-01
8.284734255822343019e-02
-3.163843255629268381e-01
-1.936293030377008173e-01
-3.228045330046575567e-01
1.839436518609934845e-01
-7.214711525014552186e-03
1.682001662980631973e-01
-1.060665782148130232e-01
3.371541641087940078e-01
-1.801193368977240666e-02
3.472438051960123895e-01
2.221461806583303056e-01
2.582881315897636587e-01
4.370011553835247420e-01
-1.262127373924143703e-01
3.812332370206271137e-01
4.880524633286289354e-02
-1.409658855997991400e-01
-1.548034836551265558e-01
5.611616495815116012e-01
1.678501703206296547e-01
1.788944671054284452e-01
-3.464392857411103255e-01
-3.015573034628773463e-01
1.924937254297109240e-02
2.121033283213362430e-02
-4.861817886407965861e-01
-1.422898543382661307e-01
5.748497974663659971e-01
1.384699087302157516e-01
9.940904167842272432e-02
-3.977151065622343551e-01
-5.576647648121235007e-02
2.856143283374071862e-01
4.872344449332662031e-02
-4.316229069845730626e-01
-4.754992544795321185e-01
-2.412966808451585399e-01
-9.783149065280552503e-02
-3.588196076176040084e-01
-9.127363760465094511e-02
6.915450925464167176e-02
-1.411853785230502978e-01
3.973962879180867325e-01
-3.148808921732231814e-01
-6.722118913890015590e-02
-2.790848170168100384e-02
1.680653248153059776e-01
-1.520655309746052619e-01
-7.842034571734445014e-02
-1.906183130380701141e-01
1.928497134687296721e-01
-1.160637232204036196e-01
1.305683090854309336e-01
1.346862468338288210e-01
-2.244462375212087635e-01
-4.359263010011773382e-02
-2.247532101190816145e-01
5.615905750706948751e-01
-2.515769486237897645e-01
-2.181298899441168337e-01
-1.698827992377403284e-01
3.928866264330131974e-01
3.341230866948397549e-01
-1.059292257450096530e-01
-3.847930245303797792e-01
1.254222147618161975e-01
2.297112952189854854e-02
3.205748974974624854e-01
-2.397507232182334025e-01
-1.357225484934244941e-01
3.975701143723517350e-01
-2.930405473417967421e-01
4.441748568534531483e-02
2.299386214145511809e-01
-4.306161819289121284e-02
1.417196188421875891e-01
-3.665264137321637139e-01
1.755788317664851161e-01
-4.967614477679378471e-01
1.938955179793640793e-01
-3.913389101377939827e-02
2.532997146021669366e-01
1.011216658031077603e-01
1.290656475057226464e-02
-1.354407908440377617e-01
-3.796985313625965697e-01
-1.274903961249020633e-02
2.241777079035417106e-02
1.327253923672366553e-01
4.077696564236391562e-03
-2.692231797626137499e-02
1.973705721620793163e-01
-5.062464572527661799e-01
-1.642052940280047668e-01
-2.561990329602618077e-01
-5.757189502492733590e-02
6.799224908031334391e-02
2.194468809413348265e-02
-4.341289805273246954e-02
-1.897694382833497728e-01
2.043673984876188399e-01
4.993935446262291467e-01
-1.990450860294544488e-01
-2.704922172048881412e-01
1.840952205371921072e-02
-7.360327059681171305e-03
1.743552903238360374e-01
-2.732552888642778566e-01
7.097528130978568439e-02
-2.268831712311674409e-01
5.487147211609953723e-02
2.211181739201067975e-01
-2.638229508513638688e-01
-3.133876719622477602e-02
1.664779066856565126e-01
-3.801693699951973204e-02
3.426689373538552297e-01
-6.371785381161286788e-01
-1.761494260617315621e-01
1.244055027272751857e-01
2.290368432805774956e-01
2.477465210290039077e-01
7.617704082918137776e-02
