-2.170209795683049336e-01
-2.497699990493145727e-01
-2.615925204167279111e-02
3.560589602526542108e-01
-1.402532797719344970e-01
-1.492264993853312238e-01
-3.474402787234910917e-01
2.216338610682863641e-01
1.889503402429121570e-01
-7.630978721724786251e-02
1.075770692611297957e-01
-5.387170026509917609e-01
5.668174167946898878e-01
-6.109487623487678265e-01
1.262619298220347963e-01
9.114958462682508367e-02
1.897765411240933398e-01
-2.554398947316605106e-01
-3.956238460998109246e-02
-1.435129265175693614e-01
1.600580166311786345e-01
1.708298667460541875e-01
-2.286351928939983277e-02
5.019673748568865834e-01
2.119059717828280509e-01
-2.212522584138507387e-01
-4.713373830312642676e-01
-1.158064699648865548e-01
3.015395371165531246e-01
-2.978916937238147988e-01
2.412278113878270347e-01
9.703103103142256269e-02
2.904661504934081054e-02
-3.019396110196527760e-01
-8.262771729575199564e-02
2.296238342714015390e-01
2.329720303215537802e-02
3.220073443662075374e-01
-2.869842829454905334e-02
-5.268764966139117822e-01
-4.661405124756315410e-01
-3.040315672656790369e-01
-5.794470624591857577e-01
1.429233577481275053e-01
1.245212297642800392e-01
4.023346315222900427e-01
-4.270459470629344584e-02
-1.484893632653754014e-01
2.604236791523305561e-01
-3.900638020114891580e-01
2.098315288293295111e-01
2.006858013449968614e-01
4.020392204519826485e-01
-2.332521349243515396e-01
-2.613325833281093247e-01
-4.768641812246003919e-01
1.933380518771140311e-01
5.885475161506531494e-01
-4.770509586228772192e-01
2.143329964720234737e-01
-9.580966337517300702e-02
-9.158538933672723259e-02
2.413260387640099869e-01
-1.548321136720677560e-01
-1.033635580817222482e-01
1.998772163928575485e-01
1.576791326352975642e-01
1.459484935855808463e-01
4.510157806187622409e-01
1.187337917762186501e-01
-1.287691022729782128e-02
2.571185814093454036e-01
1.866251628307316890e-01
-4.116977630395925875e-02
1.128567416071356577e-01
-6.083658534354678959e-01
1.541702984043991642e-01
5.841104252227255315e-03
-2.508634796584232052e-01
-3.213967807310348923e-01
-5.023843136191569886e-02
4.472826947629388733e-02
3.896920996051352337e-01
6.128826364401281784e-02
4.470774442380818225e-01
-2.101123933736858129e-01
1.825969121077550272e-02
-3.267930879681623657e-01
-9.977831640366251198e-02
-2.698217636949178377e-01
2.553428655161867900e-01
-3.055169158841753441e-01
-1.307853288326112640e-01
2.248245027550826169e-01
1.151285359655915136e-01
-1.890049508974113723e-01
-8.678459467890682622e-02
-2.797410055534998996e-01
5.710107381450454239e-02
1.695482538201198708e-01
-7.821103739982092629e-01
3.566105528751941645e-01
2.808123483241850571e-01
4.418937049364345115e-02
-2.650607754307967578e-01
-3.120460623312210635e-01
-1.425864595706561877e-01
4.895469138346404958e-01
-2.824023838775617246e-01
-4.020964847712119039e-01
-5.739974992209980753e-01
8.119176839507251386e-02
2.940200233157226894e-01
-5.052173525773713259e-01
-4.525069303812729454e-02
4.555207428367245154e-02
-1.541290660936512624e-01
-1.918051424578896824e-01
-2.645036683327309790e-01
2.925517259877009613e-01
-6.942727873211988754e-02
-4.249667314126156503e-01
-6.230717657086310979e-01
4.263536832586729830e-02
2.102753532419885177e-02
-1.430811766180445886e-02
2.733755533101495105e-01
-1.022808908476859485e-01
-1.550594130101407286e-01
-4.245053664627937429e-01
2.822966723291263635e-01
8.758797854691609611e-03
1.902593917510261856e-02
-2.181800945195044028e-01
3.818197296384639450e-01
-5.420008108971370309e-01
-6.185331045467595823e-01
-8.677760223457652022e-02
-4.456853880405338697e-01
-2.769776484408449369e-01
3.826790775731325062e-02
4.371874405109727468e-01
1.856965203763703831e-01
-3.810572380129135239e-01
1.758132585737269896e-02
4.796028166922408076e-01
-8.702403897165285340e-02
2.509827288677008994e-01
9.176510393278948519e-02
-6.675258647835261572e-01
3.652148351161575990e-01
2.597988844707471712e-02
-1.364378243126675438e-01
3.994745795592432591e-01
-2.856281235855823719e-01
2.077907637178851297e-01
3.275101751626298685e-01
1.863430085703441652e-01
-2.858841688845012996e-01
-1.437652060644032115e-01
-3.220808203164456096e-02
5.083232867519447140e-01
-2.539101513941923183e-01
2.325762777946801252e-01
-3.648520880797600507e-01
-7.779791744898263695e-02
-2.857397318113271134e-01
-2.734449463003501002e-01
-2.526259577205913209e-01
-3.145902582474918163e-01
3.834904100764646162e-01
-3.209786422430070674e-02
-6.457200218594322250e-01
4.587189419955893799e-01
4.190756440142259232e-01
1.784999158001089048e-01
-1.375425695877434129e-01
1.442660546525748044e-01
-3.118742033580794784e-02
2.761586582258800937e-01
-4.418766392730015258e-01
1.371698572609011957e-01
-1.054062054106583296e-01
-3.026801731546752694e-01
3.149007422719634630e-01
-1.050135990772097794e-01
-8.093443564326881223e-02
-1.423324076129308668e-01
-4.271727676852823258e-02
-2.266099528835250915e-03
2.224597445655190076e-01
4.169257629929358777e-01
-1.838190451473512704e-02
-8.848349635742588926e-02
-3.385962915532041428e-01
2.551062424057297037e-02
-3.784130008597418326e-01
1.403767338693761579e-01
-3.949885117457432315e-01
2.157737186780797900e-01
2.048370084169383043e-01
2.400023429712068168e-01
-1.791886904089972088e-01
-3.289021666448036507e-01
-6.844115940365855799e-01
1.458218702816432844e-01
1.170069212356160404e-01
-4.561903913066289173e-01
8.420876293666533507e-02
5.662671022953857936e-01
1.827449354348086585e-01
1.855654906871206100e-01
-2.861117023323789255e-02
1.242352698421779755e-01
3.922690638229538451e-01
1.395580593614522136e-01
-3.837461959873129103e-01
2.877916669114876647e-01
-1.559168984510098943e-01
1.948702238992778557e-01
1.453047758479332485e-01
1.765046284055959147e-01
-2.635477045626095083e-01
-3.052097328034119039e-01
-5.811987920594315765e-02
-5.267996846498759211e-01
-5.652579188875547223e-01
-7.514878058425412954e-03
5.563002317082912374e-01
2.085584356923184390e-01
2.818316936395998673e-01
3.132292897110627861e-01
4.934204268810373772e-01
-1.594142012381339069e-01
3.911489772274549803e-02
3.619975095983284930e-01
7.702708812000553795e-01
4.479786409112591072e-01
-5.852074258591748457e-01
-3.206707152243011838e-01
1.716894753089238390e-01
-4.042809636323668188e-01
6.673154678737877599e-02
8.401038423833663907e-03
3.200437574126724360e-01
-5.614835110525425721e-01
1.945409724379423000e-01
1.953431501011964888e-01
-5.347234250245440634e-01
-2.519004573584522899e-01
1.804807854039938986e-01
2.580930952931985156e-01
2.337599356900707526e-02
6.789724641281484618e-02
9.889196392485953557e-02
3.331892717068989929e-01
-1.677402498716549506e-01
-1.714999629347234433e-01
-2.906906418890515820e-01
1.403228818295325087e-01
-2.419734817901416507e-02
-3.671049417686766403e-01
-1.698359704205133769e-01
1.839739300887722750e-01
3.056292639911203368e-01
