5.631698980705873714e-01
1.531814909002031377e-02
8.082602359563587080e-02
1.613765890359771249e-01
-5.046924271455556221e-01
-5.702155194796824089e-01
-2.712692246266377727e-01
-8.691252849929084756e-02
3.348304621419067040e-01
1.626485294239587709e-01
-9.763156165130139341e-02
3.025977946225100745e-01
-1.693022234694653572e-01
5.409576065677759171e-01
-5.745618936713454694e-01
-3.655526078565982107e-01
1.252400996379079284e-02
3.371284835502279531e-01
4.763469593253673307e-02
-5.433134678996081462e-02
-4.196975783074128885e-01
6.807320352271020725e-02
1.283372112184391067e-01
-2.342359876447554223e-02
-4.311893656937558772e-01
-1.491299117115731446e-02
-6.166096450297655490e-02
-4.524136653867505964e-01
5.824098655548000103e-01
2.802843724902607248e-01
1.651999063519720146e-01
-1.498936652483897625e-01
-3.828607221816004436e-01
3.321651112487573609e-01
-2.859184681252774363e-01
-1.610759579952222159e-02
5.170118751446566019e-02
-4.664249516665024825e-02
1.048893867657250262e-03
3.188441656148682246e-01
1.721599551705172149e-01
1.337548543352821973e-01
-4.825022796785502499e-02
5.365262307864132607e-02
5.338456867269103512e-02
1.713019824719028139e-01
-7.117675375272713989e-01
-3.479693807397343797e-01
-1.876934617996012522e-01
-6.729301455902292339e-02
-2.288676205016340059e-01
3.789767553772764863e-01
-2.447669416384848085e-01
-3.995454600441468440e-02
1.148490294137145401e-01
4.547124762854183322e-01
3.064023245044744659e-01
8.523576569553401594e-01
-2.674916824300632712e-01
4.530334822276644302e-01
-1.066518008722546207e-01
2.854719650500103789e-01
2.569827470495798794e-02
2.000730732859987843e-02
-2.005994651387183192e-01
3.949869784603088907e-01
-5.229736641539788344e-01
6.302640546783579989e-01
-2.327377681043726332e-01
-1.548755651006996359e-01
-5.799929527540302610e-02
-1.413141119320476258e-01
1.792422886692576767e-01
2.856152317370416194e-01
6.156994298011224387e-02
3.989200047471370969e-02
4.354013926791747702e-01
8.927988794338087564e-02
-3.908032326112255150e-01
4.865936180185638504e-04
3.118503336416285632e-01
-9.576360225366288559e-02
2.605314478119872268e-01
2.561683043402576132e-01
1.683381108496531664e-01
3.130300801445402015e-01
8.549484239078911640e-01
-2.495584324786459252e-01
4.096981814264967214e-01
-6.006546737777820333e-01
-1.507461751059317179e-01
-1.897984501364678445e-01
8.142807742420632433e-02
-3.290549116892643733e-02
-2.545102139798320340e-01
-5.977723952560857340e-02
-2.192733560685034000e-02
-9.312561404469142656e-02
-9.180729075972061948e-02
3.279565068748737655e-01
-5.441231761575807679e-01
3.028401129102831213e-01
-1.668379203062088367e-01
2.214570485938388011e-01
-5.040347367472495232e-01
1.580050348765725254e-01
-3.471052594871264496e-01
4.817869292043825968e-01
-7.190034373691296665e-02
-1.458657722529420331e-01
-2.361986477744191792e-01
-5.667022940963303279e-01
3.882258498927296797e-01
-5.326560733720636653e-01
-4.428995803927147923e-02
-7.394833649170828860e-02
-2.540500224917795480e-01
-4.337185566521219171e-03
3.769021311347228037e-02
1.299641585637070079e-02
-3.872224519455314540e-01
4.861120757191184638e-01
3.186069154983258711e-01
-8.282844067405117916e-02
-2.372777626961745101e-01
-6.148986587721957386e-01
9.748953123962547651e-02
-1.962555923816338144e-01
1.513579349514915795e-01
9.147572944404464002e-03
1.981482899351512672e-01
-6.000289913844232548e-02
-8.154605386191784988e-02
1.255288214731855034e-01
-3.551059933492373699e-01
-3.911180769819712078e-01
2.290457000193060755e-01
3.596682695116144579e-01
-8.604233638078762070e-02
-5.423138897734242070e-01
-2.018844231748024298e-01
3.181040066931122012e-02
-3.057906223288203162e-01
-3.560298878287173618e-01
4.855327103800690658e-01
-1.634749223406870289e-01
-3.994984094865222102e-01
9.884529818396442513e-02
-2.002920489343515131e-01
-5.265747561809897004e-01
1.855994337658254112e-01
1.633478296072303493e-01
5.658344403231032604e-01
3.616910439622755824e-01
2.667186751713066517e-01
8.685055785059435374e-02
-6.461467558358844343e-01
5.081097207230359514e-01
3.695431507944145211e-01
-3.823710209166727991e-01
-4.548461963864607327e-01
-2.271517117380160988e-01
2.524546830344754356e-01
1.614165085466779392e-01
1.930909211623597077e-01
1.322029550669590048e-01
4.262861729640381181e-02
-2.669331193879603825e-01
7.567061910567335348e-02
1.144638597069541075e-01
3.754422639264751727e-01
6.859022000482942888e-03
-1.219921146700517212e-01
1.202192320460781505e-01
2.135215855616843239e-01
-1.318326863307747177e-01
-4.400499751460093534e-01
-3.612070612002081793e-01
4.582290097527318418e-01
3.513160591267325827e-01
5.813116813069212352e-01
2.838276666409794702e-01
1.635002662732836995e-02
6.224547096543181501e-02
6.569202349366005944e-02
-1.297539167942978189e-01
3.886540251988789829e-01
-4.210427154919493264e-01
-1.188733114553049003e-01
3.860876193651859301e-01
3.553794014623231634e-01
-1.364591684432724383e-01
-3.020038330351856870e-01
-4.231406819480330594e-01
-4.648622568733137284e-01
9.387859050392126370e-02
1.663102213445159239e-01
2.113751411563858096e-01
8.366007088535869218e-02
-3.058389420300627881e-01
-1.051399195977130163e-01
-1.585081412057923744e-01
2.868888168482418566e-01
6.446554105454241901e-01
-1.160466134225904417e-01
2.301515919663555398e-01
-3.179748894546753912e-01
-1.304438377190838549e-01
-4.404911423292282024e-02
-1.206894905276703206e-01
-9.746425505777689402e-02
-1.238415043297738244e-01
2.744107717124088519e-01
9.248695271665861861e-02
-1.870862917966921168e-01
3.038380417016604551e-01
7.915056129878116076e-02
-2.636865636131894286e-01
2.606123362433818702e-01
5.388652098171418103e-01
2.811168836313792663e-01
2.359482080430793521e-02
-3.495572652554541915e-02
-5.188212943455647874e-01
1.111029399948445240e-01
2.086547585442246472e-02
1.970631234466072024e-02
9.219112234353371571e-02
1.693370129054714845e-01
-6.296840911121089901e-01
-5.120797207376575066e-01
2.041783015156132253e-01
2.636140372343572236e-01
-1.259793723004327681e-01
1.886630932215576373e-01
5.056485629238429702e-01
5.672498441092930221e-01
1.090677886074230274e-02
-3.755539321103304462e-02
-2.049475895285494259e-02
2.198223324844701676e-02
7.205540318125240595e-02
-1.277609290478976811e-01
-5.662870317154872213e-02
-5.053112207624059493e-02
1.748988207839824102e-02
-6.371859132639104417e-02
6.447989382646183293e-03
2.275887366923586286e-01
-1.695810320803477211e-01
-1.558452467923189706e-02
1.433659130108337898e-01
2.081501941872449246e-01
2.011526528393812463e-01
-6.251700558507918004e-02
2.277844833130466262e-01
-3.522317592368262584e-01
-1.207786114653432510e-02
4.085473833461500948e-01
-1.320790715269748450e-01
-2.664506416823761992e-01
7.822951870085759207e-01
-4.097007347106811775e-02
9.811965740266027913e-02
2.127595271561230905e-01
