-1.361302630483955112e-01
-5.801465159680753159e-01
-2.453726385304944857e-01
-7.612657923169178220e-01
5.378279857284899990e-01
1.779107352465310876e-01
3.566643071024039324e-01
-2.255517077731020725e-01
-6.055324083960450521e-02
-5.462107079699378698e-01
5.726053708515574936e-01
4.288620411878590888e-02
-9.406961097102782554e-03
-1.118804336456165893e-01
-6.930641929714964622e-02
3.634055473705816164e-01
1.541936127800005440e-01
1.393902774591906923e-01
1.699730176276395555e-02
-2.868740068702254620e-01
-3.576341777939459066e-01
-4.341583689838194315e-01
-5.254010041666998948e-02
4.591520490714130487e-01
-5.856991019473600096e-02
2.913455260237843292e-01
4.898590914749956921e-02
2.189076019323232813e-02
-3.014330656309712198e-01
3.284010853520950013e-01
-7.020375678159624933e-01
-1.291034071250151405e-01
-2.334450174085040131e-01
-1.299873293026508336e-01
1.608758703765963971e-01
-3.334994140365062365e-01
-7.562588894662444772e-02
2.253824658361615330e-02
8.141205956068363336e-02
-4.239179493564781964e-02
3.493050446199406911e-02
9.098441603921929299e-02
1.260116559526392732e-01
-2.446872721681083718e-01
-3.355372107472463089e-02
-1.138857046666744560e-01
-1.506538020216524054e-01
-2.642197587127270153e-01
-5.501342086300053946e-02
7.186892640894917972e-02
1.921412586594773431e-01
4.739181069543068059e-01
2.551169386937905403e-01
-6.317807014744394878e-02
-2.618574083579631173e-01
-3.614892595078793291e-02
1.023259541484306256e-01
2.692890843793428052e-02
5.733354244516778442e-01
-1.794826299846856710e-01
3.816773217025835607e-01
-3.804665163603047073e-01
-2.878454085788402228e-01
1.075138183243626866e-01
3.498330597110836382e-01
2.568401836658485982e-01
3.226738875731690048e-01
-3.325668798009416283e-01
-1.011069332423910061e-01
4.865558927099268849e-01
-4.441241039997321782e-01
4.764026543032893191e-01
-2.192036034692374236e-01
-9.399584712464738312e-02
6.619593904056708666e-02
-2.398282694888619337e-01
1.549555567064418160e-01
3.583658741182310092e-01
3.668927119350545163e-01
-2.430318917548021304e-02
-6.976941366749769835e-03
-9.800177037498750132e-02
1.113031784233120824e-01
-2.153770786286536565e-01
3.187297978542162347e-01
-1.025015818764443004e-01
6.497168525487317936e-02
7.584961709750784875e-01
-2.566592005351291395e-01
5.394638994477444216e-01
-3.484124426186450130e-01
2.751692614182296159e-01
1.419842791526110537e-01
-5.985388213720423817e-02
-4.140957672584341109e-01
-4.088345145842837702e-01
-2.684104423508136897e-02
-2.177234811951325733e-02
1.257665799636854542e-01
3.104396464493578423e-01
-3.294558214778275373e-01
-1.385491321872577702e-02
2.006155633764981072e-01
-1.635721639147345308e-01
-2.135853211400353113e-01
-2.463352740506429273e-01
-6.835996883321159012e-02
3.081237271628833874e-02
-5.547830505154759395e-01
4.148660200012919130e-01
-2.369642633070470072e-01
-1.234557264583962116e-01
-3.534607837708085842e-01
-3.019757075988400707e-01
-6.139721791746689805e-02
8.428698589948070696e-02
4.592496687417437218e-01
-2.840205077789949295e-02
8.495156148908605820e-02
-5.518891622984796186e-01
3.116189864071126636e-01
2.471672847824136210e-01
-1.201444398677092712e-01
-2.486558853412871029e-01
-2.382570810502537828e-01
-2.353564166160077020e-01
-1.162292889168577981e-01
-4.539285275375554152e-01
2.872443872174470503e-01
4.424262702305214456e-01
1.281848984606750452e-01
2.889393122705170014e-01
-9.917228731618665805e-02
-6.298158197336696240e-01
1.494721166577511196e-01
-1.269428404317246052e-02
1.586339111264673529e-01
-2.148075881520028207e-01
2.759570481943631748e-01
2.099139838265112745e-01
3.863109135404575456e-01
6.306829891652158127e-01
9.138512640816717769e-02
5.467448417588911536e-01
-3.712619208234810286e-02
5.963470610735271960e-02
1.587501368117347211e-04
1.307073825394052813e-01
4.732605287765611624e-01
-3.249641890847648762e-01
6.266611085125377567e-01
-1.799962465258725108e-01
2.565313086231310047e-01
-3.612429806207662630e-01
1.167740014745473343e-01
2.467851086234679192e-03
-6.443753066081778225e-02
2.316578068951996028e-01
1.838217301533715542e-01
-2.172687494593371904e-01
-2.016836800136460328e-01
-2.024486580328221930e-01
-5.672709528481515440e-01
1.469728718332912187e-01
-3.538190875886849662e-01
3.042493751210683661e-01
3.443592434616701836e-01
1.335617667972217315e-01
7.509929091015084268e-02
-5.016864444664939082e-01
-5.151260807736610658e-01
-8.506577034395293446e-02
1.374880486207643582e-01
1.232066148536223593e-01
-5.031463496851837358e-03
4.143814867100193422e-01
-7.299891454499350674e-02
-1.368312072662195705e-02
-5.887327666554456052e-01
-4.722127546710351842e-01
4.042522044687408833e-01
-4.323732839165056463e-01
4.777494592238280546e-01
9.861389767701784770e-01
-5.204489887170189039e-02
-5.723530921113194614e-01
-2.307071581071808986e-01
-4.182932459339459008e-01
-1.767126134491931455e-01
7.781191025873743783e-01
2.095906145899756323e-01
2.072688721510501930e-01
-4.497891952780268265e-02
9.364547911304421657e-02
-1.931887098570359285e-01
4.192930996693914891e-01
4.747379035554144533e-01
-3.721342480360612104e-02
-4.740527496196887403e-01
-1.218367173156642558e-01
-6.208817620877559174e-01
7.134999478713736909e-02
1.141686974830077583e-01
3.805356937779708071e-01
-3.301131078806561203e-01
2.059000735707934571e-01
1.854419238980457574e-01
-3.711291441849492445e-01
3.360096090730952390e-01
-1.091485472141321411e-01
-2.891986223319291394e-02
-1.088803723859232964e-01
1.955110388535419297e-01
1.131891198414866906e-01
-4.194759103406197620e-01
-3.614412526474675147e-01
3.056837157838768193e-01
7.026342664224036194e-02
2.544907975450280690e-02
3.079633728340427923e-01
2.470151669758841595e-01
7.808047718647502800e-01
4.691589447178447225e-02
2.734396282954276725e-01
2.201283472643086048e-01
3.984271143709607055e-02
8.034829686008820859e-01
1.577766320580049897e-01
1.273867825329731696e-01
-1.680635108790705656e-01
-3.183219044368450490e-01
-6.826136051822574435e-01
2.212869499609604607e-01
3.247211966275417305e-01
9.263221435315938113e-01
1.047533052891528316e-01
-2.985512366801459927e-01
-1.438265365372591864e-01
3.998628181784824598e-02
-2.269775095460471737e-01
5.883559003906447815e-01
1.266189706199964682e-01
-2.653635356954632540e-02
3.265120595318998786e-01
9.210871731347440583e-02
-3.238909579684304263e-01
-4.431437877224359001e-03
4.050784260178065810e-01
4.131627776714861255e-01
2.161099973050216727e-01
4.149324590085699122e-02
-1.999075997707851493e-01
2.242100287748055032e-01
3.438118905016104287e-01
3.461042934030502671e-01
5.236478188758690866e-01
-2.639558007652517690e-01
-4.415181139320749626e-01
1.920731418040837885e-02
-8.559912047506040844e-02
-9.880848595629735387e-01
-7.568231202528685753e-02
2.022400245287691023e-01
2.148504969580597446e-02
-1.838396908298722265e-01
