-5.576317031436277549e-01
3.771191523169122872e-01
-1.439660769612548796e-01
-5.843831420288947420e-01
1.369671179467294719e-01
6.214121446448518382e-01
1.210336912212201660e-01
5.313104188793899008e-01
8.805546174730705111e-02
-6.597539712993524263e-01
4.561417202261058845e-02
-4.703632752171008624e-01
1.096722006260602983e-01
6.427614729368650304e-01
-2.150159975823094302e-02
1.659425779953527247e-01
-1.459735593708480772e-01
-2.799131994909249688e-01
-2.056531601599382864e-01
5.138025383712369054e-01
9.349426544805458095e-01
6.548879719769948315e-02
6.018962437080015160e-02
7.155398013182452839e-03
-2.609085983406333673e-02
-3.496072249874433990e-01
4.306903283478936140e-01
3.660836027887153232e-01
5.122207576051457378e-02
1.958338211909317339e-01
-8.562597488221609932e-02
-9.962779042807552721e-02
-3.109366103984328444e-01
-3.979143997648711406e-01
-6.184070825306975383e-03
1.157337788475712448e-01
-1.831049819721342620e-01
-2.488280161797405410e-01
1.073921941312526440e-01
1.738116769896017877e-01
1.337058167045830082e-01
3.313217149006189577e-01
1.112745072934034907e-01
1.930391664846197730e-01
-5.777544612456476658e-01
-9.263839875012556957e-02
1.247329395846125677e-01
-2.032705327248830462e-01
-2.313650079375731416e-01
-5.056256809990198470e-02
2.376278272527759250e-01
-1.903484650400590061e-02
4.737647342540232120e-01
4.764873550633689780e-01
-2.259788958795341529e-01
-7.445437346175448612e-03
-5.149198001523540985e-02
1.429341684790025602e-01
-4.084768683109535892e-01
-1.125868616416783596e-02
-1.964288207755877369e-01
3.994677561092505741e-02
2.454676759299568300e-01
-1.154524604816921027e-03
-2.131360594641861783e-01
-3.915236959896639668e-01
-4.325895571660052230e-01
9.316494562459590734e-01
3.096288318561971065e-01
5.336161549609116928e-02
-4.448993903121132854e-01
1.788796478457686523e-01
-1.201013368796995662e-01
1.232390066995280864e-01
5.778068693278234358e-01
5.685642883992834129e-01
-2.399539505111592530e-01
3.560726451239684121e-01
-1.554689071802047851e-01
2.123295983186376801e-01
1.521865583994436721e-01
-2.508950007971911256e-01
-6.679538054985202644e-02
-2.682027068871239428e-01
5.623925889382394572e-02
-1.106251293518108331e-01
-6.792809237311878134e-02
5.206529486421584973e-01
4.296751405294532145e-01
5.006724829919837472e-01
9.166312073697782115e-01
4.492703298149736124e-01
7.746830234582813279e-02
3.979148917739508962e-01
-4.412489901783289148e-01
5.004515956202793686e-02
-3.728611701597822070e-01
3.552537379546276131e-01
6.225118356737092268e-02
5.887233869983387047e-01
-3.449303947020483374e-01
-8.110901554644994738e-02
3.073353049277608925e-02
-3.850064870103362957e-01
-5.842654937887682420e-01
-1.692505241951117456e-01
1.453737888092156982e-01
4.916834016006624286e-01
-3.112942160350800624e-01
-4.272213832294893820e-01
-7.135778264956307848e-02
5.098133422028787720e-01
2.679866377090814877e-01
4.389908768367777325e-01
-1.353824265844687513e-01
1.483999575498718693e-01
1.833553086559629453e-01
3.513290559470583219e-01
-1.294341905658849268e-01
-9.339694905324999463e-02
2.103991301198120945e-01
-1.831262528269821943e-01
1.118797776933657395e-01
-4.079241324518226297e-01
5.072877765072150158e-01
-2.711507234352835694e-01
3.608868519932976748e-01
-3.699017546564792314e-01
5.760311270030729278e-03
-1.893198841369873875e-01
6.631512273160469206e-01
-3.994973644061615148e-01
-3.304270650782272778e-01
2.851245656291949704e-01
4.088792834781411478e-02
-7.715705026721092138e-03
2.309221986883764483e-02
1.167341057077311145e-01
-8.341172716325374603e-01
-2.281884422171363835e-01
7.285493633803766245e-02
-3.459088729278548269e-01
5.301246834090839188e-01
6.479958550339885714e-02
-2.552742062400548684e-01
-5.548760406185844207e-01
2.372475085983943022e-01
-3.861963662740760389e-02
-3.960038754030870134e-01
-4.692766855761574818e-01
1.675543760121802062e-01
-2.737936890411798441e-01
2.625489558574363169e-01
-4.725383836117005298e-01
-7.657487396029069582e-02
-1.331776934323730954e-01
-1.807686902211876889e-01
-1.137158675879725023e-01
1.675314865558496513e-01
-3.383878445116185185e-01
-2.136299157252678424e-02
1.853514129483305739e-01
-3.298324922481053467e-01
-2.186338585796081257e-01
-4.004675915223183669e-01
5.864493765712864848e-01
-3.574652456937658929e-02
-7.241954375932448118e-02
-1.879321171063708384e-01
7.508387744079813020e-01
-5.903665436313362824e-02
-1.102633856751229074e-02
-8.245676105313776150e-02
3.316232975985142772e-01
5.472719500488144595e-01
3.652321921514394276e-01
-3.642789806585920998e-01
-2.970440562332396506e-01
-7.619583264764515085e-03
-1.017160529576258271e-01
-3.703598454545234397e-01
7.855303814979190946e-01
7.975879657155847402e-02
2.801873737691459310e-01
8.640553479469489928e-02
4.220040842257105629e-01
7.052963283333134326e-02
1.513189917285171771e-01
-2.453486354818764092e-01
1.731206639922167057e-01
-6.088181037126441653e-02
1.109748553016916828e-01
-1.027033384046152353e-01
-1.515098061565759713e-01
5.897476848895720491e-02
-3.896292020424949598e-01
1.265301705933208620e-01
6.289937209405599416e-01
4.401027837126000875e-02
2.541249145669399745e-01
-6.434408286547702027e-02
2.544976185716622819e-02
4.988375291421786040e-01
4.292990014453362257e-01
1.273999866312083562e-01
2.716943021510986878e-01
6.971565282937035313e-02
-3.300568063070863367e-01
3.047197716825205890e-02
-4.599059131110175280e-01
-2.797256094732054055e-01
-5.252772376492702566e-01
6.500141429120523950e-01
3.113602155730235133e-01
4.713971047996596275e-01
-2.771318636066685270e-01
3.346905176668787396e-01
5.412787698905337924e-02
2.258213777484489593e-01
-3.882748591445139841e-01
-6.351346795376814347e-01
-4.613540150683828056e-01
-1.123652184593684072e-01
3.475031639925009741e-01
-2.847027782383076966e-01
-2.385809879897264618e-02
-1.919735645424045234e-01
-6.543961128860610599e-02
5.353123456266407204e-02
-9.093831254806789000e-02
-8.371412718220283544e-03
2.382451491151026668e-01
-9.497360754221451096e-02
1.663363359345082504e-03
-1.314291444964187094e-02
6.059804985802202948e-01
1.008406650896064849e-01
-6.474891787305285529e-02
-2.710759661511190632e-01
3.705548474233640310e-01
1.671056892729474996e-01
1.060630468159442508e-01
5.483341277181699724e-02
-2.664546999613503497e-01
-7.830263738568894738e-02
5.121304617244513968e-02
-9.099685628857333286e-02
8.223430836505783714e-02
-3.726071254362111618e-01
4.986047929951274715e-02
3.015554628185634911e-02
-1.580279302060703661e-01
-3.832239880431423384e-01
6.088638802580115250e-02
2.360706182750434839e-02
-2.884695765680355128e-01
-6.356086069471588162e-01
-4.409550375724641952e-02
1.621065927859607070e-01
-1.474506095167020803e-01
-1.386338543161077796e-01
-4.762307343942357579e-02
5.373823884619906011e-01
7.767788371359732325e-02
8.846692996954008681e-03
