-2.495877929455003752e-01
5.637918138681246444e-02
4.084263654119449360e-01
3.857044336578940857e-01
2.719451700301902530e-01
2.506048221417394029e-01
-8.672900787720112803e-02
4.778231029443316680e-01
-2.129662506315896375e-01
2.717798109281055474e-01
-3.653053865277220424e-01
-1.418255912869944291e-01
1.021269521594468099e-01
2.857834235672849221e-01
-2.289378326546477327e-01
1.972409520496185564e-01
9.179096676114720244e-02
9.657774924563926333e-02
-1.164647971946986410e-01
9.187125236513363213e-02
-1.149151612042134535e-01
2.279810435929643386e-01
1.964002422800615599e-01
2.963181189051922182e-01
-4.631907889321121991e-02
-2.521692315095241249e-02
-3.771511970613855569e-01
-4.240243048644966595e-01
-3.475224950657622158e-01
3.903656073065565890e-02
-5.981356267212514233e-01
-3.212583478633604384e-01
-1.583370510422106303e-01
5.471259401966740432e-01
-5.480535129409722650e-01
-1.619032334876116530e-02
-2.207998832145286749e-01
1.845854436772885812e-02
6.467463235895767881e-03
-2.082074020836393591e-01
1.471528209294529765e-01
5.558037152373755951e-01
-2.114727023970266462e-01
-6.744445575745072752e-01
-2.478178828824602886e-01
1.156906950162783776e-02
1.401836916931971100e-01
-4.571710209673516268e-01
-5.154399583696962078e-02
-7.979230319494329260e-02
1.807398643047432030e-01
-3.166949389363934997e-01
1.254124103620284647e-01
4.460701696585365750e-01
2.629563815433269558e-01
6.769654873296250541e-02
-3.756712550218206381e-01
2.063675346643617514e-03
-5.012777736150300090e-01
-6.692179960076617695e-02
-1.830034574176737650e-01
1.524917579678860546e-01
-1.176486957492915986e-01
3.302543651068755026e-01
1.356045936358761805e-01
7.566884601067455640e-02
1.932606493580085044e-02
-1.077074281327566746e-01
-1.387926043935614473e-01
-2.952381016602683150e-01
-3.652999311028526930e-01
-2.423100737250326042e-01
-8.999096072532117296e-02
-1.972564781894524388e-01
3.965337955692697092e-01
4.426052437490229363e-01
1.197424916150103269e-01
-3.231536412232448585e-01
-2.612671525210422674e-01
-3.178241603257425663e-01
4.577983738963306570e-01
4.600838038708958133e-01
3.015491411586678633e-02
2.559305297543129076e-01
-2.484929084371353403e-01
1.184623061492150187e-01
1.097050656944892066e-01
-2.356251556151888193e-01
-3.569251436969161917e-01
-2.989606644802201285e-01
4.033733188703757244e-02
-7.496683154111466463e-02
8.158254463527489508e-02
3.457405286469033001e-01
-2.403469212400294042e-01
4.721353912181489587e-01
3.528123122331822126e-01
-6.409336448669935692e-04
-3.345499423323003430e-02
4.213105945696057897e-03
-3.492673714553951037e-01
-3.492329612755251111e-01
1.197048850053573921e-01
-4.260499942938469203e-02
-3.959747462124592055e-01
3.756684065739409606e-01
-9.881383661707457411e-02
6.568454660736936512e-01
-1.262614120749614433e-01
5.753093421174288596e-02
-1.442664321335541122e-01
-5.614341686418933275e-01
-1.830882160380189194e-01
-7.769750456577284581e-02
-3.735932880738967454e-01
-8.166599574934847450e-01
6.754751855669206551e-01
-1.185514820410939613e-01
2.644998454295180434e-02
-2.286418772171865121e-02
2.489106183985186349e-01
-5.886037204732558203e-01
-3.248159282349264987e-01
-1.451372663243398475e-01
-2.748332681651096676e-01
1.029101675403211180e-01
3.369638826988797797e-01
-1.353147924344314801e-01
-3.039356152011859491e-01
5.920009492854848565e-01
2.857953443709376762e-01
-7.520932029064154589e-01
-2.681767610204377483e-01
3.044130039466553805e-01
-9.305573088221434641e-04
9.588811580433548309e-02
-5.054652798937528946e-01
-8.353496335882990009e-02
-3.505991301311111585e-01
2.104039424722221607e-01
4.687651945657341779e-01
4.133487444756370199e-01
2.309408734613659364e-01
-2.864354878639890356e-01
1.299466892110176242e-01
1.848315660239477631e-01
4.746165871191471153e-01
-9.410013673230803455e-02
-8.770885278742605873e-02
5.142761167113270027e-01
-2.120500058719173020e-01
4.513899272068622737e-01
4.761757680619754796e-01
1.269786018197380240e-02
3.814158310178614730e-01
-2.916928269024516851e-01
1.451781100941409719e-01
3.746254638578837282e-02
-2.561385432087676661e-01
1.367019929515211063e-01
-2.280954663193826837e-01
-6.315972228580756243e-01
1.720946864584801395e-01
-7.392300228581952237e-02
2.575677084263190419e-01
-2.474380649195179194e-01
-1.516607290369621774e-02
1.380111866133336418e-01
-2.156727218688396785e-01
-5.777656933362167874e-02
6.207488576237221167e-01
-1.095813227672531448e-01
-9.999635616026289475e-02
-3.430669840984563734e-01
-1.330205102734104972e-01
-2.629804168310436174e-01
-1.385159945949628602e-01
-1.802723664161555439e-01
1.550779785680141687e-01
-3.049234608796734802e-01
-3.669282945954941422e-01
7.115812845055931035e-01
4.360560054967838051e-01
4.711963878795871752e-02
4.199537896521593483e-01
-1.542612346707684101e-01
5.962586331574060150e-01
-3.777758262289189761e-01
2.133249367277902375e-01
7.872963766453797141e-02
-3.599338869412368469e-01
-7.187482430448179915e-01
1.331298887993975222e-01
-1.276004011581225173e-01
6.608670525653684291e-02
3.958301038605808730e-01
2.942767819471394652e-01
-9.963780448196327133e-02
7.434407181407778897e-02
6.822450707973044814e-02
4.289257695113806584e-02
1.956050440141440527e-01
6.295939591492930587e-01
-1.498547684052374263e-01
5.586475532517892750e-01
-9.159308065137462818e-02
4.183364310993042956e-01
-3.163021369434755869e-01
1.182540089304918024e-01
8.197637888889642843e-01
2.265518432402326421e-01
5.551273636628308028e-02
4.798861532757403570e-01
3.372723834159434275e-02
-2.651355308958602275e-01
6.551672703538069520e-01
-5.482295693825601779e-01
2.121294862692389704e-01
6.099218756208243386e-01
1.177302344260194172e-01
-2.991590322330226481e-01
3.380583927649855047e-02
5.235731166257350244e-01
1.007594959612842234e-01
2.528202505271590073e-02
-3.143242576779453623e-01
-4.448986820832087075e-01
-4.357015337904462937e-01
2.813538253622934748e-01
9.214354061981968602e-01
-6.760438261147404260e-02
-1.392376214592998540e-01
-3.315105537326660801e-01
2.401110025574184070e-01
4.091780016132642306e-01
4.087253980766770711e-01
-1.996110912586858965e-01
6.598078996426334775e-02
-1.769616436917059721e-01
-1.354315236128564859e-01
-1.866984933349929987e-01
1.139450204387274929e-01
7.955342570310350858e-01
1.901845688244682420e-01
2.043280890254005056e-01
-1.626004859991108109e-01
5.117571808361549568e-01
-5.922739116290608452e-01
1.153629614635234280e-01
-3.604609935753989025e-01
2.666005478775254275e-02
-1.286620551871244245e-01
9.387297873838402751e-01
2.666293278478052420e-01
-5.978130026651563844e-02
-1.914103061389688665e-01
-2.933088931384204567e-01
-2.337045828245584433e-01
-3.179216244064233532e-01
2.615876968168469596e-01
-3.346913800842725717e-01
-1.462293044834759859e-01
-3.622781283833989008e-01
-6.955935687065625816e-02
1.248846976695435484e-01
