1.314805832980525946e-01
-2.658901375650292442e-02
2.358809359498902081e-02
-1.292661820390845484e-01
-2.350461675897005942e-01
2.759819204048231667e-01
-4.146746369117998432e-02
3.473476681544986899e-01
6.337306837161876816e-01
-1.432448079708966426e-01
5.893108827570964214e-01
-5.943400314137615714e-01
-1.546854946556109334e-01
1.405912729652369561e-02
-2.272827833180992296e-01
-4.699764893295347856e-01
-2.591765440582322402e-02
-1.165748482591572877e-01
-1.972158056178721086e-01
-1.776873012144778163e-01
1.604547512663717090e-01
-3.654613570742980544e-01
-2.906135553137975114e-01
4.347030895614779622e-01
-2.236573551776992463e-01
-2.357431947122943239e-01
-2.106016745110871891e-01
2.084707483380093540e-01
-3.491580362023988804e-01
3.959844320397580275e-01
1.951177888552161899e-01
2.374483010898308100e-02
2.440964931545020755e-01
4.769630007903870039e-01
4.863564278295313126e-01
5.424323286695985624e-01
-2.448643127146978293e-01
1.905395797458545593e-01
-2.784013220792667664e-01
2.292676942439450249e-01
9.306306534446882883e-02
1.829169243149713908e-01
3.806846554985229142e-02
3.967618015807325427e-01
2.249575935416304184e-01
3.069074915334965015e-01
3.298853576866622728e-02
-4.025690794287606344e-04
6.726450186157736932e-03
-2.491100651620001272e-01
-1.661621795543431479e-01
-1.914195073167812289e-01
-1.234793455746059365e-01
2.062535767463470268e-02
2.588449205423927757e-01
2.389571573062483356e-01
-3.704668270911130601e-01
9.853856006166714088e-02
-9.292947554478102334e-02
9.285298469186954035e-03
-6.902412432954074806e-01
4.045343219220216557e-01
5.269737827027777266e-01
-3.651340762904144444e-01
1.917949161406914127e-01
1.112254748094389512e-01
1.168049513733475098e-01
-4.441353313287551563e-01
9.738250558396514822e-02
8.810322120322253148e-02
4.186320192196482659e-01
-2.833746293405913219e-01
2.837644372908897927e-01
-1.685544574184832944e-01
6.272998645661040373e-02
-3.672412165760857716e-01
-2.189990158011611010e-01
3.461348046815312940e-01
-1.876822279946517846e-01
-2.561106497560701745e-01
1.796004916084836811e-01
1.219475716842044893e-01
-3.755679223790837212e-02
-6.678505872626314677e-01
1.200253210070308246e-01
2.136333483354620755e-01
-7.143771108023162786e-02
-3.481309309047709438e-02
-1.765913761605986121e-01
-2.492212339592251025e-01
3.663426028570159754e-01
1.365620550294938396e-01
-1.082990769047440793e-01
2.064331058419569542e-01
8.102092005280095988e-01
-1.202303289176057666e-01
-3.724498985749703506e-01
6.791816262893969613e-03
-4.460247543017290539e-01
2.820364092683232959e-01
-1.420623408957979450e-01
5.316094187166762325e-02
2.488849660891839233e-01
1.836887817758727226e-01
2.055790902057394454e-01
8.024588074052367848e-01
-4.071497452250805171e-01
-5.115973626115203482e-02
3.366662603109678020e-01
2.454199247657368743e-01
-4.128967540511206680e-02
7.892387277811342694e-02
2.098954687052923540e-01
-4.488730181607069047e-01
-6.378959079098024676e-02
-6.692426406576315601e-02
-1.257083579930613482e-01
-7.077145647395537142e-02
1.268194484925952992e-01
-7.889714541297852823e-02
-3.602274663319338655e-01
7.812874815620896030e-02
-7.101277764327618147e-02
3.114155903839538678e-02
4.998380900247441083e-01
2.646197713371407079e-01
1.428771706839309097e-01
-6.267183269323868267e-01
-1.381831924268617784e-01
-1.980683153803332597e-01
-8.099768811994424722e-02
-1.893778099428214401e-03
-2.629373468550408321e-02
6.254140833919850095e-01
-3.678730422617594309e-01
-8.776457698708491073e-02
2.354206843535439769e-02
-5.015276322354517147e-01
6.755546039560862692e-02
-2.565531784657840153e-01
2.085393019714832930e-01
5.857192134558239505e-02
-1.470733784990190807e-01
-3.092040015389080354e-01
3.245918983146516279e-01
7.675987716059662347e-01
-6.503316962312641336e-03
2.052822088360695130e-01
1.879000505891663675e-01
-1.812583647310862453e-02
2.830963934481047217e-01
1.160146437090970456e-01
-3.904671105500325812e-01
2.784227927160226601e-01
5.763424115415479720e-01
4.434095000002992171e-01
-5.824902726856584501e-01
-5.602661862020347217e-01
-1.056045355932886259e-01
-2.006185277073625761e-01
-5.328048619535521446e-01
-3.235709709604922546e-01
-1.162760121681299941e-01
3.422930565174129858e-01
-5.076159410957473694e-01
-1.492962686078913859e-01
5.129326849634837648e-01
1.559641041586492249e-01
4.667940638390178920e-01
1.665249250651865132e-01
9.952840124793053966e-02
-4.222190114103842040e-01
6.775269258444763798e-01
5.145939461811083887e-02
-8.842842193299286363e-03
-3.194839528259475481e-01
-3.039106846142332341e-02
1.295857110991793515e-01
2.885578168810890576e-01
6.377385748130275367e-01
2.162388625272315401e-01
1.931375040398212728e-01
1.648340211495837870e-01
3.091644334078454959e-01
-2.913783020009557134e-01
2.563886512833334352e-01
3.898787594165813164e-02
9.049180545922477781e-02
3.654925012821387542e-02
-8.118524058346653360e-01
2.096253797052483603e-01
2.934061355569024254e-01
2.494500327975298359e-01
-1.311754532416425090e-01
-6.363185622124486462e-01
-2.973628113071387080e-01
-1.952320310211831944e-01
1.047901820288198171e-01
2.826948202829477341e-01
2.669743398393749634e-01
3.549975951538352215e-01
-1.072061112107649261e-01
5.983777060898073374e-01
-1.295176887250726327e-01
-7.267469079777447161e-02
1.739617589483938576e-01
3.655044813730064512e-01
-4.238313966622782314e-03
-5.827742047956780969e-01
7.176931118717637392e-02
-1.531300627286039662e-01
-1.492821492282229157e-01
4.645860389077512420e-01
-1.547938939083872423e-01
-3.666308706335610346e-01
1.597855120872193890e-01
-6.056977482994938544e-01
2.739274315643070445e-01
6.472362872432693148e-01
-2.906779882366808399e-01
8.403552403903408186e-01
1.719502636209210567e-01
-1.486329580455572966e-02
9.348559490308694375e-02
2.812573024659156817e-01
-1.495462853719761037e-02
7.510939797439698529e-01
-5.832363128023874133e-01
-1.281250989654730832e-01
-9.187713264197025498e-04
-1.548881638890524937e-01
2.500804176825092984e-02
2.207652701870475853e-01
2.759992206918555069e-01
-1.173002080849798456e-01
-2.378725557057310702e-01
-3.460626329002892687e-01
-2.169062413868168976e-02
3.362127575739889962e-01
-1.638502274619866306e-01
-2.201075799123123344e-01
1.664976672234786126e-01
7.534390963036437239e-02
6.821527016402381682e-02
6.969106162975241547e-02
2.062946466388264344e-02
-2.045272226348380795e-01
7.077835082281273005e-01
1.454571181682715875e-01
2.757837932143420989e-01
-8.864193458075508847e-01
-3.180690763765990359e-01
2.171413825489423854e-01
-1.874761573907572365e-01
2.751838681166389466e-02
-7.817435714284962089e-02
9.707914793042136947e-03
-3.345634208793394904e-01
-2.001826491828436749e-01
-2.208343641504512123e-01
-1.698283376341194195e-01
3.509502793613376859e-02
-3.471754364635707968e-01
-1.712863902770466185e-01
1.607124568033668766e-02
