-3.340575182477700245e-01
-2.103954572073922780e-01
3.640102124418840290e-01
-3.431736906521986596e-01
2.164292305763020896e-01
-1.303222179493858206e-02
-3.426297616942618890e-02
-3.118357880917487380e-03
-3.518443832406394356e-01
2.598712050986128758e-02
-1.773766839478505275e-01
4.935716978215198836e-01
5.059822850425963470e-01
-1.988062812731458684e-01
1.595847488195887010e-01
-3.968831176754228918e-01
-5.853657686629452073e-01
-5.768331939412780357e-02
1.343078121463744772e-02
-9.726361241109629518e-02
7.538484280531466963e-02
7.261925987263563309e-01
1.762578315200213075e-01
2.053402811627169089e-01
-1.459581918081956642e-01
3.761053191125015016e-01
3.299166395613974401e-01
4.299909162354173531e-01
1.542984278088930516e-01
4.030399394764856980e-01
-7.388815215177223505e-01
2.434282977819891489e-02
-5.189809239490427578e-02
4.247867039728939198e-01
-2.137545748940202772e-01
1.538124949485291382e-01
-6.449071874511663749e-02
4.616432369362219457e-02
-5.633990789461362780e-01
-5.190434100489695890e-01
4.191569333849516354e-01
3.426897899209317613e-03
6.018521355425977826e-02
-1.749962950619614321e-01
-3.593956403391380672e-01
-4.524804464116605196e-01
-8.448770289353824126e-02
-6.077732422341461382e-02
3.217983148174832775e-01
1.539601591960203519e-01
-1.496065569677134666e-01
-2.564026532861369834e-01
3.491172000195855163e-01
3.456860012018881517e-02
6.662747561168583799e-01
3.456758313495595369e-01
-7.803626498876010086e-03
-4.220771212832453156e-01
1.688520170169752199e-01
-6.730323044230857032e-02
-4.675139566609994857e-01
-5.943412386274273818e-01
5.359344276395108242e-01
3.207325620814345246e-01
-1.253512828402750245e-01
2.228630996717659019e-01
-3.484323818578711207e-01
1.000780937480538618e-01
4.000437693189505539e-02
-1.239331439951025793e-01
2.568454892288106750e-01
2.701075765958935171e-01
1.637605781802929650e-01
2.686297198198011604e-01
-3.030262090423997690e-02
4.818155949727813414e-02
-1.210190104954715906e-01
8.059887025554575424e-02
-1.466933636370929273e-01
-1.555499816102217381e-01
3.970263644807987546e-01
-3.728323123245404908e-02
5.726685923896916719e-02
1.492681660330806570e-01
1.356979985127499677e-01
1.325365701884358982e-01
-5.776410943924581431e-02
3.486696761489324614e-01
5.241035545589289857e-02
-1.965956223624650279e-01
-2.997290996997016843e-01
-5.103160706077808362e-01
-1.229003879080199646e-01
-1.862350994966383844e-01
-1.184527631133863446e-01
1.352781697994719090e-01
-3.877557420523426723e-02
4.070610430640554389e-01
-2.165200914336126159e-01
-9.398274446327336065e-03
-2.910453014836737462e-01
-5.346210057341083122e-01
9.196778677796592083e-01
4.819738286847010111e-01
-7.526215035552146458e-03
5.773987846464075924e-01
-2.377097053665791493e-01
-1.176006284340292141e-01
-8.014520550227437201e-02
2.658070425893999666e-01
-2.275727143024152133e-01
-2.189961926300278694e-01
1.328610292647646740e-01
-6.956233486314330854e-03
-3.781205281670193402e-02
2.002131229851313310e-01
3.238831347270759164e-01
1.591943372134242349e-02
9.834650172414517721e-02
-2.818052660584397517e-01
6.685361495764091666e-01
8.629937804480204699e-02
4.527010084443611193e-01
7.483590589027162843e-02
-5.618451724850715562e-02
-4.618201101808323550e-01
4.278859343650538993e-01
-1.442985285571054543e-01
-6.707754670273781139e-01
-3.746365759594426081e-01
-1.438612407321447351e-01
-4.024906075909079339e-01
5.823017274223271089e-01
2.596013319610713244e-01
-4.519336815468207869e-01
2.271553128931705912e-01
8.103670390780946808e-02
5.513066219159735125e-03
7.776973452833567044e-03
1.933575939886342521e-01
-2.665125535910060073e-01
-2.315318616951339559e-01
1.155470911455588751e-01
2.190061215365285419e-01
3.541985790573377590e-01
2.962327756726336192e-01
-8.306934443915445221e-02
2.809395623148889798e-01
2.468260281644742427e-01
-1.112524945904926205e-01
-1.620113193999004053e-01
2.831369352239752057e-01
-1.072587645645074056e-01
1.049511501959803778e-01
3.562850940791537080e-01
1.395013965169938364e-01
3.479000142846966903e-01
3.358541215569108007e-01
7.075103396362490693e-02
-3.956036296479371016e-03
-1.810130030838860704e-01
-6.449965818541857077e-02
1.030355769837534158e-01
-5.255274084588405087e-02
-1.949219191056233147e-01
8.441542373430098445e-02
4.887677331193575336e-02
-3.123067795684035253e-01
-2.260182772030565057e-01
-9.428058924738157154e-02
-3.162870572771761535e-01
-7.331764083621001848e-01
9.406536001201289132e-02
1.968590720945352646e-01
-2.714803645079220118e-01
8.202598578985607902e-02
5.367353148065046042e-01
-3.324851099673306609e-02
4.483353674131876909e-01
-3.500380323805557525e-01
-5.178617015431557363e-02
3.328104087725116123e-01
3.977393094636934578e-01
4.363379134897705791e-01
1.813974948651744523e-01
1.741092453955741248e-01
-3.377131270915836869e-01
5.550364119166893984e-01
-4.283869568525693339e-01
3.371076998131122826e-01
1.248578313980152760e-01
-4.182223308713038379e-01
-5.337045068781131052e-01
-6.579983664563004986e-01
-6.645131057742952041e-02
-2.668686049102447222e-01
4.600249626899801658e-01
-1.343872152166822598e-01
4.651967735312277918e-01
1.252686232221770501e-01
3.356133988514393707e-01
-4.087063013920007315e-02
-5.836018180825436330e-01
-8.658117150579253130e-02
1.416087364624685763e-01
3.276822238320662994e-01
1.260753667577582671e-01
7.816494444638417971e-02
-5.514866866085308406e-01
1.869245736244810052e-01
-2.892718083200102042e-01
2.186880101193815484e-01
-2.534225354348317305e-01
1.377394928420521691e-01
3.236067280351120901e-01
3.707671949155348368e-01
-7.680161935399311135e-01
1.947167504563553364e-01
-3.192726156011875260e-01
-1.833694224014724150e-01
-3.769425019732625670e-01
-2.867617757547100688e-01
9.014782590149676700e-02
7.828409995765014950e-02
5.449569964145046796e-01
7.503306683382309460e-03
3.045379899407961791e-02
-2.039239652052232399e-01
1.145317424272070950e-01
2.044194921199601056e-01
-6.710315045135868683e-02
-2.890035894581654552e-01
-3.456355209615551427e-01
-4.308081993466216231e-01
-1.789735654374011442e-01
-3.343127793903685196e-01
-1.167535663827276304e-01
-5.826915840730607921e-02
1.775002760649112554e-01
-2.266896311292202204e-01
4.030183559317209729e-01
1.088766876928775468e-01
-1.563261052312227006e-01
1.112524796599876908e-01
-4.158269021801181548e-02
-1.337198739666901059e-01
-1.970376125275868362e-01
4.696700732283964341e-01
3.201022991937248208e-02
2.595131438508660460e-01
-1.466779809513268640e-01
1.415507263271659766e-01
-3.906959978256806520e-01
3.743724396919741459e-01
-2.252896896251454506e-01
-7.079888322607469364e-01
-6.070647074535698851e-01
1.075278691743939002e-01
-1.293628206979925699e-01
-1.704846516633213085e-02
5.044428192693585222e-01
1.020820076607232285e-01
-7.059233248017454665e-02
2.915790281131760975e-01
1.365041102914228421e-01
