1.644115231917002984e-01
5.477988729617631058e-01
-5.079704259632454866e-01
-2.912081183826235598e-01
-2.767143462287272732e-02
2.425406002810950590e-01
-1.519528913416453852e-01
-9.630114439029865969e-02
-5.700916050518821665e-01
1.631664653448768043e-01
-4.423844344102235149e-01
1.670963797731873368e-01
-2.899373428652982088e-01
3.065126280731889086e-02
-2.001735031735673853e-01
-1.262732371140699861e-01
2.284980340972929055e-02
-2.236890074033814624e-01
-4.314341976550495339e-01
-2.459347406679248393e-01
2.443572663262758293e-01
-3.034543156346350412e-02
2.068524300834466978e-01
-5.077060876673153977e-01
-3.518793036925697728e-04
1.922103788327792773e-01
-1.790416790783651291e-01
-3.383881183974354195e-02
2.803108604302306794e-01
-1.471819018288170015e-02
-3.004145625485903914e-01
-6.789970372526855924e-02
-4.078660074469646069e-01
-2.962285314143669468e-01
-3.408171117819556173e-01
5.087781414214765929e-01
-1.356779275694343923e-01
1.184574148615843703e-01
5.432859971733747795e-01
-1.653912516997624038e-01
2.056529400811017150e-01
1.577998789333140695e-01
3.658205581526110528e-01
-2.689438019256690238e-01
3.988203217712972815e-01
-1.662823812910507737e-01
2.632698927397190136e-01
-4.493541299284818380e-01
-2.827372960210095543e-01
3.158989672919655933e-01
3.533992229524707263e-02
-9.130502841646764844e-02
-4.769803054508006124e-01
-4.652872169174293235e-04
-4.603077462175783618e-01
-3.484214122431067984e-01
4.337263449112934710e-01
-1.463313062387922026e-01
5.113676596723687462e-02
-1.334661464919891238e-01
1.065516164180716485e-01
3.253789789525235454e-01
2.778772179244499152e-01
-2.019925638594443351e-01
-1.257768771547307374e-01
-7.251051589492726324e-01
-2.233504384931181072e-02
1.735749269186032395e-01
-6.100611986574907553e-01
-7.155415625693984927e-01
3.326494149991424815e-02
1.608267885729533497e-01
-3.588936156128433308e-02
1.090652082770487696e-01
-1.618292476265283941e-01
-2.792197008229002977e-02
2.693893504925299887e-01
1.057562663752955878e-01
-4.554964862908976175e-01
5.633027825692918933e-01
5.852174634789562152e-02
5.170190741426459180e-01
1.785556334454034833e-01
-3.250575926202012300e-01
-4.238313523222735912e-01
-3.469889658500026619e-01
-1.078965342094988511e-01
1.603554964048043707e-01
-3.187031813276616776e-01
4.759467825124976681e-01
-1.723946679784850722e-01
5.161320132754363549e-02
2.687619985412819101e-01
3.369056028627074317e-01
-2.242102212421664131e-01
1.459292147805000064e-02
3.107612729906041316e-01
-1.883295884530643630e-02
7.777425397764645143e-02
-6.669784264663736195e-02
7.844664912408180202e-01
2.004848051468408610e-01
-4.808953166824812137e-02
2.150493344304094390e-01
-1.551319287092396415e-01
-8.754343829864856888e-03
-2.269030839537997668e-01
9.659495835113977857e-02
-3.675122053315540982e-01
5.997145009799093561e-03
1.904155791143904708e-01
-2.866649338141129960e-02
1.895067679050000953e-01
-6.165642906884400559e-02
2.218889415206610205e-01
-1.592830119708468495e-01
4.247382158503800187e-01
1.337115268805538493e-01
-4.711639204048712060e-02
1.180488070117752392e-01
2.192022623047809038e-01
5.089596844277236576e-01
-1.330793521310257854e-01
8.808361215786855714e-02
1.868619886729273316e-01
-3.136406590789400650e-01
-1.216518389504077369e-01
3.510024752083674149e-01
-6.115177934785573366e-02
2.737753501730172401e-01
4.311686036207057482e-01
1.010254868042690518e-01
4.089128184254198217e-01
-9.151531203750658261e-02
1.690215843281796249e-01
-1.790631752745398819e-01
2.379556111302692234e-01
-1.969570099423971765e-01
5.861773093879319996e-01
6.418991815620413155e-02
3.900497005225065511e-02
4.967623763980296703e-01
9.277026248538283726e-02
5.149769634354989245e-01
-1.943417361947231969e-01
3.052992222595446448e-01
-5.336965971609113762e-02
-1.501956547061362446e-01
-1.825278084876615081e-02
-2.438611782525797744e-01
1.081282873052749754e-01
3.940528245161757648e-02
1.090618355374017995e-01
-2.244603884480987077e-01
1.340144248708575181e-01
3.338788483364991261e-02
-3.776940105055166530e-01
1.915716635144914803e-01
2.421848296878269247e-01
1.288383166214421838e-01
7.019043649849570077e-01
-2.119477666351383127e-01
3.925597286759112681e-01
-2.525699620472224849e-01
-6.129274118171460506e-01
-3.725262696500335480e-01
-1.363978745662466907e-01
2.628579062890267215e-01
2.289360699606828864e-01
-1.369959863817130086e-01
-1.425837228306750248e-01
-1.653886779167232646e-01
2.497581549912125110e-01
7.309274325487919999e-01
-1.928442171687164697e-01
-2.638060800483293944e-01
-5.063634069996174603e-01
1.821218850446065518e-01
7.407090574987865161e-02
-2.684024825831655692e-01
-5.758352922582722355e-01
-2.712140441915165123e-01
-4.267694273702498653e-01
-3.974148518858299783e-01
3.647582757789635810e-02
1.664125532528112628e-01
-2.721236871358214127e-01
1.099904468041629779e-01
-1.292704015550919516e-01
-1.090278483713863489e-01
-2.159473491392703004e-01
-3.009663505813944817e-01
3.394590931754672969e-01
-2.149798284393593384e-02
-1.617269493443877770e-02
-1.789477616206519017e-01
-2.570895569214190490e-01
7.574032735637077629e-02
-1.519845571001436912e-01
-6.269412679455234338e-02
6.238347316925825503e-02
1.875201309948202610e-01
-2.033427843808440771e-01
4.091295117779377710e-01
2.583680993519418823e-01
-8.708087726587503130e-02
-1.328099229432403439e-01
-3.044119567208867783e-01
-2.030699029111987242e-01
-2.415944032528208607e-01
6.922797008944786556e-02
1.342948605636803128e-01
-2.901450679525183762e-01
1.365774489740186337e-01
-4.178996942312802054e-01
1.657602778950529043e-01
-1.659502190869267257e-01
3.944894912712462731e-01
-9.525864029099059826e-02
-5.561771797900141312e-01
-5.221667254459442242e-01
-4.243769101258711429e-01
-5.729542210458450358e-01
1.372143152925816012e-01
-4.133480970223290391e-02
-5.937197709891122582e-02
-8.144233416786669788e-02
-1.873088981149228227e-01
-2.234011572715002558e-01
2.276895768811874055e-01
-1.922783727000621987e-02
4.709387006791629360e-02
1.642339697094536144e-01
1.299295324048027611e-01
-1.159162710280569747e-01
-4.037403213661714951e-01
7.200738047246282858e-02
-5.761686929562207515e-01
-6.868272903069023126e-03
3.852229216676090195e-01
5.171716138412059405e-02
2.117113873636284616e-01
-3.322789621586966780e-01
3.292300680399818380e-01
4.694732626255853081e-01
1.167755620923314336e-01
-4.191697621808090357e-01
3.987406665185994625e-01
7.195097153918043886e-02
4.909958757017147124e-01
1.296828468089000486e-01
2.004297681941633047e-01
-2.824038013342617948e-01
-5.113488121848477896e-02
2.531705849627927662e-01
3.642903038374026847e-01
-4.080745242926384075e-01
-9.801092656283164062e-02
-5.426747096269095294e-02
1.025598543498478094e-01
3.495032325111229604e-02
1.984499880173252739e-01
1.281961536098908672e-01
4.927233685564777477e-01
-1.845056534357021050e-01
