-3.014385729652649393e-02
-2.527629193477917147e-01
9.362452048621928979e-02
6.347601838621463877e-01
-3.117513323713544948e-01
2.215883384798981171e-01
3.190900734130485139e-01
2.191780495261300421e-01
-3.006052704977663775e-02
-2.536361327052062409e-01
-5.884281993190484950e-02
2.516163363584510426e-01
-2.312955498523553421e-01
4.996466938603241759e-02
1.195008875670900833e-01
3.529376037839402347e-01
2.167843060954253720e-01
-9.317929588196914581e-02
5.077233950485566805e-01
2.512354849075422170e-01
-2.853429818077862778e-01
-1.923048089684757378e-01
-3.507249755716618234e-01
1.718385021897196330e-01
4.169860974005372423e-02
6.008913236966838545e-01
-2.899340499782856462e-01
1.798107337192277055e-02
-2.568119032019094417e-01
6.274260411527212700e-01
3.344675492990687449e-01
2.754592338435878918e-01
6.809083997652323750e-02
-4.395659693625957321e-01
-1.653013469882013420e-01
-6.208983569588556461e-01
-5.778822877295111127e-01
1.568137625823681769e-01
-2.475155070962588577e-01
1.612014174877713923e-01
6.490048126477452328e-01
1.565863726096236308e-01
1.443105085595946802e-01
5.069190132108716274e-01
-3.729866979815749800e-02
1.383623738687587701e-01
-3.173003319999816441e-01
1.869069451500006140e-01
3.588855664424585590e-01
-3.089821410831005907e-02
-5.195364762256664548e-01
1.003052521044291434e-01
-1.418354651930224530e-01
-4.676563765148257779e-01
-4.764484315921106994e-01
-3.449766994791870767e-01
3.489379759059172414e-01
-4.673027344586259679e-01
-1.270642311163377725e-01
-3.767385953537468191e-01
-1.089684862609084232e-01
3.070894939790534683e-03
7.102897942519323382e-03
-4.292927645871258413e-01
6.115259363453703217e-02
-1.445649245166383545e-01
2.737840493035984535e-01
2.352555130776475545e-01
-4.988190482209373111e-03
1.788508837206907454e-01
-5.720503870660458706e-03
-7.738107045951383989e-02
2.442511144660508560e-02
4.105849882789257554e-01
-2.773250416693972542e-01
-4.647972305521009262e-01
-1.270635027668818584e-01
3.208325136641623221e-01
1.444770861217983537e-01
-4.263931926686228557e-01
-1.528719761243801378e-01
4.440994108477466229e-01
-5.759579545478117346e-01
-4.263322771301508718e-01
3.957815398425525433e-01
4.683608082940052264e-02
-1.372813611318944582e-02
2.836912800548490043e-01
-1.487041238713787683e-01
3.876407396412947515e-01
-2.991586508059987937e-01
-5.468247521611869361e-02
4.471195361008034053e-01
-8.080204122938236533e-02
-6.045776664217152874e-01
-1.499577771646086188e-01
-7.899954073173078017e-02
2.057147562063148249e-01
8.572124840272077329e-02
1.326652869815969915e-01
-4.912302595998693233e-01
5.961606501250799051e-02
-7.223984203480351973e-02
-3.500371812712389508e-01
-6.606532875637645130e-01
2.311505964083789555e-01
4.952763195214598957e-02
5.480729363465361992e-01
3.152172480616909356e-01
4.020176503675048085e-01
-4.241129677799436726e-01
-4.105198411122742419e-01
-3.199563899796397659e-01
4.886369637952384104e-02
3.173663259327890729e-01
-2.986713405426573154e-01
1.579027721169186660e-01
1.277963902480400427e-01
-1.655678441881471008e-01
-3.186124702428574373e-01
2.072821367384838909e-01
-7.503350957390407527e-02
1.987677071091218106e-01
-5.988203660917714721e-01
3.339082265138936800e-01
3.507497391343818438e-01
-1.005270247687409246e-01
6.408950497549817937e-01
-1.999389823989904114e-01
1.686905450933910977e-01
4.681639426038739504e-01
2.089964036607629416e-01
-2.152305143696482681e-01
3.826353159294836742e-02
-1.435922310230997034e-01
-5.930741449792354958e-01
-2.262114098491014302e-01
7.320542341582191304e-01
-8.550699536970490788e-03
-4.878159337354767144e-01
1.561096638252960633e-01
3.733740466260612179e-01
-2.496864938177535687e-02
-2.437336671597225002e-01
-4.877320908395463839e-01
1.821027145394142344e-01
1.671016007848409868e-01
6.500568269285127154e-02
5.253861683438646457e-01
5.322363766552686004e-02
4.466524068679978421e-01
3.313077883566548087e-01
-5.190716758826761090e-01
3.653314576105173850e-01
-5.801537851343292473e-01
1.097209862243608419e-01
-2.793925897283824344e-01
-5.451389361115388521e-02
-1.311242000644649575e-01
-7.814254533849528395e-01
-2.620586345566358610e-01
2.606585389920403895e-01
-1.172526077466677641e-01
-2.868261875950265938e-01
-9.471772533174546704e-02
1.539009910835895389e-01
4.953113953759769733e-02
3.081099914701592724e-01
-3.927352803076599175e-01
4.433686169727501514e-01
-1.832489489246028613e-01
-4.323528109168454092e-01
-7.625045411944887663e-02
-3.456470289957236375e-01
-3.546000441896866029e-01
5.847407729893296935e-01
4.315441758371291736e-01
3.807224145015503103e-01
5.639093402851540482e-01
2.238789753996069665e-01
-2.037570527796937064e-02
-9.022091575139989938e-02
4.668622535711121624e-01
1.659325300378990675e-01
2.539748112043615502e-01
-2.209984855586094032e-01
6.433988331441736763e-01
1.318984346596554225e-01
-3.039831527398674793e-01
6.366494082880790051e-02
2.546949245246239446e-01
-1.105154133656008342e-01
-6.768600645748515388e-02
-1.527173978947997945e-01
-4.503232463441298461e-01
-2.824926333070220119e-01
-8.478858418243623296e-02
1.519518159860948348e-02
8.512667931046872249e-01
-1.046698943011843685e-02
5.926131749566994067e-01
-2.124580322339550964e-01
3.036446811627665499e-01
3.204595780383529546e-01
-9.716024155316874689e-01
-1.659135079672105495e-01
3.420925205768818311e-02
9.816393443832352461e-02
5.402989308917272027e-01
-2.406341603253894790e-01
-1.044180960961901689e-01
-2.504168956770761456e-01
-3.437984515242150096e-01
2.142935255690157081e-01
-9.319357220440961653e-02
-4.921403786502298594e-02
9.929108228060541663e-02
4.291554107805996554e-01
-1.130780860068585636e-01
-8.214017381566079620e-03
-7.656531541075659031e-02
2.404817714400715734e-03
8.488027012107110525e-02
1.477142786914346917e-01
1.145689631432626338e-01
-2.801799755800870595e-01
6.025768198174551449e-01
7.233725723397092799e-02
4.429916440066340722e-02
-2.555685159943607010e-01
7.374368310682289929e-01
-4.453333848676562234e-01
2.743023653571683429e-01
1.346449723366513473e-01
-7.666537232492708354e-01
7.481788166775799054e-02
6.347684714454960853e-01
-1.641117829697114339e-01
3.468061374561747789e-01
-8.660052884496956260e-02
-1.148908828514810278e-02
-2.079056806398184576e-01
-2.353296982290025152e-01
1.438581476261459047e-01
-1.613655661224571991e-01
1.854939841634689612e-01
2.018442573798522877e-01
1.806824224394253664e-01
4.125494769167103448e-01
-3.522445215788763684e-01
-1.940425669950238130e-01
-6.046111728829201004e-02
-1.717376788876015525e-02
-1.728455637107735310e-01
-6.180769739494856169e-02
-1.894937715168676928e-01
3.009897251371175808e-01
2.152589122900848972e-01
3.353067093043933244e-01
5.465722294155895833e-01
1.244766934973033090e-01
-4.522746379220952684e-01
2.487199126190835496e-01
1.552223012502622068e-01
-1.613443565786443767e-01
