-2.766003757350328218e-01
3.263853725766607261e-01
8.374829296424135539e-01
-6.003774539217117401e-02
-4.308213704466470340e-01
-1.417783560185008895e-01
4.479710851697579765e-01
-2.808207403934675495e-01
-1.329061174424396308e-01
-6.884035683843625630e-01
1.226917991386756827e-02
-2.013735051602871806e-01
-3.063469268386412314e-02
-2.472201285225978096e-01
-1.909455261696533790e-01
3.567987643450618584e-01
5.922130056528852604e-01
-1.032980046469616497e-01
-1.284331849871861164e-01
3.602051879241233850e-02
-1.652538587732738651e-01
2.124322669135044750e-01
-1.306232686093718003e-02
-4.462294714647730975e-01
-1.646954229500793010e-01
2.610165542712413189e-01
-3.798025075084060509e-01
-7.725515833703110180e-02
1.616611381339676801e-01
2.377553209853940919e-01
-1.608709260214064574e-01
3.169758748458441078e-01
2.425729797688515321e-02
2.249680481924953013e-01
-1.830798539237700751e-01
3.067698945723912884e-01
9.205244854693341028e-02
-5.817517680917872781e-03
1.139017656851934734e-01
-3.865767282835706753e-02
-6.502440898927396018e-02
-3.249933834595494231e-01
9.406511134377304462e-01
2.396400240065708620e-01
-4.125854786610115843e-01
5.176128219947581099e-01
5.926755691297411754e-01
-1.381835942782356774e-01
-1.949232640238514683e-02
8.804284350198211817e-02
-6.610133435291695725e-03
3.428145505268653803e-01
3.846988454155662041e-01
2.158774302914324150e-01
-1.419943052959109497e-01
2.782757360241960853e-01
1.618829988661961775e-02
-6.696850206022006424e-02
3.049414222994627499e-01
2.291472304749207212e-01
5.938527379119811211e-01
-7.305371950984314300e-02
4.575797615208728186e-01
6.494265922434829807e-01
-3.473179416951657772e-02
9.567252261506736799e-01
2.912810887283930894e-01
3.613121913182686940e-01
1.916501826812243015e-01
-4.872555088959231590e-02
-1.412414207515076958e-01
-4.206058830633631063e-01
2.573612753035490752e-01
-2.690563965451497896e-02
5.402168519792866636e-02
4.409640923239338539e-01
8.370012946877780635e-04
3.181163940322000450e-01
2.125155638630346622e-02
-1.515905796222752344e-01
2.911970765040335918e-01
-5.884190691197687534e-02
-3.938817812062365142e-01
-5.581319785007705925e-02
-6.424497916624601068e-02
-5.267902321332503801e-01
-4.949008390004493441e-01
-1.791117389956422556e-01
3.655946121121169679e-01
1.131078443865208422e-02
-5.904152193750661359e-01
1.675452333225906920e-01
1.157560583772573731e-01
1.957103522009196184e-01
-4.186746998454080743e-02
4.064931937011267427e-01
-3.903312546798839988e-01
2.665388297171556453e-01
-8.956401620396604868e-03
6.361363751822601831e-01
-6.776284861731983744e-01
-3.779640514465505419e-01
-5.841312228087514741e-02
-3.692154326403939563e-02
-3.814195585387113452e-01
6.009856838322386735e-02
4.429501311816340103e-01
-5.339590968332971199e-01
4.458898207439297989e-01
-1.188544303390410284e-01
-1.670798717876086081e-02
-1.669177190696421176e-01
-8.069918140098703008e-02
9.380317362647376533e-03
1.071195651771815749e-01
-1.125502198227745602e-02
-4.492212930021020900e-02
-4.521467125053973413e-01
3.689027910112998576e-01
1.012722824195734506e-01
-2.357962110765846886e-01
-2.350857307188210787e-01
2.428436220486113184e-01
4.107131310153658288e-01
2.776740627625967628e-01
-2.127851400691540551e-01
1.004562816077064352e-01
-3.223388139020070264e-01
4.468311217619731490e-01
-2.950646611006895736e-01
1.413366080564334992e-01
3.974364580917195966e-02
1.094928594986144116e-01
1.818216344258546391e-01
-1.034932047164880131e-01
-4.065072620316869667e-01
1.378210388823206990e-02
6.062530006126014281e-02
-1.972408707224705682e-01
-6.036330700959539053e-01
-5.539172960571691062e-01
-5.610746550127142240e-02
3.080314336947796716e-02
-2.118984465385014004e-01
9.715697643093738900e-02
1.887066724373188120e-01
2.729150639368615461e-01
3.716490364485944831e-01
-1.877218561934206054e-01
2.200268290337416000e-01
1.324154965031976439e-01
1.735735350398986132e-01
-2.124918195528398557e-01
1.924616610406867240e-02
-4.508388911469234372e-01
-6.281531969349444244e-01
-2.056006380024070768e-01
-5.484864451197198898e-01
9.022692109203424293e-02
-9.506164569565864197e-03
2.172646744324477353e-01
-2.500201855330277945e-01
4.592746622859213979e-01
2.962970437035364890e-01
-3.962753357300297097e-01
2.018439331562193184e-01
-3.716971210953201599e-01
2.864259718253226450e-01
-3.165795705655590209e-01
4.648072865932232345e-01
2.784298266576628045e-01
2.020231455025665313e-01
-7.608287714985786931e-02
4.418547479642053188e-01
3.653337440730795582e-01
-2.516538873486764971e-01
-2.507340894052942915e-01
3.547802459945813558e-01
4.472185448280419778e-02
1.537182997617583813e-01
-5.755576473513644986e-01
-3.038133851857183210e-01
1.444991260625007046e-01
-1.633502689511507344e-01
-4.775729481211511973e-01
-1.056397570007286402e-02
-1.503952082570414739e-01
-2.395050302300629208e-01
1.207625827592868906e-01
-3.436452206592872094e-01
7.759031543601047076e-02
4.450234263809830781e-01
5.290869131744606324e-02
-9.045569255071786441e-03
2.241432825810160678e-01
-1.923922111705411719e-01
-8.793286351043108628e-02
4.123741924704644179e-01
-4.681744523886314790e-01
-1.489304650268397645e-01
1.510438180806674968e-01
3.228554587507576068e-01
-7.650545548170686883e-02
3.771371801870867513e-01
1.161231286389572681e-01
-1.482924450242167624e-01
-4.301659540512730584e-01
1.915327646592065169e-01
-3.883584966930986315e-01
-3.867322397022764924e-01
1.629286736592903267e-02
-1.255456369090162949e-01
3.218799198886998503e-01
-2.225457006442637109e-01
9.416072893300941882e-01
-5.001673590104388500e-01
4.097415172111995574e-01
1.115112579255470443e-01
-1.301505431730097806e-01
4.051738922125615316e-02
4.266108446075324023e-01
2.704006536967196173e-01
-3.756976719280327170e-01
-5.072704009432106587e-02
6.711595277699181246e-03
9.014584280308381159e-02
2.346398611667676604e-01
8.672322802086129823e-02
5.241252112891536807e-01
-3.716770757915268675e-01
-2.434546251400753203e-01
9.780412787699874211e-02
1.896999320119876209e-01
-2.689462418775098174e-01
-2.159678420651475472e-01
1.933682986182748975e-01
2.356940281153999395e-01
-2.640416081029090534e-01
1.986335720307639274e-01
-4.317230763378210878e-01
-4.612142451202059790e-01
5.139518275510586154e-01
-2.560795795430557131e-01
-1.481515761737141057e-01
5.532426981203056870e-01
-7.451604411972125863e-01
-1.439264286281454787e-02
3.642211828571547128e-01
1.183967896170866341e-01
-6.805771473292979851e-03
1.895132398329220369e-01
5.428370216614883947e-01
-3.087645858949803479e-01
2.354799382745199343e-01
1.340085552195078300e-01
4.759430547583218263e-01
3.157706536193542746e-02
7.567007009538426199e-02
-9.758980012223396339e-03
-2.517976155527847371e-01
1.118810392236141149e-01
2.565386646684262306e-01
-2.585981848080023959e-01
4.332765642081665147e-01
-7.540272358935329322e-01
