1.854630511861428410e-01
3.316578600227639007e-02
4.709835456760814165e-01
6.203085937246190923e-02
3.191343076876155815e-01
-1.399405631944648093e-02
-1.413366975466444075e-01
1.537271475416194799e-01
1.172320816474363148e-01
3.872293253509288546e-01
4.426474214061285745e-02
2.522275167898689330e-01
2.582486049290924068e-01
-3.547711980035844065e-02
4.552058046449771744e-01
4.251919685276890348e-01
-6.077930764204417802e-01
-4.229903519696282532e-01
-2.081555139701425916e-01
-2.391731763272282041e-01
4.037713677775432997e-01
-2.668385421465493956e-01
1.017809990592699609e-01
-4.305586792078320846e-01
-1.209296017548425889e-01
-9.767595517599326760e-01
-1.279658020686338937e-01
2.558768763823016656e-01
2.624402528319282335e-01
1.148828690466594526e-01
4.998013533199346242e-02
-8.521762620383380171e-02
-2.521784536603119964e-01
1.105294392758741084e-01
1.251716472010539760e-01
4.898074078802356346e-01
-2.612209939100981759e-01
-1.966649149843657796e-01
-6.853673161695948701e-02
-5.086988823576008012e-02
1.049695917379652871e-01
-4.475719141157847303e-01
-1.273856935974936044e-01
2.544491837481405727e-01
1.725864940719314816e-02
1.358464374213181891e-01
3.907883870858042674e-01
-2.418551987376718615e-02
1.127000708398178119e-01
-4.531978178647885214e-01
2.941660404089916359e-01
-1.477504634926771199e-02
-3.427748435094408186e-01
-4.351639551295885533e-01
-1.101439528628538611e-01
1.463481317576162399e-01
-1.947114986575506634e-01
-2.789948593248049447e-01
6.536459854185115541e-03
7.787944604750483835e-02
-2.365985073566231889e-01
7.124599215675995190e-01
-7.820943603764883845e-01
-4.520835769344720423e-01
1.818674932279356893e-01
3.349884298559349105e-01
-1.402769062185969806e-01
-5.115208779293156649e-01
4.312236630469465926e-01
-1.766193995883059420e-01
4.410572783291925036e-01
-2.179126423604825502e-02
-8.670143945853058254e-01
2.928030831813351886e-01
-1.376427936519380724e-01
2.069836501229493919e-01
-6.429425815887931384e-01
1.985903242398338597e-01
-6.568337802819267102e-02
1.348274718184840903e-01
1.267599114640864943e-01
-1.140285773516431511e-01
5.669096254423225401e-02
8.601589565794172387e-02
-1.069791253527406505e-01
1.008458014961178539e-01
-3.432990663313296720e-01
-1.900412117351204522e-01
-3.497229858121235491e-02
4.106469156267797960e-01
-3.140868762505877876e-01
1.699049154545999585e-01
-1.883897567949572027e-01
1.271732869838153035e-01
-3.451717869937261374e-01
3.324234453071325812e-01
-3.641041841314700545e-01
6.082346876737388941e-01
4.597536904639856203e-01
-6.141653273098203469e-02
-5.360240142824184151e-01
2.352029269030149194e-01
1.526746608299210939e-01
-3.570175066949267673e-01
-5.294789149246034721e-02
1.717615981816781878e-01
-1.920815289426257566e-01
2.829447318723380955e-01
6.403517325165924978e-01
-4.220212742303048881e-01
-1.377663681573841337e-01
-6.103219759963793845e-01
1.285288763359072328e-01
4.835807738590948146e-01
2.645058128934801855e-01
-2.955139641432887876e-01
4.962229911983004893e-01
1.178364118859286658e-01
-1.054676388557412164e-01
4.742730041655532913e-01
-2.013304849082619141e-01
-3.965324514034621606e-01
3.053947665257180089e-01
-1.635326970259821933e-01
-1.369212961920269755e-01
1.863557573102400389e-01
4.156984950891527975e-01
6.023838941170880923e-02
1.520662824131872037e-01
2.313148329546752674e-02
1.785755201398897540e-01
4.609479187800342159e-01
2.035456397532466044e-01
-3.551974397546128204e-01
6.446593282086630905e-02
5.581569069530590843e-01
2.113917744462347204e-01
2.439486755585628108e-01
2.334184686211961679e-01
3.306866209975244386e-01
-3.915322649128000765e-01
2.137317443399477657e-01
-2.313946971292972776e-01
5.307701675057021479e-02
-1.110263346902713305e-01
-4.119805745815750819e-02
-4.901719927195722915e-01
1.489179041873126275e-01
1.611647553747645734e-03
7.529209154179569707e-02
3.928824599961145414e-01
-7.770599823361930281e-03
-2.641492562606124750e-01
1.415519314541975326e-01
1.371595325092748729e-01
-3.120217594803655348e-01
5.324283650539701762e-02
3.568534221107411142e-01
2.470300403257510297e-02
2.690072230107588558e-01
1.649386307567762555e-01
6.351283961107070941e-02
-1.111954613546602480e-02
1.855247089864038856e-01
4.512062964357573813e-01
2.556756623157152575e-01
1.423496247047880692e-01
4.935433657321837697e-01
-3.987600903486769321e-01
-1.270478190437239752e-01
-6.531027474646783348e-02
-1.189625547425117447e-01
-3.581798247411691061e-01
1.857822444870835532e-01
-7.860834187527687700e-02
1.221952902657872514e-02
-1.955957908677649973e-02
-5.566721555166511681e-01
-2.625283245485662137e-02
-5.477225518355962608e-01
3.169470718448760271e-01
-5.040575414792340669e-02
-3.866091625166470647e-01
-4.132201885205335490e-01
-1.814880739375930585e-01
-1.664915267796984177e-01
3.129460792812725489e-01
-7.364719984458197033e-02
1.078804329413344809e-01
-3.293860414706971107e-01
4.868767484634218823e-01
-5.029763313525344171e-04
-7.441916393646031969e-01
-2.484226547254907158e-01
-1.819487684506174152e-02
2.876596579167120526e-01
-5.248954423880202169e-01
1.370844636438096065e-01
-4.550095339501064040e-01
3.094585630764062900e-01
1.570891819481189666e-01
1.574918880129099197e-01
7.107603682184597538e-02
1.876551577052846809e-01
-1.844290658263646465e-01
4.087208569267092861e-01
-4.137639232381428722e-01
3.928726908460120071e-01
-2.822673430874539369e-01
5.704155022458198276e-01
-1.083083929282567942e-01
-1.119407240263615988e-02
-3.194406202736259637e-01
2.743295382804038507e-01
9.491991952671142985e-02
-4.144673140651973231e-01
-1.989148981270420780e-01
1.648721693529881516e-01
-6.301236976261712641e-01
2.692342963217929375e-02
3.996308070580165683e-01
5.505699243582837799e-01
3.438102188487166533e-01
3.980152114967234200e-01
2.683568407515884296e-02
-5.905351069546390663e-01
2.760540700275077031e-01
-5.413653243635464796e-02
2.394263535138233812e-01
-2.202862754958382491e-02
-9.501582757731698026e-01
-4.157615405428474187e-01
2.519378467257837317e-01
-2.506086485265465180e-01
-9.686219347995450590e-01
1.319601920597128220e-01
-3.271982317215551550e-01
-2.444279846354778796e-01
3.471617039184640152e-01
-8.423942866335236423e-02
1.172933794196120150e-01
-4.214046077880850283e-01
-1.405647355056954817e-01
-2.506680960252381796e-03
2.291573228643660753e-01
-2.041848505754259857e-01
1.539353798637606852e-01
1.916931201455592260e-01
-3.181146906005791752e-01
-1.848349431472380011e-01
-2.013443690974868749e-01
5.961059036564375635e-01
1.636627904423846036e-01
1.217956980444318132e-01
-1.182161875885709146e-01
-6.095934683623917272e-02
1.248830842034780175e-02
4.760410683265482445e-01
-3.722434941621818871e-02
-7.673715351192346434e-02
-2.031842740287721216e-01
-2.084246163882885194e-01
3.209037167086866149e-01
6.254291241409732915e-01
-1.341336965501050693e-01
