-4.000438184482772441e-01
1.705875847854640970e-01
4.237120051946006716e-01
1.785620630634187078e-01
-1.744405384450358615e-02
-3.372329706790702653e-01
-2.142401763767296241e-01
2.299358731565290803e-01
-4.890667294859775416e-02
-1.672412729687434430e-01
3.481970182954893800e-01
1.856132915856054388e-01
-1.126544326200099866e-01
-2.989868300113905919e-01
4.336259097452629385e-01
2.185865593522104758e-02
1.100888390821493507e-01
2.326129326612123571e-01
-1.771848304745129721e-01
-1.251613671824032825e-01
5.748368365169606586e-02
-3.027374822256417297e-01
-5.032913666485994836e-03
5.908563077545381237e-02
2.375499377494140751e-01
8.819803231185334436e-02
3.362436670780180603e-01
1.850478706829882664e-02
-1.501623101412378480e-01
-2.643784949432665954e-01
-2.099968338230926712e-01
4.063302186952134215e-02
-5.381701656173407677e-01
-2.309373715200442045e-01
4.493248028116006987e-01
3.467557724357721027e-01
2.667056953742278358e-01
4.330163608400118269e-01
-1.459960955843832286e-01
2.410908769438232513e-01
2.521669296676018468e-01
-2.966407912186186380e-01
-6.132636038921011196e-02
8.455420234492739828e-01
-4.443214068641148096e-01
-2.186360603667340460e-02
-7.453887929701578929e-02
-4.056024000609245728e-01
1.916403310114889458e-01
-1.763003417490747460e-01
-1.387270404569170557e-01
-7.947033373246155386e-02
2.749688206272613011e-01
-2.474311996575404016e-01
1.144490287613617457e-01
3.075786581325397617e-01
-4.287149262003042693e-01
1.072990908418426925e-01
-4.028379263616119199e-01
-1.817728364335659819e-01
1.419018830800836128e-01
-9.194594830229795013e-02
-2.755939088951174232e-01
-1.996821240126111716e-02
-9.860483307297548961e-02
-1.159322752860080796e-01
6.026668641956530251e-03
-1.865109588171185995e-01
1.642378745440712384e-01
-8.949853446890741748e-02
1.111258883020294491e-01
-5.891970651215893140e-01
-2.164708066311520074e-01
1.440927217443189190e-01
-4.614715896683591057e-01
1.509617770904972400e-01
-3.524181160120230527e-01
-3.005397663590592128e-02
-1.730750691694298016e-01
1.018591382464873081e-02
1.000000000000000000e+00
1.046094008455892010e-01
-3.313932530456181191e-01
-1.393972188015898256e-02
4.819709741782188805e-01
-5.451951809914003938e-02
1.616078738482604193e-01
1.031686444196739383e-01
4.010490389583521997e-01
-2.187262979736765561e-02
-3.984620999555835152e-01
-4.749088994934105856e-02
6.405508526413874471e-01
1.098564211763125853e-01
-2.496773430688351836e-01
2.202899355897244560e-01
1.265749046279255607e-01
2.362982883094136843e-01
-1.758035999249649428e-01
1.183522190084725367e-01
5.848778441529291910e-02
-1.959320213151044630e-03
-5.203754081355476124e-01
2.203094310216394958e-01
-2.914779305026031220e-01
2.849547003579151055e-02
-3.535134949993328779e-01
-4.472789698619190624e-01
-2.684543175168931928e-01
-6.103651714163558228e-01
5.548745978070679374e-01
1.348168321631663669e-01
3.833183491038739260e-02
-7.587146081297870825e-01
-2.003836117336655898e-01
5.256497924057782628e-02
-1.425500783038351205e-01
6.513912276134163626e-02
2.915951854175800051e-01
-3.399683309694235267e-01
-5.392747745934640263e-02
-3.510256775361710740e-02
2.166055390741979114e-01
4.573194186269665534e-02
-2.064857072178264419e-01
-5.402415485252027617e-03
-7.541105186831007501e-01
3.965897198305435301e-01
9.769942931824723842e-02
7.861903443098681998e-02
1.894249546982395283e-01
-4.021563940603136572e-02
2.249606974484376909e-01
4.980708745575493923e-01
1.545321263989636040e-01
-6.786303072094769240e-01
4.179815188471381338e-01
1.551136463702905421e-01
3.358567170156125381e-01
-2.205431595791188526e-01
-2.290509902013919963e-01
6.210977716584186181e-01
3.676195565497193951e-01
-3.094642916193297011e-01
-4.275443293158501246e-01
-1.937184252379578198e-01
1.964544759991439932e-02
1.612432540249889301e-01
3.806011559723413429e-01
1.604515908255489121e-01
-6.384532503921626356e-02
-1.679213414477072619e-01
1.397139366316515752e-01
4.224332214884232717e-01
-2.145828220324370317e-01
8.209818959175428643e-02
1.229126646536444628e-01
1.067319450774180944e-01
-2.580482869033464133e-01
-3.645913132809229518e-02
-3.854528607773884397e-01
4.808759274888790292e-01
-5.818946238281613725e-01
1.514175913089063907e-01
-1.220577949140848883e-01
-3.344993537499550695e-02
1.211937231176422186e-01
1.106922205600990583e-01
4.363740684388645735e-02
2.419474657687769592e-01
-5.560723698323564168e-01
2.853189588447932468e-01
1.300446806497711216e-01
-4.917757660189693292e-01
-1.722869941389207071e-01
-1.549822382434274393e-01
2.490864444392729693e-01
3.841651077786681356e-01
-3.210313611100661935e-01
2.581388113265650208e-01
-2.582392619709595327e-01
3.062153212795692969e-01
5.092815844415410353e-01
2.696511942632693892e-01
-6.945926128674739797e-01
-1.588373598174985246e-01
-2.850440922948501710e-01
2.760678313937267939e-02
2.475840007760502226e-01
-4.161813541275957151e-01
1.337330856410375024e-01
2.092293435448093486e-01
-9.044024320002924666e-02
-1.170781077435566753e-01
2.705337157456553787e-01
-8.912380897623704834e-02
-3.038333109447964309e-01
3.010510223512281591e-01
-1.390673894880029571e-01
-3.511152459865716779e-01
-2.874447603694821329e-01
-4.114402233044076040e-01
3.991416048392670834e-02
4.699649736569352365e-01
1.014839152640328312e-01
-1.958364474374869324e-01
2.636950564953069454e-01
-1.838959367963620140e-01
-3.479772972570082668e-01
6.026009902905306651e-03
9.532494895821136405e-02
-1.858276004402355241e-01
7.655205877298006112e-02
1.123585251798646240e-01
-1.642863971433462800e-01
2.467870149280321501e-01
7.201236498945039477e-01
-7.899835056508639486e-01
3.749252061847712075e-03
5.586316637494078696e-01
-5.945787005427816130e-01
3.741659224241912218e-01
1.566026690370382890e-01
-1.376704495631233616e-03
-6.763681570288717637e-01
-4.079648355717248043e-01
2.477162244121684509e-01
-2.534131490751966864e-01
4.194483297040080827e-01
-3.165312755270397460e-01
-8.050078065435872787e-02
-1.629921650002441949e-02
1.236901733355663807e-01
8.428177580203466412e-02
-3.787821356063922340e-01
-1.974126493625268930e-01
1.529810579259912040e-01
-4.098219241776525634e-01
2.977919543637916333e-01
2.042909396494658192e-01
-6.438438149589331694e-02
-4.593930249129081211e-01
8.385768925386466455e-02
1.151107994811758212e-01
-8.848855789854785658e-02
-1.412238152158697968e-01
-2.467620475527153023e-01
-2.753749545554168288e-01
2.950629084806573044e-01
2.125250175488781756e-01
-7.354382633585515583e-02
-7.610679320355365207e-02
8.035401525552777757e-01
-1.689514888370211021e-01
-3.904107737418870822e-02
3.095765259478465148e-01
3.112365618244283261e-01
-2.966940966243506450e-01
6.875852106310730294e-01
5.233779662932853682e-01
4.226923759593777252e-02
-8.424956821365889303e-03
-9.307011034700027330e-02
-4.879709324546900595e-02
-3.526173451202999076e-01
