7.906104342594558188e-02
2.044620749440883289e-01
3.748265125718985291e-01
-1.569102518883984942e-01
3.015625586624092191e-01
5.636738742789498824e-01
-5.466167948030044021e-01
2.330025197628018963e-02
2.561567883537653190e-01
5.894429945469072951e-01
-5.306801740023710939e-02
2.062851452122341223e-01
-1.497839767873285080e-03
4.693077554400394980e-01
7.329813007950689019e-02
2.601398113813879406e-02
6.298885787952109017e-02
4.268905444681563716e-02
3.336404342217134111e-01
1.651072743018794919e-01
2.405268810296045945e-01
1.698405567268495564e-01
-1.857241259316162463e-01
-1.204988575645734722e-01
-7.143766153328687252e-02
1.469680877907938998e-01
-5.229006838656371503e-01
-4.711337888231156290e-01
3.756340722421309675e-01
4.922411562009278152e-02
4.666837180879543356e-01
1.904304023120285405e-01
-4.227016808053664088e-01
-1.934437556919457180e-01
8.709380943454608781e-02
-3.866495878840021660e-01
-5.154101626027706579e-02
4.570908705334449373e-01
1.941135904920573141e-01
8.540129874972211821e-02
3.344823125873432335e-01
-4.974143537442245466e-01
-4.848007094365525682e-01
-2.361410907425623706e-01
-2.536255401495979278e-01
-1.772197054890688184e-01
-3.371901915335379640e-01
2.711694309229295552e-01
1.234934853773206502e-05
-3.105267770282353346e-01
-1.275733142804716669e-01
-1.661230243933973505e-01
-2.666385712469650573e-02
5.939251737485493621e-01
6.651033080016546806e-02
-2.485751544563110094e-01
-9.219438650460932971e-02
1.921704049717155305e-01
3.663627380205266015e-01
1.327553197781616012e-01
2.466020465003989637e-01
7.972535339117491349e-01
3.196829832713425912e-01
-7.015777444838390553e-02
3.692045696538959199e-01
2.108377148250306365e-01
-1.784498006027478711e-01
-6.610421487786618533e-01
9.719841079039187592e-02
1.145975113705848536e-01
-1.956700900034271939e-01
2.091805973544248048e-02
-2.332930080635939596e-01
-2.593410081792071331e-01
-1.282740241176563191e-02
-2.010357420021904040e-01
2.304135400894259944e-01
-2.219793543938064218e-01
-2.627323112693900065e-01
-1.653780653405124978e-01
-5.152281439086110471e-01
-1.536368537878144425e-01
4.186900184997477403e-02
2.724850939276193817e-01
1.689111884159522625e-01
-1.926427467228307988e-01
-5.209058070322893919e-01
-8.103042430816738417e-02
1.566083233660954879e-02
5.477507994435195510e-02
-2.099455924927117190e-01
6.779958135187788559e-02
-2.968254952999005991e-01
-2.412904680075348973e-01
1.334747344133155045e-01
1.212815246769511635e-01
9.474978330679230398e-02
1.869050890172679058e-01
-9.473144844854965163e-02
-7.552415362447711944e-02
-2.606297886749972537e-01
1.328035305482161976e-01
-1.957744583106130476e-01
-1.190342889698472045e-01
-4.162064931867681672e-01
5.457768729371033078e-01
5.121017873517265118e-01
-2.789279646260857670e-01
3.038014493078092237e-01
-7.827094893760104533e-02
6.303054708288465813e-01
1.967614461029873196e-01
-5.045412739809750358e-01
-4.039961679132329786e-02
-2.916626047997300519e-02
-2.931858237862362548e-01
3.216880475757134816e-02
4.369386854439577528e-01
-1.033211932478911160e-01
2.872174112397078358e-02
8.674869458594812455e-02
1.142703200126751889e-01
6.494913394606188772e-01
-1.907563305279533217e-02
2.832595281219604244e-01
-4.460295455443527568e-01
-1.588209416744925662e-01
-1.177995599677589128e-01
-8.109065951238016157e-02
-2.266907551150857680e-01
1.678973387520648619e-01
6.335401911113306417e-01
-1.914490818899247659e-01
1.126552129385212792e-01
-2.032811603484190044e-01
1.856197192947051933e-01
1.367682660396701833e-01
-1.738222275083772805e-01
-7.206467953797045523e-01
-4.119141033838180643e-02
8.819726909559154615e-01
-2.469135606788171455e-01
2.438995964299906227e-01
-3.458255045030331765e-01
9.775320227368267112e-03
-2.342108697476711354e-01
5.830504770808220272e-01
-3.377866428815410032e-03
-3.923888418436119463e-02
1.089057925019658174e-01
5.295996244546045117e-01
-5.943371175550438146e-02
3.508241301230217157e-01
-8.156026817444185228e-01
-1.338024069645344927e-01
8.808231066924951391e-02
-2.723956990500400188e-01
2.970928781914285444e-01
-7.595566082015077491e-02
-9.437488074789743275e-02
3.030816268360985583e-02
8.567036413264254857e-02
-1.997054708626139485e-01
-5.642943359485567134e-01
-9.082485312438726144e-02
-3.270469738721367148e-01
-6.072419382623358425e-02
-1.385212927350445988e-01
6.878521616625235535e-02
1.610354441524436409e-01
-9.729089246227480559e-02
9.393758068422337904e-02
-6.150276230748247253e-01
5.222059029839467570e-01
-4.519832423870163707e-01
3.299643793534519642e-01
4.442587513879830419e-01
-2.338842564554217129e-01
-5.445536069725369355e-02
-4.170526583161815459e-01
4.684567619726162091e-01
1.397413688924689090e-01
8.438251508850232174e-02
1.621590807731755624e-01
-1.224498944070424866e-01
-1.301361039162088895e-01
9.963139710734345011e-02
-3.996747681449270284e-01
-3.858795086211430081e-01
3.410076516946268232e-01
-5.343799152281637488e-01
9.347752437459198871e-02
1.341542823347994517e-01
1.851593030322997713e-01
4.479678153679163277e-02
-2.888007521513866749e-01
2.190858061652160016e-01
-8.453672007888239637e-02
2.272748107652967087e-01
-9.801248311408343461e-02
3.826340061995898295e-02
3.542565933353732377e-01
-3.906718310381413484e-01
-1.110213467362510323e-02
-8.557935318831547122e-03
-5.394325055434190386e-01
-8.086238051240220159e-02
-4.449041728362782555e-01
-2.795384997164316876e-01
-1.290291528989233882e-01
-1.193140553920518376e-01
2.702191592489739946e-01
-4.766605380535959835e-01
-3.353341062762697500e-01
2.388900683283677884e-01
4.476470465024646322e-02
-3.141058216567083061e-02
-2.666613151784385516e-01
-6.982247354673777606e-02
4.184177364074977423e-01
8.012385882694278427e-02
4.830137839123769261e-01
-1.936792911914213960e-02
-3.441486259029719608e-01
1.760541327045221927e-01
-2.719348313174181908e-01
-2.043297556436323992e-01
-5.445466967192984509e-01
1.240719880485423865e-01
-4.292083294360267698e-01
-1.056040113417855142e-01
1.503870252234721649e-01
4.333239158728192097e-01
-1.415140970917973529e-01
-2.187440855329263467e-01
3.705722059798063905e-01
3.000569065163469218e-02
1.276974392775749589e-01
-1.095983437858207843e-01
-5.436498404882808000e-01
-3.577444600913708972e-01
-2.644931718335282178e-01
3.599651947196396140e-01
4.318090980250218203e-01
3.156744470103908795e-02
-4.244101107710855358e-01
-1.648907763296592055e-01
1.523451730409593752e-01
2.949129602326930333e-01
3.309239469091578845e-01
2.896379298261482771e-01
3.779825263072020824e-01
9.792885002238670145e-02
6.061568467322100105e-03
2.615750592199719837e-01
2.347649906093735028e-01
5.611743930942245662e-01
3.201708058029467119e-01
-4.587520018947014999e-01
-2.072986957918592499e-01
3.576138696163741471e-01
-3.608892911679064119e-01
7.236148722013856227e-03
5.270040487605942570e-01
1.511629947735744217e-01
