1.524899413001527815e-01
-9.871917230479146377e-02
-2.881576448422247805e-01
-2.916384919619251503e-01
2.429304076902951900e-02
-1.990060577686001142e-01
-2.195791170156811134e-01
-3.299333855222205680e-02
-3.022417493016385515e-01
-3.784901423371765383e-01
-1.840959844837740111e-01
-5.476625628195297413e-01
-2.702392398017528646e-02
-2.698391584506564245e-01
-3.013778179265987761e-02
1.529123997259453430e-02
3.041929633722288973e-01
-5.054779667024846823e-01
2.747870785278484773e-02
-7.227258572073437526e-02
-3.703370758971665649e-02
-8.405042766496112483e-02
-1.473547521224943813e-03
-3.504564045378878029e-02
-4.228087772865550265e-01
-4.640657171873471265e-01
8.001312643154907811e-02
-4.381591097877100133e-02
2.205365552429134068e-01
1.819869470239017795e-01
1.788335163097095892e-01
1.669285421599736308e-01
-3.934990826490111226e-01
4.677392127164380908e-01
-2.109141104403876033e-01
1.910210942328671724e-02
-2.168795499117718573e-01
-2.222165966288194572e-01
-1.452473251777167129e-01
7.458262257531508843e-02
-2.387495778505550614e-01
-4.370239218092606959e-01
1.463134112794318709e-01
-5.982696511164720121e-01
-2.245136172067663805e-01
5.574930182861456002e-02
3.164992980781414222e-01
-1.547948423450473676e-01
-2.409814781648579873e-01
-2.580634579718690258e-01
3.134855700022227687e-01
-4.927069429025897340e-02
6.295677515961575765e-02
3.319551703162891831e-01
3.797034652010967959e-02
-1.989546513702081243e-01
9.650316296139452854e-01
-3.460789996000622759e-01
3.143494419987664656e-01
2.004090927520341126e-01
1.259454293426967575e-01
2.946405451491340144e-01
-3.962931448709210158e-02
-4.270822393429653530e-01
-2.296861499242621452e-01
-1.020816517818768088e-01
1.265939656314063466e-02
-3.310532954439376341e-01
2.875516197274003427e-01
7.001904580912455822e-01
-4.523574593408897226e-01
1.097404384616827711e-01
2.144856169855661465e-01
-2.627447085977213104e-01
2.140028750439782468e-01
1.744123627797540266e-01
4.961092765492359780e-01
-2.921419795277213627e-01
-9.585968125401315987e-02
8.390633435828435960e-02
-3.483977280729996240e-01
-2.230104779775489710e-01
-2.107562168177596618e-01
3.195845745441048824e-01
3.268190776264333075e-01
2.688954991448727627e-01
-3.033443458974204865e-01
-1.610429860154441728e-01
-8.754055110557193986e-01
1.050185546111165324e-02
-3.627005259223577416e-01
4.225775234069883424e-01
-4.923147913272665765e-01
1.726162635065853768e-01
4.303905227034369174e-01
7.175650450293072358e-02
9.964931376906652760e-01
8.925555110084769372e-02
6.797550480620750957e-03
-2.276134670830371742e-01
1.019483905060487167e-01
-1.996564160581524583e-01
9.247355510485845420e-02
1.616556395549128278e-01
-6.787534766562515198e-01
-3.300632267384673857e-01
-2.245047812494618267e-01
-1.890215605637801943e-01
3.471413421275311439e-02
-5.967646172102887558e-02
-1.142159061369060202e-01
-2.321487740311026782e-01
-1.731498820291783869e-01
1.531072218003841356e-01
1.046585137157164114e-01
3.494164867000922325e-01
-2.139969042835314361e-02
2.946345616233654319e-01
-1.529209507817373137e-01
2.104517375290000381e-01
-7.986557770280885982e-02
6.185237514564970174e-04
2.514390283120663816e-01
-3.477007301744994283e-01
6.485296194958141414e-02
-2.860817536955236051e-02
-4.212347981349828241e-01
-6.502892269472408948e-01
-5.145915242997341904e-02
3.563423357074660403e-01
1.555953790721124053e-01
3.103692374501784146e-01
-3.997918658525906332e-01
9.954841639183473201e-02
-3.887882197555729280e-01
2.271547303191651657e-01
6.284146894658569904e-01
2.889413923293918107e-01
3.669472564574933204e-01
-8.509654681622236261e-03
3.107758471184882132e-01
1.970926845752581646e-01
2.235357301994704282e-01
7.357971413248785841e-02
-5.213177227987512152e-01
4.356312729449031695e-01
2.311983345702355308e-01
-8.567566915701808894e-02
-4.567760100671225398e-01
5.047857304558348579e-01
-4.536899070714960069e-02
-2.959799445467761192e-01
-7.402130364294030873e-02
3.408089872113726493e-01
-6.427247236347057857e-01
9.082378167181107131e-02
1.555163334696686162e-01
5.533354852367479149e-01
4.454400750372574103e-01
6.640420163301841150e-02
9.339038001870654249e-01
-3.061005537341047744e-01
2.191603640161611799e-01
1.546450077093083908e-02
2.724441634405407875e-01
1.112176856471406849e-01
-3.766439882862784305e-01
-6.210770896771632410e-01
6.438679836128157197e-01
-3.070742753201554098e-01
4.300375464846196982e-02
-2.117266323010672524e-01
-7.959705858336170170e-01
-3.869808482659788940e-01
6.154350188221587026e-02
-1.031660830661326744e-02
7.072613260886571884e-02
-1.415633492871771204e-01
-2.799807696107523350e-02
-1.075119749402340397e-01
4.418318216120211556e-02
-2.331804495293308688e-01
-2.171854012778287324e-01
8.674466637776045985e-02
-1.808424173285310688e-01
-1.058874663805192684e-02
2.146623207600974192e-01
-7.646477687957127511e-02
-2.591929014637101014e-02
6.173753436211355111e-02
1.996334988139386313e-01
4.111483138779566948e-01
-2.057059261403254291e-01
-2.792269253070973900e-02
-2.497118755703310877e-01
5.485826003643556881e-03
-5.329974988234113809e-02
1.671780647464491953e-01
-4.499804923294511982e-01
3.231972102477885522e-02
-4.682557386533829358e-01
-2.425778218203277631e-02
4.808715214539961980e-01
1.718047902128828630e-01
1.062600317983606463e-01
-8.629250552751061010e-02
-2.199419796563799046e-01
-7.795940371394440849e-01
5.792824589937890789e-02
-5.294454639885961406e-02
6.791685441612728136e-01
2.216304777847689089e-01
-9.175081393397732654e-05
-3.504066070973022584e-01
7.603461123582283890e-03
-5.467027358911749069e-01
-8.843375314253457131e-03
2.169062442835036075e-01
5.555018449824634663e-01
1.780289991845114272e-01
3.874244054059872849e-02
2.400007604814130002e-01
-3.105371995997621704e-02
4.264667892214981104e-01
3.002348407028057053e-01
-2.916103866476981166e-01
-6.886527257473435970e-01
-1.317167815821518595e-01
1.697814553228640388e-01
3.161442911917666798e-03
-1.909143945146515586e-01
4.397442815154094520e-01
1.377214852880756166e-02
4.076033035010059313e-01
4.049192310857280264e-01
3.094013864895530097e-01
-8.468607334644792650e-02
-3.957398085598056725e-01
-7.711994812061118143e-02
1.101700789712086043e-01
-2.536697831076702991e-01
2.100457873444529569e-02
-3.205174535105814043e-02
8.057103917969735130e-02
-3.736803667941299700e-01
-8.949885188344303133e-03
-5.778454532060449678e-01
5.816578821868264582e-01
-6.089825467568030226e-02
-4.386260764457640127e-01
-1.424269274812877684e-01
-2.136062897863565402e-01
3.361434428789229489e-01
-1.634282735084409688e-01
2.865925647722420977e-01
-7.720215441463923467e-03
2.579683130872486019e-01
-1.615335945643337212e-01
5.880899295159978113e-01
-3.695335282017310208e-01
-5.408596385946874419e-01
2.806849252075749312e-03
-2.343190013895753709e-01
2.337083314922644983e-01
-4.962771676070431431e-02
