1.748721394242353511e-01
2.484039786724525495e-02
-3.400024933039326180e-01
1.457196830522697883e-01
7.547647634365418912e-02
-1.643274243286471925e-01
9.587646793771439913e-02
-4.990241880819985820e-03
-2.630475620901551737e-01
-4.349145748345706886e-01
-1.371500061457956443e-01
-4.986620649426194429e-01
-6.477882940180386406e-02
1.454976779994573699e-01
1.828456163472592100e-01
6.906811041273853979e-02
1.809213781757411654e-01
-1.200632287349863436e-01
-2.831939512854239061e-01
3.452499044637142855e-01
1.754550901481977954e-01
-2.218524650461775882e-01
-1.082588884751080338e-01
-3.381434506094747189e-02
-4.181491388337741366e-01
-3.356575734045156301e-01
1.361003546419045918e-01
4.245124897134320285e-01
2.667435603444922032e-01
3.460135284541703271e-01
2.231615998510012022e-01
2.495907622715402840e-01
-3.544947859327046702e-01
5.375717013945711109e-01
-4.255207388790208101e-01
2.832439039850288831e-03
-6.773554113378880137e-01
-2.562787994970413541e-01
1.851518632842374112e-01
9.004326036021029211e-02
-2.215040170888339655e-01
-3.849871520557021642e-01
2.082999678482177486e-01
-5.332678990794954554e-01
-1.738349647301103973e-01
2.040259751441322322e-01
3.767007375237699796e-01
-1.923051973813267868e-01
2.466312345020735611e-02
1.147661257224523446e-01
-2.947713629103366206e-01
-4.813142349425186817e-02
7.564344628499369838e-01
3.748022446785314044e-01
1.937117411509831633e-01
-3.690948080720992119e-01
9.333634772375070110e-01
3.625353674213606658e-01
2.152593286591591160e-01
3.248863896717125166e-01
1.352262614876186819e-01
3.189265382274065752e-01
-1.043091401620669656e-01
-1.968628296324065885e-01
-2.414543182724289971e-01
-1.175019022491827214e-01
-2.757321991377473941e-02
-2.718034720720137742e-01
8.697031641256672274e-02
6.900357589713594919e-01
-4.944135072713081724e-01
-3.928488921899702668e-01
-1.071379584735662471e-01
-2.347902675640614056e-01
1.920334377528552516e-01
2.804137904208229282e-01
5.238314536569365076e-01
-1.854169795370132212e-01
-8.845891711850401018e-02
6.377855787982404656e-02
-4.192407403658839349e-01
-1.237113091775099427e-01
-1.619613507536903363e-01
1.776448639020280218e-01
7.380372663862631855e-02
-2.156262496430995032e-02
-1.944594992135275646e-01
-1.773737008839520735e-01
-4.520816062104328348e-02
-1.503579487051701774e-02
-2.338633956405498093e-01
-1.196752964001989161e-01
-4.177435328070952525e-01
1.605775926863719505e-01
3.369762875454122009e-01
1.631673265540353746e-01
9.964230426442400868e-01
-2.632559596690013659e-02
1.516416845151769000e-02
-2.389654843858131650e-01
4.714182446478853983e-02
-1.586065079843460290e-01
1.733182236854240166e-02
-3.562150738915794146e-01
-5.866730122075970444e-01
-3.053930888834701651e-01
-5.043296325716987161e-01
-1.995786531748305059e-01
-4.262811670896101551e-02
-1.125518599884085813e-01
-5.450511200130789269e-02
-1.946868862652042786e-01
-3.251803520430032735e-02
3.140800185125830479e-01
3.893240536547302177e-01
-2.580983503206154550e-01
-1.993990119633681501e-01
-4.351598970179169912e-02
2.303266893373780155e-02
4.155373350407167155e-01
-1.686541400720299733e-02
1.039962180137829484e-01
2.014799267901397906e-01
-4.534575468692035871e-01
-1.329965554905948311e-01
8.151860673337400776e-02
-3.199844608607131935e-01
-6.728039892562336366e-01
-1.425084423246134602e-01
3.027571568337040775e-01
1.784816412865595781e-01
3.239238514410781034e-01
-4.562906549580802995e-01
1.314587450252845124e-02
-3.621611288112275839e-01
3.020883319836815684e-01
5.764702397223959718e-01
-7.658301142147153073e-02
4.152932092388256918e-02
8.328206415930276829e-02
-6.323871178512781299e-02
1.140577141670756078e-01
-2.138745060738883319e-01
-2.239271952563738621e-02
-4.430692899681571428e-01
3.853328644934170821e-01
-3.124681812466734154e-01
8.282589441017393361e-02
-4.671537416397774090e-01
2.320665865373269798e-01
-5.826561298484685125e-02
-2.875607719116748395e-01
-4.450063217005697375e-02
3.228679723190416850e-01
-4.994863513227149610e-01
-7.600080746235031437e-02
2.119076477647175161e-01
6.556680317203739117e-01
4.134023547583313696e-01
-3.916153847641667962e-02
7.825847915691270806e-01
-3.834906461160130231e-01
2.378055749157413912e-01
-1.255306100974025174e-01
-1.756712296759220249e-01
1.294079119885835905e-01
-2.756014785404533596e-01
-6.486204493590126408e-01
6.182467497138338652e-01
-6.862595257013461014e-02
1.222056551298034144e-01
-2.434683232027061717e-01
-4.293624210937257990e-02
-2.842243107616092002e-01
2.873182607954428147e-01
-1.552520818653230217e-01
6.394685676527377127e-02
-5.746303054643384089e-02
6.421557508664002545e-02
-6.700852352749255003e-02
-2.199470916399469400e-02
-5.903312955262694089e-02
-4.218319884423412519e-02
4.560130951002594468e-02
-1.979988903040611758e-01
1.652498151866270970e-01
2.620364097591403874e-01
-5.958858328922313208e-02
-1.418415301077202706e-02
1.249922179893980384e-01
-3.987129463432255161e-01
4.296953713343263370e-01
-1.948381918129691026e-01
-1.085267097645131046e-01
-3.628580101537909330e-01
8.359729356867526273e-02
5.547343904081766808e-02
-5.269423218512909665e-03
-6.347055934997732074e-02
3.073484577269536833e-01
-4.254658657674214584e-01
9.698815132984640874e-02
-3.755135714275436021e-01
6.874049038416177315e-02
8.296886429753527747e-02
1.780717132117054513e-03
-1.677824757012451873e-01
2.468634383714083669e-01
-2.472742050336532160e-01
-3.324427999636468956e-01
6.128776130561646163e-01
2.081723629321891034e-01
6.794633055907425834e-02
3.806707658679195916e-01
7.961741368940548902e-02
-6.160903335769353228e-01
-4.829048086669877893e-02
2.135333300571465587e-01
5.594863909918919020e-01
-4.796913478300834921e-01
-6.132801020201457398e-02
1.418728496475779866e-01
-1.495922885883057551e-01
-5.435566795228545800e-01
3.437408424866845724e-01
-7.390921283893023275e-02
-6.584312646056247331e-01
-1.276296208667335175e-01
1.895792306498763069e-01
-2.323704826017725794e-02
-2.883044011932864858e-01
5.446271141679182026e-01
4.009566744818341549e-02
-2.117399445223116031e-02
4.405296959730543582e-01
2.852136537705208252e-01
-9.016281580641080651e-02
6.952314241428632080e-01
-1.839350199411680375e-01
6.840604224144380963e-02
-5.637838323759773729e-02
1.590278565655266207e-03
-2.871680088584008250e-02
1.662721498689588573e-01
-2.697935071256238326e-01
-6.358584716957230154e-02
-6.327337692706221928e-01
5.322413773612102439e-01
-2.743990347755932008e-02
-4.924703980018842464e-01
-1.219467159960608282e-01
-2.104297057867976217e-01
4.778323335807054262e-01
-1.316029086227541445e-01
2.970711957920171287e-01
-1.000000000000000000e+00
4.616204034067931256e-02
-1.166663799246526328e-01
7.418577666670689297e-01
-2.744954596191746532e-01
-4.861260142565060893e-01
3.024076907847335002e-02
-2.918836740450120315e-01
1.573636183183926285e-01
1.098568080648930356e-02
