5.517002211443348958e-03
1.553081315124975326e-01
2.541384778492787322e-01
-2.189969128180285496e-01
-1.762435092832420058e-01
-1.826477912310505713e-01
-1.492352977326433933e-02
2.832047591171160672e-01
1.759379789953901541e-01
9.783020069996074819e-02
-1.008227101157113670e-02
3.056991549921388440e-01
-3.280340504924630918e-01
-2.191483073908250326e-02
1.482495794372098302e-02
-2.888037862359299490e-01
-2.130894064909417962e-02
-3.221755953817669049e-02
4.483993750294382741e-01
-8.923815892788297677e-02
2.869336150970620558e-01
4.871348962425168377e-02
7.098494284929558751e-02
7.199238406813006641e-01
-3.051013797294488961e-01
5.542152211504229875e-01
1.125732706582414783e-01
1.536251183361959372e-01
6.136875083375765705e-01
2.144633926889284170e-01
-2.321431032846786591e-01
-1.501637125842404941e-01
7.298544263551925981e-02
-4.900021372165834499e-02
5.319624212060700685e-01
-7.751827987035127265e-02
8.446464494241583132e-02
2.128695365285167562e-01
8.500597739225209670e-01
-9.313629925280285382e-02
6.526703801298415486e-02
1.635601832918903431e-01
1.350880394030942039e-02
-5.985356509577050010e-01
-1.343733689297391121e-01
2.446938113389188763e-01
2.191595395744978525e-01
-7.678781820835704763e-02
2.610173651749431722e-01
5.393089011160118185e-01
-4.798632583783651873e-01
3.502403774904192663e-02
4.992908648643400449e-01
-4.345969063321086234e-01
-1.949328977169669797e-01
-4.104408884785835654e-01
1.149142980540755060e-01
1.863619881719739135e-01
1.955446405070216942e-01
-5.997110248653050313e-01
4.768718172879753830e-02
-6.172246126416570666e-01
-2.251750551287247382e-01
-2.659573969216660339e-01
-5.688300177889711318e-01
5.222985763219529787e-01
2.729853047566178637e-01
-3.203912942432182720e-01
1.743971086241399293e-01
-1.025579409431146838e-01
7.519739942691346102e-02
3.117390533396565688e-01
4.167533795699194243e-01
9.057358069332754891e-02
-4.050858257915223026e-01
5.426227233095253233e-01
-1.191878104370489716e-02
5.366338423510383926e-01
-6.351421120523706998e-01
-2.781264430857221526e-01
-2.412569475882510861e-01
1.807908527487824268e-01
3.873928853233740005e-02
-3.014326203007230420e-01
-2.815515585201088800e-01
-1.695982889071505628e-01
1.691089265500095862e-01
-9.122439793803605035e-02
-3.956356813732284095e-01
2.114825866992280645e-01
4.867900498542196974e-01
1.618110246450784329e-01
-1.923803618784502567e-01
6.664777491211325566e-01
5.996731709551867961e-01
-2.294195665022231156e-01
1.992266473328780096e-01
-4.966793907485722581e-03
1.555315154004739409e-01
4.974412543338239678e-01
-1.183531431812537837e-01
4.288430960918327428e-01
-8.381633066424962752e-01
-7.536087727892727683e-02
-3.855596855049263638e-01
7.402032127745640511e-02
2.195722389844841915e-01
-4.458308928079784961e-01
1.480946445083272112e-01
1.157740849918317688e-01
3.354113053280382561e-01
3.974259838217705787e-01
1.095955544583484542e-01
3.061302060730847208e-01
-2.002122129867661970e-01
2.090547602428279306e-01
2.836747519919896598e-01
1.457811007960947980e-01
-1.001287757325268202e-01
-4.075064692908010322e-01
-1.486539406781544614e-01
-4.424522815821498034e-02
-1.741332503136803767e-01
-4.879832876726004631e-01
-4.099897236706540604e-01
-1.253686992062268968e-01
4.568644608334567203e-01
5.224166130175855738e-01
-4.461609811141631354e-01
-7.705078963260809932e-02
6.925906382815963380e-02
-2.981580431306796175e-02
3.102107721405589214e-01
-5.501730086127929464e-01
-2.269350215894981593e-01
2.438033176413007333e-02
-8.209434790556523476e-01
1.727329561079686548e-01
1.931814884771492213e-01
1.942351968320403244e-01
-5.574717078142086280e-01
1.532194693448484801e-01
2.453842166951545056e-01
-6.174936462106207502e-01
3.233855944338499544e-01
-4.960392729574181203e-01
2.912595601883350427e-01
-6.033261667326011990e-01
-3.437632553220429377e-02
-7.938775389114784142e-03
2.772283899495989745e-01
-2.381037468000108959e-01
-1.596327494935500801e-01
-2.944974945416822254e-01
-4.419284229124071511e-02
-7.124145118471058025e-01
2.638562057975614161e-01
-3.078689654092442440e-01
2.068607428442555476e-02
7.944604232224460050e-02
-2.788127738544891598e-01
-3.441706292136125778e-01
-3.164398610277054935e-01
-4.142284485662267035e-01
-2.154921821926460146e-01
-7.167277740983781786e-01
-7.625369731805561879e-02
2.574564797452416620e-01
4.522125074186193472e-01
-2.660255967425418921e-01
-4.848856546772753462e-02
1.624862113631031779e-01
-1.102637640379097450e-01
3.475656608813003090e-01
2.706116234605723814e-01
-1.105633942682097554e-01
-1.033433723598816412e-01
2.910970550027388443e-02
3.711851193697660034e-02
1.430522207675093416e-01
-2.175120808872972600e-01
1.099643289362572246e-01
1.249004447079606755e-01
3.552214676082749434e-01
5.221416259831643814e-01
-3.200829407800460241e-02
-7.651034214090816077e-01
-3.293415094961226613e-02
4.364235893530518662e-02
-9.280836770208501785e-02
1.158549341864063831e-01
7.844852705339945276e-01
3.420836475844208358e-01
-5.877501738801027553e-01
-2.018881800261807524e-01
-1.558390992051080382e-03
-1.530907030979611165e-02
-3.649850902534604868e-01
4.540521919987208777e-01
-5.041904838104297598e-02
2.281544224486502792e-01
-2.897925566964741351e-01
-1.981920001621873539e-01
-4.720862572868959189e-02
1.703620817002997612e-01
-2.392369606974254492e-01
-2.593036541265660022e-02
1.006514810938927695e-01
-5.440389407843175540e-02
9.686805332147090386e-01
-2.049167957913204385e-01
1.251770750483211792e-01
4.051101677323108441e-01
3.694064106345814613e-01
9.048244381542132342e-02
-1.759951378427636048e-01
-8.661899294603468691e-02
2.027331554598898467e-01
-3.385008425827560480e-02
1.037159386751717455e-01
-1.776110254107123310e-01
2.655559368421389621e-01
8.629250627508598670e-02
8.294724312281696044e-01
3.322489647180441596e-01
3.512319836038574339e-01
-4.591958132061116915e-01
6.767466732614363378e-02
-1.446524421859959886e-02
5.141756251594739036e-01
6.019486674971991080e-01
6.685494005359690073e-01
3.266491610016381553e-01
3.605116824538099340e-01
3.845844080758723527e-01
-5.496294312290132128e-02
4.384127676021306597e-01
-8.573947554721592090e-02
-2.552057088003692464e-01
3.966815994813152058e-01
-1.206344377091232156e-01
-3.117673250609759306e-01
3.461201944887363213e-01
1.401171201116276910e-01
-7.118787235797521262e-01
-3.894614814684085879e-02
5.722145273322480630e-02
-1.034884434240577189e-01
-6.429323972552755673e-02
-1.179894475882812266e-01
2.846987692115292568e-01
-2.464076850034156441e-01
-1.988929215255550442e-01
-4.400680172087636510e-01
2.937446272772490860e-02
-2.176555925886308751e-01
-1.981493490175013639e-01
-1.676357622611592546e-01
-1.594467138990440791e-01
-2.307539812561982540e-01
-4.515090397052759497e-01
-3.710999977683948070e-01
-4.491742408741192238e-01
-4.313157677672333629e-02
-3.190190000118583447e-01
