5.256175278269631379e-01
-4.308106847932187677e-01
3.519110406840333383e-01
2.368349888196855657e-01
-6.699285025218179590e-02
4.772354880864185939e-02
4.189220703990551020e-01
-4.774132325801846433e-01
-2.886480307224395525e-01
-9.170071051090500358e-02
1.849630415390623173e-01
2.094433449624631335e-02
-2.245185494359227402e-02
-1.728308172142448973e-01
3.981736688263609603e-02
-3.145251347716030432e-01
-1.096757066335390940e-01
-1.968247256071918583e-01
3.304264277899837676e-01
-8.014815667944537314e-02
-1.508558556025883512e-01
-1.366211706446741614e-01
-5.924515380280251931e-01
-3.208382170141680367e-01
2.175042172670101914e-01
-5.842398781782645600e-02
-2.349144798813670443e-01
-4.340375805857126790e-01
-2.543768385201395921e-01
-1.128440015606896746e-01
-5.887366493879397922e-02
-2.906820596979773404e-03
4.579603896531210805e-01
-2.414158972293377614e-01
2.455032316420786287e-01
1.022437502295970267e-02
-3.521899889577208009e-01
4.187821884711467324e-01
2.691988444409055825e-01
1.618832679296400567e-01
-2.063740609115519153e-01
4.070561430599726332e-02
3.666016384867460398e-01
-3.081394958526665895e-01
2.559423479955438840e-01
-1.346347774853366708e-01
1.401546516776202567e-01
-8.644776687733255610e-03
-2.400754818754426145e-01
-1.378307476664160369e-01
-2.965164787393548274e-01
1.564840190788501506e-01
-2.395137676968678297e-01
-3.513328949697284813e-03
2.752513877848504764e-01
6.078231192219202272e-02
3.076343383555756872e-01
-1.701954893274269520e-01
-4.963132770550807704e-01
-7.489125419136029305e-02
-2.125419867311464928e-01
8.194993092137980994e-02
-1.162540509067510192e-01
6.583570899923874009e-02
1.405143545525501247e-01
-4.814977363446263370e-01
1.951790876409798814e-01
-3.654842690326945420e-02
-3.167089774568342952e-01
5.616867041179894882e-01
1.216359849603983745e-01
-2.336411079103217214e-01
2.482429457018773059e-02
-3.758262835121626844e-01
-9.135752542299101220e-02
-1.628045642895742384e-01
1.836939993081455613e-01
-1.517626862468736681e-01
1.850723474509852889e-02
6.816491523413076292e-02
3.104958694643113470e-01
1.431754518074908056e-01
3.370983875161073090e-02
-2.329853724980391338e-01
2.411251795251632690e-01
4.287791225018144220e-02
1.188481484919665515e-01
3.338323378559475696e-01
-4.107968629967193586e-01
-1.265629351401964531e-01
1.083293343375008461e-01
2.409303313097504451e-01
5.149193600591530640e-01
1.992262808624523096e-01
-1.539451702792318799e-01
5.488524200234767836e-01
-3.204577116698170691e-01
-3.912786596207062234e-02
-2.561528998117087452e-01
-1.635195083524967341e-01
-5.753784131512708067e-01
1.577860249266176129e-02
1.402641987881591834e-01
1.822278993955506465e-01
-6.569199526249956678e-02
1.423309684982594081e-01
-1.118021214026729271e-02
1.274766733906203264e-01
-2.536152987368054390e-01
-1.058770287258131888e-02
3.267983310847233924e-01
3.167317909179693247e-01
3.642970451595789472e-01
1.842027868397200785e-01
-1.211488923873536849e-01
-1.929609249399573123e-01
-2.965114889428829281e-01
4.272364424840040253e-02
1.203217775259527167e-01
-1.134442249258663972e-02
1.704228370457864794e-01
2.399670663571970564e-01
1.264820599738872564e-01
-2.988147204410880331e-01
3.949056187780843885e-01
2.103049192509317145e-03
-2.180747882571982058e-02
1.927893178152740791e-02
-4.313569391799391139e-01
2.351232983147765465e-01
1.153197111491626944e-02
-1.045660965212986820e-01
-2.916863705856097000e-01
-3.557564514039864290e-01
4.196479317862206876e-02
-3.564646973599128743e-01
-4.430871133487084279e-01
3.972576924443911583e-02
6.333632979262632245e-01
-2.162081923400315658e-02
2.730340478931816972e-01
5.296741807468551000e-02
1.311487550672947311e-01
-1.933482312695798955e-01
-1.904427932655813616e-01
-3.411660475115039365e-02
-5.401572973700369262e-01
3.035492431581969797e-01
5.339423533016333101e-01
3.159944423715797812e-02
-3.133060403524277893e-02
-1.187559497645761103e-01
-1.137674928687189418e-01
1.685510302199923760e-01
1.004245929374678464e-01
1.443773838734714599e-01
-3.239590496360612026e-01
-2.306874741845517385e-01
-1.299400652244421250e-01
3.950364609695046769e-01
-6.211184230397166772e-02
-1.391191940530525084e-01
4.556876875438331531e-01
3.568500743213325332e-01
2.987371775423297571e-01
-1.523527338240982243e-01
1.531340286802277684e-01
-1.839112868012579838e-01
-5.183177452869807550e-02
-4.727995970974003398e-02
1.172628916834412838e-01
2.956653191914583867e-01
-7.263016351018246330e-02
2.402973382529403346e-01
-4.845539520907317377e-02
1.077682378544298075e-01
2.439243764235739520e-01
-7.013982079404407211e-02
-1.641478078132814836e-02
-2.810984116217231654e-01
-2.626985849454708255e-01
3.011702508961406344e-01
4.051691096616412135e-01
5.281995475073731905e-01
3.879680725833883348e-01
3.997085998636475818e-02
1.135636303702124844e-03
-2.262009309199330964e-01
5.357619870330286860e-01
1.269226422075125094e-01
3.653400493276013905e-01
-6.008030722764569342e-02
7.526370772119111985e-01
1.187791824361022347e-01
1.702463073498028667e-01
-5.075522634480262862e-01
4.147331014069985389e-01
3.672981417355774547e-01
-1.273813706975875093e-01
-1.008108406114583827e-01
3.336746090684714061e-01
2.072533051839572579e-02
7.221070510637289663e-02
-7.096476868368110091e-01
2.509183308291654813e-01
-1.756675074428949157e-01
-1.685387463395626338e-03
-2.881299871052587780e-01
-5.585356437887958325e-01
1.075604659698757709e-01
-4.537732810065797651e-01
-5.065190190461237724e-02
4.138603323735655648e-01
6.320010065286976730e-02
-6.340156021414719012e-01
2.891018122311136418e-01
-2.909792452998898327e-01
3.722458019943837848e-01
1.263858856846957479e-01
6.226066803067299704e-02
-3.825887744228873566e-01
-4.422760819941860544e-01
3.663514422496177980e-02
2.644511280443070933e-01
-4.860174893754241054e-01
-2.974306671357067056e-01
2.792912459310669671e-01
1.003819803478636780e-01
2.445338414072946998e-01
4.457568654328715463e-02
-3.361080208848926665e-01
-1.085821568195639575e-01
5.032847315246193887e-01
3.753437472608000137e-03
-3.684480217118487055e-01
-3.357841062010619715e-01
-1.100041977527208281e-01
2.726738065249990073e-01
-6.470018800953349913e-01
1.025178317340590256e-01
3.528097234434348084e-01
-5.035404190060681628e-01
-3.061354007861332160e-01
4.768522802577822572e-01
-4.163829427160996022e-01
-1.561086589698217064e-02
2.228182226750847206e-01
-1.345652858976439936e-01
2.222075729530441357e-01
-1.609696048930855661e-01
-3.585119622484583823e-01
6.411815173283036406e-02
-6.728478503363429786e-01
-3.966019307568580121e-01
-1.604169335612778136e-01
-3.820571323755334592e-01
1.334775666438771380e-01
1.129402307382196269e-01
8.030755463403026553e-03
-2.649031142594276411e-01
1.968744849237128447e-01
-1.364417286355889825e-01
-6.794920666723450187e-02
-2.347923152595584456e-02
-2.860524051767937004e-01
