-2.707253355571694886e-01
-5.833263558186643771e-02
-2.140341143986983774e-01
3.084256026261308903e-01
-1.312355580567412250e-01
-4.711167366902374587e-01
1.922416951674114083e-01
1.162788391861302173e-01
4.837156512082226717e-02
-7.204343729462986401e-02
-1.958288887360538078e-01
5.341063269315173001e-02
4.046127737870904295e-01
1.201467401217100328e-02
1.805023182797644080e-02
3.241621197374346813e-02
3.230459705910062040e-01
1.375348143553841163e-01
8.479250010042418961e-02
-9.685773198772007486e-02
2.290931431364770232e-01
2.172645470826072844e-01
3.602777250818006011e-02
-3.393956885236354415e-02
-2.560097022704218017e-01
-7.116357556731522926e-02
2.280888765802457363e-01
-7.200479312842746060e-02
3.159256519470027835e-01
3.919763156725285247e-02
-3.609997503244800066e-01
2.405418990938637536e-01
2.398474204347564309e-01
-4.539191815762508297e-01
-2.790659072697005416e-01
-6.037700750671741445e-02
-2.392904977438182479e-01
-2.205204176480402012e-01
7.589807032737884429e-02
-1.635074351168709639e-01
-2.706746717066299546e-01
-1.945102237676227808e-01
-9.701359428529503226e-02
1.700328469673713372e-01
3.039857531657947920e-01
-8.811502712549594551e-02
1.853786057029031265e-01
4.409854305605182684e-02
3.685541228760969013e-01
-2.290388130281942325e-01
8.050660356263737716e-02
1.057862424945088531e-01
1.943453405909447984e-01
-4.003172482261288523e-01
-3.467089832290972118e-01
4.048069475814894402e-01
7.376626705948723106e-02
-1.482502805097160037e-01
-7.395188495951918184e-02
-4.823767238290703196e-01
2.011714057340361073e-01
4.077801903521993121e-01
-2.559915912308434738e-01
-1.740520860592967012e-01
3.173318826716395313e-01
2.512121583380936274e-01
1.716614822774613358e-01
-3.290022174824668855e-01
-2.285464806855270342e-02
-5.412762459580443553e-01
4.318293544903086256e-01
2.285590214156532074e-01
3.492493434792658807e-02
1.281787674334636806e-01
-2.353396371865769388e-01
-7.397498590331411106e-02
8.868590634268380679e-02
-7.907157214483952201e-02
3.402250018551612049e-02
7.348076862490936501e-01
-2.793114304280626126e-01
-2.387854149991567032e-01
-6.993596660548478949e-02
-4.527698097735227134e-01
2.302043208681342767e-01
-2.017817393039181006e-01
1.073680183772447866e-01
-8.837213740551040642e-02
-7.614054044292037360e-02
-7.996587794325853149e-02
1.158577477137263112e-01
-3.175126029349710222e-01
-6.175848978518277271e-02
7.495429709858272838e-02
1.955059909131838525e-02
-1.925818995659578092e-01
-8.298278491445841565e-02
2.678451138301189416e-01
-8.127391807948468605e-01
1.859532145379658719e-01
4.531076824405388392e-01
-4.491401764369180039e-01
-3.822619366624148141e-01
2.297981620622426696e-02
2.071906763676620578e-01
-5.496451729874437218e-03
3.806457420615648457e-02
-1.596363781842590479e-01
-3.012360652512821937e-02
-9.344581906976719143e-02
6.987356137325793082e-01
4.300449795909394024e-01
-4.482848752439264617e-01
2.770013138932977959e-01
5.230748131653966126e-01
2.049725386793529169e-01
-1.098811744654241279e-01
6.007929214665113093e-01
-1.332468204523352684e-01
9.581212819019402360e-02
-3.784870365614944054e-01
-2.548360278497618925e-01
2.170978079276595848e-02
-2.493593535299681863e-01
-2.255557928929759481e-01
-5.422112923440766119e-01
9.056362893597330599e-02
2.314250182390574506e-01
8.710400644939259029e-02
-1.614418929687503057e-01
4.115397807880878944e-01
-2.075988032288244300e-01
1.806258799005514004e-01
1.191527091404803451e-01
3.141079532695369991e-01
-2.058822875286983878e-01
5.256929820084654814e-01
-4.721925014259570341e-01
8.389735650556930102e-03
-2.392936500394124699e-01
-1.269229666010016772e-02
3.145660030035182797e-02
1.659432797918365121e-01
-2.943500225373162915e-01
1.669951815905319215e-01
8.319306639768897504e-02
-2.348853874979887901e-01
-2.952451334057370688e-02
-4.400188470871994606e-01
-6.088618525709643681e-02
-4.182481437247417277e-01
-5.223898493646951247e-01
-5.634405846795251804e-01
-1.750385205261606736e-01
-1.544399158353446933e-01
-1.231740631791052032e-01
2.098034942438621944e-02
4.558676903059054597e-01
5.246931462564074361e-02
4.686096210334453338e-01
-1.426477371932655114e-01
3.492081127915483418e-01
-3.389574741913390921e-01
-3.406411642617778179e-01
3.845937251660382916e-01
9.102913287022203204e-02
2.270837318819248496e-01
-1.432318482945003357e-01
-9.261275992833824244e-02
-2.029849821414874134e-01
-3.297523838386484107e-01
1.477821507499013920e-01
-1.681918007774638457e-01
1.692600377589726646e-01
3.392927954217724307e-01
-6.437785666941245877e-01
2.171506269572360814e-01
-1.765219918327925464e-01
-3.490103179844353254e-01
-1.373217878842082976e-02
1.279598190088118148e-01
-4.546319543727252444e-01
-2.571322444647456962e-01
-3.210995098965068184e-01
-4.220856821359386668e-02
5.175944365045999085e-01
2.934889443865034697e-01
-3.279027757240651764e-01
1.003802986499649635e-01
-5.363950891320573566e-01
1.912564911760051833e-01
9.487838365258997875e-02
-1.142479077092544149e-01
2.070263874059496689e-01
-1.056679173515790437e-01
2.581357904030577854e-01
-1.399921479019326787e-01
3.634390080906765852e-01
1.827554435865900162e-01
-1.879089497137782783e-01
8.799588491739064600e-02
-1.746765651949387932e-01
-2.334034841837500165e-02
-9.976436495761750733e-02
6.622826694398738223e-02
-1.925674796509882769e-01
-6.917796156253096240e-02
-2.496940030381477604e-01
4.167204506454265656e-01
-1.224218968382350947e-01
-3.322521232924318668e-01
2.335252922814044264e-03
-3.597422480532651567e-01
-1.968616856975158036e-01
2.041898539589874773e-01
-2.930355899468992109e-01
2.562469193196033057e-01
6.279600403365778183e-01
-2.039109303548780339e-01
2.092646717493863717e-01
-1.127868592457923758e-01
-3.227998370104913084e-01
-3.086219791443166605e-01
-1.948940390023400646e-03
-5.919717043744089358e-01
-2.834337680872630050e-01
-4.036550380751685596e-01
-6.409627770429465743e-01
-3.157780153407362400e-01
9.588395267281017709e-02
6.255640012753505008e-02
1.940775955783262050e-02
-1.365388747244472289e-01
1.659184206416547958e-01
-2.016343287251284588e-01
4.435535141941650550e-01
-1.066324601608017592e-01
5.749715973354389137e-02
1.624017137502915820e-01
2.404897701040724922e-01
-4.973960859899292930e-01
3.205390428196554509e-01
1.248964394757963725e-01
2.267515812894074501e-01
5.689054054504647656e-02
-1.455101390778193726e-01
1.594233557502687804e-01
5.109345327350807153e-01
4.227865728020149261e-01
-2.826996234226568094e-01
2.777886403040790153e-01
5.473494046041681160e-02
-9.757138305817611434e-02
1.340740136466709587e-01
2.589781290038355444e-01
3.180295305238828307e-01
5.558868121173360377e-02
2.617262462671107737e-01
3.873248047513389025e-01
-1.116668937085316948e-01
1.995683190975850452e-01
-3.816243611024370819e-01
-2.782769863899381066e-02
-1.247528714939882995e-02
-1.498489340454625118e-01
