2.173743215817418306e-02
-2.720859512056724716e-01
3.838664344220097391e-01
-1.418836131792221011e-01
-3.194853328349134269e-01
-3.185389424921075685e-01
1.087865440614058515e-01
-2.002466828403599852e-01
2.990997311907843126e-01
1.078888870873404154e-01
-3.346982960051823885e-02
2.210015752357704366e-01
-3.176425524575401949e-01
-3.812278600841984000e-01
9.622765236420952051e-02
4.771850630978917152e-01
3.179766255032795766e-03
3.486770632095629457e-02
1.090713633588771131e-01
-2.581249318485944744e-01
5.381260287707049228e-01
-1.115204455327059863e-01
3.147665189144024933e-01
-5.410442544487212846e-01
-3.005346756631191996e-01
-4.947041557731698402e-01
4.206447938071655179e-01
1.582348081163623688e-01
2.483116970353579644e-01
6.255524720542192385e-02
2.017659941082279029e-01
-6.887019946836222539e-01
-8.241270305204471125e-01
-4.020929394891570308e-01
-5.763599541727071340e-02
4.888283444784159437e-01
-6.834108106099366919e-01
-4.925744204302595630e-02
2.480176496122272756e-01
-2.991804903857285189e-02
1.815693823551801922e-01
-3.290506683699245261e-01
-2.415622439280540601e-01
-2.652295812611491499e-01
-2.037549608135816037e-01
2.205435158951556465e-02
1.308101096862089308e-01
-2.747407799040096354e-01
-5.279666578391771781e-01
-1.795582297838519414e-01
-7.644433581854731541e-02
-1.248292442116505085e-01
-1.171909237730042741e-02
-1.062871035952988180e-01
4.919652311846962611e-01
1.682056129223935825e-01
2.391671213271896468e-01
-1.365671437253465105e-02
3.096106687629653353e-01
3.661670321324917987e-01
3.084855299297363795e-01
4.585144050908800811e-02
2.239085460910708869e-01
7.368065595776423019e-03
1.707260445010668481e-01
-1.212791650300032720e-01
-9.014366384951186251e-02
6.182257438497177349e-01
1.188590795546055068e-01
1.412815164951746263e-02
-2.380416975400535540e-01
2.419086584279981078e-01
-1.357852484133441062e-01
-2.587062738846589438e-01
-1.085391221404098487e-02
-2.374891954110280312e-01
5.515504615908815161e-02
-2.282279967324589709e-01
3.155825574350706320e-01
4.863432450939891849e-01
-5.692714472154569716e-01
-3.601711518816374386e-02
3.611502528182316402e-02
-3.304172427185906313e-01
-2.749290991230544101e-01
-7.219938933662824188e-02
-3.872353586389687408e-01
1.913527587069468461e-01
8.739057577492653772e-02
2.821581377791742562e-01
-2.242328168340515515e-01
4.033243512671036424e-01
-2.903042749542318890e-01
-3.361852798663427233e-01
-5.496416352146562406e-02
-1.504236844959182078e-02
-1.635862562434778622e-01
-4.271280701529635571e-01
-2.201467490038044872e-01
3.570791907543819366e-01
-4.719029842593857049e-01
-2.203978145053308579e-01
-1.284371274195823809e-01
-4.839895637897783653e-01
2.102922013123408040e-01
-9.913986817779818495e-02
-4.328415151722973531e-01
5.015570127484269003e-01
-1.907419436808917845e-01
-2.562079189113057320e-01
-1.906058716174029721e-01
4.713156234816506807e-02
-1.882660354664804636e-01
-1.367778751160251549e-01
1.317080148813082607e-01
2.507645020264108737e-01
9.715479737980402264e-02
4.083814456262209180e-01
-1.173845338606724700e-02
-4.187586292670115173e-01
-4.437740688004843115e-02
-5.914680564247307148e-02
2.122180629020095632e-01
1.611647937054040969e-01
4.431316809051371597e-01
-6.455882627754967462e-01
7.543135056937840810e-01
-1.214883061415211879e-01
7.612165892871160244e-02
-3.249465186587407461e-01
7.377583745479029953e-02
2.165761089816451990e-01
-3.724188572103215855e-01
-4.732917371914799887e-01
2.887654795382441630e-01
-4.737736683340849075e-01
3.007093732613537185e-01
8.872639701031502513e-02
1.873706446707414375e-01
6.838273343515808289e-01
8.147439652834911894e-02
7.986188625611616299e-02
-5.455695968172994403e-01
6.626759762513224905e-02
3.453059087576378361e-01
3.145470899297655998e-01
-1.852434970870158737e-01
-3.075345192545843598e-01
2.548236109973944785e-01
6.146910240911229034e-02
-5.002266500170479135e-01
1.160163010687653984e-01
-9.358373122747939976e-02
-4.976138382958494866e-01
2.476470765823394760e-01
-2.226580314811665018e-01
1.066381017818407578e-01
1.531650892107404849e-01
1.205097359779041394e-01
3.360965114814886134e-01
-3.132557052521746377e-02
-1.633985285013002942e-01
-2.894648619894601427e-01
-4.112941958760806815e-01
7.793400875626615987e-02
2.319339694640223937e-02
-2.529993811261798675e-01
1.704996733789482938e-02
-5.118127252388049442e-02
2.751303810573586528e-01
1.101512770024697246e-01
-1.981260206256594825e-01
-5.098184504804969402e-02
3.452368526486653266e-01
-8.763922056777138925e-02
2.545677609845038436e-01
1.828551520010471831e-01
-9.466907528740414746e-02
4.409974371184264413e-02
-3.629141080109264950e-01
-1.912830302788288972e-01
5.449233865779913311e-01
-4.993437572616482752e-03
5.563132608229973824e-02
5.555884132405650710e-01
-2.497563573514406665e-01
-5.914678516151299081e-02
-1.539283428940093623e-01
7.691731734253673403e-02
-1.789350061972127537e-01
1.657187068254559539e-02
2.331667445598390731e-01
-1.981081914111797460e-01
-2.882287975315545037e-02
-2.279904294472661630e-01
-2.699290922043454666e-01
-1.578491155147578873e-01
-5.994322901478311982e-02
-3.926557609456750031e-01
3.420948607391555846e-02
7.612150758903869496e-01
2.867800514068294393e-01
-6.802299194710324792e-02
-1.813822511608938204e-02
-2.158440547645042347e-03
3.394891050946669542e-01
3.089366213028000296e-01
4.157997118938799308e-01
5.987422220977574039e-01
-1.555694808732980272e-01
3.668172586579275529e-02
-9.537737175683037860e-02
8.064525607260611406e-02
5.231907920729430561e-01
-6.612584826718833630e-01
5.787415844726298553e-02
-1.164171131216506280e-03
2.315501691606786649e-01
5.903827437136681677e-01
-1.779940073869121786e-01
1.500923181563353637e-01
1.610325134022554117e-01
-4.483446920609249764e-01
1.044620540767232514e-01
8.876228372598236882e-03
1.972421104988429097e-01
-2.044848340602099523e-01
-2.344373997545328436e-01
1.332264555835301900e-01
-1.912606270350805659e-01
-3.776267835883327373e-01
-1.311794580684612077e-01
9.339268249824299317e-02
-1.498070353623493778e-01
-2.405787214003511088e-01
9.550655093586955802e-02
3.937988068230631189e-01
2.625772435544188044e-01
-4.594974674825486605e-01
1.014574060198035754e-01
4.296208643318729092e-01
2.415050795586385357e-01
9.426659247327222324e-02
2.923226693165207890e-01
-2.118892206497610398e-01
1.280678586403357355e-01
6.695976959506203530e-01
-2.021381015239826773e-01
-2.638247399074217237e-01
4.236481089210724638e-01
-4.411893986746116547e-01
-2.909604078323488330e-01
1.802714060267960050e-01
-1.022536212851659077e-01
6.765256187722816783e-01
1.254407864405376327e-01
-4.509411072024329531e-02
2.563748891907219329e-01
-5.624269975156945267e-02
3.576795907612050351e-01
-3.269465373286317700e-01
6.443849096878292437e-01
2.316800048422611776e-03
-7.703046160910700935e-02
2.096883495648036444e-01
