2.316952341233322332e-01
-5.487536305847159901e-02
-4.716755575342829881e-02
2.594634071250501717e-01
-3.096624785030990257e-01
-3.717851714453213052e-03
2.746790901428848297e-01
3.110125212008265638e-01
-1.260351228749614916e-01
-1.364505643147447544e-01
-4.492061299176031142e-01
-1.141001330842026512e-02
-3.888423648244250241e-01
-5.460237976447884778e-02
3.360141222362904578e-01
7.242930554280715416e-01
1.765465510536523563e-01
-4.482849776774080475e-01
4.824841344083023731e-02
5.716794645335606523e-02
-2.034743817395598675e-01
-3.766675716074366909e-01
4.861826192104442557e-01
8.726703163225825455e-02
3.168590483127171620e-01
-1.541682156713081175e-01
2.324004503008803013e-01
-4.505936819587649800e-02
-1.460856409177444526e-01
1.536972849288349985e-01
-3.134042100436867373e-01
-1.722867476673413389e-01
-6.936435161485811352e-02
-3.466899042838526568e-01
4.843199220120603804e-02
-1.861036310949237826e-01
-1.000630545133728150e-01
2.135902603790646587e-02
-6.196550430911866858e-01
-3.218260889530062951e-01
2.896823425334515423e-01
-1.022585699496774414e-01
2.527937113812865344e-01
7.238842970293263290e-02
8.567767417553934228e-02
4.269314432431888656e-02
-1.696801555834306086e-01
2.105555004265214358e-01
1.617768391453296428e-01
-3.564919321282905007e-01
1.425250512004757053e-01
1.742961092583381610e-01
-1.036239389504726993e-02
5.765494144985793268e-01
-2.372080876286078444e-01
2.398197828429346479e-01
-2.371521426815095812e-01
1.908944380052574330e-01
2.524308229944202120e-01
-3.810112992495041651e-01
-4.650984967828865613e-01
5.881303700140513291e-01
5.499812360730830241e-01
5.374868109443240449e-01
6.164905027926474018e-02
-2.335399011189707164e-01
-2.859831265578674508e-02
3.286532629608992506e-01
-1.196704561210279044e-01
-3.927479042121445052e-01
5.640833608281979883e-01
-4.564911790855803453e-01
5.422836539291417957e-01
4.987991700087575642e-01
-2.264195849224632795e-01
3.753542275907716386e-01
3.776785961293389060e-01
-3.051007153814175310e-01
-3.128737993821802954e-01
-1.620711293475123604e-01
-2.450897672087223866e-01
2.754227671613941608e-02
-1.388936737367004737e-01
1.346469026508716367e-02
3.753483336957634253e-01
2.999112397222128412e-01
1.215447665200896782e-01
4.149212751142123401e-01
-2.853810196482056694e-01
2.187612632877037888e-01
9.073596432137152890e-02
4.761278808031690346e-01
2.637121419674945400e-01
6.144073385112464036e-01
7.840520542597032017e-02
9.120620535598769618e-03
1.589614676092424572e-01
1.463087917758575107e-01
2.484495458602421492e-01
-1.609911189235653239e-01
-3.039292759433840363e-01
2.021008627449663309e-01
2.842972422839205038e-01
-2.409314941899834417e-01
-3.993188953810192232e-01
-3.020075495029128643e-01
-2.206189065641841474e-01
-1.602786134270653695e-01
-5.724160266536753028e-01
1.464776403172391439e-01
8.018494669637749039e-02
-2.089453333940543001e-01
3.306684311525761033e-01
6.938708246058583606e-01
-2.035459323203603343e-01
-5.468267324594737744e-01
1.154958116903449516e-01
-4.391181945500928219e-01
-1.147868581956651840e-01
-3.212058860333981414e-02
2.163959569306089514e-01
-5.257070483757092516e-01
2.926049211162527058e-02
2.571549142847935343e-01
-2.964932983725602766e-01
-2.955942116296508271e-01
-3.976373927917002393e-01
4.379674818186465313e-01
1.398853456776637250e-01
1.156437186533430667e-01
-1.919595618438642570e-01
3.379136971549181467e-01
-3.490054416811552152e-01
2.103020342997173886e-01
4.673175101133204556e-01
3.279105709984312528e-02
1.372296450836104076e-01
5.734803177207650586e-03
4.285862386729364371e-01
6.028007089536935315e-01
1.483875317108578340e-01
1.706204267275172048e-01
-4.311463833465988271e-01
-3.523300823083340694e-01
-1.380043330772075527e-01
4.766257976562601195e-01
2.320658727816349853e-01
4.555064288879570600e-01
5.441115931806668193e-01
3.102087160694538825e-02
-2.698963904467527319e-01
-5.302740721806314950e-01
-1.998950421312011005e-01
3.506494590787710974e-01
-2.173804778113725203e-02
1.911955549118803457e-02
-3.020352975948039642e-01
6.907035425275818152e-01
-1.561651917889605445e-01
1.289676549358548252e-01
-2.331522315997152373e-01
2.382959282863985617e-01
-1.301078238661586839e-01
2.796996277847559331e-01
-4.349948133733126943e-01
-7.574337417250348592e-02
2.429986929660855055e-01
-5.421770367041669481e-01
-1.481403394938735629e-01
-4.739260118197788363e-02
1.955935066231383468e-01
-3.773338921162109477e-03
-6.919433252369633358e-02
2.563000959931140132e-02
3.008585025216984898e-01
-1.985477636942039603e-01
4.872598970392913453e-01
4.741947495753183472e-02
-2.655346406337757287e-02
3.502014703014392216e-01
2.437159634904867422e-01
-1.549687731220722176e-01
4.735228333357121566e-01
2.963519592421808291e-01
-1.049952133640029150e-01
-3.231577717406304284e-01
-1.710759949141834046e-01
-1.129456893827417707e-01
3.803496179098904140e-01
1.484787524910391454e-01
1.363719817655590152e-02
-3.459610081826272610e-01
8.636845823051511051e-01
-2.120477106615459850e-01
-3.382459861564640624e-01
6.453244100399768701e-02
1.343070722841206710e-01
4.032556014432847613e-02
-1.622668967671976603e-01
3.144001164495723866e-01
-4.243800563610151122e-01
-4.293757418303725815e-02
7.585971450312095632e-02
1.637438909095228490e-01
-1.883482353328531922e-01
2.394186727208716947e-01
-2.895180962481798126e-01
4.805111898706873053e-01
9.226344947211488623e-02
3.332987728049871534e-02
2.479507951448493841e-01
2.482531342016580655e-01
1.779873480971231881e-01
-1.181193431280722211e-01
-9.392186641755323473e-02
2.877873912728778905e-01
-1.166112230638600700e-01
4.050475274670007897e-01
3.359157055894249622e-01
-4.688922604317256881e-02
3.319542337164297363e-01
2.366194371905542826e-01
6.692859080172602892e-01
-2.232351779174204798e-03
2.860594979984283914e-01
-1.887946744632633678e-01
-1.220357114201469639e-01
7.580300974736103869e-01
9.204858598216775212e-01
-8.045749370028242031e-02
4.811759009498709633e-03
-6.378818297106422786e-02
2.616737126977818767e-02
5.692573740958587619e-02
2.176772739295111392e-01
-4.476084701838213553e-02
-5.461937231339626664e-02
-8.923120566096870432e-03
-1.439667855561887477e-01
7.815872037469342448e-01
-7.790929710662301833e-02
7.921704708371459791e-01
3.450374604956081559e-02
3.045404012905530422e-01
1.364727536372418726e-01
8.397585971992331533e-02
1.911819391865623163e-01
-2.416968444861342658e-01
3.113145818201389914e-01
2.050932385580063744e-01
-4.252073249787689802e-02
1.263506043867033690e-01
1.617209270680633471e-01
-1.273550033965452910e-01
4.735300255856748630e-01
-3.856165292176587100e-01
5.035874075234519909e-01
9.941312449865979950e-02
-5.125264179735424808e-01
3.600477403516680330e-01
-5.366723369804400345e-01
-4.649017018359277026e-02
4.829855456452730733e-01
1.890983842443304253e-01
-3.873301892333055330e-01
