2.010177755982838210e-01
-1.522959701682761458e-01
-4.716755575342829881e-02
2.705333092024561070e-01
-3.246881965527443348e-01
4.947226146463576391e-03
3.018450507557347007e-01
3.503903813028468317e-01
-1.603376768881835945e-01
-1.364505643147447544e-01
-4.492061299176031142e-01
3.580359025954802377e-01
-4.590159825985079545e-01
-1.733312454644701794e-02
3.270374439613722428e-01
7.242930554280715416e-01
2.336358239033207718e-01
1.591404027674548638e-01
8.192212648238154926e-03
5.522429802996424442e-02
-1.970126881931311136e-01
-3.950746943948104106e-01
4.594109824483321725e-01
8.510364694596390944e-02
3.776706489663302913e-01
-2.701436893852663182e-02
1.696320608939239638e-01
-1.997238242524148819e-02
-1.952203083871501821e-01
1.834013865746006999e-01
-2.414739913438616603e-01
-1.722867476673413389e-01
-3.389126647676831555e-02
-2.302394539160248360e-02
7.355782559782621244e-03
-1.849690167049914957e-01
-1.152539407814417022e-01
1.010156110646261429e-01
-5.520169322887843455e-01
-3.342873555488923842e-01
3.167559369666219649e-01
-1.493681248895317171e-01
1.723560064166966277e-01
6.435892808110205143e-02
7.804259432682635056e-02
1.198495711470016489e-01
-1.508316361629527536e-01
1.756588114546527857e-01
1.617768391453296428e-01
-3.596263671464766665e-01
2.142228100822068937e-01
1.949020867567823334e-01
1.539698553261857616e-02
5.765494144985793268e-01
-1.938667738365310034e-01
2.036837049089225693e-01
-2.371521426815095812e-01
1.269966212180750897e-01
2.524308229944202120e-01
-4.063043508908541490e-01
-4.799656937300080806e-01
5.789238982911379949e-01
5.736922613106150148e-01
5.115268536190918924e-01
8.261767342522281787e-02
-1.069517795383486680e-01
-8.161112434941103499e-02
2.571165026794012820e-01
-5.970688083304889759e-02
-3.214873457867256645e-01
5.881942622697856615e-01
-4.200356198730776369e-01
-1.716327250859757403e-01
5.623133530216234410e-01
-2.690098713729412450e-01
3.510699160886313619e-01
3.583228673332434222e-01
-2.786545407315289546e-01
-3.211178507107806390e-01
-2.086009558523454210e-01
-2.697091911723908941e-01
2.897583762872652652e-03
-1.112076185857948651e-01
1.193685668603265693e-02
3.753483336957634253e-01
3.480213228429848704e-01
1.215447665200896782e-01
4.742057656982844871e-01
-3.846968768491573210e-01
2.379846948016409169e-01
1.316231508455898425e-01
5.461135954938901582e-01
1.973041032562581343e-01
5.354651692309049249e-01
1.653262030359011481e-01
-1.706641819947208316e-01
1.682041865723502838e-01
1.637394960293990787e-01
2.782040818210406163e-01
-2.178505970258371727e-01
-3.039292759433840363e-01
1.338897905029725055e-01
2.755869029690946603e-01
-2.157290580712851458e-01
-3.584940343460042977e-01
1.253438090591150744e-01
-3.310323726515786991e-01
-1.509819849817649051e-01
-5.736025323588386238e-01
1.395610252792895689e-01
1.260480211651383020e-01
-7.819126307741480764e-02
2.403426787228796491e-01
6.742387722593938815e-01
-2.035459323203603343e-01
-5.214537692926841661e-01
6.944814651275858786e-02
-5.665734106640996082e-01
-1.299631037874780515e-01
-1.738785042324305363e-01
1.903142287795574553e-02
-5.603688753403367473e-01
3.746481790489342156e-02
2.633643372679847494e-01
-2.964932983725602766e-01
-2.633701641538039873e-01
-4.726311537377748673e-01
4.022403490615772403e-01
2.480643937394416687e-02
1.862716328623681972e-01
-1.335503604043231651e-01
3.357101511863364030e-01
-2.934710088141020967e-01
3.431755751661361709e-01
-2.407337809844159737e-01
6.104050366076077538e-02
1.372296450836104076e-01
5.734803177207650586e-03
4.170087174081099080e-01
1.170576776361019894e-01
1.564882859522299663e-01
2.640474199674386901e-01
-3.953706265670274278e-01
-4.039061985427477297e-01
-1.504998452436715206e-01
-3.352119582752851601e-01
3.446423459345692164e-01
4.789858942573169687e-01
5.057078037544761040e-01
2.344518518979087779e-02
-2.185347528284186935e-01
2.217919246152700030e-01
-1.737244002885424687e-01
3.156068214365411739e-01
3.747946691459565910e-02
-9.890738050181490520e-03
-3.020352975948039642e-01
6.316871485877032510e-01
-1.715731161546449335e-01
7.378900672234220415e-02
-2.578346948727707200e-01
3.120166643193400535e-01
-1.705398925955594891e-01
3.062445891845545498e-01
-4.073989662604367012e-01
-1.726955296914910176e-02
2.250400485950926621e-01
-5.421770367041669481e-01
1.179304063226281063e-01
-2.897946225994959060e-02
-1.813107368201833103e-01
-3.773338921162109477e-03
-4.589432707513896315e-02
4.422849770085074406e-02
3.852412365691013640e-01
-2.621413135858179366e-01
5.211847361291422898e-01
7.159188807406971500e-03
-2.100184985716224001e-02
3.839114571234753526e-01
2.535034951108615653e-01
-1.402177301486761951e-01
4.735228333357121566e-01
2.344189886043426818e-01
7.543838046822608223e-02
-3.030157005857117003e-01
-1.915907727803651817e-01
-6.399765325986189746e-02
3.403451468690050774e-01
1.323641154867373770e-01
2.966334430771105229e-02
-3.426776821416771535e-01
8.502202695034200008e-01
-1.884846233924234449e-01
-3.338962127486148623e-01
3.836842294738536385e-02
1.489186896872727317e-01
4.032556014432847613e-02
-1.142784358370129011e-01
2.554239307254493885e-01
-4.243800563610151122e-01
-5.640191117996949666e-02
1.050698563731712332e-01
2.036606536778015897e-01
-1.763318908291511278e-01
2.530929235960925894e-01
-3.338930622374557955e-01
4.371688151281765133e-01
9.022999838012026042e-02
2.440557126930081172e-02
2.000958031769787537e-01
-4.035154655601410068e-01
2.467367143352955927e-01
-1.181193431280722211e-01
-9.222008117133154159e-02
3.252800903243535657e-01
-1.166112230638600700e-01
3.846812949313866414e-01
3.359157055894249622e-01
-2.107157541544929166e-02
3.332398924335785995e-01
2.950573978116112217e-01
4.878788212612443220e-01
-2.232351779174204798e-03
2.860594979984283914e-01
-1.625124678538475975e-01
1.495539066325737854e-02
7.475624189061554903e-01
9.204858598216775212e-01
-1.408374030531509280e-01
-1.414422257992330734e-01
-4.957309703687212687e-02
-1.491494122119536858e-02
2.557827675128480915e-02
1.904121929130708768e-01
5.924466122817949321e-02
-4.691176345154784988e-02
1.005946966174908475e-01
-1.889064214023497557e-01
8.299479253694828085e-01
-1.373141269178336510e-02
8.086815346388771530e-01
7.531981305310403441e-02
2.711211546243441073e-01
1.202497376428884185e-01
1.207023856242331050e-01
1.324340902909188766e-01
-2.317177742962188425e-01
2.866079441842603881e-01
2.136746229082581716e-01
-1.232806018506958992e-02
1.275300303045937278e-01
1.617209270680633471e-01
-1.236689398731654066e-01
4.272893166009786303e-01
-4.075323500068920302e-01
4.658165648547635262e-01
9.541098201279997471e-02
-5.269298865479479232e-01
4.045346286548947012e-01
-4.798899512269472201e-01
-4.993799339786550440e-02
4.689784863382719382e-01
1.171145807304644487e-01
-3.611047334463206582e-01
