1.180964178766285150e-01
-5.487536305847159901e-02
-1.313202797883801232e-01
2.326324330502804461e-01
-2.768898045998773316e-01
-3.717851714453213052e-03
2.969574086198465968e-01
3.057741351617523362e-01
-5.677420084356969709e-02
-1.413155782794427717e-01
-4.492061299176031142e-01
-9.641830806294762746e-02
-4.283244126491635995e-01
-2.068808759282189103e-01
3.489225947409785866e-01
7.791610330165787968e-01
1.957676365350473624e-01
-4.647437123504588596e-01
1.191087803711795082e-02
5.716794645335606523e-02
-2.250480164613715139e-01
-3.644710557588079491e-01
4.588465096263371623e-01
-5.975201468986195419e-01
4.015435073869402238e-01
-6.209995896155351414e-02
2.324004503008803013e-01
5.458790468654619449e-02
-2.338936912043098060e-01
2.028900022584542162e-01
-4.194755788833100518e-01
-1.059448606127013498e-01
-1.123846748442513394e-01
-3.150632951117674496e-01
4.082656431173526182e-03
-2.693960754391915291e-01
-1.404634745609982804e-01
-8.814179818367973152e-02
-6.406881848918383193e-01
-2.552764724794853723e-01
3.037417670805823700e-01
-1.854591523702570910e-01
1.950543955195157275e-01
1.010522134074007955e-01
1.603638543779661585e-01
8.796604587040196543e-02
-1.560055100887237922e-01
2.105555004265214358e-01
2.018069595209686096e-01
-3.308944869989079995e-01
1.409278425797215184e-01
1.742961092583381610e-01
4.906487985741413149e-02
5.239022125549207543e-01
-1.938667738365310034e-01
2.036837049089225693e-01
-2.371521426815095812e-01
1.457856138693943981e-01
1.858956993749680819e-01
2.026755668789206322e-01
-5.224163012204696699e-01
5.493214647340882717e-01
5.938029911651332426e-01
5.870837320097787027e-01
5.763183908085994095e-02
-1.193318823851862859e-01
-8.161112434941103499e-02
3.942368682239518751e-01
-4.292200137883669941e-02
-3.927479042121445052e-01
5.211803367513108132e-01
5.123965831751080557e-01
-9.796716157231404043e-02
3.817213754237648859e-01
-3.213681028530591122e-01
3.983350860337061539e-01
3.510371951715897110e-01
-3.000123845805981460e-01
-4.288656096908265436e-01
-2.889344264143312024e-01
-3.031135756955866123e-01
4.771015230400017793e-02
-2.396647006156541471e-01
1.627261398473633935e-02
3.165824315329819338e-01
3.324479918468915551e-01
4.121048902514911627e-01
4.406259389433866414e-01
-3.912825605430187426e-01
2.037312091945919501e-01
1.130417935508549326e-01
5.166655054919243595e-01
-5.312973721441183184e-01
5.079725244430969289e-01
1.454206516302925523e-01
-1.908508375397195145e-01
1.828329116747379746e-01
1.249631868128627532e-01
2.484425251032466864e-01
-2.178505970258371727e-01
-1.733955155417248872e-01
-2.842872985870993907e-01
3.269381412061536651e-01
-2.090192120828421873e-01
-3.993188953810192232e-01
9.697758305745513008e-02
-3.591530530085234041e-01
-1.886146744224627692e-01
-5.882720408277435364e-01
1.414631003168915768e-01
-4.628678712154704611e-01
-4.109207276078161164e-01
2.537674998993796893e-01
6.718251067775548035e-01
-1.558073551083846708e-01
-5.489205626412114736e-01
1.125072645243495456e-01
-4.764821124443710532e-01
-5.234463025814285048e-02
-1.037783740921398440e-01
2.163959569306089514e-01
-5.980733868478331772e-01
-6.803902496089253571e-02
1.936937413871454572e-01
-3.288456618101151530e-01
-2.955942116296508271e-01
-3.213235407190120907e-01
4.281339339177392400e-01
-3.325211470434491501e-02
1.919509127995746578e-01
-1.590958761550345102e-01
3.709362667858587814e-01
-2.896521129577671050e-01
2.706397109267416612e-01
4.098317575331171803e-01
1.424554015497220827e-01
1.879082734584421321e-01
9.652388709347582002e-03
3.920272685867970397e-01
5.833410657697707391e-01
1.564882859522299663e-01
1.094682549502237756e-01
-4.281892172423980569e-01
-3.193195523221584176e-01
-1.408568272216870476e-01
4.791731184617254447e-01
3.342035228238499078e-01
4.952539239992426734e-01
5.340785210364125124e-01
7.784964947807856972e-02
-1.442592099060156507e-01
-4.885054118431438330e-01
-1.737244002885424687e-01
4.111893687654382679e-01
3.595833777282107097e-02
-5.721168421302232077e-02
-2.899559962559742354e-01
5.951496255952963832e-01
-1.506833344974148337e-01
2.365897302559290538e-01
-2.800634452764706461e-01
-4.402600994872319928e-01
-2.525186756384095732e-01
3.560751087507755264e-01
-3.955999978478250689e-01
-1.007371767384038497e-01
2.281754021000014232e-01
-5.896786781930406507e-01
-1.499462982035345004e-01
6.002988086666022349e-03
1.634334040712384639e-01
1.184192786213631027e-01
2.074210622605995868e-02
-7.389552637551309588e-02
3.260337861499207901e-01
-1.541658578349462405e-01
2.537361040048176086e-01
-6.251953502243497163e-02
-1.164118831134891563e-02
5.286130309546468453e-01
4.970875740539063004e-01
-2.054130953209953592e-01
4.130773615407150601e-01
2.344189886043426818e-01
-1.614165371685916117e-01
-3.030157005857117003e-01
-1.135169693735773588e-01
-9.222258030837858500e-02
4.162170849525325123e-01
2.116297047760620220e-01
3.991286945453205448e-03
-9.882430040863617038e-02
7.864704361703672708e-01
-2.182900971010939828e-01
-3.592737171654842854e-01
2.374244824172631885e-02
1.957064689441366800e-01
4.032556014432847613e-02
-1.630786190371559807e-01
-6.728967879833773758e-01
-4.437812655708835430e-01
-1.768628931072246252e-02
8.976875486074147037e-02
1.637438909095228490e-01
-1.883482353328531922e-01
2.984653954568283751e-01
-3.338930622374557955e-01
4.626862721068467632e-01
1.055750614567430301e-01
3.332987728049871534e-02
1.279785264998246075e-01
2.658858542879235509e-01
2.467367143352955927e-01
-1.654201331739687253e-01
-9.392186641755323473e-02
2.880913429898616096e-01
-8.757376379584344561e-02
3.084216863845932743e-01
3.682496592753833897e-01
6.946907008159843022e-02
3.391252276316757408e-01
2.661444790382487824e-01
5.350040192546614559e-01
-3.794047884072868776e-02
3.517632658729889505e-01
-2.636702869789102066e-01
-1.598873645807294408e-01
8.052352286194893738e-01
9.366581754874497845e-01
-6.649463158174616362e-02
-1.641171842293700014e-02
-9.399567647247977775e-02
-6.696940612072649346e-02
5.551840971841964789e-02
1.889644344519805508e-01
-5.469129151621028584e-02
-1.070702207268235673e-01
-6.603361512569186353e-02
-2.158129082400873089e-01
7.815872037469342448e-01
-3.674462036949253940e-02
7.711480819073525117e-01
-1.712402189403188224e-01
3.476175143214629282e-01
1.356554716050447085e-01
1.976652934657471827e-01
1.324340902909188766e-01
-3.054094625755151005e-01
2.653379092002571826e-01
2.924425516226283883e-01
-5.000302376794037162e-02
1.275300303045937278e-01
1.199875465962479959e-01
-3.127633264903889043e-01
5.836480482764634381e-01
-3.552272539725919165e-01
5.089450258480849865e-01
6.739194629940005454e-02
-4.102470610130886097e-01
4.245910083424708215e-01
-4.798899512269472201e-01
-3.876502273844757707e-02
4.760678079679781516e-01
1.378957794064339937e-01
-3.997001149705538547e-01
