7.539281523002954177e-01
-3.316077680527011046e-02
1.343141162599140355e-02
-2.061064623394708306e-01
3.529059494719309908e-01
-3.010904845200015195e-02
-2.745087918017534712e-01
-5.348975160074126434e-01
-1.605716877864053482e-01
-9.096379435304381700e-02
1.042073904215650715e-01
-5.612588817147511344e-01
-2.540132629510955531e-01
-2.397867675137954901e-01
-3.432686701907269322e-01
-6.310094719764446358e-01
9.905132366944674471e-02
-3.543585226253936904e-01
2.084908244074324679e-01
-1.010242174221389899e-01
-1.732219599088991313e-01
1.083417744819253764e-01
3.917979509242484060e-01
-4.326332690018490634e-01
1.569336959665740272e-01
3.336721257385502626e-01
-1.651111258515375046e-01
-1.575141548665417723e-01
5.221630878742619664e-02
-5.755608067526290367e-02
-2.533861049141221677e-01
7.042657407916810830e-02
1.501622909549069074e-03
1.957621513471770047e-01
-8.166614590586623867e-02
-4.622043163631414098e-01
-1.847079779058305726e-01
9.226560007007210754e-03
-3.628558083589792926e-01
-1.287153350593258638e-01
-5.959121842393254320e-02
-3.115515551089585028e-02
1.253160093343610448e-01
4.838793648901128230e-02
-4.429367493367192266e-02
3.697966075109943018e-03
6.112915927242001946e-03
2.240178590965089256e-01
3.351739689723963744e-01
-4.530902381719366656e-01
8.660452209925970091e-02
4.240844633026314564e-02
-2.036618484202882273e-01
5.197145310126408679e-01
1.294458384735103218e-02
-1.118125916738872822e-01
-1.862115350611752984e-01
1.882744783532550870e-01
-4.099466966836845527e-01
-5.734732344491747513e-01
-2.292685637184316561e-01
-5.900160200313055991e-01
-5.225991810806301929e-01
5.175040629837102113e-01
1.937616307355895240e-02
-4.001291723009446910e-01
8.621770240950525632e-02
3.876853513977173704e-01
-1.209652563929257407e-01
-3.168671725019232555e-01
-3.926427366943397446e-01
1.859431971757845303e-02
6.388254692621184727e-01
3.675344145329889067e-01
1.134180486899575291e-01
-6.121398389197174605e-01
3.765219136420904777e-01
-1.956352720636433257e-02
-3.411452833998518397e-01
-4.948503549870363755e-02
-1.938516430507041255e-01
3.760477527638560191e-02
-3.663729104097537825e-02
1.798506835241765744e-01
4.429379976856875345e-01
2.865303845173979846e-01
4.494891565724578042e-01
2.044296181534751289e-01
-2.565876363050256792e-01
5.658175082868358019e-02
1.081118997079792143e-01
4.783203793123872449e-01
8.961600860583711359e-02
6.579303218562576605e-01
7.340870260137426218e-02
3.678039223532145185e-03
2.300670210844578678e-01
1.895413328642119033e-02
-1.166619722865222947e-01
7.485940873254494365e-02
-1.193178620717731120e-01
-1.489105529580435072e-01
6.411648665496158007e-03
-1.400800109454876374e-01
-1.838357816701187974e-01
2.255977896860985044e-01
-2.708907600287879802e-01
3.909614618132004060e-01
-9.125135360392126749e-02
2.007837993592255510e-02
-1.645806709744047636e-01
-1.409138911059958366e-01
2.324606194507204682e-01
4.133324382024512467e-01
-2.473209990824856153e-01
-3.937810920600124942e-01
7.315575817744059128e-02
-4.028735272595795336e-01
9.624908013536249973e-02
3.829111439784282228e-02
2.472403944829844602e-01
-6.198287542334821598e-01
1.110086045489510308e-02
1.780874705273866043e-01
4.063131750701334255e-01
1.929138957663867060e-01
-4.167808769413035574e-01
-1.740870090441698492e-01
1.698921196339243933e-01
2.250672012336884034e-02
-2.006343360821185862e-01
-8.755648260811720041e-02
-3.189521620356350340e-01
9.908810809977289247e-02
3.343544323322892864e-01
-1.015031344252977502e-01
3.215410367205076558e-01
8.301404864983830123e-02
4.008147122279124286e-01
2.843334518725075255e-01
6.128215166592405200e-02
1.309048293112237971e-01
-4.796028075122873435e-01
-2.254538777106742664e-01
-6.628422871296704710e-02
8.754488042462739428e-02
-2.878073789280779504e-01
4.357368030951895288e-01
-8.020684084087020826e-02
1.344352866792661860e-01
-2.976839930209547735e-01
2.657345493928437996e-01
-3.693555147680876449e-01
-2.768052094241030270e-01
-4.427438129341326745e-02
2.746716505776866657e-02
-3.441316856877561503e-01
7.485671955353282447e-01
-2.209701026969143611e-02
4.048680836121025528e-02
-3.941384435267565878e-01
8.281097732835382419e-02
-9.692616741169807204e-02
-4.573089221586660313e-01
-1.476606664370987698e-01
4.061237170693090537e-01
8.305834176359561116e-02
6.812284719446842773e-02
3.977251314913014119e-02
-3.232356222244758825e-02
1.556448010084874878e-01
5.834795352796320195e-02
3.773363299456263670e-03
1.376421090355218757e-01
3.628477647747837542e-01
2.507075085086297173e-01
-1.348772049538725197e-02
-8.111127443623510069e-02
-2.826627061139763697e-02
1.594981524160623831e-01
2.977957049245028021e-01
-2.140583513304526453e-01
3.143604029582958148e-01
-2.271617345122717013e-01
-5.333127539371119996e-02
-3.168359409189761694e-02
-1.345749097010640605e-01
-9.224188351960446730e-02
3.383521063583799782e-01
2.107159003784470630e-01
4.939033800538170788e-02
4.473494659335575108e-02
8.288783183248716879e-01
7.866263156698827252e-02
-4.678525538628748870e-01
6.799449263427723156e-02
-1.581143324327806132e-01
-1.913032801308959807e-01
2.022966222530243052e-01
3.996233251985008283e-02
-2.493451895942049856e-01
-2.348607511343707710e-01
-3.685210000990766024e-03
1.829220735449337276e-01
3.111428566094984194e-02
1.973826147804536302e-01
-2.942122282669807354e-01
-5.098818346859994577e-01
2.526057859316306331e-01
-4.594168023423225722e-01
1.471691771173312124e-01
1.405338111309583637e-01
-2.187696152111751891e-01
1.478951490279360459e-01
-7.034178536602374299e-02
1.237267845110756742e-01
1.715534617221649294e-01
-4.876635479308684407e-02
3.763906798690431765e-01
1.880455510258638441e-02
3.952512550933386382e-01
3.349218951486612750e-02
3.979324063413716694e-01
-1.481713340140768109e-01
-1.316740404173953258e-02
-2.857674304144021682e-01
5.053443994367307068e-01
-1.820548896216265533e-01
5.634148630711798278e-01
-6.355341917776951254e-03
-1.414745347760125449e-02
-9.984216901981810000e-02
-1.025430106900308697e-01
1.941671089964787378e-01
-3.260913316904043846e-01
-1.979871718072027109e-01
3.335519975046239982e-01
3.401714900748071813e-01
-2.628643002740321810e-01
7.556359134569539115e-01
-1.837688514555281816e-01
-1.163587385992730927e-01
-2.533624735819630658e-01
3.232981608633069270e-01
1.314877365876153670e-01
-6.707912830208727639e-01
7.312098073375068452e-01
6.424386641429000733e-01
-9.928128348045676954e-02
-4.347488044344428593e-01
-1.711728650254121242e-01
3.697472596776568698e-01
-3.623567087197952508e-01
1.429069296997167449e-01
3.156637536527891474e-01
-4.948352014506136043e-01
-3.375505377475003510e-03
3.919744855983025578e-01
-1.622478830291064766e-01
-6.674984430342756347e-02
-5.030239925628086084e-01
1.541455830213751266e-01
5.502365099632913203e-01
8.178499665423810683e-02
2.650331278764881948e-01
