-8.957814796137095192e-02
-1.052556006414390039e-01
-3.283587408432573351e-01
-3.113110916269605233e-01
4.253220065123073934e-01
-1.793344302505162080e-01
-4.943534562508251073e-01
8.962261383732006426e-02
1.174488632161629076e-01
1.296098425889530836e-01
-2.535481849074023852e-01
5.156702590879346237e-01
-9.054701104714363985e-03
-1.937440978633973299e-01
-3.267360656343804015e-01
5.143226615680316360e-01
9.573384314063416722e-01
-1.032862484407103265e-01
-5.751178216270494969e-01
6.045290057894345814e-01
5.052598017133862474e-01
-3.980593753972306442e-02
-4.903856239943836792e-01
-1.241718771492679868e-01
1.040411870804292815e-01
7.249718595702757395e-02
9.371615986254965003e-02
4.929786563837869062e-01
-6.744728658491887519e-01
-6.933092956589794742e-01
-9.044353974165086907e-03
-3.726127437725579306e-01
-5.056297534968806628e-01
-2.001376813585148406e-01
-2.083387478472726873e-01
5.149153057395282340e-02
-5.972055145012289401e-01
4.016749292378746783e-01
-7.781949413616567890e-03
7.686794495352979040e-02
-3.221975786281712217e-01
-1.393036745945519517e-01
-1.487963205665065181e-01
-3.492498859853951920e-01
9.369120491824388386e-02
-1.507972412633540316e-01
7.412845348752694630e-02
-1.678987733217663508e-02
4.184260491773611479e-01
1.563118287009210017e-01
-4.826921380736545752e-01
-3.112809334331121391e-01
-1.067151214862446656e-01
8.254043198360398736e-02
-3.864419440829937324e-02
-1.879709548815076126e-01
2.149567222921308640e-01
-2.272052458116149420e-01
3.977606723174232917e-01
-3.773104447445959631e-01
-1.611208316941638574e-01
1.535572877445561674e-02
4.535595859681834652e-02
-2.495078352315556747e-01
-1.921346593276797299e-01
5.318719116370954764e-02
-8.521917014761012932e-02
1.370377748562316006e-02
-7.269683651336660696e-03
-4.240773766528889710e-01
5.838080488072310281e-01
2.113610613270203997e-01
-1.458172608714107810e-01
-9.644723124960145888e-02
1.821270336705221593e-01
2.674048291762624041e-01
-2.479054505503458516e-01
4.739869935684962177e-02
-4.020236320072508862e-01
6.381437851743595457e-01
-4.553786331237296148e-01
-2.571114300318168011e-01
-6.286131997274387873e-01
1.153520890104164642e-01
-7.173365561900602039e-02
-7.531545366674975706e-03
5.505215790431891021e-01
1.567801491257841129e-01
8.733041391035507861e-02
-4.759564454036521175e-01
6.176020559379254149e-02
8.825810021017002627e-02
-5.657660435627436674e-02
1.821648473554962622e-01
-2.480564684131122966e-02
2.578649668721091359e-01
1.989264444219240174e-02
-2.077730188707124781e-02
1.405042368992047708e-01
8.035163803747422118e-02
-1.256873377867825659e-01
1.048054132698282709e-01
1.531237984848820011e-01
2.442189437907830996e-01
-1.823568857101149354e-01
-2.166695259441537569e-01
2.909222289536735340e-01
4.935545431562179397e-01
-3.541739328207840765e-01
-5.662548957194100119e-01
8.856564815931133872e-02
6.552497705052826027e-02
1.157811595043290870e-01
-1.759828032582268498e-01
4.184909753154024692e-01
-3.118829389909387184e-01
1.715340103068134781e-01
-4.146089994073018925e-01
-1.561337768897627098e-01
-4.484595413160186173e-01
-2.782621456056633691e-01
-6.066568196221273634e-01
2.211008193199514582e-01
1.597537558553950854e-01
-1.951811598473812415e-01
-5.923719295098368587e-01
5.561051347481552054e-02
-8.162304867908638517e-01
3.185015806017879592e-01
-2.547092136894609782e-01
-3.928191279573835515e-01
-1.372921382285265945e-01
3.342788879123178014e-01
-1.453925332465765274e-01
-7.092760900731729379e-01
-3.484198198084910159e-01
-4.661627356392790134e-01
-5.017029751632950951e-01
3.455487363182001559e-01
-3.161426278174740978e-01
9.206680257853243343e-02
1.508826952122839515e-01
-1.257245335245975870e-01
-2.224992721140152674e-01
-1.353106333463949817e-01
-4.618556319139816013e-01
3.163024561949495661e-01
2.425987750026750156e-01
-5.928210220716421119e-01
2.359470994392487142e-01
-3.404944181415993087e-01
-2.478540944690924841e-01
3.906675438307996573e-01
-1.736360844100119372e-01
-3.075823073900673110e-01
-3.520713456222562820e-01
1.098805845406386483e-01
-1.754968571895009211e-01
2.153564572572466140e-01
-1.182905520458266829e-01
1.066108944028958117e-01
2.571039365991947823e-01
-2.207949298348206579e-01
-2.428304144193891290e-01
9.792649386956560342e-02
-2.636764579589934154e-01
2.522436394959271314e-02
2.517631951758927400e-01
-2.878069568387314758e-01
2.833957274908489588e-01
2.589797146955961638e-01
-5.688756167164704669e-01
1.080712528373277137e-01
2.147456040548108569e-01
-3.123878970061851890e-01
3.159851279486430298e-01
-1.344140257515079873e-01
-1.633362074978372824e-01
-5.858743715913833361e-02
8.076379280302893593e-02
-2.020485076623534104e-01
-2.867101932973330491e-01
1.970023578060770830e-01
1.087232982908412637e-01
2.247808943983231889e-01
-1.475084731611280564e-01
2.550136702659970278e-01
1.078886256969527890e-01
1.571116613720916766e-01
4.184827575986437009e-02
5.081568174354745837e-01
1.595863655365040157e-01
-1.811679508327030536e-02
-4.242272151901336774e-01
-1.732220699901451944e-01
8.316756864891444723e-03
6.254503966876141796e-02
4.230175443808185942e-02
-8.045515252430693320e-02
2.791225140166730262e-02
-5.967033127528642567e-01
-2.969471518103878327e-01
3.900719316635720135e-01
-3.239182882265203012e-01
-2.652934810575232061e-01
-1.517230165919541962e-02
-3.289290566310669184e-01
-2.116224969537472966e-01
-2.876690227739216871e-02
7.624265457571711285e-03
3.395053639469798878e-01
2.949312497728097671e-01
-1.233488745700820483e-01
2.119189862090589127e-01
-3.137932627986186884e-01
-1.231827577965869530e-01
1.882856926912226947e-01
3.609799992931582435e-02
-1.364608630734891470e-01
-1.627581038418031145e-01
-5.253691486601816951e-01
1.770283187762410615e-01
-6.148890888074839967e-03
-3.816603193450265885e-01
6.972059260363917821e-02
-4.790809663924784356e-01
-5.380134599666512585e-03
1.586111043519780606e-01
-5.158598552309920926e-01
3.728242541398339022e-03
-3.631348351390794038e-01
2.467525621833353555e-01
-3.407469331149043379e-02
-2.037155819350867647e-01
3.073802851682093107e-01
-2.704325136706169364e-01
-9.411547997722569114e-02
-6.117117706258693444e-01
4.782376747602949396e-01
5.430018348061352307e-02
1.219991159273198372e-01
5.251126695699019908e-01
-3.068311418830003134e-01
1.213043508678169485e-01
-7.746956463278401039e-02
1.137980776181727605e-01
5.213788630359896814e-01
5.343163646301187786e-01
2.898395706050495013e-01
3.596300964022881574e-01
-1.086849468823087583e-01
6.480966759961389601e-01
-2.019194240244870098e-01
3.460528452174105873e-01
2.556561273988635086e-01
-9.396750955987789866e-02
1.334411477030426341e-01
-1.197169733341471309e-01
-3.879616940944670689e-01
8.304832272635617740e-02
6.322018640630709674e-02
9.146994373272239465e-02
3.411207664453902444e-01
1.234229042728449827e-01
-4.031228670457169816e-01
