3.112873286071317080e-01
2.010893838572037073e-01
1.517320405821726004e-01
-1.191342994289840140e-01
-9.284754907525503975e-02
3.820317239062659964e-01
7.529030675553194385e-02
4.229108058211452081e-01
-1.803302371593721865e-01
-2.216025472368132743e-01
-2.090511114315469765e-01
-6.465804975332607729e-02
1.469964879110386702e-01
-1.029466632879856292e-01
-3.876680016502260795e-01
-4.853521344614857846e-01
-3.685725460322865632e-01
-1.409602006185096124e-01
1.573153587093070183e-01
-1.151271703978248295e-01
2.509272534594770288e-01
-3.941494356135552546e-01
-2.645540468065846751e-01
1.881658362110735783e-01
3.362473404640692887e-01
1.152386625606225401e-01
2.148694662345116690e-01
1.783919727951933099e-01
-2.548142855885346947e-01
-2.077729668303039956e-01
5.157390075457884276e-02
4.295977017838156220e-01
2.506972443731096956e-01
2.301929252226496136e-01
2.424612093828757420e-01
-4.380583136373606412e-01
6.404242783941045403e-01
-2.171968911576029060e-01
-5.293222362847394002e-01
-2.396494138372409211e-01
2.196042197742244795e-01
5.030588275619710115e-02
4.259827264852304451e-01
-6.412983460892150989e-01
1.287228739021216151e-01
2.899663094124560470e-01
7.612758537635593015e-02
4.397563877867708415e-01
4.950252034328636586e-02
3.111937735142390471e-01
8.733127179319741251e-02
-2.912182833496471668e-01
-3.019512516042152650e-01
6.363398702212129665e-01
-3.587497905486351502e-01
-5.009584832741909022e-02
-9.382148633205988908e-02
1.189793991667740386e-01
1.204906716500295932e-01
1.488427716531562639e-01
-8.002236856779904040e-02
-1.679438771916002549e-01
-2.389800380300060589e-01
-4.198117889160951632e-01
3.799111128401498894e-01
-3.793318581779686061e-01
4.948160872657192400e-01
-9.038156984804752991e-02
1.665450440133432464e-01
4.538445328636854792e-01
-3.062401706598301687e-01
-4.722135913165472765e-01
-2.427897091271967178e-01
-1.425947934320236365e-01
2.560086979767812188e-01
-2.004535320105747531e-01
1.362812461010919907e-01
-2.268120476224513293e-01
-3.901723262608352422e-02
-1.030921417147451502e-01
6.474822427771867450e-02
5.422282420493552274e-02
-3.450218267421218399e-01
-3.126519337791368591e-01
-2.152313787001702491e-02
4.421819088320920188e-01
4.124236005077492329e-01
2.944077010216049617e-01
-3.541512669290642346e-01
-1.303212167706960245e-01
-3.814128583219646845e-02
-2.409763551777443502e-01
3.854630413462125094e-01
-4.288839035068969241e-01
-7.175902588628387813e-01
-1.182074872091953832e-01
-6.505434531353835315e-01
7.728889867068378106e-02
9.082000217258938066e-03
-5.935028283598886567e-02
-3.237065717449615077e-02
6.949302154397288267e-02
-6.636455473604321864e-02
4.475828963511921943e-01
2.876653914849437443e-01
-5.093122785234701633e-01
-3.966886548347514085e-01
-3.379227446416006586e-01
-3.870203158581721481e-01
5.216164423879323664e-01
3.292136024312991016e-01
-1.927618191698292002e-02
6.654981511810060812e-01
-2.583236558820034556e-01
-1.748777879563668813e-01
-2.100684054829249914e-01
-8.307401651240833296e-01
-9.932031991778565716e-02
-5.127401434854157447e-01
-3.734808721683847282e-02
-2.799236143098226548e-01
-5.459796278431132688e-01
-9.715713694604612150e-02
9.148806269682372566e-03
1.717112502393050577e-01
-1.037908413999942409e-01
3.926235592254216367e-01
1.037621000253882014e-01
1.716845015548907893e-01
9.113114608531067140e-02
-2.164454290965564243e-01
-1.290947357643779381e-01
-1.179165833654087364e-01
3.520916536012677067e-01
-2.999631885062507552e-01
3.797307300475054603e-01
2.787177358916242964e-01
3.219856176854672403e-01
-3.018428106298286506e-01
1.777942131026203742e-04
-4.883919169445581285e-03
-4.887052533159109702e-01
4.730388547051531806e-02
-1.855493547603114246e-01
-1.422686175466705005e-01
-6.465090784021519932e-01
8.859938910415732227e-02
-1.909784917879525923e-01
-2.671742067643688712e-01
-1.245146519146320694e-03
-2.139097646191062407e-01
-4.071336062308346659e-01
-4.126428353892159229e-01
2.166296688217426037e-03
-5.293120942356905889e-01
-5.934608159131896654e-01
4.059563174539511377e-02
1.156891980866260050e-01
-6.765147029411014978e-01
-2.599591167140844483e-01
1.589479595471170736e-01
-3.441664078958313611e-01
8.710856415864767777e-02
1.758950776411916939e-01
-2.406059905848836888e-01
4.872219208503465460e-01
4.402582193178343206e-01
2.201273786217177938e-02
4.291605327344676091e-03
-2.153988899811424829e-01
5.625457848940922101e-02
-2.278656925087257090e-01
-2.695720729881203592e-01
-1.719667967865935732e-01
7.923302463267688223e-02
-2.106827388556809788e-01
3.192860251830958451e-01
-3.804285261529932738e-01
-4.218718409115951307e-02
3.630743567013718920e-01
-4.770132008604459628e-01
-4.430308827637852720e-01
1.616066900458085556e-02
-2.447810811559771316e-01
-3.768100134555449343e-01
9.326941653494431606e-01
1.428551905269080380e-01
3.254827213510083639e-01
4.784402209289935481e-02
-2.462191425818029411e-01
-9.315456926385871916e-02
1.953150292280095568e-01
1.362071927672690308e-01
2.073607649889333271e-01
-4.551605912068501514e-01
9.580472484744174955e-02
2.045015768870623030e-01
1.915014201291224405e-01
-1.186394184971217292e-01
1.093791680857566506e-01
-4.380401780376770859e-01
-5.184731483911020344e-01
3.248484615813798104e-01
-2.056709756568712941e-03
3.900956084557277714e-01
-1.226494780308570644e-03
-5.206197973773337706e-01
3.183648218315961453e-01
9.780772056960747307e-02
9.790038267528286542e-02
-3.016421648430876457e-01
8.194084130716873526e-02
-1.235075635187173893e-01
-3.577831941780333907e-03
-1.598427076174011585e-01
-9.855509428004814720e-02
-7.917414098824768903e-03
3.220629641575283864e-01
-2.046397469389620027e-01
3.714732232298320058e-01
-3.015198731355157591e-01
-4.328853860780305651e-01
-2.727162457904649395e-01
-2.566150974323451739e-01
3.116380272484900460e-01
3.575063822755795290e-02
1.244980194127392192e-01
1.405378880787913343e-01
5.679165699830303338e-02
4.880952447923500581e-02
1.090742196631040717e-01
4.917224333409163650e-01
-2.581860177268510692e-01
-3.217792910044786625e-02
-3.107790395493686408e-01
7.305958272768505735e-01
4.428659434590510036e-01
-2.123426441802894193e-01
-3.263750214243713033e-01
2.771559702884902610e-01
3.686798523175618264e-02
-3.434414493906452065e-02
3.413254602012939509e-01
4.553258099687518823e-01
4.283495118634184640e-01
-3.663698662078661294e-02
2.807180331348603786e-01
2.355919014021018998e-01
2.905155527741217214e-01
5.838834457575547976e-01
-6.103701005097623700e-01
2.626768438618179435e-01
-5.243043156434400442e-01
-2.386808912432443752e-01
9.798862972483021738e-02
7.127934913125396621e-01
2.852381318643687491e-01
1.291137947207726122e-01
1.015570252732720252e-01
-2.956076820320502341e-01
-3.471111471670433324e-01
2.861435377418521456e-02
6.900535904645339891e-02
1.941760729423267218e-01
-3.817973478176621138e-01
