-4.433048560504088131e-01
2.790491286301253204e-01
-1.943174503526966801e-01
4.985087825504607162e-01
1.974418360383838333e-01
1.621502428123824946e-01
-3.351502934471660700e-01
2.933953143847765066e-01
2.005836095741592440e-01
2.910559544231041684e-01
1.197533291242814518e-01
4.028183008905794615e-01
1.072087005163072371e-01
-1.402420314949448521e-01
-8.562535061614096055e-02
1.279361151677437525e-01
-9.920718028721674242e-02
6.311910739216290978e-01
-3.098707330646370828e-01
-4.955500773560463368e-01
-2.120046881510019854e-01
3.805580890966842739e-02
-8.626718248600102890e-02
-1.152863494072093736e-01
-1.655061976071870167e-01
8.251872262732143359e-02
1.769317845726085109e-02
-1.020671930392811066e-01
7.682740469543840323e-02
9.321697349886959305e-01
1.153703373604955396e-01
-3.140714832496422360e-01
-8.542612389517569016e-02
1.038569241213244676e-01
-1.757307634604974092e-02
-1.069814267099269689e-01
2.535742297717954452e-01
3.255493084721250430e-02
1.077211852403967551e-01
2.885507489898530009e-01
-1.569413562639818405e-01
1.151955256197875893e-01
7.267218521409979370e-01
3.094887331596538615e-01
-2.262956177473984531e-01
2.938212898229776160e-01
-6.363078251290500420e-01
1.606792312555724300e-01
-3.351825969219505152e-01
-4.360850527453308256e-01
-4.591308875114072929e-01
-7.830994545616521973e-01
3.871533479545892775e-01
2.572264904341264175e-02
-5.123352157199208001e-01
-9.056833455768548147e-02
7.203944567672888877e-02
-4.086818166303705230e-02
-5.340673516243635843e-01
-6.940914320725048992e-01
1.682416314466683160e-01
-2.460543142902202329e-01
-3.662560001143853050e-01
-1.635285450259071072e-01
-1.590027057376300068e-01
-9.112669794415442781e-02
3.903609159054833300e-01
2.963085909940618712e-02
3.192078246136513808e-01
-5.870745362937105361e-01
-3.092584742080657367e-01
-5.284034551758468590e-01
1.324758022984434680e-01
1.308992241211039687e-01
3.069347228560467267e-01
-6.284465237612618660e-01
-1.082028696915315197e-01
3.846084797785234710e-01
-2.658825896134796585e-01
5.356241294201347092e-02
-5.948135136068737339e-01
-2.363783895298428306e-02
-8.204735726647385818e-03
1.043151573264082116e-01
-5.161486684919296408e-01
5.984390293775135317e-03
-5.889915881474173942e-03
5.286247151791731991e-01
3.399982973768073818e-02
1.063054892839068039e-01
3.243499230250135312e-03
1.549056721089584615e-02
-2.918638330998120714e-03
-4.032087003128748126e-01
-1.445696855934284764e-01
-3.864999442888708558e-01
-4.607574149591814328e-02
2.804963982903893593e-01
-3.394122433620361812e-01
-3.407093413297595519e-01
1.201382293800153100e-01
-5.638780005291268438e-01
3.003963347951869589e-01
1.251624816697954612e-01
4.143142300931497157e-01
-4.559573136606511756e-01
1.479544093437578645e-01
-1.312797384331615136e-01
1.631103538060201252e-01
5.191785310012540094e-02
2.280029367075066260e-02
-2.370844577431519273e-01
4.925349657104741707e-01
6.134766962470643570e-01
7.719091599756051914e-02
1.151595663822615467e-01
2.984439766054059473e-01
-3.303466729962207249e-01
-2.234692561988631809e-01
3.733935124502302250e-01
3.091704029068245360e-02
3.294848742617494802e-02
1.256541062891387318e-03
4.512843556525552025e-01
1.886279764261462599e-01
1.778463195007832787e-01
-9.199045659453093660e-02
-4.005511028752444663e-03
2.325851467319662857e-01
4.044929200698310634e-01
-2.122504943363002008e-02
-3.679549066429574911e-01
2.211536182381650117e-01
2.815208697064043863e-01
-1.521713936849539983e-01
-8.554954813128161362e-02
4.743404459584895511e-02
3.391381280275136412e-01
-1.743843223848662652e-02
2.872664267086674217e-01
2.024855949491366491e-03
3.838723351671462225e-02
-8.446112966432076097e-02
1.498330574895097300e-01
-2.027255918732488171e-01
-2.394030749435944183e-01
1.147595916404240413e-01
2.674420833565734901e-01
-1.047056269328452000e-01
1.564437150902406315e-01
1.777547029692568836e-01
-1.040634735088696999e-01
-7.527829630469985711e-02
-1.583323613523961726e-01
5.172750551412538811e-02
6.195127165795248636e-02
3.766654927607085424e-01
2.253839453865340292e-02
-4.715545563498631521e-01
-3.799535282612852977e-02
6.262494810625425512e-02
-6.950955627034212103e-01
1.383032841219940801e-01
5.068232543893821385e-01
7.643812911476757788e-02
-1.161832659570955772e-01
-3.669956091479031901e-02
1.569460168325664262e-01
-5.162935316995534984e-01
-3.114395150476914620e-02
2.921266302671264303e-01
8.183498144689199671e-02
-1.861434952462117653e-01
3.898439118858855190e-01
2.424887126432056228e-01
2.271033298874614581e-01
-1.061563089783889718e-01
7.178652623635339847e-01
2.076036522152769903e-01
5.782819085752910482e-01
1.893727344161114379e-01
-4.500041956797298237e-01
-1.903305677856413358e-01
-6.674598209007991390e-01
-3.558408454749031891e-02
-2.210002135048885485e-01
3.283867765997897092e-01
3.305807019580256356e-01
1.251634141424715074e-01
-1.737423678001138658e-02
7.103355127567514415e-01
3.526643810294549097e-01
-5.475171419372211190e-01
-9.932417784197013211e-02
2.253599194581267784e-01
4.212620507800259040e-02
-6.347314899707406921e-01
-4.266617190614756527e-01
4.647389590772155743e-01
3.198241394677702604e-02
-3.196545790755627170e-01
-3.736311266325640923e-01
1.871378499424558584e-01
1.673962046241622981e-01
4.576528901818845141e-02
1.541342496153169095e-01
3.572760709637459731e-01
-1.732726043235505997e-01
-2.446277332283038411e-02
4.582368164506354230e-02
-1.279697999296273425e-01
1.395971936458082485e-01
2.353515592791359246e-01
6.657345628892184786e-02
7.719432016605177749e-01
2.117342420343681225e-02
6.086627859685131980e-01
3.556421230215727203e-01
-3.127988843181122025e-01
1.981352493613075805e-01
4.198312179519377296e-01
-5.274919957627504097e-01
-1.474760167001923639e-01
-4.548444592847288720e-02
2.645774861609901940e-01
4.994808182219587223e-01
-3.645063351827468878e-01
7.168281317420807652e-02
1.404742578673005282e-01
-4.130394261190817318e-01
-3.616803495850682837e-01
-8.309827457233999182e-01
-2.578239942792793227e-01
9.596237136313233718e-01
-1.337591447188068716e-01
-2.723221581026578214e-02
3.687128947114815675e-02
-2.361115904966820112e-01
5.775885103254687625e-01
2.954573178549436789e-03
-4.524648254780149204e-01
2.090193336195259599e-01
3.354138971042522344e-01
-7.135118421515938836e-02
-2.184581307573369227e-02
-4.599235170323877075e-01
-4.736566871615792707e-01
-2.065552846095035366e-01
5.189641601398711085e-02
-3.883635891742933111e-01
-1.135993947760704226e-01
-1.389944815925846788e-01
3.459602910208118276e-01
-3.303727559839770289e-01
-2.875755478967634837e-01
-3.193535858726045257e-02
-9.658980727866450788e-02
2.748577833183995511e-01
-1.361946869988423237e-01
-3.897801192170466389e-02
-6.905512194478750088e-01
4.380358649470813548e-01
3.101916148620084690e-02
8.930564116980140021e-02
2.010133930669221469e-01
