5.046227078156091395e-01
1.806632094869966010e-01
-1.208224270525160016e-01
8.071941989641302773e-02
1.139760103311434764e-01
-4.554088288554625219e-01
2.888701926663977959e-01
5.513938255760615359e-01
-1.983025251740634376e-01
3.166365640140276771e-01
-4.268934463479888419e-02
-6.770810851738290337e-02
3.927345393229539350e-01
1.951220399352187884e-01
2.711556738112828602e-01
-5.571606322170591374e-02
-1.010950028413099555e-01
-5.104288803853259671e-01
-5.036055787948964801e-02
8.614267243010537145e-02
2.802618810605964073e-01
-1.767507203269114702e-01
2.678007335870842276e-01
-3.851366419551693898e-02
1.528070976887762056e-01
3.071989360663074931e-01
-2.034078958968033313e-01
4.379604456159693626e-01
3.489483009638640887e-01
4.329996125815653851e-01
1.783737686596532646e-01
-2.795185451124517773e-01
2.305842468164412962e-01
5.871758918445011410e-01
-1.097872857547940034e-02
8.314299902308496248e-01
-6.054473994843474483e-01
-2.402846518460682035e-01
-5.058719542368315253e-02
-3.128334012652513874e-01
-1.645656166236807438e-01
-1.164746274215822802e-01
4.810683009758949247e-01
5.726971158963799213e-02
-4.006877078925946134e-01
-4.980040965209086012e-01
3.386411308764822881e-01
-1.211975066096365322e-01
-7.949244104612265827e-02
5.489491398990679200e-02
1.754982069206034168e-01
2.751547763982408745e-01
-2.099262969654071553e-01
-1.240729953482003628e-01
-3.977525055203315896e-01
1.015814865181826621e-01
6.878495127864274472e-02
-2.781332455782870583e-01
1.276815474272595674e-01
-5.623079956092909004e-01
3.107687968518235699e-01
-7.173315010207861886e-02
1.928412821005282690e-02
-1.788502586011497114e-02
2.431740750407426210e-01
-5.193096731942505040e-02
1.779212855006576388e-01
2.907147208653735881e-01
-1.627648519123564286e-01
3.004374145064517831e-01
-2.377307204522733919e-01
1.502308432099092317e-01
-4.623007957113069999e-01
-2.290889868327710133e-01
2.629192155578851664e-01
1.184486719461993187e-01
5.218568429161544175e-01
-4.787126528759592242e-02
8.661130338164198250e-02
6.009455395168111780e-01
-2.500516524257740958e-01
2.791147220925532801e-01
-1.707655504915685796e-01
-1.198780675444930943e-01
-5.262551330667945143e-02
-2.807358309245147066e-01
1.267258907330657824e-01
-1.762680015431765113e-01
5.353731460180562174e-02
-1.397286966219473681e-01
-3.515722228626595725e-02
3.217593999463341237e-01
-2.719494411493770802e-01
4.098866361284938531e-01
3.593130599538497116e-01
-7.971490166342067030e-02
-2.571274503538996115e-01
-1.868382433733090930e-01
4.185084821753644602e-01
-1.921865160184142718e-01
7.321223418365081503e-01
-4.912262199971362264e-01
-5.774264701730138505e-01
-5.196058110154319065e-01
-2.801306315104110101e-01
2.607492370590118180e-01
2.483804214053728088e-01
-2.330721442531736298e-01
1.682253545880905699e-01
-1.710685982360224400e-01
2.811102409801617963e-01
-4.894151615032615171e-02
2.962400496274512074e-01
5.611561605734871616e-01
-5.139398993437458429e-01
2.485880993706798825e-01
1.471325961435448332e-02
-1.617248311274836758e-02
-3.163935818619089124e-01
-2.087069131366099672e-01
2.622014550940782174e-01
2.710350814366209726e-01
-4.196630575826944959e-02
6.314669244118345515e-02
-2.810216250604052335e-01
2.184507351835637268e-01
-4.430817611026241498e-01
2.439145325128895814e-01
-4.550509767840653641e-01
-2.607731581996076686e-01
3.323318388206569773e-01
2.207783269798554993e-01
6.281118709041244585e-02
4.680014190538662189e-01
1.871502264148524608e-01
3.302651814374156780e-01
1.373301627590614027e-01
-1.198289634439782259e-01
4.251384676141329311e-01
4.609936747283991942e-01
-3.218825460996168064e-01
6.740348912457511110e-02
-2.060258979638672772e-01
-3.033486465776139562e-01
7.194875998393749361e-01
-2.617531177404645026e-01
5.227860338133648588e-01
-8.502940579655939024e-02
4.603618834164528439e-01
1.410241807568633488e-01
-3.732996807336182443e-01
2.811651340277235844e-01
2.124911643516849691e-01
-6.289349140797663440e-02
-2.590224220799670560e-02
-3.814548851790270922e-01
4.377805665215091929e-02
-1.333244318044406462e-01
-2.716619126914798232e-01
1.504870373833166741e-01
8.031518067304266317e-01
-3.102983662720053548e-01
-5.060198148665785711e-02
1.938942668009660808e-01
-5.396002739715133334e-01
-9.445082717724331833e-03
3.978212355333101691e-01
-2.245704775299602746e-02
2.279904245869489032e-01
2.577211121269186358e-03
-9.827618855133803122e-02
-1.805449358626542988e-01
-4.017968113095103933e-01
1.585389690146165459e-02
-9.661191588662035312e-03
-1.239939933934363914e-01
-3.390702182928752584e-01
-7.082017352248277664e-01
3.356187498305641115e-01
-5.704859531346253565e-01
-7.273465672002088489e-02
-4.608187824895507712e-01
-2.368865608158749470e-01
5.370472718725274319e-01
1.919137261582207488e-01
-1.991457461960748909e-01
2.711163204950473582e-01
-3.125500576598126690e-03
-2.070925177482908497e-01
-1.257614821442717135e-01
-2.083767390830480737e-01
-2.310573238450335520e-01
3.681661796892094496e-01
-2.735665866226605347e-01
5.891647873317830408e-02
1.040388181869647544e-03
-7.129209213790474453e-02
6.649902073265515079e-02
-1.565989527107215229e-01
-2.989867231701147099e-01
1.346026093000677881e-01
5.261932724112149407e-01
-3.497085084011430367e-01
4.063517501553142730e-01
-4.947834421306199215e-01
8.867983996162617788e-02
1.215232950077574925e-01
-9.191149094313888490e-02
-5.228429920147008580e-01
-5.436609168549758064e-02
1.291453197953811305e-01
2.415858800554616659e-01
5.888469383810162050e-01
6.952781654366331221e-01
-1.764050095240116134e-01
2.595638166342270625e-03
-4.208291420994758059e-01
3.802710384383931053e-01
-4.347341225302221723e-02
2.691344808013057532e-01
2.021577307200348173e-01
-3.763717624121672989e-01
-2.849350178975036396e-01
-6.294380833689965371e-01
-3.789398785175077666e-01
-3.643179106250166721e-01
9.747189825218169346e-02
7.009813520168189926e-02
-1.478045605851841249e-01
-3.159037611642913079e-01
2.537167162676114973e-01
2.442702790086030973e-01
-1.615340183494193282e-01
-7.866151295861621706e-03
4.560550930900909572e-01
1.508879465403343834e-01
4.305438604213174814e-01
-2.903598611973015053e-01
-1.316896674238534626e-01
-1.104717701479879105e-01
-6.599868105956596676e-01
-3.021807958626432922e-01
2.982881852912739884e-01
-4.076754774028881756e-01
-9.640965340677551398e-02
-7.461664926273279264e-01
-3.186611017522877898e-01
7.171158588254851196e-01
4.548643326593903025e-01
-1.111570740124770557e-01
-1.141965899419581931e-01
2.778158558563909586e-01
-2.478636198796469181e-01
-4.269988999388769912e-02
-2.700075384814104584e-01
4.344146348556701676e-01
-1.190248366493137366e-01
1.029968013968375340e-01
4.794574933411535067e-01
5.253811202853517215e-02
-4.210843356969757867e-01
-5.921086297712427338e-02
-3.249987734752837198e-01
-4.019536810365814672e-01
3.009432911061215576e-01
