-5.077142321231344069e-02
-2.443272690883688952e-02
-6.326887670011955844e-01
1.413795553466924704e-02
3.402449817381920649e-01
-1.349370379488120525e-02
-4.207381758865997856e-01
3.449673497630040275e-01
-1.189964003512097579e-01
5.942521697517462176e-01
5.618125634277220115e-01
3.066519378155809217e-01
9.798153510977616887e-02
7.462734370337957834e-01
-1.409634804509343475e-01
2.277330606139197633e-01
3.439610497682460410e-03
-1.133442592927697834e-01
-8.246650015240379605e-02
6.719910038650139805e-01
3.372131002698314783e-01
-2.476015958126847050e-01
-2.956208729478215225e-01
-7.955579048764254146e-01
-2.573339885413777894e-01
-4.927519278725221441e-01
-5.562793039301314885e-02
-5.273327342326197820e-02
1.271474784848381501e-01
1.435800004786119688e-01
4.970651678190930040e-02
1.832578486805018780e-01
1.477865296843534626e-01
1.010616839119737043e-01
8.452178592854857342e-02
-3.942368108940582649e-01
4.965114728198584126e-01
8.267227398384144332e-02
-1.999215236667235551e-01
-6.635298699569752712e-02
-1.885484741645959139e-01
4.503277600354779198e-01
-1.782878931192003469e-01
3.489244738039593008e-01
-1.993849544506004490e-01
1.208960065412566509e-01
-6.777229812520405017e-02
-7.315738744914225267e-01
1.558687473886566921e-01
4.122271416187529014e-01
1.652088397368562667e-01
2.104201483797773775e-01
-1.062983279360914246e-01
-1.040678774584449379e-01
-5.102827683399032699e-01
-1.137237936365142199e-01
-5.064913939724313696e-02
-4.056210798098463521e-01
4.806022888708194052e-01
-1.565388239774136991e-01
-2.237162014137653587e-01
3.236075781489145542e-01
6.238925006301624526e-02
-2.766470200033825377e-01
-2.036560168790908787e-02
-3.317577928275914495e-02
2.579405202635235914e-02
1.112512967568315969e-01
5.322204544077537014e-02
-5.226624389525190428e-02
1.045748698570464624e-01
2.604435039147888487e-03
1.323248653488443005e-01
1.696562462101467994e-01
-3.504423021909811586e-01
-2.216654477124446465e-01
-2.679281860580966929e-02
3.309284414957849862e-01
3.707933579577504801e-01
-5.934970741576724856e-02
2.533607505765304024e-01
-6.735498602271657032e-02
-1.325200041575203269e-01
-4.168804658131154417e-01
6.005311591259581139e-01
4.009144963924490823e-01
-6.553200460391885029e-02
1.369736895786237696e-01
-2.456929555390941766e-01
-5.029895117898463414e-02
-6.017323276982692315e-01
5.840877822593248947e-01
-4.612357407760246386e-01
-3.259916958036855328e-01
-2.426004190490315890e-02
3.718637691821159025e-02
-7.999346737860140166e-01
-1.554464086630338027e-01
-3.784179311210233987e-02
1.464628810430237960e-01
2.368175257949057741e-02
-1.849073313930373053e-02
1.490208237910708999e-01
-2.474754879516011252e-01
3.116179812697678631e-01
7.072409854316942523e-02
2.165387223789272224e-03
-2.846344539814177343e-01
-2.019305621729380606e-01
-2.018768434051593785e-01
8.356179861760441863e-02
-4.471661959384296003e-01
-2.319779304972174536e-02
-4.120941188792101584e-01
-8.328397846023507523e-01
2.866053400622017300e-01
-5.636692866141491676e-01
-3.377764413607076688e-01
-1.162768948918086603e-01
-3.843887289974466936e-01
5.407499532286317301e-01
-3.197363754470595176e-01
-5.602690511564039078e-01
2.601825992172931978e-01
6.250630553502366515e-01
1.063051055619354812e-01
-4.175454313081731206e-01
1.120897677345087939e-01
1.647876333992493170e-01
4.985410046455710509e-01
-1.360328966557098826e-02
1.856398293049082437e-01
-3.128738630326339809e-01
-1.730975745274595246e-01
-2.328316198500661183e-01
-5.645768905589151343e-01
1.576521016773695938e-01
-8.161682124581947084e-01
1.799480654869022311e-01
-1.436036185109174634e-01
9.671374569759574880e-02
-1.976754726379669758e-01
3.947617942389589074e-01
-2.251406389024563637e-01
-1.044772577367845401e-01
7.257930121834896831e-01
-2.294672450435507882e-01
1.013058345187548698e-02
-3.394665507623872980e-01
-3.832070627549807179e-03
4.087420945539787520e-01
-6.369275116828784777e-02
1.621380102845854099e-01
6.138483253894088526e-02
1.029492838697610227e-02
-5.593502963721967980e-01
1.751259339934471970e-01
-2.052024356912419689e-01
-8.414915170573571135e-02
-9.694558121570728826e-02
-4.267369213870180200e-01
-3.973228779119247767e-02
2.381670887082651955e-01
-1.488761787977509188e-02
5.888415663930642863e-01
7.325454489230263933e-02
-4.838153260976963965e-01
-8.780270627751141088e-01
-5.062549835503058482e-01
-6.068765452716858022e-02
-6.263637055469914450e-02
-1.664976276097602514e-01
2.036711441097813491e-01
-3.001292002229570891e-02
3.108069235599024427e-02
-1.967201536299544029e-01
6.036096256444525854e-02
2.670474876660422492e-01
-2.767357199963919601e-01
-3.826067002347653956e-01
-2.830873799549283865e-01
-1.409213131235354799e-01
2.751512113243017588e-01
-1.758586481303928417e-01
-9.357708562460288759e-02
-4.910241786768018146e-01
-6.335579387923386818e-01
1.450022199223887087e-01
3.734656119212287906e-01
3.449292113152139239e-01
2.525077021173972036e-01
-5.894652074586952395e-01
-1.353054526992178985e-01
-2.752059406777974671e-01
-3.673556960555372508e-01
3.279838157318740177e-01
3.337279381141972090e-02
2.669273521775370472e-01
-7.110827369218812866e-01
-1.050823381715672300e-01
3.949200395722157753e-01
-1.525851197630730127e-01
6.125117728263329564e-01
1.306901686464404660e-02
-2.024770448438867054e-01
-1.287326283412472128e-01
-2.767804641565176915e-01
-4.823291257413250821e-01
2.003714103662097012e-01
-3.116346687145926109e-01
-3.001750140767068809e-01
2.975797182693576959e-01
8.926630113443344283e-02
7.213733768039129468e-02
-1.756996796961309004e-02
-2.654239441190101023e-01
-2.135785212026035385e-01
-3.298789255079638549e-02
4.017415314982117902e-01
7.009649346798249581e-04
1.408937772108411757e-01
-9.667742085597512414e-02
4.488612997644059188e-01
-4.306728563474421234e-01
-1.917006144023090941e-01
-1.779151085714880953e-01
-2.470719471717751359e-02
-1.881950012206651535e-01
1.189662182252771427e-01
1.412414518008718034e-01
7.652928919973867039e-01
-9.360769931980156278e-02
2.699331183231377662e-01
3.380596114138067348e-02
6.202169176773135451e-02
-3.048380152665263187e-01
1.042836343352627065e-01
-2.075021251895855234e-01
-5.978411515134740561e-01
-3.119147211744134618e-02
4.604386292958511095e-01
2.476003007752082194e-02
3.306125309668903056e-01
3.060155065676409269e-01
2.834816644281872855e-01
-5.850203578321819947e-02
-5.263652005653327581e-01
2.265255298737366696e-01
2.824128919213496069e-01
7.799941717374754280e-01
2.409266586888504091e-01
-3.154812976158288818e-01
4.925410399094012348e-01
-6.868526292852214499e-02
7.633221503383025297e-02
2.680260580851112073e-01
-3.771621030714443490e-02
-1.882695866939089469e-01
4.354679698809461597e-01
-5.514308402473909743e-01
-3.719837528452637487e-01
2.060697512748931870e-01
-6.292052842653469980e-02
3.187936550929263424e-01
6.752658652855511034e-01
