2.946633517307326033e-01
5.063203512916791826e-02
-6.428803265319131821e-01
-8.040182355013685001e-02
5.294450170904351216e-01
-1.349370379488120525e-02
-3.915671854344503489e-01
3.410812710367396305e-01
-6.154360010525062458e-02
2.040524818040139743e-01
5.318099631545620820e-01
3.235279263742120159e-01
1.157978377832551142e-01
6.981619308310533789e-01
-3.167340053041193815e-01
-9.559868990299755231e-02
1.003342424736692884e-01
-5.481582055377887119e-01
-8.413350404506109159e-02
2.245322779565585292e-01
3.801567330239126741e-01
-2.397088488667277195e-01
-3.724871915218069818e-01
-7.248969360871040379e-01
-2.369026756356866770e-01
8.988665032753025141e-02
-1.032267451221978855e-01
-1.471145027655549331e-01
2.136877548488630707e-01
1.802637649805172715e-01
-3.482181075600234571e-02
1.738793321584621854e-01
1.239019162591672996e-01
4.489919862795343358e-02
-3.384317181607331138e-02
-3.533063871391730615e-01
4.907659543897042176e-01
1.287267045478784067e-01
-1.984568888148394716e-01
-6.635298699569752712e-02
-2.080339104278366713e-01
4.807261125240039346e-01
-1.995856053398327168e-01
3.746729796785592259e-01
-9.407992270387630085e-02
1.569955385443621843e-01
-4.210535997220409693e-02
-7.087866067551049643e-01
1.096007165585451831e-02
4.489636587456816152e-01
1.659327746046772023e-01
5.013765428097442106e-02
-2.923967354846147143e-02
-9.557956775552776951e-02
-3.878359899935246435e-02
-1.230599967729410216e-01
-1.275806969381294842e-01
1.853520518907348091e-01
4.404370425326694094e-01
-1.565388239774136991e-01
-2.248485344777677308e-01
2.476090930732864348e-01
1.122630990359059222e-01
-3.541244810630320705e-01
-6.038467286536775697e-02
-9.410033434143945386e-02
1.702418949247593016e-02
9.830051028524304513e-02
7.842593451744897526e-02
-2.535813471980777334e-02
9.806215213508029382e-02
-6.834123561892754828e-02
4.036877519259592373e-01
2.193916668633375533e-01
-3.462345469401856279e-01
-1.674252866687838126e-01
-1.824066312989805483e-01
4.078493845826316466e-01
4.277575945637948629e-01
-3.198551255018138306e-01
1.839357332076830276e-01
-7.384086701712502809e-02
-2.144375492148052620e-02
-5.223057118114703412e-01
5.796401668944584085e-01
4.219784308475592050e-01
1.060252266253249864e-01
1.178481387475227848e-01
-2.187523684101674581e-01
1.464985097118954027e-01
-6.017323276982692315e-01
5.663942240478452295e-01
3.168799756928912803e-01
4.009903257988274294e-01
-3.900544475317573034e-02
1.519995944895149720e-01
-7.715530642111005921e-01
-1.734256294353387906e-01
-7.080984201844678361e-02
1.612269752389881572e-01
2.368175257949057741e-02
5.385371556731652354e-02
-1.246286353132109725e-01
-2.855490109096497919e-01
4.302468663875884669e-01
1.355585976058923392e-01
4.444304970414214573e-01
-3.623083776407539647e-01
-4.653282819704408491e-01
-5.549514552776734291e-03
4.264799827868236137e-02
-3.864312653023120880e-01
-1.270350180392947059e-01
3.236120112694662043e-01
3.545759805223380745e-01
2.925575347677716320e-01
-5.112975258557013181e-01
-3.079489374020770165e-01
-1.137659175126565642e-01
-3.055106067023380945e-01
5.876432235915479696e-01
-2.364688386262994158e-01
-6.057778215013102097e-01
-2.991723895814596412e-01
3.624998290613133944e-01
1.436230286777858967e-01
-3.401069723188310800e-01
1.648566056826024084e-01
1.004823799413176455e-03
5.285642351316287568e-01
-2.854021637678720580e-02
2.255595978977993354e-01
-2.315332789705757399e-01
-1.997755983814346048e-01
-4.316855252102301255e-01
-2.116843201355085302e-01
6.353871330104189641e-02
-4.661657994488720425e-01
2.073309327623623355e-01
3.700148247706648297e-01
8.410929542327336139e-02
-2.128270504232563642e-01
4.685719651245259798e-01
-2.188623263323195567e-01
-5.456692196416985663e-01
6.848280437586647951e-01
-1.762496377357158917e-01
-4.241700343464295531e-02
-3.026437711946527442e-01
1.808111872771194298e-02
4.215091445417861737e-01
-1.845301378828004268e-02
3.648144771311270240e-01
6.599061871848144190e-02
2.578840627986200840e-02
-4.632480806356402692e-01
-1.223363408017813792e-01
-2.520618469664582251e-01
-1.957271128018302220e-01
1.557997234392940189e-01
-3.867861259702790599e-01
-7.031249164864668277e-02
1.534950704942380784e-01
-1.536752798165330891e-01
3.998847271651723156e-01
7.325454489230263933e-02
-8.395372012596245825e-02
4.154298684435581146e-01
-4.169832093085773517e-01
-2.151139690236548718e-01
-7.489024151917773875e-02
-1.557753650132643330e-01
3.357023427597054521e-01
-3.634255237358275520e-02
-7.717069945646112816e-02
-2.063351627420821621e-01
-3.368165130642627458e-01
3.892217083230227193e-01
-2.767357199963919601e-01
-4.385930895403268304e-01
-3.542953204420314361e-01
-1.059977758757161270e-01
2.632139173475604443e-01
-1.981738518216137335e-01
-9.812767279260276032e-02
-4.730357627003748400e-01
-2.324179138385228660e-01
1.078216783842983750e-01
3.943651179324668687e-01
2.886173295219971457e-01
2.734852876098624042e-01
3.791337633672761109e-01
7.290160198988787643e-03
-2.985871423281689641e-01
-2.843827262445126625e-01
3.501226734346255531e-01
-8.080451860228692051e-02
1.370374524641356784e-01
-7.110827369218812866e-01
-9.107754083204665230e-02
-5.417703137399404456e-01
-1.778869532244182206e-01
5.933726366750308179e-01
-2.341741108851509712e-02
-2.813942015331271640e-01
-1.287326283412472128e-01
-2.908119469471580620e-01
5.278076481491923710e-02
-2.710615396069260274e-03
-2.220554188060759326e-01
-3.001750140767068809e-01
2.975797182693576959e-01
7.371009017986882017e-02
1.866424422828833196e-01
-5.022282720520745807e-03
-2.589471263393900990e-01
6.720710680044937602e-02
-1.122890618432167281e-01
3.673723323318296430e-01
4.922995084331364957e-02
1.294587365910799537e-01
-1.256588016404355246e-01
5.495613470855206240e-01
-4.444389551312112885e-01
-1.783911941365971809e-01
-2.140813278478048698e-01
3.457244515732970161e-03
-1.375654560300653695e-01
1.345986414633652262e-01
7.845637853798494155e-02
7.652928919973867039e-01
-8.369836895323108650e-02
2.426987223698356400e-01
-1.815810276730044359e-01
1.258794016968413088e-01
-3.778041313691302694e-01
-9.544940628107188851e-02
-1.701558508294732652e-01
-5.978411515134740561e-01
-8.383327488928164761e-02
5.350201272733915436e-01
4.105239084342759970e-02
3.123544099437458033e-01
2.365082847286347767e-01
3.002732783803603867e-01
8.490120903015560549e-02
-5.263652005653327581e-01
-3.216834902966754783e-01
2.109791031037683839e-01
7.412304963552418524e-01
2.680878364160491079e-01
2.589750888654441807e-01
4.344739677230640140e-01
-1.230561802604125121e-01
4.083373405975974924e-02
2.100884221579278066e-01
-1.179598124972294493e-01
-1.842246215970654299e-01
5.280591756044966667e-01
-3.830183924246161054e-01
-4.337588018957090341e-01
2.060697512748931870e-01
1.490565372479525641e-01
4.913986788666475924e-02
6.752658652855511034e-01
