-3.960907581787977971e-01
-4.878942219464023622e-01
-1.738877440878713321e-01
4.166397822338827051e-01
1.981837841658190547e-01
-2.462286053427184540e-01
-1.795163160266156355e-01
3.154533077899459581e-01
1.064803447159361760e-01
2.175547189103258297e-02
-4.783862660954831501e-03
-4.544351904102300610e-02
-2.472939852502648028e-01
-2.071399424241869569e-01
2.481018434131862793e-01
2.166345491862904926e-01
-2.016543102929159170e-01
5.006997633279889337e-01
9.836951290296029604e-02
8.908621082688382431e-02
-3.898316269322009697e-01
4.217083026013005997e-01
-5.286820635134195645e-02
-3.177809092260333035e-01
4.888756777601566128e-01
5.340609055505607383e-01
-1.179212761604528197e-02
3.937341564325670673e-02
2.123494875648794800e-01
-5.450028108225911661e-01
2.525580206735618116e-01
-3.059731834642308024e-01
-4.525257148464890133e-01
-1.787877075356787346e-02
9.766723719912465129e-02
-4.586531761556627007e-01
-6.660609990735819053e-02
4.841200986286803981e-02
1.884535039429614256e-01
1.081802854199171299e-01
4.592832391950678050e-01
-1.572293265250291339e-01
1.685091763251730379e-01
-4.086728007417232966e-01
-1.845288478558132217e-01
-7.705519211968606674e-01
-1.799411192463948317e-01
1.505839023551605038e-01
-3.204739074878718008e-01
1.222391639297697591e-01
4.301140184959191815e-01
4.137079784549188566e-01
-4.121031849209764730e-01
3.695547120255394669e-01
-1.807129374155392598e-01
6.564757550998077118e-01
-7.454459999051824860e-03
3.131365969856544362e-01
1.363661285598869594e-02
5.403820331706524899e-02
-6.206822005786433172e-01
-4.424080272771147571e-01
3.471030855572270618e-02
-4.795201151265063300e-02
-2.960558397883332749e-01
1.533928650123790871e-01
4.334839225363120579e-02
-1.453214330842489965e-01
-4.768545398963764392e-01
-5.782019218075842848e-02
5.287787369305680940e-01
-2.401913488130158203e-01
2.520197536364096602e-01
5.136274948246514344e-02
4.185488260160547536e-01
3.277735550426549849e-01
-2.568447821088798693e-03
-6.587298288960378168e-01
-5.507634748781372602e-01
-9.220902562982389444e-03
1.983909094083817493e-01
-2.605964722694545932e-01
-1.426081668614244125e-01
-5.584112598067503264e-01
-9.905584823245000559e-02
8.760170478545996342e-02
-3.701274364998093369e-01
-9.703672845948768666e-02
3.750433547997223394e-01
-2.091261605680518609e-01
3.033501925722754677e-01
8.303540706135839611e-02
-2.959739858184042838e-01
-8.549052097485980439e-02
-2.407872778787140122e-01
1.080719330043244525e-01
-8.543565854628071277e-01
-4.148664950157473358e-02
-2.847790703840810678e-01
1.718210492222292107e-01
-2.344049354337293112e-01
-2.947114143152613774e-01
1.461232198028800389e-01
8.152507935698492803e-02
-1.321085450899636971e-01
1.815129611857417558e-01
-9.322302347477373630e-02
-3.175893077624244304e-02
1.844232807845633537e-01
-2.153045832628009693e-01
6.060017933795839307e-01
-2.799693528112598417e-01
-1.760817487909139278e-01
-2.014895233569512778e-01
1.487171600431378415e-01
-3.246512580714227547e-01
-1.260834838464677810e-01
-3.269901040202020936e-02
2.617559028115163944e-01
3.765411742844767228e-03
-1.990287092629019483e-01
1.235060854277789250e-01
2.014725991703437413e-01
-1.343555113779356103e-01
7.134286228076858194e-02
9.786278767194773742e-01
-5.274031767485089228e-02
2.598482916959391487e-01
2.137569406370821989e-01
-7.938433288905009932e-02
2.072445780124891890e-01
1.635713659870212666e-01
-6.607193731521467106e-02
-3.602552348399893755e-03
-1.177248223291117862e-01
-5.179250925436583719e-01
-4.288287022933835388e-03
2.894514211824469885e-01
-1.127572259820819878e-01
-6.643541036595289329e-02
-8.500338281020357323e-02
2.205774541816605816e-01
3.335674733628524180e-02
-2.073887295383528284e-01
-4.633529575549582558e-01
-3.872999026712893866e-01
-4.475027119582684065e-01
-1.138492140077158321e-01
3.555420460438216308e-03
-2.237099654215517902e-02
-2.069062734369168377e-01
-3.764194227062421794e-01
1.788653788698961744e-01
6.096168435755154949e-03
-4.894162883619542770e-01
-5.625325486988288493e-01
6.600115921437895716e-01
-3.605749522381187511e-01
-8.693946820345592463e-02
1.328769300067993153e-01
-1.451015601407490974e-01
-8.826024122531330590e-03
-2.909145028929914223e-01
7.674638568099546865e-02
-8.670210464689703800e-02
-4.598843967497702190e-01
-1.977740969782313396e-01
-7.314152213335123331e-02
3.064228978350841959e-01
-1.007934369883111136e-01
-5.115190262456424941e-01
-1.325602726512960516e-01
1.215666976755719886e-01
1.173960280042816717e-01
4.147056450545131834e-01
-3.695405300055230186e-02
-2.464331158454807491e-01
-1.635402635945845395e-01
-3.153413601752070305e-01
-1.030970662452141279e-01
-1.657692024498530758e-01
-8.797236063418348295e-02
2.545514797973805199e-02
-3.814659442780059528e-01
8.714981105912553150e-02
-1.969024054001364266e-01
-2.166787935525154030e-01
4.296178781517105416e-01
7.978800979996874751e-03
-1.474475878878491186e-01
9.853766867128928297e-02
-9.607983217476000204e-02
-2.891248178658857859e-01
1.403546672307304788e-01
-2.039199943933311943e-01
3.025877443568077974e-01
2.749997297189953338e-01
4.323761658855767576e-01
-6.970620541361471998e-04
2.251810304054522316e-01
4.604729604926621200e-01
-1.013655461486995257e-01
1.077972177017605809e-01
3.002534216019950852e-01
2.175606755178917662e-01
-3.580236735742251541e-01
-1.089326128679775907e-01
4.103849873068616400e-02
4.999427693344752482e-02
1.120423258980966369e-01
3.297962130265524178e-02
1.663167875892193892e-01
3.262672464701477093e-01
2.353612360277035909e-01
-3.400058107232200588e-01
-3.389368454309094059e-01
-4.484131896444153997e-01
5.670873438196321059e-01
1.458531384149518995e-01
2.265034414060550783e-01
3.857945998587986591e-01
1.044451577189124680e-01
-2.645072347126916495e-02
-1.454069337082823932e-01
1.366942207686782096e-01
-2.528666691204130637e-02
3.333844945773564716e-01
-3.322767696786045333e-01
-2.830314926607833126e-01
1.480234544216861847e-01
-4.187614437233459497e-01
-7.026582383125452580e-01
-4.619175426749790869e-01
5.814508864463562715e-02
-3.003422262723947078e-01
3.697678565080168012e-01
-2.193869650379486613e-01
-3.625580182665065765e-01
-1.450108004319336855e-02
-3.270949292233280015e-01
1.829300688743751568e-01
8.483437868735298204e-02
1.500717543403796983e-01
-7.303915437797037224e-01
4.556909126697045870e-02
5.876060396786182416e-01
1.039750138908091676e-01
2.440727032658337459e-01
1.285458067038244107e-04
6.620483576945818127e-02
-3.258927062651916784e-01
2.773592230893585087e-01
2.082383518032483172e-01
-4.620282115291573372e-02
6.937329973692150931e-02
1.227400410969394784e-01
-1.972305297642262117e-03
6.354318122154893889e-01
2.992002041395797618e-01
4.151388757786500516e-02
1.562833078540263043e-01
7.932061101538220305e-01
-1.927763044315241314e-01
3.446382470041844392e-01
-1.000000000000000000e+00
