5.555816438725457579e-02
1.581859531933940688e-02
-6.428803265319131821e-01
-8.040182355013685001e-02
5.835421145997945480e-01
-3.267772408196304573e-02
-4.631852604522484484e-01
3.401686251101438407e-01
-1.238394497688303092e-01
-2.163863183644560428e-01
-1.889739665336273577e-01
2.526888709627803653e-01
5.517886415823208823e-02
7.571648100902509393e-01
-3.295957566072889589e-01
-3.235023503487842733e-01
1.334398955170576495e-01
-5.075708089948065549e-01
-2.887358095187539386e-02
2.567602361737665317e-01
3.341067120525038070e-01
-9.751399639023042298e-02
-3.408999933315451925e-01
-7.698645402685133643e-01
-1.948271124157371914e-01
1.106080057823144863e-01
-6.408328543721214521e-02
-6.893661324309699467e-02
1.836392169749238024e-01
2.935849382698674237e-01
-6.997861144875076878e-02
1.637216584211238779e-01
1.239019162591672996e-01
6.862182098996458257e-02
-5.576452551805951563e-01
-3.042921022353041183e-01
4.570892396179239148e-01
6.719433120708015461e-02
-2.455051119334215048e-01
-8.479622322203181350e-02
-3.211771517702296519e-01
5.319560509699283735e-01
-3.494921884420503222e-01
3.746729796785592259e-01
-7.803218332439557092e-02
1.569955385443621843e-01
2.788384918259976392e-02
-6.161514464165726013e-01
3.683327158617936969e-02
4.936890652142202351e-01
1.287445879792242787e-01
6.546802293887293844e-03
-4.958865951361509095e-01
-4.296077677616275126e-02
-8.635833973232812100e-02
-6.424701030679343117e-02
-1.173240927920893156e-01
2.347726524130177295e-01
4.303180539323264164e-01
-2.218061386435361271e-01
-2.735486279223573458e-01
3.061677296310085783e-01
1.065800703213372752e-01
-3.665823058331496576e-01
5.765639903713427605e-01
-3.019625950458106334e-01
2.549040590266656026e-02
1.157700772187065380e-01
1.122958725839258154e-01
-3.985620378522807677e-02
7.679721469711094095e-02
-7.253132384281148204e-02
4.030993468022159298e-01
2.183394772209169277e-01
-3.426433934613321020e-01
-2.086649329220903737e-01
-2.863409637347580361e-01
4.161836378801327951e-01
3.894545968297870031e-01
-3.063184020361134907e-01
2.300470066126501234e-01
-1.459653078615927302e-01
-9.662344997421923321e-02
-5.294728279217363331e-01
-1.772362698157167460e-01
4.513742511611615327e-01
8.934262054811388520e-02
1.254074064145400680e-01
-2.039444193637980074e-01
1.339525774108766276e-01
-5.721284866124753954e-01
5.866747170279396073e-01
3.560802979980887129e-01
4.219017442153837338e-01
-7.518486928257100965e-02
1.964338017309244233e-01
-8.715135253459742604e-01
-2.543036074105631816e-01
-1.393625637505050974e-01
2.062458739145800191e-01
-1.199808789585218582e-01
1.821978204178949234e-02
-1.246286353132109725e-01
-3.020232418017455012e-01
4.894341498893064468e-01
1.355824225331900001e-01
-8.548957756833211463e-02
-1.874762047821323108e-01
-5.506463736569973122e-01
-4.947992180204191862e-04
4.090950709004822355e-02
-3.864312653023120880e-01
-1.852069542311064465e-01
-1.347590354467418927e-01
4.616741494320941164e-01
2.435095013147573484e-01
-6.332586495559223705e-01
-3.417964902924726101e-01
-1.137659175126565642e-01
-2.328557178952780360e-01
5.394465263370290531e-01
-3.056123247277350852e-01
-3.220551975542606388e-02
-2.440792924868616098e-01
4.064398673080367730e-01
1.056293786781982713e-01
-3.913179180767806797e-01
1.306859445031661737e-01
2.791403346189348308e-02
4.643835858012797524e-01
-5.341388580718597900e-02
1.872797091891397203e-01
-1.855655757477698842e-01
-2.405256331832512917e-01
-4.018420371587000384e-01
-2.800976882583399719e-01
6.930286854258548013e-02
-4.317857250631918498e-01
2.391848400651166995e-01
4.046724151897073685e-01
9.591407895948646234e-02
-1.681948190123291331e-01
4.685719651245259798e-01
-2.717009267803898176e-01
-6.953102661963670439e-01
-3.927087398353524272e-01
-1.283591328240705765e-01
-2.591014372442154712e-02
-3.378284685932499976e-01
-7.186909147436887357e-03
1.636449500179569527e-01
-8.564367263703261124e-02
3.575242269442268639e-01
1.044225563436714244e-01
1.551087406948493952e-02
-3.801807470015911017e-01
-8.121268236066066931e-03
-2.842590891579928059e-01
-3.095583486667513040e-01
1.352971611671465735e-01
-3.603200130831232251e-01
-6.178590624162582506e-02
1.977528611719127360e-01
-1.171723807403919626e-01
3.408798831652706807e-01
4.504086501322916714e-02
-1.955406691638346406e-02
4.470070111093047416e-01
-3.934917039789046500e-01
4.658373562814320246e-01
-6.963679290916538478e-02
-1.557753650132643330e-01
2.852337134626210524e-01
4.388698678719705759e-01
-4.408861598389401948e-02
1.652444132410708366e-01
-3.577901166297929869e-01
5.821314900433138817e-01
-3.753325032204892220e-01
-4.284500561285461417e-01
-3.504860651988755404e-01
-1.059977758757161270e-01
3.147924096001872285e-01
-1.940306076339098074e-01
-2.553269232026116053e-02
-4.730357627003748400e-01
-1.877167691537941496e-01
1.090235539734225045e-01
4.181391403801860696e-01
2.499154627982327348e-01
-1.728080208326290834e-01
3.270365726177756893e-01
5.311632798355551965e-03
-2.526714928719724362e-01
-3.312407385803697313e-01
3.382765872354601133e-01
-6.197164492816022163e-02
1.493718299225844370e-01
-7.426167122451834413e-01
-3.248240880757254090e-02
2.276489726075876241e-01
3.002146286326181079e-01
5.827567220126800285e-01
5.516724435493507162e-02
-2.540427304572500100e-01
-5.169323438825214334e-02
-2.821883977384059272e-01
2.162217836145726921e-02
-2.281175331287410568e-02
-2.954879484329377415e-01
-2.250466306195923472e-01
2.871354830256179214e-01
1.503137032462533162e-01
9.846206614504376953e-02
-1.992594835904295744e-02
-2.825081543609578305e-01
6.720710680044937602e-02
-1.776728336653866092e-01
4.115789744953784468e-01
1.465028404497238923e-01
1.452891789538281464e-01
1.718787907187987185e-01
4.994450017531101293e-01
-4.769271382217616373e-01
2.066862906083251350e-01
-2.269790854346285525e-01
-4.286541981152435232e-01
-1.195620258463671454e-01
2.173552945501940892e-01
9.722313624928005660e-02
6.534313708112282626e-01
-4.309538608830868617e-02
-5.024852458627098763e-03
9.220712994348889691e-02
1.215347930740921234e-01
-3.344462812121828388e-01
-1.650407566760943023e-01
-1.829882094209294152e-01
-5.756753383780721656e-01
-7.285037643397850038e-03
5.744877047749833432e-01
-1.251054095852364295e-02
3.198519145892605997e-01
1.800511636020213080e-01
3.509870254942282775e-01
7.604925480538754501e-02
-5.387356256558114564e-01
-3.710462175103058646e-01
2.445216965729346825e-01
7.142426546483360283e-01
1.520988445854812854e-01
1.403631686027340120e-01
4.498268678778086782e-01
-4.237971845253336867e-02
7.627933842715502177e-02
1.231627434449310832e-01
-4.404630980754792313e-02
-1.367887026295145081e-01
6.035123391793151271e-01
-2.820879449364509517e-01
-4.337588018957090341e-01
2.779459758525155144e-01
1.887293046639991478e-01
4.913986788666475924e-02
6.752658652855511034e-01
