1.278333332278170920e-01
-4.787154196937251083e-01
4.027056902210836564e-01
-1.316746191858155501e-01
1.567448674363808858e-01
8.467480679516187214e-02
2.550326257634049631e-01
-6.893042953472787449e-02
-1.602189929569822757e-01
6.832352009836384354e-01
4.507990806802884831e-02
-1.049228786132248015e-01
3.991970409024293842e-02
-1.454454087468795287e-01
-2.545895221870798641e-01
-4.829890179532980374e-03
6.347926279058022092e-02
-4.259542602358972752e-01
-1.221959413811271600e-01
9.357661938413819325e-02
-3.182184685281676251e-02
-4.358523035022236758e-02
-1.024551623210246537e-01
-1.026019953234848375e-01
1.286149303782514741e-01
-7.265562009176557146e-01
-3.471746749659044839e-01
-1.519759022248730607e-01
3.835757822073257994e-01
1.569461943782889668e-01
-1.281151552271653782e-01
-2.875150831721317579e-01
-2.072158900184543906e-01
1.893227588140091247e-02
2.612103429095699036e-01
-2.206098323672591455e-01
-9.026650989054577079e-02
-3.043344064679655014e-01
7.101010685261353872e-02
-4.585200987877471879e-01
-1.648862577470802393e-01
7.094443117919491115e-01
1.701492869273056319e-01
1.409266964235466879e-01
3.089535796814749657e-01
1.824621075578468088e-01
-1.886937469472991236e-01
-5.721068109081318964e-02
-1.239526476788734705e-02
-1.601825605106963618e-02
-1.556229562759492424e-01
9.294752783460248635e-02
3.635036517778368337e-01
6.758280989281453266e-01
-3.495842298102085077e-02
-2.614469222055919584e-01
4.187162004630415324e-01
-1.947092129138378314e-01
-2.284752015804761560e-01
2.772948881919897746e-01
2.372224272156400748e-01
-3.824657018572341638e-02
-7.358354665689302854e-01
2.905553305648252149e-02
-1.039660031945518204e-01
-6.713484510469565070e-01
-3.007800567526033308e-01
7.159041542874360342e-01
7.180908903231854046e-01
2.400244256287415445e-01
-2.671496978334951811e-01
-4.756480440051383818e-01
-7.896276687424931273e-01
2.803344653122291641e-01
-2.628350750162289917e-01
-1.613968119022116121e-01
-7.275340158217893927e-02
2.865707125722144477e-01
-1.934234974975150845e-01
-9.670413121976957627e-02
-6.357400457259394788e-02
1.820019163948284890e-01
1.634926426695851309e-01
-2.172245252924973613e-01
6.578902569718145799e-01
4.215771999880671417e-01
-1.253623805450140294e-01
5.707467049791203895e-01
-2.023179464743576905e-02
-3.434463309169067391e-01
-3.656527837590616836e-01
-1.102292815775861162e-01
-1.082853584493072563e-01
1.439306961241893223e-01
2.133595659361695041e-01
1.125473271048569590e-01
5.241058973760863715e-01
2.041184016522166467e-01
-4.218075222220718512e-01
-4.595525065551144817e-01
4.884006839450582005e-01
-3.758504785244191210e-02
8.942864087937525686e-02
5.196084948480271803e-01
-5.731048089319978889e-01
3.824632421897474210e-01
8.006108102692179873e-01
-3.007332851840568422e-01
9.861636658065420225e-02
-1.108530961948206994e-01
5.254302527419091318e-01
3.899539722601094022e-02
1.733961400714020828e-01
2.981907820043366852e-02
4.500043131149812636e-02
2.545600695523019263e-01
-2.396175022820383749e-01
-4.405060544338967876e-01
-8.247885335202148616e-02
-1.514201733413539364e-01
2.242305961749502252e-01
-1.919880135655700759e-02
6.885821147873065762e-01
-1.035246514223680803e-01
-9.079438301219902585e-02
2.768553295586027585e-01
-1.151288544794961677e-01
-3.515353324661601997e-01
5.703607025863630109e-03
-2.138117034689643037e-01
1.132283402272103445e-01
-1.529072495360024597e-01
3.590149101402007742e-02
-3.906500839257311952e-01
-2.154389244705783857e-01
-2.771128716067877001e-02
-2.709806169913713675e-02
5.047965419755104377e-02
2.176854218785840844e-01
2.993320521212585739e-01
-5.972247396845360712e-02
4.935047549804041922e-02
-9.616031235475447358e-02
1.825252488589687028e-01
-1.786023317706949276e-01
3.080414032268768976e-01
-3.556901301718731756e-02
3.019745106720259642e-01
-6.342123477088450201e-02
-1.009931795730816678e-01
-6.190566397741838200e-02
3.289033866935305028e-02
-1.694667138697297792e-02
-2.029928069036476268e-01
-2.969223302679082077e-01
3.723992306681844222e-01
-3.326725162221757515e-01
4.270166919114758985e-01
3.131529789928078622e-01
-1.294909709412317422e-01
1.655571029637890046e-01
-3.409009959701864712e-01
-2.453317241719654707e-01
-1.682682990911827103e-01
-1.408617669194811017e-01
-1.315928503925961335e-01
4.717671912758718278e-02
1.538331987485846986e-01
-3.922388796869037408e-01
-3.825455469229132044e-01
4.579992131628051605e-02
2.092565298312384359e-01
3.718130693964590838e-01
-1.991363153355369120e-01
5.554578390284302669e-01
-1.258326654853889892e-01
3.828017013998540885e-01
-2.719305042164591457e-01
-1.134272266892606407e-01
-1.346764654171301034e-01
2.122118687152710625e-01
2.821453393658398534e-01
-1.977680283511336068e-01
4.504382733032604724e-01
1.818819502770812058e-01
-2.006766933386097684e-01
5.438331248417901387e-01
2.042459025181642962e-01
-1.599050415352354926e-01
7.574358791149149450e-01
-1.999696400927929441e-01
2.390605798908960189e-01
1.141772846528005536e-01
-1.073219131027390166e-01
4.152764361252295755e-01
-7.868514104532139952e-02
5.173489996933461343e-01
-9.526127190386944610e-03
-4.073316647253786282e-01
1.577657077282093590e-03
-2.512819260371876862e-01
-1.468095705202236700e-01
1.417804639742940298e-01
5.021726750307090592e-01
1.675024057222206653e-01
-6.710527825425570414e-02
-3.046384791869034547e-01
3.190919378680109886e-01
2.224639409269495438e-01
-5.182870515910537046e-02
-2.790171044906668563e-01
-3.764915031000898304e-01
-1.837131122029208863e-01
-1.390006491228360508e-01
-2.493973549452984106e-01
-8.697993114824084659e-02
1.161117664687017770e-01
7.087437932465026624e-02
-4.789152850062407263e-02
6.705297573068004502e-02
8.096868105553852724e-01
-2.056259134200238148e-01
3.197844636815605490e-01
-2.173350099048459438e-01
-5.787993952596716118e-01
-2.752088167737982705e-01
3.580387591643475753e-01
-4.042620430275279952e-01
1.681952448486065399e-01
-8.272503686340884621e-02
-1.014851192790888479e-01
3.556973267300705954e-02
-3.054288137688130345e-01
-2.859738296008286773e-01
3.800803942604328856e-01
-7.742852974180849945e-02
-5.702433187396045017e-02
-1.620167926970843275e-01
2.889460339635386843e-01
-2.598558679540589611e-01
-2.391339644396325570e-01
3.729413739014415807e-02
4.168769653337851822e-02
2.665833541828395159e-01
2.265545258291665753e-01
3.288788713565402901e-03
6.820708120212903847e-02
-3.772919859400789000e-01
2.543245948827293490e-01
4.401244798859287322e-01
-1.990018118074771691e-01
1.159917082225194601e-01
-3.079869360252427968e-01
-8.269829007934639820e-02
-5.355922469619720516e-01
-1.235009680847062030e-01
3.706224356442170964e-01
1.361186102311470747e-01
4.427317219745363630e-01
2.434146033300856049e-01
-6.078910717687769916e-01
-9.342741601077794722e-02
3.957392336031489433e-01
-6.341585691326842578e-02
1.696903848429239803e-01
