5.437908927993725938e-02
4.480992046227555425e-02
-6.855388200761632911e-01
-6.437886917964269484e-02
1.829297362830453744e-01
-2.127423729504970829e-01
-5.713679714693760125e-01
4.000889721711593516e-01
1.666060036390162313e-01
-2.443237239925868665e-01
-7.525303583652732664e-01
2.307221005499854316e-01
1.317221291127049221e-01
-2.515429887516771462e-02
-4.065499862714998525e-01
-2.546262488022962289e-01
2.096849980297691984e-01
-4.495617608974891155e-01
-8.038661476320341226e-02
2.750268246781534254e-01
4.251359869091731469e-01
-1.487185791881643071e-01
-2.027910612154872061e-01
5.794686793574034545e-02
-1.470244352442113267e-01
-7.858798510306884699e-01
-3.637064832187376223e-02
-1.451709045244790330e-01
2.666405824289130311e-01
2.935849382698674237e-01
2.959173439049101462e-01
-1.527683952964389302e-01
-2.142651228702844302e-01
2.933926204720538888e-01
-5.574821480005158758e-01
-4.174727018964099479e-01
4.293939665500373093e-01
-2.951295185791650844e-01
-1.934941958302032194e-01
9.144502598721784836e-02
-2.663464411329364845e-01
5.448123063495529106e-01
-1.632192819855613763e-01
3.429344810171208735e-01
-4.985651642201090888e-02
1.255314116325372542e-01
-7.069960383908351076e-02
-7.124405744568513832e-01
-3.072893342652922855e-02
4.851083920909428082e-01
1.864264848854680634e-01
7.995152854864437386e-02
-3.531910786730805829e-01
9.161259960994853901e-02
-4.194294918190596966e-02
-6.599232672772656350e-02
-9.655653325802646125e-02
1.584856183940036300e-01
-4.548962854392709504e-02
9.654568341355815320e-02
-2.058190993923407763e-01
3.705240474068862144e-01
-6.902633156220544519e-02
-4.154798330821848351e-01
6.524828330883042371e-01
1.303847787023227622e-01
-4.116730390143900908e-02
4.349162080974204869e-01
1.284855884142946658e-01
1.694627789887085401e-01
-3.185997171166519704e-01
-1.074255758220050150e-01
-4.977906134483201656e-02
6.690768706996461090e-03
-3.925890611510682304e-01
5.107681145145583912e-01
3.752927518018204789e-01
-4.090913033393859255e-01
3.810567476043418833e-01
-1.582094562697307638e-01
1.737682122553211028e-01
-1.615409694040902400e-01
-1.941547238281407517e-02
-5.930565251992472309e-01
5.057872744446377800e-01
3.130130822102908938e-01
6.885053022467760298e-02
1.438401181883647018e-01
-2.193188289514521050e-01
4.153926548970812704e-01
3.934860251224742145e-01
5.413373745919883850e-01
2.337553735249135733e-01
3.309098133565901989e-01
1.200264061513286740e-01
1.532167449213041044e-01
-8.233237216258504354e-01
-3.597180744489473780e-01
-9.106086494367077178e-02
2.440037220468938561e-01
-1.490281552705490231e-01
1.249965683637168784e-01
-4.032091876987702050e-02
-3.119483336752906788e-01
3.726882360650627946e-01
1.362279406671204618e-01
3.403714912240577428e-01
-1.162960689538396208e-01
-5.488447809555891954e-01
6.180805675894426518e-03
1.547744752790902178e-01
-5.461201512836606070e-02
-1.288895380641291721e-01
2.956519988666456156e-01
4.184758545086843529e-01
2.482995065610683616e-01
-5.375830856659588042e-01
-3.537439629488239312e-01
-1.174072444979834540e-01
-2.756701216205529326e-01
6.985092314003390479e-01
-4.095479729974531580e-01
-9.869588979900037473e-02
-2.657905283473059876e-01
3.608893646644887321e-01
1.425440906648275941e-01
-4.087623870861836206e-01
7.768455006668002760e-02
4.211760622223179040e-02
1.220772349464773615e-01
1.739118504433286305e-01
2.459971316465681956e-01
-2.615018292140627310e-01
5.827326206441102441e-02
-3.612791188358491223e-01
-3.934311905029594381e-01
9.471531359494173019e-02
-5.188691473226412221e-01
8.891296764173781120e-02
3.964448691506566314e-01
1.439910289998841686e-01
-2.190887741225340524e-01
4.696369728614926409e-01
-1.644852606664226058e-01
-7.230451326455119565e-01
-1.835277236451750282e-03
-1.283591328240705765e-01
6.588535025079654550e-02
-2.654406936514125404e-01
2.397087750085676733e-03
2.914830774827184556e-01
-2.838111826125075746e-02
5.363034948393475831e-01
-5.464155065396642669e-02
7.548121333607528405e-02
-3.926485973258401346e-02
9.868550343308563066e-02
-1.795102655120129065e-01
-3.950656889142239447e-01
1.393054865725842917e-01
-4.450430294475016813e-01
4.244777324394737733e-02
1.570333892684549482e-01
-1.179525813411650415e-01
3.927521220795979762e-01
1.253091111659961898e-01
-3.678492025273238375e-01
6.734931306997501421e-01
-2.955991833271265912e-01
-1.032649321389811636e-01
-1.046867214143771818e-01
2.043920589027422574e-01
4.053414284938130496e-01
4.405647048360340490e-01
6.150783314810662206e-02
1.573814309964209901e-01
-3.924201382544603156e-01
4.939746470561546809e-01
-2.771837831500587601e-01
-4.837727301264350688e-01
-2.906286253479873904e-01
-3.308399828724435943e-01
2.617934221939177686e-01
-2.734526436014629858e-01
-8.834259115165718490e-02
-3.930393765883005708e-01
-1.829600222219743832e-01
1.113362417542478333e-01
9.366035651513290872e-02
2.099816220458059490e-01
6.361236675574466481e-01
3.620711877258521172e-01
-1.364048414054818900e-02
-4.524189090570875371e-01
-4.173231928232633559e-01
3.712924939450861217e-01
1.318472323344133668e-01
-5.917653847549083634e-01
1.363283053732266270e-01
-8.127616199795061058e-02
-5.212577992321675291e-01
2.744874686204538117e-01
5.827236257626943194e-01
5.200239776577444961e-02
-3.173626185902834740e-01
-1.072810365069164357e-01
-3.349976316345050220e-01
-9.136597786914242569e-02
-1.792168297261295673e-02
-1.852114253961849033e-01
-2.304856427364253280e-01
2.451284384439823827e-01
7.371009017986882017e-02
5.455525019396436637e-01
2.825112916858119050e-01
-4.758839359586805595e-01
2.180630107703350473e-02
-1.776728336653866092e-01
3.711870871718162546e-01
-3.959515012110369214e-02
2.223697848122457577e-01
-1.393535109278183359e-01
1.421827558519475065e-01
-4.231611344162241606e-01
-1.279781325692965210e-01
6.700984211031994764e-02
1.218930856617541497e-02
-1.054734825411045018e-01
1.775417079016858857e-01
1.519629547126890579e-01
7.446147268172437217e-01
-9.521808275328833004e-02
-7.593794075412153843e-02
2.510034075954607480e-01
6.644335343422638762e-02
-3.777224972240874057e-01
-2.152499730307718684e-01
-5.564918371408156261e-02
-5.591325986216127975e-01
-3.416949687275699227e-02
6.465368111883952329e-01
-1.023112935440643328e-02
2.531205005822749765e-01
2.194331853888644435e-01
3.091180808028244908e-01
5.573632996731876788e-02
-3.479533217925581678e-01
-3.375238663284573226e-01
1.629341497774700886e-01
7.519793834675052580e-01
1.916374099123488994e-01
9.383351840496988172e-02
5.350011743531324360e-01
-3.060173825818254117e-02
-8.802692467430381362e-02
1.162827652752642937e-01
4.865203912251578333e-03
-2.172813254250904047e-01
-1.508628373044248738e-01
-3.649645177963468656e-01
-4.402593801543430163e-01
2.147816257535071494e-01
9.840675196615672471e-02
-8.192700003819983201e-03
7.010701626287594301e-01
