1.689795111015688078e-01
-3.462381405144036167e-02
-5.081916994584696479e-01
-2.220686705824587714e-01
-1.404012480653631934e-01
3.324622193980002471e-01
3.559284761318979307e-01
2.875265088900364266e-02
1.708086957498345937e-01
1.743578974268693849e-01
1.100660119855639413e-01
-3.725299791544771366e-02
2.280151444110530834e-01
-3.826081204697933114e-01
1.002225714595890715e-01
-2.648395992791082731e-01
1.961992490643922060e-01
5.470442848232403010e-01
-2.168062159692352164e-01
-2.521659022684741291e-01
1.096092582281222583e-01
-5.979049043791158091e-01
1.387917709899883292e-02
-8.541227971430064014e-02
-2.942112539159190132e-01
-3.078033072247669533e-01
-1.528395195715590571e-01
9.853488391389331191e-02
8.731273677292798741e-02
-2.556898888225770522e-02
2.845969646132414654e-01
4.217164317672518307e-03
-2.906275004255083894e-01
9.874658583189116490e-02
5.234706492142795486e-01
3.341116566349908723e-01
2.385766601986152591e-01
-3.042563128838744468e-01
-2.716211380088838223e-01
7.644992189987140918e-01
-1.333026386018200948e-01
-2.710658286550562401e-01
6.997234160909981959e-02
2.817724426363802381e-01
-3.128703168804944923e-01
2.658834435812879038e-02
-3.647622927172143315e-01
-3.583765918418770902e-01
-2.591265593002554657e-01
3.550004482930987915e-01
-3.456972418287125315e-01
-1.819745479438534264e-01
-2.070422560171559789e-01
-3.304841724227046418e-02
-2.234316782188730532e-01
3.355769660542696764e-01
-2.366146736949081564e-01
1.601237139996882775e-01
-3.722875803455571453e-01
4.882974758275468452e-01
-1.501427303854550033e-01
1.067611269410447955e-01
-7.149081290710043168e-01
3.854703183060392835e-01
-3.292445612324004789e-02
-1.034823530831707750e-01
4.029552937326191797e-01
-2.191341017639969191e-01
-3.272723290770893634e-01
7.448973961321553316e-02
4.619130535815728633e-01
6.902099917834826348e-01
-1.697787277788380678e-01
1.431490347197508228e-01
5.057027113994670975e-01
-4.714398742422721833e-01
4.850887128601154563e-01
-2.718794743366626521e-01
-1.480083098038272593e-01
-6.214586142752966114e-02
1.980661790774659869e-01
-5.299800852769738224e-01
-1.025045455742714107e-01
-6.233671374750632266e-02
4.906974950158524140e-01
-2.559246524689189339e-01
2.070998774188770875e-01
6.841825514413031606e-02
-1.460181532467492993e-01
2.313321770860162635e-02
-5.713841559209838911e-02
-1.622493846283041274e-01
3.711085256267294685e-01
-2.927300042318233819e-01
-3.168831931175238315e-01
2.451746937024419648e-01
1.793406201531060340e-01
-2.920910873542503228e-01
5.845334438605654936e-01
3.063546078231009148e-02
3.075073355308703404e-01
-3.172528637732083268e-01
1.113275576620088858e-03
-1.344812220716880280e-02
2.531973876203126306e-01
3.844859424294622824e-02
2.626834083020377908e-01
1.672310018047870606e-01
-4.196492084420055252e-02
1.335730429436692290e-01
-6.300144292738203700e-02
-1.700331505796695564e-01
-9.471181929712726988e-02
1.501915277979214702e-01
3.610621601482733034e-01
-5.819390453839178301e-01
2.276384622909283784e-01
-3.821349902496906092e-01
-1.055903541018711200e-01
8.671214850146111153e-02
-3.207351540787682920e-01
-3.749882608973790221e-01
-7.205752710586825482e-02
-5.843848207296330893e-02
-3.721984067538133267e-01
-3.911562976278144532e-01
1.836734968955791580e-01
-4.095878668118866917e-01
-8.892828308584307950e-02
7.499095101267618801e-01
1.766411971247350832e-01
4.538857814880288832e-01
5.272455484466063158e-01
-8.313015168337406502e-01
4.131698319014333598e-01
2.196580076831953776e-01
1.538683697576649079e-01
4.476573146335530162e-01
-8.812229827983987518e-02
-5.744205851497879989e-01
4.777970411969358761e-02
-1.333125784813752879e-01
6.510728332928923667e-02
-2.737671088305239711e-02
2.608224238110123383e-01
7.801328061935690616e-01
-1.240148137234865083e-01
-1.720453651868284750e-01
6.094625465275959053e-01
-6.278390617901992155e-01
-7.568510632159518303e-02
-2.393581548042942320e-01
4.507694727093642939e-01
-3.407110201766519464e-02
-2.643381726263687587e-02
2.694735277993843825e-01
-6.367690125167622117e-01
-1.437377573281230780e-01
-2.565824064451118214e-01
-1.570100926760659155e-01
-1.343955439613539471e-01
3.913280170744837250e-01
2.167561139132137826e-01
-8.572887932934390720e-02
5.005241311567610873e-01
-8.399922954440838807e-02
2.377543808877631212e-02
-7.304810082199898746e-02
-3.055118092162180665e-01
-1.731405336751337121e-01
4.154911578048730014e-01
4.029108872467039582e-02
1.568992207033564346e-01
-2.778032720912121389e-01
3.420111899059099375e-02
3.794978588699888244e-01
8.866201896715472097e-01
-4.053840568134506883e-01
1.097132933634608004e-03
4.416074370434545648e-01
4.804323849585447892e-01
-5.339630747672553107e-02
3.867658513985951507e-01
2.856498263770019808e-01
-9.318023632838429160e-02
-1.132243778146845153e-01
2.850102469241224123e-01
-4.156152611396528029e-01
1.294528648902970036e-01
3.672056124750735506e-01
-4.094151086553169949e-01
6.292813802847316285e-02
-3.048320527030626836e-01
-1.123090354465335894e-01
-4.051107219623410471e-01
-2.692948377979468289e-01
-2.381954043011910715e-01
-2.211645052309128834e-02
2.494066348629255525e-01
2.760881910348210733e-01
-1.463120472347381740e-03
-4.829802097835026453e-01
4.498244581480295712e-01
-4.697789697137084719e-01
-3.575569913868403282e-01
-3.766433017003312789e-01
-1.372167691754303531e-01
4.602496351533106322e-01
5.898974171388881443e-02
-6.505929752106888175e-01
-8.066160812583743622e-01
3.993279872653776597e-01
-2.111022582662094305e-01
-3.224771926853690074e-01
5.549100509652073188e-02
7.566083735009703215e-01
-1.246578100113703014e-01
1.587427966197406115e-01
-2.077818898886195920e-01
-1.898983626473101372e-01
-2.799467991457293414e-01
4.279479593323953779e-01
2.602248041231129960e-01
-2.957834464826219478e-01
3.692465537842266610e-01
-2.864848200301343129e-01
-7.438968274523087842e-01
3.029785716017726616e-01
4.885565929319192202e-01
-3.412242947284676031e-01
4.584193112286335525e-01
2.910638167024072465e-02
4.554542870910546215e-01
-4.237487417546856872e-01
-5.637511708618219153e-01
-5.286434742488216321e-03
-1.273549013470159919e-01
-6.201553844053681042e-02
4.698767622980239145e-02
-2.972649950000488261e-01
3.201561126417521580e-02
1.323659933234864472e-01
5.655602242816493153e-02
1.833007467987303463e-01
-1.392229212244271985e-01
-3.823942240765147993e-01
1.578107066032463646e-01
-6.119051045588331378e-02
1.709081493207366687e-01
-9.931712645589305111e-02
1.398782111801271100e-01
-4.529212669423153814e-01
-3.089324136195172321e-01
2.143334417481749521e-01
1.784887400711324679e-01
2.754873639193687693e-03
2.358858401914323277e-01
2.405017403797921338e-01
3.824599451907509384e-02
2.421360703316410845e-01
-3.767657769045236194e-01
-3.815903586631138045e-01
-1.448459750047214646e-02
7.231312108900173063e-01
-2.831532622210072153e-02
