3.062641163444038694e-01
-1.250685278511832338e-02
-1.858620101412170600e-01
3.755892563563694164e-01
-1.329617926001114281e-01
-5.164465470034328431e-01
-2.142181975591805343e-01
-4.144230837145271990e-02
1.475224809351630695e-01
-3.369347221842901585e-01
1.726145586855452607e-01
-1.162288103643202286e-01
-2.020891088194062546e-01
3.106545145337666347e-01
-5.562334403873071126e-02
-1.067278403773454787e-01
4.963968019715364610e-01
-2.226283759001995710e-01
-1.448991190892545133e-01
4.774772825141876398e-01
4.675136903421883705e-01
-7.016998407847374608e-01
3.193267162457145147e-01
-4.624622352966752392e-01
1.201790722534431255e-01
1.042399124879387351e-01
2.262689349858491572e-01
-7.784673493908351727e-01
-5.688884001464653006e-03
-3.839353524120392436e-02
3.940545834059169805e-01
1.818897384193300104e-01
-1.535341435066773785e-01
-1.937388878355093547e-01
-1.052278904283278915e-01
1.494085093666135955e-01
-1.865122385143907213e-01
-3.305556692624830317e-01
-4.956864545772280417e-01
-3.435775687997418282e-01
-3.120279230714997215e-02
-7.507408802110909773e-02
2.549989668929902257e-03
-1.627398093084434505e-01
4.115915521268452282e-01
3.970759617279305265e-01
4.903887629190150088e-01
8.203133236761733782e-02
1.847627292956821321e-01
-1.267499468547647057e-01
1.242481255068857149e-01
3.749038353130519363e-01
-3.311915449522923743e-02
-2.476173251748915449e-01
-1.331991248337197342e-01
2.604817708724403991e-01
6.331272428256846940e-02
-2.509086507720602044e-01
-4.332847321837104415e-01
1.491555029389747267e-01
-2.081417416323136371e-01
3.516980003223322271e-01
3.864599853801049534e-01
-1.872510997057481516e-02
9.100164133517837928e-02
3.705845802082347595e-01
-2.409567706279087951e-01
4.010582173247034810e-02
5.333997625416518895e-01
-1.128475140688373415e-02
-4.133209117083282980e-01
-6.696407253444742746e-01
-1.783836277585791608e-01
2.297014038989335927e-01
5.649376208904313135e-01
1.829514074108719024e-01
-5.232164894666929689e-01
-4.175257572775679105e-01
-1.255427239258668781e-01
-4.190024833600848875e-01
-4.296579485871881987e-01
2.980375435121088712e-01
-7.487150727601377120e-01
6.118432130286971526e-02
-4.904620257435152175e-01
-3.367110051206536059e-01
4.377170229621825115e-01
-8.130213162995708620e-02
2.258747851590416425e-03
1.671578914869208399e-01
2.175332366660721606e-01
-2.460743066580522165e-01
-8.707220714305230480e-02
4.556470046251624995e-01
-6.500868318459513961e-01
-1.275180332019505980e-01
4.568774539194653261e-01
3.936853403173966037e-01
-2.150816401373796816e-01
3.033007073273029097e-01
9.963533961114731663e-02
-3.181450074856314592e-01
2.559041519267249987e-01
5.324033374841848770e-02
-2.989794873876909787e-01
-1.971886665267127969e-01
3.019063950358176207e-01
2.060884866143204985e-01
1.871684048145091928e-01
8.289951547271222354e-02
1.307758910857861057e-01
6.324072587856537364e-01
2.937999721250823537e-01
9.356389067484188748e-01
-4.841833707750312077e-01
-1.667431272849370649e-01
-3.026639024477466022e-01
-1.897309005124944159e-01
5.894793359174527875e-02
-2.473774827034063706e-01
-4.057077076763049295e-02
1.002887520662786996e-01
-2.499116215782726247e-01
-1.675459749679342747e-01
-3.628549121548186873e-01
1.505866212788721861e-02
7.957899180920130489e-02
6.662903920221169285e-02
3.227213511308409805e-02
-6.816638892157003693e-02
-2.728077305588965107e-01
1.601315138805789462e-01
-2.093288707493635714e-01
4.038296990291541655e-01
-8.544045570107269838e-02
6.348690609927105655e-01
1.097441725434768756e-01
-6.346915315273664315e-02
1.898121781067603209e-01
-9.831928432462795631e-02
-2.641018871649110089e-01
-3.432211922751039063e-02
1.996634504756825412e-01
-3.862444321050300111e-01
1.802307681751465496e-01
2.068228964121608393e-01
3.567434755870727003e-02
-3.473755551251703211e-01
-1.989334575815323858e-01
-5.148792479379744602e-01
-9.268859572224313892e-02
2.141601811001683509e-01
2.330713704909354294e-03
2.132504539878157523e-01
2.408590445429942967e-02
-4.757130161679741231e-01
5.326472597094055184e-01
-3.735400905436419006e-01
5.145091337277349908e-01
-2.129539662116584353e-01
2.424630502099621443e-02
1.455981290353454069e-02
-4.364711351985552934e-01
2.002356235511540683e-01
3.320299365022010285e-01
-6.539212970157252947e-02
-5.540831728445499982e-02
2.774716175531387607e-01
1.933191346125263665e-01
9.364578200707444899e-02
6.103817644579048185e-01
-5.338491662084911271e-02
-6.450737938155463036e-01
-5.185252808539118907e-03
-1.690289949668086211e-01
-5.197655376820026207e-01
3.506268307858195210e-01
-8.456212766559979832e-03
-6.049512164833392019e-02
-2.923676930181886569e-01
-1.811651069822001470e-01
-5.973261171880706044e-02
6.320339120747990591e-02
-4.911438346032972468e-01
-1.013040817071620969e-01
3.475619464695323124e-01
3.735464201407673879e-01
-8.359160610656912738e-02
-9.654202845270003219e-02
1.702282070727478835e-01
-1.962698047161725579e-01
-1.165631027797313368e-03
-3.856031984687115499e-01
-5.247176582789453425e-01
4.203572400089041206e-01
-1.600374886661322937e-01
5.142906156015254471e-01
1.746429112804860906e-01
5.725422441256212969e-02
-1.480024557137519237e-01
2.043033347266568489e-01
-3.133777139761280695e-01
3.660897698795738120e-01
5.051484767380727270e-01
2.022697477232950070e-02
1.859352440114386551e-01
-3.094835508447744687e-01
-1.216705582956963683e-01
3.473706533446926370e-01
1.889074540413813313e-02
-3.144000805935206477e-01
2.959727365713724634e-01
-2.941394470272174627e-02
1.999350138686717404e-01
-2.033016060658783541e-01
-1.258825665309048769e-01
1.997727247434867223e-02
7.336354665671081243e-02
-3.836234222372240654e-01
2.388266496433457953e-01
6.969024978340115917e-02
4.191055299175015791e-02
1.772551914941160323e-01
-1.439743309424513507e-01
-1.241930966921031970e-01
-2.254140288596603592e-01
3.948068294474715856e-01
5.493761561704413321e-01
7.686770497024459914e-01
1.022180102955031755e-01
-3.160024909644492674e-01
7.220853247451280987e-02
-4.456186532531117850e-01
1.531929584929025284e-02
-1.916984000318750769e-01
-2.243761867953041889e-01
1.151090263192502683e-01
-7.019782506958765350e-03
-2.445322453141891006e-01
1.006234651817884129e-01
-2.192742005867591090e-02
2.048163814811145705e-02
1.464025517380471153e-01
2.665446969523806442e-01
-1.483879739229101158e-01
-2.291337754542585592e-01
-2.353278767558913687e-01
-2.631630067859431765e-01
4.766657186205000563e-01
1.899277551558644916e-01
-1.529779411272180756e-02
-4.131046692403892440e-01
2.850272905578459803e-01
-2.403724813410306749e-01
-5.312340423454074978e-01
-5.903331664680441238e-01
4.004950517879607985e-01
-2.376225550121771890e-01
1.967453016073976713e-01
-3.200485386915294383e-01
1.755251410293836578e-01
9.582704787220280851e-02
-2.576533755929422131e-01
2.732361177218988191e-01
-4.880859232509578427e-01
