2.185971924543357592e-01
-1.298706501840542205e-01
-3.080447369430837079e-01
-3.474348757664455500e-01
-4.358432996957828376e-01
1.188286422315317364e-01
-2.028189524928325771e-01
1.472319303661855372e-01
1.172350441159942941e-01
2.915499228789631969e-01
-2.482023782495167696e-01
4.954714036275567612e-01
-4.155548424660165940e-01
4.566005358143523374e-01
-5.469728904758999755e-02
2.563764491780501920e-01
-2.503031549470338124e-01
-1.524693821014297401e-01
4.415478463584212032e-01
3.220027762292787532e-02
3.006875500245945187e-01
2.304683746350540963e-01
-4.911615201652521634e-01
6.711168485760163893e-01
2.080175402833359111e-02
2.412989067118313236e-01
-9.781317524411131670e-02
3.542376989236119267e-02
2.866360995395580424e-01
-3.122039659044475446e-01
1.646893974407004357e-01
1.862387675281938493e-01
-2.340817791275990323e-01
-2.978255602426868598e-01
7.615911415213283409e-04
-5.351729214214367980e-01
-3.895254344817463688e-01
-7.868377014029716010e-01
-7.116608692647198586e-02
4.861486298036820641e-01
-1.118874166274345106e-01
2.608464862087830904e-01
-1.495344012723500982e-01
-1.648741324793888130e-01
1.467237378176740881e-01
-5.997137415590334530e-01
2.015098077734093218e-01
2.713241054517817608e-02
5.059084208591239085e-01
-1.803082416677976030e-01
7.101138661779909933e-02
2.806465903857817690e-01
4.501418519514820971e-01
-8.451725653982056219e-01
-3.588816960471261086e-01
-5.857052611812308962e-01
-2.847284995699966292e-01
-3.113517417536977860e-01
2.034551144926178279e-01
4.127935292720223415e-01
4.030423238054503532e-01
-1.041798503401036857e-01
2.541243937716206602e-01
7.565309368951899094e-01
1.411957006495703770e-02
-2.283574363932971418e-01
-1.419005676725962894e-01
6.449407745388344160e-02
5.119343304406712702e-01
1.157392095469191307e-01
-2.261392437803699251e-01
-5.812690961271610446e-01
-2.067268857541978977e-01
7.199212040756394759e-03
1.866176767446677820e-01
8.411305139320968127e-02
-2.441529761952690447e-01
2.786620291264332860e-01
2.486682640321972171e-01
2.018293997971237208e-01
5.346103770944375944e-01
6.934113842654149318e-02
-4.071484984342926272e-01
6.115049473339698172e-02
-6.804587678590078015e-02
2.960517168317816639e-01
-4.318817494691314096e-02
-3.166497527719238647e-01
5.334142002622522805e-01
-1.576409123653386979e-01
1.057801824411685604e-01
-2.297353659764095335e-01
4.873779094065920359e-01
-4.745812328816283454e-01
5.339226700029406913e-01
-2.615366702905178031e-01
-1.281336016785411536e-01
-6.284698838588512193e-02
-1.880634635130579158e-01
-1.897343334957070637e-01
2.422028569172714196e-02
-6.909807829146974445e-01
9.196037896190724370e-02
-6.686646893796212021e-01
5.586829094280723607e-02
3.617563474464636775e-01
2.879329407463631085e-01
1.168889905369168147e-01
3.464703871375000577e-01
-1.776905878307492165e-02
-2.209398924694746247e-01
-3.924689001928876042e-01
-3.458502603494188476e-01
-6.400502908275683411e-02
-2.496386229993184935e-01
1.249660521710392463e-01
-2.614698825919837821e-01
-4.923114364639774587e-01
-2.803962451523871469e-01
-3.414763827846593047e-01
-4.381989334382299095e-01
2.269788770621935028e-02
3.539128977667567177e-01
-3.248046099219809579e-01
-7.510507392368963309e-02
4.589466728750483115e-01
-9.422322563425657993e-01
-2.699596222586678890e-02
1.741555465523129398e-01
-1.057468376784354847e-01
3.570658827417141912e-01
2.224512437278850785e-01
-3.574108617810758254e-02
1.161542117097131566e-01
-4.881041842111783630e-02
-1.441574776533728619e-01
-1.422971047094304942e-01
3.413201678412586815e-01
-9.656024825318529348e-02
-1.010501730676711951e-01
-1.465365017107378154e-01
-2.424716878074319737e-01
1.170384051671990167e-01
9.343030112922587338e-02
3.393456022669338878e-01
5.459863054307964036e-01
-4.769450318971897862e-01
7.410316383677642560e-02
3.896762035512511824e-02
-1.182094070138757919e-01
-2.098661960579205066e-01
-2.839382487122405485e-01
1.285184177282839013e-01
-3.228616071799748077e-01
3.549779594187435494e-01
-1.127489566697145312e-01
-9.326073944789556314e-02
9.488268829140590610e-03
-3.125321157453305188e-01
1.892334231316386561e-01
2.450357766190652820e-01
-4.691545840837315628e-01
2.195699275371145731e-01
1.557504546965647330e-01
5.292736040716790047e-01
4.394218670367563417e-01
-1.312157515628632476e-01
-3.701254323513367694e-01
2.358154703139205832e-01
-5.372714402498652425e-02
8.804581293783039775e-02
6.573009562102945236e-04
-2.963932615505128765e-01
1.037778117019277080e-01
-3.431074276489621822e-01
4.721845092676943412e-01
2.394253889618969122e-01
-2.698979403397402388e-01
-4.599260699376016559e-01
4.634859207913961665e-01
-2.506311363646482326e-02
3.204990732844975598e-01
-7.983965898830758245e-02
-2.073568038539829739e-01
-5.111677895368138547e-01
1.297719607580331003e-01
-2.222436328102752046e-01
2.432460121189118085e-01
-1.781998140505555717e-01
-1.507746258811435980e-01
-7.385887693695020184e-02
1.435414118764755664e-01
-7.055682131024061665e-02
2.850045427561380129e-01
-3.615942988996668217e-01
1.006877734519621981e-03
-5.374106960775922731e-02
1.149884555291875166e-01
-2.358460348748700197e-01
-3.319276359852594283e-01
1.203702918099922893e-02
7.452478613213811554e-02
-9.150775192827989568e-02
-2.223096197377643080e-01
1.305703411513907952e-01
6.762488398054752325e-01
-5.941364375439392442e-02
2.606034134675782599e-01
1.209631990479478475e-01
2.756590447505675168e-01
1.851007886556689241e-01
-2.820366186441399803e-01
-2.336333667374919376e-02
1.448391015920320046e-01
2.303348952807697525e-01
-5.428608845150217910e-02
-3.174596495269619845e-01
3.129912908061752153e-02
2.214997163133447799e-01
-3.780565947790563985e-01
7.021158323048226624e-02
5.863158439673304967e-01
-1.076636430373684172e-02
-2.758907859872219981e-01
3.161508642350739917e-01
4.720928870452051340e-01
7.933203633549607003e-02
1.237406512545912857e-01
1.591395617373775329e-02
-8.528044192492144626e-01
-1.957556873991983526e-01
4.055671842333535837e-02
-4.638762038063494741e-01
7.141013502597436391e-01
2.027844413824843040e-01
-1.115781931173408792e-01
1.275825357076344480e-01
2.122453133553545979e-01
-3.091169664801822203e-01
1.243145544418349513e-01
-3.070854696511847171e-01
8.142443144099672514e-01
-3.606432368490595786e-01
2.119309139040792545e-01
3.350398295607852628e-01
3.852457501527006833e-01
-3.550467036293742940e-01
3.431250597658352386e-01
-5.581209891119545685e-02
-4.040684041612184474e-02
4.394557306905915728e-01
3.255508965402935662e-01
-1.429550739510951352e-01
8.070076472903418840e-02
9.505232633342937387e-02
-7.343062901231354189e-01
6.173137783988829064e-01
8.904474196731307356e-02
3.406500472619224951e-01
2.460900505588723974e-01
3.443932109119295093e-02
4.062259406758167990e-01
-2.304874030693144227e-01
6.592765356063938313e-03
-7.534724429391899125e-01
