-2.739557795088215855e-02
2.482482184595908026e-01
1.730443507371607070e-01
-1.801782407805450903e-01
-3.040310558405866503e-01
6.145596024669677804e-02
5.916406612294473621e-01
1.519727372430295098e-01
-4.465038470644134838e-01
4.988375738551429350e-01
3.420992782304038693e-01
-7.955844549914045660e-02
-1.858039248856630798e-01
4.599398421610366612e-03
-3.277417546019912309e-01
-2.208667444151250214e-01
4.354057562304127771e-01
1.238708194423624731e-01
4.254109667633159675e-01
-1.203755044511081174e-01
-3.892898990084521782e-01
4.055145270898839749e-02
1.122247310380641155e-01
4.758766279061600879e-01
-9.571235905146585621e-02
-3.008662119259578605e-01
6.807312153686922995e-01
-2.079880629615712129e-01
2.536213260878446563e-01
-7.883454307080546286e-01
2.839667746438441220e-01
1.798681933978523995e-01
8.308029327438694323e-02
-2.740938346227425049e-01
-5.617868470622468940e-02
-4.348018047002822350e-01
4.635989936623167128e-03
-2.620739184637859223e-02
2.398986976594448262e-01
8.009553364392554831e-02
1.582500260258813407e-01
1.008433351299448111e-01
5.318430315294544325e-02
3.117551230530604123e-01
-1.374013792363031061e-01
1.590635494832011443e-01
-2.134853050147757225e-01
3.326155370995322880e-01
-9.782567578263511032e-02
-1.115411487955238340e-01
5.332981916953680873e-02
-7.154904705467367287e-02
3.700469226561601266e-01
4.170070451564482639e-01
2.188817651277213949e-01
-2.590151064979622775e-01
-3.402888779373050010e-01
7.347577048062552407e-01
-1.088440434427226516e-01
1.699957335754394561e-01
-3.956179253510919702e-01
-2.252788337441606892e-01
1.085860453774291495e-01
-1.967857140263092400e-02
1.077804695565497961e-01
-4.427533293999048186e-02
-1.639935649884462776e-01
1.766790921022775296e-01
-3.755529920553588030e-02
-1.182525169311485630e-01
7.011079522514411522e-02
-1.182932788417330600e-01
-3.698124903963986854e-01
5.817318555320953599e-02
1.798824820875730146e-01
2.414121330560061174e-01
-5.767542391830422499e-01
-1.269714562092795311e-02
4.808558985810930664e-01
2.044255548637447795e-01
8.467828625504000839e-02
-8.477530721294544713e-02
2.385941835110512166e-01
-1.955507520630611340e-01
3.923918939068443135e-01
2.068880619819487288e-01
-4.374419727397670932e-01
2.530766659845441399e-02
-2.246667394475265755e-01
-1.592119020989969658e-01
7.723493834756218757e-01
1.764827188893278997e-01
3.502298524083795050e-01
1.588012994402159539e-01
3.279701994269152432e-01
6.900710139851436165e-02
-1.618788545657660893e-01
2.189765690635332995e-01
4.944386207882393025e-01
-5.303469325377133670e-01
-4.194705347118663635e-02
-5.839624902592901456e-01
-1.829565947323990027e-01
7.048272988573094089e-02
4.425335286731091333e-01
-1.414834110521041854e-01
3.427429759941134635e-01
-9.511761536972310194e-02
1.261801237232992312e-01
2.557928328966303511e-01
6.583353867204859433e-02
2.440952432674232120e-01
9.291835542451014340e-02
1.709514807373655743e-01
1.398199558199471337e-01
-1.317646103177073924e-01
-2.695169699662108287e-01
1.812880951561362808e-01
3.587012224498284385e-01
3.356289651447905836e-02
-1.745109927906995650e-01
-2.683476877109673420e-01
3.908422672330032488e-01
-3.423200393407938580e-01
-2.553185264784156860e-01
-5.718033476922253222e-02
-1.247732941970757098e-01
-3.125520932074714042e-01
-5.133123502635752455e-01
-2.447644551036878280e-01
-2.784807398025346270e-01
-1.226658249879684914e-01
-3.098555499459954357e-02
-3.702439516214869331e-01
4.203598546178383688e-01
-5.840268336816479833e-01
-1.445428119717751536e-01
-4.311256915713186921e-01
3.401132624767021495e-01
-8.574358559616253317e-02
5.423283295442093976e-01
3.008062475766842825e-01
1.186640591938941947e-01
-3.470231106352572592e-01
-9.183802780429958790e-02
-2.462007177462994037e-02
6.887939081474518666e-02
-4.889394893676731746e-01
-4.263537764911413119e-01
-1.568970331796283313e-01
-1.122332577911714785e-01
-9.854579640617661118e-02
-9.358485293132091931e-02
-4.676618232097955463e-01
2.210677479741440521e-01
-1.651450318847311749e-01
-3.207027156396674572e-02
6.059157259190689482e-01
-3.904577591948025367e-02
-7.234260960881949698e-02
-6.176385367610978672e-02
-1.162398878161126706e-02
-2.764688612606264195e-01
-2.388415498471164189e-01
5.970616406839280854e-01
-3.406546198969329087e-01
-6.480162581802813293e-02
1.850997273508355745e-01
5.193221756668895545e-02
-5.274482578816008793e-01
9.311086232282064779e-02
5.262881849550873348e-01
-7.264530728059287457e-02
9.625006201796025562e-02
-8.430919112638904367e-02
-4.414546567792512755e-01
-4.962217708305753927e-01
-4.627643457615840394e-02
-2.091281395240690844e-01
2.491432406117426446e-01
1.962415418493920205e-01
5.608867137715529694e-01
-1.011057710964243933e-01
1.229417559035108909e-01
1.904727165713992684e-02
1.226694731780669442e-02
3.572565532633171226e-01
-4.085708231988722239e-01
-3.707629105796281799e-01
1.003279126124060755e-01
1.095169513345089912e-01
2.386861406583382639e-01
5.808366897380699001e-01
3.580130452582501177e-01
9.241914864171651978e-02
2.541448528962038100e-01
4.189322875806101298e-01
-4.584049106330880807e-01
-2.291196858719605212e-01
1.553377561196058951e-02
-1.391567559306266522e-01
-5.233547498417197019e-01
-2.300804622733656768e-01
-2.195089692426675787e-02
2.761045111583974032e-01
9.533255842637519684e-02
1.025015909863209902e-02
-3.252039185025787371e-01
4.959456119063895829e-01
-5.887497120967803976e-01
-8.459313484762465141e-01
-1.212446110829080159e-01
2.263904209244348709e-01
2.156988798598901969e-01
1.949864727040026835e-01
-6.780701335458129246e-03
-3.187779943623042078e-03
3.610307042590981119e-01
-9.892612115825859254e-02
3.879241976174498396e-01
2.543748134907203307e-01
1.981694977176051975e-01
-1.093681401257010910e-01
1.532319779369770985e-01
3.743303384257841149e-01
3.378673002330212505e-02
-2.748520966622707840e-01
-5.307920791614852835e-02
-9.612229875907890575e-02
2.085113329539869664e-01
-2.982955252488304621e-01
9.686267164878711866e-02
-3.709744734581547215e-02
-3.824988876012473393e-01
-4.949725052990606167e-01
4.124403074110751799e-01
3.635918230274473584e-01
-7.535389050804245370e-01
4.813467949656247136e-01
-2.357786088234036792e-01
-1.647123051810350514e-01
-2.964995820323394760e-02
1.247610362737596734e-01
3.092604937690727196e-01
-4.857919942632919069e-02
-8.999865274114875191e-02
3.159509663150603109e-01
1.332649379858255323e-01
-1.712241364122312481e-01
1.012821952609598841e-01
-1.170457515485006789e-01
1.122797155231184812e-01
-3.276752535152319679e-01
4.188439266368204072e-01
2.527643377965565485e-01
-6.057945624834070175e-01
-1.273987070004103939e-01
-5.467873452786432553e-01
-2.487344778476542895e-01
-8.088055177960030984e-02
-2.735425642388574774e-01
-3.614370608255323969e-01
-4.210198093796262420e-01
9.665342708213242595e-02
-8.266585919450872288e-02
