-5.660702688120192727e-01
-1.819180276634570215e-01
-2.111326897122322854e-01
1.046206603964049478e-02
1.668650034767453216e-01
2.836284473050211807e-01
-5.384987708535503570e-01
4.229869437441856062e-01
1.388853906019999196e-01
-3.118435329831383274e-01
-2.185216402467936581e-01
-7.385998925196009257e-02
-2.224615723664822298e-01
-1.936724849815416190e-04
-3.365698407123134395e-01
6.937998503633560632e-02
-3.589243074840241521e-01
3.293552523439353119e-01
-2.679325898558319596e-01
4.994548911499102628e-01
7.532708935720872079e-01
-2.957498490842671579e-01
2.171598553773281259e-01
-1.405212751977771568e-01
3.075618131110657294e-01
-3.228287811892799342e-01
2.689980923680036495e-01
-3.257199165979347000e-01
-1.177356142337978029e-01
1.843332797635276743e-01
4.640680924454926859e-01
-5.765026700358844014e-01
-1.385382996858260940e-01
3.544040520502856340e-01
-4.070342040992554478e-01
1.322185734052593598e-01
4.909404456359662827e-01
1.788557178287538407e-01
-2.809296160130431153e-01
4.148869656139010931e-01
-2.983311232401886226e-01
-5.085594701615127056e-01
-1.513929804642561751e-02
2.009435247596393359e-01
-1.760864387111888141e-01
-3.497610755487057799e-01
4.589815378902389192e-02
5.160974273009053537e-01
7.221589916167737988e-02
-1.664466488319894522e-01
5.854913101656019636e-01
-1.467582930124866347e-01
4.809851149090542122e-01
2.493992113662741039e-01
2.882484915404743761e-02
3.301028918109827348e-01
2.487121036688139941e-01
-8.408396549379476559e-02
-4.761072190906345813e-01
6.444000155651453676e-01
2.288989201882322688e-01
-1.180494705127749788e-01
-2.367038327223925931e-01
2.472504582974468235e-01
-4.508006912783002126e-03
-3.671764064986939302e-01
-3.553513553642054235e-01
-1.682863282354088441e-01
-6.558407618524884075e-01
1.851538194458563977e-02
-3.204053919539830431e-01
8.888316829261609653e-02
3.395918418886491597e-01
4.209783722100892550e-02
1.689588634200301087e-01
3.591037111172039054e-01
-6.521666516612698028e-02
-3.311008188393359530e-01
3.107254543865026197e-02
-2.719415575685775743e-01
4.224476226148320412e-01
1.975558258530560607e-01
-8.967143107164297910e-02
-5.460149467774247367e-02
4.636704326776955321e-02
3.702939911008077400e-01
4.230764546193532816e-01
-1.329615794366854897e-01
2.847379189730837590e-01
-9.849906963931180648e-02
-1.700509762041118311e-01
9.195591629036273251e-02
-1.499451343479731025e-02
4.605628681186159645e-01
6.931026444781852869e-02
3.047257034893237071e-01
-1.958827369873423763e-01
2.272921391212441855e-01
-6.044636588271017352e-01
9.411833621322535093e-02
2.279527698297211247e-01
3.364149538860793376e-01
2.823104436129710709e-02
5.404418578020634412e-01
-3.414393534892090076e-01
7.222117470410646112e-01
3.157301189701802041e-02
4.433748266979656988e-02
-2.279170350701023931e-02
-4.536795097303383817e-02
-1.046979584650434836e-01
-1.708346289985051836e-01
-3.003985840961656203e-02
9.259905539317721257e-02
3.804649769355769595e-01
-1.912496506788222417e-01
3.107363208604365101e-01
2.471228779353079053e-01
-1.608162206859814480e-02
2.614987560028605440e-01
3.322905207227569435e-01
-1.444862321071901656e-01
-2.241032620697625266e-01
-9.582486848600287044e-02
-2.545837630368561477e-01
3.136294969368706442e-01
-9.784374081229849432e-03
-3.404744634982951879e-01
-5.750432946681122148e-02
-2.974756713934966212e-01
-1.382658724430028685e-01
-2.054820359565268095e-01
-1.931360678065009995e-01
-2.153679303729883476e-01
-1.563646872515532527e-01
-2.572191750411796304e-02
-1.398441492873068182e-01
9.617928260504968185e-02
2.125334599016311665e-01
1.632413843855630778e-02
-1.281387663099812224e-01
-3.892450700376145489e-01
1.683911421588056567e-01
-4.597350850286358037e-01
-3.796277461546064269e-01
4.456635722950634537e-02
-1.563332546030977988e-01
-2.433361238917096381e-02
-1.852734894556026801e-01
-9.689354452785897687e-02
-3.542293111262647121e-01
-2.444607668523683386e-01
-2.999420466696224863e-01
3.100469069294376490e-01
5.865088609481777793e-01
3.067329252157493039e-02
2.682653833757651929e-02
-1.770007703933929866e-01
3.194593950827979145e-01
-2.121738301695198781e-01
7.898093140792893097e-02
-4.770834749174919232e-01
-2.628398336269350266e-01
-3.974988140614493237e-01
3.592748926674296794e-02
1.614824955543914531e-01
-1.066291617617210891e-01
2.785398974946023606e-02
-1.800176925131866390e-01
2.900828400701622733e-01
-9.487158126182192175e-02
3.544573232230588955e-01
-5.281972069763575528e-02
1.285964257601193983e-01
1.993406245839040858e-01
-1.742120832028793212e-02
-6.377367329537385332e-02
-7.671300810734371645e-01
-4.314159756396691026e-01
2.711514313935843301e-01
-1.926368763776314663e-01
-3.384581435993875287e-01
-6.473899206367172976e-01
6.780121364993859645e-01
-9.096735206172800181e-01
2.869081064546716853e-01
4.264762792461153085e-01
-7.389196016795726574e-02
-1.039666075706409953e-01
6.873135440625999237e-02
2.671632484690210640e-01
4.970429188185890856e-01
3.047367895642692504e-01
-2.151311695626612064e-01
3.900437961926851438e-01
-2.689017823537857566e-01
-3.278558350928982290e-01
3.846312657203510010e-01
-3.555046364183374052e-01
5.977759594611311428e-02
3.887576681413884017e-01
-2.555297675447188999e-01
3.807209957835884784e-01
4.521394238336349791e-01
1.221181969552568441e-01
4.333135269155858338e-01
1.425036713132102895e-01
1.149721485056744569e-01
-4.350635944279125922e-01
-3.827677127548989033e-01
-6.341290835318829089e-01
-2.779242704982760603e-01
-1.395983387589328217e-01
5.132653442175589831e-01
1.960201977381643701e-01
-3.678453273798263368e-01
4.394906747345844189e-01
-1.965927801461671010e-01
8.870363196447079990e-02
-1.889986061230424508e-01
-1.759815563649444747e-01
-2.936721136665874643e-01
7.740990611074085592e-01
3.773900020425871582e-01
-3.943251379827254488e-01
5.669555085267490302e-01
7.767141678861512466e-02
3.509670400812580082e-01
2.394260945386050554e-01
-3.696107966486658070e-01
-2.681883082757214112e-02
2.191977166110625486e-01
-2.805076896559939859e-01
-2.054628025332700669e-01
-3.841945261362428310e-01
5.624400353423842924e-01
-3.951994003797371091e-01
2.671474853146278416e-01
-1.794490126412437991e-01
6.181958917108377506e-03
2.728361505018474520e-01
8.591501518157229622e-01
4.856056310754479077e-01
6.048021230009662658e-02
-4.374586006727695375e-01
8.856547642307689705e-02
-5.185364581416859048e-02
2.329361496907281226e-01
3.723960772648853279e-01
-6.147415317566703313e-02
3.151107866125293921e-01
1.800284714703392352e-01
-2.645972920004890372e-01
-1.379690296243521463e-01
-2.448330026003868731e-01
-2.110283569905636036e-01
1.048428425795375728e-02
8.271496534272788914e-03
3.550588079798632779e-01
1.952860640289476313e-01
-2.604655317433534484e-02
1.462006599342478841e-01
-2.684012413934257490e-01
-2.952332973300302865e-01
6.085937666373459481e-02
