-5.817715688108915373e-01
-5.138339295074693114e-01
-8.653215653435544774e-02
3.434878269640712078e-01
5.456806795284916412e-01
-2.453919285170581277e-01
-1.407867006918677721e-01
2.915767552919387717e-01
1.981126682480205681e-01
5.494841529920374557e-01
-2.939800173190211807e-01
2.002920598872261482e-01
-9.678369248158184834e-02
8.386950989343558427e-02
5.926535938087191813e-01
-1.182605814220663160e-01
6.628463344499820054e-02
-3.297701010138168742e-01
-1.099758236627508962e-01
1.966604198525209735e-01
1.728262338157484923e-01
-1.893932229886685359e-01
-3.239996486063234093e-01
-1.828003148269236322e-01
3.809793581306348403e-02
1.109699393387948568e-01
-1.059420837554258393e-01
-4.717102541974503849e-01
-3.165605820577855889e-01
3.066611446710436617e-01
9.851223909391242095e-02
7.518468281308557377e-02
-3.907905691178700791e-01
-6.536960631271422628e-02
5.451507924012083395e-01
-5.019495930011781404e-01
-1.717359719218583824e-01
4.030204515690913487e-03
-3.277625278648392260e-01
-3.331015262377166608e-01
1.665532837424137935e-01
-4.174928568102571208e-02
2.864448769090844338e-01
3.300489359869848011e-02
4.069251231388035239e-01
1.005245447736217296e-01
4.043787920138788294e-01
1.213851111152913949e-02
-6.361921446616175535e-01
3.292050288748200604e-01
2.950990901455257664e-01
-7.291149296158896953e-02
3.476318277233120257e-02
2.340596284316818487e-01
-1.026224336500278500e-01
-1.664849698818205992e-01
7.936237580256198798e-02
2.217083004466857965e-01
1.789141418082161317e-01
1.866231433273278784e-01
-8.916215993727510947e-02
-3.347082006217170780e-01
3.070615774907630314e-03
3.470517950838195032e-01
-7.826095532043213510e-01
-6.922620269633020795e-01
-5.914889121343337441e-01
2.738623393046917820e-01
2.586174301589165836e-01
-7.748940113401407703e-02
6.496588210614897239e-03
-4.946827203153506547e-01
-3.572125019077576624e-02
2.333555329056760663e-01
-5.860368052734652444e-01
2.602917235749267477e-01
-1.826661562059868904e-01
-1.653825617198939057e-01
-1.104456896657223658e-02
-1.352154053724299587e-01
2.272607081190990419e-01
2.477048757129028111e-01
9.495227348786371147e-02
-5.331355269608569758e-01
-2.692986679289868235e-01
-1.487945766753119015e-01
-3.407057980113094575e-01
5.506326914213918178e-01
2.554166318343074615e-01
-1.474533653632608687e-01
-9.512966988070800656e-02
5.949136040343147025e-01
1.888331117025539296e-01
-3.098413017748719578e-01
3.321289730548384611e-01
-5.872381591929296679e-02
-7.047615047010633016e-02
1.118817684835947540e-01
4.510763732017353256e-01
-2.877648828731292352e-01
1.877115045544419658e-01
3.009791964728026140e-03
2.403994767890887674e-01
-2.616263482185891831e-02
3.931549223719258412e-01
-2.320625870064712271e-01
-3.656759567071178885e-01
3.025501034021174651e-01
-1.418146533143310184e-01
1.128775154452737323e-02
2.471030169164434298e-01
1.530929889037392078e-01
-2.338477663427057651e-01
1.417213011102255449e-01
3.616864443035289201e-01
2.459020449283509657e-02
2.367072936329248090e-01
-8.849307905279890640e-02
-4.938852367224596529e-01
-1.070122256146208151e-01
1.345435654483411736e-01
-1.795585048876912893e-01
8.748636769431435145e-02
1.309383576920650216e-01
-8.045420923855341189e-02
-1.884242949762731933e-01
-4.083547605494095012e-01
1.446646422950127464e-01
-5.358450082199726072e-01
1.478757558839731423e-01
-2.177496283101844066e-01
3.875050438241912087e-01
1.130844216971066685e-01
1.946885969325324039e-01
1.037997623309676737e-01
2.641456591956174368e-02
-1.109391033336085686e-01
-4.688083764773884332e-01
-6.911209712237477432e-02
4.192398805404521922e-01
3.593486359545566833e-02
-3.328746008249490740e-01
-9.393446633100850651e-02
1.976316123964652616e-02
-3.905502733242768865e-01
-4.122501355882319807e-01
-1.912621593520688890e-01
1.051449533616448939e-01
-1.728164896371058856e-01
7.580293646237200589e-01
-3.528684146296031110e-01
1.763280497620115794e-01
-1.661203506209830427e-01
6.279523008743241770e-03
-2.193866109799008646e-01
-6.868346148538236884e-01
3.801831491127818236e-02
-1.189278553410297173e-01
-1.118872067175350066e-01
-8.319311601306683679e-02
-4.914035058987237248e-02
2.897956141983491496e-01
-1.604424772375075137e-01
-3.344943829458373319e-01
1.375906254167546215e-02
-1.750728628479029936e-01
-1.192948335232019708e-01
-4.943300357214793217e-01
1.742063882409412567e-01
-2.452565990695369791e-01
4.009377127002645286e-02
-1.548148099156563401e-02
-4.131769401561743993e-01
-3.812650417100663103e-01
2.921641947658380478e-01
1.682577265243153097e-01
-3.871164985152978910e-01
2.534609319058108712e-01
4.159974899210125976e-01
-1.520268529244689915e-01
2.517189342588866396e-01
-1.195162007272110444e-01
1.352345742955016472e-01
5.478685403213992555e-02
3.348897209333905334e-01
2.402966955940082361e-01
3.998087165892749706e-01
-2.964030585083523572e-01
6.188211010503778808e-02
-2.174476008170571351e-01
2.626817979767624989e-01
3.560669621995963402e-02
-1.363444631325926026e-01
-9.884619724104733163e-02
2.519008961038055397e-02
4.909116153900461299e-01
-5.985009057852613140e-02
-7.135441108914736263e-02
-1.822971628070805747e-02
-1.561573497613680250e-01
2.535193994180310814e-02
3.100292921212577379e-01
-4.538543379668074501e-02
-2.022047812665723754e-01
-2.322760753694802158e-02
3.411049230149117983e-01
-3.115035078961505555e-01
5.554360124078695504e-01
-1.084296375943122337e-01
2.750106873054619649e-01
-7.119454455305463947e-01
8.246103552932861902e-01
-1.309681356433355370e-01
1.560286252423733200e-01
-3.675127701418614001e-01
1.095449775295952027e-01
6.922181844867874023e-01
3.628846832202053396e-01
2.408896078403975904e-01
-2.467325571131751272e-01
-2.001759364460095059e-01
9.128676845588508393e-02
8.684641333906566174e-02
4.078630976882224868e-01
3.825844759721222510e-01
-5.267423399512806761e-03
-8.732612224239358345e-02
-2.008340963681163605e-01
2.959935121066742392e-01
4.621243138916899390e-03
-9.586564247789566284e-01
-3.312623297966451053e-01
2.722292485295138131e-03
-2.368691723097399726e-01
1.494443630609789027e-02
-2.637939615409868321e-01
1.956342723261014216e-01
-8.906162812533337941e-03
-7.627094332054749903e-02
1.951667641187304347e-01
-3.739508906084448303e-01
1.400188056014377569e-01
1.862171792626932665e-01
-3.055122139912834212e-01
7.816253228794006747e-03
4.371615206364244943e-01
3.240185645032465644e-01
4.654392333113397950e-01
2.937613905805563919e-01
6.079795976867724550e-02
2.317623727261192493e-02
5.332226882056131934e-02
2.772791283487590075e-01
-9.960583405675182966e-02
-6.154808704161583710e-02
8.846604575277866589e-02
2.103493459047593994e-01
3.589251145298036350e-01
1.307172464674301593e-01
2.283059549692190160e-01
2.666515458850662185e-02
-2.285759369798327223e-01
2.372407170625191464e-01
-3.173812520639868739e-01
3.260758058597574283e-01
