-6.052833192808384499e-01
-2.732834643569809763e-01
-5.090220637392290914e-01
2.399934720273572686e-01
-4.405693187959185408e-01
-3.606414479588829214e-03
-8.866099618487371936e-02
1.087389477788781450e-01
-8.120264807417836017e-02
1.472111187483260974e-01
1.265211432940148151e-01
-1.783072717820737840e-01
7.900265083735508176e-02
4.470795902469312799e-01
-4.415464308395407045e-01
7.489708201129190168e-02
-1.059126646429124213e-01
1.513663612985808316e-01
6.336683087903506595e-02
2.148656421340426892e-01
-1.432737337576958092e-01
-6.987566486784548836e-01
-3.076003905392270532e-01
1.731736186590326354e-01
-9.865177097796389016e-02
1.737822433192103555e-01
3.091811920580281869e-01
7.410557261266255413e-02
-4.301056853533892776e-01
1.975714303931424276e-01
-4.512204107489509175e-01
-5.997241970346784967e-01
-2.629522940561277999e-01
9.635699946002401761e-02
-3.042853447295884028e-01
4.936355840057691791e-01
1.805847519338231455e-01
3.490740306725544917e-01
5.968004507175754814e-01
-3.780890897358922809e-01
1.301185269020081470e-01
5.419408794917709299e-02
8.308290239868183769e-03
8.215571025393199334e-02
-1.362719972709113270e-01
2.626337760699112844e-01
3.888466241346066887e-01
1.365543943630231905e-01
-6.686957489708413027e-03
1.524992500667228246e-01
-3.744829607742858335e-01
-4.060673929285342487e-02
1.706921975860723473e-01
3.296660028712947721e-01
2.028167784288309183e-01
-5.072191227664128998e-01
1.116273199900167101e-01
-2.535335354021520105e-01
-3.456176253043213159e-02
2.807240616527633542e-02
-2.594510435813754401e-01
2.547849747003878562e-01
-1.693783887578176328e-01
-3.804666516054140968e-01
4.624574707481512448e-01
1.276938379010092439e-01
2.214755233420735436e-01
1.295414927715289877e-01
-1.107493494211833074e-01
3.785842217449266189e-01
3.699317911328458552e-01
5.805399516474876176e-01
2.586378101423663645e-01
-2.216490573897092198e-01
1.227028330268990219e-01
1.031048092194502691e-01
-2.586770729204437291e-01
3.416061179380772139e-01
2.610110778331680703e-01
-1.039713173277138775e-01
-2.771801092346742879e-01
1.206208283595578273e-01
3.170379609158914536e-02
3.361992509204919655e-02
5.370180412104795520e-02
-6.508981935826644305e-01
9.635504111598669486e-02
3.224588301521280065e-01
-6.150210595944616276e-02
-9.558464255980102242e-02
1.007889494647795509e-01
-5.282318383034337872e-01
-6.250384288211801032e-01
-5.064784315261688930e-01
2.080478044635009627e-01
-2.514886623137950195e-01
5.868828023647421760e-02
3.159546448548101183e-01
-9.710528333640033871e-02
-6.837836621453755037e-02
-5.258795248939377442e-01
-9.023955617452859845e-02
4.144011500607959475e-02
-1.275896333807678418e-01
-1.026276233203003568e-01
-7.415931830724014073e-01
-2.621209688139023997e-01
3.017470588404707055e-01
-2.372187913877606968e-01
-3.372031986450448326e-01
4.334774605623512578e-01
3.142866222270436216e-01
1.265511276473198221e-01
5.063283349457934346e-01
3.492867805604920051e-01
6.439445811242821005e-01
1.314290200044421209e-01
4.091247962452539966e-01
-2.558930464258417636e-01
-4.095928078967016328e-02
9.979734019566645353e-02
3.298269182747160522e-01
-4.943911183568503454e-01
2.275633674071411983e-01
-5.920356830236089829e-01
-3.578071318079858454e-01
1.634779579703736496e-01
-5.205087030293966688e-01
-5.331098781705183309e-02
-5.839606846205250834e-01
2.149512767770819510e-01
2.105166359284959265e-01
3.272506026795352629e-01
1.769317065197454075e-01
-2.655545786009587683e-01
1.930343283238077079e-01
8.692344875693178152e-02
-2.462548725403646277e-01
-3.194034478740352956e-01
3.645557953488253178e-01
3.735315550268858420e-01
1.250830535818150402e-01
5.631374622860845225e-01
-1.096424011646008612e-01
2.824863236794496468e-01
-5.273947334464538228e-01
-1.864310195067480080e-01
1.722968217618378040e-01
3.704647887003852391e-01
-3.702119848097248922e-01
1.851711829018077848e-01
1.241592656746258461e-01
-3.764273227771265939e-01
5.898775496493580128e-02
5.445586206732809798e-01
6.747696399443287030e-02
2.896713649239023719e-02
2.707179108765526976e-02
-2.352779583993573620e-02
3.145730522501170162e-03
6.738971192417059219e-01
6.047049891250432241e-01
-1.682059549416885513e-01
-8.343493803559565158e-02
2.902395216330195260e-01
-5.831777398294930859e-02
-1.422386534410359782e-01
-1.859066047118544396e-01
-4.786897684585866841e-01
5.066909665904727189e-02
-2.762990026819052702e-01
1.678444433385543610e-01
1.053410867479801782e-01
5.194315176495950537e-01
-1.423471316924701524e-02
3.772941173749548571e-02
3.119036460562458202e-01
5.037883092769958049e-01
-1.906876296314239383e-01
1.600795703552392313e-01
-8.393351686520087451e-01
1.635402779384764749e-02
-2.530124343863313086e-01
1.181434539183824906e-01
-1.023063535352980030e-01
1.822810095441158573e-01
4.749353921729431161e-01
3.798045269407024360e-01
4.300207410263847674e-01
1.539391195702187187e-01
-2.631024919577361065e-01
1.884389984195350143e-01
-6.863251450891125760e-01
-1.550850051096273607e-01
-8.477277772931447741e-02
-3.249671801476659572e-01
-3.558063221761494366e-01
-3.953874787238541022e-01
-2.750229183722983084e-01
5.464005487034080399e-01
-7.753961435534832691e-02
7.996921628538482263e-02
4.483994984766853098e-01
3.304728412482318967e-01
2.862823107367198916e-02
2.184865549623561387e-01
-5.334225634714397785e-02
2.671112143250477522e-01
1.063930474204934258e-02
-1.140089759372799466e-01
2.370539968647390472e-01
1.803787262779699696e-01
1.826560418851959910e-01
-1.680914416779273890e-01
-4.519362124758218302e-01
5.399561064712755654e-01
-1.767703470662099763e-01
1.714557336070396398e-01
-1.893654964070415891e-01
-2.458148836710525587e-01
-1.088694902242798718e-01
-1.144778079814495891e-01
-7.927568671375101461e-02
1.788268411572360161e-01
1.101851068486796731e-01
3.062704927097228413e-01
1.995118577129772752e-01
3.840594853488128735e-02
5.902159949706370368e-01
2.240948080603735459e-01
-4.454595743601132141e-02
-1.473375630505979195e-01
-1.772388161565711939e-01
-1.548995669257602903e-01
-2.218101617879044904e-03
-1.530132281341062273e-01
-1.900559312437440918e-01
-1.530372123467826084e-01
-6.244264306256650660e-02
-1.612407425150562124e-01
6.065136975146986908e-02
7.256174578338628889e-01
1.751459394414434656e-01
2.260834172965942718e-02
-2.805916283365709196e-01
-3.772250032267113196e-01
1.557733500854637798e-01
3.166020036662691162e-01
1.164556654975926892e-01
-4.030248671947485040e-01
-4.948191468148234740e-01
-1.588555522656907026e-01
-5.001173163924058779e-02
-6.027227861013827181e-02
-9.829917664044754422e-02
-1.640618266885801868e-01
-2.397762279922045492e-01
4.344956181386853689e-01
-4.855191336508933864e-01
-3.150147766106402569e-01
-3.851575911905075200e-03
-4.140087007539619002e-01
2.514523724096546231e-01
7.819161888328096666e-01
-5.617814053015854903e-01
