-1.089052891632004971e-01
-2.693260829053090721e-01
-5.478040447643434119e-01
2.093409739377015966e-01
-5.035545689383269519e-01
5.750916441445929478e-02
-9.725138077191780583e-02
-2.908141107674837300e-03
-2.013639813852409199e-01
5.377177493988814783e-02
1.707843923453612467e-01
-4.298052174368408029e-02
4.565762179222512818e-03
4.180688565153898861e-01
1.033268805607528984e-01
-2.532531058174883887e-01
-3.500185070125442222e-01
-2.676430551601158975e-02
3.972051798036713155e-02
3.224812922524239456e-01
-1.807946170262055285e-01
-6.087211024063745590e-01
3.019232545739647944e-01
-1.621491021192291576e-02
-1.034271145396186975e-01
2.266916462638564056e-01
5.831657354890902589e-02
-5.956086043721293966e-02
-4.477798210641813492e-01
1.494974878630739301e-01
-4.287060183162525462e-01
-3.690774201432356350e-01
-1.195827300837690732e-01
-4.084832916283666349e-02
-2.433270535973120208e-01
1.274058647254873722e-01
2.246321524695926164e-01
-1.042876218811586014e-01
5.793348994244784667e-01
-4.342107793526497894e-01
4.793420337704638184e-02
6.306416104721979110e-02
1.173096823356687274e-01
-1.502387754332347725e-01
-1.792460078682587832e-01
4.314159601717536957e-02
1.156108769890286658e-01
1.093203972368671367e-01
-1.595359417661123547e-01
6.509875250451033213e-02
-2.449953357303235879e-01
-9.613964764168077271e-02
3.079970502757434225e-02
1.833139998541684357e-01
1.482573718295658038e-01
-7.227526204335872617e-02
-6.476339725289559368e-02
-1.564634375748092943e-01
-6.972070484772176224e-02
8.452927838891444168e-02
2.015440745551798640e-01
9.214881369242503006e-02
-9.196691881537631674e-02
3.311298687199158708e-02
-1.388019426150321201e-01
-3.877903846485808437e-01
1.393146627021542849e-01
-1.672879533266910523e-01
-5.609185972837920087e-01
2.038190120146014528e-01
1.448484203535431725e-01
4.212872539564849195e-01
3.425069473237529749e-01
2.356624194718834608e-01
1.228425711252917052e-01
7.579984685439364323e-02
-2.417587129022122361e-01
3.711234765244144640e-01
3.499971455680693788e-01
3.039424781722520619e-01
1.134223689432421189e-01
1.953225515531636092e-01
1.434509431415871006e-01
-1.423562650111327155e-01
3.554136106041235615e-02
-6.517336221858922585e-01
1.610857555943131514e-01
-7.953710972395652834e-02
-4.701996080136226080e-02
-1.982110897100903824e-01
-1.452671039802253816e-01
-5.012628535313803368e-01
-5.785083879272285845e-01
3.161530840885097282e-01
2.349249328237361656e-01
-2.883883208643082258e-02
1.800161736416967251e-01
1.817739277454702429e-01
-1.479467267988251733e-01
-8.668153303646980445e-02
-4.485195450807389350e-01
-5.753710362316567795e-02
4.974399645830900052e-03
2.244450825205933087e-01
-4.464949953085449452e-02
-6.600771694990545946e-01
1.902008687654506147e-01
3.487076173645985988e-01
-2.061732750351706334e-01
-1.007867187376243201e-01
4.281699581949608424e-01
2.321540864889271027e-01
-2.546233813547461033e-01
3.627177013565332508e-01
2.453525176615431458e-01
4.407927748095739062e-01
1.868491817137445665e-01
-2.133900443555781512e-01
3.135758238180025997e-02
-1.140518689668591212e-01
6.881385241778448236e-02
2.390592118095195284e-01
-3.300743077506833045e-01
1.329663992785575302e-02
1.282014084320897696e-01
-2.019234431243260297e-01
2.637471879180168788e-01
-5.361825772950926661e-01
-2.577327083924488282e-02
-5.317038286759239174e-01
1.993087726559724382e-01
-6.447253172285990486e-01
3.870303552127581925e-01
3.964266638026492928e-01
-2.616282477142991558e-01
-5.254486886177841543e-01
2.059935926664389072e-01
-2.103682725064295322e-01
-4.105173040624560676e-01
5.214213337148838612e-01
3.353139733096188735e-01
4.681329497219121477e-02
1.597543620927115160e-01
-1.231371154369547832e-01
-3.853372377256581438e-01
1.881581045221882853e-01
-1.343979683377674317e-01
1.687757633108692701e-01
4.636569353172865782e-01
-4.103644105536948805e-01
4.928647935216839970e-01
-5.779157673543404428e-02
1.607515190388478510e-01
7.760448558151705756e-02
2.975242243159371136e-01
4.045445391540673091e-02
8.238230641663819853e-02
6.513648020131601601e-02
-9.020403495985027109e-02
1.004800716438187039e-02
6.084022592379899619e-01
7.065849472494780681e-01
-2.348740972265582205e-01
-1.191112067492883647e-01
4.510123841276852952e-01
-1.362284331472053411e-01
2.922673769785651410e-01
-2.423213864221199915e-02
-3.634902881516008377e-01
1.024299373467388724e-01
-1.169137817417942316e-01
1.980375190503595728e-01
3.231367130262254306e-01
-2.558478380024128418e-01
1.946991203941521587e-01
1.019909178719626552e-01
5.752418139458442825e-01
4.532890578064894815e-01
-2.962441935382218450e-01
2.065230636527196906e-01
-6.562664842603035398e-01
4.267846412450766735e-02
-2.010422837789537232e-01
3.893126069256421656e-02
-5.318674637911702946e-02
3.231324425129206701e-01
3.785143162043581588e-01
3.734156096712490935e-01
3.825782169503570973e-01
1.808581490988616092e-01
-2.667869913470596877e-01
2.885234118313212415e-02
-1.577435338375773322e-01
-7.390043506203834711e-02
-5.707243299401449921e-01
-3.253248289984517205e-01
-5.534027227447420039e-01
-2.399850200599991379e-01
-3.718255120723083507e-01
2.368844378911966198e-01
-1.762401139287757268e-01
-2.319522442349033486e-01
4.829932606241857385e-03
7.002468932433671966e-01
2.978012212280304813e-02
2.381396209543736320e-01
-2.391111688477184916e-01
8.679901931621271730e-03
-4.033221363010969229e-01
2.409273180008352777e-01
-2.887950319874729721e-01
6.385503660998811948e-03
-2.059002145570199005e-01
-1.476170417842380400e-01
1.611399687801632896e-01
8.081792142144877955e-02
-3.064265164993026924e-01
1.954745457174109913e-01
-2.425585648759163437e-01
-2.989258602127755626e-01
-2.789457132930537320e-01
-2.503587986091971862e-01
-5.430070585217799950e-03
3.823624474628981029e-02
1.386614857613049923e-01
3.180334940319127779e-01
2.457401498910612991e-01
5.649106328115190978e-01
5.764302665368372658e-01
1.764171952375764019e-01
-1.714218355831060581e-01
-1.292578829870547064e-01
2.336951619514868461e-01
1.280737747541198790e-01
-3.790744352554045182e-01
-2.499174882958615784e-01
-2.496760728478410185e-01
-3.115418123157897776e-02
-3.307813141294970588e-02
-2.934790873354535257e-01
3.749632428559643293e-01
6.068926076896872246e-01
2.485119063296322151e-01
1.394121492694840314e-01
-1.895597154975221521e-01
-4.251395652002344649e-02
-1.613616263439233978e-01
1.661745997218911364e-01
-7.898686953135662658e-02
-3.842663225816017603e-01
-4.412590147919558392e-01
-2.275033025603051540e-01
-1.896582226931373127e-01
-1.067282469884850843e-01
-4.449082886536935844e-01
3.429416227371710479e-01
-2.839764468297959477e-01
3.003074674950312883e-01
-4.571149768632119526e-01
-3.253944141757804109e-01
-7.877754497315610227e-02
-3.433388672935606678e-01
3.066081742335817206e-01
7.001995327970682581e-01
-6.728696287937721010e-01
