2.649289031124543170e-01
2.221990436137582237e-01
2.628286812635716729e-01
5.416832437183485283e-01
2.548529914906667027e-01
9.339024749054225527e-01
1.210487080954105316e-01
-3.782286192939790515e-01
1.829067752944757985e-01
1.893216078862131613e-01
-4.307491869588294109e-01
-1.618835284980692929e-02
5.754376398963182565e-02
-1.449536259557035467e-01
5.304515894903623074e-01
-1.653253251969526438e-01
1.400888411474988660e-01
-2.089712845663885266e-01
-1.633235967864493376e-01
8.962989210286019526e-02
-4.856192046486548786e-01
1.007701252821042309e-01
1.221526076811934279e-02
-2.047066323500835450e-01
-8.950620646135108993e-01
-7.474412382991646453e-02
-2.321402416733545637e-01
-2.614273614841364918e-02
-4.857638452395701689e-01
6.852757778535484290e-02
1.328928603260886854e-01
-4.223781290402188748e-01
5.004052059754635629e-01
-1.929689255996094588e-01
4.876088034049029518e-02
-1.482480743481412178e-01
2.365190668549657094e-01
5.997249091827847045e-02
-2.635569539861294941e-01
-4.827836081718679950e-01
7.276220473681170586e-03
-1.804146906713302578e-01
-2.110044598884151801e-01
-5.355068987573200628e-02
3.072939465636738698e-01
3.106804501212264910e-02
-1.441966926516840553e-01
2.282110537213342116e-01
8.040508383604759723e-01
2.114554244261295513e-01
-2.638354821475521472e-01
-2.240454282336461211e-01
4.074249525179904352e-01
-3.391245025373948452e-01
-1.315435235571708328e-01
3.489367728159414872e-01
3.115980286757244477e-01
1.695109354828058523e-01
-2.325894540633321461e-01
-6.754599929090900901e-01
-2.188972770722398195e-02
-3.952021147485894059e-01
3.218743864504982621e-01
2.409049084734525836e-01
2.434379878081471271e-01
-2.521626130056158210e-01
1.663999004653853586e-01
1.445221892007330644e-01
-5.551185251114990615e-01
1.747313860045530964e-01
3.301541994223192167e-01
5.602791782861855224e-02
2.648734499751111415e-01
-1.772072178304617135e-02
2.778257224080940002e-01
9.610283791822564481e-02
2.566091755897543791e-01
1.198093835059301088e-01
4.035626552163334990e-01
-2.774193701663573153e-01
3.722228105336293780e-01
-1.733166217740374493e-01
-1.301565412299872937e-01
-3.865450476747465669e-01
-3.645160515178594296e-01
8.223407832997287059e-02
7.178765442075484005e-02
1.948014881114847885e-01
1.943856590449532240e-01
4.602680298541874104e-01
-3.389186070683015140e-01
1.821369867865003100e-01
1.466592135262864971e-01
-1.844273856791976696e-01
-2.650105410245319759e-01
-2.086549736503196528e-01
-1.045001269350648715e-01
4.524544255570336349e-01
-3.419227370715788306e-02
4.229445639881276864e-01
-1.598548732626761948e-01
2.871983443860652296e-01
5.655065823634874977e-01
7.830232212029410166e-02
-6.919264971267163888e-02
-5.022056051885224331e-02
7.319362791127763390e-02
-6.267391205157316070e-02
5.353416131257614924e-02
7.024816660471807639e-01
-1.241824768967236467e-02
2.499481820011280608e-01
5.441167049200838768e-02
6.184809907577016874e-01
-4.663593195957970172e-01
5.342295297008103905e-02
-3.612744418564060034e-01
-6.664043145347595121e-02
-1.601027257169823914e-01
-4.056300976789372625e-01
2.878320064427768998e-01
4.630441504538947844e-02
5.782085696994689744e-02
-3.737259632136628040e-01
4.600431517697841644e-01
-9.053554961283939717e-02
5.415338363919032505e-02
-7.520033317239267767e-02
-2.094367109791157866e-01
-2.606875840048895610e-01
8.609047275961664858e-02
3.363912841098747053e-02
-1.909043570290377689e-01
-1.609735717023056678e-01
1.301433427521431208e-01
-1.778911893224775498e-01
7.061113738256719063e-02
1.056299171451204610e-01
1.573774206610874804e-01
9.313018103442878559e-02
-2.870944281701703349e-01
9.427066569281480901e-02
5.720314851498519149e-01
7.664973293534058096e-02
-2.848387650923703829e-01
-2.350359382026860899e-01
3.097521028923185676e-02
-4.559547573385563379e-01
6.023552189945562130e-02
2.722713422371332848e-01
3.187796067226298935e-01
5.540108878341123422e-01
-1.821082882241401579e-01
-4.855495667847701258e-01
3.654212756047417465e-01
1.669434544290025746e-01
-6.242921337298313472e-02
-2.062612238821608657e-01
-2.066719841342510577e-01
4.474731505375586504e-01
-1.469144779358890207e-01
4.844947374706390364e-01
5.904594977312309645e-01
1.312305194098498662e-01
-3.576377373212145661e-01
1.990288277460922906e-01
-1.033820033854150472e-01
4.896184182692173148e-01
-6.122885072733488115e-02
1.246784397939933592e-01
2.110406213281581789e-01
1.160890674505233866e-01
-1.548630738005862539e-01
-5.280598666453183848e-02
-3.849968734358500955e-01
-3.193441823679248337e-01
2.729223822349279849e-01
2.431661577037185218e-01
-3.072109510817982447e-01
-1.588596604985388627e-01
-3.806653219681394723e-02
-1.828907320696431804e-01
-1.359516465677997922e-02
8.208518033464087260e-01
4.474966718619307060e-01
1.772066856279072289e-01
2.056142996803606571e-01
-5.419770297968040662e-02
5.715803565871167835e-03
2.011446727467047432e-02
-5.155409225689227192e-04
-5.212250801616380436e-01
5.138878115907937749e-01
4.368389384554873661e-02
-7.193294497531796949e-01
-2.046411366139112287e-01
4.545614813430492451e-01
-1.376500811158045401e-01
-2.993811513282664677e-02
-4.157406957045998164e-01
-2.275929182521793104e-01
3.657492112879418555e-01
2.807608093669992089e-01
-3.282043943236257477e-01
1.253488670587925569e-01
-1.997863069078505693e-01
-3.047502318703069757e-01
1.982319995790962908e-01
-5.415050429877987098e-02
-5.987367748569794208e-03
-1.429289401109783697e-01
4.828127992566070420e-02
-2.864601559476240844e-01
8.000669597142469336e-02
-1.207385277852727479e-01
4.795035930334646812e-01
2.237737914150900176e-01
3.280363376754728000e-01
-7.297931616959042744e-02
3.048659849828713742e-01
3.378705244548794312e-02
1.488995702469906313e-01
-5.601216192566620643e-03
4.210691589736129670e-01
5.978569774381662372e-01
1.765811634528788032e-01
-3.042978693810516888e-01
1.478659660074229110e-01
2.641022841929314691e-01
-1.882456131708073188e-01
5.750857396482897399e-02
3.342324056843241631e-01
-1.089403545901005688e-01
1.353078984187003064e-01
1.642925923291649049e-01
-2.953740253616377390e-02
2.576789134658600405e-02
-3.072771018156861267e-01
5.684093510229618756e-02
-7.973640418152315446e-02
-4.865169068313704437e-01
6.134607531350558807e-01
-1.291395813826336746e-02
-2.459382947244896089e-01
4.077971908862457751e-01
-1.348057003784730312e-01
2.378590692755958580e-01
6.586577465133013065e-02
7.426333237031421119e-02
8.545246088589106281e-02
4.072978139808152570e-02
-1.282914177376983655e-01
2.188616765262527963e-01
-5.373406114582321980e-01
2.475930390024387029e-01
-5.785120321347234085e-02
-3.950551439190339575e-01
5.481484465124376593e-01
3.807942259406095764e-01
-1.281244947124733635e-01
-5.300254585826531806e-02
-1.581266510615528254e-02
1.300734821293457744e-01
1.398407211585657728e-01
2.327301347625624073e-01
