3.331168274944359409e-01
-7.727033061764582156e-02
-4.484783619001486005e-02
6.138015923194466428e-01
2.520253885884647937e-01
3.697929514029955067e-01
-5.103202242590164639e-01
-1.492992987061028953e-01
3.968104681807342882e-01
5.268652076184294764e-01
4.214420937409837364e-01
-1.513804220268621381e-01
2.894212644216206387e-01
-1.586544639917545074e-01
1.670487070540161989e-01
-1.133342866680950023e-01
-4.033280104616326911e-01
1.139564149433453938e-01
2.276703969282910245e-01
-1.198633933611008562e-01
-8.229006356883339368e-01
2.207574206609510536e-01
-2.785850505463242643e-01
4.051167811637891858e-01
-6.385650814764236641e-03
-1.550335884971088332e-02
-9.877453098058762426e-02
-1.701846137418134564e-01
-1.772486641156611753e-01
2.590499408103539292e-01
-1.219198576901092818e-01
-3.650964235291604409e-01
1.030584551668869836e-01
8.409822438354706831e-02
-1.508152432191904035e-01
-8.493277481593429490e-02
1.095914338147844225e-01
1.543505689750929860e-02
-2.760618450043898497e-01
-7.417137939050060663e-03
-3.418051376351742277e-01
5.969434905910722122e-01
1.707635959782344004e-01
-1.291811919416214205e-01
-2.722088931867711614e-01
7.235485351465962070e-03
-1.795330303789637316e-01
-8.627509193701577983e-01
-1.003821374792649851e-01
-1.309389688936601348e-01
2.275872183031837359e-01
-2.585466565449420773e-01
8.404083051735822263e-02
-1.860537387094445272e-01
-3.656394687836281993e-02
1.097137752733372967e-01
8.375821738366506786e-02
-3.870590133206664452e-01
-1.040598006992842633e-01
-2.758756249720072384e-01
1.136617906637062830e-01
3.936734989683571828e-01
3.835639008184450471e-01
2.791638356428915446e-01
2.098672640011191026e-01
8.033594384331729787e-02
-3.173987832656847696e-01
-1.727073605620444152e-01
-6.152217533007835470e-01
-2.877357112477466616e-01
-2.060174154473535801e-01
-2.798035147208947082e-01
3.396176105863313865e-01
-3.673109607319668957e-01
2.535982611770062345e-01
4.956828819796615243e-02
2.332619783207235536e-02
-1.571769631091719244e-01
-1.305870477191597989e-01
-2.833580771944941845e-01
-4.253303728369289827e-01
-3.439005630835178379e-02
1.713876366001758633e-01
2.630239934912861344e-01
1.324396309635981206e-01
4.454053016506380747e-01
-6.667188365774345815e-02
-1.901338637409809296e-01
-9.561915698311938827e-02
3.537308168208915249e-01
1.854983801030938295e-01
6.282922575522988107e-02
4.611291407235297846e-01
-6.528517222113073837e-01
1.249458323081570205e-01
4.412828088018559691e-02
9.882245679020439100e-02
-2.728627756740018562e-01
5.006575347049266322e-02
-2.894545505745066416e-01
2.256757037038738256e-01
-4.782629707895859061e-01
3.029250572735290303e-01
-9.731278569724917393e-02
2.219112780069839308e-01
-2.358203476049303970e-01
3.413147196878116296e-01
-4.444953303579027848e-01
-2.970094904869297614e-01
3.408750836332870571e-01
-3.661977796380047612e-01
-1.277681189780454085e-01
4.185277790506680695e-01
2.471750240241570862e-01
2.515394460076059158e-01
-1.769986844652856328e-01
-1.130186349997619466e-01
4.527191046170812583e-01
-4.776410703492702803e-01
-2.685178504392915153e-02
-4.100700914963891774e-01
2.052875147712037440e-01
-2.200859382127738628e-01
3.830041929847042836e-01
2.945883319596960814e-01
-1.597544027103289244e-01
9.971489831566722473e-02
8.278327253074446723e-02
-1.946955367444292914e-02
2.155182190513758034e-01
8.926303596728729639e-02
2.842499168467946258e-01
-1.830482087197190244e-01
-2.572872717154588984e-01
1.479555444535924497e-02
-7.769454711489287568e-01
2.325545809740384995e-01
-1.278510405790390381e-01
-2.172264714349493586e-01
-2.014836904241708027e-01
1.000000000000000000e+00
4.739418551770162580e-01
2.241779983539399831e-03
-1.719023622912679850e-01
4.763788190414652846e-02
5.278836601273130258e-01
3.909491180644630304e-01
-3.075389760785168236e-01
5.059571116875154484e-01
-1.913868065979137389e-01
2.354281021077371805e-01
-2.820390861842781982e-01
3.250704569932031524e-02
4.821735445239240803e-01
-1.728038519438357054e-02
1.473520016127213839e-02
4.104593163369210096e-01
-1.267958169043613970e-01
2.542238071365777660e-02
6.059186881561925975e-02
7.126665081077039610e-02
-4.801867446764771646e-02
-1.571199134373359452e-01
4.553268522877167851e-03
5.087242764281880714e-01
-8.553074719584689845e-02
-5.516575930807255529e-02
-3.535105210353708949e-02
-2.698232150940495511e-01
-1.382877507627316704e-01
1.089334454345008557e-01
4.016458706510927512e-01
-2.314658065211666338e-01
-1.092714152699226643e-01
4.958108142990843570e-01
-1.408097081981164039e-02
-1.702446452090070894e-01
3.038629613860118622e-02
2.374870648139938978e-01
1.565345070619813816e-01
2.568875064323530855e-01
1.654836078475353245e-01
-2.256988254102246794e-01
-4.176484112300370977e-01
-1.089276183540300036e-01
1.011945813847163200e-01
-1.126217279053682158e-01
2.444450285625893449e-01
-1.938620352406642822e-01
1.808051162878456519e-01
3.091782688780563282e-01
2.015500350714281852e-01
5.350629043265257012e-01
-3.351515327625224083e-01
1.553241798606702917e-01
-5.610709946362899547e-01
-8.259503508972165786e-02
-5.761578213306506324e-01
-2.138310070337487712e-01
5.264949603882806972e-01
-1.363572551842288649e-01
-9.266216248910406905e-02
-3.981812419271885117e-01
7.493905685753465828e-02
2.094488622546503698e-01
-5.228409643769887927e-01
5.892550468981986450e-02
-4.777118839093557057e-01
2.198582579606936926e-01
-1.708529315557253403e-01
-4.640229135325384391e-01
-1.380162071188298090e-01
1.718089661774653554e-01
3.379027490999239602e-01
-1.667770490438471864e-01
-1.688322168546823321e-01
4.955197319643086518e-01
-4.206274127073191260e-01
5.137451978130264107e-01
-2.639163798217014079e-01
2.350821016120982487e-01
5.210072418998660249e-01
1.929990274142112383e-01
1.747856230594511673e-01
-3.437584721087647011e-01
-5.479090457016221744e-02
-6.003848535777451395e-02
-2.151578427651638370e-01
-4.020141515916010599e-02
-5.465062191622422905e-01
-5.330289563625429938e-01
-5.863688867458350940e-01
2.162911367397405971e-01
5.286650820836747561e-02
-8.197466868159718201e-03
5.056659084694723472e-01
3.579369408334037161e-01
8.140184102625249718e-01
-9.512879003166022085e-02
1.403791252670353040e-01
2.874878137971237368e-01
1.154321687941098212e-01
-3.310336395801559695e-01
8.414884742245752891e-01
2.357082444967696366e-01
-4.242686247563127733e-01
2.542447924295670458e-01
-2.320653180752509370e-01
1.646102223010538490e-01
6.258466958500351340e-02
-6.896201174462478489e-01
4.521167448783119380e-01
-5.754435545776855898e-01
1.223981845288910908e-01
1.061761653781887749e-01
4.033699375079157767e-01
6.577045040683789784e-03
-5.727872412018654158e-01
-2.964664059919835948e-01
-1.820245953806712280e-01
-2.178083597670667573e-02
2.589793724564583566e-01
2.225807258773786768e-01
-6.046320874525720757e-02
-4.820492401536097260e-01
