-4.542830955615613786e-01
1.284120533730649660e-01
-2.506353224760811058e-02
-2.038143592212022515e-01
-5.672891105743218532e-01
1.295930191748948246e-01
-1.838646639010512174e-01
1.673903322670765650e-02
5.479325569243422012e-02
7.992704536276809546e-02
8.604347565213857352e-02
-1.983214964740819541e-01
1.816588483308581858e-01
-1.360420815364012381e-01
-3.048537050723246211e-01
-5.901405141565318688e-03
1.066135215862670654e-01
1.728166214799626565e-01
-1.827670814772553165e-01
-2.249609920809360619e-01
5.636433529617100547e-04
1.243837834723180436e-01
4.837543062977754937e-01
7.613887231814460144e-01
1.328036241795820249e-01
6.926245822772663097e-01
2.873491619809746475e-02
-1.139518602941413800e-01
3.410534402295000156e-01
2.626759519095490658e-01
1.151877408864676877e-01
1.368200197338245716e-01
-1.523671297138347444e-03
-7.048903364740288779e-02
8.184724794782867463e-02
-9.085007206129824819e-02
-2.262279949676275145e-02
-4.139411261723985880e-01
7.869227295445024861e-01
9.932694832351234016e-02
3.843445143395808339e-01
-2.061824553905933777e-01
1.929473742978766726e-01
-2.778901197333966122e-01
8.810023698463663455e-02
-1.809208919220594569e-01
-4.547489974737352614e-01
1.516766464066212350e-01
4.334746790415199835e-01
-9.403909281738079273e-02
1.251797571301233314e-01
2.178184391658754063e-02
-3.332799757742117563e-01
4.786526306841228373e-01
-4.946426270919384582e-01
-2.776823964216617036e-01
-7.367498841805560084e-02
-6.557526782577295377e-01
-1.135474711145294524e-01
-2.529940820119399580e-01
2.154632965550738743e-01
-3.853141127836818836e-01
-4.397205379050770913e-01
1.150738570528996862e-01
-5.757642782997180603e-02
-2.035557098344794869e-01
-1.832890631079928945e-01
3.381343763156718363e-01
1.309497865629007107e-02
-1.072197775998714325e-01
5.413855131256123387e-01
-1.172031693879114767e-01
2.466540009033817704e-01
2.357483682968558314e-01
-2.243535257427574370e-02
-5.104590021968210545e-01
-2.108441808774065562e-01
-7.834694293633993889e-02
9.121782767286999716e-02
2.262466211898514212e-01
-1.071939078262021117e-01
-1.401150138214705410e-01
-4.476886173195624985e-01
-1.158875337430500113e-01
-3.848378938773658331e-01
-1.060010072515523011e-01
1.485475296930442168e-01
-2.736195845613207181e-02
-5.711951734613346376e-01
-9.051653024720793250e-02
-3.857915227423622806e-01
-6.178145003411904534e-01
-2.228977551387846534e-01
1.962493437044872044e-02
-4.595335659637812542e-01
-2.799420233727412111e-01
-1.319216621271917245e-01
-4.014978958719657431e-02
7.124768542290498274e-01
2.541738910333857793e-01
1.357997702336848078e-01
-1.853911715670386873e-01
1.933822677645996579e-01
3.728879008314290311e-01
4.018097297582187699e-01
-2.498056968257898192e-01
-5.235237157311237732e-01
-2.674824767244342039e-01
2.806486496279740894e-01
4.016690619293606379e-01
-2.319753146031147684e-01
-8.329494108205269531e-02
8.650546301992460829e-02
-5.080060556372458791e-01
-6.256563782988627809e-02
-1.048734780551861118e-01
-4.844919329316917933e-01
1.888929808633545704e-01
-1.766321432561647475e-02
-3.617556477725582947e-02
-1.914751853239281265e-01
4.931846453498585081e-01
-4.083561126977932609e-01
-2.571009696851745546e-02
-7.082780630202985261e-02
2.247162548869867382e-01
-4.052534845220706061e-01
8.784044864381322648e-02
4.415246103680219858e-01
-3.317584779602212319e-01
1.681484515747255215e-01
3.922877349059841756e-01
-4.199871614224064964e-01
1.406529622781576075e-02
-9.002674745936363465e-02
-2.978514286683467960e-01
2.604365626349857687e-01
5.525951731210349688e-02
3.677349390991280220e-01
2.955197191114339872e-01
1.138141867075197072e-01
3.517997393812274387e-01
-4.542376687135830093e-01
4.861904021160617928e-02
-3.965480176359922893e-01
-4.042128946809637746e-01
-1.265250318584173472e-01
4.755185710658209053e-01
-4.918211477122236830e-01
-3.097441623101674923e-01
1.197166734375121611e-01
1.180295912583632645e-01
3.557938484905131538e-01
-4.167461826059718800e-03
-3.136147836806488232e-01
2.038150638013700722e-01
-2.442655248893864095e-01
-1.573585919446492676e-01
3.719705115131619055e-01
-1.100909559104735758e-01
6.016869142482420552e-01
8.864229029122265568e-02
6.021825238000058644e-02
-8.860934153522294354e-02
-5.185697581639411302e-01
-3.460776006381245384e-01
6.600972888152327467e-02
-2.558832831798933394e-01
-2.328216662876685661e-01
2.922527606864361860e-01
6.723773669570966283e-02
-3.283835697243530638e-01
1.850461485465468292e-01
1.442098095772772204e-01
2.586008027587702318e-01
2.976346208452126246e-02
8.326527040754122533e-02
2.878612520751588355e-01
-1.992689303828134861e-01
-7.884521806328907700e-02
2.890736526105158188e-01
1.710531420745418640e-01
-9.049582445346902870e-02
1.176248107446639102e-01
2.319396206431282859e-01
8.391374927692197838e-01
1.773611370352270455e-01
4.668676430034401359e-01
-2.084862244796887032e-01
-7.680234821105076382e-01
-2.873233250674187000e-01
2.090103920332792575e-01
7.983875090340165903e-02
-1.037763829675545368e-01
-1.672053048820307253e-01
-7.209797717868099420e-01
2.082892171939321468e-01
2.516162420799509247e-01
5.302701773186516698e-01
-3.604872807329685680e-02
-7.070423994664462933e-03
2.620525140508534467e-01
2.373442405308020531e-01
-2.076117284232463778e-01
3.344085632280761194e-02
-2.553428118785200929e-01
-2.244435450493497686e-01
-2.298435112309904493e-01
-1.639323485747293807e-01
-4.788262398906450307e-02
1.386306166052712341e-01
-4.062237707186200919e-01
-3.646481288951372024e-01
-1.845345148229443344e-01
-6.448317714800301248e-01
-2.135661596668230189e-01
4.817483508102741729e-01
-6.509964115858554168e-01
3.827066711706396396e-02
2.072541209059834133e-01
7.811285236551258893e-02
-3.877392404852835189e-03
1.300840127530009938e-01
7.318558043762926624e-02
-5.157916394816548511e-01
1.410364406683578542e-02
1.509903402235810155e-01
2.448097821677380770e-01
-3.365013965762725379e-01
-8.232695544616636107e-02
1.532689568811332614e-01
5.153317409807921523e-01
-2.584230160487497804e-02
1.406202590659917651e-01
-1.883895063641662648e-01
1.818006986350981513e-01
1.249922811105729503e-01
1.296304870245047480e-01
3.934917051011719291e-01
3.240000238853819048e-01
-2.478807635192611381e-01
-3.995328180514169936e-01
6.707240381599633983e-01
-9.789367311020256979e-02
2.385975521737983829e-01
-2.380991608402844573e-01
3.889170588689380703e-01
-3.664360224741035066e-01
-3.785318205300062799e-01
6.623433214805662939e-02
2.760198239357505301e-01
-1.852778833395171965e-01
-6.068018361280144018e-02
2.832820427207046743e-01
2.684109418203976527e-01
-2.113675270529244421e-01
7.097060566645818636e-01
5.100797391624466437e-01
5.138992562562102462e-01
7.711710695960788398e-02
6.848144447962681292e-02
-1.660657650099510163e-01
2.162461947651612981e-02
-7.927753396985502687e-02
2.199053519533245016e-01
