-4.264320765217783915e-01
2.793249028295440306e-01
6.262364353034792497e-02
4.354677903829562435e-01
-1.100677722865845004e-01
4.710579933814163650e-02
-2.362070753371449117e-01
2.495911646273835799e-02
2.897551873734314776e-01
-1.514514188495162117e-01
-2.371431207976336941e-01
-2.294448453526451159e-01
2.447354310855672302e-02
-4.362558453333496150e-02
-1.435643198005401022e-01
3.079985292911444628e-01
-5.678223331330477519e-01
2.056493751042866580e-01
-1.828681149082041490e-01
1.701454463915708371e-01
4.129942656568111325e-01
-2.626811817203532073e-01
-8.128590215550749454e-01
-1.130214404190186261e-01
-1.149590015792108927e-02
4.865814835088713708e-01
3.086641926030648242e-01
-1.897907687605414895e-01
5.528806734903533027e-01
-4.028083388273359655e-01
3.109273972284735676e-01
-5.467967657223494343e-02
-6.530261389560485519e-01
-1.598635702876522180e-01
9.173893560420726123e-02
-2.050758718431485439e-01
6.483697422107714825e-02
-3.146303388211866281e-01
2.156080803589518480e-01
-3.762916883704101045e-01
-1.204048848276428885e-01
-4.071873646638329292e-01
5.232239732018932887e-01
1.097353696680765517e-01
-3.227835419159268415e-01
-1.168940815962444951e-01
-1.383037312124487652e-03
3.535801455309866559e-01
-4.611899303644941273e-01
1.803156865227136668e-02
-4.168604128141543685e-01
1.851083737693422215e-01
5.338545699335804917e-01
-6.966345282406610773e-02
-2.838695748929865315e-01
-2.349059038139085231e-01
-2.781798610154611606e-01
-3.270505523193136255e-01
1.468369466598093975e-01
8.273170947240686759e-03
-3.627841468460648588e-01
3.536441669017427181e-01
-3.167574622144544473e-03
-2.140552731924399293e-02
4.838184811969220012e-01
1.692616046300423061e-01
3.440469298431224343e-02
-4.820165764685978987e-02
1.615153874012075774e-01
2.023467151662738384e-01
-7.137685928828763418e-03
5.932717397228696316e-02
1.306146176226247457e-01
8.118957436374264411e-03
-3.104046320647705914e-01
3.535754774704486514e-01
-9.359932433763683279e-02
-4.839723150858656064e-02
3.298730669309361541e-01
-6.277886981344277251e-02
-8.391663442022093133e-02
-2.015649692993658759e-01
1.289246805993902734e-01
1.597959151388767263e-01
-2.466400272325465493e-01
-6.004373220811114464e-01
4.162570457146248515e-01
2.107875858499885235e-01
9.977438968264360983e-03
2.337220779259272518e-01
-1.263026492229947506e-01
1.939957043636670042e-01
-1.643086168663608904e-01
-1.214580307138265480e-01
-1.708697686053608777e-01
8.142168551298682722e-02
-1.616150591019469285e-01
1.006812805048674930e-01
2.017685091187767787e-01
-1.933531607256424589e-01
2.504479630735720330e-02
9.782612096268201995e-02
1.300166603903361584e-01
-4.013287432920948361e-01
-4.376465267024028799e-02
-7.740661897386631740e-02
-4.792839160868655468e-01
2.031858213883654118e-01
-1.287001453606151091e-01
-1.041869553095047252e-01
5.468728901576609402e-01
1.246655021407235692e-01
5.133034681488031492e-02
1.853914975750267924e-01
3.433617872327562187e-02
-5.468996663009605408e-01
-3.173714531831376418e-01
-1.919691720458129858e-01
-1.005772618721735567e-01
-2.878646607758702514e-01
1.767001615292060901e-01
-4.544648789869661920e-01
-2.840762515750839268e-01
1.816265511703199775e-01
-2.788935817012382912e-01
1.986916035920342771e-01
-1.395569778324131649e-01
2.470401192859868478e-01
2.840694478348932406e-01
-2.982515517223581769e-01
3.493423438924755930e-01
4.695075062815801115e-01
2.924958205416757773e-01
3.841269634040009873e-01
2.267774480760187950e-01
-6.075221662450331489e-02
4.313914894967985636e-01
-3.795748104803464695e-01
1.784703917633317927e-01
-3.536860538022179035e-01
4.157772953594946475e-01
6.981314121353938973e-02
-1.499564505461666031e-01
1.061393720555093428e-01
2.588046406261332311e-01
-1.402752886872361548e-01
6.204718876619943480e-01
-9.337970909443156498e-02
-3.982583771960182539e-01
2.250926184585318700e-03
1.703231780368217874e-01
-1.039421504918777994e-01
-4.677889359162555882e-01
-4.211447688323342008e-03
5.037228600631111775e-01
3.447361255237780253e-01
-3.597400431512919883e-01
2.055570638121494431e-01
-4.569787254990112513e-02
-2.235528917086857803e-01
1.409861819978048825e-01
2.814789003964867087e-01
6.141621613901385168e-02
3.938306523955711902e-01
1.856023228862305752e-01
-1.576001555059981241e-01
2.102506896167636585e-01
-3.142800197026120179e-02
3.217352850096467654e-01
-5.000835144555002554e-01
-5.766608917840247983e-01
1.929469099609517346e-01
-5.408262889299125797e-01
4.215421833086834269e-01
6.895351832515356216e-01
-2.647091406181053541e-01
3.744139732686105337e-01
-3.719757700482884677e-01
4.205341706929922874e-02
1.736114502703769435e-01
9.164665754721505742e-02
-3.755169917754486858e-02
3.715501478460074281e-01
4.936150684525734272e-02
8.169767605941052890e-02
9.812659822403684284e-01
2.185759959485943649e-01
1.891072818544841105e-01
-2.848847108726497157e-01
3.953867815058549340e-01
-4.510911654767287837e-01
-5.406423339511327864e-02
-1.082957648041174281e-01
-5.536611527327430782e-01
-1.312889859341791199e-01
1.755685497055554378e-01
-5.604425004318174253e-01
-3.690021012964858627e-01
4.880728184960675953e-01
2.860863186947253459e-02
-4.063065048500945076e-01
-3.711356428248198114e-01
9.032140758363219613e-01
1.965122270269432370e-01
2.966128415865638135e-01
4.401912843942824005e-01
1.662577347873002986e-01
2.382849068647449609e-01
-8.183636135672864645e-03
3.364033253750532693e-02
4.080044640727280014e-01
-5.158513539967615052e-02
-1.338758496218887817e-01
-1.405855889706277562e-01
3.577434200664486585e-01
6.778969813834594127e-02
5.696853168050396432e-01
-7.387722273001114115e-02
2.592494099393442553e-01
-3.518440040621813591e-01
-2.197814612124542044e-01
-1.872297443938776840e-01
-3.042754015157274061e-01
-2.108010671530548968e-02
2.448594201765479372e-01
-4.236050899313836826e-01
-3.039570634323966736e-02
1.692481744234264618e-01
6.114113986711324639e-02
2.699890575955661287e-01
-2.412838140351125094e-01
-3.953644885018287036e-02
2.372192432933801498e-01
7.641926481455944831e-02
-1.022780336077692559e-01
-4.365666688529557526e-01
3.219137140886842441e-01
-5.567693819431338703e-02
1.147943855825259152e-01
-1.276267864773578953e-01
-4.655822966885306835e-01
-2.198945235306725698e-01
1.046497607983288142e-01
9.326022529708657416e-01
8.289866905160069299e-01
-1.712613084653191453e-01
3.489028645887894825e-02
2.060802277339560951e-01
1.773279350018968359e-01
1.819474866458128670e-01
-1.774350301564684151e-01
3.012538960134219512e-01
2.236309126973926309e-01
2.224506856615324213e-01
-4.183451478179182059e-01
7.139491309161745403e-02
-6.387327221208854988e-01
-2.199019334825446370e-01
-6.524355877164867978e-01
9.048175684575930633e-02
1.879280267760652379e-01
9.069953971947278815e-01
2.945847741710692080e-01
-4.220208023220213822e-01
2.697216439677503907e-01
