-1.006121773947981218e-01
6.025864362074511565e-02
-1.651652788496686675e-01
-7.744452421660384667e-02
2.896267746686613243e-01
2.868652415357976770e-01
7.839457012676609438e-02
-1.979265914571879670e-01
-4.214082064939487782e-01
-1.397489446350726194e-01
-3.334793919906965387e-01
-9.398927738970959400e-02
7.712780489968074082e-02
5.529381759532490115e-01
-5.179097683920061979e-01
-6.294247735818007949e-02
-3.727127358529220835e-01
7.589912986951762031e-02
4.222856955083680863e-01
2.840361417790651100e-01
-4.767712235962160428e-01
-6.222897569399130774e-02
3.316197968116061934e-01
5.415368606764320997e-02
1.411162242571267766e-01
3.906682557959716140e-02
1.664550790012020720e-01
1.877495402430373606e-03
-1.444860244785142744e-01
-4.014044303396265834e-01
-3.758666618852880559e-01
-2.337250090576603601e-01
2.597696007709064392e-01
-6.152771968013478476e-01
1.894147859818106627e-01
-1.258110589752716169e-01
-5.705660746887892820e-01
-2.270431031524588472e-01
-4.541474464501939895e-02
4.985334054382439262e-01
4.133733587775038631e-01
-3.548020341084621165e-01
1.576978583277061086e-01
-2.011570639911001435e-01
1.637067429977439870e-01
-1.027009444141653294e-01
2.908019038117729549e-01
-3.190561315864451908e-01
-3.835319384209325833e-01
-1.058831383746926952e-01
6.363102937754652744e-02
1.463166038771944177e-01
-1.647169242878597228e-01
5.067891048051705732e-02
-3.148621542771058435e-01
-3.271671404191368038e-01
7.136861135337860262e-02
-1.044106955086634286e-01
-6.963923167313567086e-01
-4.364776221911519372e-01
-4.118981271507082820e-01
9.543180485579860761e-02
-3.198235020241933790e-02
-3.092231936784440305e-01
7.828393167034894407e-02
8.967122829966860109e-03
-3.770613962817260245e-01
-2.689339868909091935e-01
1.112299604391532026e-01
1.765505428607417118e-02
-9.011799968606057365e-03
4.269633813529913891e-01
1.880469058024207829e-01
-3.029753496885822517e-01
-8.669947382778164791e-02
-2.313793361370080348e-01
-3.350784721129743127e-01
-1.072853990236458943e-01
1.614744943302413860e-01
-4.669873368396250390e-02
-3.315736953038324608e-01
1.681812786903904844e-01
4.889867428059080368e-03
4.501643018995284962e-01
-3.409750322086041452e-01
-5.365545642840141571e-01
2.148655317792358410e-02
8.574398640419056417e-02
-2.494464105491624728e-01
2.570329501992290044e-01
4.923055955232817915e-01
-3.910542964156586421e-01
3.755212833801029326e-01
3.468612194582918473e-01
4.758547609727085681e-01
-8.453081082182747896e-02
-3.604485023184467729e-01
-3.560214478969828122e-03
6.329672230216322470e-02
-3.843945662791476980e-01
1.357171631006023615e-01
-2.625119778921862768e-01
-3.753392123339590603e-01
-4.010985003294198492e-01
6.496489499437124726e-01
-7.504738815203938762e-02
4.255422678744219533e-01
-9.061001665373938363e-02
-1.868451887060830208e-01
-1.000000000000000000e+00
-4.733591538023828038e-01
-1.289054855021861679e-01
5.688562358434394728e-01
-5.042747454521950834e-01
-1.281468450049723651e-01
7.092613819326569480e-02
-5.925420343601106588e-01
-1.298768912995751090e-01
2.458490386442452047e-01
4.361318103602749852e-01
-2.484304427407786342e-01
-4.712637849836734394e-01
-4.485476284091579613e-01
-1.680087222263015323e-01
-1.195612013593951029e-01
-1.148319471988730467e-01
1.575274696041126798e-01
-4.154684979758890284e-01
1.861187154828067569e-01
-3.686780299128941119e-01
7.457840464261414337e-02
-3.485360621308630780e-01
-1.136199046214995539e-01
-7.895184793764796483e-02
1.779692270859500325e-01
5.584360945743764570e-02
-3.325951009628372868e-01
1.247912069225755455e-01
-6.939440738539065512e-01
3.698915612275112674e-01
-4.481199909270381920e-01
-4.639419105133587018e-01
-3.372763532909424100e-01
1.847290587598590939e-01
-3.560127797751753698e-01
1.364556519973839643e-01
-1.943541192748954871e-01
-2.290864929415888929e-01
5.453526439139995408e-02
-1.674522573780163059e-01
-4.313989755170201112e-01
-1.696862903779377055e-02
2.774818863145965819e-01
1.126626044738829602e-01
-7.223272691027420311e-01
-1.911819744279596167e-01
-2.293757739926726991e-01
-1.497152142547727161e-01
2.532495529911690801e-02
-3.786342282921754676e-01
1.855980218859693692e-02
-4.371064850495532533e-02
4.438939660363393491e-01
-5.652445949380658918e-01
-4.799301354951022308e-03
7.838888123447618206e-02
2.779707467511119967e-01
3.507562133795273929e-01
1.377004811467679168e-01
-5.053359277234606983e-01
4.798856094545447259e-01
-1.238662316131559915e-03
-5.524112878702936991e-01
2.753650461449296816e-01
-4.223464616889213152e-01
-5.720759959801968719e-01
9.041252105340268075e-02
6.332014223003544773e-01
2.266718108790133634e-01
4.357041880460434391e-01
-1.588646127246784445e-01
3.460953854615166081e-02
-7.660090389385337817e-01
2.506873506667114393e-01
2.598407698173008651e-01
-1.514226280077961562e-01
-3.583215924344673176e-01
2.827036254563701223e-01
2.536305342223916237e-01
1.339294356381260376e-01
1.226167826230842861e-01
2.456620601200038556e-01
1.302925054671074390e-01
-4.158394909382465143e-01
5.363206075717900229e-02
3.034071419494130950e-01
-3.170743139949265821e-01
1.559431765638032985e-01
-3.617827963529877677e-01
-1.745741335671487093e-02
3.096214986056617935e-01
2.384339809524644860e-01
3.273260349525054513e-01
5.486942779712631335e-01
3.749366532569549104e-01
-2.106597919671674979e-01
-2.386914934789200748e-01
5.552900081323935977e-01
7.553030226183242435e-02
-4.329389324195354050e-01
-2.132827090825589189e-01
1.758664085849191427e-01
1.533267301144861650e-01
-1.077848460545989262e-01
3.787985753056594684e-01
-5.184371675783409072e-01
1.126108386729161720e-01
-1.635389944036917675e-02
1.739016989246234546e-01
-1.566387035010048390e-01
-5.033144096923760635e-01
1.895463137369736151e-01
6.450268716731046015e-02
-3.201531941476396526e-01
7.292080460457546209e-01
5.514342651403406625e-01
-3.278603582304827624e-01
-5.916901857105519857e-01
2.104239801521679554e-01
-1.835771244405834390e-01
-3.622842595297819102e-03
-3.024861624267835558e-01
-4.753605350544082286e-02
-2.909211444358540399e-01
1.120024394661090217e-01
1.437333973264788567e-01
-4.974123918194603977e-01
3.492779844549731005e-01
1.478937941732461070e-01
1.583209442330941741e-01
3.435559543985796521e-02
-4.083401742514271293e-02
7.737157763996459492e-01
-1.347157798660815753e-01
1.492785238489845456e-01
-1.016264920864858312e-01
-3.241805947220856576e-01
-6.775176652667980193e-02
3.899704529202838166e-01
-3.122392308936728922e-01
-5.312884289413937200e-01
-1.926994482353947685e-02
-5.044299704840252696e-01
1.701426329539532378e-01
2.865000362992717320e-01
-2.135838382811588304e-02
-7.770876904766570170e-02
2.562900542864662845e-01
-3.607305090973375594e-02
-1.207985956162379304e-01
1.246705551331599993e-01
8.622566062231611095e-02
7.538774485921449775e-02
4.746575813079644268e-01
3.721389358335842196e-02
