4.977530224954750809e-02
6.638429293299855094e-02
-3.911594460365607206e-01
-5.135695515799122007e-02
3.236424808092083216e-01
2.721739633861763874e-01
1.818381870448522175e-01
-1.979265914571879670e-01
-4.440863740805037763e-01
-2.029018087395098313e-01
-3.090185117086117761e-01
-7.209993278150889084e-02
2.077469823779579394e-01
4.997821787506983582e-01
-4.655680858287954971e-01
-3.864505974895439400e-04
-3.602279835896234350e-01
7.589912986951762031e-02
-2.943908759794514607e-01
2.956391350804459806e-01
-4.001490511656978222e-01
-2.888948992946018673e-02
3.657354151948058463e-01
-8.058435460562451969e-02
1.195776045560524303e-01
-7.428743041954056353e-03
1.488324622142836728e-01
-9.186662664747030638e-02
-1.498621012585768242e-01
-3.656175505728497810e-01
-3.557689558097488769e-01
-1.234307420237857195e-01
1.916008270059309515e-01
-6.008013289933896717e-01
1.658400465935610801e-01
-1.599136151304688669e-01
-5.633639923346702716e-01
-1.525390221280575886e-01
-1.370857848583584108e-02
5.005798180024563226e-01
4.482091770173441403e-01
-3.548020341084621165e-01
2.131180047216681417e-01
-2.168413566027461714e-01
1.743686524999512044e-01
-1.389222187916408502e-01
-2.810479155974306420e-01
-3.431585498736259288e-01
-3.523529320283342314e-01
-1.058831383746926952e-01
8.464924444143108462e-02
6.630859492270189948e-02
-7.848426402656005774e-02
5.067891048051705732e-02
-3.052768004764687682e-01
-3.878014102508827721e-01
-1.366948540894086760e-02
-1.094452651742323368e-01
-7.657049755446631023e-01
-4.781276266638382344e-01
-4.311524333482278926e-01
6.360924438289641825e-02
-2.767015974549775006e-02
-3.465240660764725700e-01
1.761666984398115587e-01
-2.186869225144470047e-03
-3.624607191214108126e-01
-3.087157167403141167e-01
-1.674228343824908649e-01
8.837786335293060930e-03
-3.725410136433510155e-02
4.086093336145388277e-01
1.719021206295026083e-01
-3.900968329077544872e-01
-1.333380688938562986e-01
-3.129611897001107201e-01
-2.843501926155593829e-01
-1.260005891372580344e-01
-5.047325352368877555e-02
-5.891698430008261711e-02
3.180451018584462552e-01
9.991712499386513902e-02
-1.435741677738978372e-01
4.429238732828126301e-01
-3.593471507822065814e-01
-5.073986487944728285e-01
1.286597572382428001e-01
1.317218884401163137e-01
-2.608501751791346135e-01
3.297908549094468178e-01
5.068472206105398975e-02
-4.234817494570282115e-01
3.326406139165969944e-01
3.759751969519741777e-01
4.833936518768539026e-01
-1.282431897414818001e-01
-2.998811850944934632e-01
3.852005656642114306e-02
1.136021567104949226e-01
-4.054132084440436601e-01
1.184394725663363845e-01
-2.247839843066730958e-01
-3.484185900420891935e-01
-3.657460946735077711e-01
6.329318226777365108e-01
-1.302851607172801629e-01
3.681883641128870788e-01
-4.223256927052934651e-02
-2.482801990579833751e-01
-9.149863975361011148e-01
-4.924275480688763418e-01
3.775165695031745816e-02
4.836678851027506054e-01
-5.325033340227967038e-01
-1.065975616489702044e-01
4.834510715739612913e-02
-5.657985328832922933e-01
-1.907801364136469668e-01
2.586243347678758298e-01
4.361318103602749852e-01
-1.877583643081218445e-01
-5.107931261540087364e-01
-4.202811546708726254e-01
-4.876349141713294533e-02
-1.289723252727719705e-01
-9.402866969757615878e-02
1.575274696041126798e-01
-3.140692236859509157e-01
1.861187154828067569e-01
-3.852080338997628806e-01
1.515415524797008306e-01
-3.921862257313061262e-01
-1.776558215080046299e-01
-5.532298667118328017e-02
6.751414285223353295e-02
1.412847351129480067e-01
-2.591898688843939369e-01
1.366173369685854122e-01
-6.469398870887307362e-01
3.483702934554058772e-01
2.024242972490362946e-01
-4.859584546518168069e-01
-2.276131254403932769e-01
2.234227837581739817e-01
-2.685259090612534538e-01
1.364556519973839643e-01
-2.221749635443867055e-01
-2.018207793429169228e-01
7.936749968043947667e-02
-1.698005542637185949e-01
-4.128826103433042016e-02
1.741853301101875875e-02
3.338605670391511238e-01
1.340892253510743148e-01
-7.108298704298543491e-01
-1.926898576000243835e-01
-3.148271128965074994e-01
-1.721228652234383372e-01
2.532495529911690801e-02
-4.221337944912748052e-01
-5.924030214384153753e-02
7.661453470340359728e-02
4.171024622731591691e-01
-5.519655433142947043e-01
-1.671002104649314257e-01
7.838888123447618206e-02
2.239121280828530458e-01
3.740954752600234579e-01
1.362636168711679752e-02
-5.659390564782076360e-01
4.798856094545447259e-01
-1.238662316131559915e-03
-4.960489307167327833e-01
2.319257029344186649e-01
-4.223464616889213152e-01
-5.519215591084771777e-01
1.468282018156956692e-01
6.612020626961396808e-01
1.591781624511590665e-01
5.316306739620254573e-01
-1.552614414729739656e-01
3.297273561077707082e-02
-7.053890090315676487e-01
3.202639894985285784e-01
2.893998105814797883e-01
-1.090075816084241089e-01
-2.705935634860092698e-01
2.403555316783064777e-01
3.109017955559704172e-01
9.025441499718958593e-02
5.137372545238946125e-02
2.965282302392367453e-01
1.645853655312532471e-01
-3.799278676332036309e-01
4.643642702177468856e-02
2.999199635948606724e-01
-3.049671332793330580e-01
2.478084604890191667e-01
-3.896191609726018523e-01
-6.260884654888068668e-02
3.295522813509416116e-01
2.684101495994056230e-01
2.470967445192255307e-01
1.318945139234156960e-01
1.629235466064863636e-01
-2.106597919671674979e-01
-1.624873671221069293e-01
6.026848864273041118e-01
9.303941957430642007e-02
-4.167634576739109309e-01
-1.743786393505225574e-01
1.758664085849191427e-01
1.947314929134301431e-01
-1.988841028593526516e-01
4.151232550864478732e-01
-5.106104125040776820e-01
1.923466839572662013e-01
-3.615212681199318767e-02
-2.091419775150903659e-01
-7.948460420826564121e-02
-4.557065808031564025e-01
8.587834015919837416e-02
7.157199287552143407e-02
-2.176691296673809173e-01
7.672858482621897069e-01
5.309837223742280843e-01
-2.807050521801529586e-01
-5.892577224041440909e-01
2.565740118129776204e-01
-1.805958917022111865e-01
1.118204217733140965e-02
-4.222763365974586680e-01
1.530683494142019707e-02
5.419555510548750010e-02
-2.443670249685574863e-02
1.680271396136340245e-01
-6.000637145376841453e-01
3.957530151399084040e-01
1.478937941732461070e-01
3.653752210956938418e-02
1.712805937217274505e-02
-4.827622928780696265e-02
7.916321473919369911e-01
-6.149293376708951653e-02
1.360932999596479176e-01
-4.860930922861689263e-02
-3.624449983992486524e-01
-1.094891252392209413e-01
3.899704529202838166e-01
-3.122392308936728922e-01
-5.312884289413937200e-01
-5.631734327861974421e-02
-4.813893772303188823e-01
1.933247699287685972e-01
3.210089268760034642e-01
-8.008388913530541109e-03
-3.077076869638433257e-02
2.894209114976364905e-01
-4.219966106108655191e-02
-3.865431566144900688e-01
9.569490687796350370e-02
-1.793632641610345968e-01
-5.237032721225784448e-02
4.236944788347252189e-01
1.397476926945772496e-02
