3.328170408356359022e-01
2.966629485500223984e-01
1.357559530166052020e-01
2.413042592093964100e-01
-2.579274098272798521e-01
-1.866825760997385120e-01
7.807017669324528564e-02
1.235275137368150589e-01
-1.328489717687901805e-01
1.527118707135743936e-01
1.384901979576478870e-01
1.711629708061380706e-01
4.001006270192111192e-01
1.191317107245991880e-01
-1.594964584334837010e-01
-6.215461508763520104e-02
-2.560391320723524600e-01
-2.897535545003244173e-01
-1.681685608590500203e-01
-2.896438472046455326e-01
1.926822182690376695e-01
6.762683416201844544e-01
-3.382604039310725397e-01
-9.958757841265099275e-02
4.574253810687870514e-01
1.488685697313590350e-01
2.370532686037354897e-01
7.635990267658601671e-02
6.082011905189595169e-02
-2.052247928627659590e-01
-1.745628602556159037e-01
-2.477157881337825607e-01
-1.962668931290467433e-01
2.442207493327308299e-01
5.745477385963708439e-02
-4.092814329832081821e-01
5.784957786862086893e-02
-5.095393928671016620e-02
-9.025218262813486381e-02
-1.353643604603414763e-01
3.212715882029978931e-01
2.752394450633065537e-01
1.832802186180371440e-01
-2.663489646462356419e-01
4.356461209869758044e-01
-1.456335252128807545e-01
1.474893490725527959e-02
1.072640100960499041e-02
-4.989618028329891319e-01
5.576277403736848992e-01
-5.252887447824795830e-03
-6.376659808913872629e-01
-2.332619440875871031e-01
9.159339832937632431e-02
1.825217710305873375e-01
-1.578726323440143020e-01
-4.091818569814686946e-01
-1.084747969998117734e-01
-1.424236236316586968e-01
-1.551442512256576145e-01
4.655063225881050926e-03
-1.585070497144791535e-03
3.129353370864750850e-01
4.803530232545540068e-02
2.289929022551066562e-01
8.249628046380061419e-02
-2.802449293942031461e-01
-1.084210091643745405e-01
4.009400624426826543e-01
-5.111016163817514446e-01
2.084168887668255421e-01
1.945648853018238367e-01
-8.380004680944841411e-01
-5.167275975790235343e-01
3.929849874275098687e-02
-1.997608255234080421e-01
3.381624703990751546e-01
2.439465814442910718e-03
2.678989658510825267e-01
2.965509179162696407e-01
5.246825523388986001e-01
-1.750076919409177256e-01
2.751671204481398458e-01
6.723557881905053990e-03
-2.760058708751745860e-01
-1.127931761231070057e-01
3.889369944158909131e-01
4.122171546309643109e-01
3.268481302876213301e-01
3.011558186175177232e-01
-4.191808651566585331e-01
-9.337974959397948860e-02
2.433504416520417268e-01
-5.016621769508333717e-01
-8.710858536583440670e-02
2.741064402026344160e-04
2.658543698689263407e-02
-2.645317642228194321e-01
4.847960196138517697e-01
-3.292548381368297084e-01
5.221773085183072372e-01
-7.661868435501678620e-01
2.020954635128924815e-01
2.341168719108593088e-01
3.646850384213616847e-01
7.798124453038635107e-02
-3.087360033945063531e-01
9.187878766460064184e-02
8.309455606650638371e-02
-2.138302950796904245e-01
-3.797604517243317601e-01
-3.681930153441067000e-01
-7.115739347579799756e-02
-2.161583090618902636e-01
9.434233793894522546e-02
-7.111789503143764457e-02
-2.495726900934788772e-01
-1.515465711597491216e-01
-1.235417255244349033e-02
2.707874214450982711e-02
5.596609541897696882e-01
5.079147246852946385e-01
-6.721622863651020019e-01
2.927499770591384110e-01
9.922043917340363228e-02
6.934729899432967581e-02
-1.823585419831159071e-01
2.825427007758103404e-01
1.054836304744513065e-01
2.411843163740109430e-01
-8.194381968010749917e-02
-8.557714637659852297e-01
-6.500893078912488299e-02
-1.019335883084250688e-01
1.943480415482208845e-01
-2.053737894886441262e-02
2.549568271971764388e-01
-1.839588547376671546e-01
-6.657682853268252765e-03
-1.170935662872120697e-01
3.051320117644450158e-02
2.634354692787929109e-01
2.214860903690006322e-01
-2.337412146598793761e-01
7.693834930783522985e-01
2.189419401508590490e-01
-2.881536436841825588e-01
9.613154246566393835e-02
2.802837253332473022e-01
-1.559211256646455546e-01
4.137371215448487072e-01
5.258372865184437472e-01
5.582615710005222470e-02
-4.520840257500295667e-02
4.744592301975055215e-01
1.013517277630787972e-01
1.022934012533845555e-01
1.643562561977436332e-01
-5.182254095713260122e-01
-1.199435015153512279e-01
4.108426397824115339e-01
4.765296553698595838e-01
3.110316518172640682e-02
3.875742824008739096e-02
-1.634714847431419094e-02
2.330702868132977224e-01
8.837601659177227176e-03
-4.043210247899758913e-02
-7.332812947604897547e-01
2.350305953941724812e-01
-8.503755098445121841e-02
3.771427417756741951e-01
3.848438301841108911e-01
-3.354106360246461027e-01
2.572603725163795652e-01
3.920955174411256405e-01
-6.746275415045642765e-01
-1.649152438498502349e-02
2.633700315706821171e-01
6.695063386582249948e-03
1.345412749574409483e-01
2.290451043004338438e-01
-2.196358801369258651e-01
1.742504859321675481e-01
-1.093637531481332914e-01
-6.836601327654195925e-02
4.561001008162368087e-01
-1.418152698717054516e-01
-1.709658773963210199e-01
9.526645606943696942e-02
-4.142758068370824276e-01
-3.630081827577401055e-01
2.288422292170103622e-01
-2.082570386095214388e-01
-4.507437578866015926e-01
1.465936304192695661e-01
6.644363430601796239e-01
5.521742512941962833e-01
-2.376530315051544884e-01
-7.911956766922523254e-01
2.770198301136708730e-01
3.045244894298475558e-01
4.663011367618277170e-01
-1.477241246697483246e-02
-5.103588237666128319e-02
-5.056520003790324069e-02
-2.776781809273365376e-01
4.511062069476337588e-01
-5.391861320849318240e-01
-1.279027966526664339e-01
-2.867173219773297768e-02
3.730305210365531532e-01
7.277158143895756659e-02
-1.608536421283022211e-01
3.660782939269786040e-01
-2.197901463597625449e-01
1.977666507584189270e-01
-1.390638367168784140e-01
-4.514182039355857379e-02
4.008636827764462396e-01
3.325866165146666720e-02
-3.972964539181259025e-01
-3.127264313460926815e-01
6.074849117767689988e-01
5.314975119488157818e-02
-2.874718593815686618e-01
-3.030355699573522021e-01
5.935052163607115738e-02
6.331227134399783907e-01
1.537260258926747003e-01
-3.365162591068195375e-01
6.924781898444561934e-01
1.341771301739563826e-01
3.472442100997611414e-01
-5.514677645895080804e-01
-2.313365954944460179e-01
-4.630433798032765336e-01
-9.254062678307994894e-02
-5.379709703816830391e-02
-6.845878336039115664e-02
5.795553027754599129e-03
3.652487112291832178e-02
4.356581909401767705e-01
1.770408927730501847e-01
1.147709339517686000e-01
-5.068210721714622169e-01
-8.771382713977457501e-02
-1.604509635706347914e-01
-7.694227613273217636e-02
-1.734753992776816856e-01
8.593996784050213222e-02
-3.595855042038648142e-01
-1.396325288792307495e-01
5.334701425094950933e-02
-1.022936798858686477e-02
2.202143839775664858e-01
9.647464311830339367e-02
6.115701699599472851e-01
2.388020116357448819e-01
6.834364359124927013e-01
-2.157340111142607153e-01
-2.638319586940479633e-01
1.522361563489592617e-01
2.968240930453019399e-01
5.478210254561973747e-01
