-9.222674990738094492e-02
2.004225409889698606e-01
6.517632899416690717e-02
-1.650066040711967441e-01
2.547044667902794157e-01
5.703268745614455126e-02
-5.272065253350862735e-01
-1.017436033860670830e-01
1.730829096144997081e-01
-1.252148683444318233e-01
-9.619457362502838171e-03
5.052562316260425512e-02
5.799983854390262927e-02
-2.774816215638338246e-01
-1.474067127793070031e-01
-5.369283876644023179e-01
-2.268392736820418476e-01
-3.036890325646020572e-01
-2.277092611201533834e-01
2.525809672036017917e-01
-1.506650672145868897e-01
-2.847295815389581652e-01
-2.307936159231947781e-02
4.061238626882340275e-01
-2.113138767944468255e-01
1.148619912192652692e-01
-3.107513026640876808e-01
5.985383198753815304e-01
8.725164545187517884e-02
-1.845473923589183995e-01
-7.434613821650115639e-01
2.108187970325867133e-01
-3.684792545227013605e-01
-4.525205934184940992e-01
5.535061449022286167e-02
-2.678515300076148020e-01
-5.196240142538190859e-02
1.887618930457415078e-01
-4.142105589650673519e-02
8.567519692682769306e-02
2.265572743282671386e-01
4.656192727238033791e-01
-3.509277731802765699e-01
-7.350353594259944057e-01
-1.313888312667998715e-01
-2.431011945406368058e-01
2.834739410839079987e-01
3.383740212357377319e-01
1.154406826846439971e-01
1.809366573763502781e-02
1.508592631303638589e-05
-2.470366360869884481e-01
9.431532961761958378e-02
5.231913057223588348e-01
2.290368243069983156e-01
-9.917630119932614730e-02
3.475873704028268896e-01
-1.800969224835106963e-01
5.830093665647051449e-01
1.656979486413330885e-02
-1.241816946683275275e-01
-8.830020885034237099e-02
-1.414379512859724186e-01
2.970927993616159432e-02
-2.214161076337316791e-01
-7.987940597646821239e-02
1.649737560041460716e-01
2.810938893765190238e-01
4.360667275224115458e-01
3.951401893981821428e-02
-3.020722696936298940e-02
2.033535969179132985e-01
-5.500774608348296679e-01
3.819462097598499972e-01
-2.615039338882494957e-01
-2.837374014423105911e-02
-2.657963746099425983e-01
-2.769603715422592760e-01
-8.732764972977496987e-02
-1.290319656749054356e-01
4.098031811878790481e-02
-8.235625163133181159e-02
-3.492225801529809104e-01
-4.689559990132540213e-01
6.904830024348068522e-03
3.316487664936860202e-01
6.090079097138215714e-01
2.604908715550264264e-01
-2.428469162823408689e-02
4.576908613655001901e-01
1.485318371866042875e-02
-2.082977618372856277e-01
-2.943355138656674752e-01
9.519459260656834565e-02
-1.981642358309334499e-03
-4.034605083905225542e-01
3.960042781648720478e-02
-1.064995107995817154e-02
-2.009371081772806655e-01
5.615630185703778254e-01
-6.005210475214848298e-01
-1.947513346771768683e-01
7.802050000555525722e-02
-1.112055015469456815e-01
2.378191118649163882e-01
-2.286084507683912026e-01
-6.253812986394072793e-01
3.323700567067629924e-02
-2.005002500604935456e-01
1.438914161007143200e-02
4.062494886695105188e-03
-2.752000754107390423e-01
-2.683076080113929174e-01
3.003532394502210212e-01
1.470484432225491744e-01
-3.848711706965205620e-02
-1.466347930761978946e-01
2.398882303041043329e-01
7.121094392611959645e-02
-3.056036312290380530e-01
5.010120140444285219e-01
1.815470484783288097e-01
-2.553149842664741431e-01
1.614415431948715007e-01
3.093211456688361172e-01
-9.578194508108085758e-02
2.720745164986130837e-01
-4.147652849105229467e-01
-2.233067306757523518e-01
-8.473583261598018057e-02
1.727490608430119201e-01
9.204020052776902550e-02
1.425476607684517246e-03
5.280925091176267294e-01
-1.838306790717647299e-01
1.625897979962773465e-01
-1.228461932776743135e-03
4.704228352477220487e-01
4.585872598207421103e-01
-1.733512032363190014e-01
-2.153281500797258122e-02
2.717096479950164012e-01
-5.519795240629979394e-02
3.824782899246018109e-02
4.306224771687970354e-01
-1.060055014035354015e-01
-1.710775549838469689e-01
-5.316730972702139041e-02
-2.125225967253003834e-01
-1.254633969517805481e-01
-1.856291189008413001e-01
-2.815808500727496333e-01
-2.219288459392236013e-01
2.083082109355321176e-01
3.245590371207180969e-01
-1.008538141986270627e-02
-4.520250195375071223e-01
-6.069541567584590958e-01
4.660824860060446273e-01
2.233351152677076901e-01
1.062944656761415363e-01
2.726430087991187357e-01
2.140180270683602337e-01
3.368437874744668187e-02
-8.327208536512250214e-04
-1.121204619343465353e-01
-3.853059214610351502e-01
1.150078145027435966e-01
4.480374061312918932e-01
-1.352943866403022721e-01
6.300281797637702352e-01
1.631408791949803261e-01
-2.745795682643981661e-01
9.983998895432180665e-02
2.459698501655471249e-03
-4.545153949732355647e-01
5.876390631420777555e-02
3.291655681120505550e-01
-1.921611007343101696e-01
1.430010064993458320e-02
-4.827003196662998236e-02
-2.413452269272264514e-02
4.634203865060838590e-01
3.450966234824670020e-01
1.758307765838213188e-01
-3.585508353482864674e-01
1.415240529194172481e-01
1.402363596956404390e-01
8.200328134529309976e-01
1.654152358632374753e-01
2.329585033209673750e-01
-7.033018457212161789e-02
9.529131544877686433e-02
-3.838179634492566161e-01
-4.300358296263184776e-02
-6.009437711597711562e-01
-3.510669787765816618e-01
-2.295673220257623548e-01
3.862810067826598359e-02
-1.146858499974717227e-01
-4.951084855950353691e-02
-1.986055953358487336e-01
1.565616046665349315e-01
-1.282949498740082461e-01
-7.440897847667462539e-01
3.965453036875790649e-01
6.209077924525846504e-01
1.344727902319007851e-01
4.856334349725625193e-02
-5.171031343572010108e-01
-2.011187206291882301e-01
-2.236172187952065182e-01
4.419266307417567957e-02
1.468359449895342839e-01
-4.985674579918842331e-01
-2.629835050245576400e-01
-1.582443628934312174e-01
9.713074757787097668e-02
3.029682706313571727e-02
6.943100166231411241e-02
-4.457164391073769050e-01
-5.395227922806856702e-01
-2.090566641500875844e-01
1.722762135461357591e-01
1.163240032730728651e-02
4.678680071124211026e-01
-1.758939202757131837e-01
-2.577193803411199635e-01
-4.535785613527382187e-01
2.855277397929749661e-01
-4.905429327669337258e-01
-1.510317159566834377e-01
3.203747896379472437e-01
-2.066748279540733813e-02
8.275470776719813515e-02
-1.713907790183366864e-01
-1.453123723830949954e-01
1.566000727568284956e-01
-2.303759559390492206e-01
1.936041840692411253e-01
-1.484635401100540923e-02
-5.139723361566019832e-01
-9.868354927874972357e-03
-4.850650973747568095e-02
2.666436528329106936e-01
-2.463085852756630167e-01
-1.222930334233620665e-02
3.262806020987550903e-01
-2.454740042156855206e-01
1.741188981661555280e-02
1.315487309814221129e-01
1.529304065356114906e-01
3.421736687129456334e-01
2.452911709714189481e-01
4.536388209493963375e-01
8.755751419631228882e-02
1.730672549286405293e-01
1.454465879499706182e-01
2.209301755733817166e-02
-7.092711138339456711e-02
7.320622028479180365e-02
1.462723964887757688e-01
1.344096470947632738e-01
5.576730376589168481e-01
-4.574777300119445972e-02
