-8.959941708590875298e-02
-3.352813421869275667e-01
3.272647670505610118e-02
-7.425309479072761398e-02
3.304236572994716931e-02
1.000427467965028933e-01
-4.763519730989526080e-01
-9.124872399007565027e-02
1.730829096144997081e-01
-2.333105119961539908e-01
-4.435988524765041574e-02
6.437611317281057011e-02
2.838436700261866286e-02
-2.650587202923121999e-01
-1.984077480861864695e-01
-4.520989891559505369e-01
-2.441130894488314496e-01
-3.105465417937524619e-01
1.817920803028716670e-01
3.200607585886509066e-01
-2.426918340021721465e-01
-2.972438781151970910e-01
7.739888622250334915e-03
4.595162656273414914e-01
2.909092159612931550e-01
4.516228125094451373e-02
-2.668361628323064894e-01
6.381018809808562953e-01
5.903671640129123932e-02
-1.514395630199807941e-01
-8.394482619940881740e-01
1.445254057859948205e-01
1.126494618688669846e-01
-3.600292266499658389e-01
7.555878390273071399e-02
-2.398528838451619016e-01
-5.726232117591997794e-02
2.362463670664943782e-01
-4.715896051095640890e-02
-4.183461562827514579e-01
2.237849959619911400e-01
4.636179012118041287e-01
-3.528402623097983692e-01
-7.037119539857883410e-01
-9.337934881447181035e-02
-2.505485282694274174e-01
2.933506440421346229e-01
3.428162574250969152e-01
1.383938961580779559e-01
5.881414310530583625e-03
5.881767491927691882e-02
3.951012695035228672e-01
2.749322765297562698e-01
5.187202253123209816e-01
1.690664760566242264e-01
-8.033096648589937994e-02
4.305390315821837621e-01
-2.032630047151544050e-01
-7.010038224933359818e-02
-8.803443491062608317e-02
-1.241816946683275275e-01
-9.340911941990770462e-02
-1.525404085313072089e-01
1.013479430232803666e-02
-2.116847140114693215e-01
-9.777440502192996652e-02
1.242195579235915170e-01
3.540025982822998518e-01
4.115895900188635825e-01
8.307716536075217262e-02
5.317623197737745416e-02
1.889110408444473199e-01
-5.439116055263377714e-01
4.093437184131092366e-01
-2.900254262352982559e-01
4.690956587038496578e-02
-2.657963746099425983e-01
4.846478723369407327e-01
-1.914731187126144929e-01
-1.763369727239940676e-01
3.595377452267653484e-02
-1.669746108704835974e-01
9.766904487100275256e-02
-4.287935373367645076e-01
4.022343505191668805e-02
3.106650290831144412e-01
-4.498829210394976741e-01
4.307979812993329438e-01
-2.897746934421648393e-02
1.410811833271780336e-01
2.275749323721514700e-02
-1.577978594427236481e-01
-3.268546253046468730e-01
1.718569862829459338e-01
-6.057775163122724321e-02
-4.904095396258175144e-01
3.960042781648720478e-02
-3.095113819802711164e-01
-1.666390180767865770e-01
5.978036163033525474e-01
-6.395673188478856463e-01
-1.696792476787641890e-01
6.933080166929385391e-02
-8.821831543294623990e-02
-1.998527263413987509e-01
-2.685106375835860648e-01
-6.699314544019929762e-01
-1.927208601922252712e-02
-2.949412730016212625e-01
-3.600409676604877929e-02
4.062494886695105188e-03
-3.883598918127367794e-01
-3.687972403524672482e-01
2.658478331937542127e-01
6.420835424063731089e-02
-1.020789508982542643e-01
-1.757654218466146445e-01
2.357428589806052077e-01
1.566184927920990372e-02
-2.510959801859162233e-01
4.765460599785682483e-01
1.815470484783288097e-01
-2.322797585426769340e-01
1.320284338809813163e-01
2.814745930009136532e-01
-1.533021830995094370e-01
5.248833965366487275e-01
-4.122578033719055957e-01
-2.030399276019835830e-01
-6.775924571365275761e-02
2.064805219829954908e-01
9.204020052776902550e-02
4.433310175736063924e-02
4.872494071278279382e-01
-1.153095971847343387e-01
-3.432518873307988105e-02
-1.352626842826912604e-02
4.105428347732130723e-01
4.571077428045058899e-01
-1.293769226833542674e-01
-5.283812843600090015e-02
8.556968344319938746e-02
-4.016578902898121362e-02
-1.104645969720945142e-02
4.599755379784770115e-01
-1.017339346840145237e-01
-1.456938775407488618e-01
-7.982764813486895039e-02
-1.941755012041413986e-01
-9.106492032981682028e-02
-1.703397004011703297e-01
-1.901497630014171714e-01
-2.454640836057024322e-01
5.722012293731032484e-01
2.739955969402528835e-01
-4.398772319868870379e-02
-4.892072102574570591e-01
-5.992730338659523204e-01
4.560950463762138418e-01
2.674103906633564787e-01
7.248203434433383996e-02
4.005832741227970395e-01
3.727962380585370106e-01
-1.735172843880793125e-02
1.000407206267707877e-01
-1.334577712852137443e-01
-4.062855666357051421e-01
1.430496157373491728e-01
8.634951809530101718e-02
-9.954250970833662671e-02
6.292411114706047970e-01
1.169456617255476283e-01
-2.745795682643981661e-01
1.694099128988148795e-01
-2.541100243273736875e-02
-2.486156320011776999e-01
-5.303358644749353590e-02
2.367485712022542599e-01
-2.368969608068963173e-01
-7.781832368558910806e-02
-1.106372842689199443e-01
-4.702058843339503025e-02
4.408361869508008457e-01
3.450966234824670020e-01
1.216231041401105994e-01
-3.038563331142715152e-01
1.415240529194172481e-01
1.888534649455844983e-01
8.200328134529309976e-01
-4.470379135788866143e-01
2.526318560333140617e-01
-1.524452339390076072e-01
1.625211453293579633e-01
2.136536624290714947e-02
-1.447762549613855754e-01
-5.688004260538891410e-01
-4.138528988210568027e-01
-2.295673220257623548e-01
1.400879106868525015e-01
-1.826882865721445315e-01
-1.098513292007550907e-01
-1.870365484079962171e-01
-1.244613407347753414e-01
-7.610729066760069106e-02
-7.440897847667462539e-01
3.935083048370554559e-01
6.096494698094779841e-01
2.129793575547460072e-01
1.348219789219522458e-01
-4.968093635671785302e-01
-2.964760804455553456e-01
-2.508571738859048383e-01
8.761426915944292571e-02
1.036290735567832882e-01
-5.236926372762459314e-01
-2.629835050245576400e-01
-1.871702575254806933e-01
8.745540349736995178e-02
2.497402906665384392e-02
5.731091254552698327e-02
-4.457164391073769050e-01
-5.697390734925700251e-01
-2.564750736734128234e-01
1.904541861146260284e-01
1.621870620158000209e-01
5.240233290001058419e-01
1.659125854908121145e-01
-2.881020541613433239e-01
-4.205571961062204434e-01
1.951723175365890628e-01
-4.512898986726673334e-01
-1.510317159566834377e-01
2.142036634446898846e-01
-8.351531150227171907e-02
9.983078307570888987e-02
4.444082014802078207e-02
-1.828434691858306649e-01
7.240805131414586315e-02
-3.161061937790601295e-01
1.811810410783278313e-01
-1.484635401100540923e-02
-4.640644022959302117e-01
-1.996886394627389247e-02
-6.701396509586801664e-02
2.429375415501096591e-01
-2.479693424798928292e-01
-1.077664731753141120e-01
3.052054258499619088e-01
-2.126476064944100852e-01
-2.979958350070470441e-02
1.974087351192895801e-01
1.499809904572360353e-01
4.168934715595268292e-01
2.093756444571838460e-01
4.536388209493963375e-01
1.288259135388114818e-01
1.517240649283908283e-01
1.058722638717241038e-01
1.063343340400676323e-02
-4.546851464772352913e-02
5.930914093970184736e-02
1.462723964887757688e-01
1.955055651672926997e-01
5.138509399445922998e-01
-3.758118733414756579e-02
