-9.222674990738094492e-02
6.771083225466653643e-02
3.113670422523844711e-02
-1.650066040711967441e-01
3.011838288687598286e-01
1.060317649322391337e-01
-5.609277162952585050e-01
-1.480209401688788728e-01
1.730829096144997081e-01
-1.694311170140363754e-01
-2.015154723282380073e-02
-1.919717948006030572e-02
7.692108964798663462e-02
-3.228767439971253483e-01
1.119822622415593827e-01
-5.575444188278780855e-01
-2.857413830589048964e-01
-3.383429706827674188e-01
-2.611848761042745437e-01
2.832931526708272196e-01
-1.296124436537011426e-01
-3.446925996466358444e-01
-4.458391542039628896e-02
4.462180262578697154e-01
-2.085676179788802098e-01
7.185741023203603972e-02
-3.991899278681117491e-01
-5.622955810560120032e-02
8.725164545187517884e-02
-2.806227841429853598e-01
-5.250458108374218558e-01
3.029661784932002333e-01
-3.728929393775360923e-01
-4.292017114454889648e-01
3.001993358689125646e-01
-2.418389001258661464e-01
-5.196240142538190859e-02
1.802033843974336080e-01
-3.568051782215196366e-01
8.454284530789366037e-02
1.605778471608871882e-01
-1.334659252512732930e-01
-2.800516247341823250e-01
-7.218517476818329115e-01
-1.313888312667998715e-01
-2.251159886966929424e-01
-1.528604215000818785e-02
4.153462287852152657e-01
1.975884968782130879e-01
-1.134983588906251020e-02
5.519922566108016737e-02
-2.470366360869884481e-01
4.646463196444378108e-03
5.542583081114768606e-02
2.964088885866271728e-01
2.549895047259181924e-01
3.622029996349434011e-01
-1.724361638873176117e-01
5.830093665647051449e-01
3.889322558381178019e-02
-1.613634187945873488e-01
-1.138075348873655163e-01
-1.647555431671873516e-01
-5.050739114947241232e-03
-3.045532454469878636e-01
-2.977020986523570834e-02
1.376377083961187742e-01
2.365072052512685041e-01
4.697270398529218016e-01
-1.036690474277519869e-02
-1.449118000356286462e-02
1.836801658774538937e-01
-5.303600619646778869e-01
4.231980661224612472e-01
-2.314743053345725832e-01
-2.542191093838254701e-01
-1.679901130648886742e-01
-2.889162734846602021e-01
-1.172624240497265879e-01
-1.500116259718722311e-01
5.810963077934185039e-02
-7.139448145676635660e-02
-4.345559993262232412e-01
-4.426848167385075694e-01
-6.197279966458353606e-02
3.531017648322408164e-01
5.565730243093102159e-01
2.604908715550264264e-01
-3.877089599286334676e-02
4.052279142668162581e-01
2.106962543387184972e-01
-3.280355304718489684e-01
-3.136229213402725313e-01
1.117952415442489550e-01
-2.997972238462241409e-02
-1.286866967182464794e-01
-5.669462998178012580e-04
-4.929217025008454656e-02
-2.327696845187561536e-01
5.707774868621211528e-01
2.790718763353816079e-01
-1.868931996824413633e-01
8.884787563614934824e-02
-2.097540680593556472e-01
1.648018173325941360e-01
-2.286084507683912026e-01
-5.766326786043275421e-01
-5.746900693315912939e-02
-2.391381155489115118e-01
1.438914161007143200e-02
-7.077755610205000991e-01
-2.752000754107390423e-01
-3.011406018831460085e-01
3.003532394502210212e-01
8.227082263949420105e-02
-1.206353784089682080e-01
-6.823901565886539289e-02
1.485455170378618961e-01
3.315603185299120792e-02
-3.423168197791211509e-01
-3.859938604704153953e-01
1.815470484783288097e-01
-2.815145460863783811e-01
8.042417589515835075e-02
2.735365440125993031e-01
-1.839828383643835608e-01
2.720745164986130837e-01
-3.278749444004656621e-01
-2.233067306757523518e-01
-4.271907932305847588e-02
2.743159179016539939e-01
4.442457363828473949e-02
1.342411865664350917e-02
5.441633195355265462e-01
-1.911165689884521957e-01
1.572650050115021181e-01
-1.075871871552397212e-02
4.095996737685866917e-01
5.219440256338025996e-01
-1.868480667432696196e-01
2.685076914777397364e-02
2.109006738779994894e-01
-4.513486358987371661e-02
-2.522481365357563676e-02
4.924645681293161603e-01
-1.439809443967640656e-01
-2.029809123562759665e-01
-3.954150715360232882e-02
3.213469509448551586e-01
-1.213423888020957325e-01
2.988603516037716679e-01
-3.614306699084325336e-01
-1.415608146016152924e-01
1.951519859458953898e-01
3.349659151487519027e-01
1.344261055036024589e-02
-4.520250195375071223e-01
-6.069541567584590958e-01
-1.905489468626443694e-01
2.922377779044256219e-01
1.488904365802451724e-01
2.782818744708370207e-01
-2.814638922012553321e-02
-6.412319614946163093e-02
-3.788422991102433773e-02
-1.461704347699989137e-01
2.797055705202853293e-01
6.084427305721522988e-02
4.077349244977130360e-01
-1.817509442830423372e-01
6.250523637293053936e-01
1.830308989798072883e-01
-3.073954859830933528e-01
1.769844867120459186e-01
3.322747901487472372e-02
-5.508985288371469613e-01
2.956551091856918778e-01
3.997802580075445200e-01
-1.921611007343101696e-01
1.813445750551549371e-02
-1.441808031744218066e-01
-6.029007624871972337e-02
5.110146239681377933e-01
3.597371574964551288e-01
1.048268145118479294e-01
-3.716867770791618120e-01
2.105887490413164143e-01
1.364727993097019643e-01
8.200328134529309976e-01
1.541111626922493372e-01
2.477062385395370769e-01
-5.011255601705669194e-02
5.382658348519542280e-02
-3.988511708617858975e-01
5.280053349061653023e-02
-5.684150163849813753e-01
-3.451683735633494510e-01
-2.180462567955811226e-01
7.202238083386046374e-02
-1.507394668667673687e-01
-4.951084855950353691e-02
-1.592414823386797129e-01
9.015937455061523442e-02
-1.613875490673557234e-01
-7.484650401018840826e-01
3.812014413529899448e-01
5.872851228080989694e-01
1.532637253883009643e-01
-3.266231414361894098e-02
-5.171031343572010108e-01
-1.184089865372900396e-01
-2.236172187952065182e-01
3.007209230521441790e-02
5.753361520794925132e-02
-5.614222203924298382e-01
-2.866793157770538003e-01
-1.694758337550686389e-01
4.350928683724668289e-02
-1.930345741396775200e-02
9.269861189449629668e-02
-3.856586376345959577e-01
-5.528304752433851332e-01
-1.758635419494618546e-01
1.908509902853341156e-01
-2.064566535482405957e-02
4.799095840834153304e-01
1.017163979681734304e-01
-2.454149904899938506e-01
-4.968635989182194068e-01
2.488112631976356626e-01
-5.494501076917966964e-01
-1.510317159566834377e-01
-2.379649036779182547e-01
-2.066748279540733813e-02
9.018467544539707226e-02
-1.501263009365316203e-01
-1.453123723830949954e-01
1.799179804012743522e-01
-2.143619697578134364e-01
1.915021981874218959e-01
3.003294622728463342e-02
-4.728013565382127581e-01
-4.363010826196935671e-02
-3.515680593590284758e-02
3.336231788996317782e-01
-3.118144076795902331e-01
-9.226371588560725034e-02
2.390973106820944993e-01
-3.824546822534255486e-01
1.741188981661555280e-02
1.222312799045199710e-01
1.721198304019816439e-01
3.430056606435044619e-01
2.728991262601554446e-01
3.533542165625862541e-01
1.262781762478235037e-01
1.730672549286405293e-01
1.583061878903973263e-01
6.098944793537973419e-03
2.304968484667794526e-01
7.734726963708914160e-02
2.352366062835472560e-01
1.700965178255096077e-01
5.441694169201679587e-01
-2.597277626369122808e-02
