2.922938758135654735e-01
2.341522208403156169e-01
-2.099348093033598719e-02
-6.929639864183372022e-02
-1.273013689797854175e-02
1.064082284079074930e-01
-4.705771096463228220e-01
-1.017436033860670830e-01
1.373902656336455086e-01
-1.165230352371697808e-01
2.851022586200248343e-02
1.199338927721377568e-01
-2.208324643850353985e-02
-2.382776511427520116e-01
2.026440467051851824e-01
-5.064456366057196179e-01
-2.249008180219310982e-01
-3.463592825331852088e-01
-2.019530806899080821e-01
3.133009690722408647e-01
-9.865642334693464077e-02
-2.774837034300263738e-01
4.303920025265416949e-01
3.854619360840989550e-01
-2.039415548219871144e-01
1.836050063040595148e-01
-3.374811818273310005e-01
5.985383198753815304e-01
6.714157262180303620e-02
-2.215735560108101354e-01
-7.434613821650115639e-01
2.279559851774544676e-01
-3.618553706562577243e-01
3.065628320010858610e-01
-2.586915705752945022e-02
-2.678515300076148020e-01
7.464438795315234132e-03
1.858507732361915910e-01
6.317156521325911767e-02
-5.670253573090463378e-02
3.343254795468809659e-01
4.656192727238033791e-01
-3.091294950619700721e-01
-6.853269773683896560e-01
-1.141685110835555239e-01
-2.023839787104528554e-01
1.635747828162649742e-01
3.618738966955735714e-01
-2.445028205014644351e-01
-1.637388207267833143e-02
-4.369409071616686679e-01
-2.403144075127122692e-01
-1.279093203126537015e-01
5.531890809653216001e-01
1.857950366481030402e-01
-3.620211117549752833e-02
3.595042924908694593e-01
-1.800969224835106963e-01
6.955558657570511949e-01
-4.842978246966286870e-02
-1.991049007490564571e-01
-1.661032292740165783e-01
-1.325919414833897081e-01
8.599641843393564938e-03
-1.778238262311812590e-01
-1.749831027798453287e-01
1.501121096711058867e-01
2.822739043504663980e-01
4.361993946428266433e-01
3.035176480407536515e-02
-9.878130466418547084e-02
2.382664166444254383e-01
-4.812890829075495702e-01
3.359588997109905772e-01
-2.096678323972184510e-01
4.342537731531889017e-02
-2.150185442491733268e-01
-9.853938288104417687e-02
4.735232260540137017e-03
-1.846123719512761108e-01
-1.003298047456193665e-01
-1.407668532995679789e-01
-3.432230435752010589e-01
-4.432512874121070645e-01
-4.646392989670359436e-02
2.844827384734779918e-01
6.485914542981228159e-01
3.229516170357504823e-01
-2.487954612981249647e-01
1.594603371929535218e-01
3.149686333546732053e-02
-2.290395347052602004e-01
-3.220584749423552884e-01
9.700461253715797483e-02
2.382244669913793217e-02
-4.034605083905225542e-01
-8.709657637072633352e-03
-2.987437214693082488e-02
-1.509627126875853764e-01
4.733232429321383439e-01
-6.155438735809205530e-01
-1.041142218142185050e-01
7.886195748475051392e-02
-1.492932800915623415e-01
2.378191118649163882e-01
-2.407543146068015782e-01
-6.495189747665188751e-01
5.403427495924884028e-02
3.163789416154880185e-01
9.081328528825528823e-02
-4.928683842939685783e-02
-2.478599422429647037e-01
-2.683076080113929174e-01
4.187090059555297894e-01
3.457964145881497475e-01
1.373371733884291152e-02
-1.052467207310260056e-01
2.645185369270567910e-01
1.337912978817054066e-01
-4.344984262705524070e-01
-9.692611618133711859e-02
-9.172371146931141209e-03
-2.689797679370427019e-01
2.039182064422362661e-01
4.191636978422076387e-01
-1.195633088646606557e-01
2.443838861347299440e-01
-3.918284517932353328e-01
-2.376498634783941744e-01
1.398922361224442523e-01
2.248365997741004763e-01
8.118223962494997004e-02
1.425476607684517246e-03
-1.771110749262196360e-01
-1.640493098098564917e-01
1.625897979962773465e-01
7.825983643978970394e-02
5.027043526258022643e-01
-4.660256759900808232e-01
-1.971196845385842777e-01
-2.146121984493049376e-02
2.226145813796183148e-01
-2.659205083423328564e-02
1.580449094426963630e-01
4.111934362617690741e-01
-1.060055014035354015e-01
-1.042969381812347690e-01
-2.541152100869657413e-02
-2.447943893528008452e-01
-1.254633969517805481e-01
-1.856291189008413001e-01
-3.458520063927004728e-01
-2.466889859720149125e-01
2.083082109355321176e-01
2.757929703629906082e-01
1.175858353622250517e-02
-4.131200566749674841e-01
-5.770359413975606477e-01
4.448348321118130722e-01
3.080588465116575470e-01
1.062944656761415363e-01
2.915778469673697693e-01
1.658589386253689346e-01
5.732138125076306767e-02
-4.108458984129193525e-01
-1.350634336519966894e-01
-4.387438818167562760e-01
1.005748234954106229e-01
4.154434117237113533e-01
-1.508459380289412788e-01
5.814157265279146225e-01
9.613583672396293356e-02
-2.411487525899600193e-01
9.983998895432180665e-02
4.901785396328768585e-02
-3.841699959880911508e-01
5.304481998677048477e-02
3.291655681120505550e-01
-1.468807080442998680e-01
-1.602803087870443427e-02
7.036937829136832856e-02
-1.752261948529116320e-01
6.701595944282956463e-02
2.781828249194747138e-01
2.334959291296505035e-01
-3.589893906788355626e-01
1.062323613399129285e-01
1.596204223517379561e-01
8.200478346810490260e-01
1.498258572166842884e-01
2.214375729125032111e-01
-5.586936693712312579e-02
-2.177576734534775460e-01
-4.441688939984402840e-01
6.701868095183415031e-02
-5.895509041427353658e-01
-4.158996075371834689e-01
-3.210930465811461243e-01
-5.493525599890788924e-03
-1.146858499974717227e-01
-8.088590048633415019e-02
-1.748715071746578253e-01
2.175537108245314544e-01
-8.856062075465778727e-02
-7.995004357577304432e-01
3.593785871685734601e-01
7.598273323769872967e-01
1.553371994541534185e-01
9.232389801241394633e-02
-5.587948438622694081e-01
-2.011689578801665046e-01
-2.258854637324913539e-01
4.432915942022569999e-01
2.067985253718730709e-01
-5.479398933773607094e-01
-2.218556215455897429e-01
-1.788987527335548777e-01
6.813368782452007555e-02
-1.919641378745368110e-02
7.525560177055935773e-02
-4.703878750552948906e-01
-5.641761232063168263e-01
-2.280346167264348800e-01
1.373501947671203760e-01
3.557377508583935144e-02
-4.378910210579625706e-02
-2.153530393136885435e-01
-2.577193803411199635e-01
-4.208140842216238076e-01
2.673415124433252132e-01
-4.418636944136181133e-01
-1.463437867295568073e-01
2.617795197398260498e-01
-4.655763477541897954e-02
8.275470776719813515e-02
1.000000000000000000e+00
-1.310766661614586048e-01
1.860909487069504209e-01
-2.448598201920128281e-01
1.825619273556829958e-01
-1.484635401100540923e-02
-5.261340152292713901e-01
-6.429858084204918833e-02
2.821349916345843034e-02
2.205990018310529377e-01
-3.256963396340419870e-01
-1.009882140731545863e-01
2.791834851524511718e-01
-2.227387263151641150e-01
5.767864838309512410e-02
1.807256874076885733e-01
1.285850361723687441e-01
2.666166148245325829e-01
2.302191358500587648e-01
1.647839685483404037e-01
8.118821483072374834e-02
8.259523531255261175e-02
1.736236215008636341e-01
-2.466263438432482469e-01
5.334926860253128567e-01
-2.091515668977805831e-03
1.218932395188236928e-01
7.793532778210143785e-02
5.576730376589168481e-01
-4.967741919230771880e-02
